tree
version=v4
num_class=6
num_tree_per_iteration=6
label_index=0
max_feature_idx=48
objective=multiclass num_class:6
feature_names=Column_0 Column_1 Column_2 Column_3 Column_4 Column_5 Column_6 Column_7 Column_8 Column_9 Column_10 Column_11 Column_12 Column_13 Column_14 Column_15 Column_16 Column_17 Column_18 Column_19 Column_20 Column_21 Column_22 Column_23 Column_24 Column_25 Column_26 Column_27 Column_28 Column_29 Column_30 Column_31 Column_32 Column_33 Column_34 Column_35 Column_36 Column_37 Column_38 Column_39 Column_40 Column_41 Column_42 Column_43 Column_44 Column_45 Column_46 Column_47 Column_48
feature_infos=[0:1] [0:1] [0:1] [0:1] [0:1] [0:1] none [0:1] none [0:1] [0:1] none [0:1] [0:1] [0:1] [0:1] [0:1] [0:1] none none none none [0:1] none none [0:1] none none none none none [0:1] none [0:1] none [0:1] none none [0:1] none [0:1] [0:1] [0:1] [-1.6354518277569989:1.9388042497198423] [-1.6733098479531416:1.7195113030927685] [-1.4038725330980597:1.48091309145128] [-1.3440356134253817:1.4736175223430754] [-1.2490765673495612:3.828691217310606] [-2.3591123870126185:1.9674418891338159]
tree_sizes=453 661 747 958 966 660 1882 2002 1969 1972 1967 1655 1883 1996 1971 2078 1963 1651 1773 1990 1964 1849 1955 1767 1772 2095 1967 1855 1856 1766

Tree=0
num_leaves=3
num_cat=0
split_feature=44 13
split_gain=185.64 3.55271e-15
threshold=-1.4848197840061459 1.0000000180025095e-35
decision_type=2 2
left_child=-1 -2
right_child=1 -3
leaf_value=-1.9997520873449566 -2.5093958751673386 -2.5093958751673386
leaf_weight=1.9621548056602502 10.184517800807953 9.810774028301239
leaf_count=21 109 105
internal_value=-2.46385 -2.5094
internal_weight=0 19.9953
internal_count=235 214
is_linear=0
shrinkage=1


Tree=1
num_leaves=5
num_cat=0
split_feature=48 48 2 3
split_gain=106.898 77.7738 1.77636e-15 1.77636e-15
threshold=-1.1847619406300147 -1.8337450820519801 1.0000000180025095e-35 1.0000000180025095e-35
decision_type=2 2 2 2
left_child=1 -1 3 -2
right_child=2 -3 -4 -5
leaf_value=-2.6143366468568914 -2.6143366468568918 -2.0562377336911002 -2.6143366468568918 -2.6143366468568918
leaf_weight=1.0184952020645144 12.731190025806425 1.6126174032688165 1.7823666036129004 2.8008618056774148
leaf_count=12 150 19 21 33
internal_value=-2.56921 -2.27228 -2.61434 -2.61434
internal_weight=0 2.63111 17.3144 15.5321
internal_count=235 31 204 183
is_linear=0
shrinkage=1


Tree=2
num_leaves=6
num_cat=0
split_feature=44 47 46 43 0
split_gain=97.087 79.0351 3.02598 3.21995 3.55271e-15
threshold=-0.85651957084949604 1.7734042568529198 0.62832158161253837 -0.42481670474064953 1.0000000180025095e-35
decision_type=2 2 2 2 2
left_child=1 -1 4 -4 -2
right_child=2 -3 3 -5 -6
leaf_value=-1.3679352800554661 -1.620408585940688 -1.620408585940688 -1.620408585940688 -1.5362508173122806 -1.620408585940688
leaf_weight=8.911833241581915 12.674607276916504 4.7529777288436881 2.1784481257200241 2.3764888644218436 15.64521835744381
leaf_count=45 64 24 11 12 79
internal_value=-1.56777 -1.45575 -1.61432 -1.5765 -1.62041
internal_weight=0 13.6648 32.8748 4.55494 28.3198
internal_count=235 69 166 23 143
is_linear=0
shrinkage=1


Tree=3
num_leaves=8
num_cat=0
split_feature=35 22 48 48 9 45 43
split_gain=58.785 55.6117 3.92137 13.3223 22.9381 2.81475 0.00916606
threshold=1.0000000180025095e-35 1.0000000180025095e-35 -0.25764316717006458 -0.90662630859202975 1.0000000180025095e-35 -0.87499516859734705 -1.3472053698959632
decision_type=2 2 2 2 2 2 2
left_child=1 2 3 5 -5 -1 -3
right_child=-2 6 -4 4 -6 -7 -8
leaf_value=-1.6827518751947192 -1.4180818101031587 -1.4710158231214709 -1.6827518751947192 -1.4621934876184191 -1.6827518751947192 -1.6260368612465277 -1.4662036401198062
leaf_weight=12.65726801753044 3.0226311683654776 1.8891444802284243 17.380129218101501 2.2669733762741116 2.4558878242969513 2.6448022723197928 2.0780589282512656
leaf_count=67 16 10 92 12 13 14 11
internal_value=-1.63094 -1.6465 -1.66537 -1.65029 -1.57688 -1.67295 -1.4685
internal_weight=0 41.3723 37.4051 20.0249 4.72286 15.3021 3.9672
internal_count=235 219 198 106 25 81 21
is_linear=0
shrinkage=1


Tree=4
num_leaves=8
num_cat=0
split_feature=45 43 3 2 14 4 43
split_gain=60.3847 63.7041 59.0547 0.804232 0.356135 1.42109e-14 3.55271e-15
threshold=-0.20184861318246741 0.49757196041466434 1.0000000180025095e-35 1.0000000180025095e-35 1.0000000180025095e-35 1.0000000180025095e-35 -0.88601103731830644
decision_type=2 2 2 2 2 2 2
left_child=4 2 3 5 6 -2 -1
right_child=1 -3 -4 -5 -6 -7 -8
leaf_value=-1.4049855978379342 -1.1881925240141689 -1.4049855978379342 -1.4049855978379342 -1.2152916582421394 -1.3852771365812282 -1.1881925240141689 -1.4049855978379342
leaf_weight=7.841578930616385 6.2271362096071297 9.225386977195738 4.3820588141679755 3.690154790878295 2.5369814187288275 4.3820588141679764 15.913792535662649
leaf_count=34 27 40 19 16 11 19 69
internal_value=-1.34871 -1.29748 -1.2444 -1.19519 -1.40308 -1.18819 -1.40499
internal_weight=0 27.9068 18.6814 14.2993 26.2924 10.6092 23.7554
internal_count=235 121 81 62 114 46 103
is_linear=0
shrinkage=1


Tree=5
num_leaves=5
num_cat=0
split_feature=44 47 1 44
split_gain=195.833 2.84217e-14 7.10543e-15 3.55271e-15
threshold=1.028381068620454 -1.0072781014133625 1.0000000180025095e-35 -1.3591597413748164
decision_type=2 2 2 2
left_child=2 -2 -1 -4
right_child=1 -3 3 -5
leaf_value=-1.7964859554568824 -1.5071923163605836 -1.5071923163605836 -1.7964859554568824 -1.7964859554568824
leaf_weight=14.863790124654768 3.6295301467180252 3.4566953778266898 2.7653563022613517 15.900798738002779
leaf_count=86 21 20 16 92
internal_value=-1.74601 -1.50719 -1.79649 -1.79649
internal_weight=0 7.08623 33.5299 18.6662
internal_count=235 41 194 108
is_linear=0
shrinkage=1


Tree=6
num_leaves=16
num_cat=0
split_feature=44 44 3 45 44 43 48 47 43 44 2 46 16 4 7
split_gain=116.199 1.06507e-06 1.9086e-06 1.04984e-06 1.04336e-06 1.66585e-06 5.92068e-07 6.47762e-07 7.8201e-07 4.64098e-07 2.50122e-07 1.47019e-07 9.09647e-08 4.68702e-09 4.44089e-16
threshold=-1.4848197840061459 -1.1078396561121562 1.0000000180025095e-35 1.0000000180025095e-35 0.14876077020114348 -0.30951812159623526 -1.6483213273599902 -0.40278193657286659 0.15167621098142162 0.77706098335779361 1.0000000180025095e-35 -1.0622702998485356 1.0000000180025095e-35 1.0000000180025095e-35 1.0000000180025095e-35
decision_type=2 2 2 2 2 2 2 2 2 2 2 2 2 2 2
left_child=-1 3 4 -2 6 -6 -3 10 -9 -4 12 14 -8 -13 -7
right_child=1 2 9 -5 5 11 7 8 -10 -11 -12 13 -14 -15 -16
leaf_value=0.29264045253527643 -0.045270258258677552 -0.045305638498492257 -0.04540152250129436 -0.045329764112453923 -0.045262262237096701 -0.045334374340881223 -0.045311928528572083 -0.045386628730185993 -0.045335635915126835 -0.045353773490395877 -0.045351920141654387 -0.045314946750298277 -0.045331734478738145 -0.045319543268799729 -0.045334374340881195
leaf_weight=2.934393078088763 1.3181003108620706 0.97504321485758438 1.1775450333952897 1.6935770064592361 1.2281125932931898 1.6953657716512676 0.97647087275982536 1.7150729969143728 1.3387292847037313 0.89617888629436482 1.1646336540579798 1.0659916698932652 1.4268141984939575 1.156052753329277 1.2492168843746185
leaf_count=21 15 11 13 19 14 19 11 19 15 10 13 12 16 13 14
internal_value=0 -0.045331 -0.0453361 -0.0453037 -0.0453295 -0.0453146 -0.045342 -0.0453474 -0.0453643 -0.0453809 -0.0453329 -0.045327 -0.0453237 -0.0453173 -0.0453344
internal_weight=0 19.0769 16.0652 3.01168 13.9915 6.39474 7.59676 6.62172 3.0538 2.07372 3.56792 5.16663 2.40329 2.22204 2.94458
internal_count=235 214 180 34 157 72 85 74 34 23 40 58 27 25 33
is_linear=0
shrinkage=0.05


Tree=7
num_leaves=17
num_cat=0
split_feature=48 40 46 44 43 48 43 0 44 2 43 7 43 45 12 4
split_gain=75.3089 21.9945 5.49307e-07 2.55214e-06 4.50588e-07 3.29293e-07 3.13121e-07 2.23811e-07 2.26793e-07 1.97447e-07 3.82431e-07 7.01988e-08 1.66705e-08 9.87951e-09 4.6501e-09 9.33419e-10
threshold=-1.1847619406300147 1.0000000180025095e-35 1.0000000180025095e-35 -0.85651957084949604 -1.0013096204627205 0.20591621955991044 -0.30951812159623526 1.0000000180025095e-35 0.65140076417830439 1.0000000180025095e-35 -1.0000000180025095e-35 1.0000000180025095e-35 -1.0000000180025095e-35 0.39911848224527785 1.0000000180025095e-35 1.0000000180025095e-35
decision_type=2 2 2 2 2 2 2 2 2 2 2 2 2 2 2 2
left_child=1 -1 5 4 -4 9 -7 8 -5 10 -2 12 -6 14 -12 -8
right_child=2 -3 3 7 11 6 15 -9 -10 -11 13 -13 -14 -15 -16 -17
leaf_value=0.037332239318037648 -0.044903675260895413 0.30132932920925959 -0.044899835337340696 -0.045015412912821892 -0.044945907927261802 -0.044895058573326367 -0.044929353635267344 -0.044964414481255377 -0.044980500717486639 -0.044955807278495234 -0.044942038226422586 -0.044926697261304417 -0.044936198737981575 -0.04493512277034576 -0.044937947082175328 -0.044927159554725121
leaf_weight=1.2027502506971388 0.96307010948658334 2.2932588309049606 1.2825596779584882 0.82614755630493109 0.97396802902221657 1.1208352968096735 0.96976326406002022 0.8152671381831168 1.064622066915035 1.0578498542308805 1.621634289622305 1.4534360617399216 0.80958649516105674 1.3758920580148695 1.214933842420578 0.96920782327651978
leaf_count=13 12 18 16 10 12 14 12 10 13 13 20 18 10 17 15 12
internal_value=0 0.210505 -0.0449376 -0.0449479 -0.0449249 -0.0449295 -0.0449161 -0.0449863 -0.0449958 -0.0449361 -0.0449321 -0.0449349 -0.0449415 -0.0449386 -0.0449403 -0.0449283
internal_weight=0 3.49601 16.5188 7.22559 4.51955 9.29319 3.05981 2.70604 1.89077 6.23338 5.17553 3.23699 1.78355 4.21246 2.83657 1.93897
internal_count=235 31 204 89 56 115 38 33 23 77 64 40 22 52 35 24
is_linear=0
shrinkage=0.05


Tree=8
num_leaves=17
num_cat=0
split_feature=44 47 46 43 43 43 46 48 43 4 44 44 12 43 44 4
split_gain=83.3582 59.5732 2.94069 2.93463 0.00380583 0.000366713 4.84606e-05 1.40487e-05 9.46317e-06 9.01269e-06 1.06994e-05 6.60346e-06 1.31783e-05 2.46548e-07 3.40444e-08 2.82521e-08
threshold=-0.85651957084949604 1.7734042568529198 0.62832158161253837 -0.42481670474064953 1.0000000180025095e-35 0.72816912670349287 1.0000000180025095e-35 0.20591621955991044 -0.30951812159623526 1.0000000180025095e-35 1.5310212391457743 0.90272102598912363 1.0000000180025095e-35 -1.0013096204627205 0.65140076417830439 1.0000000180025095e-35
decision_type=2 2 2 2 2 2 2 2 2 2 2 2 2 2 2 2
left_child=1 4 6 -4 -1 -6 7 9 -9 11 -11 12 -2 -3 -8 -10
right_child=2 13 3 -5 5 -7 14 8 15 10 -12 -13 -14 -15 -16 -17
leaf_value=0.16696518155715709 -0.052006642311265297 -0.051873542411720236 -0.051866029378611178 0.028936863842529772 0.16544090358729574 0.16466220204229756 -0.052030251906807816 -0.051714078961247592 -0.051837222856719767 -0.051724742529299254 -0.051876551011024889 -0.051845751956346456 -0.05186713130869855 -0.051896807829202724 -0.052021611833718499 -0.051829335060102094
leaf_weight=3.8202358633279783 3.057802915573129 2.2758803367614746 2.0852944403886795 2.4366927593946448 2.48711858689785 3.8558527231216431 2.1051476895809165 2.6289905607700348 2.2709713280200949 1.8793717920780171 3.0350692272186279 3.5974751710891724 3.7916849702596664 2.2790386676788321 2.4871009886264801 2.2699052095413208
leaf_count=17 16 12 11 12 11 17 11 14 12 10 16 19 20 12 13 12
internal_value=0 0.0983752 -0.0456541 -0.00832503 0.165718 0.164968 -0.0518775 -0.0518474 -0.0517896 -0.0518743 -0.0518185 -0.0519006 -0.0519294 -0.0518852 -0.0520256 -0.0518333
internal_weight=0 14.7181 31.6455 4.52199 10.1632 6.34297 27.1235 22.5313 7.16987 15.3614 4.91444 10.447 6.84949 4.55492 4.59225 4.54088
internal_count=235 69 166 23 45 28 143 119 38 81 26 55 36 24 24 24
is_linear=0
shrinkage=0.05


Tree=9
num_leaves=17
num_cat=0
split_feature=35 22 48 48 9 45 43 45 2 43 4 40 38 13 43 1
split_gain=45.6227 46.0016 3.81816 11.9905 18.4008 2.73227 0.00590623 9.82029e-06 9.65093e-06 6.6271e-06 6.26096e-06 2.78572e-06 9.29604e-07 4.34556e-07 6.63242e-08 9.40783e-10
threshold=1.0000000180025095e-35 1.0000000180025095e-35 -0.25764316717006458 -0.90662630859202975 1.0000000180025095e-35 -0.87499516859734705 -1.3472053698959632 0.87991608633683449 1.0000000180025095e-35 0.72816912670349287 1.0000000180025095e-35 1.0000000180025095e-35 1.0000000180025095e-35 1.0000000180025095e-35 0.95876629299232141 1.0000000180025095e-35
decision_type=2 2 2 2 2 2 2 2 2 2 2 2 2 2 2 2
left_child=1 2 3 5 -5 11 -3 8 12 10 -9 13 -4 15 -15 -1
right_child=-2 6 7 4 -6 -7 -8 9 -10 -11 -12 -13 -14 14 -16 -17
leaf_value=-0.05113795830814688 0.17304429976569216 0.13493996326518451 -0.051079522302536588 0.1424996361892085 -0.051218703640580357 0.0050266646462213248 0.13858663624044518 -0.050958220259315734 -0.051210030344706163 -0.051107471978606905 -0.051076394121830807 -0.051070857080865666 -0.051119470985624818 -0.051107401339340386 -0.051119470985624832 -0.051136415182820451
leaf_weight=2.1730695962905866 3.5099167823791495 2.1167178452014923 3.4272915124893206 2.5437305271625545 2.3660630583763123 2.6400217562913886 2.3353895992040625 2.3249044418334952 2.7289105206727982 3.4337120056152344 2.1641521453857422 3.2449159920215598 2.5321303009986877 1.807208329439163 3.0747296512126923 1.8107055425643923
leaf_count=12 16 10 19 12 13 14 11 13 15 19 12 18 14 10 17 10
internal_value=0 -0.0148288 -0.0334468 -0.0185355 0.0491454 -0.0410633 0.136853 -0.0510954 -0.0511322 -0.0510552 -0.0510152 -0.0511105 -0.0510965 -0.051125 -0.051115 -0.0511373
internal_weight=0 40.7237 36.2715 19.6604 4.90979 14.7507 4.45211 16.6111 8.68833 7.92277 4.48906 12.1106 5.95942 8.86571 4.88194 3.98378
internal_count=235 219 198 106 25 81 21 92 48 44 25 67 33 49 27 22
is_linear=0
shrinkage=0.05


Tree=10
num_leaves=17
num_cat=0
split_feature=45 43 3 2 14 31 43 42 43 45 43 43 48 47 4 43
split_gain=53.9582 53.4386 47.1241 0.56961 0.349544 0.00210755 4.50726e-05 6.27187e-05 5.88439e-05 1.93788e-05 7.3463e-06 5.89839e-06 4.50527e-06 1.17615e-06 7.10543e-15 7.10543e-15
threshold=-0.20184861318246741 0.49757196041466434 1.0000000180025095e-35 1.0000000180025095e-35 1.0000000180025095e-35 1.0000000180025095e-35 -0.19421953845182102 1.0000000180025095e-35 0.15167621098142162 0.87991608633683449 0.8434677098479072 -0.77071245417389211 -0.78301047213070307 -1.0000000180025095e-35 1.0000000180025095e-35 -0.30951812159623526
decision_type=2 2 2 2 2 2 2 2 2 2 2 2 2 2 2 2
left_child=4 2 3 5 6 -2 7 11 -8 -3 -11 -1 -10 -14 15 -7
right_child=1 9 -4 -5 -6 14 8 -9 12 10 -12 -13 13 -15 -16 -17
leaf_value=-0.055149579463773392 0.13942413903363279 -0.055199033750545995 -0.055302245168341528 0.11644758275480663 -0.035317925333190191 0.13792646846790807 -0.055392616435237678 -0.054851985774420277 -0.055156360545081398 -0.05498285545555566 -0.055106375452083259 -0.055050350262859385 -0.055111741017051713 -0.055065578850923239 0.1379264684679081 0.13792646846790815
leaf_weight=4.6546650528907776 3.2686653733253523 3.9962307512760145 4.2355057299137107 3.9883427917957297 2.4727868139743796 2.7829949855804452 2.4596595317125312 3.2849724590778351 4.655682712793352 2.2018843293190002 2.6554449796676636 2.2079987376928383 2.8773208260536212 2.6512852311134285 3.0359945297241211 2.5299954414367667
leaf_count=21 13 18 19 16 11 11 11 15 21 10 12 10 13 12 12 10
internal_value=0 0.0470287 0.0926078 0.132751 -0.0531729 0.138348 -0.0551101 -0.0550317 -0.0551731 -0.0551175 -0.0550504 -0.0551177 -0.0551201 -0.0550896 0.137926 0.137926
internal_weight=0 28.6951 19.8415 15.606 25.2644 11.6177 22.7916 10.1476 12.6439 8.85356 4.85733 6.86266 10.1843 5.52861 8.34898 5.31299
internal_count=235 121 81 62 114 46 103 46 57 40 22 31 46 25 33 21
is_linear=0
shrinkage=0.05


Tree=11
num_leaves=14
num_cat=0
split_feature=44 44 44 3 44 42 43 43 43 2 12 7 40
split_gain=153.322 0.00184644 1.14878e-05 2.57217e-05 1.39e-05 1.18965e-05 8.56702e-06 1.91424e-05 4.50505e-06 3.83554e-06 2.19923e-06 1.78136e-06 3.24435e-07
threshold=1.028381068620454 1.2797011538831129 -0.85651957084949604 1.0000000180025095e-35 0.14876077020114348 1.0000000180025095e-35 -0.30951812159623526 0.15167621098142162 -0.30951812159623526 1.0000000180025095e-35 1.0000000180025095e-35 1.0000000180025095e-35 1.0000000180025095e-35
decision_type=2 2 2 2 2 2 2 2 2 2 2 2 2
left_child=2 -2 5 4 6 11 9 -8 -6 10 -4 12 -1
right_child=1 -3 3 -5 8 -7 7 -9 -10 -11 -12 -13 -14
leaf_value=-0.049918105626866591 0.19053838495560577 0.18904701519109537 -0.049833006758608335 -0.050052175794876946 -0.049772425431302204 -0.049775390541700722 -0.050105938792827723 -0.049905035587541786 -0.049865744175318194 -0.049945771282504214 -0.049903716197292072 -0.049861658451938802 -0.049890978283869902
leaf_weight=3.3114147186279279 3.6904720067977888 4.7423954755067825 2.4662509113550186 3.1794895082712165 1.9627402126789091 3.1078128069639197 1.8481434136629156 3.3077126443386078 3.7919118404388419 2.1572434604167938 1.9845015406608579 3.2958082854747772 1.6520592570304868
leaf_count=20 18 23 15 19 12 19 11 20 23 13 12 20 10
internal_value=0 0.1897 -0.0498992 -0.0499213 -0.0498976 -0.0498588 -0.0499287 -0.0499771 -0.0498339 -0.0498911 -0.0498645 -0.0498902 -0.0499091
internal_weight=0 8.43287 32.0651 20.698 17.5185 11.3671 11.7639 5.15586 5.75465 6.608 4.45075 8.25928 4.96347
internal_count=235 41 194 125 106 69 71 31 35 40 27 50 30
is_linear=0
shrinkage=0.05


Tree=12
num_leaves=16
num_cat=0
split_feature=44 44 46 48 43 45 43 48 43 4 44 44 12 44 4
split_gain=86.011 3.28384e-06 7.80414e-06 3.56576e-06 4.34461e-06 2.56758e-06 2.38122e-06 1.78302e-06 1.20929e-06 1.03147e-06 1.54418e-06 8.58511e-07 1.43347e-06 3.69425e-08 4.59373e-09
threshold=-1.4848197840061459 -1.1078396561121562 1.0000000180025095e-35 -1.6483213273599902 0.15167621098142162 1.0000000180025095e-35 -0.30951812159623526 0.20591621955991044 -0.30951812159623526 1.0000000180025095e-35 1.5310212391457743 0.90272102598912363 1.0000000180025095e-35 0.65140076417830439 1.0000000180025095e-35
decision_type=2 2 2 2 2 2 2 2 2 2 2 2 2 2 2
left_child=-1 5 7 -4 6 -2 13 9 -9 11 -11 12 -3 -5 -10
right_child=1 2 3 4 -6 -7 -8 8 14 10 -12 -13 -14 -15 -16
leaf_value=0.21920989716951078 -0.04502707282157524 -0.045194625045958142 -0.045100000435824905 -0.045205330789755145 -0.045130475765621104 -0.045122738419949605 -0.045309426575705553 -0.045042243280528138 -0.045108567485846206 -0.045046142724201516 -0.045132600026482672 -0.045111726448652675 -0.045126039991634274 -0.045218396296502858 -0.045103808875779
leaf_weight=3.7041113823652294 1.2412634044885698 1.3813597112894005 0.92827757447957981 1.0387706980109217 1.2751227691769598 1.6125579178333282 0.88594109565019552 1.1632858887314799 1.014911025762558 0.83219961076974902 1.3612241744995115 1.6080578491091726 1.6987505182623863 1.1290739551186559 1.0137306153774261
leaf_count=21 15 16 11 12 15 19 10 14 12 10 16 19 20 13 12
internal_value=0 -0.0451304 -0.0451395 -0.0451889 -0.045208 -0.0450811 -0.0452404 -0.0451138 -0.0450829 -0.0451281 -0.0450998 -0.0451413 -0.0451568 -0.0452121 -0.0451062
internal_weight=0 18.1845 15.3307 5.25719 4.32891 2.85382 3.05379 10.0735 3.19193 6.88159 2.19342 4.68817 3.08011 2.16784 2.02864
internal_count=235 214 180 61 50 34 35 119 38 81 26 55 36 25 24
is_linear=0
shrinkage=0.05


Tree=13
num_leaves=17
num_cat=0
split_feature=48 47 46 44 43 48 45 1 44 2 43 10 43 45 12 4
split_gain=59.0368 6.38023 2.21045e-06 8.65009e-06 1.51922e-06 1.02812e-06 8.63137e-07 6.8019e-07 8.70931e-07 6.67107e-07 1.20192e-06 3.97667e-07 1.4085e-07 3.7134e-08 1.76586e-08 3.27272e-09
threshold=-1.1847619406300147 2.1361019557572178 -1.0000000180025095e-35 -0.85651957084949604 -1.0013096204627205 0.20591621955991044 1.3607136904283912 1.0000000180025095e-35 0.65140076417830439 1.0000000180025095e-35 1.0000000180025095e-35 1.0000000180025095e-35 0.72816912670349287 -1.0000000180025095e-35 1.0000000180025095e-35 1.0000000180025095e-35
decision_type=2 2 2 2 2 2 2 2 2 2 2 2 2 2 2 2
left_child=1 -1 5 4 -4 9 -7 -5 -9 10 -2 12 -6 14 -12 -8
right_child=2 -3 3 7 11 6 15 8 -10 -11 13 -13 -14 -15 -16 -17
leaf_value=0.23286684352144094 -0.044695729403291862 0.10898705808869402 -0.044689944072408581 -0.044813829027473398 -0.044728274983826422 -0.044682876366655973 -0.044741677249015274 -0.04490852640726907 -0.044839000237115796 -0.044792200532483589 -0.044766239029711052 -0.044783337232761289 -0.044754492915862865 -0.044752486019915057 -0.04475807282514882 -0.044737462399727701
leaf_weight=1.9457180947065378 0.90919885784387577 2.2313450127840042 1.2094945907592771 0.78243213891982777 0.84107295423746187 1.056227520108223 0.92165803909301758 0.8031698763370515 1.0256040096282957 1.0125881284475324 1.5466534420847888 0.93241453170776356 1.3103844150900839 1.3095901384949686 1.1573755815625191 0.92057597637176514
leaf_count=12 12 19 16 10 11 14 12 10 13 13 20 12 17 17 15 12
internal_value=0 0.166692 -0.0447599 -0.0447811 -0.0447374 -0.0447433 -0.0447189 -0.0448528 -0.0448695 -0.0447552 -0.0447476 -0.0447561 -0.0447442 -0.0447594 -0.0447627 -0.0447396
internal_weight=0 4.17706 15.7384 6.90457 4.29337 8.83387 2.89846 2.61121 1.82877 5.93541 4.92282 3.08387 2.15146 4.01362 2.70403 1.84223
internal_count=235 31 204 89 56 115 38 33 23 77 64 40 28 52 35 24
is_linear=0
shrinkage=0.05


Tree=14
num_leaves=17
num_cat=0
split_feature=44 47 46 31 43 43 46 48 43 4 44 44 12 10 44 4
split_gain=72.5703 46.9945 2.83202 4.71366 0.00802253 0.000890482 0.000165146 3.62138e-05 2.44882e-05 2.09413e-05 3.12963e-05 1.74469e-05 2.91982e-05 2.76057e-06 2.4822e-07 9.32466e-08
threshold=-0.85651957084949604 1.7734042568529198 0.62832158161253837 1.0000000180025095e-35 1.0000000180025095e-35 0.72816912670349287 1.0000000180025095e-35 0.20591621955991044 -0.30951812159623526 1.0000000180025095e-35 1.5310212391457743 0.90272102598912363 1.0000000180025095e-35 1.0000000180025095e-35 0.65140076417830439 1.0000000180025095e-35
decision_type=2 2 2 2 2 2 2 2 2 2 2 2 2 2 2 2
left_child=1 4 6 -4 -1 -6 7 9 -9 11 -11 12 -2 -3 -8 -10
right_child=2 13 3 -5 5 -7 14 8 15 10 -12 -13 -14 -15 -16 -17
leaf_value=0.14403278428844965 -0.051354039811116782 -0.051153915496353779 -0.051679689732847311 0.051957031570836844 0.14196972652884163 0.14081333378920546 -0.051452108341531924 -0.050883803512166696 -0.051087955701835913 -0.050895938114013543 -0.051162223739879546 -0.051097761741249262 -0.051141913910515979 -0.051233467143534994 -0.051428356701417981 -0.051073280061882803
leaf_weight=4.1932764053344709 2.9377408325672238 2.1753698587417594 2.6160045713186255 1.8897173404693601 2.7367247641086578 4.2502011060714722 2.031449854373931 2.4889434725046158 2.1658130884170523 1.7803036570549 2.9020950794219971 3.4311682730913162 3.6226246803998947 2.1868069767951965 2.3990125805139542 2.1637004613876343
leaf_count=17 16 12 14 9 11 17 11 14 12 10 16 19 20 12 13 12
internal_value=0 0.0879962 -0.0448019 -0.00821404 0.142304 0.141266 -0.0511613 -0.051104 -0.0510088 -0.0511482 -0.051061 -0.0511891 -0.0512369 -0.0511938 -0.0514392 -0.0510806
internal_weight=0 15.5424 30.4286 4.50572 11.1802 6.98693 25.9229 21.4924 6.81846 14.6739 4.6824 9.99153 6.56037 4.36218 4.43046 4.32951
internal_count=235 69 166 23 45 28 143 119 38 81 26 55 36 24 24 24
is_linear=0
shrinkage=0.05


Tree=15
num_leaves=18
num_cat=0
split_feature=35 22 48 48 9 45 43 45 2 43 4 41 44 38 47 0 43
split_gain=36.8156 38.8787 3.70174 10.8468 15.193 2.66947 0.00420564 2.89722e-05 3.44309e-05 1.81299e-05 1.57682e-05 1.18e-05 4.99183e-06 3.11006e-06 1.18383e-06 7.36391e-07 5.49311e-07
threshold=1.0000000180025095e-35 1.0000000180025095e-35 -0.25764316717006458 -0.90662630859202975 1.0000000180025095e-35 -0.87499516859734705 -1.3472053698959632 0.87991608633683449 1.0000000180025095e-35 0.72816912670349287 1.0000000180025095e-35 1.0000000180025095e-35 -0.73085952821816658 1.0000000180025095e-35 1.7734042568529198 1.0000000180025095e-35 1.1893634592811499
decision_type=2 2 2 2 2 2 2 2 2 2 2 2 2 2 2 2 2
left_child=1 2 3 5 -5 11 -3 8 13 10 -9 12 14 -4 -1 -13 -14
right_child=-2 6 7 4 -6 -7 -8 9 -10 -11 -12 15 16 -15 -16 -17 -18
leaf_value=-0.050440134895854527 0.14665896076022847 0.11675707446679646 -0.050396804825599377 0.12358327305761181 -0.050666116811714214 0.0053165857490651697 0.11970130591176807 -0.050201236775399873 -0.050647596842418909 -0.050450807926849695 -0.050393723287631059 -0.050584435832734947 -0.050512035074860809 -0.050471601630571086 -0.050382830371495373 -0.050540389509038365 -0.050475161098052418
leaf_weight=1.7242045998573268 3.905082404613494 2.3103048205375671 3.2654100656509382 2.7776437401771572 2.2759623825550079 2.6289641559124002 2.5534864813089362 2.1982637941837302 2.6241887360811234 3.2785845547914505 2.0618929266929626 1.7419342994689944 1.7333694249391554 2.4195250272750854 1.8883173912763596 2.0843941569328308 2.4201614409685135
leaf_count=10 16 10 19 12 13 14 11 13 15 19 12 10 10 14 11 12 14
internal_value=0 -0.014185 -0.0325319 -0.0178133 0.0451076 -0.0401724 0.118303 -0.0504334 -0.0504978 -0.0503624 -0.0502944 -0.0504886 -0.0504532 -0.0504286 -0.0504102 -0.0505604 -0.0504905
internal_weight=0 39.9866 35.1228 19.275 5.05361 14.2213 4.86379 15.8479 8.30912 7.53874 4.26016 11.5924 7.76605 5.68494 3.61252 3.82633 4.15353
internal_count=235 219 198 106 25 81 21 92 48 44 25 67 45 33 21 22 24
is_linear=0
shrinkage=0.05


Tree=16
num_leaves=17
num_cat=0
split_feature=45 43 3 44 14 31 43 43 0 44 25 41 45 43 44 43
split_gain=48.5566 45.4936 38.7232 0.517851 0.343514 0.0106003 0.00279643 0.000158589 9.33935e-05 0.000113198 6.13505e-05 3.98942e-05 3.69414e-05 2.17898e-05 1.83713e-05 2.31539e-07
threshold=-0.20184861318246741 0.49757196041466434 1.0000000180025095e-35 0.77706098335779361 1.0000000180025095e-35 1.0000000180025095e-35 -0.6554138710294779 -1.0013096204627205 1.0000000180025095e-35 -0.85651957084949604 1.0000000180025095e-35 1.0000000180025095e-35 0.87991608633683449 0.8434677098479072 -0.60519948558683645 1.1893634592811499
decision_type=2 2 2 2 2 2 2 2 2 2 2 2 2 2 2 2
left_child=4 2 3 5 7 6 -2 10 9 -9 -1 14 -3 -14 -10 -16
right_child=1 12 -4 -5 -6 -7 -8 8 11 -11 -12 -13 13 -15 15 -17
leaf_value=-0.053659846617637147 0.12355123253719352 -0.054152435704083707 -0.05439664024183323 0.10409318924792668 -0.034214207747479457 0.12146230177826978 0.12559946201344768 -0.054030635031416877 -0.05393569279600699 -0.054489784941473378 -0.054025791536972838 -0.054240150275394285 -0.05382329124700324 -0.054041031459518586 -0.054096057409982815 -0.054074436711665778
leaf_weight=2.4950715303421083 3.4865972399711662 3.8301927745342237 4.086769074201583 5.0898338556289664 2.4145107418298712 4.8678662478923798 3.1920968592166936 2.1176184564828873 3.5836725980043465 3.6666420102119455 2.1171687841415405 2.7774600833654413 2.0964966118335724 2.5422982573509216 2.1235996186733175 2.9703506082296371
leaf_count=12 13 18 19 19 11 18 12 10 17 17 10 13 10 12 10 14
internal_value=0 0.0436017 0.0835042 0.11738 -0.0521107 0.123237 0.12453 -0.0540882 -0.0541579 -0.0543217 -0.0538278 -0.0540752 -0.0540375 -0.0539426 -0.0540224 -0.0540835
internal_weight=0 29.1922 20.7232 16.6364 24.2661 11.5466 6.67869 21.8516 17.2393 5.78426 4.61224 11.4551 8.46899 4.63879 8.67762 5.09395
internal_count=235 121 81 62 114 43 25 103 81 27 22 54 40 22 41 24
is_linear=0
shrinkage=0.05


Tree=17
num_leaves=14
num_cat=0
split_feature=44 44 44 46 45 42 4 48 12 45 47 47 43
split_gain=125.718 0.00501173 3.59111e-05 9.25846e-05 3.25796e-05 3.0868e-05 2.06283e-05 2.0847e-05 1.38371e-05 7.90461e-06 5.25593e-06 1.55182e-06 1.30864e-06
threshold=1.028381068620454 1.2797011538831129 -0.85651957084949604 1.0000000180025095e-35 -0.87499516859734705 1.0000000180025095e-35 1.0000000180025095e-35 0.57676372894389061 1.0000000180025095e-35 -0.20184861318246741 2.4987996546615152 -0.40278193657286659 0.72816912670349287
decision_type=2 2 2 2 2 2 2 2 2 2 2 2 2
left_child=2 -2 5 6 -5 10 7 8 -4 -6 12 -9 -1
right_child=1 -3 3 4 9 -7 -8 11 -10 -11 -12 -13 -14
leaf_value=-0.049288938493414848 0.1598619876134876 0.15755026197173799 -0.049502283738967388 -0.049395113120050266 -0.049688711462029134 -0.049159013400345404 -0.04921074520879623 -0.049295153807587644 -0.049348340305311225 -0.049564079858330404 -0.049398611602092614 -0.049227715051920508 -0.049341614728562688
leaf_weight=2.3518589138984698 4.1620520055294019 5.3688532710075378 2.717081233859064 2.3745856583118439 2.2706917226314545 2.9415724128484726 2.9583642780780783 1.8835678994655609 3.1542600989341736 2.8932674080133429 3.1685128211975098 1.5591109246015549 2.3643402904272079
leaf_count=15 18 23 17 15 14 19 19 12 20 18 20 10 15
internal_value=0 0.15856 -0.0493705 -0.0494105 -0.0495484 -0.0492972 -0.0493258 -0.0493623 -0.0494196 -0.0496189 -0.0493488 -0.0492646 -0.0493153
internal_weight=0 9.53091 30.6372 19.8109 7.53854 10.8263 12.2724 9.31402 5.87134 5.16396 7.88471 3.44268 4.7162
internal_count=235 41 194 125 47 69 78 59 37 32 50 22 30
is_linear=0
shrinkage=0.05


Tree=18
num_leaves=15
num_cat=0
split_feature=44 44 46 44 45 43 44 45 2 44 45 47 5 44
split_gain=68.4487 6.60767e-06 1.83322e-05 6.51738e-06 4.27912e-06 3.10491e-06 5.17205e-06 1.912e-06 1.59253e-06 1.43923e-06 1.29316e-06 6.92327e-07 2.37502e-07 1.47191e-08
threshold=-1.4848197840061459 -1.1078396561121562 -1.0000000180025095e-35 -0.85651957084949604 1.0000000180025095e-35 -0.078920955307406782 0.2744208128324736 -0.87499516859734705 1.0000000180025095e-35 0.2744208128324736 -0.20184861318246741 -0.40278193657286659 1.0000000180025095e-35 1.2797011538831129
decision_type=2 2 2 2 2 2 2 2 2 2 2 2 2 2
left_child=-1 4 5 -4 -2 6 8 -5 12 -7 -9 13 -3 -11
right_child=1 2 3 7 -6 9 -8 10 -10 11 -12 -13 -14 -15
leaf_value=0.17725085902205007 -0.044794592749767437 -0.044857148928503898 -0.044923190670391105 -0.045008054401492394 -0.044921712621693477 -0.044975946563284568 -0.044766254879714279 -0.045122269514627708 -0.044955692199324396 -0.044929132937375056 -0.045052378554686974 -0.044893566886191456 -0.044895756828935929 -0.044936534878410463
leaf_weight=4.3339539319276836 1.1655497774481836 0.79239994287491156 1.1295624002814291 1.2366616502404211 1.5323851704597473 1.470986708998679 0.84777073562145222 1.1836912408471107 1.0578180402517319 1.0505049675703073 1.5011968612670823 1.6808435991406416 0.80101311206817627 1.8622107356786726
leaf_count=21 15 10 14 15 19 18 11 14 13 13 18 21 10 23
internal_value=0 -0.0449387 -0.044952 -0.045029 -0.0448668 -0.0449113 -0.0448738 -0.0450595 -0.0449081 -0.0449329 -0.0450832 -0.0449191 -0.0448766 -0.0449339
internal_weight=0 17.3126 14.6147 5.05111 2.69793 9.56355 3.499 3.92155 2.65123 6.06455 2.68489 4.59356 1.59341 2.91272
internal_count=235 214 180 61 34 119 44 47 33 75 32 57 20 36
is_linear=0
shrinkage=0.05


Tree=19
num_leaves=17
num_cat=0
split_feature=48 44 46 44 43 43 44 0 44 10 2 43 47 43 4 44
split_gain=48.2514 4.84885 4.37939e-06 1.56323e-05 2.73718e-06 1.75314e-06 4.8091e-06 1.35894e-06 1.53895e-06 9.44005e-07 6.31313e-07 2.22459e-07 1.84156e-07 2.56968e-08 5.40844e-09 2.92039e-09
threshold=-1.1847619406300147 -0.85651957084949604 1.0000000180025095e-35 -0.85651957084949604 -1.0013096204627205 -0.30951812159623526 0.14876077020114348 1.0000000180025095e-35 0.65140076417830439 1.0000000180025095e-35 1.0000000180025095e-35 0.72816912670349287 -0.40278193657286659 0.8434677098479072 1.0000000180025095e-35 1.2797011538831129
decision_type=2 2 2 2 2 2 2 2 2 2 2 2 2 2 2 2
left_child=1 -1 5 4 -4 6 10 8 -5 11 -2 -6 13 -7 -14 -15
right_child=2 -3 3 7 9 12 -8 -9 -10 -11 -12 -13 14 15 -16 -17
leaf_value=0.069642715744722666 -0.04454865852250444 0.17515047636852463 -0.044492002740891247 -0.044792907203852941 -0.044543950552202498 -0.044580327032745955 -0.044442305642477073 -0.044659898717596853 -0.044698857049067217 -0.044626253383223458 -0.044607436585540033 -0.044577787171190805 -0.0445638596809491 -0.04458674139090843 -0.044569415937830648 -0.044590291281402829
leaf_weight=1.6810697764158247 0.87106079608202003 3.0916447043418911 1.1389157548546789 0.77799952775239878 0.79644875228405076 1.246143624186516 0.9810974895954131 0.74778573215007771 0.98645163327455521 0.89166525006294239 0.96063844859600067 1.2452075928449629 0.87513013184070387 0.88132014870643649 0.87676472961902618 1.6909810304641721
leaf_count=13 12 18 16 10 11 17 14 10 13 12 13 17 12 12 12 23
internal_value=0 0.137988 -0.0445878 -0.0446183 -0.0445578 -0.0445638 -0.0445316 -0.0447164 -0.0447403 -0.0445833 -0.0445795 -0.0445646 -0.0445801 -0.0445862 -0.0445666 -0.0445891
internal_weight=0 4.77271 14.9676 6.58447 4.07224 8.38314 2.8128 2.51224 1.76445 2.93332 1.8317 2.04166 5.57034 3.81844 1.75189 2.5723
internal_count=235 31 204 89 56 115 39 33 23 40 25 28 76 52 24 35
is_linear=0
shrinkage=0.05


Tree=20
num_leaves=17
num_cat=0
split_feature=44 47 46 31 43 43 46 43 44 2 44 47 10 5 44 44
split_gain=63.9654 38.2615 2.70988 4.26801 0.0132303 0.0013638 0.000302185 6.0822e-05 0.00010023 2.99617e-05 2.79727e-05 1.35565e-05 1.23637e-05 4.77978e-06 5.83693e-07 2.80617e-07
threshold=-0.85651957084949604 1.7734042568529198 0.62832158161253837 1.0000000180025095e-35 1.0000000180025095e-35 0.72816912670349287 1.0000000180025095e-35 -0.078920955307406782 0.2744208128324736 1.0000000180025095e-35 0.2744208128324736 -0.40278193657286659 1.0000000180025095e-35 1.0000000180025095e-35 0.65140076417830439 1.2797011538831129
decision_type=2 2 2 2 2 2 2 2 2 2 2 2 2 2 2 2
left_child=1 4 6 -4 -1 -6 7 8 9 13 -9 15 -3 -2 -8 -12
right_child=2 12 3 -5 5 -7 14 10 -10 -11 11 -13 -14 -15 -16 -17
leaf_value=0.12754906897813284 -0.050254487183118035 -0.050443102207672688 -0.051186096979039544 0.047034503148212628 0.12495636226640128 0.1235742020326035 -0.050899731375862012 -0.05061253598960147 -0.049981340018554511 -0.050548625899133996 -0.050471627558210941 -0.050363866668745441 -0.050615392307370034 -0.050372796467738346 -0.050862617929578163 -0.050493728692350241
leaf_weight=4.4841054379940051 1.6993654072284778 2.069492280483245 2.5330135226249686 1.9632397443056104 2.9328111261129379 4.5591844022274017 1.9564698040485371 3.1401056647300729 1.8243559300899503 2.2594536989927292 2.2466816604137474 3.5995743572711874 2.0957871079444885 1.7155484110116959 2.3105285167694092 3.9814301133155823
leaf_count=17 10 12 14 9 11 17 11 18 11 13 13 21 12 10 13 23
internal_value=0 0.0800021 -0.0440058 -0.00829915 0.125401 0.124115 -0.0504969 -0.0504171 -0.0503037 -0.0504074 -0.0504826 -0.0504411 -0.0505298 -0.0503139 -0.0508796 -0.0504858
internal_weight=0 16.1414 29.2298 4.49625 11.9761 7.492 24.7335 20.4665 7.49872 5.67437 12.9678 9.82769 4.16528 3.41491 4.267 6.22811
internal_count=235 69 166 23 45 28 143 119 44 33 75 57 24 20 24 36
is_linear=0
shrinkage=0.05


Tree=21
num_leaves=16
num_cat=0
split_feature=35 22 48 48 9 45 43 45 45 2 43 4 44 7 0
split_gain=30.4794 33.3319 3.58281 9.87135 12.824 2.61856 0.00306391 3.29596e-05 2.82562e-05 4.06938e-05 1.82906e-05 2.64394e-05 9.13792e-06 5.18715e-06 2.15462e-06
threshold=1.0000000180025095e-35 1.0000000180025095e-35 -0.25764316717006458 -0.90662630859202975 1.0000000180025095e-35 -0.87499516859734705 -1.3472053698959632 -1.3557927726889036 0.87991608633683449 1.0000000180025095e-35 0.72816912670349287 1.0000000180025095e-35 -0.85651957084949604 1.0000000180025095e-35 1.0000000180025095e-35
decision_type=2 2 2 2 2 2 2 2 2 2 2 2 2 2 2
left_child=1 2 3 5 -5 7 -3 14 9 13 11 -10 -9 -4 -1
right_child=-2 6 8 4 -6 -7 -8 12 10 -11 -12 -13 -14 -15 -16
leaf_value=-0.049809255665546955 0.1278803376149594 0.10290332237228383 -0.049757996774418424 0.10949951217156567 -0.050128137582095028 0.0057169052282467926 0.10533168439407065 -0.049949572422666344 -0.049548584275022373 -0.050046599218584731 -0.049833872794106948 -0.049804212485038392 -0.050084960794627709 -0.049856265921369325 -0.049868776769085861
leaf_weight=2.9538259804248774 4.217533826828002 2.4726580679416656 2.9412683695554716 2.9697340130805996 2.1831066608428955 2.613314852118493 2.7364684641361228 2.655802309513092 2.0808198750019073 2.5051158666610718 3.1242599785327911 1.9683801680803297 2.3483140468597412 2.4710624366998672 3.1332264244556427
leaf_count=18 16 10 18 12 13 14 11 16 13 15 19 12 14 15 19
internal_value=0 -0.013587 -0.0316574 -0.0171265 0.04187 -0.039309 0.104179 -0.049918 -0.0498149 -0.04988 -0.049743 -0.0496728 -0.0500131 -0.0498029 -0.0498399
internal_weight=0 39.1574 33.9482 18.8573 5.15284 13.7045 5.20913 11.0912 15.0909 7.91745 7.17346 4.0492 5.00412 5.41233 6.08705
internal_count=235 219 198 106 25 81 21 67 92 48 44 25 30 33 37
is_linear=0
shrinkage=0.05


Tree=22
num_leaves=17
num_cat=0
split_feature=45 43 3 2 14 43 44 43 0 44 25 41 45 43 44 43
split_gain=43.8557 39.2139 32.511 0.447802 0.332538 0.0078606 0.00132524 0.000326631 0.000222421 0.000267122 0.000107848 8.53422e-05 6.6211e-05 3.74463e-05 3.52447e-05 3.98621e-07
threshold=-0.20184861318246741 0.49757196041466434 1.0000000180025095e-35 1.0000000180025095e-35 1.0000000180025095e-35 -0.54011528788506369 0.77706098335779361 -1.0013096204627205 1.0000000180025095e-35 -0.85651957084949604 1.0000000180025095e-35 1.0000000180025095e-35 0.87991608633683449 0.8434677098479072 -0.60519948558683645 1.1893634592811499
decision_type=2 2 2 2 2 2 2 2 2 2 2 2 2 2 2 2
left_child=4 2 3 5 7 -2 -7 10 9 -9 -1 14 -3 -14 -10 -16
right_child=1 12 -4 -5 -6 6 -8 8 11 -11 -12 -13 13 -15 15 -17
leaf_value=-0.052531414010813293 0.11221315788208773 -0.0532196270055105 -0.053551452564100557 0.091850339799199737 -0.033381450176309259 0.10893105634898137 0.11012770415243869 -0.053045528551821403 -0.05291384426808065 -0.053765450882515955 -0.053029348260129477 -0.053362203217495123 -0.05277146568832012 -0.053064003206533795 -0.053140311170766563 -0.053111302981706889
leaf_weight=2.3551027178764405 3.639582008123404 3.66717481613159 3.9364868551492682 4.442876309156417 2.3695701509714118 5.1018087267875689 4.2336171269416809 2.0219538807868958 3.4117801785469108 3.5519301295280465 2.0203110575675964 2.668811947107316 1.9905246049165723 2.4285871535539627 2.0313627421855855 2.8400506973266602
leaf_count=12 13 18 19 16 11 18 15 10 17 17 10 13 10 12 10 14
internal_value=0 0.040712 0.0762218 0.105551 -0.051133 0.110242 0.109474 -0.0531455 -0.0532472 -0.0535043 -0.0527613 -0.0531163 -0.0530626 -0.0529322 -0.0530371 -0.0531234
internal_weight=0 29.4407 21.3544 17.4179 23.2709 12.975 9.33543 20.9013 16.5259 5.57388 4.37541 10.952 8.08629 4.41911 8.28319 4.87141
internal_count=235 121 81 62 114 46 33 103 81 27 22 54 40 22 41 24
is_linear=0
shrinkage=0.05


Tree=23
num_leaves=15
num_cat=0
split_feature=44 44 44 46 42 43 45 2 43 10 45 44 44 43
split_gain=106.109 0.00840432 7.90157e-05 0.000211152 5.00572e-05 3.13826e-05 1.99308e-05 1.81777e-05 2.64001e-05 1.38608e-05 1.37673e-05 2.57071e-06 1.07309e-06 1.19942e-07
threshold=1.028381068620454 1.2797011538831129 -0.85651957084949604 1.0000000180025095e-35 1.0000000180025095e-35 0.15167621098142162 -0.87499516859734705 1.0000000180025095e-35 -0.54011528788506369 1.0000000180025095e-35 -0.20184861318246741 -1.3591597413748164 0.77706098335779361 -0.19421953845182102
decision_type=2 2 2 2 2 2 2 2 2 2 2 2 2 2
left_child=2 -2 4 5 9 7 -5 8 -4 11 -8 -1 13 -10
right_child=1 -3 3 6 -6 -7 10 -9 12 -11 -12 -13 -14 -15
leaf_value=-0.048755813507752016 0.13863304583808653 0.13576817875988792 -0.048576149330836579 -0.049026587369358145 -0.048583333511337423 -0.048971514440731834 -0.049298479119441505 -0.048899994181186617 -0.048757953838239283 -0.048951731003990431 -0.049130898256728991 -0.048823462068357179 -0.048813478349871355 -0.048777536309444827
leaf_weight=2.5325500220060344 4.5393367409706098 5.87081578373909 2.0462036579847336 2.2956935614347458 2.7764632403850555 2.2820090502500525 2.1900656372308731 1.9662276208400724 1.4914344251155851 1.8240993618965147 2.7829075753688803 3.1524647772312187 2.2495419830083847 1.6437584310770055
leaf_count=17 18 23 14 15 19 15 14 13 10 12 18 21 15 11
internal_value=0 0.137017 -0.0488763 -0.0489369 -0.0487647 -0.0488052 -0.0491484 -0.0487648 -0.048729 -0.0488318 -0.0492047 -0.0487933 -0.0487871 -0.0487682
internal_weight=0 10.4102 29.2334 18.9478 10.2856 11.6792 7.26867 9.39717 7.43094 7.50911 4.97297 5.68501 5.38473 3.13519
internal_count=235 41 194 125 69 78 47 63 50 50 32 38 36 21
is_linear=0
shrinkage=0.05


Tree=24
num_leaves=15
num_cat=0
split_feature=44 46 44 42 43 44 2 43 44 40 47 5 44 44
split_gain=56.6099 1.21785e-05 3.44475e-05 5.93128e-06 3.45804e-06 6.9904e-06 2.84068e-06 2.61658e-06 2.10273e-06 1.63025e-06 1.26654e-06 3.38369e-07 2.47948e-07 3.31095e-08
threshold=-1.4848197840061459 -1.0000000180025095e-35 -0.85651957084949604 1.0000000180025095e-35 -0.078920955307406782 0.2744208128324736 1.0000000180025095e-35 -0.30951812159623526 0.2744208128324736 1.0000000180025095e-35 -0.40278193657286659 1.0000000180025095e-35 -1.1078396561121562 1.2797011538831129
decision_type=2 2 2 2 2 2 2 2 2 2 2 2 2 2
left_child=-1 4 3 12 5 6 11 9 -6 -4 13 -2 -3 -10
right_child=1 2 7 -5 8 -7 -8 -9 10 -11 -12 -13 -14 -15
leaf_value=0.14952252820885267 -0.044648195705420793 -0.044727561609142069 -0.044909695146919032 -0.044611330357866907 -0.04479221768879163 -0.04454537732505056 -0.04478049018036967 -0.044968187395223569 -0.044734917096032181 -0.044826903588106475 -0.044686169934646969 -0.044695608687785562 -0.044761088389491464 -0.044746312506547536
leaf_weight=4.8561602681875256 0.74717514961958331 1.2240173742175104 1.6076853573322303 1.3998368903994562 1.4000545889139173 0.79354206472635258 1.0093208104372025 1.2165595814585657 0.99656002968550073 0.94357597827911366 1.587116256356236 0.75810842216014862 1.0036398619413374 1.7688219919800756
leaf_count=21 10 16 20 19 18 11 13 15 13 12 21 10 13 23
internal_value=0 -0.0447544 -0.044802 -0.044692 -0.0447155 -0.0446748 -0.0447156 -0.0449078 -0.0447389 -0.0448791 -0.0447218 -0.0446721 -0.0447427 -0.0447422
internal_weight=0 16.456 7.39532 3.62749 9.0607 3.30815 2.5146 3.76782 5.75255 2.55126 4.3525 1.50528 2.22766 2.76538
internal_count=235 214 95 48 119 44 33 47 75 32 57 20 29 36
is_linear=0
shrinkage=0.05


Tree=25
num_leaves=18
num_cat=0
split_feature=48 14 47 46 44 43 43 44 2 0 44 10 43 45 46 43 12
split_gain=40.4826 3.91833 7.58218 7.10387e-06 2.37118e-05 3.84905e-06 1.96293e-06 5.03854e-06 2.03634e-06 1.81468e-06 2.33674e-06 1.57139e-06 2.84531e-07 2.59566e-07 2.79751e-07 2.43181e-07 5.62085e-08
threshold=-1.1847619406300147 1.0000000180025095e-35 1.2898073249805229 1.0000000180025095e-35 -0.85651957084949604 -1.0013096204627205 -0.078920955307406782 0.2744208128324736 1.0000000180025095e-35 1.0000000180025095e-35 0.65140076417830439 1.0000000180025095e-35 0.72816912670349287 0.39911848224527785 -1.0622702998485356 -0.54011528788506369 1.0000000180025095e-35
decision_type=2 2 2 2 2 2 2 2 2 2 2 2 2 2 2 2 2
left_child=1 2 -1 6 5 -5 7 8 15 10 -6 12 -7 16 -15 -2 -8
right_child=3 -3 -4 4 9 11 13 -9 -10 -11 -12 -13 -14 14 -16 -17 -18
leaf_value=0.17147075329590294 -0.044335388611434302 0.17988238089041803 0.024613751057387209 -0.044304491188110168 -0.044678735482086632 -0.044367097801085831 -0.044428334835173985 -0.044243617259065983 -0.044452968856966799 -0.044518020557605273 -0.044560720266659665 -0.044472644366204905 -0.044406431565446089 -0.044417472660743702 -0.044383796300365409 -0.04437757455067369 -0.044413004700678313
leaf_weight=1.5439475178718596 0.67825426906347319 1.70859158039093 2.0404789745807648 1.0707008019089701 0.75270596891641639 0.75286907702684436 1.3990090340375874 0.7200850024819373 0.91651613265275944 0.71475772559642781 0.94735636562108994 0.85123559832572926 1.1809748038649557 1.1154291331768045 1.3791875317692748 0.68826802074909321 1.0442272871732712
leaf_count=7 10 8 16 16 10 11 20 11 13 10 13 12 17 16 20 10 15
internal_value=0 0.117572 0.0878706 -0.0444222 -0.044462 -0.0443851 -0.0443908 -0.0443589 -0.0443953 -0.0445849 -0.044613 -0.044416 -0.0443911 -0.0444102 -0.0443989 -0.0443566 -0.0444218
internal_weight=0 5.29302 3.58443 14.2116 6.2706 3.85578 7.94098 3.00312 2.28304 2.41482 1.70006 2.78508 1.93384 4.93785 2.49462 1.36652 2.44324
internal_count=235 31 23 204 89 56 115 44 33 33 23 40 28 71 36 20 35
is_linear=0
shrinkage=0.05


Tree=26
num_leaves=17
num_cat=0
split_feature=44 47 46 31 43 43 46 43 44 2 44 47 10 5 44 44
split_gain=56.6832 31.998 2.61029 3.85988 0.0166687 0.00177275 0.000453534 6.42585e-05 0.000128648 5.14716e-05 3.88892e-05 2.35695e-05 6.88251e-06 6.41319e-06 1.66823e-06 6.07527e-07
threshold=-0.85651957084949604 1.7734042568529198 0.62832158161253837 1.0000000180025095e-35 -1.0000000180025095e-35 0.72816912670349287 1.0000000180025095e-35 -0.078920955307406782 0.2744208128324736 1.0000000180025095e-35 0.2744208128324736 -0.40278193657286659 1.0000000180025095e-35 1.0000000180025095e-35 0.65140076417830439 1.2797011538831129
decision_type=2 2 2 2 2 2 2 2 2 2 2 2 2 2 2 2
left_child=1 4 6 -4 -1 -6 7 8 9 13 -9 15 -3 -2 -8 -12
right_child=2 12 3 -5 5 -7 14 10 -10 -11 11 -13 -14 -15 -16 -17
leaf_value=0.11491665110072061 -0.04957828649117596 -0.049900459570402456 -0.050618987663482412 0.042753296745819361 0.11209137439382355 0.11055390438322055 -0.0503881259328708 -0.050000872397939447 -0.04927810413397242 -0.049964266939590128 -0.049832764016801485 -0.04968911121945447 -0.050031823961101708 -0.049719051729540512 -0.050324156488018162 -0.049866097364698297
leaf_weight=4.7079638242721566 1.6079629361629566 1.9833698272705071 2.4349500238895407 2.0292125791311264 3.0804041326045999 4.7908164262771606 1.8827401548624028 2.9959535151720056 1.7145154625177381 2.1604624688625336 2.13742439448834 3.4103872925043035 2.0050851702690125 1.6287289559841156 2.2220305651426315 3.7920204997062683
leaf_count=17 10 12 14 9 11 17 11 18 11 13 13 21 12 10 13 23
internal_value=0 0.0734362 -0.0432314 -0.00817604 0.112563 0.111156 -0.0498759 -0.0497751 -0.0496554 -0.0497753 -0.0498441 -0.0497938 -0.0499665 -0.0496491 -0.0503535 -0.0498541
internal_weight=0 16.5676 28.0164 4.46416 12.5792 7.87122 23.5522 19.4475 7.11167 5.39715 12.3358 9.33983 3.98845 3.23669 4.10477 5.92944
internal_count=235 69 166 23 45 28 143 119 44 33 75 57 24 20 24 36
is_linear=0
shrinkage=0.05


Tree=27
num_leaves=16
num_cat=0
split_feature=35 22 48 48 9 45 43 45 45 2 43 4 44 38 0
split_gain=25.6905 28.8871 3.46484 8.99899 10.9881 2.57777 0.00248603 8.12519e-05 4.4171e-05 7.7039e-05 2.46883e-05 3.007e-05 8.95348e-06 7.05365e-06 4.02324e-06
threshold=1.0000000180025095e-35 1.0000000180025095e-35 -0.25764316717006458 -0.90662630859202975 1.0000000180025095e-35 -0.87499516859734705 -1.3472053698959632 -1.3557927726889036 0.87991608633683449 1.0000000180025095e-35 0.72816912670349287 1.0000000180025095e-35 -0.98217961348082616 1.0000000180025095e-35 1.0000000180025095e-35
decision_type=2 2 2 2 2 2 2 2 2 2 2 2 2 2 2
left_child=1 2 3 5 -5 7 -3 14 9 13 11 -10 -9 -4 -1
right_child=-2 6 8 4 -6 -7 -8 12 10 -11 -12 -13 -14 -15 -16
leaf_value=-0.049214514354100403 0.11384498514177673 0.091984194810582495 -0.049162038646676891 0.098441270933222635 -0.049622853583118492 0.0062290905308126625 0.094114656214570103 -0.049451550387778306 -0.048925508569114956 -0.049555590349888837 -0.049254259270678863 -0.049205774384302153 -0.04959097830107484 -0.049280448351200407 -0.049297928706433118
leaf_weight=2.80465371906757 4.4552177786827079 2.6061455607414246 2.9461407810449582 3.1275679767131832 2.0906213670969009 2.5937168151140222 2.885255590081214 1.9100452065467832 1.9622447937726974 2.4018949866294861 2.9712475538253784 1.8682520985603333 2.8989873379468918 2.194567084312439 2.9830644726753235
leaf_count=18 16 10 19 12 13 14 11 12 13 15 19 12 18 14 19
internal_value=0 -0.0130225 -0.0308157 -0.0164603 0.0391207 -0.0384482 0.0931036 -0.0493837 -0.0492385 -0.0493218 -0.0491461 -0.0490622 -0.0495356 -0.0492126 -0.0492575
internal_weight=0 38.2444 32.753 18.4087 5.21819 13.1905 5.4914 10.5968 14.3443 7.5426 6.80174 3.8305 4.80903 5.14071 5.78772
internal_count=235 219 198 106 25 81 21 67 92 48 44 25 30 33 37
is_linear=0
shrinkage=0.05


Tree=28
num_leaves=16
num_cat=0
split_feature=45 43 3 43 43 43 14 43 0 44 45 41 25 43 44
split_gain=39.8262 34.9649 27.0067 0.537953 1.10487 0.00469928 0.0015799 0.000434353 0.000331645 0.000438065 0.000143528 0.000137175 0.000123252 5.21762e-05 3.51746e-05
threshold=-0.32207792389205697 0.26697479412583586 1.0000000180025095e-35 -0.42481670474064953 -0.078920955307406782 -0.54011528788506369 1.0000000180025095e-35 -1.0013096204627205 1.0000000180025095e-35 -0.85651957084949604 0.87991608633683449 1.0000000180025095e-35 1.0000000180025095e-35 0.8434677098479072 -0.60519948558683645
decision_type=2 2 2 2 2 2 2 2 2 2 2 2 2 2 2
left_child=6 2 3 5 -5 -2 7 12 9 -9 -3 14 -1 -12 -10
right_child=1 10 -4 4 -6 -7 -8 8 11 -11 13 -13 -14 -15 -16
leaf_value=-0.051561614703950875 0.10280046546529847 -0.052427576027537295 -0.052762491018210157 0.064438117763674349 0.099853613911247349 0.10045213969245853 -0.053785316477669334 -0.052138554702028231 -0.051999570731897239 -0.053102724840733251 -0.051811176966514431 -0.052547299340194413 -0.052108346646961318 -0.052165542574992264 -0.05221605455949424
leaf_weight=2.2221710383892104 6.3587979078292891 3.9074372053146345 3.7854140251874915 3.7923972606658936 5.252140551805498 3.2036892175674447 1.8850957602262486 1.9260921776294706 3.2446192204952267 3.0334286838769904 1.8842734098434446 2.559895321726799 1.9227631390094755 2.3148603737354279 4.4495520144700977
leaf_count=12 22 20 19 14 18 11 9 10 17 15 10 13 10 12 23
internal_value=0 0.036767 0.0689785 0.0937455 0.0850038 0.102014 -0.0524035 -0.052269 -0.0523926 -0.0527283 -0.0522095 -0.0522302 -0.0518152 -0.0520065 -0.0521248
internal_weight=0 30.499 22.3924 18.607 9.04454 9.56249 21.2436 19.3585 15.2136 4.95952 8.10657 10.2541 4.14493 4.19913 7.69417
internal_count=235 126 84 65 32 33 109 100 78 25 42 53 22 22 40
is_linear=0
shrinkage=0.05


Tree=29
num_leaves=15
num_cat=0
split_feature=44 44 44 46 43 42 43 43 2 43 10 40 43 43
split_gain=91.3484 0.0119034 0.000113721 0.000282305 0.000102038 6.52267e-05 5.52866e-05 4.01873e-05 3.28154e-05 3.26062e-05 2.40003e-05 1.58904e-05 3.97341e-06 9.62571e-07
threshold=1.028381068620454 1.2797011538831129 -0.98217961348082616 1.0000000180025095e-35 0.15167621098142162 1.0000000180025095e-35 -0.42481670474064953 0.15167621098142162 1.0000000180025095e-35 -0.54011528788506369 1.0000000180025095e-35 1.0000000180025095e-35 0.72816912670349287 -0.078920955307406782
decision_type=2 2 2 2 2 2 2 2 2 2 2 2 2 2
left_child=2 -2 5 7 6 10 11 8 9 -4 12 -5 -1 -11
right_child=1 -3 3 4 -6 -7 -8 -9 -10 13 -12 -13 -14 -15
leaf_value=-0.048231959908881919 0.12311679614157936 0.11981355286736206 -0.04804120039905297 -0.048767089940987073 -0.048352437553588076 -0.048042947430347871 -0.049006840011336511 -0.048505617600358222 -0.04845162265944445 -0.048256783776695678 -0.048504514802887061 -0.048580350625947365 -0.048330344879641586 -0.048300826464923806
leaf_weight=1.9721376597881333 4.8325600326061231 6.2603358328342438 1.9279543235898007 2.8359431624412528 1.713353782892227 2.4756542593240738 1.9768645018339146 2.1764816194772711 1.8786405771970747 2.1224447339773165 1.7438387274742124 1.9040940254926679 2.1396141946315765 2.9857947677373926
leaf_count=14 18 23 14 19 12 18 13 15 13 15 12 13 15 21
internal_value=0 0.121253 -0.0484128 -0.0484788 -0.0486969 -0.0482581 -0.0487847 -0.048313 -0.048266 -0.0482164 -0.0483491 -0.0486921 -0.0482832 -0.0482825
internal_weight=0 11.0929 27.8528 19.5216 8.43026 8.33124 6.7169 11.0913 8.91483 7.03619 5.85559 4.74004 4.11175 5.10824
internal_count=235 41 194 135 57 59 45 78 63 50 41 32 29 36
is_linear=0
shrinkage=0.05


end of trees

feature_importances:
Column_43=86
Column_44=81
Column_45=33
Column_48=25
Column_46=21
Column_2=20
Column_47=18
Column_4=17
Column_0=10
Column_3=8
Column_10=8
Column_12=8
Column_14=6
Column_42=6
Column_9=5
Column_22=5
Column_31=5
Column_35=5
Column_40=5
Column_5=4
Column_7=4
Column_41=4
Column_1=3
Column_25=3
Column_38=3
Column_13=2
Column_16=1

parameters:
[boosting: gbdt]
[objective: multiclass]
[metric: custom]
[tree_learner: serial]
[device_type: cpu]
[data_sample_strategy: bagging]
[data: ]
[valid: ]
[num_iterations: 10000]
[learning_rate: 0.05]
[num_leaves: 95]
[num_threads: 0]
[seed: 1238]
[deterministic: 0]
[force_col_wise: 0]
[force_row_wise: 0]
[histogram_pool_size: -1]
[max_depth: -1]
[min_data_in_leaf: 10]
[min_sum_hessian_in_leaf: 0.001]
[bagging_fraction: 1]
[pos_bagging_fraction: 1]
[neg_bagging_fraction: 1]
[bagging_freq: 0]
[bagging_seed: 10438]
[feature_fraction: 1]
[feature_fraction_bynode: 1]
[feature_fraction_seed: 6707]
[extra_trees: 0]
[extra_seed: 23424]
[early_stopping_round: 0]
[early_stopping_min_delta: 0]
[first_metric_only: 0]
[max_delta_step: 0]
[lambda_l1: 0]
[lambda_l2: 0]
[linear_lambda: 0]
[min_gain_to_split: 0]
[drop_rate: 0.1]
[max_drop: 50]
[skip_drop: 0.5]
[xgboost_dart_mode: 0]
[uniform_drop: 0]
[drop_seed: 18682]
[top_rate: 0.2]
[other_rate: 0.1]
[min_data_per_group: 100]
[max_cat_threshold: 32]
[cat_l2: 10]
[cat_smooth: 10]
[max_cat_to_onehot: 4]
[top_k: 20]
[monotone_constraints: ]
[monotone_constraints_method: basic]
[monotone_penalty: 0]
[feature_contri: ]
[forcedsplits_filename: ]
[refit_decay_rate: 0.9]
[cegb_tradeoff: 1]
[cegb_penalty_split: 0]
[cegb_penalty_feature_lazy: ]
[cegb_penalty_feature_coupled: ]
[path_smooth: 0]
[interaction_constraints: ]
[verbosity: -1]
[saved_feature_importance_type: 0]
[use_quantized_grad: 0]
[num_grad_quant_bins: 4]
[quant_train_renew_leaf: 0]
[stochastic_rounding: 1]
[linear_tree: 0]
[max_bin: 255]
[max_bin_by_feature: ]
[min_data_in_bin: 3]
[bin_construct_sample_cnt: 200000]
[data_random_seed: 4081]
[is_enable_sparse: 1]
[enable_bundle: 1]
[use_missing: 1]
[zero_as_missing: 0]
[feature_pre_filter: 1]
[pre_partition: 0]
[two_round: 0]
[header: 0]
[label_column: ]
[weight_column: ]
[group_column: ]
[ignore_column: ]
[categorical_feature: ]
[forcedbins_filename: ]
[precise_float_parser: 0]
[parser_config_file: ]
[objective_seed: 31546]
[num_class: 6]
[is_unbalance: 0]
[scale_pos_weight: 1]
[sigmoid: 1]
[boost_from_average: 1]
[reg_sqrt: 0]
[alpha: 0.9]
[fair_c: 1]
[poisson_max_delta_step: 0.7]
[tweedie_variance_power: 1.5]
[lambdarank_truncation_level: 30]
[lambdarank_norm: 1]
[label_gain: ]
[lambdarank_position_bias_regularization: 0]
[eval_at: ]
[multi_error_top_k: 1]
[auc_mu_weights: ]
[num_machines: 1]
[local_listen_port: 12400]
[time_out: 120]
[machine_list_filename: ]
[machines: ]
[gpu_platform_id: -1]
[gpu_device_id: -1]
[gpu_use_dp: 0]
[num_gpu: 1]

end of parameters

pandas_categorical:null
