{"learner":{"attributes":{"best_iteration":"0","best_score":"-0.965517"},"feature_names":[],"feature_types":[],"gradient_booster":{"model":{"gbtree_model_param":{"num_parallel_tree":"1","num_trees":"306"},"iteration_indptr":[0,6,12,18,24,30,36,42,48,54,60,66,72,78,84,90,96,102,108,114,120,126,132,138,144,150,156,162,168,174,180,186,192,198,204,210,216,222,228,234,240,246,252,258,264,270,276,282,288,294,300,306],"tree_info":[0,1,2,3,4,5,0,1,2,3,4,5,0,1,2,3,4,5,0,1,2,3,4,5,0,1,2,3,4,5,0,1,2,3,4,5,0,1,2,3,4,5,0,1,2,3,4,5,0,1,2,3,4,5,0,1,2,3,4,5,0,1,2,3,4,5,0,1,2,3,4,5,0,1,2,3,4,5,0,1,2,3,4,5,0,1,2,3,4,5,0,1,2,3,4,5,0,1,2,3,4,5,0,1,2,3,4,5,0,1,2,3,4,5,0,1,2,3,4,5,0,1,2,3,4,5,0,1,2,3,4,5,0,1,2,3,4,5,0,1,2,3,4,5,0,1,2,3,4,5,0,1,2,3,4,5,0,1,2,3,4,5,0,1,2,3,4,5,0,1,2,3,4,5,0,1,2,3,4,5,0,1,2,3,4,5,0,1,2,3,4,5,0,1,2,3,4,5,0,1,2,3,4,5,0,1,2,3,4,5,0,1,2,3,4,5,0,1,2,3,4,5,0,1,2,3,4,5,0,1,2,3,4,5,0,1,2,3,4,5,0,1,2,3,4,5,0,1,2,3,4,5,0,1,2,3,4,5,0,1,2,3,4,5,0,1,2,3,4,5,0,1,2,3,4,5,0,1,2,3,4,5,0,1,2,3,4,5,0,1,2,3,4,5,0,1,2,3,4,5,0,1,2,3,4,5],"trees":[{"base_weights":[-2.8918692E-1,1.8109755E-1,-4.4255517E-2],"categories":[],"categories_nodes":[],"categories_segments":[],"categories_sizes":[],"default_left":[0,0,0],"id":0,"left_children":[1,-1,-1],"loss_changes":[5.534467E1,0E0,0E0],"parents":[2147483647,0,0],"right_children":[2,-1,-1],"split_conditions":[-1.4219898E0,1.8109755E-1,-4.4255517E-2],"split_indices":[44,0,0],"split_type":[0,0,0],"sum_hessian":[6.527778E1,5.8333335E0,5.9444447E1],"tree_param":{"num_deleted":"0","num_feature":"49","num_nodes":"3","size_leaf_vector":"1"}},{"base_weights":[-3.1936297E-1,1.33526E0,-4.4219654E-2,1.7721237E-1,-3.4615386E-2],"categories":[],"categories_nodes":[],"categories_segments":[],"categories_sizes":[],"default_left":[0,0,0,0,0],"id":1,"left_children":[1,3,-1,-1,-1],"loss_changes":[3.042223E1,1.8835909E1,0E0,0E0,0E0],"parents":[2147483647,0,0,1,1],"right_children":[2,4,-1,-1,-1],"split_conditions":[-1.122954E0,1E0,-4.4219654E-2,1.7721237E-1,-3.4615386E-2],"split_indices":[48,15,0,0,0],"split_type":[0,0,0,0,0],"sum_hessian":[6.527778E1,8.611112E0,5.6666668E1,5.277778E0,3.3333335E0],"tree_param":{"num_deleted":"0","num_feature":"49","num_nodes":"5","size_leaf_vector":"1"}},{"base_weights":[1.4836542E-1,1.6611569E0,-5.023585E-1,2.0833333E-1,-3.9130434E-2,-4.389495E-2,2.2556366E-2,-3.5795454E-2,7.142857E-1,1.18421055E-1,-2.616279E-2],"categories":[],"categories_nodes":[],"categories_segments":[],"categories_sizes":[],"default_left":[0,0,0,0,0,0,0,0,0,0,0],"id":2,"left_children":[1,3,5,-1,-1,-1,7,-1,9,-1,-1],"loss_changes":[6.607898E1,5.060486E1,2.0634499E0,0E0,0E0,0E0,2.895591E0,0E0,3.7681408E0,0E0,0E0],"parents":[2147483647,0,0,1,1,2,2,6,6,8,8],"right_children":[2,4,6,-1,-1,-1,8,-1,10,-1,-1],"split_conditions":[-7.9368955E-1,1.8943034E0,9.1008687E-1,2.0833333E-1,-3.9130434E-2,-4.389495E-2,1E0,-3.5795454E-2,2.093255E-1,1.18421055E-1,-2.616279E-2],"split_indices":[44,47,46,0,0,0,31,0,43,0,0],"split_type":[0,0,0,0,0,0,0,0,0,0,0],"sum_hessian":[6.527778E1,1.9166668E1,4.6111115E1,1.2500001E1,6.666667E0,3.9722225E1,6.3888893E0,3.888889E0,2.5E0,1.1111112E0,1.388889E0],"tree_param":{"num_deleted":"0","num_feature":"49","num_nodes":"11","size_leaf_vector":"1"}},{"base_weights":[1.03101395E-1,-1.05121315E-1,1.8367346E-1,-3.5714287E-1,1.9756097E0,-4.2510122E-1,1.18421055E-1,-2.3684211E-2,1.8567961E-1,-5.406091E-1,2.752291E-2,-5.6149733E-1,-1.0344829E-1,-4.4262296E-1,1.231132E-1,-4.3855935E-2,-7.7586216E-3,1.1842105E-2,-2.3684211E-2,-4.0030673E-2,1.1842105E-2],"categories":[],"categories_nodes":[],"categories_segments":[],"categories_sizes":[],"default_left":[0,0,0,0,0,0,0,0,0,0,0,0,0,0,0,0,0,0,0,0,0],"id":3,"left_children":[1,3,-1,5,7,9,-1,-1,-1,11,13,15,17,19,-1,-1,-1,-1,-1,-1,-1],"loss_changes":[3.263182E1,3.31303E1,0E0,8.039329E0,8.612608E0,2.8845615E0,0E0,0E0,0E0,3.41671E-1,9.916591E0,3.8203144E-1,2.2867513E-1,6.405828E-1,0E0,0E0,0E0,0E0,0E0,0E0,0E0],"parents":[2147483647,0,0,1,1,3,3,4,4,5,5,9,9,10,10,11,11,12,12,13,13],"right_children":[2,4,-1,6,8,10,-1,-1,-1,12,14,16,18,20,-1,-1,-1,-1,-1,-1,-1],"split_conditions":[1E0,1E0,1.8367346E-1,1E0,7.597167E-1,1E0,1.18421055E-1,-2.3684211E-2,1.8567961E-1,1E0,3.246241E-1,1E0,1E0,-5.423695E-1,1.231132E-1,-4.3855935E-2,-7.7586216E-3,1.1842105E-2,-2.3684211E-2,-4.0030673E-2,1.1842105E-2],"split_indices":[35,22,0,26,45,40,0,0,0,12,43,14,13,44,0,0,0,0,0,0,0],"split_type":[0,0,0,0,0,0,0,0,0,0,0,0,0,0,0,0,0,0,0,0,0],"sum_hessian":[6.527778E1,6.0833336E1,4.4444447E0,5.5000004E1,5.8333335E0,5.3888893E1,1.1111112E0,1.1111112E0,4.7222223E0,4.277778E1,1.1111112E1,4.0555557E1,2.2222223E0,9.166667E0,1.9444445E0,3.8333336E1,2.2222223E0,1.1111112E0,1.1111112E0,8.055556E0,1.1111112E0],"tree_param":{"num_deleted":"0","num_feature":"49","num_nodes":"21","size_leaf_vector":"1"}},{"base_weights":[3.2942158E-1,-4.358639E-2,1.137931E0,1.9906541E0,-4.1447368E-2,2.6326528E0,-3.713592E-2,8.602941E-2,2.1117748E-1],"categories":[],"categories_nodes":[],"categories_segments":[],"categories_sizes":[],"default_left":[0,0,0,0,0,0,0,0,0],"id":4,"left_children":[1,-1,3,5,-1,7,-1,-1,-1],"loss_changes":[4.9455482E1,0E0,5.2196167E1,3.925003E1,0E0,1.9520569E0,0E0,0E0,0E0],"parents":[2147483647,0,0,2,2,3,3,5,5],"right_children":[2,-1,4,6,-1,8,-1,-1,-1],"split_conditions":[-3.9729293E-2,-4.358639E-2,2.093255E-1,1E0,-4.1447368E-2,1E0,-3.713592E-2,8.602941E-2,2.1117748E-1],"split_indices":[44,0,43,3,0,13,0,0,0],"split_type":[0,0,0,0,0,0,0,0,0],"sum_hessian":[6.527778E1,3.0833334E1,3.4444447E1,2.2777779E1,1.1666667E1,1.8055557E1,4.7222223E0,2.777778E0,1.5277779E1],"tree_param":{"num_deleted":"0","num_feature":"49","num_nodes":"9","size_leaf_vector":"1"}},{"base_weights":[2.766133E-2,-4.4180162E-2,2.0683856E-1],"categories":[],"categories_nodes":[],"categories_segments":[],"categories_sizes":[],"default_left":[0,0,0],"id":5,"left_children":[1,-1,-1],"loss_changes":[1.132223E2,0E0,0E0],"parents":[2147483647,0,0],"right_children":[2,-1,-1],"split_conditions":[1.0912111E0,-4.4180162E-2,2.0683856E-1],"split_indices":[44,0,0],"split_type":[0,0,0],"sum_hessian":[6.527778E1,5.3888893E1,1.1388889E1],"tree_param":{"num_deleted":"0","num_feature":"49","num_nodes":"3","size_leaf_vector":"1"}},{"base_weights":[-2.811639E-1,1.5376651E-1,-4.3842003E-2],"categories":[],"categories_nodes":[],"categories_segments":[],"categories_sizes":[],"default_left":[0,0,0],"id":6,"left_children":[1,-1,-1],"loss_changes":[4.7197903E1,0E0,0E0],"parents":[2147483647,0,0],"right_children":[2,-1,-1],"split_conditions":[-1.4219898E0,1.5376651E-1,-4.3842003E-2],"split_indices":[44,0,0],"split_type":[0,0,0],"sum_hessian":[6.403222E1,6.7103524E0,5.7321865E1],"tree_param":{"num_deleted":"0","num_feature":"49","num_nodes":"3","size_leaf_vector":"1"}},{"base_weights":[-3.1120023E-1,1.193575E0,-4.3804817E-2,1.5131927E-1,-3.418034E-2],"categories":[],"categories_nodes":[],"categories_segments":[],"categories_sizes":[],"default_left":[0,0,0,0,0],"id":7,"left_children":[1,3,-1,-1,-1],"loss_changes":[2.7360489E1,1.4912862E1,0E0,0E0,0E0],"parents":[2147483647,0,0,1,1],"right_children":[2,4,-1,-1,-1],"split_conditions":[-1.122954E0,1E0,-4.3804817E-2,1.5131927E-1,-3.418034E-2],"split_indices":[48,15,0,0,0],"split_type":[0,0,0,0,0],"sum_hessian":[6.393774E1,9.2963705E0,5.4641373E1,6.050288E0,3.2460825E0],"tree_param":{"num_deleted":"0","num_feature":"49","num_nodes":"5","size_leaf_vector":"1"}},{"base_weights":[1.3973114E-1,1.4459635E0,-4.950333E-1,1.7180565E-1,-3.8688395E-2,-4.3473057E-2,2.2155475E-2,-3.533959E-2,6.696275E-1,1.0893359E-1,-2.6012177E-2],"categories":[],"categories_nodes":[],"categories_segments":[],"categories_sizes":[],"default_left":[0,0,0,0,0,0,0,0,0,0,0],"id":8,"left_children":[1,3,5,-1,-1,-1,7,-1,9,-1,-1],"loss_changes":[5.609791E1,3.780562E1,2.012374E0,0E0,0E0,0E0,2.6753309E0,0E0,3.3744748E0,0E0,0E0],"parents":[2147483647,0,0,1,1,2,2,6,6,8,8],"right_children":[2,4,6,-1,-1,-1,8,-1,10,-1,-1],"split_conditions":[-7.9368955E-1,1.8943034E0,9.1008687E-1,1.7180565E-1,-3.8688395E-2,-4.3473057E-2,1E0,-3.533959E-2,2.093255E-1,1.0893359E-1,-2.6012177E-2],"split_indices":[44,47,46,0,0,0,31,0,43,0,0],"split_type":[0,0,0,0,0,0,0,0,0,0,0],"sum_hessian":[6.579385E1,2.1098644E1,4.4695213E1,1.4630784E1,6.4678607E0,3.8307667E1,6.387545E0,3.7797606E0,2.6077843E0,1.230888E0,1.3768964E0],"tree_param":{"num_deleted":"0","num_feature":"49","num_nodes":"11","size_leaf_vector":"1"}},{"base_weights":[1.0117695E-1,-9.929795E-2,1.5636183E-1,-3.478287E-1,1.7120644E0,-4.1656178E-1,1.0953227E-1,-2.3443615E-2,1.5779641E-1,-5.338127E-1,2.892897E-2,-5.551254E-1,-1.0106332E-1,-4.3545383E-1,1.1124162E-1,-4.341832E-2,-7.612888E-3,1.2101827E-2,-2.3624415E-2,-3.9590873E-2,1.1536362E-2],"categories":[],"categories_nodes":[],"categories_segments":[],"categories_sizes":[],"default_left":[0,0,0,0,0,0,0,0,0,0,0,0,0,0,0,0,0,0,0,0,0],"id":9,"left_children":[1,3,-1,5,7,9,-1,-1,-1,11,13,15,17,19,-1,-1,-1,-1,-1,-1,-1],"loss_changes":[2.6585789E1,2.814605E1,0E0,7.4002104E0,6.650194E0,2.8059692E0,0E0,0E0,0E0,3.3443546E-1,8.803884E0,3.7426376E-1,2.3103955E-1,6.2196517E-1,0E0,0E0,0E0,0E0,0E0,0E0,0E0],"parents":[2147483647,0,0,1,1,3,3,4,4,5,5,9,9,10,10,11,11,12,12,13,13],"right_children":[2,4,-1,6,8,10,-1,-1,-1,12,14,16,18,20,-1,-1,-1,-1,-1,-1,-1],"split_conditions":[1E0,1E0,1.5636183E-1,1E0,7.597167E-1,1E0,1.0953227E-1,-2.3443615E-2,1.5779641E-1,1E0,3.246241E-1,1E0,-2.5186884E-1,-5.423695E-1,1.1124162E-1,-4.341832E-2,-7.612888E-3,1.2101827E-2,-2.3624415E-2,-3.9590873E-2,1.1536362E-2],"split_indices":[35,22,0,26,45,40,0,0,0,14,43,12,43,44,0,0,0,0,0,0,0],"split_type":[0,0,0,0,0,0,0,0,0,0,0,0,0,0,0,0,0,0,0,0,0],"sum_hessian":[6.533306E1,6.019906E1,5.134002E0,5.3646397E1,6.552662E0,5.2423386E1,1.2230139E0,1.0954597E0,5.4572024E0,4.134368E1,1.1079702E1,3.9133583E1,2.2100992E0,8.92906E0,2.1506424E0,3.692141E1,2.2121723E0,1.1029187E0,1.1071806E0,7.808518E0,1.1205424E0],"tree_param":{"num_deleted":"0","num_feature":"49","num_nodes":"21","size_leaf_vector":"1"}},{"base_weights":[3.0715927E-1,-4.3176956E-2,1.0189486E0,1.7047414E0,-4.0975973E-2,2.1863163E0,-3.668334E-2,2.2531154E0,4.2728566E-2,4.3449964E-2,1.7443278E-1],"categories":[],"categories_nodes":[],"categories_segments":[],"categories_sizes":[],"default_left":[0,0,0,0,0,0,0,0,0,0,0],"id":10,"left_children":[1,-1,3,5,-1,7,-1,9,-1,-1,-1],"loss_changes":[4.3030914E1,0E0,4.146048E1,2.9062347E1,0E0,1.0823059E0,0E0,1.1701202E0,0E0,0E0,0E0],"parents":[2147483647,0,0,2,2,3,3,5,5,7,7],"right_children":[2,-1,4,6,-1,8,-1,10,-1,-1,-1],"split_conditions":[-3.9729293E-2,-4.3176956E-2,2.093255E-1,1E0,-4.0975973E-2,9.65551E-1,-3.668334E-2,3.852028E-2,4.2728566E-2,4.3449964E-2,1.7443278E-1],"split_indices":[44,0,43,3,0,44,0,45,0,0,0],"split_type":[0,0,0,0,0,0,0,0,0,0,0],"sum_hessian":[6.654298E1,2.9787685E1,3.675529E1,2.5495861E1,1.1259429E1,2.0909443E1,4.586419E0,1.9701624E1,1.2078195E0,1.1929488E0,1.8508675E1],"tree_param":{"num_deleted":"0","num_feature":"49","num_nodes":"11","size_leaf_vector":"1"}},{"base_weights":[2.5669511E-2,-4.37736E-2,1.7105475E-1],"categories":[],"categories_nodes":[],"categories_segments":[],"categories_sizes":[],"default_left":[0,0,0],"id":11,"left_children":[1,-1,-1],"loss_changes":[9.245492E1,0E0,0E0],"parents":[2147483647,0,0],"right_children":[2,-1,-1],"split_conditions":[1.0912111E0,-4.37736E-2,1.7105475E-1],"split_indices":[44,0,0],"split_type":[0,0,0],"sum_hessian":[6.5317764E1,5.2006725E1,1.3311037E1],"tree_param":{"num_deleted":"0","num_feature":"49","num_nodes":"3","size_leaf_vector":"1"}},{"base_weights":[-2.7363327E-1,1.3361597E-1,-4.344145E-2],"categories":[],"categories_nodes":[],"categories_segments":[],"categories_sizes":[],"default_left":[0,0,0],"id":12,"left_children":[1,-1,-1],"loss_changes":[4.102587E1,0E0,0E0],"parents":[2147483647,0,0],"right_children":[2,-1,-1],"split_conditions":[-1.4219898E0,1.3361597E-1,-4.344145E-2],"split_indices":[44,0,0],"split_type":[0,0,0],"sum_hessian":[6.2681187E1,7.4884763E0,5.519271E1],"tree_param":{"num_deleted":"0","num_feature":"49","num_nodes":"3","size_leaf_vector":"1"}},{"base_weights":[-3.0349335E-1,1.078277E0,-4.34027E-2,1.31972E-1,-3.3735875E-2],"categories":[],"categories_nodes":[],"categories_segments":[],"categories_sizes":[],"default_left":[0,0,0,0,0],"id":13,"left_children":[1,3,-1,-1,-1],"loss_changes":[2.4773758E1,1.2137044E1,0E0,0E0,0E0],"parents":[2147483647,0,0,1,1],"right_children":[2,4,-1,-1,-1],"split_conditions":[-1.122954E0,1E0,-4.34027E-2,1.31972E-1,-3.3735875E-2],"split_indices":[48,15,0,0,0],"split_type":[0,0,0,0,0],"sum_hessian":[6.2505848E1,9.896998E0,5.260885E1,6.740154E0,3.1568441E0],"tree_param":{"num_deleted":"0","num_feature":"49","num_nodes":"5","size_leaf_vector":"1"}},{"base_weights":[1.3208866E-1,1.2829353E0,-4.878708E-1,1.4664513E-1,-3.824166E-2,-5.5374277E-1,8.779932E-2,-4.313555E-2,-2.4108182E-1,-3.0148111E-2,5.233919E-3],"categories":[],"categories_nodes":[],"categories_segments":[],"categories_sizes":[],"default_left":[0,0,0,0,0,0,0,0,0,0,0],"id":14,"left_children":[1,3,5,-1,-1,7,-1,-1,9,-1,-1],"loss_changes":[4.8427605E1,2.9602398E1,5.4843874E0,0E0,0E0,1.5072823E-1,0E0,0E0,2.5274083E-1,0E0,0E0],"parents":[2147483647,0,0,1,1,2,2,5,5,8,8],"right_children":[2,4,6,-1,-1,8,-1,-1,10,-1,-1],"split_conditions":[-7.9368955E-1,1.8943034E0,1E0,1.4664513E-1,-3.824166E-2,1.4107065E0,8.779932E-2,-4.313555E-2,1E0,-3.0148111E-2,5.233919E-3],"split_indices":[44,47,9,0,0,47,0,0,0,0,0],"split_type":[0,0,0,0,0,0,0,0,0,0,0],"sum_hessian":[6.5998116E1,2.2731558E1,4.3266556E1,1.6465984E1,6.265573E0,4.2254456E1,1.0121012E0,3.876215E1,3.4923048E0,2.1081388E0,1.384166E0],"tree_param":{"num_deleted":"0","num_feature":"49","num_nodes":"11","size_leaf_vector":"1"}},{"base_weights":[9.919909E-2,-9.389928E-2,1.3608098E-1,-3.387544E-1,1.5122147E0,-4.0818724E-1,1.0143607E-1,-2.3053635E-2,1.3719834E-1,-5.2712965E-1,3.022722E-2,-5.489035E-1,-9.860716E-2,-4.2815006E-1,1.0117079E-1,-4.299348E-2,-7.5525483E-3,1.2298752E-2,-2.352863E-2,-3.914884E-2,1.12625165E-2],"categories":[],"categories_nodes":[],"categories_segments":[],"categories_sizes":[],"default_left":[0,0,0,0,0,0,0,0,0,0,0,0,0,0,0,0,0,0,0,0,0],"id":15,"left_children":[1,3,-1,5,7,9,-1,-1,-1,11,13,15,17,19,-1,-1,-1,-1,-1,-1,-1],"loss_changes":[2.2097652E1,2.4287605E1,0E0,6.808098E0,5.282324E0,2.724557E0,0E0,0E0,0E0,3.2761097E-1,7.8497024E0,3.6467457E-1,2.3204331E-1,6.040362E-1,0E0,0E0,0E0,0E0,0E0,0E0,0E0],"parents":[2147483647,0,0,1,1,3,3,4,4,5,5,9,9,10,10,11,11,12,12,13,13],"right_children":[2,4,-1,6,8,10,-1,-1,-1,12,14,16,18,20,-1,-1,-1,-1,-1,-1,-1],"split_conditions":[1E0,1E0,1.3608098E-1,1E0,7.597167E-1,1E0,1.0143607E-1,-2.3053635E-2,1.3719834E-1,1E0,3.246241E-1,1E0,1E0,-5.423695E-1,1.0117079E-1,-4.299348E-2,-7.5525483E-3,1.2298752E-2,-2.352863E-2,-3.914884E-2,1.12625165E-2],"split_indices":[35,22,0,26,45,40,0,0,0,12,43,14,41,44,0,0,0,0,0,0,0],"split_type":[0,0,0,0,0,0,0,0,0,0,0,0,0,0,0,0,0,0,0,0,0],"sum_hessian":[6.520456E1,5.9456245E1,5.7483144E0,5.2275787E1,7.180458E0,5.0942993E1,1.3327954E0,1.0701648E0,6.110293E0,3.991236E1,1.103063E1,3.771508E1,2.1972795E0,8.686565E0,2.3440652E0,3.5507603E1,2.2074792E0,1.0964589E0,1.1008205E0,7.557703E0,1.1288624E0],"tree_param":{"num_deleted":"0","num_feature":"49","num_nodes":"21","size_leaf_vector":"1"}},{"base_weights":[2.8801474E-1,-4.2777225E-2,9.242669E-1,1.494544E0,-4.0511634E-2,1.8752954E0,-3.6220964E-2,1.9233363E0,4.094165E-2,4.1106217E-2,1.4823513E-1],"categories":[],"categories_nodes":[],"categories_segments":[],"categories_sizes":[],"default_left":[0,0,0,0,0,0,0,0,0,0,0],"id":16,"left_children":[1,-1,3,5,-1,7,-1,9,-1,-1,-1],"loss_changes":[3.788398E1,0E0,3.3932415E1,2.2600037E1,0E0,5.0621796E-1,0E0,6.0609436E-1,0E0,0E0,0E0],"parents":[2147483647,0,0,2,2,3,3,5,5,7,7],"right_children":[2,-1,4,6,-1,8,-1,10,-1,-1,-1],"split_conditions":[-3.9729293E-2,-4.2777225E-2,2.093255E-1,1E0,-4.0511634E-2,9.65551E-1,-3.6220964E-2,3.852028E-2,4.094165E-2,4.1106217E-2,1.4823513E-1],"split_indices":[44,0,43,3,0,44,0,45,0,0,0],"split_type":[0,0,0,0,0,0,0,0,0,0,0],"sum_hessian":[6.740094E1,2.8736132E1,3.8664806E1,2.7813189E1,1.0851619E1,2.3365929E1,4.4472594E0,2.211982E1,1.246108E0,1.2437019E0,2.0876118E1],"tree_param":{"num_deleted":"0","num_feature":"49","num_nodes":"11","size_leaf_vector":"1"}},{"base_weights":[2.3927817E-2,-4.3378115E-2,1.4623283E-1],"categories":[],"categories_nodes":[],"categories_segments":[],"categories_sizes":[],"default_left":[0,0,0],"id":17,"left_children":[1,-1,-1],"loss_changes":[7.778327E1,0E0,0E0],"parents":[2147483647,0,0],"right_children":[2,-1,-1],"split_conditions":[1.0912111E0,-4.3378115E-2,1.4623283E-1],"split_indices":[44,0,0],"split_type":[0,0,0],"sum_hessian":[6.508578E1,5.01128E1,1.4972977E1],"tree_param":{"num_deleted":"0","num_feature":"49","num_nodes":"3","size_leaf_vector":"1"}},{"base_weights":[-2.665872E-1,1.1819939E-1,-4.3054678E-2],"categories":[],"categories_nodes":[],"categories_segments":[],"categories_sizes":[],"default_left":[0,0,0],"id":18,"left_children":[1,-1,-1],"loss_changes":[3.616384E1,0E0,0E0],"parents":[2147483647,0,0],"right_children":[2,-1,-1],"split_conditions":[-1.4219898E0,1.1819939E-1,-4.3054678E-2],"split_indices":[44,0,0],"split_type":[0,0,0],"sum_hessian":[6.12351E1,8.167122E0,5.3067978E1],"tree_param":{"num_deleted":"0","num_feature":"49","num_nodes":"3","size_leaf_vector":"1"}},{"base_weights":[-2.9621497E-1,9.8399466E-1,-4.301525E-2,1.17127165E-1,-3.3275466E-2],"categories":[],"categories_nodes":[],"categories_segments":[],"categories_sizes":[],"default_left":[0,0,0,0,0],"id":19,"left_children":[1,3,-1,-1,-1],"loss_changes":[2.2573051E1,1.0100049E1,0E0,0E0,0E0],"parents":[2147483647,0,0,1,1],"right_children":[2,4,-1,-1,-1],"split_conditions":[-1.122954E0,1E0,-4.301525E-2,1.17127165E-1,-3.3275466E-2],"split_indices":[48,15,0,0,0],"split_type":[0,0,0,0,0],"sum_hessian":[6.0991104E1,1.0405879E1,5.0585224E1,7.3413486E0,3.0645308E0],"tree_param":{"num_deleted":"0","num_feature":"49","num_nodes":"5","size_leaf_vector":"1"}},{"base_weights":[1.254713E-1,1.1552749E0,-4.806984E-1,1.28284E-1,-3.7791833E-2,-5.480247E-1,8.219481E-2,-4.274077E-2,-2.36954E-1,-2.9778952E-2,5.0509283E-3],"categories":[],"categories_nodes":[],"categories_segments":[],"categories_sizes":[],"default_left":[0,0,0,0,0,0,0,0,0,0,0],"id":20,"left_children":[1,3,5,-1,-1,7,-1,-1,9,-1,-1],"loss_changes":[4.2317184E1,2.3965996E1,5.1457214E0,0E0,0E0,1.4863873E-1,0E0,0E0,2.4357823E-1,0E0,0E0],"parents":[2147483647,0,0,1,1,2,2,5,5,8,8],"right_children":[2,4,6,-1,-1,8,-1,-1,10,-1,-1],"split_conditions":[-7.9368955E-1,1.8943034E0,1E0,1.28284E-1,-3.7791833E-2,1.4107065E0,8.219481E-2,-4.274077E-2,1E0,-2.9778952E-2,5.0509283E-3],"split_indices":[44,47,9,0,0,47,0,0,16,0,0],"split_type":[0,0,0,0,0,0,0,0,0,0,0],"sum_hessian":[6.5900764E1,2.4082264E1,4.18185E1,1.8021217E1,6.061046E0,4.073156E1,1.0869393E0,3.728067E1,3.450891E0,2.0614889E0,1.389402E0],"tree_param":{"num_deleted":"0","num_feature":"49","num_nodes":"11","size_leaf_vector":"1"}},{"base_weights":[9.7198926E-2,-8.89127E-2,1.20510064E-1,-3.2989442E-1,1.3545738E0,-3.9997822E-1,9.428239E-2,-2.2654904E-2,1.2144039E-1,-5.205495E-1,3.1421147E-2,-5.427961E-1,-9.710653E-2,-4.20671E-1,9.248857E-2,-4.258112E-2,-7.4744495E-3,1.199408E-2,-2.3266183E-2,-3.8701788E-2,1.1007969E-2],"categories":[],"categories_nodes":[],"categories_segments":[],"categories_sizes":[],"default_left":[0,0,0,0,0,0,0,0,0,0,0,0,0,0,0,0,0,0,0,0,0],"id":21,"left_children":[1,3,-1,5,7,9,-1,-1,-1,11,13,15,17,19,-1,-1,-1,-1,-1,-1,-1],"loss_changes":[1.8655743E1,2.1181866E1,0E0,6.273578E0,4.313463E0,2.6404352E0,0E0,0E0,0E0,3.1925488E-1,7.018372E0,3.5582352E-1,2.2427773E-1,5.86432E-1,0E0,0E0,0E0,0E0,0E0,0E0,0E0],"parents":[2147483647,0,0,1,1,3,3,4,4,5,5,9,9,10,10,11,11,12,12,13,13],"right_children":[2,4,-1,6,8,10,-1,-1,-1,12,14,16,18,20,-1,-1,-1,-1,-1,-1,-1],"split_conditions":[1E0,1E0,1.20510064E-1,1E0,7.597167E-1,1E0,9.428239E-2,-2.2654904E-2,1.2144039E-1,1E0,3.246241E-1,1E0,1E0,-5.423695E-1,9.248857E-2,-4.258112E-2,-7.4744495E-3,1.199408E-2,-2.3266183E-2,-3.8701788E-2,1.1007969E-2],"split_indices":[35,22,0,26,45,40,0,0,0,12,43,14,41,44,0,0,0,0,0,0,0],"split_type":[0,0,0,0,0,0,0,0,0,0,0,0,0,0,0,0,0,0,0,0,0],"sum_hessian":[6.489281E1,5.8608364E1,6.2844443E0,5.0884888E1,7.7234764E0,4.9449112E1,1.4357765E0,1.044329E0,6.6791472E0,3.8486042E1,1.0963069E1,3.629722E1,2.188824E0,8.438521E0,2.524548E0,3.4096127E1,2.2010899E0,1.1053097E0,1.0835143E0,7.302099E0,1.1364219E0],"tree_param":{"num_deleted":"0","num_feature":"49","num_nodes":"21","size_leaf_vector":"1"}},{"base_weights":[2.7130356E-1,-4.238956E-2,8.472351E-1,1.3335009E0,-4.004983E-2,1.6462091E0,-3.5751186E-2,1.697499E0,1.32470345E-2,1.3038033E-1,3.9155625E-2],"categories":[],"categories_nodes":[],"categories_segments":[],"categories_sizes":[],"default_left":[0,0,0,0,0,0,0,0,0,0,0],"id":22,"left_children":[1,-1,3,5,-1,7,-1,9,-1,-1,-1],"loss_changes":[3.366493E1,0E0,2.8381388E1,1.8194065E1,0E0,1.6938095E0,0E0,3.1567383E-1,0E0,0E0,0E0],"parents":[2147483647,0,0,2,2,3,3,5,5,7,7],"right_children":[2,-1,4,6,-1,8,-1,10,-1,-1,-1],"split_conditions":[-3.9729293E-2,-4.238956E-2,2.093255E-1,1E0,-4.004983E-2,1E0,-3.5751186E-2,9.65551E-1,1.32470345E-2,1.3038033E-1,3.9155625E-2],"split_indices":[44,0,43,3,0,16,0,44,0,0,0],"split_type":[0,0,0,0,0,0,0,0,0,0,0],"sum_hessian":[6.7884315E1,2.7688082E1,4.0196236E1,2.9755358E1,1.0440878E1,2.5449547E1,4.3058114E0,2.4441425E1,1.0081204E0,2.3156607E1,1.2848186E0],"tree_param":{"num_deleted":"0","num_feature":"49","num_nodes":"11","size_leaf_vector":"1"}},{"base_weights":[2.235161E-2,-4.2995587E-2,1.2806611E-1],"categories":[],"categories_nodes":[],"categories_segments":[],"categories_sizes":[],"default_left":[0,0,0],"id":23,"left_children":[1,-1,-1],"loss_changes":[6.682975E1,0E0,0E0],"parents":[2147483647,0,0],"right_children":[2,-1,-1],"split_conditions":[1.0912111E0,-4.2995587E-2,1.2806611E-1],"split_indices":[44,0,0],"split_type":[0,0,0],"sum_hessian":[6.4605034E1,4.822124E1,1.6383793E1],"tree_param":{"num_deleted":"0","num_feature":"49","num_nodes":"3","size_leaf_vector":"1"}},{"base_weights":[-2.5993863E-1,1.06058E-1,-4.2680018E-2],"categories":[],"categories_nodes":[],"categories_segments":[],"categories_sizes":[],"default_left":[0,0,0],"id":24,"left_children":[1,-1,-1],"loss_changes":[3.2214325E1,0E0,0E0],"parents":[2147483647,0,0],"right_children":[2,-1,-1],"split_conditions":[-1.4219898E0,1.06058E-1,-4.2680018E-2],"split_indices":[44,0,0],"split_type":[0,0,0],"sum_hessian":[5.9695522E1,8.747895E0,5.0947628E1],"tree_param":{"num_deleted":"0","num_feature":"49","num_nodes":"3","size_leaf_vector":"1"}},{"base_weights":[-2.893101E-1,9.0483105E-1,-4.26395E-2,1.0532841E-1,-3.2809526E-2],"categories":[],"categories_nodes":[],"categories_segments":[],"categories_sizes":[],"default_left":[0,0,0,0,0],"id":25,"left_children":[1,3,-1,-1,-1],"loss_changes":[2.0651775E1,8.547817E0,0E0,0E0,0E0],"parents":[2147483647,0,0,1,1],"right_children":[2,4,-1,-1,-1],"split_conditions":[-1.122954E0,1E0,-4.26395E-2,1.0532841E-1,-3.2809526E-2],"split_indices":[48,15,0,0,0],"split_type":[0,0,0,0,0],"sum_hessian":[5.9395626E1,1.08314705E1,4.8564156E1,7.8600254E0,2.9714456E0],"tree_param":{"num_deleted":"0","num_feature":"49","num_nodes":"5","size_leaf_vector":"1"}},{"base_weights":[1.1959236E-1,1.0527726E0,-4.7362432E-1,1.14322156E-1,-3.7339978E-2,-5.424014E-1,7.710758E-2,-4.2356662E-2,-2.3267326E-1,-2.9612958E-2,5.503229E-3],"categories":[],"categories_nodes":[],"categories_segments":[],"categories_sizes":[],"default_left":[0,0,0,0,0,0,0,0,0,0,0],"id":26,"left_children":[1,3,5,-1,-1,7,-1,-1,9,-1,-1],"loss_changes":[3.732895E1,1.9891169E1,4.829938E0,0E0,0E0,1.469822E-1,0E0,0E0,2.4770641E-1,0E0,0E0],"parents":[2147483647,0,0,1,1,2,2,5,5,8,8],"right_children":[2,4,6,-1,-1,8,-1,-1,10,-1,-1],"split_conditions":[-7.9368955E-1,1.8943034E0,1E0,1.14322156E-1,-3.7339978E-2,1.4107065E0,7.710758E-2,-4.2356662E-2,1E0,-2.9612958E-2,5.503229E-3],"split_indices":[44,47,9,0,0,47,0,0,0,0,0],"split_type":[0,0,0,0,0,0,0,0,0,0,0],"sum_hessian":[6.553141E1,2.516696E1,4.0364452E1,1.9311617E1,5.8553424E0,3.920761E1,1.1568422E0,3.5800385E1,3.4072251E0,2.037501E0,1.3697242E0],"tree_param":{"num_deleted":"0","num_feature":"49","num_nodes":"11","size_leaf_vector":"1"}},{"base_weights":[9.533386E-2,-8.419881E-2,1.0823247E-1,-3.211844E-1,1.2275916E0,-3.918498E-1,8.779393E-2,-2.2245837E-2,1.090472E-1,-5.139995E-1,3.2554716E-2,-5.3676033E-1,-9.5363125E-2,-4.130671E-1,8.502671E-2,-4.2182263E-2,-7.242538E-3,1.1720671E-2,-2.2996008E-2,-3.8257148E-2,1.0832647E-2],"categories":[],"categories_nodes":[],"categories_segments":[],"categories_sizes":[],"default_left":[0,0,0,0,0,0,0,0,0,0,0,0,0,0,0,0,0,0,0,0,0],"id":27,"left_children":[1,3,-1,5,7,9,-1,-1,-1,11,13,15,17,19,-1,-1,-1,-1,-1,-1,-1],"loss_changes":[1.5944398E1,1.8627293E1,0E0,5.7789354E0,3.5992985E0,2.5535874E0,0E0,0E0,0E0,3.114519E-1,6.2962265E0,3.5111713E-1,2.1688361E-1,5.706973E-1,0E0,0E0,0E0,0E0,0E0,0E0,0E0],"parents":[2147483647,0,0,1,1,3,3,4,4,5,5,9,9,10,10,11,11,12,12,13,13],"right_children":[2,4,-1,6,8,10,-1,-1,-1,12,14,16,18,20,-1,-1,-1,-1,-1,-1,-1],"split_conditions":[1E0,1E0,1.0823247E-1,1E0,7.597167E-1,1E0,8.779393E-2,-2.2245837E-2,1.090472E-1,1E0,3.246241E-1,1E0,1E0,-5.423695E-1,8.502671E-2,-4.2182263E-2,-7.242538E-3,1.1720671E-2,-2.2996008E-2,-3.8257148E-2,1.0832647E-2],"split_indices":[35,22,0,26,45,40,0,0,0,12,43,14,41,44,0,0,0,0,0,0,0],"split_type":[0,0,0,0,0,0,0,0,0,0,0,0,0,0,0,0,0,0,0,0,0],"sum_hessian":[6.43925E1,5.7650536E1,6.741965E0,4.946876E1,8.181777E0,4.793538E1,1.5333812E0,1.0178814E0,7.1638956E0,3.7058346E1,1.0877032E1,3.4879803E1,2.1785426E0,8.188195E0,2.6888363E0,3.2695484E1,2.1843219E0,1.1129936E0,1.0655491E0,7.046799E0,1.1413965E0],"tree_param":{"num_deleted":"0","num_feature":"49","num_nodes":"21","size_leaf_vector":"1"}},{"base_weights":[2.5636283E-1,-4.2011388E-2,7.827131E-1,1.2053123E0,-3.959355E-2,1.4693764E0,-3.527548E-2,1.5122899E0,1.256129E-2,1.1585475E-1,3.747145E-2],"categories":[],"categories_nodes":[],"categories_segments":[],"categories_sizes":[],"default_left":[0,0,0,0,0,0,0,0,0,0,0],"id":28,"left_children":[1,-1,3,5,-1,7,-1,9,-1,-1,-1],"loss_changes":[3.0106852E1,0E0,2.4115843E1,1.5009876E1,0E0,1.3220749E0,0E0,1.2088394E-1,0E0,0E0,0E0],"parents":[2147483647,0,0,2,2,3,3,5,5,7,7],"right_children":[2,-1,4,6,-1,8,-1,10,-1,-1,-1],"split_conditions":[-3.9729293E-2,-4.2011388E-2,2.093255E-1,1E0,-3.959355E-2,1E0,-3.527548E-2,9.65551E-1,1.256129E-2,1.1585475E-1,3.747145E-2],"split_indices":[44,0,43,3,0,16,0,44,0,0,0],"split_type":[0,0,0,0,0,0,0,0,0,0,0],"sum_hessian":[6.803281E1,2.6641016E1,4.139179E1,3.1360312E1,1.0031476E1,2.7197405E1,4.1629066E0,2.6173069E1,1.0243348E0,2.4851566E1,1.3215034E0],"tree_param":{"num_deleted":"0","num_feature":"49","num_nodes":"11","size_leaf_vector":"1"}},{"base_weights":[2.0989344E-2,-4.2624168E-2,1.1421814E-1],"categories":[],"categories_nodes":[],"categories_segments":[],"categories_sizes":[],"default_left":[0,0,0],"id":29,"left_children":[1,-1,-1],"loss_changes":[5.8298157E1,0E0,0E0],"parents":[2147483647,0,0],"right_children":[2,-1,-1],"split_conditions":[1.0912111E0,-4.2624168E-2,1.1421814E-1],"split_indices":[44,0,0],"split_type":[0,0,0],"sum_hessian":[6.3888447E1,4.633103E1,1.7557415E1],"tree_param":{"num_deleted":"0","num_feature":"49","num_nodes":"3","size_leaf_vector":"1"}},{"base_weights":[-2.5369474E-1,9.627099E-2,-4.2318515E-2],"categories":[],"categories_nodes":[],"categories_segments":[],"categories_sizes":[],"default_left":[0,0,0],"id":30,"left_children":[1,-1,-1],"loss_changes":[2.8928778E1,0E0,0E0],"parents":[2147483647,0,0],"right_children":[2,-1,-1],"split_conditions":[-1.4219898E0,9.627099E-2,-4.2318515E-2],"split_indices":[44,0,0],"split_type":[0,0,0],"sum_hessian":[5.807764E1,9.233964E0,4.8843678E1],"tree_param":{"num_deleted":"0","num_feature":"49","num_nodes":"3","size_leaf_vector":"1"}},{"base_weights":[-2.8276342E-1,8.379696E-1,-4.2276975E-2,9.57971E-2,-3.233918E-2],"categories":[],"categories_nodes":[],"categories_segments":[],"categories_sizes":[],"default_left":[0,0,0,0,0],"id":31,"left_children":[1,3,-1,-1,-1],"loss_changes":[1.896438E1,7.3385687E0,0E0,0E0,0E0],"parents":[2147483647,0,0,1,1],"right_children":[2,4,-1,-1,-1],"split_conditions":[-1.122954E0,1E0,-4.2276975E-2,9.57971E-2,-3.233918E-2],"split_indices":[48,15,0,0,0],"split_type":[0,0,0,0,0],"sum_hessian":[5.773336E1,1.1173849E1,4.655951E1,8.295807E0,2.8780422E0],"tree_param":{"num_deleted":"0","num_feature":"49","num_nodes":"5","size_leaf_vector":"1"}},{"base_weights":[1.1430108E-1,9.6882826E-1,-4.666699E-1,1.0337347E-1,-3.688689E-2,-5.36882E-1,7.249419E-2,-4.1984536E-2,-2.2819789E-1,-2.9232388E-2,5.3501227E-3],"categories":[],"categories_nodes":[],"categories_segments":[],"categories_sizes":[],"default_left":[0,0,0,0,0,0,0,0,0,0,0],"id":32,"left_children":[1,3,5,-1,-1,7,-1,-1,9,-1,-1],"loss_changes":[3.317646E1,1.6828444E1,4.5355263E0,0E0,0E0,1.4591026E-1,0E0,0E0,2.3888503E-1,0E0,0E0],"parents":[2147483647,0,0,1,1,2,2,5,5,8,8],"right_children":[2,4,6,-1,-1,8,-1,-1,10,-1,-1],"split_conditions":[-7.9368955E-1,1.8943034E0,1E0,1.0337347E-1,-3.688689E-2,1.4107065E0,7.249419E-2,-4.1984536E-2,1E0,-2.9232388E-2,5.3501227E-3],"split_indices":[44,47,9,0,0,47,0,0,0,0,0],"split_type":[0,0,0,0,0,0,0,0,0,0,0],"sum_hessian":[6.4915955E1,2.6002422E1,3.8913532E1,2.0352972E1,5.6494493E0,3.769248E1,1.221057E0,3.433082E1,3.3616576E0,1.9880596E0,1.373598E0],"tree_param":{"num_deleted":"0","num_feature":"49","num_nodes":"11","size_leaf_vector":"1"}},{"base_weights":[9.357018E-2,-7.9771176E-2,9.833847E-2,-3.1266E-1,8.425783E-2,-3.838561E-1,8.205031E-2,-5.075108E-1,3.3570733E-2,-5.308323E-1,-9.335453E-2,-4.0540615E-1,7.856726E-2,-4.1795574E-2,-7.0091183E-3,1.2029271E-2,-2.2984205E-2,-3.7811376E-2,1.0631335E-2],"categories":[],"categories_nodes":[],"categories_segments":[],"categories_sizes":[],"default_left":[0,0,0,0,0,0,0,0,0,0,0,0,0,0,0,0,0,0,0],"id":33,"left_children":[1,3,-1,5,-1,7,-1,9,11,13,15,17,-1,-1,-1,-1,-1,-1,-1],"loss_changes":[1.3763695E1,1.6489817E1,0E0,5.330862E0,0E0,2.4644012E0,0E0,3.0434418E-1,5.665353E0,3.4661484E-1,2.2038472E-1,5.543517E-1,0E0,0E0,0E0,0E0,0E0,0E0,0E0],"parents":[2147483647,0,0,1,1,3,3,5,5,7,7,8,8,9,9,10,10,11,11],"right_children":[2,4,-1,6,-1,8,-1,10,12,14,16,18,-1,-1,-1,-1,-1,-1,-1],"split_conditions":[1E0,1E0,9.833847E-2,1E0,8.425783E-2,1E0,8.205031E-2,1E0,3.246241E-1,1E0,-2.5186884E-1,-5.423695E-1,7.856726E-2,-4.1795574E-2,-7.0091183E-3,1.2029271E-2,-2.2984205E-2,-3.7811376E-2,1.0631335E-2],"split_indices":[35,22,0,26,0,40,0,14,43,12,43,44,0,0,0,0,0,0,0],"split_type":[0,0,0,0,0,0,0,0,0,0,0,0,0,0,0,0,0,0,0],"sum_hessian":[6.371604E1,5.6593727E1,7.1223135E0,4.8036163E1,8.557563E0,4.64141E1,1.622061E0,3.5640484E1,1.0773617E1,3.3473824E1,2.1666608E0,7.9375067E0,2.8361106E0,3.1307009E1,2.166816E0,1.1019257E0,1.064735E0,6.790604E0,1.1469024E0],"tree_param":{"num_deleted":"0","num_feature":"49","num_nodes":"19","size_leaf_vector":"1"}},{"base_weights":[2.4313974E-1,-4.1643187E-2,7.2846407E-1,1.1018208E0,-3.914256E-2,1.3300108E0,-3.4795012E-2,1.3670334E0,1.1922975E-2,1.0452947E-1,3.5884034E-2],"categories":[],"categories_nodes":[],"categories_segments":[],"categories_sizes":[],"default_left":[0,0,0,0,0,0,0,0,0,0,0],"id":34,"left_children":[1,-1,3,5,-1,7,-1,9,-1,-1,-1],"loss_changes":[2.70843E1,0E0,2.0768484E1,1.2633202E1,0E0,1.0665016E0,0E0,1.0887146E-2,0E0,0E0,0E0],"parents":[2147483647,0,0,2,2,3,3,5,5,7,7],"right_children":[2,-1,4,6,-1,8,-1,10,-1,-1,-1],"split_conditions":[-3.9729293E-2,-4.1643187E-2,2.093255E-1,1E0,-3.914256E-2,1E0,-3.4795012E-2,9.65551E-1,1.1922975E-2,1.0452947E-1,3.5884034E-2],"split_indices":[44,0,43,3,0,16,0,44,0,0,0],"split_type":[0,0,0,0,0,0,0,0,0,0,0],"sum_hessian":[6.785573E1,2.55994E1,4.225633E1,3.263144E1,9.624888E0,2.8612125E1,4.019314E0,2.757303E1,1.0390948E0,2.6216986E1,1.3560445E0],"tree_param":{"num_deleted":"0","num_feature":"49","num_nodes":"11","size_leaf_vector":"1"}},{"base_weights":[1.9762075E-2,-4.226514E-2,1.0333789E-1],"categories":[],"categories_nodes":[],"categories_segments":[],"categories_sizes":[],"default_left":[0,0,0],"id":35,"left_children":[1,-1,-1],"loss_changes":[5.1444366E1,0E0,0E0],"parents":[2147483647,0,0],"right_children":[2,-1,-1],"split_conditions":[1.0912111E0,-4.226514E-2,1.0333789E-1],"split_indices":[44,0,0],"split_type":[0,0,0],"sum_hessian":[6.296153E1,4.445363E1,1.8507896E1],"tree_param":{"num_deleted":"0","num_feature":"49","num_nodes":"3","size_leaf_vector":"1"}},{"base_weights":[-2.4787067E-1,8.822969E-2,-4.1970957E-2],"categories":[],"categories_nodes":[],"categories_segments":[],"categories_sizes":[],"default_left":[0,0,0],"id":36,"left_children":[1,-1,-1],"loss_changes":[2.6143536E1,0E0,0E0],"parents":[2147483647,0,0],"right_children":[2,-1,-1],"split_conditions":[-1.4219898E0,8.822969E-2,-4.1970957E-2],"split_indices":[44,0,0],"split_type":[0,0,0],"sum_hessian":[5.6398632E1,9.62966E0,4.6768974E1],"tree_param":{"num_deleted":"0","num_feature":"49","num_nodes":"3","size_leaf_vector":"1"}},{"base_weights":[-2.7658412E-1,7.808751E-1,-4.1928437E-2,8.795458E-2,-3.1865146E-2],"categories":[],"categories_nodes":[],"categories_segments":[],"categories_sizes":[],"default_left":[0,0,0,0,0],"id":37,"left_children":[1,3,-1,-1,-1],"loss_changes":[1.7468271E1,6.3746676E0,0E0,0E0,0E0],"parents":[2147483647,0,0,1,1],"right_children":[2,4,-1,-1,-1],"split_conditions":[-1.122954E0,1E0,-4.1928437E-2,8.795458E-2,-3.1865146E-2],"split_indices":[48,15,0,0,0],"split_type":[0,0,0,0,0],"sum_hessian":[5.6021088E1,1.143754E1,4.458355E1,8.652847E0,2.7846925E0],"tree_param":{"num_deleted":"0","num_feature":"49","num_nodes":"5","size_leaf_vector":"1"}},{"base_weights":[1.09568425E-1,8.9957356E-1,-4.5989844E-1,9.464307E-2,-3.6433112E-2,-5.315048E-1,6.8310425E-2,-4.1627213E-2,-2.2348444E-1,-2.8836397E-2,5.2639944E-3],"categories":[],"categories_nodes":[],"categories_segments":[],"categories_sizes":[],"default_left":[0,0,0,0,0,0,0,0,0,0,0],"id":38,"left_children":[1,3,5,-1,-1,7,-1,-1,9,-1,-1],"loss_changes":[2.9693064E1,1.4467327E1,4.2611313E0,0E0,0E0,1.4553356E-1,0E0,0E0,2.3094696E-1,0E0,0E0],"parents":[2147483647,0,0,1,1,2,2,5,5,8,8],"right_children":[2,4,6,-1,-1,8,-1,-1,10,-1,-1],"split_conditions":[-7.9368955E-1,1.8943034E0,1E0,9.464307E-2,-3.6433112E-2,1.4107065E0,6.8310425E-2,-4.1627213E-2,1E0,-2.8836397E-2,5.2639944E-3],"split_indices":[44,47,9,0,0,47,0,0,16,0,0],"split_type":[0,0,0,0,0,0,0,0,0,0,0],"sum_hessian":[6.408233E1,2.6600515E1,3.748181E1,2.1156258E1,5.444257E0,3.6202797E1,1.2790155E0,3.288901E1,3.313784E0,1.9406263E0,1.3731577E0],"tree_param":{"num_deleted":"0","num_feature":"49","num_nodes":"11","size_leaf_vector":"1"}},{"base_weights":[9.194772E-2,-7.5440295E-2,9.0219975E-2,-3.0431214E-1,1.0326921E0,-3.759891E-1,7.69539E-2,-2.257224E-2,9.1730595E-2,-5.0107485E-1,3.4514572E-2,-5.250109E-1,-9.0657085E-2,-3.9767224E-1,7.2937064E-2,-4.1420735E-2,-6.808277E-3,1.166006E-2,-2.2584943E-2,-3.7366696E-2,1.0450315E-2],"categories":[],"categories_nodes":[],"categories_segments":[],"categories_sizes":[],"default_left":[0,0,0,0,0,0,0,0,0,0,0,0,0,0,0,0,0,0,0,0,0],"id":39,"left_children":[1,3,-1,5,7,9,-1,-1,-1,11,13,15,17,19,-1,-1,-1,-1,-1,-1,-1],"loss_changes":[1.1977223E1,1.4641097E1,0E0,4.923963E0,2.8811455E0,2.3736868E0,0E0,0E0,0E0,2.9856777E-1,5.110729E0,3.4160042E-1,2.100248E-1,5.38501E-1,0E0,0E0,0E0,0E0,0E0,0E0,0E0],"parents":[2147483647,0,0,1,1,3,3,4,4,5,5,9,9,10,10,11,11,12,12,13,13],"right_children":[2,4,-1,6,8,10,-1,-1,-1,12,14,16,18,20,-1,-1,-1,-1,-1,-1,-1],"split_conditions":[1E0,1E0,9.0219975E-2,1E0,7.597167E-1,1E0,7.69539E-2,-2.257224E-2,9.1730595E-2,1E0,3.246241E-1,1E0,-2.5186884E-1,-5.423695E-1,7.2937064E-2,-4.1420735E-2,-6.808277E-3,1.166006E-2,-2.2584943E-2,-3.7366696E-2,1.0450315E-2],"split_indices":[35,22,0,26,45,40,0,0,0,14,43,12,43,44,0,0,0,0,0,0,0],"split_type":[0,0,0,0,0,0,0,0,0,0,0,0,0,0,0,0,0,0,0,0,0],"sum_hessian":[6.2917587E1,5.5489315E1,7.428273E0,4.659172E1,8.897594E0,4.4890503E1,1.7012188E0,1.0389278E0,7.858667E0,3.423732E1,1.0653184E1,3.208677E1,2.1505504E0,7.6872244E0,2.9659595E0,2.9935291E1,2.1514757E0,1.1117961E0,1.0387543E0,6.5357E0,1.1515245E0],"tree_param":{"num_deleted":"0","num_feature":"49","num_nodes":"21","size_leaf_vector":"1"}},{"base_weights":[2.3135844E-1,-4.1282456E-2,6.820134E-1,1.0162302E0,-3.8697425E-2,1.2180912E0,-3.4370963E-2,1.102191E-2,9.385333E-2],"categories":[],"categories_nodes":[],"categories_segments":[],"categories_sizes":[],"default_left":[0,0,0,0,0,0,0,0,0],"id":40,"left_children":[1,-1,3,5,-1,7,-1,-1,-1],"loss_changes":[2.4469622E1,0E0,1.8072292E1,1.0858082E1,0E0,9.110718E-1,0E0,0E0,0E0],"parents":[2147483647,0,0,2,2,3,3,5,5],"right_children":[2,-1,4,6,-1,8,-1,-1,-1],"split_conditions":[-3.9729293E-2,-4.1282456E-2,2.093255E-1,1E0,-3.8697425E-2,-2.018187E-1,-3.4370963E-2,1.102191E-2,9.385333E-2],"split_indices":[44,0,43,3,0,45,0,0,0],"split_type":[0,0,0,0,0,0,0,0,0],"sum_hessian":[6.7387695E1,2.4559956E1,4.282774E1,3.3604378E1,9.223365E0,2.971085E1,3.8935277E0,1.058672E0,2.8652178E1],"tree_param":{"num_deleted":"0","num_feature":"49","num_nodes":"9","size_leaf_vector":"1"}},{"base_weights":[1.8590704E-2,-4.1919433E-2,9.458689E-2],"categories":[],"categories_nodes":[],"categories_segments":[],"categories_sizes":[],"default_left":[0,0,0],"id":41,"left_children":[1,-1,-1],"loss_changes":[4.5807186E1,0E0,0E0],"parents":[2147483647,0,0],"right_children":[2,-1,-1],"split_conditions":[1.0912111E0,-4.1919433E-2,9.458689E-2],"split_indices":[44,0,0],"split_type":[0,0,0],"sum_hessian":[6.1851288E1,4.2601357E1,1.924993E1],"tree_param":{"num_deleted":"0","num_feature":"49","num_nodes":"3","size_leaf_vector":"1"}},{"base_weights":[-2.4232581E-1,8.151626E-2,-4.1633874E-2],"categories":[],"categories_nodes":[],"categories_segments":[],"categories_sizes":[],"default_left":[0,0,0],"id":42,"left_children":[1,-1,-1],"loss_changes":[2.3743097E1,0E0,0E0],"parents":[2147483647,0,0],"right_children":[2,-1,-1],"split_conditions":[-1.4219898E0,8.151626E-2,-4.1633874E-2],"split_indices":[44,0,0],"split_type":[0,0,0],"sum_hessian":[5.4655613E1,9.940168E0,4.4715446E1],"tree_param":{"num_deleted":"0","num_feature":"49","num_nodes":"3","size_leaf_vector":"1"}},{"base_weights":[-2.7068043E-1,7.31241E-1,-4.158991E-2,8.135782E-2,-3.1388126E-2],"categories":[],"categories_nodes":[],"categories_segments":[],"categories_sizes":[],"default_left":[0,0,0,0,0],"id":43,"left_children":[1,3,-1,-1,-1],"loss_changes":[1.6120033E1,5.587591E0,0E0,0E0,0E0],"parents":[2147483647,0,0,1,1],"right_children":[2,4,-1,-1,-1],"split_conditions":[-1.122954E0,1E0,-4.158991E-2,8.135782E-2,-3.1388126E-2],"split_indices":[48,15,0,0,0],"split_type":[0,0,0,0,0],"sum_hessian":[5.425561E1,1.16297035E1,4.2625908E1,8.937942E0,2.6917622E0],"tree_param":{"num_deleted":"0","num_feature":"49","num_nodes":"5","size_leaf_vector":"1"}},{"base_weights":[1.0526537E-1,8.4059095E-1,-4.531713E-1,8.7434135E-2,-3.597899E-2,-5.261704E-1,6.451336E-2,-4.127715E-2,-2.1869111E-1,-2.8664317E-2,5.7503753E-3],"categories":[],"categories_nodes":[],"categories_segments":[],"categories_sizes":[],"default_left":[0,0,0,0,0,0,0,0,0,0,0],"id":44,"left_children":[1,3,5,-1,-1,7,-1,-1,9,-1,-1],"loss_changes":[2.6678123E1,1.2578217E1,4.004516E0,0E0,0E0,1.4532375E-1,0E0,0E0,2.3524614E-1,0E0,0E0],"parents":[2147483647,0,0,1,1,2,2,5,5,8,8],"right_children":[2,4,6,-1,-1,8,-1,-1,10,-1,-1],"split_conditions":[-7.9368955E-1,1.8943034E0,1E0,8.7434135E-2,-3.597899E-2,1.4107065E0,6.451336E-2,-4.127715E-2,1E0,-2.8664317E-2,5.7503753E-3],"split_indices":[44,47,9,0,0,47,0,0,0,0,0],"split_type":[0,0,0,0,0,0,0,0,0,0,0],"sum_hessian":[6.3040653E1,2.6992641E1,3.6048016E1,2.1752064E1,5.240578E0,3.471769E1,1.330324E0,3.1453133E1,3.2645566E0,1.9121205E0,1.3524363E0],"tree_param":{"num_deleted":"0","num_feature":"49","num_nodes":"11","size_leaf_vector":"1"}},{"base_weights":[9.050095E-2,-7.1400635E-2,8.34563E-2,-2.96084E-1,9.5937127E-1,-3.681986E-1,7.2416805E-2,-2.2123406E-2,8.4802404E-2,-4.946514E-1,3.542848E-2,-5.1925683E-1,-8.742633E-2,-3.8983193E-1,6.799666E-2,-4.1055635E-2,-6.6064084E-3,1.1560453E-2,-2.2274755E-2,-3.6924854E-2,1.0327873E-2],"categories":[],"categories_nodes":[],"categories_segments":[],"categories_sizes":[],"default_left":[0,0,0,0,0,0,0,0,0,0,0,0,0,0,0,0,0,0,0,0,0],"id":45,"left_children":[1,3,-1,5,7,9,-1,-1,-1,11,13,15,17,19,-1,-1,-1,-1,-1,-1,-1],"loss_changes":[1.0493755E1,1.3082405E1,0E0,4.5530567E0,2.5095901E0,2.2819028E0,0E0,0E0,0E0,2.9376316E-1,4.620154E0,3.3677006E-1,2.0429155E-1,5.240724E-1,0E0,0E0,0E0,0E0,0E0,0E0,0E0],"parents":[2147483647,0,0,1,1,3,3,4,4,5,5,9,9,10,10,11,11,12,12,13,13],"right_children":[2,4,-1,6,8,10,-1,-1,-1,12,14,16,18,20,-1,-1,-1,-1,-1,-1,-1],"split_conditions":[1E0,1E0,8.34563E-2,1E0,7.597167E-1,1E0,7.2416805E-2,-2.2123406E-2,8.4802404E-2,1E0,3.246241E-1,1E0,-2.5186884E-1,-5.423695E-1,6.799666E-2,-4.1055635E-2,-6.6064084E-3,1.1560453E-2,-2.2274755E-2,-3.6924854E-2,1.0327873E-2],"split_indices":[35,22,0,26,45,40,0,0,0,14,43,12,43,44,0,0,0,0,0,0,0],"split_type":[0,0,0,0,0,0,0,0,0,0,0,0,0,0,0,0,0,0,0,0,0],"sum_hessian":[6.192485E1,5.426123E1,7.6636176E0,4.5135532E1,9.1257E0,4.3364975E1,1.7705556E0,1.0099275E0,8.115772E0,3.2848362E1,1.0516615E1,3.0717247E1,2.1311133E0,7.438266E0,3.0783496E0,2.8581543E1,2.1357045E0,1.1128554E0,1.0182579E0,6.2840266E0,1.1542393E0],"tree_param":{"num_deleted":"0","num_feature":"49","num_nodes":"21","size_leaf_vector":"1"}},{"base_weights":[2.2037971E-1,-4.093302E-2,6.412744E-1,9.434895E-1,-3.8256735E-2,1.1235659E0,-3.3883292E-2,1.1541337E0,1.0072581E-2,8.826037E-2,3.1258512E-2],"categories":[],"categories_nodes":[],"categories_segments":[],"categories_sizes":[],"default_left":[0,0,0,0,0,0,0,0,0,0,0],"id":46,"left_children":[1,-1,3,5,-1,7,-1,9,-1,-1,-1],"loss_changes":[2.2175983E1,0E0,1.5841862E1,9.381289E0,0E0,7.995796E-1,0E0,1.9210815E-2,0E0,0E0,0E0],"parents":[2147483647,0,0,2,2,3,3,5,5,7,7],"right_children":[2,-1,4,6,-1,8,-1,10,-1,-1,-1],"split_conditions":[-3.9729293E-2,-4.093302E-2,2.093255E-1,1E0,-3.8256735E-2,1E0,-3.3883292E-2,9.65551E-1,1.0072581E-2,8.826037E-2,3.1258512E-2],"split_indices":[44,0,43,3,0,16,0,44,0,0,0],"split_type":[0,0,0,0,0,0,0,0,0,0,0],"sum_hessian":[6.668382E1,2.3539055E1,4.3144764E1,3.4317505E1,8.827261E0,3.0567163E1,3.7503414E0,2.9489302E1,1.0778621E0,2.8031443E1,1.4578586E0],"tree_param":{"num_deleted":"0","num_feature":"49","num_nodes":"11","size_leaf_vector":"1"}},{"base_weights":[1.7725343E-2,-4.1583817E-2,8.746229E-2],"categories":[],"categories_nodes":[],"categories_segments":[],"categories_sizes":[],"default_left":[0,0,0],"id":47,"left_children":[1,-1,-1],"loss_changes":[4.1100887E1,0E0,0E0],"parents":[2147483647,0,0],"right_children":[2,-1,-1],"split_conditions":[1.0912111E0,-4.1583817E-2,8.746229E-2],"split_indices":[44,0,0],"split_type":[0,0,0],"sum_hessian":[6.056406E1,4.07692E1,1.979486E1],"tree_param":{"num_deleted":"0","num_feature":"49","num_nodes":"3","size_leaf_vector":"1"}},{"base_weights":[-2.3714049E-1,7.583436E-2,-4.1310087E-2],"categories":[],"categories_nodes":[],"categories_segments":[],"categories_sizes":[],"default_left":[0,0,0],"id":48,"left_children":[1,-1,-1],"loss_changes":[2.1650042E1,0E0,0E0],"parents":[2147483647,0,0],"right_children":[2,-1,-1],"split_conditions":[-1.4219898E0,7.583436E-2,-4.1310087E-2],"split_indices":[44,0,0],"split_type":[0,0,0],"sum_hessian":[5.287332E1,1.0171299E1,4.2702023E1],"tree_param":{"num_deleted":"0","num_feature":"49","num_nodes":"3","size_leaf_vector":"1"}},{"base_weights":[-2.6507968E-1,6.881311E-1,-4.1264724E-2,1.0104122E0,-3.0908821E-2,2.747164E-2,8.032876E-2],"categories":[],"categories_nodes":[],"categories_segments":[],"categories_sizes":[],"default_left":[0,0,0,0,0,0,0],"id":49,"left_children":[1,3,-1,5,-1,-1,-1],"loss_changes":[1.49079075E1,4.9385705E0,0E0,4.2715073E-3,0E0,0E0,0E0],"parents":[2147483647,0,0,1,1,3,3],"right_children":[2,4,-1,6,-1,-1,-1],"split_conditions":[-1.122954E0,1E0,-4.1264724E-2,1E0,-3.0908821E-2,2.747164E-2,8.032876E-2],"split_indices":[48,15,0,40,0,0,0],"split_type":[0,0,0,0,0,0,0],"sum_hessian":[5.2460526E1,1.1753236E1,4.070729E1,9.153635E0,2.599601E0,1.3933558E0,7.7602787E0],"tree_param":{"num_deleted":"0","num_feature":"49","num_nodes":"7","size_leaf_vector":"1"}},{"base_weights":[1.0130824E-1,7.902982E-1,-4.4658735E-1,8.144075E-2,-3.5524786E-2,-5.209419E-1,6.1062675E-2,-4.093951E-2,-2.1376722E-1,-2.8272623E-2,5.667566E-3],"categories":[],"categories_nodes":[],"categories_segments":[],"categories_sizes":[],"default_left":[0,0,0,0,0,0,0,0,0,0,0],"id":50,"left_children":[1,3,5,-1,-1,7,-1,-1,9,-1,-1],"loss_changes":[2.4069088E1,1.1046242E1,3.7646494E0,0E0,0E0,1.4554787E-1,0E0,0E0,2.2748749E-1,0E0,0E0],"parents":[2147483647,0,0,1,1,2,2,5,5,8,8],"right_children":[2,4,6,-1,-1,8,-1,-1,10,-1,-1],"split_conditions":[-7.9368955E-1,1.8943034E0,1E0,8.144075E-2,-3.5524786E-2,1.4107065E0,6.1062675E-2,-4.093951E-2,1E0,-2.8272623E-2,5.667566E-3],"split_indices":[44,47,9,0,0,47,0,0,0,0,0],"split_type":[0,0,0,0,0,0,0,0,0,0,0],"sum_hessian":[6.1825138E1,2.7190323E1,3.4634815E1,2.2151155E1,5.0391684E0,3.3260067E1,1.3747492E0,3.0045708E1,3.214358E0,1.8614923E0,1.3528659E0],"tree_param":{"num_deleted":"0","num_feature":"49","num_nodes":"11","size_leaf_vector":"1"}},{"base_weights":[8.911196E-2,-6.762451E-2,7.774779E-2,-2.8808007E-1,6.726573E-2,-3.605783E-1,6.836386E-2,-4.8830676E-1,3.626324E-2,-5.135989E-1,-6.3578137E-3,-3.8196144E-1,6.363333E-2,-4.070294E-2,-6.3881758E-3,-3.648241E-2,1.0182796E-2],"categories":[],"categories_nodes":[],"categories_segments":[],"categories_sizes":[],"default_left":[0,0,0,0,0,0,0,0,0,0,0,0,0,0,0,0,0],"id":51,"left_children":[1,3,-1,5,-1,7,-1,9,11,13,-1,15,-1,-1,-1,-1,-1],"loss_changes":[9.247957E0,1.173314E1,0E0,4.214679E0,0E0,2.1898284E0,0E0,2.8804016E-1,4.184529E0,3.325386E-1,0E0,5.0911033E-1,0E0,0E0,0E0,0E0,0E0],"parents":[2147483647,0,0,1,1,3,3,5,5,7,7,8,8,9,9,11,11],"right_children":[2,4,-1,6,-1,8,-1,10,12,14,-1,16,-1,-1,-1,-1,-1],"split_conditions":[1E0,1E0,7.774779E-2,1E0,6.726573E-2,1E0,6.836386E-2,1E0,3.246241E-1,1E0,-6.3578137E-3,-5.423695E-1,6.363333E-2,-4.070294E-2,-6.3881758E-3,-3.648241E-2,1.0182796E-2],"split_indices":[35,22,0,26,0,40,0,14,43,12,0,44,0,0,0,0,0],"split_type":[0,0,0,0,0,0,0,0,0,0,0,0,0,0,0,0,0],"sum_hessian":[6.079884E1,5.2966007E1,7.8328304E0,4.3682774E1,9.2832365E0,4.18528E1,1.8299747E0,3.1487625E1,1.0365172E1,2.9373835E1,2.1137917E0,7.1916246E0,3.1735475E0,2.7255363E1,2.1184707E0,6.0344234E0,1.1572014E0],"tree_param":{"num_deleted":"0","num_feature":"49","num_nodes":"17","size_leaf_vector":"1"}},{"base_weights":[2.1082985E-1,-4.0593352E-2,6.0673827E-1,8.831027E-1,-3.8073465E-2,1.0685267E0,-3.4224488E-2,4.310454E-3,8.327729E-2],"categories":[],"categories_nodes":[],"categories_segments":[],"categories_sizes":[],"default_left":[0,0,0,0,0,0,0,0,0],"id":52,"left_children":[1,-1,3,5,-1,7,-1,-1,-1],"loss_changes":[2.019108E1,0E0,1.4052885E1,9.369286E0,0E0,1.2775764E0,0E0,0E0,0E0],"parents":[2147483647,0,0,2,2,3,3,5,5],"right_children":[2,-1,4,6,-1,8,-1,-1,-1],"split_conditions":[-3.9729293E-2,-4.0593352E-2,1.0912111E0,1E0,-3.8073465E-2,-2.018187E-1,-3.4224488E-2,4.310454E-3,8.327729E-2],"split_indices":[44,0,44,3,0,45,0,0,0],"split_type":[0,0,0,0,0,0,0,0,0],"sum_hessian":[6.570868E1,2.2534554E1,4.3174126E1,3.4761024E1,8.413101E0,3.07117E1,4.0493255E0,1.3146651E0,2.9397036E1],"tree_param":{"num_deleted":"0","num_feature":"49","num_nodes":"9","size_leaf_vector":"1"}},{"base_weights":[1.6810725E-2,-4.1260477E-2,8.148317E-2],"categories":[],"categories_nodes":[],"categories_segments":[],"categories_sizes":[],"default_left":[0,0,0],"id":53,"left_children":[1,-1,-1],"loss_changes":[3.7066357E1,0E0,0E0],"parents":[2147483647,0,0],"right_children":[2,-1,-1],"split_conditions":[1.0912111E0,-4.1260477E-2,8.148317E-2],"split_indices":[44,0,0],"split_type":[0,0,0],"sum_hessian":[5.9136837E1,3.8967876E1,2.0168964E1],"tree_param":{"num_deleted":"0","num_feature":"49","num_nodes":"3","size_leaf_vector":"1"}},{"base_weights":[-2.3227812E-1,7.096827E-2,-4.0998034E-2],"categories":[],"categories_nodes":[],"categories_segments":[],"categories_sizes":[],"default_left":[0,0,0],"id":54,"left_children":[1,-1,-1],"loss_changes":[1.9805698E1,0E0,0E0],"parents":[2147483647,0,0],"right_children":[2,-1,-1],"split_conditions":[-1.4219898E0,7.096827E-2,-4.0998034E-2],"split_indices":[44,0,0],"split_type":[0,0,0],"sum_hessian":[5.106299E1,1.03292675E1,4.073372E1],"tree_param":{"num_deleted":"0","num_feature":"49","num_nodes":"3","size_leaf_vector":"1"}},{"base_weights":[-2.5948653E-1,6.520062E-1,-4.0950704E-2,7.118145E-2,-3.0426785E-2],"categories":[],"categories_nodes":[],"categories_segments":[],"categories_sizes":[],"default_left":[0,0,0,0,0],"id":55,"left_children":[1,3,-1,-1,-1],"loss_changes":[1.3840524E1,4.408444E0,0E0,0E0,0E0],"parents":[2147483647,0,0,1,1],"right_children":[2,4,-1,-1,-1],"split_conditions":[-1.122954E0,1E0,-4.0950704E-2,7.118145E-2,-3.0426785E-2],"split_indices":[48,15,0,0,0],"split_type":[0,0,0,0,0],"sum_hessian":[5.06325E1,1.1804423E1,3.8828075E1,9.296081E0,2.5083432E0],"tree_param":{"num_deleted":"0","num_feature":"49","num_nodes":"5","size_leaf_vector":"1"}},{"base_weights":[9.7737364E-2,7.472482E-1,-4.401488E-1,7.64079E-2,-3.5067298E-2,-5.158105E-1,5.7921197E-2,-4.0614016E-2,-2.0844927E-1,-2.78695E-2,5.6417696E-3],"categories":[],"categories_nodes":[],"categories_segments":[],"categories_sizes":[],"default_left":[0,0,0,0,0,0,0,0,0,0,0],"id":56,"left_children":[1,3,5,-1,-1,7,-1,-1,9,-1,-1],"loss_changes":[2.1801205E1,9.782224E0,3.5401616E0,0E0,0E0,1.4660168E-1,0E0,0E0,2.2049867E-1,0E0,0E0],"parents":[2147483647,0,0,1,1,2,2,5,5,8,8],"right_children":[2,4,6,-1,-1,8,-1,-1,10,-1,-1],"split_conditions":[-7.9368955E-1,1.8943034E0,1E0,7.64079E-2,-3.5067298E-2,1.4107065E0,5.7921197E-2,-4.0614016E-2,1E0,-2.78695E-2,5.6417696E-3],"split_indices":[44,47,9,0,0,47,0,0,0,0,0],"split_type":[0,0,0,0,0,0,0,0,0,0,0],"sum_hessian":[6.0461327E1,2.7212423E1,3.3248905E1,2.2373152E1,4.8392706E0,3.1836702E1,1.4122019E0,2.8676199E1,3.1605017E0,1.8097528E0,1.350749E0],"tree_param":{"num_deleted":"0","num_feature":"49","num_nodes":"11","size_leaf_vector":"1"}},{"base_weights":[8.793066E-2,-6.378885E-2,7.287535E-2,-2.8016087E-1,8.3926404E-1,-3.530273E-1,6.477746E-2,-2.2173492E-2,7.445866E-2,-4.8198438E-1,3.7441507E-2,-5.080057E-1,-6.2059606E-3,-3.738301E-1,5.9764385E-2,-4.0356725E-2,-6.2838146E-3,-3.6030896E-2,1.0062664E-2],"categories":[],"categories_nodes":[],"categories_segments":[],"categories_sizes":[],"default_left":[0,0,0,0,0,0,0,0,0,0,0,0,0,0,0,0,0,0,0],"id":57,"left_children":[1,3,-1,5,7,9,-1,-1,-1,11,13,15,-1,17,-1,-1,-1,-1,-1],"loss_changes":[8.18723E0,1.0524413E1,0E0,3.9081037E0,2.1104827E0,2.1002269E0,0E0,0E0,0E0,2.816453E-1,3.794102E0,3.2573652E-1,0E0,4.944744E-1,0E0,0E0,0E0,0E0,0E0],"parents":[2147483647,0,0,1,1,3,3,4,4,5,5,9,9,10,10,11,11,13,13],"right_children":[2,4,-1,6,8,10,-1,-1,-1,12,14,16,-1,18,-1,-1,-1,-1,-1],"split_conditions":[1E0,1E0,7.287535E-2,1E0,7.597167E-1,1E0,6.477746E-2,-2.2173492E-2,7.445866E-2,1E0,3.246241E-1,1E0,-6.2059606E-3,-5.423695E-1,5.9764385E-2,-4.0356725E-2,-6.2838146E-3,-3.6030896E-2,1.0062664E-2],"split_indices":[35,22,0,26,45,40,0,0,0,14,43,12,0,44,0,0,0,0,0],"split_type":[0,0,0,0,0,0,0,0,0,0,0,0,0,0,0,0,0,0,0],"sum_hessian":[5.959969E1,5.165879E1,7.9408984E0,4.223018E1,9.428614E0,4.0351093E1,1.8790824E0,1.0131208E0,8.415493E0,3.0157005E1,1.019409E1,2.8055954E1,2.1010501E0,6.942198E0,3.2518926E0,2.5947456E1,2.1084976E0,5.7831554E0,1.1590421E0],"tree_param":{"num_deleted":"0","num_feature":"49","num_nodes":"19","size_leaf_vector":"1"}},{"base_weights":[2.0187987E-1,-4.0263064E-2,5.760244E-1,8.3053064E-1,-3.761362E-2,1.0008804E0,-3.379775E-2,4.0708324E-3,7.7980235E-2],"categories":[],"categories_nodes":[],"categories_segments":[],"categories_sizes":[],"default_left":[0,0,0,0,0,0,0,0,0],"id":58,"left_children":[1,-1,3,5,-1,7,-1,-1,-1],"loss_changes":[1.8421675E1,0E0,1.2478435E1,8.298281E0,0E0,1.1222801E0,0E0,0E0,0E0],"parents":[2147483647,0,0,2,2,3,3,5,5],"right_children":[2,-1,4,6,-1,8,-1,-1,-1],"split_conditions":[-3.9729293E-2,-4.0263064E-2,1.0912111E0,1E0,-3.761362E-2,-2.018187E-1,-3.379775E-2,4.0708324E-3,7.7980235E-2],"split_indices":[44,0,44,3,0,45,0,0,0],"split_type":[0,0,0,0,0,0,0,0,0],"sum_hessian":[6.4532585E1,2.1549616E1,4.298297E1,3.49559E1,8.027071E0,3.1046583E1,3.9093165E0,1.3186567E0,2.9727926E1],"tree_param":{"num_deleted":"0","num_feature":"49","num_nodes":"9","size_leaf_vector":"1"}},{"base_weights":[1.5799483E-2,-4.094783E-2,7.6384574E-2],"categories":[],"categories_nodes":[],"categories_segments":[],"categories_sizes":[],"default_left":[0,0,0],"id":59,"left_children":[1,-1,-1],"loss_changes":[3.355757E1,0E0,0E0],"parents":[2147483647,0,0],"right_children":[2,-1,-1],"split_conditions":[1.0912111E0,-4.094783E-2,7.6384574E-2],"split_indices":[44,0,0],"split_type":[0,0,0],"sum_hessian":[5.7589615E1,3.720173E1,2.0387884E1],"tree_param":{"num_deleted":"0","num_feature":"49","num_nodes":"3","size_leaf_vector":"1"}},{"base_weights":[-2.2761995E-1,6.675734E-2,-4.069578E-2],"categories":[],"categories_nodes":[],"categories_segments":[],"categories_sizes":[],"default_left":[0,0,0],"id":60,"left_children":[1,-1,-1],"loss_changes":[1.816488E1,0E0,0E0],"parents":[2147483647,0,0],"right_children":[2,-1,-1],"split_conditions":[-1.4219898E0,6.675734E-2,-4.069578E-2],"split_indices":[44,0,0],"split_type":[0,0,0],"sum_hessian":[4.922264E1,1.0420511E1,3.880213E1],"tree_param":{"num_deleted":"0","num_feature":"49","num_nodes":"3","size_leaf_vector":"1"}},{"base_weights":[-2.5435796E-1,6.182833E-1,-4.0646683E-2,8.934919E-1,-2.9943515E-2,2.42902E-2,7.109364E-2],"categories":[],"categories_nodes":[],"categories_segments":[],"categories_sizes":[],"default_left":[0,0,0,0,0,0,0],"id":61,"left_children":[1,3,-1,5,-1,-1,-1],"loss_changes":[1.2832817E1,3.9441962E0,0E0,1.5172958E-2,0E0,0E0,0E0],"parents":[2147483647,0,0,1,1,3,3],"right_children":[2,4,-1,6,-1,-1,-1],"split_conditions":[-1.122954E0,1E0,-4.0646683E-2,1E0,-2.9943515E-2,2.42902E-2,7.109364E-2],"split_indices":[48,15,0,40,0,0,0],"split_type":[0,0,0,0,0,0,0],"sum_hessian":[4.8797783E1,1.1810886E1,3.6986897E1,9.392439E0,2.418447E0,1.4253112E0,7.967128E0],"tree_param":{"num_deleted":"0","num_feature":"49","num_nodes":"7","size_leaf_vector":"1"}},{"base_weights":[9.4513506E-2,7.0962334E-1,-4.337545E-1,7.210518E-2,-3.46129E-2,-5.10712E-1,5.5055283E-2,-4.02948E-2,-2.0337647E-1,-2.7528888E-2,5.8838534E-3],"categories":[],"categories_nodes":[],"categories_segments":[],"categories_sizes":[],"default_left":[0,0,0,0,0,0,0,0,0,0,0],"id":62,"left_children":[1,3,5,-1,-1,7,-1,-1,9,-1,-1],"loss_changes":[1.9789461E1,8.723402E0,3.3294268E0,0E0,0E0,1.4722729E-1,0E0,0E0,2.1832243E-1,0E0,0E0],"parents":[2147483647,0,0,1,1,2,2,5,5,8,8],"right_children":[2,4,6,-1,-1,8,-1,-1,10,-1,-1],"split_conditions":[-7.9368955E-1,1.8943034E0,1E0,7.210518E-2,-3.46129E-2,1.4107065E0,5.5055283E-2,-4.02948E-2,1E0,-2.7528888E-2,5.8838534E-3],"split_indices":[44,47,9,0,0,47,0,0,16,0,0],"split_type":[0,0,0,0,0,0,0,0,0,0,0],"sum_hessian":[5.8954113E1,2.7079601E1,3.187451E1,2.2435345E1,4.6442566E0,3.0431791E1,1.4427178E0,2.7323103E1,3.1086888E0,1.775276E0,1.333413E0],"tree_param":{"num_deleted":"0","num_feature":"49","num_nodes":"11","size_leaf_vector":"1"}},{"base_weights":[8.691806E-2,-6.0209002E-2,6.86753E-2,-2.7233785E-1,7.923964E-1,-3.4553805E-1,6.155031E-2,8.5211915E-1,8.531376E-3,-4.756146E-1,3.8253702E-2,2.3119722E-2,6.856453E-2,-5.02437E-1,-8.0711044E-2,-3.6582235E-1,5.6306254E-2,-4.002008E-2,-6.042005E-3,1.2579838E-2,-2.2274135E-2,-3.5748515E-2,9.542466E-3],"categories":[],"categories_nodes":[],"categories_segments":[],"categories_sizes":[],"default_left":[0,0,0,0,0,0,0,0,0,0,0,0,0,0,0,0,0,0,0,0,0,0,0],"id":63,"left_children":[1,3,-1,5,7,9,-1,11,-1,13,15,-1,-1,17,19,21,-1,-1,-1,-1,-1,-1,-1],"loss_changes":[7.2785287E0,9.484647E0,0E0,3.6264913E0,3.2726288E-1,2.0082583E0,0E0,3.773737E-2,0E0,2.755947E-1,3.4462404E0,0E0,0E0,3.2194948E-1,2.1583113E-1,4.8149884E-1,0E0,0E0,0E0,0E0,0E0,0E0,0E0],"parents":[2147483647,0,0,1,1,3,3,4,4,5,5,7,7,9,9,10,10,13,13,14,14,15,15],"right_children":[2,4,-1,6,8,10,-1,12,-1,14,16,-1,-1,18,20,22,-1,-1,-1,-1,-1,-1,-1],"split_conditions":[1E0,1E0,6.86753E-2,1E0,-1.1742575E0,1E0,6.155031E-2,-1.4048547E0,8.531376E-3,1E0,3.246241E-1,2.3119722E-2,6.856453E-2,1E0,1E0,1E0,5.6306254E-2,-4.002008E-2,-6.042005E-3,1.2579838E-2,-2.2274135E-2,-3.5748515E-2,9.542466E-3],"split_indices":[35,22,0,26,43,40,0,43,0,12,43,0,0,14,41,4,0,0,0,0,0,0,0],"split_type":[0,0,0,0,0,0,0,0,0,0,0,0,0,0,0,0,0,0,0,0,0,0,0],"sum_hessian":[5.824122E1,5.0248108E1,7.9931126E0,4.0782078E1,9.466029E0,3.8863224E1,1.9188548E0,8.465427E0,1.0006012E0,2.8847004E1,1.0016218E1,1.478428E0,6.987E0,2.6757309E1,2.089696E0,6.701933E0,3.3142858E0,2.4670103E1,2.087206E0,1.0769942E0,1.0127019E0,5.49916E0,1.2027727E0],"tree_param":{"num_deleted":"0","num_feature":"49","num_nodes":"23","size_leaf_vector":"1"}},{"base_weights":[1.9374776E-1,-3.994192E-2,5.4913914E-1,7.8640866E-1,-3.697508E-2,9.24886E-1,-3.2445814E-2,7.132487E-2,7.539788E-3],"categories":[],"categories_nodes":[],"categories_segments":[],"categories_sizes":[],"default_left":[0,0,0,0,0,0,0,0,0],"id":64,"left_children":[1,-1,3,5,-1,7,-1,-1,-1],"loss_changes":[1.6853228E1,0E0,1.1161559E1,6.456295E0,0E0,6.0474396E-1,0E0,0E0,0E0],"parents":[2147483647,0,0,2,2,3,3,5,5],"right_children":[2,-1,4,6,-1,8,-1,-1,-1],"split_conditions":[-3.9729293E-2,-3.994192E-2,2.093255E-1,1E0,-3.697508E-2,1E0,-3.2445814E-2,7.132487E-2,7.539788E-3],"split_indices":[44,0,43,3,0,16,0,0,0],"split_type":[0,0,0,0,0,0,0,0,0],"sum_hessian":[6.3158447E1,2.058689E1,4.2571556E1,3.4876442E1,7.695113E0,3.1535395E1,3.341049E0,3.041824E1,1.1171538E0],"tree_param":{"num_deleted":"0","num_feature":"49","num_nodes":"9","size_leaf_vector":"1"}},{"base_weights":[1.4965811E-2,-4.064438E-2,7.203825E-2],"categories":[],"categories_nodes":[],"categories_segments":[],"categories_sizes":[],"default_left":[0,0,0],"id":65,"left_children":[1,-1,-1],"loss_changes":[3.0496897E1,0E0,0E0],"parents":[2147483647,0,0],"right_children":[2,-1,-1],"split_conditions":[1.0912111E0,-4.064438E-2,7.203825E-2],"split_indices":[44,0,0],"split_type":[0,0,0],"sum_hessian":[5.592816E1,3.5466534E1,2.0461626E1],"tree_param":{"num_deleted":"0","num_feature":"49","num_nodes":"3","size_leaf_vector":"1"}},{"base_weights":[-2.2337562E-1,6.307936E-2,-4.0407356E-2],"categories":[],"categories_nodes":[],"categories_segments":[],"categories_sizes":[],"default_left":[0,0,0],"id":66,"left_children":[1,-1,-1],"loss_changes":[1.6698895E1,0E0,0E0],"parents":[2147483647,0,0],"right_children":[2,-1,-1],"split_conditions":[-1.4219898E0,6.307936E-2,-4.0407356E-2],"split_indices":[44,0,0],"split_type":[0,0,0],"sum_hessian":[4.739214E1,1.0451555E1,3.6940582E1],"tree_param":{"num_deleted":"0","num_feature":"49","num_nodes":"3","size_leaf_vector":"1"}},{"base_weights":[-2.4930027E-1,5.8985543E-1,-4.0356174E-2,8.471134E-1,-2.9460328E-2,2.3318041E-2,6.73373E-2],"categories":[],"categories_nodes":[],"categories_segments":[],"categories_sizes":[],"default_left":[0,0,0,0,0,0,0],"id":67,"left_children":[1,3,-1,5,-1,-1,-1],"loss_changes":[1.1941845E1,3.5580268E0,0E0,4.44746E-3,0E0,0E0,0E0],"parents":[2147483647,0,0,1,1,3,3],"right_children":[2,4,-1,6,-1,-1,-1],"split_conditions":[-1.122954E0,1E0,-4.0356174E-2,1E0,-2.9460328E-2,2.3318041E-2,6.73373E-2],"split_indices":[48,15,0,40,0,0,0],"split_type":[0,0,0,0,0,0,0],"sum_hessian":[4.6968914E1,1.1758367E1,3.521055E1,9.4280615E0,2.330305E0,1.4308321E0,7.997229E0],"tree_param":{"num_deleted":"0","num_feature":"49","num_nodes":"7","size_leaf_vector":"1"}},{"base_weights":[9.1336794E-2,6.767454E-1,-4.2760682E-1,6.840187E-2,-3.4155343E-2,-5.057737E-1,5.2433707E-2,-3.9991327E-2,-1.9789398E-1,-2.7254973E-2,6.1215363E-3],"categories":[],"categories_nodes":[],"categories_segments":[],"categories_sizes":[],"default_left":[0,0,0,0,0,0,0,0,0,0,0],"id":68,"left_children":[1,3,5,-1,-1,7,-1,-1,9,-1,-1],"loss_changes":[1.801835E1,7.8232203E0,3.132122E0,0E0,0E0,1.4865255E-1,0E0,0E0,2.1711777E-1,0E0,0E0],"parents":[2147483647,0,0,1,1,2,2,5,5,8,8],"right_children":[2,4,6,-1,-1,8,-1,-1,10,-1,-1],"split_conditions":[-7.9368955E-1,1.8943034E0,1E0,6.840187E-2,-3.4155343E-2,1.4107065E0,5.2433707E-2,-3.9991327E-2,1E0,-2.7254973E-2,6.1215363E-3],"split_indices":[44,47,9,0,0,47,0,0,0,0,0],"split_type":[0,0,0,0,0,0,0,0,0,0,0],"sum_hessian":[5.7358513E1,2.6810316E1,3.0548199E1,2.2358318E1,4.4519978E0,2.9081749E1,1.4664493E0,2.602961E1,3.0521393E0,1.7285328E0,1.3236065E0],"tree_param":{"num_deleted":"0","num_feature":"49","num_nodes":"11","size_leaf_vector":"1"}},{"base_weights":[8.63028E-2,-5.633404E-2,6.502307E-2,-2.647581E-1,5.640153E-2,-3.381959E-1,5.8588248E-2,-4.6933827E-1,3.9317943E-2,-4.9705335E-1,-5.6790155E-3,-3.5741723E-1,5.319114E-2,-3.969705E-2,-5.9955623E-3,-3.5177372E-2,1.03883045E-2],"categories":[],"categories_nodes":[],"categories_segments":[],"categories_sizes":[],"default_left":[0,0,0,0,0,0,0,0,0,0,0,0,0,0,0,0,0],"id":69,"left_children":[1,3,-1,5,-1,7,-1,9,11,13,-1,15,-1,-1,-1,-1,-1],"loss_changes":[6.4884033E0,8.595414E0,0E0,3.3642576E0,0E0,1.9200392E0,0E0,2.7419138E-1,3.1306033E0,3.1438398E-1,0E0,4.7811097E-1,0E0,0E0,0E0,0E0,0E0],"parents":[2147483647,0,0,1,1,3,3,5,5,7,7,8,8,9,9,11,11],"right_children":[2,4,-1,6,-1,8,-1,10,12,14,-1,16,-1,-1,-1,-1,-1],"split_conditions":[1E0,1E0,6.502307E-2,1E0,5.640153E-2,1E0,5.8588248E-2,1E0,3.246241E-1,1E0,-5.6790155E-3,-5.423695E-1,5.319114E-2,-3.969705E-2,-5.9955623E-3,-3.5177372E-2,1.03883045E-2],"split_indices":[35,22,0,26,0,40,0,14,43,12,0,44,0,0,0,0,0],"split_type":[0,0,0,0,0,0,0,0,0,0,0,0,0,0,0,0,0],"sum_hessian":[5.683042E1,4.8835503E1,7.994918E0,3.9359596E1,9.475906E0,3.7409626E1,1.9499702E0,2.7584106E1,9.82552E0,2.5524143E1,2.0599642E0,6.4638653E0,3.3616543E0,2.344316E1,2.080983E0,5.3206296E0,1.1432359E0],"tree_param":{"num_deleted":"0","num_feature":"49","num_nodes":"17","size_leaf_vector":"1"}},{"base_weights":[1.8602432E-1,-3.962815E-2,5.244476E-1,7.464776E-1,-3.681533E-2,8.938332E-1,-3.2892972E-2,3.2699385E-3,6.968012E-2],"categories":[],"categories_nodes":[],"categories_segments":[],"categories_sizes":[],"default_left":[0,0,0,0,0,0,0,0,0],"id":70,"left_children":[1,-1,3,5,-1,7,-1,-1,-1],"loss_changes":[1.5431988E1,0E0,1.00680685E1,6.6278763E0,0E0,9.2084503E-1,0E0,0E0,0E0],"parents":[2147483647,0,0,2,2,3,3,5,5],"right_children":[2,-1,4,6,-1,8,-1,-1,-1],"split_conditions":[-3.9729293E-2,-3.962815E-2,1.0912111E0,1E0,-3.681533E-2,-2.018187E-1,-3.2892972E-2,3.2699385E-3,6.968012E-2],"split_indices":[44,0,44,3,0,45,0,0,0],"split_type":[0,0,0,0,0,0,0,0,0],"sum_hessian":[6.168319E1,1.9647251E1,4.2035942E1,3.4710278E1,7.325662E0,3.1090109E1,3.6201699E0,1.3261812E0,2.9763927E1],"tree_param":{"num_deleted":"0","num_feature":"49","num_nodes":"9","size_leaf_vector":"1"}},{"base_weights":[1.4246847E-2,-4.03553E-2,6.837075E-2],"categories":[],"categories_nodes":[],"categories_segments":[],"categories_sizes":[],"default_left":[0,0,0],"id":71,"left_children":[1,-1,-1],"loss_changes":[2.7851227E1,0E0,0E0],"parents":[2147483647,0,0],"right_children":[2,-1,-1],"split_conditions":[1.0912111E0,-4.03553E-2,6.837075E-2],"split_indices":[44,0,0],"split_type":[0,0,0],"sum_hessian":[5.420399E1,3.3800518E1,2.0403475E1],"tree_param":{"num_deleted":"0","num_feature":"49","num_nodes":"3","size_leaf_vector":"1"}},{"base_weights":[-2.1931471E-1,5.983974E-2,-4.0128052E-2],"categories":[],"categories_nodes":[],"categories_segments":[],"categories_sizes":[],"default_left":[0,0,0],"id":72,"left_children":[1,-1,-1],"loss_changes":[1.5377922E1,0E0,0E0],"parents":[2147483647,0,0],"right_children":[2,-1,-1],"split_conditions":[-1.4219898E0,5.983974E-2,-4.0128052E-2],"split_indices":[44,0,0],"split_type":[0,0,0],"sum_hessian":[4.5554752E1,1.042887E1,3.512588E1],"tree_param":{"num_deleted":"0","num_feature":"49","num_nodes":"3","size_leaf_vector":"1"}},{"base_weights":[-2.4444565E-1,5.642278E-1,-4.0074483E-2,6.045405E-2,-2.8975833E-2],"categories":[],"categories_nodes":[],"categories_segments":[],"categories_sizes":[],"default_left":[0,0,0,0,0],"id":73,"left_children":[1,3,-1,-1,-1],"loss_changes":[1.1117507E1,3.2219548E0,0E0,0E0,0E0],"parents":[2147483647,0,0,1,1],"right_children":[2,4,-1,-1,-1],"split_conditions":[-1.122954E0,1E0,-4.0074483E-2,6.045405E-2,-2.8975833E-2],"split_indices":[48,15,0,0,0],"split_type":[0,0,0,0,0],"sum_hessian":[4.5139732E1,1.1661503E1,3.347823E1,9.417674E0,2.2438283E0],"tree_param":{"num_deleted":"0","num_feature":"49","num_nodes":"5","size_leaf_vector":"1"}},{"base_weights":[8.8578455E-2,6.479698E-1,-4.2151642E-1,6.520635E-2,-3.36976E-2,-5.008596E-1,5.0031085E-2,-3.969478E-2,-1.9248872E-1,-2.6851887E-2,6.120469E-3],"categories":[],"categories_nodes":[],"categories_segments":[],"categories_sizes":[],"default_left":[0,0,0,0,0,0,0,0,0,0,0],"id":74,"left_children":[1,3,5,-1,-1,7,-1,-1,9,-1,-1],"loss_changes":[1.644327E1,7.054035E0,2.9465904E0,0E0,0E0,1.5005541E-1,0E0,0E0,2.105928E-1,0E0,0E0],"parents":[2147483647,0,0,1,1,2,2,5,5,8,8],"right_children":[2,4,6,-1,-1,8,-1,-1,10,-1,-1],"split_conditions":[-7.9368955E-1,1.8943034E0,1E0,6.520635E-2,-3.36976E-2,1.4107065E0,5.0031085E-2,-3.969478E-2,1E0,-2.6851887E-2,6.120469E-3],"split_indices":[44,47,9,0,0,47,0,0,0,0,0],"split_type":[0,0,0,0,0,0,0,0,0,0,0],"sum_hessian":[5.56692E1,2.6422688E1,2.9246513E1,2.2158396E1,4.264292E0,2.77629E1,1.4836149E0,2.4765436E1,2.997464E0,1.6779048E0,1.3195592E0],"tree_param":{"num_deleted":"0","num_feature":"49","num_nodes":"11","size_leaf_vector":"1"}},{"base_weights":[8.5447006E-2,-5.290361E-2,6.1822023E-2,-2.5726452E-1,7.120637E-1,-3.309457E-1,5.5947173E-2,7.6821375E-1,6.97026E-3,-4.6304685E-1,4.0381618E-2,2.0434067E-2,6.199726E-2,-4.916303E-1,-5.5034366E-3,-3.4910703E-1,5.038386E-2,-3.9378464E-2,-5.878197E-3,-3.4871355E-2,9.9024605E-3],"categories":[],"categories_nodes":[],"categories_segments":[],"categories_sizes":[],"default_left":[0,0,0,0,0,0,0,0,0,0,0,0,0,0,0,0,0,0,0,0,0],"id":75,"left_children":[1,3,-1,5,7,9,-1,11,-1,13,15,-1,-1,17,-1,19,-1,-1,-1,-1,-1],"loss_changes":[5.806295E0,7.7532263E0,0E0,3.1259553E0,2.9273796E-1,1.8325233E0,0E0,4.8915863E-2,0E0,2.6859856E-1,2.8468974E0,0E0,0E0,3.0835485E-1,0E0,4.642563E-1,0E0,0E0,0E0,0E0,0E0],"parents":[2147483647,0,0,1,1,3,3,4,4,5,5,7,7,9,9,10,10,13,13,15,15],"right_children":[2,4,-1,6,8,10,-1,12,-1,14,16,-1,-1,18,-1,20,-1,-1,-1,-1,-1],"split_conditions":[1E0,1E0,6.1822023E-2,1E0,-1.1742575E0,1E0,5.5947173E-2,-1.4048547E0,6.97026E-3,1E0,3.246241E-1,2.0434067E-2,6.199726E-2,1E0,-5.5034366E-3,1E0,5.038386E-2,-3.9378464E-2,-5.878197E-3,-3.4871355E-2,9.9024605E-3],"split_indices":[35,22,0,26,43,40,0,43,0,14,43,0,0,12,0,4,0,0,0,0,0],"split_type":[0,0,0,0,0,0,0,0,0,0,0,0,0,0,0,0,0,0,0,0,0],"sum_hessian":[5.5375404E1,4.7423626E1,7.9517784E0,3.7949196E1,9.47443E0,3.5977013E1,1.9721833E0,8.465841E0,1.0085881E0,2.6354345E1,9.622667E0,1.489444E0,6.9763975E0,2.4309496E1,2.0448482E0,6.227965E0,3.3947024E0,2.2240597E1,2.0688994E0,5.0465503E0,1.1814148E0],"tree_param":{"num_deleted":"0","num_feature":"49","num_nodes":"21","size_leaf_vector":"1"}},{"base_weights":[1.7918225E-1,-3.9323103E-2,5.0312436E-1,7.1168834E-1,-3.636328E-2,8.50581E-1,-3.246165E-2,3.1120905E-3,6.632803E-2],"categories":[],"categories_nodes":[],"categories_segments":[],"categories_sizes":[],"default_left":[0,0,0,0,0,0,0,0,0],"id":76,"left_children":[1,-1,3,5,-1,7,-1,-1,-1],"loss_changes":[1.4173528E1,0E0,9.061744E0,5.9850388E0,0E0,8.3405495E-1,0E0,0E0,0E0],"parents":[2147483647,0,0,2,2,3,3,5,5],"right_children":[2,-1,4,6,-1,8,-1,-1,-1],"split_conditions":[-3.9729293E-2,-3.9323103E-2,1.0912111E0,1E0,-3.636328E-2,-2.018187E-1,-3.246165E-2,3.1120905E-3,6.632803E-2],"split_indices":[44,0,44,3,0,45,0,0,0],"split_type":[0,0,0,0,0,0,0,0,0],"sum_hessian":[6.0037033E1,1.8734232E1,4.13028E1,3.433433E1,6.9684706E0,3.0847618E1,3.486711E0,1.3260622E0,2.9521557E1],"tree_param":{"num_deleted":"0","num_feature":"49","num_nodes":"9","size_leaf_vector":"1"}},{"base_weights":[1.339293E-2,-4.0074147E-2,6.5115936E-2],"categories":[],"categories_nodes":[],"categories_segments":[],"categories_sizes":[],"default_left":[0,0,0],"id":77,"left_children":[1,-1,-1],"loss_changes":[2.5468586E1,0E0,0E0],"parents":[2147483647,0,0],"right_children":[2,-1,-1],"split_conditions":[1.0912111E0,-4.0074147E-2,6.5115936E-2],"split_indices":[44,0,0],"split_type":[0,0,0],"sum_hessian":[5.240628E1,3.2169197E1,2.0237082E1],"tree_param":{"num_deleted":"0","num_feature":"49","num_nodes":"3","size_leaf_vector":"1"}},{"base_weights":[-2.154852E-1,5.6964323E-2,-3.985856E-2],"categories":[],"categories_nodes":[],"categories_segments":[],"categories_sizes":[],"default_left":[0,0,0],"id":78,"left_children":[1,-1,-1],"loss_changes":[1.4182873E1,0E0,0E0],"parents":[2147483647,0,0],"right_children":[2,-1,-1],"split_conditions":[-1.4219898E0,5.6964323E-2,-3.985856E-2],"split_indices":[44,0,0],"split_type":[0,0,0],"sum_hessian":[4.3728127E1,1.0358768E1,3.3369358E1],"tree_param":{"num_deleted":"0","num_feature":"49","num_nodes":"3","size_leaf_vector":"1"}},{"base_weights":[-2.399242E-1,5.401914E-1,-3.980317E-2,7.6827043E-1,-2.8491303E-2,2.0763844E-2,6.1244193E-2],"categories":[],"categories_nodes":[],"categories_segments":[],"categories_sizes":[],"default_left":[0,0,0,0,0,0,0],"id":79,"left_children":[1,3,-1,5,-1,-1,-1],"loss_changes":[1.0345412E1,2.922492E0,0E0,2.0312786E-2,0E0,0E0,0E0],"parents":[2147483647,0,0,1,1,3,3],"right_children":[2,4,-1,6,-1,-1,-1],"split_conditions":[-1.122954E0,1E0,-3.980317E-2,1E0,-2.8491303E-2,2.0763844E-2,6.1244193E-2],"split_indices":[48,15,0,40,0,0,0],"split_type":[0,0,0,0,0,0,0],"sum_hessian":[4.334172E1,1.15358095E1,3.180591E1,9.376456E0,2.1593533E0,1.4418648E0,7.9345913E0],"tree_param":{"num_deleted":"0","num_feature":"49","num_nodes":"7","size_leaf_vector":"1"}},{"base_weights":[8.6037E-2,6.2249213E-1,-4.15529E-1,6.2423218E-2,-3.3242684E-2,-4.9599954E-1,4.782196E-2,-3.9406355E-2,-1.8712442E-1,-2.6433207E-2,6.2989616E-3],"categories":[],"categories_nodes":[],"categories_segments":[],"categories_sizes":[],"default_left":[0,0,0,0,0,0,0,0,0,0,0],"id":80,"left_children":[1,3,5,-1,-1,7,-1,-1,9,-1,-1],"loss_changes":[1.5033371E1,6.391321E0,2.772077E0,0E0,0E0,1.5141296E-1,0E0,0E0,2.0632985E-1,0E0,0E0],"parents":[2147483647,0,0,1,1,2,2,5,5,8,8],"right_children":[2,4,6,-1,-1,8,-1,-1,10,-1,-1],"split_conditions":[-7.9368955E-1,1.8943034E0,1E0,6.2423218E-2,-3.3242684E-2,1.4107065E0,4.782196E-2,-3.9406355E-2,1E0,-2.6433207E-2,6.2989616E-3],"split_indices":[44,47,9,0,0,47,0,0,16,0,0],"split_type":[0,0,0,0,0,0,0,0,0,0,0],"sum_hessian":[5.3910744E1,2.5932873E1,2.797787E1,2.1850111E1,4.0827627E0,2.6483341E1,1.4945306E0,2.3540205E1,2.9431353E0,1.6419235E0,1.3012117E0],"tree_param":{"num_deleted":"0","num_feature":"49","num_nodes":"11","size_leaf_vector":"1"}},{"base_weights":[8.511702E-2,-4.9169898E-2,5.8996264E-2,-2.4983834E-1,6.7995816E-1,-3.237245E-1,5.354497E-2,7.3327917E-1,6.732495E-3,-4.5667598E-1,4.1065197E-2,1.9631129E-2,5.9146818E-2,-4.8617622E-1,-5.3201355E-3,-3.408597E-1,4.783506E-2,-3.9067436E-2,-5.6463447E-3,-3.4322727E-2,1.0654116E-2],"categories":[],"categories_nodes":[],"categories_segments":[],"categories_sizes":[],"default_left":[0,0,0,0,0,0,0,0,0,0,0,0,0,0,0,0,0,0,0,0,0],"id":81,"left_children":[1,3,-1,5,7,9,-1,11,-1,13,15,-1,-1,17,-1,19,-1,-1,-1,-1,-1],"loss_changes":[5.2041583E0,7.0414515E0,0E0,2.905758E0,2.6160574E-1,1.7440577E0,0E0,3.8969517E-2,0E0,2.6313305E-1,2.592112E0,0E0,0E0,3.0498743E-1,0E0,4.6004504E-1,0E0,0E0,0E0,0E0,0E0],"parents":[2147483647,0,0,1,1,3,3,4,4,5,5,7,7,9,9,10,10,13,13,15,15],"right_children":[2,4,-1,6,8,10,-1,12,-1,14,16,-1,-1,18,-1,20,-1,-1,-1,-1,-1],"split_conditions":[1E0,1E0,5.8996264E-2,1E0,-1.1742575E0,1E0,5.354497E-2,-1.4048547E0,6.732495E-3,1E0,3.246241E-1,1.9631129E-2,5.9146818E-2,1E0,-5.3201355E-3,-5.423695E-1,4.783506E-2,-3.9067436E-2,-5.6463447E-3,-3.4322727E-2,1.0654116E-2],"split_indices":[35,22,0,26,43,40,0,43,0,14,43,0,0,12,0,44,0,0,0,0,0],"split_type":[0,0,0,0,0,0,0,0,0,0,0,0,0,0,0,0,0,0,0,0,0],"sum_hessian":[5.383395E1,4.5964878E1,7.8690715E0,3.656023E1,9.40465E0,3.4573784E1,1.9864442E0,8.403033E0,1.0016166E0,2.5154186E1,9.419598E0,1.4845241E0,6.918509E0,2.3125269E1,2.0289178E0,6.0050297E0,3.4145687E0,2.107645E1,2.048819E0,4.877835E0,1.1271949E0],"tree_param":{"num_deleted":"0","num_feature":"49","num_nodes":"21","size_leaf_vector":"1"}},{"base_weights":[1.7267977E-1,-3.902434E-2,4.837091E-1,6.8058115E-1,-3.591375E-2,8.1231797E-1,-3.2029286E-2,2.9750345E-3,6.337326E-2],"categories":[],"categories_nodes":[],"categories_segments":[],"categories_sizes":[],"default_left":[0,0,0,0,0,0,0,0,0],"id":82,"left_children":[1,-1,3,5,-1,7,-1,-1,-1],"loss_changes":[1.3029353E1,0E0,8.177881E0,5.426613E0,0E0,7.602577E-1,0E0,0E0,0E0],"parents":[2147483647,0,0,2,2,3,3,5,5],"right_children":[2,-1,4,6,-1,8,-1,-1,-1],"split_conditions":[-3.9729293E-2,-3.902434E-2,1.0912111E0,1E0,-3.591375E-2,-2.018187E-1,-3.2029286E-2,2.9750345E-3,6.337326E-2],"split_indices":[44,0,44,3,0,45,0,0,0],"split_type":[0,0,0,0,0,0,0,0,0],"sum_hessian":[5.8280834E1,1.784577E1,4.0435062E1,3.381237E1,6.6226926E0,3.0456636E1,3.3557343E0,1.3249612E0,2.9131674E1],"tree_param":{"num_deleted":"0","num_feature":"49","num_nodes":"9","size_leaf_vector":"1"}},{"base_weights":[1.2579855E-2,-3.9802458E-2,6.2270425E-2],"categories":[],"categories_nodes":[],"categories_segments":[],"categories_sizes":[],"default_left":[0,0,0],"id":83,"left_children":[1,-1,-1],"loss_changes":[2.3346298E1,0E0,0E0],"parents":[2147483647,0,0],"right_children":[2,-1,-1],"split_conditions":[1.0912111E0,-3.9802458E-2,6.2270425E-2],"split_indices":[44,0,0],"split_type":[0,0,0],"sum_hessian":[5.056202E1,3.05893E1,1.997272E1],"tree_param":{"num_deleted":"0","num_feature":"49","num_nodes":"3","size_leaf_vector":"1"}},{"base_weights":[-2.1188311E-1,-3.9853804E-2,5.3842787E-2],"categories":[],"categories_nodes":[],"categories_segments":[],"categories_sizes":[],"default_left":[0,0,0],"id":84,"left_children":[1,-1,-1],"loss_changes":[1.3132337E1,0E0,0E0],"parents":[2147483647,0,0],"right_children":[2,-1,-1],"split_conditions":[2.619699E0,-3.9853804E-2,5.3842787E-2],"split_indices":[47,0,0],"split_type":[0,0,0],"sum_hessian":[4.1922367E1,3.1519773E1,1.0402593E1],"tree_param":{"num_deleted":"0","num_feature":"49","num_nodes":"3","size_leaf_vector":"1"}},{"base_weights":[-2.3555733E-1,5.189928E-1,-3.9540112E-2,7.354241E-1,-2.80071E-2,2.0034166E-2,5.861054E-2],"categories":[],"categories_nodes":[],"categories_segments":[],"categories_sizes":[],"default_left":[0,0,0,0,0,0,0],"id":85,"left_children":[1,3,-1,5,-1,-1,-1],"loss_changes":[9.638201E0,2.6632392E0,0E0,1.3149738E-2,0E0,0E0,0E0],"parents":[2147483647,0,0,1,1,3,3],"right_children":[2,4,-1,6,-1,-1,-1],"split_conditions":[-1.122954E0,1E0,-3.9540112E-2,1E0,-2.80071E-2,2.0034166E-2,5.861054E-2],"split_indices":[48,15,0,40,0,0,0],"split_type":[0,0,0,0,0,0,0],"sum_hessian":[4.155468E1,1.1366752E1,3.0187931E1,9.289716E0,2.077035E0,1.4405714E0,7.849145E0],"tree_param":{"num_deleted":"0","num_feature":"49","num_nodes":"7","size_leaf_vector":"1"}},{"base_weights":[8.3575375E-2,5.996398E-1,-4.0966475E-1,5.995775E-2,-3.2784294E-2,-4.912058E-1,4.5786332E-2,-3.9126612E-2,-1.8177156E-1,-2.6244115E-2,6.638306E-3],"categories":[],"categories_nodes":[],"categories_segments":[],"categories_sizes":[],"default_left":[0,0,0,0,0,0,0,0,0,0,0],"id":86,"left_children":[1,3,5,-1,-1,7,-1,-1,9,-1,-1],"loss_changes":[1.3763195E1,5.809292E0,2.607987E0,0E0,0E0,1.5274572E-1,0E0,0E0,2.076972E-1,0E0,0E0],"parents":[2147483647,0,0,1,1,2,2,5,5,8,8],"right_children":[2,4,6,-1,-1,8,-1,-1,10,-1,-1],"split_conditions":[-7.9368955E-1,1.8943034E0,1E0,5.995775E-2,-3.2784294E-2,1.4107065E0,4.5786332E-2,-3.9126612E-2,1E0,-2.6244115E-2,6.638306E-3],"split_indices":[44,47,9,0,0,47,0,0,0,0,0],"split_type":[0,0,0,0,0,0,0,0,0,0,0],"sum_hessian":[5.2105007E1,2.5357937E1,2.6747068E1,2.1452662E1,3.9052753E0,2.5247517E1,1.4995517E0,2.2358995E1,2.8885224E0,1.5990548E0,1.2894676E0],"tree_param":{"num_deleted":"0","num_feature":"49","num_nodes":"11","size_leaf_vector":"1"}},{"base_weights":[8.483855E-2,-3.7314072E-2,2.3703004E-1,3.764311E-1,-3.612153E-2,1.4337873E-1,6.435115E-2,-2.0507677E-1,5.8594506E-2,2.2723478E-1,-3.7597544E-2,6.0335588E-2,-3.2323748E-2],"categories":[],"categories_nodes":[],"categories_segments":[],"categories_sizes":[],"default_left":[0,0,0,0,0,0,0,0,0,0,0,0,0],"id":87,"left_children":[1,-1,3,5,-1,7,-1,9,-1,11,-1,-1,-1],"loss_changes":[4.837712E0,0E0,4.4786954E0,3.9722672E0,0E0,5.892625E0,0E0,2.3512492E0,0E0,3.3071988E0,0E0,0E0,0E0],"parents":[2147483647,0,0,2,2,3,3,5,5,7,7,9,9],"right_children":[2,-1,4,6,-1,8,-1,10,-1,12,-1,-1,-1],"split_conditions":[-7.9368955E-1,-3.7314072E-2,1.0912111E0,2.093255E-1,-3.612153E-2,1E0,6.435115E-2,-2.018187E-1,5.8594506E-2,9.1008687E-1,-3.7597544E-2,6.0335588E-2,-3.2323748E-2],"split_indices":[44,0,44,43,0,3,0,45,0,46,0,0,0],"split_type":[0,0,0,0,0,0,0,0,0,0,0,0,0],"sum_hessian":[5.225258E1,1.035608E1,4.18965E1,3.5488728E1,6.4077706E0,2.4789906E1,1.0698821E1,1.6470867E1,8.319038E0,6.7917805E0,9.679087E0,3.5000923E0,3.2916882E0],"tree_param":{"num_deleted":"0","num_feature":"49","num_nodes":"13","size_leaf_vector":"1"}},{"base_weights":[1.6670689E-1,-3.8733043E-2,4.663584E-1,6.537539E-1,-3.5304517E-2,7.6419365E-1,-3.065031E-2,5.91382E-2,4.6527456E-3],"categories":[],"categories_nodes":[],"categories_segments":[],"categories_sizes":[],"default_left":[0,0,0,0,0,0,0,0,0],"id":88,"left_children":[1,-1,3,5,-1,7,-1,-1,-1],"loss_changes":[1.2000696E1,0E0,7.4122896E0,4.317356E0,0E0,4.8493767E-1,0E0,0E0,0E0],"parents":[2147483647,0,0,2,2,3,3,5,5],"right_children":[2,-1,4,6,-1,8,-1,-1,-1],"split_conditions":[-3.9729293E-2,-3.8733043E-2,2.093255E-1,1E0,-3.5304517E-2,1E0,-3.065031E-2,5.91382E-2,4.6527456E-3],"split_indices":[44,0,43,3,0,16,0,0,0],"split_type":[0,0,0,0,0,0,0,0,0],"sum_hessian":[5.6447456E1,1.6990023E1,3.9457436E1,3.3133793E1,6.323642E0,3.026811E1,2.8656826E0,2.9136145E1,1.1319656E0],"tree_param":{"num_deleted":"0","num_feature":"49","num_nodes":"9","size_leaf_vector":"1"}},{"base_weights":[1.1784459E-2,-3.953968E-2,5.976626E-2],"categories":[],"categories_nodes":[],"categories_segments":[],"categories_sizes":[],"default_left":[0,0,0],"id":89,"left_children":[1,-1,-1],"loss_changes":[2.1446312E1,0E0,0E0],"parents":[2147483647,0,0],"right_children":[2,-1,-1],"split_conditions":[1.0912111E0,-3.953968E-2,5.976626E-2],"split_indices":[44,0,0],"split_type":[0,0,0],"sum_hessian":[4.8689384E1,2.9064644E1,1.9624739E1],"tree_param":{"num_deleted":"0","num_feature":"49","num_nodes":"3","size_leaf_vector":"1"}},{"base_weights":[-2.0800662E-1,5.230456E-2,-3.9346404E-2],"categories":[],"categories_nodes":[],"categories_segments":[],"categories_sizes":[],"default_left":[0,0,0],"id":90,"left_children":[1,-1,-1],"loss_changes":[1.2160903E1,0E0,0E0],"parents":[2147483647,0,0],"right_children":[2,-1,-1],"split_conditions":[-1.4219898E0,5.230456E-2,-3.9346404E-2],"split_indices":[44,0,0],"split_type":[0,0,0],"sum_hessian":[4.0146328E1,1.0089934E1,3.0056393E1],"tree_param":{"num_deleted":"0","num_feature":"49","num_nodes":"3","size_leaf_vector":"1"}},{"base_weights":[-2.3109129E-1,5.003269E-1,-3.9277885E-2,7.058368E-1,-2.74743E-2,1.9230243E-2,5.6283433E-2],"categories":[],"categories_nodes":[],"categories_segments":[],"categories_sizes":[],"default_left":[0,0,0,0,0,0,0],"id":91,"left_children":[1,3,-1,5,-1,-1,-1],"loss_changes":[8.98763E0,2.424532E0,0E0,1.1515617E-2,0E0,0E0,0E0],"parents":[2147483647,0,0,1,1,3,3],"right_children":[2,4,-1,6,-1,-1,-1],"split_conditions":[-1.122954E0,1E0,-3.9277885E-2,1E0,-2.74743E-2,1.9230243E-2,5.6283433E-2],"split_indices":[48,15,0,40,0,0,0],"split_type":[0,0,0,0,0,0,0],"sum_hessian":[3.976947E1,1.1161159E1,2.860831E1,9.171798E0,1.9893605E0,1.4374409E0,7.734357E0],"tree_param":{"num_deleted":"0","num_feature":"49","num_nodes":"7","size_leaf_vector":"1"}},{"base_weights":[8.12963E-2,5.7820195E-1,-4.0357846E-1,5.7695497E-2,-3.2327555E-2,-4.8623815E-1,4.3910924E-2,-3.8843434E-2,-1.7524303E-1,-2.5730552E-2,6.5927417E-3],"categories":[],"categories_nodes":[],"categories_segments":[],"categories_sizes":[],"default_left":[0,0,0,0,0,0,0,0,0,0,0],"id":92,"left_children":[1,3,5,-1,-1,7,-1,-1,9,-1,-1],"loss_changes":[1.2577299E1,5.2901163E0,2.4527807E0,0E0,0E0,1.5570259E-1,0E0,0E0,1.9904657E-1,0E0,0E0],"parents":[2147483647,0,0,1,1,2,2,5,5,8,8],"right_children":[2,4,6,-1,-1,8,-1,-1,10,-1,-1],"split_conditions":[-7.9368955E-1,1.8943034E0,1E0,5.7695497E-2,-3.2327555E-2,1.4107065E0,4.3910924E-2,-3.8843434E-2,1E0,-2.5730552E-2,6.5927417E-3],"split_indices":[44,47,9,0,0,47,0,0,0,0,0],"split_type":[0,0,0,0,0,0,0,0,0,0,0],"sum_hessian":[5.0233105E1,2.4713713E1,2.5519394E1,2.0979568E1,3.734144E0,2.4020298E1,1.4990956E0,2.1196169E1,2.8241298E0,1.5389012E0,1.2852287E0],"tree_param":{"num_deleted":"0","num_feature":"49","num_nodes":"11","size_leaf_vector":"1"}},{"base_weights":[8.361172E-2,-3.6950544E-2,2.3114064E-1,3.650006E-1,-3.5651185E-2,1.4006156E-1,6.156286E-2,-1.9966452E-1,5.6197066E-2,2.1887808E-1,-3.7201643E-2,5.7392795E-2,-3.192213E-2],"categories":[],"categories_nodes":[],"categories_segments":[],"categories_sizes":[],"default_left":[0,0,0,0,0,0,0,0,0,0,0,0,0],"id":93,"left_children":[1,-1,3,5,-1,7,-1,9,-1,11,-1,-1,-1],"loss_changes":[4.4969444E0,0E0,4.119648E0,3.5400047E0,0E0,5.339159E0,0E0,2.2031913E0,0E0,3.035082E0,0E0,0E0,0E0],"parents":[2147483647,0,0,2,2,3,3,5,5,7,7,9,9],"right_children":[2,-1,4,6,-1,8,-1,10,-1,12,-1,-1,-1],"split_conditions":[-7.9368955E-1,-3.6950544E-2,1.0912111E0,2.093255E-1,-3.5651185E-2,1E0,6.156286E-2,-2.018187E-1,5.6197066E-2,9.1008687E-1,-3.7201643E-2,5.7392795E-2,-3.192213E-2],"split_indices":[44,0,44,43,0,3,0,45,0,46,0,0,0],"split_type":[0,0,0,0,0,0,0,0,0,0,0,0,0],"sum_hessian":[5.0554104E1,9.827168E0,4.0726936E1,3.4645874E1,6.0810595E0,2.4073668E1,1.0572208E1,1.588692E1,8.186747E0,6.694203E0,9.192718E0,3.5215783E0,3.1726246E0],"tree_param":{"num_deleted":"0","num_feature":"49","num_nodes":"13","size_leaf_vector":"1"}},{"base_weights":[1.6114086E-1,-3.8435787E-2,4.501393E-1,6.2927204E-1,-3.5122287E-2,7.49179E-1,-3.1096114E-2,2.6585213E-3,5.8523536E-2],"categories":[],"categories_nodes":[],"categories_segments":[],"categories_sizes":[],"default_left":[0,0,0,0,0,0,0,0,0],"id":94,"left_children":[1,-1,3,5,-1,7,-1,-1,-1],"loss_changes":[1.1044947E1,0E0,6.7777376E0,4.4913692E0,0E0,6.4601326E-1,0E0,0E0,0E0],"parents":[2147483647,0,0,2,2,3,3,5,5],"right_children":[2,-1,4,6,-1,8,-1,-1,-1],"split_conditions":[-3.9729293E-2,-3.8435787E-2,1.0912111E0,1E0,-3.5122287E-2,-2.018187E-1,-3.1096114E-2,2.6585213E-3,5.8523536E-2],"split_indices":[44,0,44,3,0,45,0,0,0],"split_type":[0,0,0,0,0,0,0,0,0],"sum_hessian":[5.4550453E1,1.6145077E1,3.8405376E1,3.2400745E1,6.004628E0,2.9315691E1,3.0850549E0,1.3147587E0,2.8000933E1],"tree_param":{"num_deleted":"0","num_feature":"49","num_nodes":"9","size_leaf_vector":"1"}},{"base_weights":[1.15760015E-2,-3.927632E-2,5.756294E-2],"categories":[],"categories_nodes":[],"categories_segments":[],"categories_sizes":[],"default_left":[0,0,0],"id":95,"left_children":[1,-1,-1],"loss_changes":[1.9735924E1,0E0,0E0],"parents":[2147483647,0,0],"right_children":[2,-1,-1],"split_conditions":[1.0912111E0,-3.927632E-2,5.756294E-2],"split_indices":[44,0,0],"split_type":[0,0,0],"sum_hessian":[4.678318E1,2.7569174E1,1.9214005E1],"tree_param":{"num_deleted":"0","num_feature":"49","num_nodes":"3","size_leaf_vector":"1"}},{"base_weights":[-2.0437437E-1,-3.9358664E-2,4.9762312E-2],"categories":[],"categories_nodes":[],"categories_segments":[],"categories_sizes":[],"default_left":[0,0,0],"id":96,"left_children":[1,-1,-1],"loss_changes":[1.1294971E1,0E0,0E0],"parents":[2147483647,0,0],"right_children":[2,-1,-1],"split_conditions":[2.619699E0,-3.9358664E-2,4.9762312E-2],"split_indices":[47,0,0],"split_type":[0,0,0],"sum_hessian":[3.8366577E1,2.8310137E1,1.0056439E1],"tree_param":{"num_deleted":"0","num_feature":"49","num_nodes":"3","size_leaf_vector":"1"}},{"base_weights":[-2.2672755E-1,4.8288175E-1,-3.9021313E-2,6.7912024E-1,-2.6970113E-2,1.8467491E-2,5.4196842E-2],"categories":[],"categories_nodes":[],"categories_segments":[],"categories_sizes":[],"default_left":[0,0,0,0,0,0,0],"id":97,"left_children":[1,3,-1,5,-1,-1,-1],"loss_changes":[8.378574E0,2.217523E0,0E0,1.0899067E-2,0E0,0E0,0E0],"parents":[2147483647,0,0,1,1,3,3],"right_children":[2,4,-1,6,-1,-1,-1],"split_conditions":[-1.122954E0,1E0,-3.9021313E-2,1E0,-2.6970113E-2,1.8467491E-2,5.4196842E-2],"split_indices":[48,15,0,40,0,0,0],"split_type":[0,0,0,0,0,0,0],"sum_hessian":[3.801549E1,1.0935753E1,2.7079737E1,9.02701E0,1.9087429E0,1.4325426E0,7.5944676E0],"tree_param":{"num_deleted":"0","num_feature":"49","num_nodes":"7","size_leaf_vector":"1"}},{"base_weights":[7.950909E-2,5.5958015E-1,-3.9755744E-1,5.574106E-2,-3.1866666E-2,-4.8129204E-1,4.2173393E-2,-3.8564578E-2,-1.693392E-1,-2.5210654E-2,6.7033335E-3],"categories":[],"categories_nodes":[],"categories_segments":[],"categories_sizes":[],"default_left":[0,0,0,0,0,0,0,0,0,0,0],"id":98,"left_children":[1,3,5,-1,-1,7,-1,-1,9,-1,-1],"loss_changes":[1.1522E1,4.836527E0,2.3065796E0,0E0,0E0,1.5758991E-1,0E0,0E0,1.9253516E-1,0E0,0E0],"parents":[2147483647,0,0,1,1,2,2,5,5,8,8],"right_children":[2,4,6,-1,-1,8,-1,-1,10,-1,-1],"split_conditions":[-7.9368955E-1,1.8943034E0,1E0,5.574106E-2,-3.1866666E-2,1.4107065E0,4.2173393E-2,-3.8564578E-2,1E0,-2.5210654E-2,6.7033335E-3],"split_indices":[44,47,9,0,0,47,0,0,16,0,0],"split_type":[0,0,0,0,0,0,0,0,0,0,0],"sum_hessian":[4.8337383E1,2.4006615E1,2.4330769E1,2.0439142E1,3.5674717E0,2.2837145E1,1.4936225E0,2.0071821E1,2.7653246E0,1.4993695E0,1.2659552E0],"tree_param":{"num_deleted":"0","num_feature":"49","num_nodes":"11","size_leaf_vector":"1"}},{"base_weights":[8.235407E-2,-3.658709E-2,2.2550757E-1,3.5449904E-1,-3.51926E-2,1.3707598E-1,5.904993E-2,-1.9435196E-1,5.4046325E-2,2.1016347E-1,-3.6797456E-2,5.45708E-2,-3.1521462E-2],"categories":[],"categories_nodes":[],"categories_segments":[],"categories_sizes":[],"default_left":[0,0,0,0,0,0,0,0,0,0,0,0,0],"id":99,"left_children":[1,-1,3,5,-1,7,-1,9,-1,11,-1,-1,-1],"loss_changes":[4.1766047E0,0E0,3.7964096E0,3.1607738E0,0E0,4.8456454E0,0E0,2.0572662E0,0E0,2.782983E0,0E0,0E0,0E0],"parents":[2147483647,0,0,2,2,3,3,5,5,7,7,9,9],"right_children":[2,-1,4,6,-1,8,-1,10,-1,12,-1,-1,-1],"split_conditions":[-7.9368955E-1,-3.658709E-2,1.0912111E0,2.093255E-1,-3.51926E-2,1E0,5.904993E-2,-2.018187E-1,5.4046325E-2,9.1008687E-1,-3.6797456E-2,5.45708E-2,-3.1521462E-2],"split_indices":[44,0,44,43,0,3,0,45,0,46,0,0,0],"split_type":[0,0,0,0,0,0,0,0,0,0,0,0,0],"sum_hessian":[4.8821365E1,9.314377E0,3.9506985E1,3.3733494E1,5.7734933E0,2.3330627E1,1.0402866E1,1.5304971E1,8.025657E0,6.5934806E0,8.71149E0,3.5366387E0,3.0568419E0],"tree_param":{"num_deleted":"0","num_feature":"49","num_nodes":"13","size_leaf_vector":"1"}},{"base_weights":[1.5608115E-1,-3.814224E-2,4.357937E-1,6.0727596E-1,-3.467924E-2,7.2222024E-1,-3.0600658E-2,2.8121208E-3,5.6438427E-2],"categories":[],"categories_nodes":[],"categories_segments":[],"categories_sizes":[],"default_left":[0,0,0,0,0,0,0,0,0],"id":100,"left_children":[1,-1,3,5,-1,7,-1,-1,-1],"loss_changes":[1.0179716E1,0E0,6.1702147E0,4.092086E0,0E0,5.855627E-1,0E0,0E0,0E0],"parents":[2147483647,0,0,2,2,3,3,5,5],"right_children":[2,-1,4,6,-1,8,-1,-1,-1],"split_conditions":[-3.9729293E-2,-3.814224E-2,1.0912111E0,1E0,-3.467924E-2,-2.018187E-1,-3.0600658E-2,2.8121208E-3,5.6438427E-2],"split_indices":[44,0,44,3,0,45,0,0,0],"split_type":[0,0,0,0,0,0,0,0,0],"sum_hessian":[5.256421E1,1.532685E1,3.723736E1,3.1539654E1,5.697705E0,2.8591368E1,2.9482856E0,1.3060929E0,2.7285275E1],"tree_param":{"num_deleted":"0","num_feature":"49","num_nodes":"9","size_leaf_vector":"1"}},{"base_weights":[1.10183805E-2,-3.901857E-2,5.5529006E-2],"categories":[],"categories_nodes":[],"categories_segments":[],"categories_sizes":[],"default_left":[0,0,0],"id":101,"left_children":[1,-1,-1],"loss_changes":[1.8154657E1,0E0,0E0],"parents":[2147483647,0,0],"right_children":[2,-1,-1],"split_conditions":[1.0912111E0,-3.901857E-2,5.5529006E-2],"split_indices":[44,0,0],"split_type":[0,0,0],"sum_hessian":[4.4858055E1,2.6119522E1,1.8738533E1],"tree_param":{"num_deleted":"0","num_feature":"49","num_nodes":"3","size_leaf_vector":"1"}},{"base_weights":[-2.007414E-1,4.8511248E-2,-3.885385E-2],"categories":[],"categories_nodes":[],"categories_segments":[],"categories_sizes":[],"default_left":[0,0,0],"id":102,"left_children":[1,-1,-1],"loss_changes":[1.0461435E1,0E0,0E0],"parents":[2147483647,0,0],"right_children":[2,-1,-1],"split_conditions":[-1.4219898E0,4.8511248E-2,-3.885385E-2],"split_indices":[44,0,0],"split_type":[0,0,0],"sum_hessian":[3.6653027E1,9.701411E0,2.6951616E1],"tree_param":{"num_deleted":"0","num_feature":"49","num_nodes":"3","size_leaf_vector":"1"}},{"base_weights":[-2.2258016E-1,4.6695554E-1,-3.8771145E-2,6.545926E-1,-2.6441643E-2,1.7742064E-2,5.229245E-2],"categories":[],"categories_nodes":[],"categories_segments":[],"categories_sizes":[],"default_left":[0,0,0,0,0,0,0],"id":103,"left_children":[1,3,-1,5,-1,-1,-1],"loss_changes":[7.8125315E0,2.027602E0,0E0,1.0782719E-2,0E0,0E0,0E0],"parents":[2147483647,0,0,1,1,3,3],"right_children":[2,4,-1,6,-1,-1,-1],"split_conditions":[-1.122954E0,1E0,-3.8771145E-2,1E0,-2.6441643E-2,1.7742064E-2,5.229245E-2],"split_indices":[48,15,0,40,0,0,0],"split_type":[0,0,0,0,0,0,0],"sum_hessian":[3.630038E1,1.0685084E1,2.5615295E1,8.858144E0,1.8269407E0,1.4259895E0,7.432154E0],"tree_param":{"num_deleted":"0","num_feature":"49","num_nodes":"7","size_leaf_vector":"1"}},{"base_weights":[7.7590875E-2,5.4205316E-1,-3.915747E-1,5.393765E-2,-3.1407256E-2,-4.7634685E-1,4.0557034E-2,-3.8291004E-2,-1.6301736E-1,-2.4950001E-2,7.007333E-3],"categories":[],"categories_nodes":[],"categories_segments":[],"categories_sizes":[],"default_left":[0,0,0,0,0,0,0,0,0,0,0],"id":104,"left_children":[1,3,5,-1,-1,7,-1,-1,9,-1,-1],"loss_changes":[1.0549E1,4.4290824E0,2.1686075E0,0E0,0E0,1.5997314E-1,0E0,0E0,1.9216363E-1,0E0,0E0],"parents":[2147483647,0,0,1,1,2,2,5,5,8,8],"right_children":[2,4,6,-1,-1,8,-1,-1,10,-1,-1],"split_conditions":[-7.9368955E-1,1.8943034E0,1E0,5.393765E-2,-3.1407256E-2,1.4107065E0,4.0557034E-2,-3.8291004E-2,1E0,-2.4950001E-2,7.007333E-3],"split_indices":[44,47,9,0,0,47,0,0,0,0,0],"split_type":[0,0,0,0,0,0,0,0,0,0,0],"sum_hessian":[4.643591E1,2.325685E1,2.317906E1,1.9849352E1,3.4074967E0,2.169549E1,1.4835708E0,1.8992987E1,2.7025027E0,1.447636E0,1.2548666E0],"tree_param":{"num_deleted":"0","num_feature":"49","num_nodes":"11","size_leaf_vector":"1"}},{"base_weights":[8.132042E-2,-3.6226954E-2,2.205238E-1,3.450875E-1,-3.4732044E-2,1.3418749E-1,5.6873724E-2,-1.8928832E-1,5.210845E-2,2.0167825E-1,-3.6395617E-2,5.1973283E-2,-3.1123757E-2],"categories":[],"categories_nodes":[],"categories_segments":[],"categories_sizes":[],"default_left":[0,0,0,0,0,0,0,0,0,0,0,0,0],"id":105,"left_children":[1,-1,3,5,-1,7,-1,9,-1,11,-1,-1,-1],"loss_changes":[3.8833454E0,0E0,3.502149E0,2.8416433E0,0E0,4.406802E0,0E0,1.9188275E0,0E0,2.5557144E0,0E0,0E0,0E0],"parents":[2147483647,0,0,2,2,3,3,5,5,7,7,9,9],"right_children":[2,-1,4,6,-1,8,-1,10,-1,12,-1,-1,-1],"split_conditions":[-7.9368955E-1,-3.6226954E-2,1.0912111E0,2.093255E-1,-3.4732044E-2,1E0,5.6873724E-2,-2.018187E-1,5.210845E-2,9.1008687E-1,-3.6395617E-2,5.1973283E-2,-3.1123757E-2],"split_indices":[44,0,44,43,0,3,0,45,0,46,0,0,0],"split_type":[0,0,0,0,0,0,0,0,0,0,0,0,0],"sum_hessian":[4.7076347E1,8.825763E0,3.8250584E1,3.2773964E1,5.4766216E0,2.2576366E1,1.0197596E1,1.47357855E1,7.840582E0,6.486472E0,8.249313E0,3.5413203E0,2.9451518E0],"tree_param":{"num_deleted":"0","num_feature":"49","num_nodes":"13","size_leaf_vector":"1"}},{"base_weights":[1.5134457E-1,-3.7853118E-2,4.2279992E-1,5.875054E-1,-3.423347E-2,6.980686E-1,-3.0094815E-2,2.9775072E-3,5.457631E-2],"categories":[],"categories_nodes":[],"categories_segments":[],"categories_sizes":[],"default_left":[0,0,0,0,0,0,0,0,0],"id":106,"left_children":[1,-1,3,5,-1,7,-1,-1,-1],"loss_changes":[9.394205E0,0E0,5.627569E0,3.7353954E0,0E0,5.325117E-1,0E0,0E0,0E0],"parents":[2147483647,0,0,2,2,3,3,5,5],"right_children":[2,-1,4,6,-1,8,-1,-1,-1],"split_conditions":[-3.9729293E-2,-3.7853118E-2,1.0912111E0,1E0,-3.423347E-2,-2.018187E-1,-3.0094815E-2,2.9775072E-3,5.457631E-2],"split_indices":[44,0,44,3,0,45,0,0,0],"split_type":[0,0,0,0,0,0,0,0,0],"sum_hessian":[5.0551815E1,1.45436E1,3.6008213E1,3.0606615E1,5.4015994E0,2.7792849E1,2.8137658E0,1.297146E0,2.6495703E1],"tree_param":{"num_deleted":"0","num_feature":"49","num_nodes":"9","size_leaf_vector":"1"}},{"base_weights":[1.0662072E-2,-3.876681E-2,5.3725243E-2],"categories":[],"categories_nodes":[],"categories_segments":[],"categories_sizes":[],"default_left":[0,0,0],"id":107,"left_children":[1,-1,-1],"loss_changes":[1.6731274E1,0E0,0E0],"parents":[2147483647,0,0],"right_children":[2,-1,-1],"split_conditions":[1.0912111E0,-3.876681E-2,5.3725243E-2],"split_indices":[44,0,0],"split_type":[0,0,0],"sum_hessian":[4.2948055E1,2.4728718E1,1.8219337E1],"tree_param":{"num_deleted":"0","num_feature":"49","num_nodes":"3","size_leaf_vector":"1"}},{"base_weights":[-1.973762E-1,-3.8888175E-2,4.641104E-2],"categories":[],"categories_nodes":[],"categories_segments":[],"categories_sizes":[],"default_left":[0,0,0],"id":108,"left_children":[1,-1,-1],"loss_changes":[9.745001E0,0E0,0E0],"parents":[2147483647,0,0],"right_children":[2,-1,-1],"split_conditions":[2.619699E0,-3.8888175E-2,4.641104E-2],"split_indices":[47,0,0],"split_type":[0,0,0],"sum_hessian":[3.495554E1,2.5347282E1,9.608255E0],"tree_param":{"num_deleted":"0","num_feature":"49","num_nodes":"3","size_leaf_vector":"1"}},{"base_weights":[-2.1847549E-1,4.5215416E-1,-3.852664E-2,6.324534E-1,-2.5940226E-2,1.705296E-2,5.058705E-2],"categories":[],"categories_nodes":[],"categories_segments":[],"categories_sizes":[],"default_left":[0,0,0,0,0,0,0],"id":109,"left_children":[1,3,-1,5,-1,-1,-1],"loss_changes":[7.2870107E0,1.8623905E0,0E0,1.1345863E-2,0E0,0E0,0E0],"parents":[2147483647,0,0,1,1,3,3],"right_children":[2,4,-1,6,-1,-1,-1],"split_conditions":[-1.122954E0,1E0,-3.852664E-2,1E0,-2.5940226E-2,1.705296E-2,5.058705E-2],"split_indices":[48,15,0,40,0,0,0],"split_type":[0,0,0,0,0,0,0],"sum_hessian":[3.4633873E1,1.0423467E1,2.4210407E1,8.671721E0,1.7517452E0,1.4179099E0,7.2538114E0],"tree_param":{"num_deleted":"0","num_feature":"49","num_nodes":"7","size_leaf_vector":"1"}},{"base_weights":[7.608462E-2,5.2678525E-1,-3.8567144E-1,5.237275E-2,-3.0943858E-2,-4.7141683E-1,3.9051138E-2,-3.823207E-2,-1.693486E-1,-2.6267873E-2,1.3433588E-2],"categories":[],"categories_nodes":[],"categories_segments":[],"categories_sizes":[],"default_left":[0,0,0,0,0,0,0,0,0,0,0],"id":110,"left_children":[1,3,5,-1,-1,7,-1,-1,9,-1,-1],"loss_changes":[9.681681E0,4.0697346E0,2.038656E0,0E0,0E0,1.6390705E-1,0E0,0E0,3.1051746E-1,0E0,0E0],"parents":[2147483647,0,0,1,1,2,2,5,5,8,8],"right_children":[2,4,6,-1,-1,8,-1,-1,10,-1,-1],"split_conditions":[-7.9368955E-1,1.8943034E0,1E0,5.237275E-2,-3.0943858E-2,1E0,3.9051138E-2,-3.823207E-2,6.8531114E-1,-2.6267873E-2,1.3433588E-2],"split_indices":[44,47,9,0,0,41,0,0,47,0,0],"split_type":[0,0,0,0,0,0,0,0,0,0,0],"sum_hessian":[4.454488E1,2.2471027E1,2.2073853E1,1.9218567E1,3.2524614E0,2.0604448E1,1.4694048E0,1.767344E1,2.9310074E0,1.9260741E0,1.0049334E0],"tree_param":{"num_deleted":"0","num_feature":"49","num_nodes":"11","size_leaf_vector":"1"}},{"base_weights":[8.014949E-2,-3.586545E-2,2.1559463E-1,3.3609626E-1,-3.427218E-2,1.3144618E-1,5.485326E-2,-1.8441758E-1,5.0355148E-2,1.9354402E-1,-3.599495E-2,4.9572825E-2,-3.0725311E-2],"categories":[],"categories_nodes":[],"categories_segments":[],"categories_sizes":[],"default_left":[0,0,0,0,0,0,0,0,0,0,0,0,0],"id":111,"left_children":[1,-1,3,5,-1,7,-1,9,-1,11,-1,-1,-1],"loss_changes":[3.6064944E0,0E0,3.2308774E0,2.5553575E0,0E0,4.015027E0,0E0,1.7883049E0,0E0,2.3496945E0,0E0,0E0,0E0],"parents":[2147483647,0,0,2,2,3,3,5,5,7,7,9,9],"right_children":[2,-1,4,6,-1,8,-1,10,-1,12,-1,-1,-1],"split_conditions":[-7.9368955E-1,-3.586545E-2,1.0912111E0,2.093255E-1,-3.427218E-2,1E0,5.485326E-2,-2.018187E-1,5.0355148E-2,9.1008687E-1,-3.599495E-2,4.9572825E-2,-3.0725311E-2],"split_indices":[44,0,44,43,0,3,0,45,0,46,0,0,0],"split_type":[0,0,0,0,0,0,0,0,0,0,0,0,0],"sum_hessian":[4.5324955E1,8.354395E0,3.6970562E1,3.1777311E1,5.19325E0,2.1815321E1,9.961989E0,1.4179212E1,7.63611E0,6.373111E0,7.8061004E0,3.536756E0,2.836355E0],"tree_param":{"num_deleted":"0","num_feature":"49","num_nodes":"13","size_leaf_vector":"1"}},{"base_weights":[1.4689502E-1,-3.7566926E-2,4.1081837E-1,5.6951547E-1,-3.378813E-2,6.7634976E-1,-2.959703E-2,3.1542531E-3,5.290703E-2],"categories":[],"categories_nodes":[],"categories_segments":[],"categories_sizes":[],"default_left":[0,0,0,0,0,0,0,0,0],"id":112,"left_children":[1,-1,3,5,-1,7,-1,-1,-1],"loss_changes":[8.674013E0,0E0,5.142222E0,3.421214E0,0E0,4.8558998E-1,0E0,0E0,0E0],"parents":[2147483647,0,0,2,2,3,3,5,5],"right_children":[2,-1,4,6,-1,8,-1,-1,-1],"split_conditions":[-3.9729293E-2,-3.7566926E-2,1.0912111E0,1E0,-3.378813E-2,-2.018187E-1,-2.959703E-2,3.1542531E-3,5.290703E-2],"split_indices":[44,0,44,3,0,45,0,0,0],"split_type":[0,0,0,0,0,0,0,0,0],"sum_hessian":[4.853164E1,1.3789094E1,3.4742546E1,2.9623323E1,5.1192236E0,2.6936996E1,2.686326E0,1.2879539E0,2.5649042E1],"tree_param":{"num_deleted":"0","num_feature":"49","num_nodes":"9","size_leaf_vector":"1"}},{"base_weights":[1.0171894E-2,-3.8521007E-2,5.208513E-2],"categories":[],"categories_nodes":[],"categories_segments":[],"categories_sizes":[],"default_left":[0,0,0],"id":113,"left_children":[1,-1,-1],"loss_changes":[1.5429415E1,0E0,0E0],"parents":[2147483647,0,0],"right_children":[2,-1,-1],"split_conditions":[1.0912111E0,-3.8521007E-2,5.208513E-2],"split_indices":[44,0,0],"split_type":[0,0,0],"sum_hessian":[4.1052727E1,2.3394875E1,1.7657854E1],"tree_param":{"num_deleted":"0","num_feature":"49","num_nodes":"3","size_leaf_vector":"1"}},{"base_weights":[-1.9399947E-1,-3.8641613E-2,4.477852E-2],"categories":[],"categories_nodes":[],"categories_segments":[],"categories_sizes":[],"default_left":[0,0,0],"id":114,"left_children":[1,-1,-1],"loss_changes":[9.031153E0,0E0,0E0],"parents":[2147483647,0,0],"right_children":[2,-1,-1],"split_conditions":[2.619699E0,-3.8641613E-2,4.477852E-2],"split_indices":[47,0,0],"split_type":[0,0,0],"sum_hessian":[3.3330933E1,2.3952976E1,9.377956E0],"tree_param":{"num_deleted":"0","num_feature":"49","num_nodes":"3","size_leaf_vector":"1"}},{"base_weights":[-2.1482666E-1,4.3811002E-1,-3.8287215E-2,6.115282E-1,-2.5415959E-2,1.6531331E-2,4.894746E-2],"categories":[],"categories_nodes":[],"categories_segments":[],"categories_sizes":[],"default_left":[0,0,0,0,0,0,0],"id":115,"left_children":[1,3,-1,5,-1,-1,-1],"loss_changes":[6.788888E0,1.7079937E0,0E0,8.265018E-3,0E0,0E0,0E0],"parents":[2147483647,0,0,1,1,3,3],"right_children":[2,4,-1,6,-1,-1,-1],"split_conditions":[-1.122954E0,1E0,-3.8287215E-2,1E0,-2.5415959E-2,1.6531331E-2,4.894746E-2],"split_indices":[48,15,0,40,0,0,0],"split_type":[0,0,0,0,0,0,0],"sum_hessian":[3.300734E1,1.0137846E1,2.2869492E1,8.462117E0,1.6757293E0,1.4098394E0,7.0522776E0],"tree_param":{"num_deleted":"0","num_feature":"49","num_nodes":"7","size_leaf_vector":"1"}},{"base_weights":[7.444563E-2,5.1218396E-1,-3.7971196E-1,5.09067E-2,-3.0481445E-2,-4.6638483E-1,3.7642315E-2,-3.776473E-2,-1.4716262E-1,-2.392144E-2,7.5324313E-3],"categories":[],"categories_nodes":[],"categories_segments":[],"categories_sizes":[],"default_left":[0,0,0,0,0,0,0,0,0,0,0],"id":116,"left_children":[1,3,5,-1,-1,7,-1,-1,9,-1,-1],"loss_changes":[8.876063E0,3.7435174E0,1.9156699E0,0E0,0E0,1.6963482E-1,0E0,0E0,1.8326367E-1,0E0,0E0],"parents":[2147483647,0,0,1,1,2,2,5,5,8,8],"right_children":[2,4,6,-1,-1,8,-1,-1,10,-1,-1],"split_conditions":[-7.9368955E-1,1.8943034E0,1E0,5.09067E-2,-3.0481445E-2,1.4107065E0,