tree
version=v4
num_class=6
num_tree_per_iteration=6
label_index=0
max_feature_idx=516
objective=multiclass num_class:6
feature_names=Column_0 Column_1 Column_2 Column_3 Column_4 Column_5 Column_6 Column_7 Column_8 Column_9 Column_10 Column_11 Column_12 Column_13 Column_14 Column_15 Column_16 Column_17 Column_18 Column_19 Column_20 Column_21 Column_22 Column_23 Column_24 Column_25 Column_26 Column_27 Column_28 Column_29 Column_30 Column_31 Column_32 Column_33 Column_34 Column_35 Column_36 Column_37 Column_38 Column_39 Column_40 Column_41 Column_42 Column_43 Column_44 Column_45 Column_46 Column_47 Column_48 Column_49 Column_50 Column_51 Column_52 Column_53 Column_54 Column_55 Column_56 Column_57 Column_58 Column_59 Column_60 Column_61 Column_62 Column_63 Column_64 Column_65 Column_66 Column_67 Column_68 Column_69 Column_70 Column_71 Column_72 Column_73 Column_74 Column_75 Column_76 Column_77 Column_78 Column_79 Column_80 Column_81 Column_82 Column_83 Column_84 Column_85 Column_86 Column_87 Column_88 Column_89 Column_90 Column_91 Column_92 Column_93 Column_94 Column_95 Column_96 Column_97 Column_98 Column_99 Column_100 Column_101 Column_102 Column_103 Column_104 Column_105 Column_106 Column_107 Column_108 Column_109 Column_110 Column_111 Column_112 Column_113 Column_114 Column_115 Column_116 Column_117 Column_118 Column_119 Column_120 Column_121 Column_122 Column_123 Column_124 Column_125 Column_126 Column_127 Column_128 Column_129 Column_130 Column_131 Column_132 Column_133 Column_134 Column_135 Column_136 Column_137 Column_138 Column_139 Column_140 Column_141 Column_142 Column_143 Column_144 Column_145 Column_146 Column_147 Column_148 Column_149 Column_150 Column_151 Column_152 Column_153 Column_154 Column_155 Column_156 Column_157 Column_158 Column_159 Column_160 Column_161 Column_162 Column_163 Column_164 Column_165 Column_166 Column_167 Column_168 Column_169 Column_170 Column_171 Column_172 Column_173 Column_174 Column_175 Column_176 Column_177 Column_178 Column_179 Column_180 Column_181 Column_182 Column_183 Column_184 Column_185 Column_186 Column_187 Column_188 Column_189 Column_190 Column_191 Column_192 Column_193 Column_194 Column_195 Column_196 Column_197 Column_198 Column_199 Column_200 Column_201 Column_202 Column_203 Column_204 Column_205 Column_206 Column_207 Column_208 Column_209 Column_210 Column_211 Column_212 Column_213 Column_214 Column_215 Column_216 Column_217 Column_218 Column_219 Column_220 Column_221 Column_222 Column_223 Column_224 Column_225 Column_226 Column_227 Column_228 Column_229 Column_230 Column_231 Column_232 Column_233 Column_234 Column_235 Column_236 Column_237 Column_238 Column_239 Column_240 Column_241 Column_242 Column_243 Column_244 Column_245 Column_246 Column_247 Column_248 Column_249 Column_250 Column_251 Column_252 Column_253 Column_254 Column_255 Column_256 Column_257 Column_258 Column_259 Column_260 Column_261 Column_262 Column_263 Column_264 Column_265 Column_266 Column_267 Column_268 Column_269 Column_270 Column_271 Column_272 Column_273 Column_274 Column_275 Column_276 Column_277 Column_278 Column_279 Column_280 Column_281 Column_282 Column_283 Column_284 Column_285 Column_286 Column_287 Column_288 Column_289 Column_290 Column_291 Column_292 Column_293 Column_294 Column_295 Column_296 Column_297 Column_298 Column_299 Column_300 Column_301 Column_302 Column_303 Column_304 Column_305 Column_306 Column_307 Column_308 Column_309 Column_310 Column_311 Column_312 Column_313 Column_314 Column_315 Column_316 Column_317 Column_318 Column_319 Column_320 Column_321 Column_322 Column_323 Column_324 Column_325 Column_326 Column_327 Column_328 Column_329 Column_330 Column_331 Column_332 Column_333 Column_334 Column_335 Column_336 Column_337 Column_338 Column_339 Column_340 Column_341 Column_342 Column_343 Column_344 Column_345 Column_346 Column_347 Column_348 Column_349 Column_350 Column_351 Column_352 Column_353 Column_354 Column_355 Column_356 Column_357 Column_358 Column_359 Column_360 Column_361 Column_362 Column_363 Column_364 Column_365 Column_366 Column_367 Column_368 Column_369 Column_370 Column_371 Column_372 Column_373 Column_374 Column_375 Column_376 Column_377 Column_378 Column_379 Column_380 Column_381 Column_382 Column_383 Column_384 Column_385 Column_386 Column_387 Column_388 Column_389 Column_390 Column_391 Column_392 Column_393 Column_394 Column_395 Column_396 Column_397 Column_398 Column_399 Column_400 Column_401 Column_402 Column_403 Column_404 Column_405 Column_406 Column_407 Column_408 Column_409 Column_410 Column_411 Column_412 Column_413 Column_414 Column_415 Column_416 Column_417 Column_418 Column_419 Column_420 Column_421 Column_422 Column_423 Column_424 Column_425 Column_426 Column_427 Column_428 Column_429 Column_430 Column_431 Column_432 Column_433 Column_434 Column_435 Column_436 Column_437 Column_438 Column_439 Column_440 Column_441 Column_442 Column_443 Column_444 Column_445 Column_446 Column_447 Column_448 Column_449 Column_450 Column_451 Column_452 Column_453 Column_454 Column_455 Column_456 Column_457 Column_458 Column_459 Column_460 Column_461 Column_462 Column_463 Column_464 Column_465 Column_466 Column_467 Column_468 Column_469 Column_470 Column_471 Column_472 Column_473 Column_474 Column_475 Column_476 Column_477 Column_478 Column_479 Column_480 Column_481 Column_482 Column_483 Column_484 Column_485 Column_486 Column_487 Column_488 Column_489 Column_490 Column_491 Column_492 Column_493 Column_494 Column_495 Column_496 Column_497 Column_498 Column_499 Column_500 Column_501 Column_502 Column_503 Column_504 Column_505 Column_506 Column_507 Column_508 Column_509 Column_510 Column_511 Column_512 Column_513 Column_514 Column_515 Column_516
feature_infos=[0:1] [0:1] [0:1] [0:1] [0:1] [0:1] none [0:1] none none none none [0:1] [0:1] [0:1] none [0:1] [0:1] none none none none [0:1] none none [0:1] none none none none none [0:1] none none none none none none [0:1] none [0:1] [0:1] [0:1] [-1.6354518277569989:1.9388042497198423] [-1.6733098479531416:1.7195113030927685] [-1.4038725330980597:1.48091309145128] [-1.3440356134253817:1.4736175223430754] [-1.2490765673495612:3.828691217310606] [-2.3591123870126185:1.9674418891338159] [0.0039697134292614525:0.86086485927687295] [0.0051593725997929581:0.87812371349314611] [0.0054948003076005668:0.94627391854068554] [0.0084734104398148363:0.9383521836028027] [0.010205647614125967:0.96791827739259417] [0.004958216688167448:0.94915709079315203] [0.00392760570135959:0.86369822569095733] [0.0055443299861790436:0.80074523472578929] [0.0059143955031524011:0.94887141260311769] [0.009049528173261526:0.94062025418930117] [0.0099704006849774523:0.96796450359205199] [0.0051895252577863291:0.94785114282732263] [0.00392760570135959:0.86369822569095733] [0.0055443299861790436:0.80074523472578929] [0.0059143955031524011:0.94887141260311769] [0.009049528173261526:0.94062025418930117] [0.0099704006849774523:0.96796450359205199] [0.0051895252577863291:0.94785114282732263] [0.017535562127578577:0.64580109428487509] [0.018415339201854841:0.68033607690294773] [0.019330382153278231:0.8270607988194667] [0.028451782170959204:0.78599470206425548] [0.029145316256459143:0.88619508455721507] [0.017667110687357112:0.85725019392090462] [0.010830058381369309:0.77176893089016452] [0.012354049466214557:0.75520882729493599] [0.012518081805850506:0.8842293142714045] [0.02097670115438496:0.88086757035467289] [0.0207525952222249:0.92795404354861055] [0.013161678292250109:0.90112854758214433] [0.0099741168189034814:0.83772080634465163] [0.0099181991850153441:0.76766192596395277] [0.010187227736883492:0.91670945567008233] [0.017517025587488879:0.89364677453322061] [0.014801484877211994:0.93974074484915682] [0.010503563186920877:0.90131061315196703] [0.0019510974135720735:0.89782823907302756] [0.0018105533293324766:0.88113870480110856] [0.0039365189886003153:0.9622783335623355] [0.0067084809683839392:0.96310360468670864] [0.006714427408267388:0.97621910619139529] [0.0025726153136748533:0.96336489701999872] [0:0.98484848484848486] [0:0.96666666666666667] [0:1] [0:1] [0:1] [0:1] [0:1] [0:0.88888888888888884] [0:0.99061342992762469] [0:0.9506172839506174] [0:1] [0:1] [0:1] [0:1] [0:1] [0:1] [0:1] [0:1] [0.0045062438209012125:0.88661870209773963] [0.0044716843196470025:0.90762939931724673] [0.0053417324915410562:0.9576360187684525] [0.0095545738568579598:0.94645991779835825] [0.0075811889530645587:0.96597988282651537] [0.0057543323012251724:0.9524874482400143] [0.0023553383318491447:0.85451606517152656] [0.0023810803090552352:0.85581316384609107] [0.0044267961838051753:0.95914499318072088] [0.010849600409728518:0.92656470402644064] [0.0042714071716019085:0.96111460659774062] [0.0037683545784345505:0.96715074886040475] [0.002488441266431842:0.87975549036436851] [0.0027937304538139932:0.86464992562098231] [0.0043801307036067704:0.95517038909498686] [0.0096733876271191538:0.95493044102267377] [0.0073037356924065102:0.96844552039330578] [0.0045335987364283955:0.9537841793061751] [0.010553706271409743:0.80104801933631098] [0.010993024382702108:0.76256702855091429] [0.013577357795898446:0.8817791917064246] [0.026225955961942993:0.84034066790687578] [0.022012337562775153:0.91503695962678577] [0.015542724079282616:0.88664158356207867] [0.13908939063549042:0.20666894316673279] [0.13910698890686035:0.27281832695007324] [0.13956244289875031:0.28763473033905029] [0.14213205873966217:0.2774309515953064] [0.13939562439918518:0.28867828845977783] [0.13912801444530487:0.2869056761264801] [0:1] [0:0.9285714285714286] [0:1] [0:1] [0:1] [0:1] [0.004577338606831286:0.78452253080697909] [0.0051570695077997513:0.79975582716482563] [0.01200426612556448:0.91325060030136662] [0.010769696924677566:0.8975925295303766] [0.016197674923258354:0.94207648353318529] [0.0090625038125033679:0.92937680986845006] [0.004577338606831286:0.78452253080697909] [0.0051570695077997513:0.79975582716482563] [0.01200426612556448:0.91325060030136662] [0.010769696924677566:0.8975925295303766] [0.016197674923258354:0.94207648353318529] [0.0090625038125033679:0.92937680986845006] [0.0051066675133047473:0.84052271115505206] [0.0046291760713638892:0.83252158794653708] [0.0114325600118942:0.91606023190757435] [0.013223444576993147:0.91978781565077072] [0.013671277987269923:0.93849559147727479] [0.013090810199030932:0.95193687383917402] [7.3515077178645623e-08:0.99575783772643633] [5.8756444622825089e-08:0.999924895402999] [2.0885312434212748e-07:0.99998930059278257] [7.1391476895035578e-07:0.99999408348162178] [8.21815670921978e-07:0.99999825016953781] [2.5565367954300418e-07:0.99998849819358182] [0.00016425284063213732:0.96151167333991705] [0.00021182147456484576:0.97723298269943171] [0.00056294807284021646:0.99155749504365864] [0.00054924496048010349:0.98880089489834078] [0.00069371828660569302:0.99692811922991886] [0.00048787215605582677:0.9911446395304534] [0.0050140225855960993:0.77951279307742827] [0.0056502416166771879:0.71679178981516412] [0.016168974064519632:0.89173177015919913] [0.010779265799568635:0.85186797883200205] [0.016585546181805404:0.92691593725920329] [0.0094638260501005451:0.89217426682516343] [0.00046623805866558335:0.67116562039012273] [0.00049746938861176132:0.90122866668268409] [0.0010867193841500138:0.93495209251272282] [0.011870580950623611:0.94696403745071267] [0.0069471109723245224:0.97296272328346922] [0.0029475165716471075:0.97153081056509316] [0.0012477687003527153:0.96325992430404694] [0.0016568247140174111:0.95797122030175696] [0.0062416144987265595:0.98155002095339405] [0.0056333805189367316:0.97616447849948895] [0.0055194486758344107:0.97861853685639799] [0.0035671938714617601:0.97538406993491189] [2.5485001856692534e-08:0.99930691047374309] [5.3959242500601731e-08:0.99978759067511214] [4.4186772572997467e-07:0.99998425706048943] [5.3387874311304211e-07:0.9999179868731326] [6.8499989484705014e-07:0.99999452942516087] [2.6132499737774078e-07:0.99997021498791139] [2.1638209212521688e-06:0.99993657380173984] [2.9498507828731926e-06:0.99993455198346959] [8.2191255115854934e-06:0.99996540831433878] [7.844181803814077e-06:0.99996413098053927] [8.932115020753315e-06:0.99997149076902714] [6.2038128933170375e-06:0.99996236987761089] [0:1] [0:0.80000000000000004] [0:1] [0:1] [0:1] [0:1] [0.13659851253032684:0.22758878767490387] [0.13661368191242218:0.27100580930709839] [0.13956922292709351:0.28679525852203369] [0.14240437746047974:0.27628299593925476] [0.13692699372768402:0.28690674901008606] [0.13664095103740692:0.28628423810005188] [0:1] [0:0.88043478260869568] [0:1] [0:1] [0:1] [0:1] [0:0.90671812203142133] [0:0.87660094736181704] [0:1] [0:0.96480900052328622] [0:1] [0:1] [0:1] [0:1] [0:1] [0:1] [0:1] [0:1] [0:0.93796197524654523] [0:1] [0:1] [0:0.97727272727272729] [0:1] [0:1] [0.061446748673915863:0.55358344316482544] [0.061500728130340576:0.55470836162567139] [0.063121899962425232:0.60098737478256226] [0.062065623700618744:0.5819162130355835] [0.069770567119121552:0.6014055609703064] [0.076025158166885376:0.59355634450912476] [0.11944783478975296:0.28839099407196045] [0.11947277933359146:0.28941479325294495] [0.11964906007051468:0.31089106202125549] [0.11981198191642761:0.2977435290813446] [0.13289669156074524:0.31115821003913879] [0.13663247227668762:0.3075617253780365] [0.13659128546714783:0.20722031593322754] [0.13660614192485809:0.27062052488327026] [0.13927607238292694:0.28665491938591003] [0.14290875196456909:0.27630302309989929] [0.13692283630371094:0.288108229637146] [0.1366344690322876:0.28600189089775085] [0.0044402801431715488:0.85945630073547363] [0.0035674262326210737:0.89731639623641968] [0.004769845400005579:0.96891820430755615] [0.0055759008973836899:0.96142607927322388] [0.0045549599453806877:0.96682232618331909] [0.0049431836232542992:0.94987839460372925] [0:0.94876074602922078] [0:0.96666666666666667] [0:0.99922779922779914] [0:1] [0:1] [0:1] [0.028482649475336075:0.77772599458694458] [0.028561007231473923:0.77267009019851685] [0.03108573891222477:0.82996195554733276] [0.032282404601573944:0.81452023983001709] [0.033694878220558167:0.83121222257614136] [0.032290089875459671:0.81928718090057373] [0:1] [0:1] [0:1] [0:1] [0:1] [0:1] [0.11930433660745621:0.29201677441596985] [0.11932674795389175:0.29503971338272095] [0.11949408054351807:0.31432321667671204] [0.11971449106931686:0.30273523926734924] [0.12328489124774933:0.31510967016220093] [0.13217885792255402:0.31149977445602417] [0.11936653405427933:0.2942560613155365] [0.11938899010419846:0.29737189412117004] [0.11955595761537552:0.31755101680755615] [0.11977605521678925:0.30534437298774719] [0.12257660180330276:0.31861716508865356] [0.13127849996089935:0.31459745764732361] [0.12118861079216003:0.28343281149864197] [0.12254738062620163:0.29067254066467285] [0.12141833454370499:0.30982616543769836] [0.13550803065299988:0.29798796772956848] [0.13416361808776855:0.31179642677307129] [0.12124969810247421:0.30710363388061523] [0:0.87478341824059069] [0:0.85257110598735453] [0:1] [0:0.98412698412698418] [0:1] [0:1] [0:0.9493778914464337] [0:1] [0:1] [0:1] [0:1] [0:1] [0:0.86203000846343236] [0:0.72390338941020249] [0:1] [0:0.97727272727272729] [0:0.99411473053905597] [0:1] [3.5469102077525198e-08:0.92616901860408729] [7.400960838600944e-07:0.92695141966479322] [3.2700177091005269e-06:0.99226311396150024] [0.00013792447212993664:0.96432896015732883] [3.249332071804159e-05:0.98355855107982915] [2.0300205025871838e-07:0.99155886720273301] [0:0.98484848484848486] [0:1] [0:1] [0:0.97060593176659671] [0:1] [0:1] [0:0.98863636363636365] [0:1] [0:1] [0:1] [0:1] [0:1] [0:0.8737444100447197] [0:0.80846822932053997] [0:1] [0:0.97368421052631582] [0:1] [0:1] [0:0.93869047619047608] [0:0.88235294117647056] [0:1] [0:0.97368421052631571] [0:1] [0:1] [0:0.94117647058823517] [0:0.7287154337878976] [0:1] [0:0.9372294372294373] [0:1] [0:1] [0:1] [0:1] [0:1] [0:1] [0:1] [0:1] [0:1] [0:1] [0:1] [0:1] [0:1] [0:1] [0:1] [0:1] [0:1] [0:1] [0:1] [0:1] [0:1] [0:1] [0:1] [0:1] [0:1] [0:1] [0:1] [0:1] [0:1] [0:1] [0:1] [0:1] [0:1] [0:1] [0:1] [0:1] [0:1] [0:1] [0:1] [0:0.70563059484082835] [0:0.99747866867432078] [0:0.96230899830220717] [0:1] [0:1] [7.3076583110413965e-09:0.99892635084537307] [7.1010607889464125e-15:0.99602539352146224] [1.3512937692129689e-12:0.99978774014183314] [5.3281184945252335e-09:0.9952592389260394] [1.7915469874881903e-10:0.99936640826428713] [1.5436196036394111e-19:0.99508997731034476] [1.788284956535222e-08:0.96533806293904256] [6.6094637726168732e-06:0.9816652774553456] [1.2431122496591296e-05:0.9998192347881274] [4.4275286559210855e-06:0.99982292652119764] [2.2622772290978688e-08:0.99760902225206338] [4.0256628274222216e-06:0.99953031257955993] [0:1] [0:1] [0:1] [0:1] [0:1] [0:1] [8.3981736270191639e-25:0.99997620350992011] [1.964077001555471e-31:0.99999999999825318] [5.7160419402612369e-15:0.99999999999551603] [2.5832464358780012e-16:0.99999996628258181] [1.6431502489276999e-22:0.99999999999954148] [1.2002751357501021e-21:0.99999997309471989] [0:1] [0:1] [0:1] [0:1] [0:1] [0:1] [1.1007448704395452e-20:0.99821192601140263] [6.6558172833501029e-20:0.99479084627989989] [3.5097411618586029e-16:0.99999999880311496] [1.9682210982249872e-13:0.99999988559497144] [1.1839391683125976e-09:0.99999997861572365] [8.7847309692349161e-13:0.99999997422978115] [3.3676169194165143e-17:0.99999985439492056] [3.2091506574416116e-15:0.99899054309869961] [1.2505995348883083e-22:0.99999647366202227] [7.1211958295244176e-13:0.99999999999970224] [1.5080028381235451e-26:0.99999992219273592] [3.0158571869959983e-18:0.99999972717816776] [9.3653910646587567e-07:0.9817531651195992] [1.2014589766129516e-07:0.96729131932995471] [7.2110265367888771e-06:0.99984700935042869] [6.1084720641076693e-06:0.99880277546646778] [1.3524324451554952e-06:0.99920331699132292] [6.0392785666653201e-06:0.99971098293070804] [0:1] [0:1] [0:1] [0:1] [0:1] [0:1] [0:0.99999999246723925] [0:0.99999989860562477] [0:1] [0:0.99999995753326165] [0:1] [0:0.9999999994472224] [0:1] [0:1] [0:1] [0:1] [0:1] [0:1] [1.582593058817267e-32:0.99999987917205935] [6.4371273894514173e-28:0.98040934044114691] [5.5679698558049042e-24:0.99999999947587992] [1.049171234546273e-14:0.99999989048090332] [7.1757290096405521e-15:0.99999999937356754] [1.5953935958399455e-19:0.99999999966751507] [0:1] [0:1] [0:1] [0:1] [0:1] [0:1] [1.9506618886311655e-15:0.99410294358726514] [7.4314990166940611e-14:0.99559168255585495] [1.3019582145813423e-12:0.99996386878810617] [1.3659821305496243e-07:0.99996648640245733] [3.6981284375342404e-08:0.99992016351288482] [4.8536272525897092e-09:0.99999951774864637] [0:1] [0:1] [0:1] [0:1] [0:1] [0:1] [3.1256766794058529e-12:0.99408439309674446] [3.3592298055462376e-14:0.98666536334061838] [7.6890986781779424e-13:0.99799400177850139] [1.4146501725329393e-08:0.99992797480105611] [5.7889140378436276e-06:0.99971702332325896] [1.7802609694310675e-06:0.99994893497154147] [0:1] [0:1] [0:1] [0:1] [0:1] [0:1] [0:1] [0:1] [0:1] [0:1] [0:1] [0:1] [0:1] [0:1] [0:0.92592592592592593] [0:1] [0:0.953125] [0:1] [0:1] [0:1] [0:0.91228070175438591] [0:1] [0:0.953125] [0:1]
tree_sizes=453 450 664 557 455 559 1416 1316 1087 1420 1081 1199 1533 1546 1635 1524 1527 1527 1549 1653 1636 1539 1518 1525 1551 1430 1536 1538 1416 1532 1546 1556 1538 1546 1532 1546

Tree=0
num_leaves=3
num_cat=0
split_feature=61 44
split_gain=195.833 1.77636e-15
threshold=0.46609070419188475 -0.16538933637718142
decision_type=2 2
left_child=1 -1
right_child=-2 -3
leaf_value=-2.7497053186835831 -0.39328768531690406 -2.7497053186835831
leaf_weight=8.063087016344074 1.5277428030967701 10.354701220989227
leaf_count=95 18 122
internal_value=-2.56921 -2.74971
internal_weight=0 18.4178
internal_count=235 217
is_linear=0
shrinkage=1


Tree=1
num_leaves=3
num_cat=0
split_feature=56 44
split_gain=195.833 1.77636e-15
threshold=0.33791966440821525 0.77706098335779361
decision_type=2 2
left_child=1 -1
right_child=-2 -3
leaf_value=-2.865840017456597 -0.23908013726565169 -2.8658400174565974
leaf_weight=12.106169007718568 1.2182308435440052 4.5683656632900229
leaf_count=159 16 60
internal_value=-2.687 -2.86584
internal_weight=0 16.6745
internal_count=235 219
is_linear=0
shrinkage=1


Tree=2
num_leaves=5
num_cat=0
split_feature=189 40 47 47
split_gain=191.522 0.220344 1.42109e-14 7.10543e-15
threshold=0.21065746681055697 1.0000000180025095e-35 1.0480088590443242 2.1361019557572178
decision_type=2 2 2 2
left_child=3 2 -2 -1
right_child=1 -3 -4 -5
leaf_value=-1.5890504772866023 -0.71246319355611454 -0.77090234580481387 -0.71246319355611476 -1.5890504772866023
leaf_weight=33.767315208911896 3.6505205631256086 3.4223630279302588 6.8447260558605194 5.9320959150791159
leaf_count=148 16 15 30 26
internal_value=-1.36524 -0.726833 -0.712463 -1.58905
internal_weight=0 13.9176 10.4952 39.6994
internal_count=235 61 46 174
is_linear=0
shrinkage=1


Tree=3
num_leaves=4
num_cat=0
split_feature=52 44 44
split_gain=195.833 3.55271e-15 1.77636e-15
threshold=0.32354295505759817 -0.60519948558683645 -0.98217961348082616
decision_type=2 2 2
left_child=1 2 -1
right_child=-2 -3 -4
leaf_value=-2.0208149231446688 -0.79129761626378059 -2.0208149231446688 -2.0208149231446688
leaf_weight=10.410589218139647 6.1812873482704154 17.242538392543793 4.3919673264026633
leaf_count=64 38 106 27
internal_value=-1.822 -2.02081 -2.02081
internal_weight=0 32.0451 14.8026
internal_count=235 197 91
is_linear=0
shrinkage=1


Tree=4
num_leaves=3
num_cat=0
split_feature=143 1
split_gain=195.833 2.84217e-14
threshold=0.25280994597711581 1.0000000180025095e-35
decision_type=2 2
left_child=-1 -2
right_child=1 -3
leaf_value=-1.5155904056136649 -0.68263414518524412 -0.68263414518524435
leaf_weight=40.818468630313873 4.5620641410350773 11.04499739408493
leaf_count=170 19 46
internal_value=-1.2852 -0.682634
internal_weight=0 15.6071
internal_count=235 65
is_linear=0
shrinkage=1


Tree=5
num_leaves=4
num_cat=0
split_feature=54 42 54
split_gain=195.833 3.55271e-15 1.77636e-15
threshold=0.28355666374967148 1.0000000180025095e-35 0.019504523473300686
decision_type=2 2 2
left_child=1 2 -1
right_child=-2 -3 -4
leaf_value=-2.0208149231446688 -0.79129761626378059 -2.0208149231446688 -2.0208149231446688
leaf_weight=5.2052946090698233 6.1812873482704154 17.242538392543793 9.5972619354724866
leaf_count=32 38 106 59
internal_value=-1.822 -2.02081 -2.02081
internal_weight=0 32.0451 14.8026
internal_count=235 197 91
is_linear=0
shrinkage=1


Tree=6
num_leaves=12
num_cat=0
split_feature=61 134 312 88 320 169 72 50 46 46 54
split_gain=27.0065 0.000130097 6.57737e-06 2.57413e-06 1.31185e-06 1.17717e-06 2.36234e-07 7.81677e-09 1.9753e-09 4.44089e-16 2.22045e-16
threshold=0.46609070419188475 0.16659637540578845 0.0041529589371980683 0.45938061789398621 0.012315082912543537 0.018812802003203694 0.090124962380044957 0.031088851815687681 0.62832158161253837 -0.49873967269484426 0.025531183368403019
decision_type=2 2 2 2 2 2 2 2 2 2 2
left_child=1 2 3 4 8 6 -4 -8 9 -1 -11
right_child=-2 -3 5 -5 -6 -7 7 -9 -10 10 -12
leaf_value=-0.17699964624623432 0.3508668293565147 -0.17447069698462886 -0.17655132700638154 -0.17668236430250583 -0.17724186118738156 -0.17688451374918646 -0.17665955728385574 -0.17668236430250583 -0.17699253184814151 -0.17699964624623421 -0.17699964624623418
leaf_weight=1.5171853303909291 5.3865151405334464 0.95806488394737321 0.94925428554415825 0.9624752104282378 1.0098224803805349 0.97940587252378453 1.6009833663702013 0.9624752104282378 2.6369810104370117 1.2533270120620725 1.0554332733154295
leaf_count=23 18 19 15 15 15 15 25 15 40 19 16
internal_value=0 -0.176719 -0.176886 -0.17699 -0.17703 -0.176691 -0.176637 -0.176668 -0.176997 -0.177 -0.177
internal_weight=0 13.8854 12.9273 8.43522 7.47275 4.49212 3.51271 2.56346 6.46293 3.82595 2.30876
internal_count=235 217 198 128 113 70 55 40 98 58 35
is_linear=0
shrinkage=0.2


Tree=7
num_leaves=11
num_cat=0
split_feature=62 323 138 52 40 203 166 59 44 44
split_gain=21.8512 8.38179e-05 4.31266e-06 2.58782e-06 9.1803e-07 4.35184e-07 1.59493e-07 4.72067e-09 1.45806e-09 4.44089e-16
threshold=0.33791966440821525 0.00038484656719137025 0.16174430400133136 0.32354295505759817 1.0000000180025095e-35 0.06393358301400115 0.1674680813484207 0.037407536929512784 -0.16538933637718142 0.2744208128324736
decision_type=2 2 2 2 2 2 2 2 2 2
left_child=1 -1 3 4 8 6 7 -4 -3 -10
right_child=-2 2 5 -5 -6 -7 -8 -9 9 -11
leaf_value=-0.17362495124956381 0.32602772511436173 -0.17579833106676487 -0.17550578153337792 -0.17550578153337795 -0.17601769112806354 -0.17564473848531351 -0.17541066577455008 -0.17552582371109887 -0.17580457104905656 -0.17580457104905656
leaf_weight=0.8309615626931216 4.7975897789001456 2.6592739485204206 1.0330666825175283 1.1478518694639204 0.90539207682013501 0.87273756787180889 0.85066954419016827 0.86259128525853146 1.9513281695544717 1.4782789163291452
leaf_count=18 16 45 18 20 15 15 15 15 33 25
internal_value=0 -0.175566 -0.175703 -0.175784 -0.17583 -0.175522 -0.175483 -0.175515 -0.175802 -0.175805
internal_weight=0 12.5922 11.7612 8.14212 6.99427 3.61907 2.74633 1.89566 6.08888 3.42961
internal_count=235 219 201 138 118 63 48 33 103 58
is_linear=0
shrinkage=0.2


Tree=8
num_leaves=9
num_cat=0
split_feature=213 324 31 183 143 46 67 4
split_gain=93.5744 0.0124773 0.0082743 0.00133573 0.000292839 0.000188674 4.93391e-05 3.55271e-15
threshold=0.17384098470211032 0.00051410349855705981 1.0000000180025095e-35 0.12115791107403497 0.25280994597711581 1.19185220876623 0.066538283567431064 1.0000000180025095e-35
decision_type=2 2 2 2 2 2 2 2
left_child=1 5 6 4 7 -1 -2 -3
right_child=2 3 -4 -5 -6 -7 -8 -9
leaf_value=-0.19212927803883775 0.37248926303566154 -0.2033907659382507 0.38254010875825589 -0.20867919102015398 -0.20483718027572184 -0.19463104683696608 0.37330966411151228 -0.20339076593825067
leaf_weight=2.2073233127594021 8.6038635671138781 9.4101075083017367 4.7201102972030631 2.7918059676885596 10.188926458358765 2.6575632691383362 4.4482089579105368 3.0183363705873498
leaf_count=16 29 53 16 15 56 18 15 17
internal_value=0 -0.202775 0.375364 -0.204552 -0.204042 -0.193496 0.372769 -0.203391
internal_weight=0 30.2741 17.7722 25.4092 22.6174 4.86489 13.0521 12.4284
internal_count=235 175 60 141 126 34 44 70
is_linear=0
shrinkage=0.2


Tree=9
num_leaves=12
num_cat=0
split_feature=52 391 67 494 508 49 350 145 53 48 56
split_gain=69.1154 0.00226417 0.00221774 0.000130505 0.000117318 1.29726e-05 1.11323e-05 1.14199e-07 2.0479e-08 8.88178e-16 8.88178e-16
threshold=0.32354295505759817 0.033986928104575168 0.057889981444423907 1.0000000180025095e-35 1.0000000180025095e-35 0.029968669327019269 0.14415434123918699 0.006965092997195498 0.29644967082456386 0.57676372894389061 0.027878454671408804
decision_type=2 2 2 2 2 2 2 2 2 2 2
left_child=1 4 -2 -3 5 -1 7 -6 10 -10 -9
right_child=2 3 -4 -5 6 -7 -8 8 9 -11 -12
leaf_value=-0.18880359082500114 0.41568961573792412 -0.18526104837809809 0.42152200973020115 -0.18281990498279752 -0.18965592480910845 -0.18812916152892936 -0.19010818016983236 -0.18959375202961626 -0.18961067480721816 -0.18961067480721816 -0.18959375202961612
leaf_weight=3.1050371006131234 6.6291652917861921 1.6037159711122506 4.2989496886730194 1.9304519295692442 1.917325273156165 1.8033862635493276 2.0752995610237113 2.1686024069786054 2.5527217984199524 3.9567187875509262 2.9339914917945862
leaf_count=25 23 15 15 20 15 15 16 17 20 31 23
internal_value=0 -0.188603 0.417984 -0.183928 -0.189409 -0.188556 -0.189677 -0.189611 -0.189603 -0.189611 -0.189594
internal_weight=0 24.0473 10.9281 3.53417 20.5131 4.90842 15.6047 13.5294 11.612 6.50944 5.10259
internal_count=235 197 38 35 162 40 122 106 91 51 40
is_linear=0
shrinkage=0.2


Tree=10
num_leaves=9
num_cat=0
split_feature=143 104 135 62 240 46 48 46
split_gain=95.8708 0.0120781 0.000838548 0.000628032 0.000271707 5.51498e-05 7.10543e-15 1.77636e-15
threshold=0.25280994597711581 0.082619722578804747 0.17775572091341021 0.33791966440821525 0.0057019091545945774 1.19185220876623 0.20591621955991044 -1.0622702998485356
decision_type=2 2 2 2 2 2 2 2
left_child=1 2 4 -3 -1 -4 -2 -6
right_child=6 3 5 -5 7 -7 -8 -9
leaf_value=-0.20464406127095744 0.36130830923858248 -0.19884991907181981 -0.20938619570883832 -0.1943930774009627 -0.20686525409062284 -0.20844279191326651 0.36130830923858248 -0.20686525409062304
leaf_weight=2.6969770491123262 7.4550382792949685 2.7412916272878638 3.7021367847919446 2.3479132652282715 6.9513221681118029 7.4997880160808563 11.928061246871948 5.0725864470005
leaf_count=15 25 17 19 16 37 39 40 27
internal_value=0 -0.205702 -0.207451 -0.196794 -0.206458 -0.208755 0.361308 -0.206865
internal_weight=0 31.012 25.9228 5.0892 14.7209 11.2019 19.3831 12.0239
internal_count=235 170 137 33 79 58 65 64
is_linear=0
shrinkage=0.2


Tree=11
num_leaves=10
num_cat=0
split_feature=44 508 44 202 350 44 145 44 49
split_gain=68.6759 0.00257842 0.0001073 8.56375e-05 1.03591e-05 1.83578e-06 1.14199e-07 2.0479e-08 8.88178e-16
threshold=1.028381068620454 1.0000000180025095e-35 -0.98217961348082616 0.42923593130696469 0.14415434123918699 -0.60519948558683645 0.006965092997195498 -0.16538933637718142 0.035428282197259221
decision_type=2 2 2 2 2 2 2 2 2
left_child=1 2 -1 4 6 -5 -3 8 -8
right_child=-2 3 -4 5 -6 -7 7 -9 -10
leaf_value=-0.18457411355804587 0.41568961573792412 -0.18965592480910809 -0.18236042695823279 -0.18854754050579878 -0.1900783903439186 -0.18880359082500159 -0.18959375202961612 -0.18961067480721824 -0.18959375202961609
leaf_weight=2.085234254598618 10.952533960342405 1.9173252731561685 1.5101357698440576 1.8424078151583669 2.2028644084930411 2.856634132564067 2.9339914917945862 6.5094405859708768 2.1686024069786072
leaf_count=20 38 15 16 15 17 23 23 51 17
internal_value=0 -0.188583 -0.183644 -0.189452 -0.189676 -0.188703 -0.189611 -0.189603 -0.189594
internal_weight=0 24.0266 3.59537 20.4313 15.7322 4.69904 13.5294 11.612 5.10259
internal_count=235 197 36 161 123 38 106 91 40
is_linear=0
shrinkage=0.2


Tree=12
num_leaves=13
num_cat=0
split_feature=61 134 456 196 40 70 444 214 81 152 69 152
split_gain=17.4302 5.5909e-05 1.77635e-06 1.49118e-06 8.09114e-07 9.94e-08 1.75992e-08 7.01894e-09 1.58338e-09 6.69966e-11 4.21723e-11 3.06422e-14
threshold=0.46609070419188475 0.16659637540578845 0.086440307686478993 0.78252706964186958 1.0000000180025095e-35 0.11496012952757466 0.99920804306473177 0.16268591582775119 0.66489390804084814 0.015295675411738196 0.74431290083091139 0.00793027029964994
decision_type=2 2 2 2 2 2 2 2 2 2 2 2
left_child=1 2 3 4 7 6 -4 8 9 11 -10 -1
right_child=-2 -3 5 -5 -6 -7 -8 -9 10 -11 -12 -13
leaf_value=-0.1743735715040321 0.27381690786934337 -0.172502723712366 -0.17421567545473637 -0.17416587476538092 -0.17458615388545531 -0.17410473764165468 -0.17417499842210243 -0.17435757571586552 -0.17438069502358577 -0.17437571897498294 -0.1743826442495906 -0.17437352000556727
leaf_weight=0.86178223416208899 5.1448777019977578 0.73224592953920442 0.74609309062361739 1.2855578511953352 0.83135582134127606 0.73514650389552105 0.98999298736453056 0.86012028530240048 0.76103661581873883 0.81129568070173252 1.0656963028013704 1.0138554126024244
leaf_count=17 18 19 15 26 16 15 20 17 15 16 21 20
internal_value=0 -0.174189 -0.174313 -0.174362 -0.174403 -0.174166 -0.174192 -0.174374 -0.174377 -0.174374 -0.174382 -0.174374
internal_weight=0 10.6942 9.96193 7.4907 6.20514 2.47123 1.73609 5.37379 4.51367 2.68693 1.82673 1.87564
internal_count=235 217 198 148 122 50 35 106 89 53 36 37
is_linear=0
shrinkage=0.2


Tree=13
num_leaves=13
num_cat=0
split_feature=56 322 396 52 45 42 463 456 145 351 183 283
split_gain=14.4361 3.60429e-05 1.4389e-06 7.06805e-07 2.40222e-07 3.36711e-07 1.39099e-07 5.20793e-08 1.4783e-09 8.67443e-10 6.52509e-11 4.7895e-13
threshold=0.33791966440821525 0.0017531382434660687 0.0016972763618190907 0.32354295505759817 -0.6345963665515687 1.0000000180025095e-35 3.3590562025161208e-05 0.10203786671692587 0.0083968747449325292 0.52186565447435018 0.071544089273975514 0.15890914201736453
decision_type=2 2 2 2 2 2 2 2 2 2 2 2
left_child=1 -1 3 4 5 -3 7 -4 -9 10 11 -6
right_child=-2 2 6 -5 9 -7 -8 8 -10 -11 -12 -13
leaf_value=-0.17189113951496909 0.26197505069595767 -0.17370011725562517 -0.17326516974771972 -0.17331818423734779 -0.17350235012931434 -0.17350572896137073 -0.17340919100436261 -0.17332678670123972 -0.17333900895373625 -0.17350974205544256 -0.17350468069501623 -0.17350254635825493
leaf_weight=0.63655776903033157 4.4438688158988962 0.69929160922765532 0.65850223973393518 0.70856708660721768 1.27162365615368 0.72697296738624573 0.80705184116959561 0.97544699907302834 0.66617756336927414 1.0455911085009573 0.68144185468554486 0.81749473884701718
leaf_count=18 16 15 15 16 28 16 18 22 15 23 15 18
internal_value=0 -0.173346 -0.173448 -0.173506 -0.173531 -0.173601 -0.173338 -0.173313 -0.173332 -0.173505 -0.173503 -0.173502
internal_weight=0 9.69472 9.05816 5.95098 5.24242 1.42626 3.10718 2.30013 1.64162 3.81615 2.77056 2.08912
internal_count=235 219 201 131 115 31 70 52 37 84 61 46
is_linear=0
shrinkage=0.2


Tree=14
num_leaves=14
num_cat=0
split_feature=189 306 223 320 46 143 68 318 403 465 61 151 138
split_gain=55.6481 0.068701 0.00384951 0.00224666 7.1422e-05 6.61756e-05 1.23586e-06 4.91916e-07 1.39766e-07 1.29668e-08 8.50351e-11 2.90346e-12 3.43725e-13
threshold=0.21065746681055697 0.0038979591836734695 1.0000000180025095e-35 0.012315082912543537 1.19185220876623 0.25280994597711581 0.061893829624372891 0.016952284946236563 2.8632419379599715e-05 0.00026197793374412129 0.035131848405562972 0.0072777276848474785 0.16131701320409778
decision_type=2 2 2 2 2 2 2 2 2 2 2 2 2
left_child=2 3 5 6 -4 7 -2 -1 -7 10 -9 -10 -13
right_child=1 -3 4 -5 -6 8 -8 9 11 -11 -12 12 -14
leaf_value=-0.19234135003958383 0.28352049563953224 0.25620052390973697 -0.18482297132448045 0.28896472431666365 -0.1865743439449854 -0.19311375073718909 0.28337229069636377 -0.19245044179196816 -0.19317109141506528 -0.19243158389130421 -0.1924488602655621 -0.19317087184570592 -0.19317076345009387
leaf_weight=2.3595844358205857 4.6518315970897692 4.2987415641546241 1.7008477449417108 4.3936710655689231 2.0588239654898643 2.2693430632352811 4.3601086735725403 3.8984918892383558 2.2729194462299347 2.0873571634292603 2.0883842557668686 2.2729061543941498 2.4149553328752518
leaf_count=17 16 15 16 15 18 16 15 28 16 15 15 16 17
internal_value=0 0.278202 -0.191646 0.285257 -0.185782 -0.192767 0.283449 -0.192422 -0.193157 -0.192445 -0.19245 -0.193171 -0.193171
internal_weight=0 17.7044 23.4236 13.4056 3.75967 19.6639 9.01194 10.4338 9.23012 8.07423 5.98688 6.96078 4.68786
internal_count=235 61 174 46 34 140 31 75 65 58 43 49 33
is_linear=0
shrinkage=0.2


Tree=15
num_leaves=13
num_cat=0
split_feature=82 179 97 392 72 320 99 127 81 68 181 193
split_gain=41.3362 0.000959657 0.00081583 0.000117417 1.76541e-05 6.05559e-06 2.49135e-08 1.96654e-09 1.87317e-09 1.45531e-09 8.24929e-10 2.02949e-13
threshold=0.34149711703362423 0.079710660300740185 1.0000000180025095e-35 0.30554187192118232 0.20366233380707519 0.012315082912543537 0.90537723174525497 0.032900469935515361 0.05374867876445482 0.06360935361671996 0.019804501058878096 0.005997457546725247
decision_type=2 2 2 2 2 2 2 2 2 2 2 2
left_child=2 -2 4 -4 5 6 8 -6 10 -8 11 -1
right_child=1 -3 3 -5 7 -7 9 -9 -10 -11 -12 -13
leaf_value=-0.1832434908331364 0.30496531729902832 0.30119065579590504 -0.18074218042278892 -0.17831419674845758 -0.1828041331748676 -0.18365810603618091 -0.18326705195762577 -0.18281360325543539 -0.18323729482655829 -0.18325899719741054 -0.18324916308917405 -0.18324338919011454
leaf_weight=1.6785067319870051 4.452784448862074 6.8213933706283569 1.8655175864696496 1.3905826434493063 2.2213709801435466 1.7124817892909039 2.2735639512538914 1.4494203329086301 1.5792854279279707 1.4821703061461446 1.4814503118395803 1.4810280576348303
leaf_count=17 15 23 22 19 23 17 23 15 16 15 15 15
internal_value=0 0.302681 -0.182581 -0.179705 -0.18319 -0.183311 -0.183251 -0.182808 -0.183243 -0.183264 -0.183245 -0.183243
internal_weight=0 11.2742 18.6154 3.2561 15.3593 11.6885 9.976 3.67079 6.22027 3.75573 4.64099 3.15953
internal_count=235 38 197 41 156 118 101 38 63 38 47 32
is_linear=0
shrinkage=0.2


Tree=16
num_leaves=13
num_cat=0
split_feature=329 391 500 69 464 31 181 196 80 102 156 275
split_gain=59.0153 0.00387628 0.000244184 0.000197345 6.66108e-05 2.80484e-05 5.90887e-07 8.07031e-08 1.83793e-08 1.44944e-08 4.19966e-10 8.23235e-11
threshold=0.23820818331994806 0.033986928104575168 1.0000000180025095e-35 0.27282624318663679 0.0013471740703175509 1.0000000180025095e-35 0.019804501058878096 0.78252706964186958 0.032572240024296768 0.0011799337204465021 0.014920615117574932 0.26194749772548681
decision_type=2 2 2 2 2 2 2 2 2 2 2 2
left_child=1 3 -3 4 7 9 10 8 -1 -5 -2 -12
right_child=6 2 -4 5 -6 -7 -8 -9 -10 -11 11 -13
leaf_value=-0.19463304964167755 0.27857831882187689 -0.18996038939938878 -0.18690596466249587 -0.1954486138718787 -0.19339655108967527 -0.19627132955118118 0.27849752774967312 -0.1946651853835184 -0.19461046728587411 -0.19546811039325751 0.27858129909051021 0.27858013808781362
leaf_weight=4.1341967433691078 4.3261537551879909 1.9118434116244305 2.3141923397779465 3.7672544717788679 2.1238876134157172 2.3051875829696655 4.6139076054096213 2.9554121494293213 2.213469386100769 2.5629483908414841 4.6145880520343763 5.1914011538028717
leaf_count=28 15 15 20 25 15 15 16 20 15 17 16 18
internal_value=0 -0.193793 -0.188288 -0.194952 -0.194407 -0.195674 0.27856 -0.194638 -0.194625 -0.195457 0.27858 0.278581
internal_weight=0 24.2884 4.22604 20.0624 11.427 8.63539 18.7461 9.30308 6.34767 6.3302 14.1321 9.80599
internal_count=235 170 35 135 78 57 65 63 43 42 49 34
is_linear=0
shrinkage=0.2


Tree=17
num_leaves=13
num_cat=0
split_feature=120 104 50 452 58 320 99 58 83 304 184 193
split_gain=41.1448 0.000899306 4.48157e-05 3.39886e-05 1.45231e-05 5.77476e-06 2.58581e-08 1.53996e-08 1.84164e-09 1.77428e-09 8.76488e-10 7.64722e-13
threshold=0.27309954886966992 0.082619722578804747 0.21376420153448197 0.068379719301065275 0.30988846852465046 0.012315082912543537 0.90537723174525497 0.033200537781779095 0.69067946964742211 0.0025412087912087917 0.1864447314354592 0.005997457546725247
decision_type=2 2 2 2 2 2 2 2 2 2 2 2
left_child=1 3 -3 4 5 6 8 -2 -1 -8 11 -10
right_child=7 2 -4 -5 -6 -7 9 -9 10 -11 -12 -13
leaf_value=-0.18323732848249724 0.3016468076659149 -0.17983213906452689 -0.17814205181711287 -0.18223595924523248 -0.18278484067542655 -0.18365823059265521 -0.18326775418648122 0.30166192984850099 -0.18324349083313701 -0.18325910067062515 -0.18324924633006212 -0.18324329857282892
leaf_weight=1.5792880654335109 6.8238621652126294 1.3713448196649545 1.1571364700794218 1.5812008306384076 2.6051236987113944 1.611694112420081 2.1747881621122365 4.4503972232341766 1.8759781122207644 1.6798015981912611 1.4814563393592832 1.4810214713215826
leaf_count=16 23 17 16 17 27 16 22 15 19 17 15 15
internal_value=0 -0.182565 -0.179059 -0.183116 -0.183213 -0.183306 -0.183251 0.301653 -0.183243 -0.183264 -0.183245 -0.183243
internal_weight=0 18.5988 2.52848 16.0704 14.4892 11.884 10.2723 11.2743 6.41774 3.85459 4.83846 3.357
internal_count=235 197 33 164 147 120 104 38 65 39 49 34
is_linear=0
shrinkage=0.2


Tree=18
num_leaves=13
num_cat=0
split_feature=55 494 213 143 320 433 86 264 186 487 148 429
split_gain=11.8624 2.30526e-05 8.66856e-07 5.43256e-07 1.99605e-07 6.15947e-08 4.38228e-08 1.50104e-09 2.28009e-11 2.10476e-12 8.40217e-13 9.60343e-14
threshold=0.46609070419188475 1.0000000180025095e-35 0.17384098470211032 0.25280994597711581 0.012315082912543537 6.5445646977984994e-10 0.033787492411212282 0.089269865304231658 0.063219743045122803 3.1702051897030942e-07 0.061959496485570024 7.6793615676136014e-06
decision_type=2 2 2 2 2 2 2 2 2 2 2 2
left_child=1 2 3 5 6 -1 -4 -7 10 -9 11 -5
right_child=-2 -3 4 8 -6 7 -8 9 -10 -11 -12 -13
leaf_value=-0.17216940498357944 0.23446609360813039 -0.17099540524856902 -0.17243942689535968 -0.17235715375297433 -0.17252207556958485 -0.17223534080033431 -0.17236988274356235 -0.17224685498505476 -0.1723587085200719 -0.17224731744020871 -0.1723575051953751 -0.1723572631557429
leaf_weight=0.55546270683407639 4.439848020672799 0.55177006870508183 0.58236365765333198 0.57466146722435973 0.74750556424260128 0.60069875419139895 0.95976890623569489 0.94040805101394631 0.61312879621982563 0.67714651301503181 0.57469475641846646 0.72791763022542
leaf_count=15 18 19 15 15 19 16 25 25 16 18 15 19
internal_value=0 -0.172243 -0.172335 -0.17229 -0.172437 -0.172229 -0.172396 -0.172244 -0.172358 -0.172247 -0.172357 -0.172357
internal_weight=0 8.10553 7.55376 5.26412 2.28964 2.77372 1.54213 2.21825 2.4904 1.61755 1.87727 1.30258
internal_count=235 217 198 139 59 74 40 59 65 43 49 34
is_linear=0
shrinkage=0.2


Tree=19
num_leaves=14
num_cat=0
split_feature=56 313 135 149 320 288 438 428 184 152 394 159 72
split_gain=9.9357 1.35939e-05 6.0692e-07 3.91314e-07 1.28071e-07 4.4497e-08 3.03942e-08 1.71314e-09 1.61773e-11 1.4188e-11 3.86269e-12 6.8856e-13 4.90719e-14
threshold=0.33791966440821525 0.19312645058023212 0.17775572091341021 0.38669256009811098 0.012315082912543537 0.15256549417972567 2.0364197269489965e-15 2.9766573228255372e-08 0.1864447314354592 0.010911312258868142 0.0063193920448707747 0.036756758213012379 0.033023009703987409
decision_type=2 2 2 2 2 2 2 2 2 2 2 2 2
left_child=1 2 3 5 6 -1 -4 9 11 -7 -11 12 -5
right_child=-2 -3 4 8 -6 7 -8 -9 -10 10 -12 -13 -14
leaf_value=-0.17155715817580247 0.2277896945896184 -0.17063816407002566 -0.17179773195349848 -0.17172516445490027 -0.17186626441768244 -0.17162626647800014 -0.17173652894456165 -0.17161371225868582 -0.17172644660861558 -0.17162718512406591 -0.17162795487118726 -0.17172538793225867 -0.17172507711800553
leaf_weight=0.49719292484223876 3.769524097442627 0.51536259986460198 0.52150169759988807 0.5146070718765261 0.66886039078235615 0.50512718036770854 0.85948877036571503 0.50392087921500195 0.58335996419191349 0.53889593854546525 0.50528879091143608 0.61755284294486035 0.51459801197052002
leaf_count=15 16 19 15 15 19 15 25 15 17 16 15 18 15
internal_value=0 -0.171629 -0.171703 -0.171664 -0.171794 -0.171611 -0.17176 -0.171624 -0.171726 -0.171627 -0.171628 -0.171725 -0.171725
internal_weight=0 7.34576 6.83039 4.78054 2.04985 2.55043 1.38099 2.05323 2.23012 1.54931 1.04418 1.64676 1.02921
internal_count=235 219 200 141 59 76 40 61 65 46 31 48 30
is_linear=0
shrinkage=0.2


Tree=20
num_leaves=14
num_cat=0
split_feature=57 68 488 438 44 241 149 144 185 55 172 397 490
split_gain=36.0628 0.209078 0.0126508 0.00202258 0.000564608 0.000270784 1.17608e-05 1.57055e-07 4.54856e-08 5.3756e-10 4.51914e-11 6.26521e-12 4.83169e-13
threshold=0.27133256198069827 0.22512037906811153 1.5936987210749323e-05 2.2838022428737884e-11 -0.85651957084949604 0.14596293866634372 0.38669256009811098 0.0093108480084900351 0.69255725077824937 0.075698442895946391 0.037690503444422728 9.0070197465678777e-06 0.00088439896212485548
decision_type=2 2 2 2 2 2 2 2 2 2 2 2 2
left_child=1 3 -2 -1 -5 -4 7 -6 -8 10 -9 -10 -13
right_child=2 -3 5 4 6 -7 8 9 11 -11 -12 12 -14
leaf_value=-0.1930459892242567 0.22769053915358503 -0.1085203049417048 0.24220416322696328 -0.18089050394763856 -0.18488587297357426 0.24026173563085634 -0.1852694773553609 -0.18495160587782283 -0.18530636119633925 -0.1849478601553049 -0.18495308369594196 -0.18530596380331887 -0.18530581684990574
leaf_weight=1.2669719457626403 3.6701662838459006 1.5470557659864415 5.4078767001628858 1.3910258486866975 2.1319667547941155 6.1189354360103607 1.8426744267344473 1.7105162143707278 1.6284686177968977 1.6033449992537496 1.6037129461765287 1.7370036169886591 1.8455547690391538
leaf_count=11 15 17 21 16 20 24 17 16 15 15 15 16 17
internal_value=0 -0.17887 0.237917 -0.185363 -0.184735 0.241173 -0.185114 -0.184931 -0.185296 -0.184951 -0.184952 -0.185306 -0.185306
internal_weight=0 18.3083 15.197 16.7612 15.4943 11.5268 14.1032 7.04954 7.0537 4.91757 3.31423 5.21103 3.58256
internal_count=235 175 60 158 147 45 131 66 65 46 31 48 33
is_linear=0
shrinkage=0.2


Tree=21
num_leaves=13
num_cat=0
split_feature=82 233 391 494 270 320 323 398 44 186 82 193
split_gain=27.2026 0.00137733 0.000333356 2.12679e-05 9.98688e-06 2.7504e-06 2.47509e-06 7.02143e-07 3.15176e-08 1.58672e-09 3.2454e-10 1.94289e-13
threshold=0.34149711703362423 0.026580459770114941 0.033986928104575168 1.0000000180025095e-35 0.013437664020908987 0.012315082912543537 0.0080203666177562326 4.2534426266242039e-07 -0.98217961348082616 0.063219743045122803 0.059409209073756228 0.0049403462124230019
decision_type=2 2 2 2 2 2 2 2 2 2 2 2
left_child=2 -2 4 -4 5 7 -6 -1 -9 10 11 -10
right_child=1 -3 3 -5 6 -7 -8 8 9 -11 -12 -13
leaf_value=-0.17881134787803249 0.25384312197268039 0.24907684496138263 -0.17655591577298915 -0.17526434706112079 -0.17805352957625228 -0.17896678294331292 -0.17842852979359716 -0.17866395583027506 -0.17863155351574328 -0.17863859037437785 -0.17862735896590387 -0.17863143783783197
leaf_weight=1.1394103392958657 4.0210920572280866 6.1104176938533783 0.9379031360149378 1.1177340969443319 1.0671929791569703 1.4591568335890768 2.0688159316778183 1.7288882136344881 1.1998928859829936 1.2005022391676901 1.1245556920766828 1.1248896643519399
leaf_count=15 15 23 15 20 15 19 28 23 16 16 15 15
internal_value=0 0.250969 -0.178209 -0.175854 -0.178608 -0.178716 -0.178301 -0.178667 -0.178641 -0.178632 -0.17863 -0.178631
internal_weight=0 10.1315 14.1689 2.05564 12.1133 8.9773 3.13601 7.51814 6.37873 4.64984 3.44934 2.32478
internal_count=235 38 197 35 162 119 43 100 85 62 46 31
is_linear=0
shrinkage=0.2


Tree=22
num_leaves=13
num_cat=0
split_feature=191 299 97 416 69 320 338 86 43 50 264 221
split_gain=38.347 0.0123244 0.00132138 0.00017841 4.92678e-05 7.96318e-06 2.60937e-06 1.85176e-06 1.72904e-07 2.60795e-08 1.28136e-08 2.96983e-09
threshold=0.28662452572922592 0.19009131938219073 1.0000000180025095e-35 0.40631611069015855 0.27282624318663679 0.012315082912543537 0.012996031746031748 0.033787492411212282 -0.078920955307406782 0.013082233951676835 0.20392958819866183 0.99591168191414503
decision_type=2 2 2 2 2 2 2 2 2 2 2 2
left_child=2 -2 4 -4 6 7 9 -6 11 -1 -11 -3
right_child=1 8 3 -5 5 -7 -8 -9 -10 10 -12 -13
leaf_value=-0.18637108895642879 0.22385500273179773 0.23709266324852041 -0.18360410111569067 -0.18079946359454857 -0.18708096295562585 -0.18740876213872679 -0.18611336602314543 -0.18681817073618856 0.2370373062476463 -0.18640931200529956 -0.18638582737127404 0.2370853023297996
leaf_weight=2.8364566788077372 3.6209854409098652 3.7585299909114838 2.1772638410329814 1.5553498417139051 1.7496815100312222 1.8896798342466352 1.7922566905617712 2.771462194621563 3.7573292553424809 1.704475522041321 2.0434553474187851 5.2617186903953552
leaf_count=25 15 15 22 18 15 16 16 24 15 15 18 21
internal_value=0 0.234155 -0.185798 -0.182435 -0.186647 -0.187064 -0.186327 -0.18692 0.237073 -0.186386 -0.186397 0.237088
internal_weight=0 16.3986 18.5201 3.73261 14.7875 6.41082 8.37664 4.52114 12.7776 6.58439 3.74793 9.02025
internal_count=235 66 169 40 129 55 74 39 51 58 33 36
is_linear=0
shrinkage=0.2


Tree=23
num_leaves=13
num_cat=0
split_feature=44 508 91 52 350 287 334 46 127 323 435 176
split_gain=26.9528 0.000380596 1.74859e-05 8.18282e-06 2.61031e-06 8.10829e-07 4.03166e-07 2.91375e-08 4.60589e-09 2.52156e-10 3.86233e-11 6.05693e-12
threshold=1.028381068620454 1.0000000180025095e-35 0.32355769230769232 0.32354295505759817 0.14415434123918699 0.15906327962875369 0.92834821428571435 1.19185220876623 0.032900469935515361 0.97462297375694196 1.7999585279352133e-11 0.016341194232448935
decision_type=2 2 2 2 2 2 2 2 2 2 2 2
left_child=1 2 -1 4 5 -3 -5 9 -2 10 11 -7
right_child=8 3 -4 6 -6 7 -8 -9 -10 -11 -12 -13
leaf_value=-0.17501626122646363 0.24940346112509904 -0.17879871985467555 -0.17618966191529362 -0.17823316032460179 -0.1789761099974817 -0.17863135445754871 -0.17838751575939021 -0.17866439846936213 0.24941219491307653 -0.17863460352242777 -0.17863021274641799 -0.17863196210140486
leaf_weight=0.87228447198868098 6.1185925900936109 1.5937054678797702 1.2163556925952432 1.1623051241040221 1.3064228370785711 1.574836470186711 1.6206230670213699 1.4282584860920904 3.9905283749103546 1.1251476332545278 1.1247901022434232 1.1249323263764379
leaf_count=16 23 21 20 16 17 21 22 19 15 15 15 15
internal_value=0 -0.178192 -0.1757 -0.178624 -0.178714 -0.178671 -0.178323 -0.178639 0.249407 -0.178632 -0.178631 -0.178632
internal_weight=0 14.1497 2.08864 12.061 9.27809 7.97167 2.78293 6.37797 10.1091 4.94971 3.82456 2.69977
internal_count=235 197 36 161 123 106 38 85 38 66 51 36
is_linear=0
shrinkage=0.2


Tree=24
num_leaves=13
num_cat=0
split_feature=73 104 135 320 143 464 298 138 270 221 164 320
split_gain=8.26313 8.92342e-06 5.21909e-07 3.02743e-07 1.53513e-07 2.35768e-08 1.40809e-08 5.53277e-09 1.17279e-09 7.56639e-12 5.64826e-12 1.29341e-13
threshold=0.36813637510683656 0.06419344856042547 0.17775572091341021 0.012315082912543537 0.25280994597711581 1.8953890478052864e-05 0.16273483633995059 0.15745827555656436 0.0049518933447504883 0.97079776617240987 0.01222343254464738 9.9982798394542555e-05
decision_type=2 2 2 2 2 2 2 2 2 2 2 2
left_child=1 2 4 5 7 -4 9 -1 -9 -6 -10 -11
right_child=-2 -3 3 -5 6 -7 -8 8 10 11 -12 -13
leaf_value=-0.17074390459015185 0.21148640370409708 -0.16992735036419998 -0.17091353103466311 -0.17106399937569164 -0.17083459988340277 -0.17085525175751626 -0.17087512384720419 -0.17076157782843801 -0.17077277476965866 -0.17083368600192964 -0.17077368155912942 -0.17083353996957051
leaf_weight=0.41952481679618392 3.6074990779161453 0.46247441880404938 0.46521641127765156 0.50829893350601185 0.45700284093618415 0.68871943093836308 0.43239797838032235 0.50555211678147305 0.70398453064262845 0.48546463996171951 0.45064471662044525 0.48544826172292233
leaf_count=15 18 21 16 17 16 24 15 18 25 17 16 17
internal_value=0 -0.170772 -0.170841 -0.170935 -0.170802 -0.170879 -0.170844 -0.170764 -0.17077 -0.170834 -0.170773 -0.170834
internal_weight=0 6.06473 5.60225 1.66223 3.94002 1.15394 1.86031 2.07971 1.66018 1.42792 1.15463 0.970913
internal_count=235 217 196 57 139 40 65 74 59 50 41 34
is_linear=0
shrinkage=0.2


Tree=25
num_leaves=12
num_cat=0
split_feature=56 259 213 320 143 326 464 299 94 180 45
split_gain=7.05218 5.44148e-06 4.29187e-07 2.03237e-07 1.36789e-07 3.05766e-08 1.6687e-08 5.57417e-09 1.17421e-09 3.7027e-12 1.70486e-12
threshold=0.33791966440821525 0.16389682143926623 0.17384098470211032 0.012315082912543537 0.25280994597711581 0.018842469545957922 1.8953890478052864e-05 0.1903369873762131 0.90274554011275121 0.76053682063695727 0.63951728429105625
decision_type=2 2 2 2 2 2 2 2 2 2 2
left_child=1 2 4 6 5 8 -4 -6 9 -1 -9
right_child=-2 -3 3 -5 7 -7 -8 10 -10 -11 -12
leaf_value=-0.17032326816758581 0.20822253905923269 -0.16962246937944658 -0.17044784379032829 -0.17056887153687258 -0.17040175102581712 -0.1702546187901873 -0.17039602331207201 -0.17037675830212018 -0.17031110738815003 -0.17032247905961606 -0.17037728091276538
leaf_weight=0.40334773063659646 3.0670900344848633 0.40793914161622513 0.4164700638502834 0.53410854190587986 0.54024550504982483 0.37072798609733593 0.61651957035064697 0.71573441289365269 0.52770776860415936 0.57969298399984837 0.38348091766238213
leaf_count=16 16 20 16 20 21 15 24 28 21 23 15
internal_value=0 -0.170325 -0.170382 -0.170469 -0.170343 -0.170306 -0.170417 -0.170385 -0.170319 -0.170323 -0.170377
internal_weight=0 5.49597 5.08804 1.5671 3.52094 1.88148 1.03299 1.63946 1.51075 0.983041 1.09922
internal_count=235 219 199 60 139 75 40 64 60 39 43
is_linear=0
shrinkage=0.2


Tree=26
num_leaves=13
num_cat=0
split_feature=135 402 320 324 464 2 149 140 141 182 310 182
split_gain=25.8288 0.00139028 0.000458217 0.000433838 3.45107e-05 9.02309e-06 3.57384e-06 4.96193e-07 3.64875e-07 2.55079e-07 3.97497e-08 2.98206e-12
threshold=0.17775572091341021 1.2451582522065159e-06 0.012315082912543537 0.00051410349855705981 1.8953890478052864e-05 1.0000000180025095e-35 0.38669256009811098 0.20453299447021192 0.024485261451878765 0.014716389140368208 0.15677350098025636 0.01190614441736622
decision_type=2 2 2 2 2 2 2 2 2 2 2 2
left_child=1 -1 4 7 -2 6 8 -3 10 -8 11 -5
right_child=2 3 -4 5 -6 -7 9 -9 -10 -11 -12 -13
leaf_value=-0.18808767267334112 0.21562061368207863 -0.17684257001005399 0.21766833669377955 -0.17968425983360434 0.21479272194803586 -0.18028380138987549 -0.17994452611252607 -0.17665206660369015 -0.17954453450288055 -0.17984590255913904 -0.17964072226189728 -0.17968468503982749
leaf_weight=0.76369292289018886 3.3693555891513807 1.0412361919879907 4.2857690900564185 1.209572121500966 5.0069378614425659 1.4945528954267508 1.8862414509057996 1.1519364416599271 1.198350556194782 2.3632850870490074 1.2061091065406797 1.4515272974967954
leaf_count=8 16 16 20 15 24 18 23 18 15 29 15 18
internal_value=0 -0.179794 0.215986 -0.179307 0.215126 -0.179828 -0.179754 -0.176743 -0.179641 -0.17989 -0.179671 -0.179684
internal_weight=0 13.7665 12.6621 13.0028 8.37629 10.8096 9.31509 2.19317 5.06556 4.24953 3.86721 2.6611
internal_count=235 175 60 167 40 133 115 34 63 52 48 33
is_linear=0
shrinkage=0.2


Tree=27
num_leaves=13
num_cat=0
split_feature=52 322 391 392 508 320 330 179 257 476 121 159
split_gain=18.5799 0.000977856 0.000109508 1.54975e-05 3.62617e-06 1.08545e-06 8.25615e-07 3.79463e-07 5.42191e-08 2.46708e-08 1.06508e-08 1.21509e-11
threshold=0.32354295505759817 0.88907109711152554 0.033986928104575168 0.20986396778902242 1.0000000180025095e-35 0.012315082912543537 0.99578235076010391 0.092418782339814862 0.19146277010440829 1.72271210199456e-05 0.019712546437073531 0.039495627940930166
decision_type=2 2 2 2 2 2 2 2 2 2 2 2
left_child=2 -2 4 -4 6 7 -1 -6 9 -9 11 -10
right_child=1 -3 3 -5 5 -7 -8 8 10 -11 -12 -13
leaf_value=-0.17491338467800696 0.22452618652609457 0.22014300873987766 -0.17412253406464942 -0.17285629464815527 -0.17543968050146255 -0.17555327195404996 -0.17516852750125728 -0.17536330095446773 -0.17528619752236074 -0.17531577074482269 -0.17531324299629003 -0.17528718303086258
leaf_weight=0.80040111765265654 3.3993761837482435 5.075846403837204 0.76107950136065372 0.78581372275948524 1.140101224184036 1.0955997519195078 1.3853889815509319 0.8483593203127382 1.234357055276633 0.90048065781593323 0.84396985918283451 0.8416939191520213
leaf_count=15 15 23 16 19 20 19 25 15 22 16 15 15
internal_value=0 0.221901 -0.175035 -0.173479 -0.1753 -0.175371 -0.175075 -0.175336 -0.175311 -0.175339 -0.175294 -0.175287
internal_weight=0 8.47522 10.6372 1.54689 9.09035 6.90456 2.18579 5.80896 4.66886 1.74884 2.92002 2.07605
internal_count=235 38 197 35 162 122 40 103 83 31 52 37
is_linear=0
shrinkage=0.2


Tree=28
num_leaves=12
num_cat=0
split_feature=143 104 320 50 99 338 299 150 100 492 452
split_gain=26.5098 0.000557642 5.4404e-05 3.28094e-05 1.66756e-05 1.27619e-05 1.08942e-05 1.17601e-06 2.33908e-08 7.28532e-09 1.45701e-09
threshold=0.25280994597711581 0.082619722578804747 0.015731814630132981 0.21376420153448197 0.89630267094365046 0.012996031746031748 0.1903369873762131 0.038822811025238553 0.87186750753824427 0.00056342396776703704 1.6603728878507258e-17
decision_type=2 2 2 2 2 2 2 2 2 2 2
left_child=1 2 4 -3 5 8 -2 -6 10 -8 -1
right_child=6 3 -4 -5 7 -7 9 -9 -10 -11 -12
leaf_value=-0.18065272750790951 0.21347431191982938 -0.17814001842318153 -0.18188845321782829 -0.17660182585673961 -0.18114541716220472 -0.17994513140723878 0.2130847530923905 -0.18091905507293143 -0.18062502442801801 0.21309666355822277 -0.18066106974422574
leaf_weight=2.3999070003628717 4.5192468166351327 1.2167422547936451 1.8190748244523991 1.0193716287612913 1.9413056150078776 1.301806107163429 3.271390572190283 1.7416944652795789 1.3690751940011976 5.5212711095809937 1.2863090261816976
leaf_count=28 22 17 20 16 22 16 16 20 16 27 15
internal_value=0 -0.180336 -0.180882 -0.177439 -0.1807 -0.180504 0.213222 -0.181038 -0.180647 0.213092 -0.180656
internal_weight=0 14.0953 11.8592 2.23611 10.0401 6.3571 13.3119 3.683 5.05529 8.79266 3.68622
internal_count=235 170 137 33 117 75 65 42 59 43 43
is_linear=0
shrinkage=0.2


Tree=29
num_leaves=13
num_cat=0
split_feature=54 104 56 454 320 479 213 180 244 54 90 159
split_gain=18.3471 0.000135941 7.65976e-06 6.21173e-06 4.48975e-06 2.98747e-06 3.79165e-07 1.70828e-07 6.40804e-08 3.52376e-08 1.65505e-09 1.42664e-11
threshold=0.28355666374967148 0.082619722578804747 0.33791966440821525 0.028747962931067291 0.012315082912543537 0.00037535516452494284 0.23879709094762805 0.048758839010895859 0.1461557820439339 0.025531183368403019 0.82457328588502732 0.039495627940930166
decision_type=2 2 2 2 2 2 2 2 2 2 2 2
left_child=1 3 -3 4 6 -5 8 -7 11 -10 -2 -1
right_child=10 2 -4 5 -6 7 -8 -9 9 -11 -12 -13
leaf_value=-0.17528616173270423 0.22043534516243368 -0.17362320375460794 -0.17269125832732127 -0.17471301015908505 -0.17580846286728541 -0.17511992353617256 -0.17543960379777621 -0.17524215250585837 -0.17531161481708732 -0.17536185044067243 0.22042966235950678 -0.17528720327609734
leaf_weight=1.4026734381914159 3.5409262776374799 0.77652721852064022 0.64645181596279144 0.78408616408705745 0.94109624624252308 0.93712036684155442 1.140091899782419 0.89341428875923157 1.2376060858368876 1.0178976580500601 4.8685099482536316 0.84169587492942799
leaf_count=25 16 17 16 15 16 17 20 16 22 18 22 15
internal_value=0 -0.175019 -0.1732 -0.1753 -0.175404 -0.17504 -0.175337 -0.17518 -0.17531 -0.175334 0.220432 -0.175287
internal_weight=0 10.6187 1.42298 9.19568 6.58106 2.61462 5.63996 1.83053 4.49987 2.2555 8.40944 2.24437
internal_count=235 197 33 164 116 48 100 33 80 40 38 40
is_linear=0
shrinkage=0.2


Tree=30
num_leaves=13
num_cat=0
split_feature=61 494 279 320 287 211 151 430 198 113 107 178
split_gain=5.81954 3.77789e-06 1.99352e-07 1.43671e-07 4.66795e-08 9.05785e-09 8.66647e-09 6.3964e-09 4.65584e-09 1.20843e-09 7.53041e-10 1.44503e-10
threshold=0.46609070419188475 1.0000000180025095e-35 0.41067029581713038 0.012315082912543537 0.16104728728532794 0.1569086238741875 0.021506827627116799 0.98636687593756112 0.020904198069183807 0.74632458453610784 0.012012987012987015 0.0663369689823054
decision_type=2 2 2 2 2 2 2 2 2 2 2 2
left_child=1 2 4 5 7 -4 8 10 9 -6 11 -1
right_child=-2 -3 3 -5 6 -7 -8 -9 -10 -11 -12 -13
leaf_value=-0.16966544432532504 0.19710005484207824 -0.16897482164920663 -0.16975512039906043 -0.16988961943680458 -0.16971486078457745 -0.16971387289338224 -0.1697328463077811 -0.16963544589298138 -0.16967657414147028 -0.16969923843445989 -0.16965613864582946 -0.16967113058006997
leaf_weight=0.41669440641999267 2.8201905786991119 0.30077512376010407 0.42869120277464368 0.33266085386276245 0.3174762427806852 0.42316824942827225 0.36180742271244515 0.43300767056643952 0.31356765329837799 0.52652801387012005 0.31158410757780075 0.3130780290812254
leaf_count=20 18 19 20 15 15 20 17 21 15 25 15 15
internal_value=0 -0.169659 -0.169709 -0.169778 -0.169681 -0.169735 -0.169706 -0.169656 -0.169697 -0.169705 -0.169664 -0.169668
internal_weight=0 4.47904 4.17826 1.18452 2.99374 0.851859 1.51938 1.47436 1.15757 0.844004 1.04136 0.729772
internal_count=235 217 198 55 143 40 72 71 55 40 50 35
is_linear=0
shrinkage=0.2


Tree=31
num_leaves=13
num_cat=0
split_feature=62 322 324 434 202 508 299 322 188 262 453 178
split_gain=4.98428 2.4602e-06 1.66136e-07 8.42613e-08 4.05851e-08 2.3522e-08 1.01189e-08 5.77098e-09 3.62495e-09 6.49147e-13 3.49942e-13 2.83884e-13
threshold=0.33791966440821525 0.0017531382434660687 0.00019855609392404659 0.00010657350361158628 0.42923593130696469 1.0000000180025095e-35 0.19009131938219073 0.88907109711152554 0.021616570441060062 0.069223891943693175 5.6386363251956699e-09 0.073504775893903973
decision_type=2 2 2 2 2 2 2 2 2 2 2 2
left_child=1 -1 3 -3 5 11 8 -6 -7 10 -8 -4
right_child=-2 2 4 -5 7 6 9 -9 -10 -11 -12 -13
leaf_value=-0.16874529562852217 0.19500084028418621 -0.16940692863258186 -0.16933970155803568 -0.16954591529918792 -0.16929297203276927 -0.16938747638948301 -0.16937023574008825 -0.16933013037769776 -0.1694161619164184 -0.16936970507040561 -0.16936994437170816 -0.1693399605788555
leaf_weight=0.26279475539922703 2.384443461894989 0.42009701021015677 0.42879027500748712 0.29842139407992363 0.27463956177234639 0.36033821478486039 0.28273842856287956 0.42730202712118626 0.34485180489718914 0.28268478438258171 0.39579260908067226 0.27967216446995735
leaf_count=18 16 22 23 15 15 19 15 23 18 15 21 15
internal_value=0 -0.169337 -0.169378 -0.169465 -0.169358 -0.16937 -0.169383 -0.169316 -0.169402 -0.16937 -0.16937 -0.16934
internal_weight=0 4.05812 3.79533 0.718518 3.07681 2.37487 1.66641 0.701942 0.70519 0.961216 0.678531 0.708462
internal_count=235 219 201 37 164 126 88 38 37 51 36 38
is_linear=0
shrinkage=0.2


Tree=32
num_leaves=13
num_cat=0
split_feature=255 489 402 320 223 142 157 53 320 298 317 88
split_gain=17.2754 0.107609 0.000452162 0.000163563 0.000109681 1.03928e-05 3.77174e-06 6.72846e-07 8.77542e-08 7.6839e-08 4.97383e-09 8.45894e-10
threshold=0.17711300402879718 0.13053775428580841 2.3522358865365315e-06 0.012315082912543537 1.0000000180025095e-35 0.0010501064927650793 0.019268713809816537 0.41401938893392881 0.00061211093271004529 0.16251866519451144 0.98396382567125562 0.043030995901989409
decision_type=2 2 2 2 2 2 2 2 2 2 2 2
left_child=1 2 -1 5 6 -2 7 8 11 10 -9 -4
right_child=3 -3 4 -5 -6 -7 -8 9 -10 -11 -12 -13
leaf_value=-0.18107606308120072 0.19917482406815121 -0.10239334365754899 -0.17595420530250527 0.20116640783525419 -0.17391102200683525 0.19967717952819286 -0.17640824747722095 -0.17602242635922455 -0.1758833689078112 -0.17609870589019022 -0.17604182261855328 -0.17594638714664768
leaf_weight=0.69503333419561464 3.2776937633752805 0.86250719055533487 1.4399338215589512 3.2203538566827774 1.1017262414097784 3.3116515278816223 0.99116727337241162 0.90586392953991968 1.1321505717933176 1.0949178785085676 1.2705626264214513 0.89927904680371273
leaf_count=10 20 15 24 19 23 20 16 15 19 18 21 15
internal_value=0 -0.170042 -0.176164 0.199998 -0.175778 0.199427 -0.176044 -0.17599 -0.175929 -0.176055 -0.176034 -0.175951
internal_weight=0 10.3931 9.53063 9.8097 8.8356 6.58935 7.73388 6.74271 3.47136 3.27134 2.17643 2.33921
internal_count=235 176 161 59 151 40 128 112 58 54 36 39
is_linear=0
shrinkage=0.2


Tree=33
num_leaves=13
num_cat=0
split_feature=64 199 104 74 40 514 200 257 274 250 415 159
split_gain=12.7207 0.00259044 5.25274e-05 2.96169e-06 2.35387e-06 9.91686e-07 5.13101e-07 1.75423e-07 3.11193e-08 1.59394e-08 1.86344e-08 3.44702e-12
threshold=0.30988846852465046 0.0053329008329239579 0.082619722578804747 0.32125302791987725 1.0000000180025095e-35 1.0000000180025095e-35 0.0003342853680311569 0.16154115647077563 0.14628266543149951 0.15735916793346408 3.199533624943203e-06 0.032210836287030822
decision_type=2 2 2 2 2 2 2 2 2 2 2 2
left_child=2 -2 4 -4 5 6 -1 -7 11 -10 -11 -9
right_child=1 -3 3 -5 -6 7 -8 8 9 10 -12 -13
leaf_value=-0.17257834290480076 0.19633381786668813 0.20444218975244915 -0.17168449845339095 -0.17100916672227773 -0.17324792127912417 -0.17298432515273304 -0.17281058254384021 -0.17286664453893708 -0.17288006551134483 -0.17294265004140971 -0.17289389756977069 -0.17286725491510069
leaf_weight=0.59061576798558224 2.4907213971018791 4.2915919572114944 0.57298471778631188 0.47516751289367676 0.69649433344602574 0.97116020321845997 1.0697965733706949 0.91289359703660033 0.6652546077966689 0.62949539721012093 0.62493596225976944 0.62248473614454269
leaf_count=15 15 24 17 16 16 23 26 22 16 15 15 15
internal_value=0 0.201464 -0.172696 -0.171378 -0.1729 -0.17286 -0.172728 -0.172909 -0.172888 -0.172905 -0.172918 -0.172867
internal_weight=0 6.78231 7.83128 1.04815 6.78313 6.08664 1.66041 4.42622 3.45506 1.91969 1.25443 1.53538
internal_count=235 39 196 33 163 147 41 106 83 46 30 37
is_linear=0
shrinkage=0.2


Tree=34
num_leaves=13
num_cat=0
split_feature=143 97 273 320 298 44 156 321 145 148 432 464
split_gain=18.344 0.000153355 3.89973e-05 9.36469e-06 7.0144e-06 3.09901e-06 4.32224e-07 2.97683e-07 2.61493e-08 1.43966e-08 5.46429e-10 1.45404e-10
threshold=0.25280994597711581 1.0000000180025095e-35 0.16448235511779788 0.015731814630132981 0.16273483633995059 -0.98217961348082616 0.038822811025238553 0.022658861742962267 0.011329337800316476 0.72915620754593014 5.7776554329301093e-05 2.5347058237151029e-09
decision_type=2 2 2 2 2 2 2 2 2 2 2 2
left_child=1 3 -3 5 8 6 -1 9 10 11 -2 -7
right_child=4 2 -4 -5 -6 7 -8 -9 -10 -11 -12 -13
leaf_value=-0.17693529220909676 0.19813123090290813 -0.17420471012414038 -0.17600585874938665 -0.17730281670212736 0.19851381639322052 -0.17661929330277748 -0.17677431421786008 -0.17648626064964229 0.19810810963300593 -0.17659293629802433 0.19813519287034875 -0.17662241110860691
leaf_weight=1.3775099292397492 3.0457861572504026 1.3343606516718876 0.75171295180916775 1.1397866681218145 2.4244181960821161 1.5952593907713888 1.2937895879149435 0.94488864392042149 2.403361052274704 1.0822235047817228 2.5650930851697922 0.95742106437683094
leaf_count=21 19 27 13 17 15 25 20 15 15 17 16 15
internal_value=0 -0.176388 -0.174854 -0.17677 0.198216 -0.176686 -0.176857 -0.176586 0.198126 -0.176612 0.198133 -0.17662
internal_weight=0 10.477 2.08607 8.39088 10.4387 7.25109 2.6713 4.57979 8.01424 3.6349 5.61088 2.55268
internal_count=235 170 40 130 65 113 41 72 50 57 35 40
is_linear=0
shrinkage=0.2


Tree=35
num_leaves=13
num_cat=0
split_feature=54 391 512 232 119 320 215 299 319 190 112 58
split_gain=12.7214 3.95688e-05 5.78147e-06 1.61321e-06 6.09823e-07 4.53856e-07 1.61745e-07 4.42195e-08 2.30068e-08 5.56014e-10 7.44826e-12 1.99973e-12
threshold=0.28355666374967148 0.033986928104575168 1.0000000180025095e-35 0.30992229354298323 0.067994785010916076 0.012315082912543537 0.15686930716037753 0.19009131938219073 0.00053667035475676167 0.051967798258149352 0.028199615333683509 0.059235756103725966
decision_type=2 2 2 2 2 2 2 2 2 2 2 2
left_child=1 3 -3 5 -5 6 -1 8 -8 -2 -9 -12
right_child=9 2 -4 4 -6 -7 7 10 -10 -11 11 -13
leaf_value=-0.17298233406905161 0.2027837439441513 -0.17200395676237953 -0.17109963309621379 -0.17253790690168139 -0.17278869277565989 -0.17307915803342763 -0.17294097045476881 -0.17286726895970131 -0.17288840966038277 0.20278744094028292 -0.17286620086480792 -0.17286666440273202
leaf_weight=0.84423788264393795 2.8105821758508682 0.62833425402641274 0.51419339701533318 0.58569327741861332 1.1481391675770281 0.68494490906596173 0.62933638319373153 0.62248590961098704 0.70771123096346855 3.8648053556680679 0.70537159964442231 0.7884109728038311
leaf_count=20 16 18 17 15 28 16 15 15 17 22 17 19
internal_value=0 -0.172685 -0.171597 -0.17287 -0.172704 -0.172928 -0.172904 -0.172885 -0.172913 0.202786 -0.172867 -0.172866
internal_weight=0 7.85886 1.14253 6.71633 1.73383 4.9825 4.29755 3.45332 1.33705 6.67539 2.11627 1.49378
internal_count=235 197 35 162 43 119 103 83 32 38 51 36
is_linear=0
shrinkage=0.2


end of trees

feature_importances:
Column_320=20
Column_44=14
Column_143=9
Column_46=7
Column_52=6
Column_54=6
Column_56=6
Column_104=6
Column_61=5
Column_299=5
Column_391=5
Column_464=5
Column_508=5
Column_40=4
Column_50=4
Column_135=4
Column_145=4
Column_159=4
Column_213=4
Column_322=4
Column_494=4
Column_58=3
Column_62=3
Column_68=3
Column_69=3
Column_72=3
Column_82=3
Column_97=3
Column_99=3
Column_138=3
Column_149=3
Column_152=3
Column_193=3
Column_298=3
Column_323=3
Column_324=3
Column_350=3
Column_31=2
Column_42=2
Column_45=2
Column_47=2
Column_48=2
Column_49=2
Column_53=2
Column_55=2
Column_67=2
Column_81=2
Column_86=2
Column_88=2
Column_127=2
Column_134=2
Column_148=2
Column_151=2
Column_156=2
Column_178=2
Column_179=2
Column_180=2
Column_181=2
Column_182=2
Column_183=2
Column_184=2
Column_186=2
Column_189=2
Column_196=2
Column_202=2
Column_221=2
Column_223=2
Column_257=2
Column_264=2
Column_270=2
Column_287=2
Column_338=2
Column_392=2
Column_402=2
Column_438=2
Column_452=2
Column_456=2
Column_1=1
Column_2=1
Column_4=1
Column_43=1
Column_57=1
Column_59=1
Column_64=1
Column_70=1
Column_73=1
Column_74=1
Column_80=1
Column_83=1
Column_90=1
Column_91=1
Column_94=1
Column_100=1
Column_102=1
Column_107=1
Column_112=1
Column_113=1
Column_119=1
Column_120=1
Column_121=1
Column_140=1
Column_141=1
Column_142=1
Column_144=1
Column_150=1
Column_157=1
Column_164=1
Column_166=1
Column_169=1
Column_172=1
Column_176=1
Column_185=1
Column_188=1
Column_190=1
Column_191=1
Column_198=1
Column_199=1
Column_200=1
Column_203=1
Column_211=1
Column_214=1
Column_215=1
Column_232=1
Column_233=1
Column_240=1
Column_241=1
Column_244=1
Column_250=1
Column_255=1
Column_259=1
Column_262=1
Column_273=1
Column_274=1
Column_275=1
Column_279=1
Column_283=1
Column_288=1
Column_304=1
Column_306=1
Column_310=1
Column_312=1
Column_313=1
Column_317=1
Column_318=1
Column_319=1
Column_321=1
Column_326=1
Column_329=1
Column_330=1
Column_334=1
Column_351=1
Column_394=1
Column_396=1
Column_397=1
Column_398=1
Column_403=1
Column_415=1
Column_416=1
Column_428=1
Column_429=1
Column_430=1
Column_432=1
Column_433=1
Column_434=1
Column_435=1
Column_444=1
Column_453=1
Column_454=1
Column_463=1
Column_465=1
Column_476=1
Column_479=1
Column_487=1
Column_488=1
Column_489=1
Column_490=1
Column_492=1
Column_500=1
Column_512=1
Column_514=1

parameters:
[boosting: gbdt]
[objective: multiclass]
[metric: custom]
[tree_learner: serial]
[device_type: cpu]
[data_sample_strategy: bagging]
[data: ]
[valid: ]
[num_iterations: 10000]
[learning_rate: 0.2]
[num_leaves: 63]
[num_threads: 0]
[seed: 1236]
[deterministic: 0]
[force_col_wise: 0]
[force_row_wise: 0]
[histogram_pool_size: -1]
[max_depth: -1]
[min_data_in_leaf: 15]
[min_sum_hessian_in_leaf: 0.001]
[bagging_fraction: 1]
[pos_bagging_fraction: 1]
[neg_bagging_fraction: 1]
[bagging_freq: 0]
[bagging_seed: 21709]
[feature_fraction: 0.5]
[feature_fraction_bynode: 1]
[feature_fraction_seed: 24116]
[extra_trees: 0]
[extra_seed: 15571]
[early_stopping_round: 0]
[early_stopping_min_delta: 0]
[first_metric_only: 0]
[max_delta_step: 0]
[lambda_l1: 0]
[lambda_l2: 0]
[linear_lambda: 0]
[min_gain_to_split: 0]
[drop_rate: 0.1]
[max_drop: 50]
[skip_drop: 0.5]
[xgboost_dart_mode: 0]
[uniform_drop: 0]
[drop_seed: 15722]
[top_rate: 0.2]
[other_rate: 0.1]
[min_data_per_group: 100]
[max_cat_threshold: 32]
[cat_l2: 10]
[cat_smooth: 10]
[max_cat_to_onehot: 4]
[top_k: 20]
[monotone_constraints: ]
[monotone_constraints_method: basic]
[monotone_penalty: 0]
[feature_contri: ]
[forcedsplits_filename: ]
[refit_decay_rate: 0.9]
[cegb_tradeoff: 1]
[cegb_penalty_split: 0]
[cegb_penalty_feature_lazy: ]
[cegb_penalty_feature_coupled: ]
[path_smooth: 0]
[interaction_constraints: ]
[verbosity: -1]
[saved_feature_importance_type: 0]
[use_quantized_grad: 0]
[num_grad_quant_bins: 4]
[quant_train_renew_leaf: 0]
[stochastic_rounding: 1]
[linear_tree: 0]
[max_bin: 255]
[max_bin_by_feature: ]
[min_data_in_bin: 3]
[bin_construct_sample_cnt: 200000]
[data_random_seed: 4074]
[is_enable_sparse: 1]
[enable_bundle: 1]
[use_missing: 1]
[zero_as_missing: 0]
[feature_pre_filter: 1]
[pre_partition: 0]
[two_round: 0]
[header: 0]
[label_column: ]
[weight_column: ]
[group_column: ]
[ignore_column: ]
[categorical_feature: ]
[forcedbins_filename: ]
[precise_float_parser: 0]
[parser_config_file: ]
[objective_seed: 10917]
[num_class: 6]
[is_unbalance: 0]
[scale_pos_weight: 1]
[sigmoid: 1]
[boost_from_average: 1]
[reg_sqrt: 0]
[alpha: 0.9]
[fair_c: 1]
[poisson_max_delta_step: 0.7]
[tweedie_variance_power: 1.5]
[lambdarank_truncation_level: 30]
[lambdarank_norm: 1]
[label_gain: ]
[lambdarank_position_bias_regularization: 0]
[eval_at: ]
[multi_error_top_k: 1]
[auc_mu_weights: ]
[num_machines: 1]
[local_listen_port: 12400]
[time_out: 120]
[machine_list_filename: ]
[machines: ]
[gpu_platform_id: -1]
[gpu_device_id: -1]
[gpu_use_dp: 0]
[num_gpu: 1]

end of parameters

pandas_categorical:null
