tree
version=v4
num_class=6
num_tree_per_iteration=6
label_index=0
max_feature_idx=516
objective=multiclass num_class:6
feature_names=Column_0 Column_1 Column_2 Column_3 Column_4 Column_5 Column_6 Column_7 Column_8 Column_9 Column_10 Column_11 Column_12 Column_13 Column_14 Column_15 Column_16 Column_17 Column_18 Column_19 Column_20 Column_21 Column_22 Column_23 Column_24 Column_25 Column_26 Column_27 Column_28 Column_29 Column_30 Column_31 Column_32 Column_33 Column_34 Column_35 Column_36 Column_37 Column_38 Column_39 Column_40 Column_41 Column_42 Column_43 Column_44 Column_45 Column_46 Column_47 Column_48 Column_49 Column_50 Column_51 Column_52 Column_53 Column_54 Column_55 Column_56 Column_57 Column_58 Column_59 Column_60 Column_61 Column_62 Column_63 Column_64 Column_65 Column_66 Column_67 Column_68 Column_69 Column_70 Column_71 Column_72 Column_73 Column_74 Column_75 Column_76 Column_77 Column_78 Column_79 Column_80 Column_81 Column_82 Column_83 Column_84 Column_85 Column_86 Column_87 Column_88 Column_89 Column_90 Column_91 Column_92 Column_93 Column_94 Column_95 Column_96 Column_97 Column_98 Column_99 Column_100 Column_101 Column_102 Column_103 Column_104 Column_105 Column_106 Column_107 Column_108 Column_109 Column_110 Column_111 Column_112 Column_113 Column_114 Column_115 Column_116 Column_117 Column_118 Column_119 Column_120 Column_121 Column_122 Column_123 Column_124 Column_125 Column_126 Column_127 Column_128 Column_129 Column_130 Column_131 Column_132 Column_133 Column_134 Column_135 Column_136 Column_137 Column_138 Column_139 Column_140 Column_141 Column_142 Column_143 Column_144 Column_145 Column_146 Column_147 Column_148 Column_149 Column_150 Column_151 Column_152 Column_153 Column_154 Column_155 Column_156 Column_157 Column_158 Column_159 Column_160 Column_161 Column_162 Column_163 Column_164 Column_165 Column_166 Column_167 Column_168 Column_169 Column_170 Column_171 Column_172 Column_173 Column_174 Column_175 Column_176 Column_177 Column_178 Column_179 Column_180 Column_181 Column_182 Column_183 Column_184 Column_185 Column_186 Column_187 Column_188 Column_189 Column_190 Column_191 Column_192 Column_193 Column_194 Column_195 Column_196 Column_197 Column_198 Column_199 Column_200 Column_201 Column_202 Column_203 Column_204 Column_205 Column_206 Column_207 Column_208 Column_209 Column_210 Column_211 Column_212 Column_213 Column_214 Column_215 Column_216 Column_217 Column_218 Column_219 Column_220 Column_221 Column_222 Column_223 Column_224 Column_225 Column_226 Column_227 Column_228 Column_229 Column_230 Column_231 Column_232 Column_233 Column_234 Column_235 Column_236 Column_237 Column_238 Column_239 Column_240 Column_241 Column_242 Column_243 Column_244 Column_245 Column_246 Column_247 Column_248 Column_249 Column_250 Column_251 Column_252 Column_253 Column_254 Column_255 Column_256 Column_257 Column_258 Column_259 Column_260 Column_261 Column_262 Column_263 Column_264 Column_265 Column_266 Column_267 Column_268 Column_269 Column_270 Column_271 Column_272 Column_273 Column_274 Column_275 Column_276 Column_277 Column_278 Column_279 Column_280 Column_281 Column_282 Column_283 Column_284 Column_285 Column_286 Column_287 Column_288 Column_289 Column_290 Column_291 Column_292 Column_293 Column_294 Column_295 Column_296 Column_297 Column_298 Column_299 Column_300 Column_301 Column_302 Column_303 Column_304 Column_305 Column_306 Column_307 Column_308 Column_309 Column_310 Column_311 Column_312 Column_313 Column_314 Column_315 Column_316 Column_317 Column_318 Column_319 Column_320 Column_321 Column_322 Column_323 Column_324 Column_325 Column_326 Column_327 Column_328 Column_329 Column_330 Column_331 Column_332 Column_333 Column_334 Column_335 Column_336 Column_337 Column_338 Column_339 Column_340 Column_341 Column_342 Column_343 Column_344 Column_345 Column_346 Column_347 Column_348 Column_349 Column_350 Column_351 Column_352 Column_353 Column_354 Column_355 Column_356 Column_357 Column_358 Column_359 Column_360 Column_361 Column_362 Column_363 Column_364 Column_365 Column_366 Column_367 Column_368 Column_369 Column_370 Column_371 Column_372 Column_373 Column_374 Column_375 Column_376 Column_377 Column_378 Column_379 Column_380 Column_381 Column_382 Column_383 Column_384 Column_385 Column_386 Column_387 Column_388 Column_389 Column_390 Column_391 Column_392 Column_393 Column_394 Column_395 Column_396 Column_397 Column_398 Column_399 Column_400 Column_401 Column_402 Column_403 Column_404 Column_405 Column_406 Column_407 Column_408 Column_409 Column_410 Column_411 Column_412 Column_413 Column_414 Column_415 Column_416 Column_417 Column_418 Column_419 Column_420 Column_421 Column_422 Column_423 Column_424 Column_425 Column_426 Column_427 Column_428 Column_429 Column_430 Column_431 Column_432 Column_433 Column_434 Column_435 Column_436 Column_437 Column_438 Column_439 Column_440 Column_441 Column_442 Column_443 Column_444 Column_445 Column_446 Column_447 Column_448 Column_449 Column_450 Column_451 Column_452 Column_453 Column_454 Column_455 Column_456 Column_457 Column_458 Column_459 Column_460 Column_461 Column_462 Column_463 Column_464 Column_465 Column_466 Column_467 Column_468 Column_469 Column_470 Column_471 Column_472 Column_473 Column_474 Column_475 Column_476 Column_477 Column_478 Column_479 Column_480 Column_481 Column_482 Column_483 Column_484 Column_485 Column_486 Column_487 Column_488 Column_489 Column_490 Column_491 Column_492 Column_493 Column_494 Column_495 Column_496 Column_497 Column_498 Column_499 Column_500 Column_501 Column_502 Column_503 Column_504 Column_505 Column_506 Column_507 Column_508 Column_509 Column_510 Column_511 Column_512 Column_513 Column_514 Column_515 Column_516
feature_infos=[0:1] [0:1] [0:1] [0:1] [0:1] [0:1] none [0:1] none [0:1] none none [0:1] [0:1] none none [0:1] [0:1] none none none none [0:1] none none [0:1] none none none none none [0:1] none none none [0:1] none none [0:1] none [0:1] [0:1] [0:1] [-1.6354518277569989:1.9388042497198423] [-1.6733098479531416:1.7195113030927685] [-1.4038725330980597:1.48091309145128] [-1.3440356134253817:1.4736175223430754] [-1.2490765673495612:3.828691217310606] [-2.3591123870126185:1.9674418891338159] [0.0036339276064532066:0.8939862827595213] [0.0033572512063583491:0.8861297398898238] [0.0048864405052504375:0.96490334864983751] [0.0067769903182550396:0.9383521836028027] [0.00703462580010386:0.97109036365682444] [0.004958216688167448:0.95487548534478006] [0.00392760570135959:0.86756224273891314] [0.0055443299861790436:0.83351308812596236] [0.0059143955031524011:0.94887141260311769] [0.009049528173261526:0.94062025418930117] [0.0099704006849774523:0.96796450359205199] [0.0051895252577863291:0.94785114282732263] [0.00392760570135959:0.86756224273891314] [0.0055443299861790436:0.83351308812596236] [0.0059143955031524011:0.94887141260311769] [0.009049528173261526:0.94062025418930117] [0.0099704006849774523:0.96796450359205199] [0.0051895252577863291:0.94785114282732263] [0.0063163984044916034:0.84739137434165024] [0.0063700480027415263:0.80855669957631016] [0.0079684015784823141:0.93900347215337299] [0.012878988034912348:0.89376347245042154] [0.010993928626399042:0.95257446031908666] [0.0091069123518219119:0.92771302721839155] [0.0095333330400515157:0.82760892680576859] [0.0095009674345172285:0.79884271563970144] [0.0094854119007993041:0.90378288025568287] [0.012586230607661874:0.88086757035467289] [0.016809439883843487:0.94020171092223115] [0.012555834533641315:0.90112854758214433] [0.0048200643632795668:0.9087244063734321] [0.0051391075066180526:0.88102242286674848] [0.0052924461506506397:0.96801692400288708] [0.0073939833982062638:0.9309416937676559] [0.0050535609262351453:0.96246912348685643] [0.0050259329315786756:0.95848967772380889] [0.0019510974135720735:0.89782823907302756] [0.0018105533293324766:0.88113870480110856] [0.0039365189886003153:0.9622783335623355] [0.0067084809683839392:0.96310360468670864] [0.006714427408267388:0.97621910619139529] [0.0025726153136748533:0.96336489701999872] [0:0.98484848484848486] [0:0.96666666666666667] [0:0.99817073170731718] [0:1] [0:1] [0:1] [0:0.95138888888888895] [0:0.94117647058823528] [0:1] [0:1] [0:1] [0:0.99705387205387208] [0:1] [0:1] [0:1] [0:1] [0:1] [0:1] [0.0045062438209012125:0.90027284341434077] [0.0044716843196470025:0.90762939931724673] [0.0053417324915410562:0.9576360187684525] [0.0085802353298504459:0.94645991779835825] [0.0075811889530645587:0.96597988282651537] [0.0057543323012251724:0.9524874482400143] [0.0023553383318491447:0.85451606517152656] [0.0023810803090552352:0.85581316384609107] [0.0044267961838051753:0.95914499318072088] [0.010849600409728518:0.92656470402644064] [0.0042714071716019085:0.96111460659774062] [0.0037683545784345505:0.96715074886040475] [0.002488441266431842:0.90450619598280013] [0.0027937304538139932:0.86464992562098231] [0.0042614073809665032:0.95959894151388203] [0.0083452773974195364:0.95493044102267377] [0.0072946898161123774:0.97008885024933111] [0.0045335987364283955:0.9537841793061751] [0.0040301087092661607:0.84834175420560087] [0.0041450091862615121:0.85807558247174287] [0.0064177785326560571:0.9412160311896276] [0.012118295564190609:0.9058032371281759] [0.010207694570090556:0.96625441870603468] [0.0070343893015909903:0.94422176564521676] [0.13908939063549042:0.20666894316673279] [0.13910698890686035:0.27281832695007324] [0.13956244289875031:0.28763473033905029] [0.14213205873966217:0.2774309515953064] [0.13939562439918518:0.28867828845977783] [0.13912801444530487:0.2869056761264801] [0:1] [0:0.9285714285714286] [0:1] [0:1] [0:1] [0:1] [0.00084725967031270318:0.95017608137043086] [0.00081130806957249117:0.94285973323871075] [0.0023833730675950032:0.98448757805868081] [0.0017930941095730777:0.9776312518016913] [0.0027050121227796954:0.99089109472255987] [0.001675986857321245:0.97942071013149457] [0.00084725967031270318:0.95017608137043086] [0.00081130806957249117:0.94285973323871075] [0.0023833730675950032:0.98448757805868081] [0.0017930941095730777:0.9776312518016913] [0.0027050121227796954:0.99089109472255987] [0.001675986857321245:0.97942071013149457] [0.00098366893291840056:0.96818077523579293] [0.00095754317572340777:0.93713338546990455] [0.0034257897119779651:0.97987826737294603] [0.0022439031642303496:0.98429458347629606] [0.0031116765423694361:0.98867747725380806] [0.001929308616491029:0.98697849177838126] [7.3515077178645623e-08:0.99670016861688893] [5.8756444622825089e-08:0.999924895402999] [2.0885312434212748e-07:0.99998930059278257] [7.1391476895035578e-07:0.99999408348162178] [8.21815670921978e-07:0.99999825016953781] [2.5565367954300418e-07:0.99998849819358182] [0.00016425284063213732:0.96151167333991705] [0.00021182147456484576:0.97723298269943171] [0.00056294807284021646:0.99155749504365864] [0.00054924496048010349:0.98880089489834078] [0.00069371828660569302:0.99692811922991886] [0.00048787215605582677:0.9911446395304534] [0.00076947707953777867:0.95079194450734805] [0.0007638198786905473:0.9495369131455812] [0.0022160750047098337:0.98681781651433642] [0.001697084463329526:0.98022172369804339] [0.0024256911074390314:0.99137399848543295] [0.0015325943472845216:0.98077389609864307] [8.7044579160186256e-05:0.9507229163894505] [7.8063117796378786e-05:0.96778181959797283] [0.00043847903459276244:0.97658583626114248] [0.0004155223558011703:0.97383645974551181] [0.00027700797177586519:0.99256588042682159] [0.00017688179459414606:0.98773035833194167] [1.1155483319368777e-07:0.99997438293348029] [1.7586804099655648e-07:0.99997915662667569] [2.5815931303311425e-07:0.99999825880639381] [5.9544705233862964e-07:0.99999710874693903] [2.0782131414940186e-07:0.99999755145724545] [1.7918805006289151e-07:0.99999526012746554] [2.5485001856692534e-08:0.99930691047374309] [5.3959242500601731e-08:0.99978759067511214] [4.4186772572997467e-07:0.99998425706048943] [5.3387874311304211e-07:0.9999179868731326] [6.8499989484705014e-07:0.99999452942516087] [2.6132499737774078e-07:0.99997021498791139] [2.1638209212521688e-06:0.99993657380173984] [2.9498507828731926e-06:0.99993455198346959] [8.2191255115854934e-06:0.99996540831433878] [7.844181803814077e-06:0.99996413098053927] [8.932115020753315e-06:0.99997149076902714] [6.2038128933170375e-06:0.99996236987761089] [0:0.92346938775510201] [0:0.77451251513036401] [0:0.97612159617945538] [0:1] [0:1] [0:1] [0.10658284276723862:0.41269540786743164] [0.10660887509584427:0.40573132038116455] [0.11047831177711487:0.44333943724632263] [0.11228420585393906:0.42119994759559631] [0.10142910480499268:0.4445229172706604] [0.10664506256580353:0.43766984343528748] [0:0.88159742066162861] [0:0.82947517819300576] [0:1] [0:1] [0:1] [0:1] [0:0.96142530238640078] [0:0.95238095238095244] [0:1] [0:0.95168394358677755] [0:1] [0:1] [0:1] [0:0.87834489861321652] [0:1] [0:0.96063698206555348] [0:1] [0:1] [0:0.93796197524654523] [0:1] [0:1] [0:0.95238095238095233] [0:1] [0:1] [0.061446748673915863:0.55358344316482544] [0.061500728130340576:0.55470836162567139] [0.063121899962425232:0.60098737478256226] [0.062065623700618744:0.5819162130355835] [0.069770567119121552:0.6014055609703064] [0.076025158166885376:0.59355634450912476] [0.030984485521912575:0.79648047685623169] [0.031156893819570541:0.79634028673171997] [0.031610868871212006:0.84116256237030029] [0.033210881054401398:0.8247828483581543] [0.031391825526952744:0.84088891744613647] [0.031152466312050819:0.83147668838500977] [0.10701868683099747:0.39228329062461853] [0.10714112967252731:0.38697338104248047] [0.11505275964736938:0.4223383367061615] [0.11652280390262604:0.40126520395278931] [0.10671146214008331:0.42143762111663818] [0.10707143694162369:0.41696193814277649] [0.0044402801431715488:0.85945630073547363] [0.0035674262326210737:0.89731639623641968] [0.004769845400005579:0.96891820430755615] [0.0055759008973836899:0.96142607927322388] [0.0045549599453806877:0.96682232618331909] [0.0049431836232542992:0.94987839460372925] [0:0.93269230769230782] [0:0.96666666666666667] [0:1] [0:1] [0:1] [0:1] [0.012154220603406429:0.89407789707183838] [0.012330937199294567:0.89662623405456543] [0.013001606799662113:0.93544042110443115] [0.014314223080873489:0.92383080720901489] [0.012944338843226433:0.93461251258850098] [0.012388387694954872:0.92608475685119629] [0:1] [0:1] [0:1] [0:1] [0:1] [0:1] [0.11930433660745621:0.29201677441596985] [0.11932674795389175:0.29503971338272095] [0.11949408054351807:0.31432321667671204] [0.11971449106931686:0.30273523926734924] [0.12328489124774933:0.31510967016220093] [0.13217885792255402:0.31149977445602417] [0.11936653405427933:0.2942560613155365] [0.11938899010419846:0.29737189412117004] [0.11955595761537552:0.31755101680755615] [0.11977605521678925:0.30534437298774719] [0.12257660180330276:0.31861716508865356] [0.13127849996089935:0.31459745764732361] [0.12118861079216003:0.28343281149864197] [0.12254738062620163:0.29067254066467285] [0.12141833454370499:0.30982616543769836] [0.13550803065299988:0.29798796772956848] [0.13416361808776855:0.31179642677307129] [0.12124969810247421:0.30710363388061523] [0:0.91166666666666663] [0:0.85257110598735453] [0:0.99372056514913665] [0:0.95011997664171577] [0:1] [0:1] [0:0.8766025641025641] [0:1] [0:1] [0:1] [0:1] [0:1] [0:0.97368421052631571] [0:0.76666666666666661] [0:1] [0:0.96428571428571419] [0:0.99411473053905597] [0:1] [1.2567828719221648e-07:0.93009200636081779] [3.4478973124218966e-06:0.92695141966479322] [3.2700177091005269e-06:0.99226311396150024] [0.00013792447212993664:0.96432896015732883] [3.3644235960219386e-05:0.98355855107982915] [2.0300205025871838e-07:0.99155886720273301] [0:0.98484848484848486] [0:0.81763285024154586] [0:1] [0:0.97060593176659671] [0:1] [0:1] [0:0.98863636363636365] [0:0.94736842105263164] [0:1] [0:1] [0:1] [0:1] [0:0.9681481481481482] [0:0.80846822932053997] [0:1] [0:0.97368421052631582] [0:1] [0:1] [0:0.93869047619047608] [0:0.88235294117647056] [0:1] [0:0.97368421052631571] [0:1] [0:1] [0:0.82799145299145294] [0:0.82761049991655289] [0:0.99858757062146886] [0:0.92167755991285416] [0:1] [0:1] [0:1] none [0:1] [0:1] [0:1] [0:1] [0:1] [0:1] [0:1] [0:1] [0:1] [0:1] [0:1] [0:1] [0:1] [0:1] [0:1] [0:1] [0:1] [0:1] [0:1] [0:1] [0:1] [0:1] [0:1] [0:1] [0:1] [0:1] [0:1] [0:1] [0:1] [0:1] [0:1] [0:1] [0:1] [0:1] [0:1] [0:0.74053030303030298] [0:0.99747866867432078] [0:1] [0:1] [0:1] [7.3076583110413965e-09:0.99892635084537307] [7.1010607889464125e-15:0.99602539352146224] [1.3512937692129689e-12:0.99978774014183314] [5.3281184945252335e-09:0.9952592389260394] [1.7915469874881903e-10:0.99936640826428713] [1.5436196036394111e-19:0.99508997731034476] [1.788284956535222e-08:0.96533806293904256] [6.6094637726168732e-06:0.9816652774553456] [4.1187810915870501e-05:0.9998192347881274] [4.4275286559210855e-06:0.99982292652119764] [2.2622772290978688e-08:0.99692168232428968] [4.0256628274222216e-06:0.99801326105736277] [0:1] none [0:1] [0:1] [0:1] [0:1] [3.2139804763361113e-23:0.99995263088652409] [1.964077001555471e-31:0.99999999999825318] [5.4291543826245915e-14:0.99999999999551603] [2.5832464358780012e-16:0.99999853000958472] [1.6431502489276999e-22:0.99999999956036301] [1.2002751357501021e-21:0.999999941172245] [0:1] none [0:1] [0:1] [0:1] [0:1] [3.8732436089882969e-19:0.99821192601140263] [6.6558172833501029e-20:0.99479084627989989] [3.5097411618586029e-16:0.99999999983559751] [1.9682210982249872e-13:0.99999988559497144] [7.9443552565040945e-11:0.9999943712086764] [8.7847309692349161e-13:0.99999997422978115] [3.3676169194165143e-17:0.99999985439492056] [3.2091506574416116e-15:0.99899054309869961] [1.2505995348883083e-22:0.99999647366202227] [7.1211958295244176e-13:0.99999999999970224] [1.5080028381235451e-26:0.99999992219273592] [3.0158571869959983e-18:0.99999972717816776] [9.3653910646587567e-07:0.9817531651195992] [1.2014589766129516e-07:0.96729131932995471] [7.2110265367888771e-06:0.99984700935042869] [6.1084720641076693e-06:0.99880277546646778] [1.3524324451554952e-06:0.99920331699132292] [6.0392785666653201e-06:0.99971098293070804] [0:1] [0:1] [0:1] [0:1] [0:1] [0:1] [0:0.99999999246723925] [0:0.99999989860562477] [0:1] [5.1033153981985308e-31:0.99999995753326165] [0:0.99999994998999642] [0:1] [0:1] [0:1] [0:1] [0:1] [0:1] [0:1] [0:0.99999987917205935] [0:0.99972238462111729] [0:1] [5.225674909547022e-28:0.99999989048090332] [1.0181298621557342e-21:0.99999999990720712] [4.8901906042229303e-27:1] [0:1] [0:1] [0:1] [0:1] [0:1] [0:1] [1.9506618886311655e-15:0.99410294358726514] [7.4314990166940611e-14:0.99559168255585495] [1.3019582145813423e-12:0.99996386878810617] [1.3659821305496243e-07:0.99996648640245733] [3.6981284375342404e-08:0.99992016351288482] [4.8536272525897092e-09:0.99999951774864637] [0:1] [0:1] [0:1] [0:1] [0:1] [0:1] [3.1256766794058529e-12:0.99807987454502178] [3.3592298055462376e-14:0.99535832549566894] [7.6890986781779424e-13:0.99799400177850139] [1.4146501725329393e-08:0.99992797480105611] [5.0592531616066958e-07:0.99971702332325896] [1.7802609694310675e-06:0.99994893497154147] [0:1] [0:1] [0:1] [0:1] [0:1] [0:1] [0:1] [0:1] [0:1] [0:1] [0:1] [0:1] [0:1] none [0:0.92592592592592593] [0:1] [0:1] [0:1] [0:1] [0:1] [0:0.96226415094339623] [0:1] [0:1] [0:1]
tree_sizes=560 453 556 450 664 553

Tree=0
num_leaves=4
num_cat=0
split_feature=115 9 43
split_gain=181.173 3.55271e-15 1.77636e-15
threshold=0.30597651537916953 1.0000000180025095e-35 0.8434677098479072
decision_type=2 2 2
left_child=1 2 -1
right_child=-2 -3 -4
leaf_value=-2.9935365155238034 -0.22808192799111815 -2.9935365155238034 -2.9935365155238034
leaf_weight=10.192417152225966 1.0124917700886733 1.0124917700886733 3.5774709209799775
leaf_count=151 15 15 53
internal_value=-2.81626 -2.99354 -2.99354
internal_weight=0 14.7824 13.7699
internal_count=234 219 204
is_linear=0
shrinkage=1


Tree=1
num_leaves=3
num_cat=0
split_feature=50 221
split_gain=153.892 3.55271e-15
threshold=0.18165562336829302 0.99591168191414503
decision_type=2 2
left_child=1 -1
right_child=-2 -3
leaf_value=-3.1460901479711043 -0.40554952803249433 -3.1460901479711043
leaf_weight=10.975936606526371 0.8757396228611477 1.809861887246371
leaf_count=188 15 31
internal_value=-2.97041 -3.14609
internal_weight=0 12.7858
internal_count=234 219
is_linear=0
shrinkage=1


Tree=2
num_leaves=4
num_cat=0
split_feature=135 57 3
split_gain=190.391 0.28324 7.10543e-15
threshold=0.18206400424242022 0.1529818326318316 1.0000000180025095e-35
decision_type=2 2 2
left_child=1 2 -1
right_child=-2 -3 -4
leaf_value=-1.6658650269493065 -0.73889703233578485 -1.6040671606417383 -1.6658650269493065
leaf_weight=30.853276208043098 11.650887519121168 3.2363576442003241 4.7466578781604758
leaf_count=143 54 15 22
internal_value=-1.44799 -1.66072 -1.66587
internal_weight=0 38.8363 35.5999
internal_count=234 180 165
is_linear=0
shrinkage=1


Tree=3
num_leaves=3
num_cat=0
split_feature=58 133
split_gain=190.205 0.295082
threshold=0.30086833197821833 0.16457927227020266
decision_type=2 2
left_child=1 -1
right_child=-2 -3
leaf_value=-1.7183631202991883 -0.75407735726158631 -1.654077402763348
leaf_weight=34.844443202018738 10.577777400612829 3.1111110001802436
leaf_count=168 51 15
internal_value=-1.50408 -1.71309
internal_weight=0 37.9556
internal_count=234 183
is_linear=0
shrinkage=1


Tree=4
num_leaves=5
num_cat=0
split_feature=71 43 3 357
split_gain=195 2.84217e-14 7.10543e-15 7.10543e-15
threshold=0.2945821664995561 -0.30951812159623526 1.0000000180025095e-35 1.0000000180025095e-35
decision_type=2 2 2 2
left_child=2 -2 3 -1
right_child=1 -3 -4 -5
leaf_value=-1.5402565818998546 -0.69313876571086985 -0.69313876571086985 -1.5402565818998546 -1.5402565818998544
leaf_weight=21.012425497174263 10.152070745825766 4.7218933701515189 9.4437867403030378 9.9159760773181933
leaf_count=89 43 20 40 42
internal_value=-1.31219 -0.693139 -1.54026 -1.54026
internal_weight=0 14.874 40.3722 30.9284
internal_count=234 63 171 131
is_linear=0
shrinkage=1


Tree=5
num_leaves=4
num_cat=0
split_feature=44 44 44
split_gain=195 2.84217e-14 3.55271e-15
threshold=1.028381068620454 1.2797011538831129 -0.85651957084949604
decision_type=2 2 2
left_child=2 -2 -1
right_child=1 -3 -4
leaf_value=-2.0167145526847143 -0.79141916039184479 -0.79141916039184501 -2.0167145526847143
leaf_weight=10.446460723876955 2.7748411297798148 3.4277449250221252 21.545825242996216
leaf_count=64 17 21 132
internal_value=-1.81773 -0.791419 -2.01671
internal_weight=0 6.20259 31.9923
internal_count=234 38 196
is_linear=0
shrinkage=1


end of trees

feature_importances:
Column_44=3
Column_3=2
Column_43=2
Column_9=1
Column_50=1
Column_57=1
Column_58=1
Column_71=1
Column_115=1
Column_133=1
Column_135=1
Column_221=1
Column_357=1

parameters:
[boosting: gbdt]
[objective: multiclass]
[metric: custom]
[tree_learner: serial]
[device_type: cpu]
[data_sample_strategy: bagging]
[data: ]
[valid: ]
[num_iterations: 10000]
[learning_rate: 0.2]
[num_leaves: 63]
[num_threads: 0]
[seed: 1236]
[deterministic: 0]
[force_col_wise: 0]
[force_row_wise: 0]
[histogram_pool_size: -1]
[max_depth: -1]
[min_data_in_leaf: 15]
[min_sum_hessian_in_leaf: 0.001]
[bagging_fraction: 1]
[pos_bagging_fraction: 1]
[neg_bagging_fraction: 1]
[bagging_freq: 0]
[bagging_seed: 21709]
[feature_fraction: 0.5]
[feature_fraction_bynode: 1]
[feature_fraction_seed: 24116]
[extra_trees: 0]
[extra_seed: 15571]
[early_stopping_round: 0]
[early_stopping_min_delta: 0]
[first_metric_only: 0]
[max_delta_step: 0]
[lambda_l1: 0]
[lambda_l2: 0]
[linear_lambda: 0]
[min_gain_to_split: 0]
[drop_rate: 0.1]
[max_drop: 50]
[skip_drop: 0.5]
[xgboost_dart_mode: 0]
[uniform_drop: 0]
[drop_seed: 15722]
[top_rate: 0.2]
[other_rate: 0.1]
[min_data_per_group: 100]
[max_cat_threshold: 32]
[cat_l2: 10]
[cat_smooth: 10]
[max_cat_to_onehot: 4]
[top_k: 20]
[monotone_constraints: ]
[monotone_constraints_method: basic]
[monotone_penalty: 0]
[feature_contri: ]
[forcedsplits_filename: ]
[refit_decay_rate: 0.9]
[cegb_tradeoff: 1]
[cegb_penalty_split: 0]
[cegb_penalty_feature_lazy: ]
[cegb_penalty_feature_coupled: ]
[path_smooth: 0]
[interaction_constraints: ]
[verbosity: -1]
[saved_feature_importance_type: 0]
[use_quantized_grad: 0]
[num_grad_quant_bins: 4]
[quant_train_renew_leaf: 0]
[stochastic_rounding: 1]
[linear_tree: 0]
[max_bin: 255]
[max_bin_by_feature: ]
[min_data_in_bin: 3]
[bin_construct_sample_cnt: 200000]
[data_random_seed: 4074]
[is_enable_sparse: 1]
[enable_bundle: 1]
[use_missing: 1]
[zero_as_missing: 0]
[feature_pre_filter: 1]
[pre_partition: 0]
[two_round: 0]
[header: 0]
[label_column: ]
[weight_column: ]
[group_column: ]
[ignore_column: ]
[categorical_feature: ]
[forcedbins_filename: ]
[precise_float_parser: 0]
[parser_config_file: ]
[objective_seed: 10917]
[num_class: 6]
[is_unbalance: 0]
[scale_pos_weight: 1]
[sigmoid: 1]
[boost_from_average: 1]
[reg_sqrt: 0]
[alpha: 0.9]
[fair_c: 1]
[poisson_max_delta_step: 0.7]
[tweedie_variance_power: 1.5]
[lambdarank_truncation_level: 30]
[lambdarank_norm: 1]
[label_gain: ]
[lambdarank_position_bias_regularization: 0]
[eval_at: ]
[multi_error_top_k: 1]
[auc_mu_weights: ]
[num_machines: 1]
[local_listen_port: 12400]
[time_out: 120]
[machine_list_filename: ]
[machines: ]
[gpu_platform_id: -1]
[gpu_device_id: -1]
[gpu_use_dp: 0]
[num_gpu: 1]

end of parameters

pandas_categorical:null
