tree
version=v4
num_class=6
num_tree_per_iteration=6
label_index=0
max_feature_idx=48
objective=multiclass num_class:6
feature_names=Column_0 Column_1 Column_2 Column_3 Column_4 Column_5 Column_6 Column_7 Column_8 Column_9 Column_10 Column_11 Column_12 Column_13 Column_14 Column_15 Column_16 Column_17 Column_18 Column_19 Column_20 Column_21 Column_22 Column_23 Column_24 Column_25 Column_26 Column_27 Column_28 Column_29 Column_30 Column_31 Column_32 Column_33 Column_34 Column_35 Column_36 Column_37 Column_38 Column_39 Column_40 Column_41 Column_42 Column_43 Column_44 Column_45 Column_46 Column_47 Column_48
feature_infos=[0:1] [0:1] [0:1] [0:1] [0:1] [0:1] none [0:1] none [0:1] [0:1] none [0:1] [0:1] [0:1] none [0:1] [0:1] none none none none [0:1] none none [0:1] none none none none none [0:1] none none none [0:1] none none [0:1] none [0:1] [0:1] [0:1] [-1.6354518277569989:1.9388042497198423] [-1.6733098479531416:1.7195113030927685] [-1.4038725330980597:1.48091309145128] [-1.3440356134253817:1.4736175223430754] [-1.2490765673495612:3.828691217310606] [-2.3591123870126185:1.9674418891338159]
tree_sizes=453 662 1065 1056 969 554 1864 1969 1712 1306 1716 1741 2079 1850 1814 1723 1294 1816 1966 1983 1498 1932 2038 1936 1984 1969 1713 1830 2032 2048 1654 2090 1725 1933 2148 1854 2098 2407 1517 2156 2045 2062

Tree=0
num_leaves=3
num_cat=0
split_feature=47 16
split_gain=132.777 11.8519
threshold=2.1361019557572178 1.0000000180025095e-35
decision_type=2 2
left_child=-1 -2
right_child=1 -3
leaf_value=-2.9935365155238034 -1.5120429864884373 -0.32684816326014232
leaf_weight=14.444882586598395 0.67499451339244909 0.67499451339244843
leaf_count=214 10 10
internal_value=-2.81626 -0.919446
internal_weight=0 1.34999
internal_count=234 20
is_linear=0
shrinkage=1


Tree=1
num_leaves=5
num_cat=0
split_feature=48 48 1 43
split_gain=101.572 49.828 1.77636e-15 8.88178e-16
threshold=-1.1847619406300147 -1.7101292455906534 1.0000000180025095e-35 -0.54011528788506369
decision_type=2 2 2 2
left_child=1 -1 3 -2
right_child=2 -3 -4 -5
leaf_value=-2.5232400070759651 -3.1460901479711043 -0.031839443495412567 -3.1460901479711043 -3.1460901479711043
leaf_weight=0.64220905676484108 1.5763313211500634 0.64220905676484175 5.5463509447872639 5.2544377371668807
leaf_count=11 27 11 95 90
internal_value=-2.97041 -1.27754 -3.14609 -3.14609
internal_weight=0 1.28442 12.3771 6.83077
internal_count=234 22 212 117
is_linear=0
shrinkage=1


Tree=2
num_leaves=9
num_cat=0
split_feature=44 47 44 44 44 43 1 44
split_gain=101.803 46.0442 6.79901 1.0782 2.44654 0.231742 1.42109e-14 7.10543e-15
threshold=-0.85651957084949604 1.2898073249805229 -0.73085952821816658 -0.16538933637718142 -0.60519948558683645 -1.0013096204627205 1.0000000180025095e-35 0.65140094072646348
decision_type=2 2 2 2 2 2 2 2
left_child=1 6 -2 4 -4 -3 -1 -5
right_child=2 5 3 7 -6 -7 -8 -9
leaf_value=-0.73889703233578463 -1.3348050288730486 -1.480471428026602 -1.6658650269493065 -1.6658650269493063 -1.4130555738728914 -1.5731682274879544 -0.73889703233578485 -1.6658650269493065
leaf_weight=3.4521148204803449 3.0206004679203025 2.1575717628002167 4.3151435256004333 11.650887519121175 2.3733289390802339 2.1575717628002158 6.0412009358406067 15.318759515881537
leaf_count=16 14 10 20 54 11 10 28 71
internal_value=-1.44799 -0.985123 -1.62224 -1.64804 -1.57616 -1.52682 -0.738897 -1.66587
internal_weight=0 13.8085 36.6787 33.6581 6.68847 4.31514 9.49332 26.9696
internal_count=234 64 170 156 31 20 44 125
is_linear=0
shrinkage=1


Tree=3
num_leaves=9
num_cat=0
split_feature=35 22 40 43 44 44 17 43
split_gain=60.314 45.0698 4.68675 10.7143 1.33767 5.78571 9.09184 0.0156986
threshold=1.0000000180025095e-35 1.0000000180025095e-35 1.0000000180025095e-35 0.15167621098142162 1.0000000180025095e-35 -0.60519948558683645 1.0000000180025095e-35 -1.3472053698959632
decision_type=2 2 2 2 2 2 2 2
left_child=1 2 4 -4 5 -1 -7 -3
right_child=-2 7 3 -5 -6 6 -8 -9
leaf_value=-1.7183631202991883 -0.75407735726158631 -1.02958757527233 -1.7183631202991883 -1.2362202387803873 -1.7183631202991883 -1.1397916624766278 -1.718363120299188 -1.050780668965464
leaf_weight=10.162962600588797 3.9407406002283087 2.9037036001682281 4.148148000240325 3.3185184001922607 17.007406800985336 2.0740740001201656 2.2814814001321793 2.696296200156211
leaf_count=49 19 14 20 16 82 10 11 13
internal_value=-1.50408 -1.57036 -1.64655 -1.50408 -1.6803 -1.63571 -1.44285 -1.03979
internal_weight=0 44.5926 38.9926 7.46667 31.5259 14.5185 4.35556 5.6
internal_count=234 215 188 36 152 70 21 27
is_linear=0
shrinkage=1


Tree=4
num_leaves=8
num_cat=0
split_feature=46 13 46 42 46 38 35
split_gain=58.5609 57.154 47.8838 4.20555 0.455152 3.55271e-15 1.77636e-15
threshold=1.0000000180025095e-35 1.0000000180025095e-35 -1.0622702998485356 1.0000000180025095e-35 0.62832158161253837 1.0000000180025095e-35 1.0000000180025095e-35
decision_type=2 2 2 2 2 2 2
left_child=1 3 -3 6 -2 -6 -1
right_child=4 2 -4 -5 5 -7 -8
leaf_value=-1.5402565818998544 -1.4797481664577841 -1.4510862854589086 -0.69313876571086985 -1.2578839765035263 -1.5402565818998544 -1.5402565818998546 -1.5402565818998544
leaf_weight=4.2497040331363696 6.6106507182121304 4.4857987016439465 12.985206767916678 2.833136022090911 16.290532127022747 3.7775146961212149 4.0136093646287918
leaf_count=18 28 19 55 12 69 16 17
internal_value=-1.31219 -1.1132 -0.887747 -1.46816 -1.52526 -1.54026 -1.54026
internal_weight=0 28.5675 17.471 11.0964 26.6787 20.068 8.26331
internal_count=234 121 74 47 113 85 35
is_linear=0
shrinkage=1


Tree=5
num_leaves=4
num_cat=0
split_feature=46 38 45
split_gain=171.264 1.23641 0.644892
threshold=-1.0622702998485356 1.0000000180025095e-35 0.63951728429105625
decision_type=2 2 2
left_child=2 -2 -1
right_child=1 -3 -4
leaf_value=-0.9203976227384626 -2.0167145526847143 -1.8805706202077288 -0.79141916039184523
leaf_weight=3.1012930274009696 29.054218888282779 2.9380670785903922 3.1012930274009705
leaf_count=19 178 18 19
internal_value=-1.81773 -2.00421 -0.855908
internal_weight=0 31.9923 6.20259
internal_count=234 196 38
is_linear=0
shrinkage=1


Tree=6
num_leaves=16
num_cat=0
split_feature=47 45 25 47 45 1 45 46 45 40 43 46 2 1 43
split_gain=18.6682 3.37306e-05 5.02497e-05 2.53786e-05 2.55905e-05 9.85392e-06 4.5235e-06 1.94256e-06 1.68326e-06 1.00754e-06 6.45497e-07 3.29724e-07 6.18225e-07 3.00028e-07 1.98458e-08
threshold=2.1361019557572178 -1.0432743300293918 1.0000000180025095e-35 -0.40278193657286659 1.3607136904283912 1.0000000180025095e-35 0.15871968019949947 -1.0622702998485356 1.0000000180025095e-35 1.0000000180025095e-35 -1.3472053698959632 -0.49873967269484426 1.0000000180025095e-35 1.0000000180025095e-35 1.1893634592811499
decision_type=2 2 2 2 2 2 2 2 2 2 2 2 2 2 2
left_child=1 2 -1 7 5 -5 9 -3 -9 -7 -8 12 -10 -6 -4
right_child=-2 3 14 4 13 6 10 8 11 -11 -12 -13 -14 -15 -16
leaf_value=-0.17242060537806164 0.29280034955772005 -0.17428179914145886 -0.17464863226338392 -0.17607524381565887 -0.17449499539701266 -0.17485604210319725 -0.17545798928124179 -0.17438956083269841 -0.17492337300810046 -0.1752097276381146 -0.17575672354058025 -0.17458491265838696 -0.17466248964556988 -0.17466248964556988 -0.17460140963218443
leaf_weight=0.56499379128217797 4.9200923442840567 0.9019233696162704 0.94206547737121582 0.95133227482438121 0.82272249460220315 0.53147945180535316 0.57113371789455414 0.91337643936276469 0.59087159112095899 0.81805884093046188 0.58636261150240898 0.57090491056442205 0.94355231523513794 0.89113274216651917 0.57220220193266869
leaf_count=15 20 18 18 16 16 10 10 18 11 15 10 11 18 17 11
internal_value=0 -0.174757 -0.17403 -0.174923 -0.175214 -0.175527 -0.175319 -0.174539 -0.174616 -0.17507 -0.175609 -0.174715 -0.174763 -0.174582 -0.174631
internal_weight=0 11.1721 2.07926 9.09285 5.17222 3.45837 2.50703 3.92063 3.01871 1.34954 1.1575 2.10533 1.53442 1.71386 1.51427
internal_count=234 214 44 170 94 61 45 76 58 25 20 40 29 33 29
is_linear=0
shrinkage=0.2


Tree=7
num_leaves=17
num_cat=0
split_feature=48 44 44 43 48 31 45 45 25 44 44 35 4 5 44 43
split_gain=12.8453 0.00164791 1.954e-05 6.3523e-06 9.57612e-06 1.48708e-05 1.65845e-05 5.90263e-06 8.83397e-06 7.31744e-06 2.10673e-06 4.9436e-07 4.69207e-07 6.38638e-07 6.99033e-07 2.54951e-08
threshold=-1.1847619406300147 -0.73085952821816658 -0.85651957084949604 -1.231906786751549 1.0000000180025095e-35 1.0000000180025095e-35 -0.6345963665515687 -0.6345963665515687 1.0000000180025095e-35 -1.4219896593812071 1.028381068620454 1.0000000180025095e-35 1.0000000180025095e-35 1.0000000180025095e-35 1.0000000180025095e-35 -0.30951812159623526
decision_type=2 2 2 2 2 2 2 2 2 2 2 2 2 2 2 2
left_child=1 -1 7 -4 5 6 11 8 9 -2 12 -5 13 14 -6 -15
right_child=2 -3 3 4 10 -7 -8 -9 -10 -11 -12 -13 -14 15 -16 -17
leaf_value=0.24341535596655223 -0.1717771366782391 0.25145424719159809 -0.17424872313266682 -0.17346215697377185 -0.17348488386472036 -0.17475788580269538 -0.17450644982225127 -0.17349476020166807 -0.1734659185331533 -0.1729409100393024 -0.17316235346884173 -0.17324283014529676 -0.17334892195007343 -0.17341917545359259 -0.17379048202614317 -0.17348488386472075
leaf_weight=1.8343839049339292 0.37940280884504329 2.2975519001483926 0.8981296680867662 0.8126536533236508 0.49839186668396107 0.68694186955690373 0.71240631863474857 0.85837049037217994 0.54230546951293945 0.50214122235775005 0.77931850776076306 0.83186547830700874 0.44321903958916653 0.49342386424541473 0.74989133328199387 0.45308351516723622
leaf_count=12 11 10 18 18 11 13 14 19 12 12 18 19 10 11 16 10
internal_value=0 0.247885 -0.173592 -0.17375 -0.173681 -0.173939 -0.1737 -0.173081 -0.172831 -0.17244 -0.173451 -0.173351 -0.173537 -0.173575 -0.173668 -0.173451
internal_weight=0 4.13194 9.64155 7.35933 6.4612 3.04387 2.35693 2.28222 1.42385 0.881544 3.41733 1.64452 2.63801 2.19479 1.24828 0.946507
internal_count=234 22 212 158 140 64 51 54 35 23 76 37 58 48 27 21
is_linear=0
shrinkage=0.2


Tree=8
num_leaves=15
num_cat=0
split_feature=44 47 44 44 44 25 38 47 43 38 44 44 48 44
split_gain=59.0941 14.3834 4.01078 1.23941 1.93067 0.127556 0.416392 0.00212603 0.00163762 0.00016471 3.71908e-05 0.000149351 3.04277e-05 1.25077e-05
threshold=-0.73085952821816658 2.1361019557572178 -0.98217961348082616 -0.16538933637718142 -0.60519948558683645 1.0000000180025095e-35 1.0000000180025095e-35 1.0000000180025095e-35 -1.231906786751549 1.0000000180025095e-35 0.53177597689751677 0.77706098335779361 0.57676372894389061 1.5310212391457743
decision_type=2 2 2 2 2 2 2 2 2 2 2 2 2 2
left_child=1 2 5 4 -2 6 -1 8 -5 10 12 -12 -10 -13
right_child=3 -3 -4 7 -6 -7 -8 -9 9 -11 11 13 -14 -15
leaf_value=0.48587231551886162 -0.19900018414034717 -0.13464584422489087 0.19132424118173408 -0.20606467908368797 0.042131480771471996 0.38297566128584909 0.38974886811002141 -0.20903291745828906 -0.20145577816336224 -0.19976327360975321 -0.20313403377442163 -0.20081158781175434 -0.20057240990491565 -0.2014719149831331
leaf_weight=2.9243415147066152 3.1028247326612473 2.8912190794944754 4.6189748346805581 3.3370190262794557 2.3222416788339642 4.1294315457344055 4.699429988861084 1.8961847275495518 4.6288974434137362 2.6526019871234885 2.2869983464479446 2.1977229416370392 2.3523382395505905 2.4008979499340057
leaf_count=11 20 17 20 18 11 14 16 10 27 16 13 13 14 14
internal_value=0 0.276605 0.34923 -0.181305 -0.0957819 0.411286 0.42662 -0.202635 -0.202024 -0.201207 -0.201483 -0.201813 -0.201158 -0.201156
internal_weight=0 19.2634 16.3722 27.1777 5.42507 11.7532 7.62377 21.7527 19.8565 16.5195 13.8669 6.88562 6.98124 4.59862
internal_count=234 78 61 156 31 41 27 125 115 97 81 40 41 27
is_linear=0
shrinkage=0.2


Tree=9
num_leaves=11
num_cat=0
split_feature=22 40 9 13 38 16 5 0 4 4
split_gain=15.2971 23.3116 14.9212 1.77472 2.77583 0.386571 0.000212102 2.39542e-07 2.66644e-07 8.74241e-09
threshold=1.0000000180025095e-35 1.0000000180025095e-35 1.0000000180025095e-35 1.0000000180025095e-35 1.0000000180025095e-35 1.0000000180025095e-35 1.0000000180025095e-35 1.0000000180025095e-35 1.0000000180025095e-35 1.0000000180025095e-35
decision_type=2 2 2 2 2 2 2 2 2 2
left_child=1 3 -3 4 5 -1 7 8 -5 -9
right_child=-2 2 -4 6 -6 -7 -8 9 -10 -11
leaf_value=-0.066327532070088541 0.27549687502016423 0.31163491221228357 -0.21354360315082699 -0.19922343917368618 -0.19922705873087157 0.031908723642077398 -0.20117542798384502 -0.19932783543650995 -0.19932783543650986 -0.19934284788026577
leaf_weight=2.6810829788446426 7.2005212008953086 9.1652651503682119 2.8328100293874732 2.1327197104692441 5.5376691073179245 3.9822036400437355 3.1896599829196939 3.7814100086688995 1.8085004389286043 2.6313576698303223
leaf_count=14 27 40 14 13 34 23 19 23 11 16
internal_value=0 -0.042606 0.187637 -0.149909 -0.0945841 -0.00761825 -0.199749 -0.19931 -0.199271 -0.199334
internal_weight=0 37.7427 11.9981 25.7446 12.201 6.66329 13.5436 10.354 3.94122 6.41277
internal_count=234 207 54 153 71 37 82 63 24 39
is_linear=0
shrinkage=0.2


Tree=10
num_leaves=15
num_cat=0
split_feature=44 43 46 43 4 43 43 43 42 16 44 12 42 1
split_gain=37.3108 32.529 25.203 0.578937 0.520718 0.29332 0.0406496 0.00446727 0.00509501 0.00394484 0.00268292 0.00460162 0.00144712 0.000138092
threshold=-0.16538933637718142 0.49757196041466434 1.0000000180025095e-35 -1.3472053698959632 1.0000000180025095e-35 -0.42481670474064953 -0.6554138710294779 -0.078920955307406782 1.0000000180025095e-35 1.0000000180025095e-35 -0.85651957084949604 1.0000000180025095e-35 1.0000000180025095e-35 1.0000000180025095e-35
decision_type=2 2 2 2 2 2 2 2 2 2 2 2 2 2
left_child=7 2 4 -4 5 6 -2 8 9 -1 13 -12 -3 -9
right_child=1 12 3 -5 -6 -7 -8 10 -10 -11 11 -13 -14 -15
leaf_value=-0.20490050529569653 0.39595166837064127 -0.20791977369376818 -0.21579796404476692 -0.077313505275334385 0.43556867267665295 0.31879412233229687 0.3673987819184884 -0.20624091836387401 -0.2081368717349221 -0.19271833146778361 -0.21781765688724444 -0.2072085544243254 -0.2134241176141714 -0.2040184760095769
leaf_weight=1.9261824339628235 3.1794559061527305 3.5784716159105292 2.1100537478923798 2.8230077624320975 4.137292504310607 5.4960029423236874 5.3510330319404602 2.9772341251373291 3.9328115433454514 2.3733657598495483 2.7928269356489164 3.9459188282489777 4.0989249795675278 1.7911128401756284
leaf_count=11 11 19 10 13 15 19 18 16 21 17 13 21 20 10
internal_value=0 0.145791 0.264341 -0.136548 0.373218 0.354826 0.378041 -0.206492 -0.202935 -0.198176 -0.209037 -0.211605 -0.210859 -0.205406
internal_weight=0 30.7742 23.0968 4.93306 18.1638 14.0265 8.53049 19.7395 8.23236 4.29955 11.5071 6.73875 7.6774 4.76835
internal_count=234 125 86 23 63 48 29 109 49 28 60 34 39 26
is_linear=0
shrinkage=0.2


Tree=11
num_leaves=15
num_cat=0
split_feature=44 48 4 45 45 45 35 45 44 16 3 25 44 48
split_gain=78.0984 0.319307 0.00702621 0.0019717 0.00152378 0.000302077 0.000169542 0.000356016 0.000687647 6.47748e-05 8.42782e-05 1.34462e-05 1.01642e-06 9.07659e-07
threshold=1.028381068620454 1.0000000180025095e-35 1.0000000180025095e-35 -1.0432743300293918 -1.3557927726889036 0.63951728429105625 1.0000000180025095e-35 1.0000000180025095e-35 -0.85651957084949604 1.0000000180025095e-35 1.0000000180025095e-35 1.0000000180025095e-35 1.0000000180025095e-35 0.57676372894389061
decision_type=2 2 2 2 2 2 2 2 2 2 2 2 2 2
left_child=2 -2 3 4 11 6 7 8 -5 10 -7 -1 -9 -14
right_child=1 -3 -4 5 -6 9 -8 12 -10 -11 -12 -13 13 -15
leaf_value=-0.18877883199114129 0.4920096668418823 0.42224261433958871 -0.20082788888464506 -0.18876137083028077 -0.18168867834058108 -0.19045312075625986 -0.18888351462074374 -0.1895357148421235 -0.19395260846201429 -0.19302055568985133 -0.19235720879181933 -0.18966615430690997 -0.1896294829127293 -0.18984389733694196
leaf_weight=1.2312729731202126 5.3401875197887403 5.1590288877487183 2.7491058632731429 1.5794675424695013 1.7191011682152773 1.435858592391013 2.2397762238979331 1.780932158231735 2.8849453777074867 2.2635376453399658 2.6383590251207352 1.5344399213790894 1.7878280431032181 1.4145695418119431
leaf_count=10 20 18 19 13 19 11 18 14 20 16 19 12 14 11
internal_value=0 0.457728 -0.191283 -0.190117 -0.186365 -0.191051 -0.190448 -0.190819 -0.192116 -0.192163 -0.191686 -0.189271 -0.189657 -0.189724
internal_weight=0 10.4992 25.2592 22.5101 4.48481 18.0253 11.6875 9.44774 4.46441 6.33776 4.07422 2.76571 4.98333 3.2024
internal_count=234 38 196 177 41 136 90 72 33 46 30 22 39 25
is_linear=0
shrinkage=0.2


Tree=12
num_leaves=18
num_cat=0
split_feature=44 44 44 43 43 0 46 44 44 13 43 5 0 43 43 43 44
split_gain=22.3176 0.0231631 0.0546268 0.00540655 0.00490531 0.0192803 3.75701e-05 3.62038e-05 1.18048e-05 3.06146e-06 8.89785e-07 6.48507e-07 6.19606e-07 1.52398e-07 9.48381e-08 6.07204e-08 1.76873e-10
threshold=-1.4848197840061459 -0.73085952821816658 -0.85651957084949604 -1.3472053698959632 0.49757196041466434 1.0000000180025095e-35 1.0000000180025095e-35 -0.35387940032417631 1.2797011538831129 1.0000000180025095e-35 -0.6554138710294779 1.0000000180025095e-35 1.0000000180025095e-35 0.49757196041466434 0.15167621098142162 -0.30951812159623526 1.0000000180025095e-35
decision_type=2 2 2 2 2 2 2 2 2 2 2 2 2 2 2 2 2
left_child=-1 2 3 -2 6 -6 9 -8 -7 14 -5 12 -11 -12 -3 -13 -14
right_child=1 4 -4 10 5 8 7 -9 -10 11 13 15 16 -15 -16 -17 -18
leaf_value=0.38252995979813081 -0.19635256236930301 -0.17297556125202554 -0.23355811903313828 -0.17282409937440973 -0.21464112189207307 -0.17362963104505869 -0.17216231838479915 -0.17442168706908845 -0.17255304807667773 -0.17234376535380935 -0.1724125965823175 -0.17269317602902454 -0.17262394971016687 -0.17256838452973924 -0.17310694933743026 -0.17279988262833554 -0.1726183957193132
leaf_weight=3.8387646824121484 0.50661392882466372 0.41143533959984724 1.092708092182874 0.53233696520328577 0.61497509479522716 0.80088216066360474 0.36607528850436222 1.2605123296380039 0.82921525463461876 0.49644311890006088 0.41589044779538997 0.44396729022264481 0.43978394567966461 0.63417041301727295 0.47167835012078285 0.41057912632822979 0.47934569790959358
leaf_count=14 10 10 14 13 3 18 11 25 21 13 11 11 11 16 11 10 12
internal_value=0 -0.183167 -0.197324 -0.178371 -0.176755 -0.184466 -0.173132 -0.173913 -0.173082 -0.17273 -0.172613 -0.172607 -0.172524 -0.172507 -0.173046 -0.172744 -0.172621
internal_weight=0 10.2066 3.18172 2.08901 7.02489 2.24507 4.77982 1.62659 1.6301 3.15323 1.5824 2.27012 1.41557 1.05006 0.883114 0.854546 0.91913
internal_count=234 220 64 50 156 42 114 36 39 78 40 57 36 27 21 21 23
is_linear=0
shrinkage=0.2


Tree=13
num_leaves=16
num_cat=0
split_feature=47 44 41 47 47 44 47 46 44 25 44 44 13 46 44
split_gain=6.24742 7.68162 0.144676 0.00138002 2.92629e-05 2.91683e-05 3.38838e-05 1.09074e-05 2.207e-06 6.61001e-07 6.02886e-07 3.4338e-07 1.96909e-07 5.18115e-08 1.3347e-08
threshold=0.56441192717192723 -0.98217961348082616 1.0000000180025095e-35 3.34509428543821 -0.40278193657286659 -0.85651957084949604 -1.0000000180025095e-35 1.0000000180025095e-35 -1.4219896593812071 1.0000000180025095e-35 0.77706098335779361 1.5310212391457743 1.0000000180025095e-35 -0.49873967269484426 1.0000000180025095e-35
decision_type=2 2 2 2 2 2 2 2 2 2 2 2 2 2 2
left_child=4 2 -2 8 10 9 7 -7 -4 -6 12 -12 -1 14 -14
right_child=1 -3 3 -5 5 6 -8 -9 -10 -11 11 -13 13 -15 -16
leaf_value=-0.17188976522607 -0.30054804526031376 0.29396254671831779 -0.1710141267802309 -0.18467157564730666 -0.1714207600659369 -0.17188355554559542 -0.17403884756826069 -0.17292637228414739 -0.17171330419025368 -0.17177168418380903 -0.17153871374409682 -0.17175630662296176 -0.17176175813305722 -0.17182035205737228 -0.17171296946793596
leaf_weight=0.70222712680697497 0.53817774355411496 3.494298804551363 0.43637482635676828 0.52794758230447769 0.44476989656686816 0.77067063003778502 0.771510940045118 0.83687035739421844 0.30808245018124614 0.41506368294358253 0.72618586011230923 0.48308021947741508 0.37992034107446704 0.38353465124964681 0.54752245917916298
leaf_count=20 6 21 15 5 14 22 16 20 9 12 22 14 11 11 16
internal_value=0 0.120723 -0.213618 -0.17685 -0.172164 -0.172589 -0.172949 -0.172426 -0.171303 -0.17159 -0.171737 -0.171626 -0.171804 -0.171759 -0.171733
internal_weight=0 5.30488 1.81058 1.2724 6.46136 3.23889 2.37905 1.60754 0.744457 0.859834 3.22247 1.20927 2.0132 1.31098 0.927443
internal_count=234 56 35 29 178 84 58 42 24 26 94 36 58 38 27
is_linear=0
shrinkage=0.2


Tree=14
num_leaves=16
num_cat=0
split_feature=46 43 3 43 40 44 41 44 43 46 46 44 44 43 44
split_gain=39.4037 2.76645 10.1359 2.64778 1.569 0.906629 0.518268 0.00759468 0.00636337 0.00362985 0.000341802 0.000512832 6.59411e-05 2.9e-05 1.03956e-05
threshold=0.62832158161253837 -0.078920955307406782 1.0000000180025095e-35 0.15167621098142162 1.0000000180025095e-35 -0.60519948558683645 1.0000000180025095e-35 1.0000000180025095e-35 -0.42481670474064953 -1.0000000180025095e-35 -1.0622702998485356 0.77706098335779361 1.2797011538831129 -0.6554138710294779 0.53177597689751677
decision_type=2 2 2 2 2 2 2 2 2 2 2 2 2 2 2
left_child=5 2 6 -3 -5 -1 -2 8 -7 10 12 13 -9 -12 -15
right_child=1 3 -4 4 -6 7 -8 9 -10 -11 11 -13 -14 14 -16
leaf_value=-0.075436113481739508 -0.033633157429620267 0.44938276878411554 0.30220681726416032 0.29284123934696349 0.11535864854766849 -0.19475331972910642 -0.19405324008442967 -0.18906145567225158 -0.21162998703343538 -0.19863266709346711 -0.19032781263760509 -0.19523391419825284 -0.19054527153636658 -0.1911660432120913 -0.19183042240914222
leaf_weight=2.9457610398530987 1.2574880123138448 2.7210275977849951 5.299649566411972 4.9971452355384809 3.313478872179985 1.8113671094179156 2.2414571568369865 2.1176703125238445 1.7639168649911905 3.361441463232036 1.3061687052249924 1.594323009252548 2.7585542872548103 2.546364173293111 1.4952279031276701
leaf_count=17 10 10 18 17 13 13 17 17 9 21 10 11 21 19 11
internal_value=0 0.211431 0.127786 0.278144 0.222078 -0.178586 -0.1364 -0.194787 -0.20308 -0.192834 -0.191184 -0.192086 -0.189901 -0.191147 -0.191412
internal_weight=0 19.8302 8.79859 11.0317 8.31062 21.7008 3.49895 18.755 3.57528 15.1797 11.8183 6.94208 4.87622 5.34776 4.04159
internal_count=234 85 45 40 30 149 27 132 22 110 89 51 38 40 30
is_linear=0
shrinkage=0.2


Tree=15
num_leaves=15
num_cat=0
split_feature=44 3 44 48 44 46 14 0 48 47 42 48 0 44
split_gain=12.9235 16.864 22.8631 5.30768 3.10167 1.17135 0.0390813 0.0119571 0.00969259 0.00712354 0.000878171 0.000243863 0.000125885 2.15505e-06
threshold=-0.85651957084949604 1.0000000180025095e-35 1.0000000180025095e-35 -0.90662630859202975 -0.16538933637718142 1.0000000180025095e-35 1.0000000180025095e-35 1.0000000180025095e-35 -0.78301047213070307 -0.40278193657286659 1.0000000180025095e-35 -0.90662630859202975 1.0000000180025095e-35 1.4053611965144437
decision_type=2 2 2 2 2 2 2 2 2 2 2 2 2 2
left_child=7 2 3 -2 5 -5 9 8 -1 10 -4 -9 -12 -14
right_child=1 -3 6 4 -6 -7 -8 11 -10 -11 12 -13 13 -15
leaf_value=-0.19530791136149064 -0.12184125528003842 0.36295552952495913 -0.19472952491244647 0.33723658716931815 0.030090101364226452 0.18601302780947107 -0.22993075298166615 -0.1876328249451012 -0.21208524449830071 -0.20261540765910327 -0.19135022963192633 -0.19090963983687481 -0.18917520490313189 -0.18947749987672627
leaf_weight=2.6016573905944824 2.0066980347037306 6.3028871193528166 2.1720440089702562 5.8953284025192243 2.4286160022020367 3.1401533931493759 1.4088282734155662 1.5422028079628947 2.9270129278302175 3.121367074549199 1.8481716960668562 2.2106667160987854 1.7597800567746165 2.0331801176071167
leaf_count=18 12 22 16 20 15 13 7 13 16 21 14 17 14 16
internal_value=0 0.0696623 -0.00194929 0.178223 0.230747 0.284681 -0.198578 -0.198276 -0.20419 -0.194539 -0.191312 -0.189563 -0.189997 -0.189337
internal_weight=0 32.1171 25.8142 13.4708 11.4641 9.03548 12.3434 9.28154 5.52867 10.9345 7.81318 3.75287 5.64113 3.79296
internal_count=234 170 148 60 48 33 88 64 34 81 60 30 44 30
is_linear=0
shrinkage=0.2


Tree=16
num_leaves=11
num_cat=0
split_feature=16 3 1 2 31 42 31 22 38 35
split_gain=21.1607 19.5594 3.03415 5.6645 0.285844 0.166026 0.00491477 0.00456814 0.00138722 0.0023503
threshold=1.0000000180025095e-35 1.0000000180025095e-35 1.0000000180025095e-35 1.0000000180025095e-35 1.0000000180025095e-35 1.0000000180025095e-35 1.0000000180025095e-35 1.0000000180025095e-35 1.0000000180025095e-35 1.0000000180025095e-35
decision_type=2 2 2 2 2 2 2 2 2 2
left_child=1 2 3 -1 -4 6 8 -3 9 -2
right_child=5 7 4 -5 -6 -7 -8 -9 -10 -11
leaf_value=-0.034593403967614358 -0.18520715216599434 -0.1940923099835552 0.216058802030766 0.25139405926505692 0.28394937561975425 -0.13912201701436938 -0.20189173509264263 -0.20501386865111626 -0.19570594266741631 -0.19453690085253952
leaf_weight=5.2149398326873815 1.8265607804059962 2.4653322622179976 3.5706328153610221 5.9096754193305969 8.1265161037445068 2.4771070629358283 3.6894266158342353 4.0459620505571365 4.4729232341051102 2.642649382352829
leaf_count=29 17 17 16 21 28 13 22 23 30 18
internal_value=0 0.104873 0.192108 0.11733 0.263225 -0.186466 -0.19575 -0.200879 -0.193216 -0.190724
internal_weight=0 29.3331 22.8218 11.1246 11.6971 15.1087 12.6316 6.51129 8.94213 4.46921
internal_count=234 134 94 50 44 100 87 40 65 35
is_linear=0
shrinkage=0.2


Tree=17
num_leaves=16
num_cat=0
split_feature=43 43 45 7 43 43 4 45 47 45 43 43 43 43 43
split_gain=32.5664 2.36548 1.04232 0.847498 0.342613 0.105555 0.00402294 0.00118316 0.000958082 0.000672163 8.81197e-05 1.92281e-06 1.79374e-06 5.95731e-07 2.6762e-08
threshold=0.95876629299232141 1.1893634592811499 0.87991608633683449 1.0000000180025095e-35 0.26697479412583586 1.5929085002865997 1.0000000180025095e-35 -1.0432743300293918 -0.40278193657286659 -1.3557927726889036 -0.42481670474064953 -0.42481670474064953 -1.231906786751549 -1.3472053698959632 -0.54011528788506369
decision_type=2 2 2 2 2 2 2 2 2 2 2 2 2 2 2
left_child=2 -2 4 -4 6 -3 7 9 11 12 13 14 -1 -10 -9
right_child=1 5 3 -5 -6 -7 -8 8 10 -11 -12 -13 -14 -15 -16
leaf_value=-0.18359675884521914 0.10357204447667619 0.34752244619690154 0.0064529486561482581 -0.18563291941171964 -0.085350248926762268 0.30278843992666343 -0.19536362577331698 -0.18314996584915427 -0.1864444653044838 -0.17761629568009885 -0.18813011356561202 -0.18343947821149317 -0.1832226939730574 -0.18661832513958643 -0.1831908269900987
leaf_weight=1.0686017647385599 2.5622223466634741 3.7966359853744489 2.5666938275098792 1.4310175776481631 1.5050605013966549 4.749141126871109 1.48994329571724 1.5723499208688734 1.5847236365079913 1.3074478432536167 2.4485382959246595 1.6912019625306154 0.98583163321018252 1.5687030181288717 1.0825856551527979
leaf_count=11 14 13 20 13 13 16 12 16 14 19 21 17 10 14 11
internal_value=0 0.272126 -0.153824 -0.062306 -0.176263 0.322662 -0.185508 -0.184405 -0.185501 -0.181161 -0.18723 -0.183273 -0.183417 -0.186531 -0.183167
internal_weight=0 11.108 20.3027 3.99771 16.305 8.54578 14.7999 13.31 9.9481 3.36188 5.60196 4.34614 2.05443 3.15343 2.65494
internal_count=234 43 191 33 158 29 145 133 93 40 49 44 21 28 27
is_linear=0
shrinkage=0.2


Tree=18
num_leaves=17
num_cat=0
split_feature=45 41 48 14 48 45 43 12 45 43 43 43 41 43 43 43
split_gain=10.6519 4.61862 0.105272 2.28192e-05 1.0139e-05 2.84951e-05 1.29728e-05 1.07779e-05 2.4976e-06 8.63563e-07 1.46908e-06 4.55264e-07 1.55603e-07 3.39294e-08 1.71485e-08 1.01361e-08
threshold=-1.2355933716660144 1.0000000180025095e-35 -1.7101292455906534 1.0000000180025095e-35 1.0000000180025095e-35 -0.6345963665515687 -0.6554138710294779 1.0000000180025095e-35 0.63951728429105625 -1.1166082036071348 1.1893634592811499 1.0000000180025095e-35 1.0000000180025095e-35 -0.42481670474064953 0.95876629299232141 0.15167621098142162
decision_type=2 2 2 2 2 2 2 2 2 2 2 2 2 2 2 2
left_child=1 9 -2 4 5 7 8 -4 -6 -1 -11 13 -13 -8 -14 -9
right_child=2 -3 3 -5 6 -7 11 15 -10 10 -12 12 14 -15 -16 -17
leaf_value=-0.17080468979921756 -0.23611316830007373 0.312245859433537 -0.17202957025548457 -0.1730088675541831 -0.1715154415261432 -0.17329314352021094 -0.17112350209107752 -0.17095145923843508 -0.17212998974671428 -0.17147502015094648 -0.17088382629852827 -0.17085761449317843 -0.17105536791551851 -0.17119465936009085 -0.17099746423557843 -0.17099748487424518
leaf_weight=0.3359977602958677 1.227283179759979 3.6335784047842026 0.77890473231673263 0.47193016670644272 0.42496282979845978 0.46120772883296002 0.54752024821937084 0.33823727630078793 0.70068241655826569 0.35764572583138943 0.31728678569197655 0.31578145362436749 0.35997610166668892 0.52510255016386576 0.47394032031297684 0.44086273014545441
leaf_count=12 6 14 22 13 13 11 18 13 19 11 11 11 12 17 16 15
internal_value=0 0.207047 -0.182867 -0.171676 -0.171558 -0.171912 -0.171345 -0.171503 -0.171898 -0.171067 -0.171197 -0.171065 -0.170977 -0.171158 -0.171022 -0.170978
internal_weight=0 4.64451 7.06639 5.83911 5.36718 2.01921 3.34797 1.558 1.12565 1.01093 0.674933 2.22232 1.1497 1.07262 0.833916 0.7791
internal_count=234 48 186 180 167 61 106 50 32 34 22 74 39 35 28 28
is_linear=0
shrinkage=0.2


Tree=19
num_leaves=17
num_cat=0
split_feature=48 48 14 44 48 31 35 25 22 44 1 48 44 2 44 41
split_gain=6.9771 0.155634 9.1247e-05 1.80721e-05 2.07399e-05 2.26779e-05 9.13358e-06 3.65254e-05 7.30893e-06 1.42505e-06 6.89589e-07 6.66361e-07 6.65869e-07 5.8258e-07 3.24559e-08 9.50228e-09
threshold=-1.1847619406300147 -1.6483213273599902 1.0000000180025095e-35 -0.98217961348082616 1.0000000180025095e-35 1.0000000180025095e-35 1.0000000180025095e-35 1.0000000180025095e-35 1.0000000180025095e-35 -1.4219896593812071 1.0000000180025095e-35 0.57676372894389061 0.14876077020114348 1.0000000180025095e-35 0.77706098335779361 1.0000000180025095e-35
decision_type=2 2 2 2 2 2 2 2 2 2 2 2 2 2 2 2
left_child=1 -1 3 9 5 6 7 -5 12 10 -2 -11 13 -6 -14 -16
right_child=2 -3 -4 4 8 -7 -8 -9 -10 11 -12 -13 14 -15 15 -17
leaf_value=0.2175562167483216 -0.16983279856527411 0.13621441572371401 -0.17401578543358553 -0.17327956207462136 -0.17083330843094771 -0.17254798332766805 -0.17043624903607868 -0.17055438584185403 -0.17129525301843895 -0.17066812981320842 -0.17028525049260479 -0.17025162618692896 -0.17044804191927365 -0.17049799562059595 -0.17034099771645073 -0.17039239920709834
leaf_weight=1.8265590891242027 0.34078259952366352 1.9404325783252716 0.41350152902305115 0.30414709448814414 0.36806781031191371 0.66882869042456139 0.49138779751956463 0.55701678805053234 0.66146925836801518 0.29589879885315873 0.22285980172455311 0.31961366906762123 0.33805035427212715 0.47438929602503777 0.25290405936539173 0.33364532515406609
leaf_count=14 16 8 10 7 13 18 19 21 21 11 9 13 13 18 10 13
internal_value=0 0.175656 -0.171148 -0.170938 -0.171122 -0.171595 -0.171124 -0.171517 -0.170728 -0.170241 -0.170012 -0.170452 -0.170516 -0.170644 -0.170399 -0.17037
internal_weight=0 3.76699 6.04256 5.62906 4.44991 2.02138 1.35255 0.861164 2.42853 1.17915 0.563642 0.615512 1.76706 0.842457 0.9246 0.586549
internal_count=234 22 212 202 153 65 47 28 88 49 25 24 67 31 36 23
is_linear=0
shrinkage=0.2


Tree=20
num_leaves=13
num_cat=0
split_feature=47 47 9 40 47 47 47 22 35 1 13 2
split_gain=17.7306 3.87589 1.87995 5.47261 1.53733 1.30889 0.357205 0.138056 0.00679948 4.04422e-05 6.383e-05 4.1618e-05
threshold=1.0000000180025095e-35 2.1361019557572178 1.0000000180025095e-35 1.0000000180025095e-35 1.0480088590443242 -0.40278193657286659 2.7405981205977139 1.0000000180025095e-35 1.0000000180025095e-35 1.0000000180025095e-35 1.0000000180025095e-35 1.0000000180025095e-35
decision_type=2 2 2 2 2 2 2 2 2 2 2 2
left_child=5 2 3 4 -2 8 -3 -7 9 10 -1 -12
right_child=1 6 -4 -5 -6 7 -8 -9 -10 -11 11 -13
leaf_value=-0.18324641194737748 0.09999939303965609 -0.18748955740262102 0.28656040952946848 -0.15340274790384167 0.25766392839796076 -0.10928134411014828 -0.030107149883792945 -0.047309852138446046 -0.19613161197661538 -0.1853314583660555 -0.18523424867448435 -0.1839643996953704
leaf_weight=1.7759676873683945 4.1514843329787308 1.0923105701804154 4.2541525959968558 2.2035071477293959 6.1213492155075073 2.3251879736781111 1.2224110960960386 3.7681663632392883 2.7127916812896729 1.8061635196208952 2.352676548063755 1.8396112993359564
leaf_count=18 21 11 15 14 24 20 9 26 19 17 22 18
internal_value=0 0.138189 0.171749 0.132601 0.193948 -0.144677 -0.104375 -0.0709578 -0.18751 -0.184502 -0.184251 -0.184677
internal_weight=0 19.0452 16.7305 12.4763 10.2728 16.5806 2.31472 6.09335 10.4872 7.77442 5.96826 4.19229
internal_count=234 94 74 59 45 140 20 46 94 75 58 40
is_linear=0
shrinkage=0.2


Tree=21
num_leaves=17
num_cat=0
split_feature=35 22 48 48 0 43 13 43 43 48 38 13 43 0 43 43
split_gain=9.86684 8.04263 4.03122 5.63818 4.91493 1.37116 2.83122 0.0357546 0.00613946 0.00368853 0.00279346 0.0142897 0.000268928 0.00012934 9.71926e-05 2.30973e-06
threshold=1.0000000180025095e-35 1.0000000180025095e-35 -0.44306692186205471 -0.90662630859202975 1.0000000180025095e-35 -1.0000000180025095e-35 1.0000000180025095e-35 -1.3472053698959632 -0.77071245417389211 -1.7101292455906534 1.0000000180025095e-35 1.0000000180025095e-35 -0.30951812159623526 1.0000000180025095e-35 -0.54011528788506369 0.95876629299232141
decision_type=2 2 2 2 2 2 2 2 2 2 2 2 2 2 2 2
left_child=1 2 3 5 -5 8 -7 -3 9 -1 11 -4 14 -11 -13 -12
right_child=-2 7 10 4 -6 6 -8 -9 -10 13 15 12 -14 -15 -16 -17
leaf_value=-0.19679170934211096 0.26315878569064721 0.16420854775056443 -0.20991182428318467 -0.033983538762468582 0.34033824195277795 0.19961026220191669 -0.18629227906676898 0.13620227595823134 -0.20224234142641892 -0.1838052606501277 -0.18273630677316977 -0.18551662028357868 -0.18350453635036168 -0.18094274533952065 -0.18749445042032814 -0.18238231767761182
leaf_weight=1.0283178091049201 5.250227063894271 3.6786022782325745 1.1716771870851515 3.1489543765783319 2.5307254046201706 1.3231651335954675 1.7881937921047211 3.6155306398868552 1.3890286460518835 1.5949902981519704 1.251208193600178 1.9348668530583379 1.6639634147286417 1.045102670788765 2.04344292730093 1.7950763329863546
leaf_count=7 19 14 7 18 9 6 17 13 11 16 13 18 17 12 18 19
internal_value=0 -0.0333254 -0.0898271 -0.0202387 0.132805 -0.126648 -0.0221798 0.150326 -0.190918 -0.18663 -0.187562 -0.189813 -0.18564 -0.182672 -0.186533 -0.182528
internal_weight=0 31.0028 23.7087 13.8485 5.67968 8.1688 3.11136 7.29413 5.05744 3.66841 9.86023 6.81395 5.64227 2.64009 3.97831 3.04628
internal_count=234 215 188 96 27 69 23 27 46 35 92 60 53 28 36 32
is_linear=0
shrinkage=0.2


Tree=22
num_leaves=18
num_cat=0
split_feature=48 38 43 13 43 43 2 43 43 31 40 48 0 31 43 43 43
split_gain=17.6442 9.79595 10.1604 0.700723 1.04496 0.238527 0.204728 0.184759 0.0883806 0.098128 0.00636141 0.00559532 0.00211079 0.000762756 0.000147133 5.15222e-05 1.58876e-06
threshold=-0.44306692186205471 1.0000000180025095e-35 -1.231906786751549 1.0000000180025095e-35 -1.0000000180025095e-35 -1.3472053698959632 1.0000000180025095e-35 -0.54011528788506369 -0.078920955307406782 1.0000000180025095e-35 1.0000000180025095e-35 -0.90662630859202975 1.0000000180025095e-35 1.0000000180025095e-35 1.0000000180025095e-35 1.5929085002865997 0.26697479412583586
decision_type=2 2 2 2 2 2 2 2 2 2 2 2 2 2 2 2 2
left_child=3 2 5 10 -5 -2 8 -8 9 -4 11 12 -1 14 -12 -3 -16
right_child=1 15 6 4 -6 -7 7 -9 -10 -11 13 -13 -14 -15 16 -17 -18
leaf_value=-0.19953096811336932 -0.18989787607390499 -0.18596626029149374 0.29027711903298176 -0.0054740271324214013 -0.19324043442624511 -0.081953602616139487 0.23990026886182042 0.16615189742147074 0.2224841333313462 0.24452140389521257 -0.18896929202693658 -0.20813799410782111 -0.18837019720558157 -0.19150935815313053 -0.1858595855046497 -0.18746939891123837 -0.18619711088433874
leaf_weight=1.2477968633174896 1.9869172871112823 1.7852509394288056 3.1319390535354659 2.3456481024622917 2.3971336781978598 1.3928515315055874 2.798834353685379 2.6410152018070212 2.9976734220981607 4.6709312200546265 0.97989123314619098 1.6794049292802791 1.4838982969522476 2.6524683833122253 1.1094605177640917 1.8650075346231458 1.1219439208507536
leaf_count=9 16 16 12 16 17 8 11 10 12 18 10 9 14 20 10 16 10
internal_value=0 0.114109 0.17008 -0.163964 -0.100376 -0.145412 0.235737 0.204096 0.251673 0.262887 -0.193316 -0.199053 -0.193468 -0.188999 -0.186926 -0.186734 -0.186029
internal_weight=0 23.2704 19.6202 15.0176 4.74278 3.37977 16.2404 5.43985 10.8005 7.80287 10.2749 4.4111 2.7317 5.86376 3.2113 3.65026 2.2314
internal_count=234 119 87 115 33 24 63 21 42 30 82 32 23 50 30 32 20
is_linear=0
shrinkage=0.2


Tree=23
num_leaves=17
num_cat=0
split_feature=43 43 45 13 43 43 45 43 43 13 45 45 43 43 43 2
split_gain=20.8945 1.63276 1.15217 1.29393 0.364159 0.0435732 0.00133992 0.00139931 0.00136862 0.000392769 0.00067658 0.000331859 4.79163e-05 1.32159e-05 6.34315e-06 1.86409e-08
threshold=0.95876629299232141 1.1893634592811499 0.87991608633683449 1.0000000180025095e-35 0.26697479412583586 1.5929085002865997 -1.0432743300293918 -0.88601103731830644 -1.3472053698959632 1.0000000180025095e-35 -0.6345963665515687 -1.3557927726889036 0.15167621098142162 -0.6554138710294779 -1.231906786751549 1.0000000180025095e-35
decision_type=2 2 2 2 2 2 2 2 2 2 2 2 2 2 2 2
left_child=2 -2 4 -4 6 -3 11 8 -8 10 12 14 -9 -11 -1 -15
right_child=1 5 3 -5 -6 -7 7 9 -10 13 -12 -13 -14 15 -16 -17
leaf_value=-0.17935666819968485 0.0795390965675008 0.28006257525076195 0.065355768981549267 -0.18110298814045075 -0.070034828094184307 0.25022381422093826 -0.18139527936916328 -0.18137660179846724 -0.19044254345767586 -0.17968447741024651 -0.18666618000742649 -0.17423885814595641 -0.17964575994662579 -0.17877430185662524 -0.17855493236753389 -0.17881426445254345
leaf_weight=0.83886472135782253 2.5402511209249479 3.6173563897609711 1.9837456420063964 1.4936619848012924 1.3083704411983479 4.2663614749908447 1.2466163858771326 1.2892570979893216 1.4430005550384528 1.0380279421806338 0.99390220642089877 0.94179285690188663 1.269994430243969 0.83220114558935132 0.74555857479572307 1.0636356696486473
leaf_count=11 14 13 16 17 13 16 14 15 13 13 9 19 16 11 10 14
internal_value=0 0.218984 -0.142772 -0.0405064 -0.170103 0.263915 -0.181291 -0.182414 -0.186249 -0.180823 -0.182238 -0.177212 -0.180518 -0.179111 -0.178979 -0.178797
internal_weight=0 10.424 16.4886 3.47741 13.0112 7.88372 11.7029 9.17664 2.68962 6.48702 3.55315 2.52622 2.55925 2.93386 1.58442 1.89584
internal_count=234 43 191 33 158 29 145 105 27 78 40 40 31 38 21 25
is_linear=0
shrinkage=0.2


Tree=24
num_leaves=17
num_cat=0
split_feature=44 47 44 47 43 31 48 43 42 44 44 45 31 43 42 44
split_gain=10.9257 0.077479 1.13533e-05 4.90204e-05 1.27784e-05 5.31001e-06 3.03089e-06 6.04455e-06 2.57191e-06 1.8045e-06 9.04973e-07 5.81385e-07 2.12909e-07 8.77029e-08 3.75375e-08 8.8463e-10
threshold=-1.4848197840061459 2.1361019557572178 -0.60519948558683645 1.0000000180025095e-35 -0.77071245417389211 1.0000000180025095e-35 -1.0000000180025095e-35 1.1893634592811499 1.0000000180025095e-35 0.77706098335779361 -0.98217961348082616 0.63951728429105625 1.0000000180025095e-35 1.0000000180025095e-35 1.0000000180025095e-35 1.0000000180025095e-35
decision_type=2 2 2 2 2 2 2 2 2 2 2 2 2 2 2 2
left_child=-1 2 5 4 9 8 7 -6 10 -4 -2 12 15 -13 -15 -8
right_child=1 -3 3 -5 6 -7 11 -9 -10 -11 -12 13 -14 14 -16 -17
leaf_value=0.27164157115301596 -0.1698716939574573 -0.22903549843502799 -0.17084498885894334 -0.17260026277933282 -0.17105814088648419 -0.17060791722606281 -0.17017269730924522 -0.16974366975534874 -0.17021135732064985 -0.17146241793307543 -0.16944276485304721 -0.16996073012797941 -0.16995895868274719 -0.16986713163279277 -0.16975664058976114 -0.17018866934651883
leaf_weight=3.2119009792804718 0.35373681969940651 1.0893040150403974 0.56607090122997794 0.46531230956315983 0.3464165367186075 0.52929424308240403 0.26558541133999825 0.23476623930037022 0.50110795348882675 0.2845003753900528 0.44335762970149506 0.27352134324610233 0.25047688558697701 0.28838144242763519 0.21445009484887123 0.29034904949367046
leaf_count=14 16 6 20 12 12 20 11 11 21 9 24 12 11 13 10 12
internal_value=0 -0.18045 -0.170478 -0.17069 -0.170395 -0.170074 -0.170137 -0.170527 -0.169856 -0.171052 -0.169633 -0.169993 -0.170112 -0.16987 -0.16982 -0.170181
internal_weight=0 6.39663 5.30733 3.47983 3.01452 1.8275 2.16395 0.581183 1.2982 0.850571 0.797094 1.58276 0.806411 0.776353 0.502832 0.555934
internal_count=234 220 214 133 121 81 92 23 61 29 40 69 34 35 23 23
is_linear=0
shrinkage=0.2


Tree=25
num_leaves=17
num_cat=0
split_feature=47 44 47 41 0 47 44 47 4 44 3 17 25 44 44 44
split_gain=3.26418 4.55781 0.139308 0.136605 0.000956029 9.80314e-06 7.60424e-06 9.34272e-06 2.26721e-06 1.11714e-06 1.05906e-06 4.00042e-07 2.22648e-07 2.78308e-08 1.53936e-08 6.82678e-10
threshold=0.56441192717192723 -0.98217961348082616 1.2898073249805229 1.0000000180025095e-35 1.0000000180025095e-35 -0.40278193657286659 -0.85651957084949604 1.0000000180025095e-35 1.0000000180025095e-35 1.5310212391457743 1.0000000180025095e-35 1.0000000180025095e-35 1.0000000180025095e-35 1.028381068620454 1.0000000180025095e-35 1.0000000180025095e-35
decision_type=2 2 2 2 2 2 2 2 2 2 2 2 2 2 2 2
left_child=5 3 -3 -2 -5 8 12 10 11 -10 -8 13 -7 14 -1 -13
right_child=1 2 -4 4 -6 6 7 -9 9 -11 -12 15 -14 -15 -16 -17
leaf_value=-0.16944636009565694 -0.30881837916850247 0.17563174500195122 0.26131638563964127 -0.18242179422496374 -0.16909996801491692 -0.16951087007014332 -0.16995866223966505 -0.17124017785096579 -0.1703557900385082 -0.16975730685013241 -0.17037479437389558 -0.16967627037442451 -0.16976990929337768 -0.16939782649938195 -0.16951493706537449 -0.16966113629507487
leaf_weight=0.38588806800544284 0.48540409840643384 1.5596396923065188 1.4784502759575842 0.47344371676445007 0.3954667579382658 0.27326241694390785 0.49331679940223649 0.48277656733989716 0.21713710576295842 0.29323344305157661 0.48528722487390041 0.22931545600295067 0.25806594453752041 0.34259189292788506 0.19816963747143745 0.2483382448554039
leaf_count=20 6 10 11 5 24 14 23 16 9 14 19 11 12 18 10 12
internal_value=0 0.0813049 0.217329 -0.223834 -0.176359 -0.169974 -0.170285 -0.17052 -0.169651 -0.170012 -0.170165 -0.16952 -0.169637 -0.169443 -0.16947 -0.169668
internal_weight=0 4.3924 3.03809 1.35431 0.86891 3.90738 1.99271 1.46138 1.91467 0.510371 0.978604 1.4043 0.531328 0.92665 0.584058 0.477654
internal_count=234 56 21 35 29 178 84 58 94 23 42 71 26 48 30 23
is_linear=0
shrinkage=0.2


Tree=26
num_leaves=15
num_cat=0
split_feature=46 48 47 16 9 7 47 44 46 48 44 44 2 45
split_gain=20.1555 3.39409 2.18222 0.619718 1.00706 2.58917 0.00984966 0.00268262 0.00115482 0.000379287 0.00039262 3.63932e-05 1.3068e-05 6.18988e-06
threshold=0.62832158161253837 -1.1847619406300147 1.0480088590443242 1.0000000180025095e-35 1.0000000180025095e-35 1.0000000180025095e-35 1.0000000180025095e-35 -0.16538933637718142 1.0000000180025095e-35 1.0000000180025095e-35 1.5310212391457743 1.028381068620454 1.0000000180025095e-35 1.3607136904283912
decision_type=2 2 2 2 2 2 2 2 2 2 2 2 2 2
left_child=2 -2 6 -3 5 -5 7 -1 9 10 -9 12 13 -11
right_child=1 3 -4 4 -6 -7 -8 8 -10 11 -12 -13 -14 -15
leaf_value=-0.1891015500556821 -0.086484170301358174 0.25616380475971695 0.096054544297223238 -0.055414612285131927 0.247167119331411 0.22051821603848901 -0.20190448446695997 -0.18579615323371604 -0.18564446178013849 -0.18029858783161398 -0.18022440235402204 -0.17861883832942893 -0.17930276967705805 -0.17972464121773787
leaf_weight=2.2611022070050248 1.9239622130990053 4.680199742317197 1.2083119228482235 2.2087663635611534 3.8036253303289413 3.540749654173851 1.1957361996173848 0.9086658060550693 2.0919336304068565 1.6615456864237785 1.1412536203861234 1.3484705984592436 1.413959316909313 1.3724822402000427
leaf_count=20 18 19 7 17 15 16 7 9 19 20 14 18 18 17
internal_value=0 0.162839 -0.161361 0.196541 0.167331 0.114514 -0.184582 -0.182884 -0.181469 -0.180356 -0.182694 -0.179529 -0.179805 -0.180039
internal_weight=0 16.1573 14.6035 14.2333 9.55314 5.74952 13.3951 12.1994 9.93831 7.84638 2.04992 5.79646 4.44799 3.03403
internal_count=234 85 149 67 48 33 142 135 115 96 23 73 55 37
is_linear=0
shrinkage=0.2


Tree=27
num_leaves=16
num_cat=0
split_feature=44 3 44 16 1 14 42 48 4 44 1 42 44 48 44
split_gain=7.58736 6.86343 12.117 2.16916 1.16404 0.0192524 0.0112736 0.0145234 0.0050794 0.0162573 0.00347725 0.000565669 8.14553e-05 1.77595e-05 5.74369e-06
threshold=-0.85651957084949604 1.0000000180025095e-35 1.0000000180025095e-35 1.0000000180025095e-35 1.0000000180025095e-35 1.0000000180025095e-35 1.0000000180025095e-35 0.57676372894389061 1.0000000180025095e-35 0.65140094072646348 1.0000000180025095e-35 1.0000000180025095e-35 1.5310212391457743 1.3493627068271825 0.14876077020114348
decision_type=2 2 2 2 2 2 2 2 2 2 2 2 2 2 2
left_child=6 2 3 -2 -5 8 10 -8 11 -10 13 -4 -11 -1 -13
right_child=1 -3 5 4 -6 -7 7 -9 9 12 -12 14 -14 -15 -16
leaf_value=-0.17651019343796748 -0.046381034561537977 0.24737056623139081 -0.18342801649122542 0.21865742574427449 0.061495313690183601 -0.21347298543779078 -0.18635569459211507 -0.21742921848876329 -0.212107710546346 -0.1821518381629097 -0.18951043626746952 -0.17881303804782803 -0.17950726089656918 -0.17778121007427347 -0.17818889938787072
leaf_weight=0.75407300144434231 2.2066993042826697 5.8659727126359931 1.5610431358218186 6.6642005443572998 2.6286632418632507 1.1168158650398252 1.2687425687909129 1.1442889049649236 1.0024586021900179 0.8138739988207816 1.8950964882969856 1.2877280712127688 1.0895395427942274 1.0548771172761917 1.0881504490971563
leaf_count=12 16 22 18 27 17 7 14 7 7 10 16 17 14 15 15
internal_value=0 0.0577363 0.000571059 0.131873 0.174201 -0.189126 -0.190453 -0.201091 -0.185152 -0.191494 -0.183523 -0.18047 -0.180638 -0.177251 -0.178527
internal_weight=0 25.3251 19.4592 11.4996 9.29286 7.95961 6.11708 2.41303 6.84279 2.90587 3.70405 3.93692 1.90341 1.80895 2.37588
internal_count=234 170 148 60 44 88 64 21 81 31 43 50 24 27 32
is_linear=0
shrinkage=0.2


Tree=28
num_leaves=18
num_cat=0
split_feature=44 44 3 44 31 44 43 44 47 42 31 43 43 43 44 38 43
split_gain=13.3462 10.8024 9.70998 0.543718 0.21224 0.283467 0.0369871 0.00408364 0.0049661 0.000913082 0.000557495 0.000483718 0.000379789 0.000114976 7.01868e-05 7.48364e-05 1.08433e-05
threshold=-0.16538933637718142 1.028381068620454 1.0000000180025095e-35 1.0000000180025095e-35 1.0000000180025095e-35 0.14876077020114348 1.0740648761367357 -0.47953944295550643 2.7405981205977139 1.0000000180025095e-35 1.0000000180025095e-35 -1.1166082036071348 1.5929085002865997 -0.078920955307406782 -0.85651957084949604 1.0000000180025095e-35 0.15167621098142162
decision_type=2 2 2 2 2 2 2 2 2 2 2 2 2 2 2 2 2
left_child=7 2 3 -2 5 -5 -3 8 9 10 14 -11 -8 -6 15 -1 -16
right_child=1 6 -4 4 13 -7 12 -9 -10 11 -12 -13 -14 -15 16 -17 -18
leaf_value=-0.17743212467349784 0.1515041109626723 -0.22540335913216103 -0.19088967080941577 0.2322708288971585 0.21728408979831479 0.32102590328607455 -0.1858963198629825 -0.19751087683852761 -0.19773271645435719 -0.183181632993692 -0.18390451782292211 -0.18893235776531778 -0.18141327972341018 0.21542433882786172 -0.18109529572519278 -0.17990518438183456 -0.18017013891809219
leaf_weight=0.81425658985972194 3.2584434151649537 1.1905461773276318 2.6654191464185706 3.32164219021797 3.6327455937862405 2.5400932729244232 1.629323408007622 0.97738519310951133 0.93650794029235918 1.3413880020380022 1.8858852908015249 1.0376615226268766 1.4100449010729788 2.0974662601947776 0.89797287806868453 1.2269666418433189 1.1631308719515798
leaf_count=13 15 7 21 15 17 9 15 7 6 14 19 9 16 10 12 15 14
internal_value=0 0.0913268 0.160598 0.223685 0.243974 0.270731 -0.195521 -0.185213 -0.183921 -0.182375 -0.181058 -0.18569 -0.183817 0.216603 -0.17975 -0.178919 -0.180573
internal_weight=0 21.7457 17.5158 14.8504 11.5919 5.86174 4.22991 10.2812 9.30377 8.36726 5.98821 2.37905 3.03937 5.73021 4.10233 2.04122 2.0611
internal_count=234 125 87 66 51 24 38 109 102 96 73 23 31 27 54 28 26
is_linear=0
shrinkage=0.2


Tree=29
num_leaves=18
num_cat=0
split_feature=46 43 4 43 43 43 43 46 46 47 43 43 43 48 43 48 43
split_gain=19.8985 1.70937 0.0873883 0.000649189 0.000203154 0.000265073 0.000205622 0.000167271 0.000120805 0.000101343 2.73483e-05 3.14568e-05 2.29029e-05 1.89341e-05 1.7175e-05 2.93794e-06 4.86819e-08
threshold=-1.0622702998485356 1.0740648761367357 1.0000000180025095e-35 0.8434677098479072 -0.30951812159623526 -0.078920955307406782 -1.0013096204627205 0.62832158161253837 1.19185220876623 1.0480088590443242 0.15167621098142162 0.26697479412583586 -0.6554138710294779 0.57676372894389061 -1.3472053698959632 0.57676372894389061 -1.3472053698959632
decision_type=2 2 2 2 2 2 2 2 2 2 2 2 2 2 2 2 2
left_child=2 3 -1 4 6 -6 8 12 14 10 13 -12 -8 -7 -2 -14 -10
right_child=1 -3 -4 -5 5 9 7 -9 16 -11 11 -13 15 -15 -16 -17 -18
leaf_value=0.24856445085802459 -0.17821730144711007 0.072843369769993421 0.20902131419795508 -0.18231326711424059 -0.1813700032533852 -0.1782772742831206 -0.17696218395592639 -0.17263094712920282 -0.1763578924971384 -0.17957663364103563 -0.17565490575912476 -0.17752351637719663 -0.175945524812264 -0.17683608456956612 -0.17943842031412471 -0.17539324855919525 -0.17628350922535188
leaf_weight=4.4472729265689868 1.0118155367672441 1.193768486380576 4.4949081391096115 1.1447017937898625 0.91606324166059483 0.83223161473870433 0.96869000047445131 0.66199411824345578 0.66973059624433517 0.79825007170438755 0.86759877204894997 0.6163715198636055 1.0087007805705086 0.64899338781833649 0.8459007441997507 0.62341860309243213 0.74172928184270859
leaf_count=19 15 7 19 13 11 12 15 17 11 10 15 9 17 10 11 11 12
internal_value=0 -0.155696 0.228688 -0.177776 -0.177313 -0.178319 -0.176593 -0.175469 -0.177714 -0.177576 -0.177038 -0.176431 -0.176192 -0.177646 -0.178773 -0.175735 -0.176319
internal_weight=0 13.55 8.94218 12.3562 11.2115 4.67951 6.53198 3.2628 3.26918 3.76345 2.9652 1.48397 2.60081 1.48123 1.85772 1.63212 1.41146
internal_count=234 196 38 189 176 67 109 60 49 56 46 24 43 22 26 28 23
is_linear=0
shrinkage=0.2


Tree=30
num_leaves=14
num_cat=0
split_feature=44 47 47 44 13 31 31 42 42 44 44 44 0
split_gain=7.77752 0.0473298 8.06553e-06 1.75502e-05 2.95701e-05 2.76383e-06 1.68032e-06 1.56176e-06 1.24834e-06 5.15397e-07 1.49502e-07 2.9637e-08 8.07317e-09
threshold=-1.4848197840061459 2.1361019557572178 -0.40278193657286659 -0.60519948558683645 1.0000000180025095e-35 1.0000000180025095e-35 1.0000000180025095e-35 1.0000000180025095e-35 1.0000000180025095e-35 0.53177597689751677 -1.0000000180025095e-35 1.028381068620454 1.0000000180025095e-35
decision_type=2 2 2 2 2 2 2 2 2 2 2 2 2
left_child=-1 2 8 6 -5 -6 7 -4 11 10 -10 -2 -12
right_child=1 -3 3 4 5 -7 -8 -9 9 -11 12 -13 -14
leaf_value=0.24032803268684033 -0.1690366819104536 -0.21948719747973913 -0.16876779837791356 -0.17150386786803026 -0.16982566954463948 -0.16902889803014198 -0.16957239526200504 -0.16935525061404211 -0.16938337973832265 -0.16953379552212036 -0.16920698038945237 -0.16894325083453843 -0.16915125455367541
leaf_weight=2.7511816322803497 0.34664981253445115 0.93733509629964817 0.36509994789957978 0.50910891592502616 0.45884427987039089 0.28065891191363335 0.39376890566200018 0.35903483629226685 0.22645362652838219 0.43612262606620789 0.22964226081967365 0.22327368333935738 0.19005168043076992
leaf_count=14 21 6 26 16 21 17 20 20 12 23 13 14 11
internal_value=0 -0.179018 -0.169579 -0.169815 -0.170331 -0.169523 -0.16924 -0.169059 -0.16924 -0.169366 -0.169252 -0.169 -0.169182
internal_weight=0 4.95604 4.01871 2.36652 1.24861 0.739503 1.1179 0.724135 1.65219 1.08227 0.646148 0.569923 0.419694
internal_count=234 220 214 120 54 38 66 46 94 59 36 35 24
is_linear=0
shrinkage=0.2


Tree=31
num_leaves=18
num_cat=0
split_feature=45 45 44 48 48 48 14 46 44 3 48 44 40 5 1 1 44
split_gain=4.71788 3.56006 0.104849 0.00442254 0.000559944 0.000147868 7.12499e-05 5.58994e-06 3.51299e-06 1.58305e-06 1.50052e-06 3.09204e-07 2.88147e-07 2.39962e-07 8.9851e-08 9.96332e-09 2.98062e-09
threshold=-0.87499516859734705 -1.2355933716660144 -1.2335022821094801 -1.1847619406300147 -1.1847619406300147 -0.78301047213070307 1.0000000180025095e-35 1.0000000180025095e-35 -0.85651957084949604 1.0000000180025095e-35 -1.061146104168688 0.65140094072646348 1.0000000180025095e-35 1.0000000180025095e-35 1.0000000180025095e-35 1.0000000180025095e-35 1.0000000180025095e-35
decision_type=2 2 2 2 2 2 2 2 2 2 2 2 2 2 2 2 2
left_child=1 4 -2 -4 -1 -5 7 11 -9 -10 14 12 13 16 -6 -13 -7
right_child=2 -3 3 5 10 6 -8 8 9 -11 -12 15 -14 -15 -16 -17 -18
leaf_value=-0.17864103155466135 -0.27211723094372742 0.28271811363013782 -0.19226582035770701 -0.1734915298166857 -0.16908020753583486 -0.16900150459286098 -0.17259883655229483 -0.16872504107149827 -0.17006260356267466 -0.16942122527505885 -0.16827943076665261 -0.16862617742248262 -0.16869227606215856 -0.16874245584340003 -0.16890061328022143 -0.16868794224978023 -0.16903477912299772
leaf_weight=0.37522356957197223 0.49092454649508033 2.2582478132098913 0.41076271981000978 0.42300096713006574 0.27460593078285489 0.19550191424787022 0.25413225218653668 0.197269007563591 0.26640052162110794 0.36461036652326584 0.15006667468696799 0.22050414700061083 0.27033798955380917 0.17488863226026297 0.18752077873796225 0.19851961266249418 0.23971749655902386
leaf_count=5 15 14 3 12 17 12 9 14 12 19 14 16 19 12 12 14 15
internal_value=0 0.144211 -0.186027 -0.172884 -0.172558 -0.170046 -0.169434 -0.169056 -0.169462 -0.169692 -0.168829 -0.168797 -0.168864 -0.16894 -0.169007 -0.168655 -0.16902
internal_weight=0 3.24566 3.70657 3.21565 0.987417 2.80488 2.38188 2.12775 0.82828 0.631011 0.612193 1.29947 0.880446 0.610108 0.462127 0.419024 0.435219
internal_count=234 62 172 157 48 154 142 133 45 31 43 88 58 39 29 30 27
is_linear=0
shrinkage=0.2


Tree=32
num_leaves=15
num_cat=0
split_feature=46 47 47 40 44 45 47 44 46 38 31 2 25 44
split_gain=13.9171 3.11961 1.86774 1.05019 0.575319 0.070128 0.0188608 0.00132593 0.000420377 5.95753e-05 6.54236e-05 9.38508e-05 0.00011317 2.5228e-06
threshold=0.62832158161253837 1.2898073249805229 2.1361019557572178 1.0000000180025095e-35 -0.85651957084949604 -0.87499516859734705 1.0000000180025095e-35 -0.16538933637718142 1.0000000180025095e-35 1.0000000180025095e-35 1.0000000180025095e-35 1.0000000180025095e-35 1.0000000180025095e-35 0.53177597689751677
decision_type=2 2 2 2 2 2 2 2 2 2 2 2 2 2
left_child=1 6 3 5 -5 -2 7 -1 9 10 11 12 -9 -12
right_child=2 -3 -4 4 -6 -7 -8 8 -10 -11 13 -13 -14 -15
leaf_value=-0.18346333900774181 0.19706814704914391 0.22549210758462521 -0.061017733778064367 0.17297380703664764 0.031612421142202418 0.23638559354764987 -0.20294880757402553 -0.17991212388023625 -0.18022105615986045 -0.1750278076945857 -0.17547059491206984 -0.17589499975672412 -0.17695414784469818 -0.17597986524844711
leaf_weight=1.7378666326403598 3.1941130496561518 0.80910491198301393 1.5439389348030079 2.1683691740036011 2.4559718891978264 4.2015114426612845 1.4606849998235709 0.84623951464891445 1.5855782330036161 0.87331875413656224 0.62874116376042355 1.1901294291019442 1.331294097006321 1.0207824707031248
leaf_count=20 18 5 17 13 15 22 9 11 19 16 11 20 21 17
internal_value=0 -0.153136 0.14606 0.172658 0.0978973 0.219405 -0.181834 -0.178487 -0.17733 -0.176552 -0.176818 -0.177323 -0.178104 -0.175786
internal_weight=0 11.4837 13.5639 12.02 4.62434 7.39562 10.6746 9.21395 7.47608 5.89051 5.01719 3.36766 2.17753 1.64952
internal_count=234 149 85 68 28 40 144 135 115 96 80 52 32 28
is_linear=0
shrinkage=0.2


Tree=33
num_leaves=17
num_cat=0
split_feature=44 3 44 48 1 46 44 22 46 1 5 46 45 13 45 44
split_gain=5.40665 4.33874 8.26854 2.23154 0.76914 0.979874 1.43109 0.0110347 0.00315559 0.00314021 0.00684361 0.000632894 0.000201006 0.000124429 1.56732e-05 5.67119e-09
threshold=-0.85651957084949604 1.0000000180025095e-35 -1.0000000180025095e-35 -0.90662630859202975 1.0000000180025095e-35 -0.49873967269484426 -0.60519948558683645 1.0000000180025095e-35 1.19185220876623 1.0000000180025095e-35 1.0000000180025095e-35 -1.0622702998485356 -1.3557927726889036 1.0000000180025095e-35 1.3607136904283912 0.53177597689751677
decision_type=2 2 2 2 2 2 2 2 2 2 2 2 2 2 2 2
left_child=7 2 3 -2 5 6 -5 8 -1 11 -11 13 -10 -4 -14 -12
right_child=1 -3 9 4 -6 -7 -8 -9 12 10 15 -13 14 -15 -16 -17
leaf_value=-0.18748131797469123 -0.10478788500825641 0.21535246413067979 -0.17470998108308639 0.20847732385195245 0.041594217941084019 0.28288052269433944 -0.033816687429313423 -0.20668643291015895 -0.17773646934248696 -0.19594581196997055 -0.17588478440690866 -0.18217064417499709 -0.1731821084303608 -0.17784136523647043 -0.17462026381162696 -0.17585675956259933
leaf_weight=1.4824444837868243 1.6169892624020565 5.0350947678089133 0.94584057107568464 2.8405984342098223 1.9944117069244383 2.4857287555933061 1.484740845859051 0.74944645166397084 1.1317940577864649 1.6483871079981327 0.57769647985696793 1.204992379993193 0.47598545253276803 1.095472190529108 0.8345954418182373 0.57763856649398804
leaf_count=16 12 22 18 15 10 9 14 4 17 17 10 16 11 17 16 10
internal_value=0 0.0528755 0.00321167 0.11117 0.150828 0.182814 0.125306 -0.184449 -0.180202 -0.182771 -0.187673 -0.178536 -0.175784 -0.17639 -0.174098 -0.175871
internal_weight=0 21.5076 16.4725 10.4225 8.80548 6.81107 4.32534 4.67427 3.92482 6.05003 2.80372 3.24631 2.44237 2.04131 1.31058 1.15534
internal_count=234 170 148 60 48 38 29 64 60 88 37 51 44 35 27 20
is_linear=0
shrinkage=0.2


Tree=34
num_leaves=19
num_cat=0
split_feature=44 44 43 48 44 5 17 43 48 44 44 43 47 48 47 44 44 44
split_gain=9.46788 7.32549 3.66715 0.841035 0.132409 0.0806336 0.0570696 0.0152609 0.00314587 0.00329653 0.00186597 0.000269424 0.000216174 0.000216388 0.000108831 4.49534e-05 5.26709e-05 4.96607e-06
threshold=-0.16538933637718142 1.028381068620454 -1.231906786751549 -1.0000000180025095e-35 0.53177597689751677 1.0000000180025095e-35 1.0000000180025095e-35 1.0740648761367357 -1.7101292455906534 -0.60519948558683645 1.0000000180025095e-35 1.5929085002865997 0.56441192717192723 -0.90662630859202975 -1.0000000180025095e-35 -0.85651957084949604 -1.2335022821094801 -0.98217961348082616
decision_type=2 2 2 2 2 2 2 2 2 2 2 2 2 2 2 2 2 2
left_child=8 2 -2 -4 6 -6 -5 -3 -1 12 -8 -9 14 17 -10 16 -16 -14
right_child=1 7 3 4 5 -7 10 11 9 -11 -12 -13 13 -15 15 -17 -18 -19
leaf_value=-0.19141377600055914 -0.11749622347102047 -0.20921837618006253 0.063610543520898025 0.24090092572812952 0.14105385645781329 0.2024203788074336 0.20888248397371575 -0.18126061627965206 -0.17688378824194512 -0.18921914263488282 0.20037018198642054 -0.17690884256264794 -0.17392339278614188 -0.17758975168424446 -0.17972295279767439 -0.18038538192468681 -0.1774337990939388 -0.1729626853391609
leaf_weight=1.0105030164122579 1.8789908364415193 0.97046988829970304 2.0153990089893368 3.0301702022552437 1.684718057513237 1.7421287000179291 2.1216205060482025 1.2734377831220629 1.2122417092323301 1.1543928608298335 2.0021662414073944 1.0288185924291608 0.440435290336609 1.2266761623322964 0.80599772185087193 0.84125214815139759 0.80221396684646595 0.42090302705764771
leaf_count=8 18 7 11 15 10 10 11 15 19 11 12 16 10 19 10 10 12 10
internal_value=0 0.0820461 0.143143 0.182023 0.204577 0.172251 0.220062 -0.188183 -0.180991 -0.179466 0.20475 -0.179316 -0.177508 -0.175884 -0.178434 -0.179201 -0.178581 -0.173454
internal_weight=0 17.7479 14.4752 12.5962 10.5808 3.42685 7.15396 3.27273 7.91462 6.90411 4.12379 2.30226 5.74972 2.08801 3.66171 2.44946 1.60821 0.861338
internal_count=234 125 87 69 58 20 38 38 109 101 23 31 90 39 51 32 22 20
is_linear=0
shrinkage=0.2


Tree=35
num_leaves=16
num_cat=0
split_feature=46 43 13 43 13 42 43 43 46 22 40 43 31 43 43
split_gain=13.5266 3.05316 0.103536 0.00245215 0.000156518 0.000362276 0.000113816 0.000190945 4.60795e-05 2.70086e-05 1.07601e-05 8.26015e-06 2.38034e-06 9.82022e-07 1.47706e-06
threshold=-1.0622702998485356 1.3046620424255642 1.0000000180025095e-35 0.95876629299232141 1.0000000180025095e-35 1.0000000180025095e-35 -1.4625039530403774 -0.42481670474064953 -0.49873967269484426 1.0000000180025095e-35 1.0000000180025095e-35 -0.30951812159623526 1.0000000180025095e-35 -1.1166082036071348 -0.6554138710294779
decision_type=2 2 2 2 2 2 2 2 2 2 2 2 2 2 2
left_child=2 3 -1 4 5 6 -2 -8 -9 11 -10 12 13 -6 -15
right_child=1 -3 -4 -5 9 -7 7 8 10 -11 -12 -13 -14 14 -16
leaf_value=0.22613306562267496 -0.1774767628041399 0.29298863910919287 0.1790032634881743 -0.18549839644475005 -0.17320958918333965 -0.17855438215266953 -0.17050881826956044 -0.17347370611625079 -0.17585974427704099 -0.17468281668907559 -0.17487963869710482 -0.17410525890550532 -0.17296496518689808 -0.17373427936238456 -0.17332173911283877
leaf_weight=3.653676405549052 0.45323128253221412 0.58862316608429033 3.8074739426374435 0.93512367457151491 0.43524606525898013 1.1905138641595838 0.50074325874447767 0.7615113444626328 0.82724407687782975 1.1938621550798414 0.97748194634914398 0.83270518109202418 0.46294031292200077 0.79118745774030697 0.61857364326715436
leaf_count=19 7 2 19 9 10 17 19 17 14 23 19 17 11 17 14
internal_value=0 -0.149643 0.202082 -0.175748 -0.17474 -0.175538 -0.174518 -0.174081 -0.174778 -0.173873 -0.175329 -0.173565 -0.17337 -0.173472 -0.173553
internal_weight=0 10.569 7.46115 9.98036 9.04524 4.71073 3.52021 3.06698 2.56624 4.33451 1.80473 3.14065 2.30795 1.84501 1.40976
internal_count=234 196 38 194 185 93 76 69 50 92 33 69 52 41 31
is_linear=0
shrinkage=0.2


Tree=36
num_leaves=18
num_cat=0
split_feature=44 48 14 48 44 0 22 12 44 44 43 7 0 43 43 43 43
split_gain=5.63555 0.0281566 9.73083e-06 5.58367e-06 6.77668e-06 6.87607e-06 1.79569e-06 1.77571e-06 1.37312e-06 5.30349e-07 2.30743e-07 1.7757e-07 1.26648e-07 2.84665e-08 2.80696e-08 1.50338e-08 9.89845e-11
threshold=-1.4848197840061459 -1.7101292455906534 1.0000000180025095e-35 -1.0000000180025095e-35 -0.60519948558683645 1.0000000180025095e-35 1.0000000180025095e-35 1.0000000180025095e-35 1.4053611965144437 -0.85651957084949604 1.0000000180025095e-35 1.0000000180025095e-35 1.0000000180025095e-35 -0.6554138710294779 -1.3472053698959632 -0.30951812159623526 0.95876629299232141
decision_type=2 2 2 2 2 2 2 2 2 2 2 2 2 2 2 2 2
left_child=-1 -2 3 4 7 -6 11 9 -7 10 -3 12 15 -14 -8 -5 -13
right_child=1 2 -4 6 5 8 14 -9 -10 -11 -12 16 13 -15 -16 -17 -18
leaf_value=0.2193831538369273 -0.21106328979559491 -0.16888861602745961 -0.17012981680784178 -0.16833449184315202 -0.17050284440616237 -0.16954593988564115 -0.16885611816570978 -0.16823675710240019 -0.16880341217824205 -0.16918713717013972 -0.16854785658885763 -0.16829270033568211 -0.1686313864415083 -0.16850673428218899 -0.16896417188497029 -0.16841696321676158 -0.16828601095004814
leaf_weight=2.2782131731510162 0.80171602219343219 0.20568523835390806 0.24531791917979706 0.15284493751823958 0.21569841168820947 0.1691830325871706 0.21154023520648479 0.23226201068609953 0.24227860849350691 0.17417449690401554 0.12955103721469641 0.14926985651254654 0.12314930744469166 0.1809700783342123 0.17631838656961929 0.20974117796867964 0.2172746304422617
leaf_count=14 6 14 13 13 9 9 14 22 17 10 10 13 9 14 11 17 19
internal_value=0 -0.177727 -0.168922 -0.168816 -0.169104 -0.169588 -0.168538 -0.168695 -0.169109 -0.168904 -0.168757 -0.168401 -0.168462 -0.168557 -0.168905 -0.168382 -0.168289
internal_weight=0 3.83698 3.03526 2.78994 1.36883 0.62716 1.42111 0.741673 0.411462 0.509411 0.335236 1.03325 0.666706 0.304119 0.387859 0.362586 0.366544
internal_count=234 220 214 201 91 35 110 56 26 34 24 85 53 23 25 30 32
is_linear=0
shrinkage=0.2


Tree=37
num_leaves=21
num_cat=0
split_feature=46 44 48 44 47 47 47 47 43 3 47 48 44 43 43 31 44 43 43 44
split_gain=2.89307 2.34952 1.30854 0.0866947 0.00168747 0.000989353 7.3031e-05 1.19969e-05 5.92741e-06 3.78273e-06 5.22078e-07 4.34064e-07 4.74053e-07 8.11423e-07 1.01886e-07 8.85332e-08 5.4041e-08 7.25172e-09 3.30286e-09 3.09027e-09
threshold=0.62832158161253837 -0.98217961348082616 -1.6483213273599902 -1.2335022821094801 2.7405981205977139 2.7405981205977139 0.56441192717192723 1.0000000180025095e-35 -0.77071245417389211 1.0000000180025095e-35 1.0480088590443242 1.0000000180025095e-35 -0.60519948558683645 1.0740648761367357 1.0000000180025095e-35 1.0000000180025095e-35 -1.4219896593812071 -0.30951812159623526 1.765856375003221 1.0000000180025095e-35
decision_type=2 2 2 2 2 2 2 2 2 2 2 2 2 2 2 2 2 2 2 2
left_child=3 5 -3 -1 6 10 7 8 9 -5 -2 12 -10 -14 15 19 -12 -17 -16 -13
right_child=1 2 -4 4 -6 -7 -8 -9 11 -11 16 14 13 -15 18 17 -18 -19 -20 -21
leaf_value=-0.28708968246278616 -0.16824355681139325 0.39636276625511285 0.085496725462601786 -0.16988399740860274 -0.1848438593752475 -0.18147427432313745 -0.17327856857970503 -0.17038928097541137 -0.16817360788500235 -0.16868313117970121 -0.16771724755915143 -0.16834422367481519 -0.16895434188598585 -0.16827452647845656 -0.16811116792261149 -0.16811774205203714 -0.16791971044707693 -0.1681902853440862 -0.16806328947687413 -0.16830270312610118
leaf_weight=0.29221624135971103 0.23210775852203402 0.91002511978149447 1.3379387427121399 0.17194094695150886 0.31452022492885578 0.43212563544511795 0.15009839087724675 0.15100670605897892 0.15914253797382116 0.2691979892551899 0.11547976126894388 0.12974510155618191 0.13689740654081084 0.14421459101140499 0.12257563415914774 0.11289704591035843 0.097054444253444339 0.10770395118743181 0.10877866949886084 0.16027579084038734
leaf_count=1 21 5 26 10 3 6 4 6 15 19 16 11 9 13 12 11 11 10 11 14
internal_value=0 0.103034 0.211342 -0.184634 -0.171262 -0.174659 -0.169043 -0.168684 -0.168526 -0.169151 -0.168036 -0.168292 -0.168449 -0.168606 -0.168199 -0.168249 -0.16781 -0.168153 -0.168089 -0.168321
internal_weight=0 3.12473 2.24796 2.53121 2.23899 0.876768 1.92447 1.77438 1.62337 0.441139 0.444642 1.18223 0.440255 0.281112 0.741976 0.510622 0.212534 0.220601 0.231354 0.290021
internal_count=234 85 31 149 148 54 145 141 135 29 48 106 37 22 69 46 27 21 23 25
is_linear=0
shrinkage=0.2


Tree=38
num_leaves=13
num_cat=0
split_feature=46 42 46 1 31 46 13 46 40 46 31 2
split_gain=9.6047 0.731773 0.504594 1.12054 0.239622 0.168479 0.00145816 0.00111166 0.000912026 1.68755e-05 4.28626e-06 1.3512e-05
threshold=0.62832158161253837 1.0000000180025095e-35 1.0000000180025095e-35 1.0000000180025095e-35 1.0000000180025095e-35 1.19185220876623 1.0000000180025095e-35 -1.0622702998485356 1.0000000180025095e-35 -1.0622702998485356 1.0000000180025095e-35 1.0000000180025095e-35
decision_type=2 2 2 2 2 2 2 2 2 2 2 2
left_child=2 4 6 -4 5 -2 7 -1 -9 -8 11 -11
right_child=1 -3 3 -5 -6 -7 9 8 -10 10 -12 -13
leaf_value=-0.17346026797276926 -0.0041323712344074857 0.21124655270429782 0.086484897883354103 -0.17974712416869493 0.13262871690067707 0.088453693335344433 -0.17444709261969626 -0.18707341754295001 -0.17873243936079705 -0.17455969535256011 -0.17317817955701165 -0.17319847876584432
leaf_weight=0.80898033455014262 1.0662393420934657 3.2145244032144538 1.0597037002444267 1.5680978819727898 4.1132047325372696 2.9929231740534306 0.92765969038009677 0.88792815059423635 1.2806508019566536 0.46527817845344543 1.2120369374752045 0.7818526029586792
leaf_count=19 13 20 6 22 22 30 19 9 19 9 28 18
internal_value=0 0.130406 -0.146116 -0.0723847 0.0986077 0.0641337 -0.176559 -0.179787 -0.182148 -0.17372 -0.173446 -0.173706
internal_weight=0 11.3869 8.99219 2.6278 8.17237 4.05916 6.36439 2.97756 2.16858 3.38683 2.45917 1.24713
internal_count=234 85 149 28 65 43 121 47 28 74 55 27
is_linear=0
shrinkage=0.2


Tree=39
num_leaves=19
num_cat=0
split_feature=44 46 43 3 45 46 46 1 43 31 44 46 44 44 43 0 43 43
split_gain=3.88641 3.05326 3.41957 4.78177 1.5301 4.96617 0.296873 0.00793012 0.00340012 0.000911025 0.00255536 0.000889158 0.000190747 9.43553e-05 7.84957e-05 4.21507e-05 3.21887e-06 2.1912e-06
threshold=-0.85651957084949604 -1.0622702998485356 0.15167621098142162 1.0000000180025095e-35 -1.0000000180025095e-35 0.62832158161253837 -0.49873967269484426 1.0000000180025095e-35 -1.4625039530403774 1.0000000180025095e-35 0.14876077020114348 1.19185220876623 1.0000000180025095e-35 0.14876077020114348 1.3046620424255642 1.0000000180025095e-35 0.8434677098479072 -0.078920955307406782
decision_type=2 2 2 2 2 2 2 2 2 2 2 2 2 2 2 2 2 2
left_child=8 7 3 4 5 -3 -4 14 -1 10 12 -10 -6 -11 -2 -13 -17 -15
right_child=1 2 6 -5 9 -7 -8 -9 11 13 -12 15 -14 17 -16 16 -18 -19
leaf_value=-0.18919918124595347 -0.17510138957673071 0.25102936932496117 0.16041767734787285 0.20626398757164149 -0.17789665674705013 -0.20128028803698217 0.25617225967749219 -0.20248541044056362 -0.18049968568125044 -0.17653769067681238 -0.19040401640180982 -0.17406630159986958 -0.17314563579661507 -0.17311801470107188 -0.17221391027223601 -0.17142159618287731 -0.172195060427384 -0.17245771117408051
leaf_weight=1.1366613283753397 0.85481696948409724 1.7929758653044729 2.4254583716392517 3.4904160052537918 0.77774187177418885 2.1179446540772915 2.7790722846984854 0.51698070764541615 0.99641719460487643 0.40626817941665672 0.74044238775968541 0.54799844324588776 0.59786513820290565 0.41599639132618904 0.67314131930470467 0.41470004431903362 0.44742284715175629 0.3890158049762249
leaf_count=12 17 8 17 19 11 17 11 3 15 8 7 12 14 10 18 13 12 10
internal_value=0 0.0489914 0.078519 0.013986 -0.078734 0.00608273 0.211548 -0.181074 -0.180184 -0.178427 -0.180931 -0.175926 -0.175832 -0.174053 -0.173829 -0.172695 -0.171823 -0.172799
internal_weight=0 17.9781 15.9332 10.7287 7.23825 3.91092 5.20453 2.04494 3.5432 3.32733 2.11605 2.40654 1.37561 1.21128 1.52796 1.41012 0.862123 0.805012
internal_count=234 170 132 104 85 25 28 38 64 60 32 52 25 28 35 37 25 20
is_linear=0
shrinkage=0.2


Tree=40
num_leaves=18
num_cat=0
split_feature=46 44 44 44 44 46 44 44 48 44 44 41 0 44 44 48 44
split_gain=7.07234 5.76301 3.44539 0.490306 0.0595444 0.035969 0.0221863 0.00515186 0.0020421 0.00148442 0.00075061 0.000195768 2.4176e-05 2.40256e-05 1.22544e-05 5.0929e-05 3.73501e-06
threshold=1.0000000180025095e-35 1.028381068620454 -0.16538933637718142 1.0000000180025095e-35 0.33725083414813833 -0.49873967269484426 -0.16538933637718142 1.1540411112517834 -1.7101292455906534 -0.47953944295550643 1.0000000180025095e-35 1.0000000180025095e-35 1.0000000180025095e-35 1.4053611965144437 -0.98217961348082616 -0.78301047213070307 -1.4219896593812071
decision_type=2 2 2 2 2 2 2 2 2 2 2 2 2 2 2 2 2
left_child=1 2 -1 6 5 10 8 -3 -2 11 -4 12 14 -9 15 -10 -13
right_child=3 7 4 -5 -6 -7 -8 13 9 -11 -12 16 -14 -15 -16 -17 -18
leaf_value=-0.17694792043068786 -0.18712939601842871 -0.19717603434888675 0.19709584421908566 -0.069161538032447553 0.21639258449670176 0.15773878326183066 -0.21778572490771131 -0.17586733278523536 -0.17601354245398554 -0.18571966923385752 0.19147987413098533 -0.17199572601590679 -0.17678568544675988 -0.17737188364326731 -0.17597495349544301 -0.17336749419020323 -0.17277309379632966
leaf_weight=1.1027434021234501 0.83470685780048359 0.68533854186534826 1.7169886082410801 2.0933874174952507 3.7946282923221588 1.5302349925041228 0.63589581847190757 0.68730221316218365 0.72106350585818291 0.57406698167324099 2.1365948691964149 0.51290134154260159 0.60562613792717446 1.1104678660631178 0.74995963275432598 0.48778486624360085 0.47729454748332489
leaf_count=20 8 8 11 21 23 13 3 13 12 6 16 15 11 17 14 11 12
internal_value=0 0.0910299 0.157074 -0.15174 0.197205 0.183681 -0.182613 -0.182421 -0.178107 -0.176283 0.193982 -0.174759 -0.175681 -0.176797 -0.17534 -0.174946 -0.17237
internal_weight=0 12.7643 10.2812 7.69269 9.17845 5.38382 5.5993 2.48311 4.9634 4.1287 3.85358 3.55463 2.56443 1.79777 1.95881 1.20885 0.990196
internal_count=234 121 83 113 63 40 92 38 89 81 27 75 48 30 37 23 27
is_linear=0
shrinkage=0.2


Tree=41
num_leaves=18
num_cat=0
split_feature=44 43 43 43 43 43 13 13 44 43 44 43 43 43 43 0 44
split_gain=12.9014 0.047106 0.00804948 0.000939984 0.00292415 0.000722381 0.000105518 9.14068e-05 0.000238961 2.73647e-05 2.57071e-05 1.63937e-05 1.06511e-05 3.17271e-06 4.07085e-06 7.66845e-07 6.50943e-07
threshold=1.028381068620454 1.0740648761367357 1.5929085002865997 -1.1166082036071348 -1.231906786751549 0.95876629299232141 1.0000000180025095e-35 1.0000000180025095e-35 -0.60519948558683645 -0.6554138710294779 -0.16538933637718142 0.15167621098142162 0.26697479412583586 -0.30951812159623526 -0.6554138710294779 1.0000000180025095e-35 -1.2335022821094801
decision_type=2 2 2 2 2 2 2 2 2 2 2 2 2 2 2 2 2
left_child=3 -2 -3 4 6 7 -1 8 9 -5 -10 -11 -13 14 -9 -16 -14
right_child=1 2 -4 5 -6 -7 -8 13 10 11 -12 12 16 -15 15 -17 -18
leaf_value=-0.17590581892715898 0.23920706496414057 0.20715259699520652 0.19035677075689322 -0.17060948906615148 -0.18988890818251533 -0.17969542499234537 -0.17231261808733839 -0.17195316254104048 -0.17490337224377392 -0.1736559892156887 -0.17684527645394971 -0.17144087832523291 -0.1727844699674318 -0.17210554506085965 -0.17102793158174767 -0.17142959043460154 -0.17243039080147804
leaf_weight=0.50266622938215755 1.6178326606750486 2.5168110579252243 2.0884895622730255 0.35937490314245257 0.63232859224081028 0.68581103533506382 0.93492808192968369 0.60163950361311447 0.55792076513171196 0.39676375873386849 0.53336413577199004 0.48203150555491425 0.45082509890198719 0.62400964275002468 0.32786626555025589 0.45258901827037334 0.38508002832531918
leaf_count=11 7 15 16 17 10 9 25 17 11 9 9 15 11 17 11 14 10
internal_value=0 0.209849 0.199536 -0.174891 -0.178554 -0.173596 -0.173569 -0.172787 -0.173457 -0.172196 -0.175852 -0.172529 -0.17219 -0.171731 -0.171562 -0.171261 -0.172621
internal_weight=0 6.22313 4.6053 7.9272 2.06992 5.85728 1.43759 5.17146 3.16536 2.07408 1.09128 1.7147 1.31794 2.0061 1.38209 0.780455 0.835905
internal_count=234 38 31 196 46 150 36 141 82 62 20 45 36 59 42 25 21
is_linear=0
shrinkage=0.2


end of trees

feature_importances:
Column_44=126
Column_43=116
Column_48=42
Column_46=39
Column_47=39
Column_45=29
Column_31=18
Column_13=17
Column_1=16
Column_0=15
Column_42=14
Column_3=11
Column_38=10
Column_40=10
Column_2=9
Column_4=9
Column_22=9
Column_25=8
Column_35=8
Column_16=7
Column_41=7
Column_5=6
Column_14=6
Column_7=3
Column_9=3
Column_12=3
Column_17=3

parameters:
[boosting: gbdt]
[objective: multiclass]
[metric: custom]
[tree_learner: serial]
[device_type: cpu]
[data_sample_strategy: bagging]
[data: ]
[valid: ]
[num_iterations: 10000]
[learning_rate: 0.2]
[num_leaves: 63]
[num_threads: 0]
[seed: 1236]
[deterministic: 0]
[force_col_wise: 0]
[force_row_wise: 0]
[histogram_pool_size: -1]
[max_depth: -1]
[min_data_in_leaf: 10]
[min_sum_hessian_in_leaf: 0.001]
[bagging_fraction: 1]
[pos_bagging_fraction: 1]
[neg_bagging_fraction: 1]
[bagging_freq: 0]
[bagging_seed: 21709]
[feature_fraction: 0.5]
[feature_fraction_bynode: 1]
[feature_fraction_seed: 24116]
[extra_trees: 0]
[extra_seed: 15571]
[early_stopping_round: 0]
[early_stopping_min_delta: 0]
[first_metric_only: 0]
[max_delta_step: 0]
[lambda_l1: 0]
[lambda_l2: 0]
[linear_lambda: 0]
[min_gain_to_split: 0]
[drop_rate: 0.1]
[max_drop: 50]
[skip_drop: 0.5]
[xgboost_dart_mode: 0]
[uniform_drop: 0]
[drop_seed: 15722]
[top_rate: 0.2]
[other_rate: 0.1]
[min_data_per_group: 100]
[max_cat_threshold: 32]
[cat_l2: 10]
[cat_smooth: 10]
[max_cat_to_onehot: 4]
[top_k: 20]
[monotone_constraints: ]
[monotone_constraints_method: basic]
[monotone_penalty: 0]
[feature_contri: ]
[forcedsplits_filename: ]
[refit_decay_rate: 0.9]
[cegb_tradeoff: 1]
[cegb_penalty_split: 0]
[cegb_penalty_feature_lazy: ]
[cegb_penalty_feature_coupled: ]
[path_smooth: 0]
[interaction_constraints: ]
[verbosity: -1]
[saved_feature_importance_type: 0]
[use_quantized_grad: 0]
[num_grad_quant_bins: 4]
[quant_train_renew_leaf: 0]
[stochastic_rounding: 1]
[linear_tree: 0]
[max_bin: 255]
[max_bin_by_feature: ]
[min_data_in_bin: 3]
[bin_construct_sample_cnt: 200000]
[data_random_seed: 4074]
[is_enable_sparse: 1]
[enable_bundle: 1]
[use_missing: 1]
[zero_as_missing: 0]
[feature_pre_filter: 1]
[pre_partition: 0]
[two_round: 0]
[header: 0]
[label_column: ]
[weight_column: ]
[group_column: ]
[ignore_column: ]
[categorical_feature: ]
[forcedbins_filename: ]
[precise_float_parser: 0]
[parser_config_file: ]
[objective_seed: 10917]
[num_class: 6]
[is_unbalance: 0]
[scale_pos_weight: 1]
[sigmoid: 1]
[boost_from_average: 1]
[reg_sqrt: 0]
[alpha: 0.9]
[fair_c: 1]
[poisson_max_delta_step: 0.7]
[tweedie_variance_power: 1.5]
[lambdarank_truncation_level: 30]
[lambdarank_norm: 1]
[label_gain: ]
[lambdarank_position_bias_regularization: 0]
[eval_at: ]
[multi_error_top_k: 1]
[auc_mu_weights: ]
[num_machines: 1]
[local_listen_port: 12400]
[time_out: 120]
[machine_list_filename: ]
[machines: ]
[gpu_platform_id: -1]
[gpu_device_id: -1]
[gpu_use_dp: 0]
[num_gpu: 1]

end of parameters

pandas_categorical:null
