{"learner":{"attributes":{"best_iteration":"0","best_score":"-1.0"},"feature_names":[],"feature_types":[],"gradient_booster":{"model":{"gbtree_model_param":{"num_parallel_tree":"1","num_trees":"306"},"iteration_indptr":[0,6,12,18,24,30,36,42,48,54,60,66,72,78,84,90,96,102,108,114,120,126,132,138,144,150,156,162,168,174,180,186,192,198,204,210,216,222,228,234,240,246,252,258,264,270,276,282,288,294,300,306],"tree_info":[0,1,2,3,4,5,0,1,2,3,4,5,0,1,2,3,4,5,0,1,2,3,4,5,0,1,2,3,4,5,0,1,2,3,4,5,0,1,2,3,4,5,0,1,2,3,4,5,0,1,2,3,4,5,0,1,2,3,4,5,0,1,2,3,4,5,0,1,2,3,4,5,0,1,2,3,4,5,0,1,2,3,4,5,0,1,2,3,4,5,0,1,2,3,4,5,0,1,2,3,4,5,0,1,2,3,4,5,0,1,2,3,4,5,0,1,2,3,4,5,0,1,2,3,4,5,0,1,2,3,4,5,0,1,2,3,4,5,0,1,2,3,4,5,0,1,2,3,4,5,0,1,2,3,4,5,0,1,2,3,4,5,0,1,2,3,4,5,0,1,2,3,4,5,0,1,2,3,4,5,0,1,2,3,4,5,0,1,2,3,4,5,0,1,2,3,4,5,0,1,2,3,4,5,0,1,2,3,4,5,0,1,2,3,4,5,0,1,2,3,4,5,0,1,2,3,4,5,0,1,2,3,4,5,0,1,2,3,4,5,0,1,2,3,4,5,0,1,2,3,4,5,0,1,2,3,4,5,0,1,2,3,4,5,0,1,2,3,4,5,0,1,2,3,4,5,0,1,2,3,4,5,0,1,2,3,4,5,0,1,2,3,4,5,0,1,2,3,4,5,0,1,2,3,4,5],"trees":[{"base_weights":[-3.4923664E-1,1.1931818E-1,-2.9447854E-2],"categories":[],"categories_nodes":[],"categories_segments":[],"categories_sizes":[],"default_left":[0,0,0],"id":0,"left_children":[1,-1,-1],"loss_changes":[3.9586384E1,0E0,0E0],"parents":[2147483647,0,0],"right_children":[2,-1,-1],"split_conditions":[-1.4219898E0,1.1931818E-1,-2.9447854E-2],"split_indices":[44,0,0],"split_type":[0,0,0],"sum_hessian":[5.7222225E1,3.888889E0,5.3333336E1],"tree_param":{"num_deleted":"0","num_feature":"49","num_nodes":"3","size_leaf_vector":"1"}},{"base_weights":[-4.20508E-1,1.016949E0,-2.9439254E-2,1.0068493E-1,-2.1428572E-2],"categories":[],"categories_nodes":[],"categories_segments":[],"categories_sizes":[],"default_left":[0,0,0,0,0],"id":1,"left_children":[1,3,-1,-1,-1],"loss_changes":[1.4883773E1,1.0308399E1,0E0,0E0,0E0],"parents":[2147483647,0,0,1,1],"right_children":[2,4,-1,-1,-1],"split_conditions":[-1.122954E0,1E0,-2.9439254E-2,1.0068493E-1,-2.1428572E-2],"split_indices":[48,15,0,0,0],"split_type":[0,0,0,0,0],"sum_hessian":[5.8055557E1,5.555556E0,5.2500004E1,3.0555558E0,2.5E0],"tree_param":{"num_deleted":"0","num_feature":"49","num_nodes":"5","size_leaf_vector":"1"}},{"base_weights":[2.1367517E-1,1.6611569E0,-5.338983E-1,2.3525178E0,-2.4757281E-2,-2.920937E-2,2.4418604E-2,2.6442685E0,-1.744186E-2,1.3815789E-1,4.5348834E-2],"categories":[],"categories_nodes":[],"categories_segments":[],"categories_sizes":[],"default_left":[0,0,0,0,0,0,0,0,0,0,0],"id":2,"left_children":[1,3,5,7,-1,-1,-1,9,-1,-1,-1],"loss_changes":[6.4189674E1,3.1228981E1,2.3073902E0,1.3094528E1,0E0,0E0,0E0,3.9699554E-1,0E0,0E0,0E0],"parents":[2147483647,0,0,1,1,2,2,3,3,7,7],"right_children":[2,4,6,8,-1,-1,-1,10,-1,-1,-1],"split_conditions":[-6.680295E-1,1.8943034E0,1.4107065E0,1E0,-2.4757281E-2,-2.920937E-2,2.4418604E-2,1.0164156E0,-1.744186E-2,1.3815789E-1,4.5348834E-2],"split_indices":[44,47,47,12,0,0,0,43,0,0,0],"split_type":[0,0,0,0,0,0,0,0,0,0,0],"sum_hessian":[5.7500004E1,1.9166668E1,3.8333336E1,1.4444445E1,4.7222223E0,3.6944447E1,1.388889E0,1.3055556E1,1.388889E0,1.1666667E1,1.388889E0],"tree_param":{"num_deleted":"0","num_feature":"49","num_nodes":"11","size_leaf_vector":"1"}},{"base_weights":[2.0224716E-1,-3.967449E-2,1.23786405E-1,-3.1633836E-1,1.695652E0,-4.555874E-1,2.459016E-1,-1.9811321E-2,1.23786405E-1,-5.02994E-1,1.8749999E-2,-3.986014E-1,8.793103E-2,-5.492958E-1,-2.0338984E-1,-2.5221238E-2,-8.3819035E-10,-2.8967494E-2,-1.4285715E-1,7.1428563E-3,-2.260274E-2,7.894736E-3,-1.744186E-2],"categories":[],"categories_nodes":[],"categories_segments":[],"categories_sizes":[],"default_left":[0,0,0,0,0,0,0,0,0,0,0,0,0,0,0,0,0,0,0,0,0,0,0],"id":3,"left_children":[1,3,-1,5,7,9,11,-1,-1,13,-1,15,-1,17,19,-1,-1,-1,21,-1,-1,-1,-1],"loss_changes":[3.2731808E1,2.6755312E1,0E0,3.8656669E0,1.34916E1,1.7155094E0,1.0613001E1,0E0,0E0,4.0309238E-1,0E0,3.3510745E-1,0E0,3.0269146E-1,6.290091E-1,0E0,0E0,0E0,2.7190065E-1,0E0,0E0,0E0,0E0],"parents":[2147483647,0,0,1,1,3,3,4,4,5,5,6,6,9,9,11,11,13,13,14,14,18,18],"right_children":[2,4,-1,6,8,10,12,-1,-1,14,-1,16,-1,18,20,-1,-1,-1,22,-1,-1,-1,-1],"split_conditions":[1E0,1E0,1.23786405E-1,1E0,7.597167E-1,1E0,3.246241E-1,-1.9811321E-2,1.23786405E-1,1E0,1.8749999E-2,2.093255E-1,8.793103E-2,1E0,2.115908E-1,-2.5221238E-2,-8.3819035E-10,-2.8967494E-2,1E0,7.1428563E-3,-2.260274E-2,7.894736E-3,-1.744186E-2],"split_indices":[35,22,0,40,45,14,43,0,0,5,0,43,0,12,44,0,0,0,41,0,0,0,0],"split_type":[0,0,0,0,0,0,0,0,0,0,0,0,0,0,0,0,0,0,0,0,0,0,0],"sum_hessian":[5.8333336E1,5.3611115E1,4.7222223E0,4.6944447E1,6.666667E0,3.777778E1,9.166667E0,1.9444445E0,4.7222223E0,3.6111115E1,1.6666667E0,6.9444447E0,2.2222223E0,3.0555557E1,5.555556E0,5.277778E0,1.6666667E0,2.8055557E1,2.5E0,2.5E0,3.0555558E0,1.1111112E0,1.388889E0],"tree_param":{"num_deleted":"0","num_feature":"49","num_nodes":"23","size_leaf_vector":"1"}},{"base_weights":[3.6178103E-1,-2.8915662E-2,1.1337792E0,1.9597988E0,-4.678899E-1,2.707792E0,-2.5E-2,7.894736E-3,-2.727273E-2,1.4062499E-1,3.1578947E-2],"categories":[],"categories_nodes":[],"categories_segments":[],"categories_sizes":[],"default_left":[0,0,0,0,0,0,0,0,0,0,0],"id":4,"left_children":[1,-1,3,5,7,9,-1,-1,-1,-1,-1],"loss_changes":[4.4120106E1,0E0,4.4870308E1,4.20364E1,6.739831E-1,1.9435806E0,0E0,0E0,0E0,0E0,0E0],"parents":[2147483647,0,0,2,2,3,3,4,4,5,5],"right_children":[2,-1,4,6,8,10,-1,-1,-1,-1,-1],"split_conditions":[-3.9729293E-2,-2.8915662E-2,9.65551E-1,1E0,1.0912111E0,4.435127E-1,-2.5E-2,7.894736E-3,-2.727273E-2,1.4062499E-1,3.1578947E-2],"split_indices":[44,0,44,3,44,47,0,0,0,0,0],"split_type":[0,0,0,0,0,0,0,0,0,0,0],"sum_hessian":[5.8888893E1,2.6666668E1,3.2222225E1,2.1111113E1,1.1111112E1,1.6111113E1,5E0,1.1111112E0,1E1,1.5000001E1,1.1111112E0],"tree_param":{"num_deleted":"0","num_feature":"49","num_nodes":"11","size_leaf_vector":"1"}},{"base_weights":[8.310222E-3,-2.9401993E-2,1.3636363E-1],"categories":[],"categories_nodes":[],"categories_segments":[],"categories_sizes":[],"default_left":[0,0,0],"id":5,"left_children":[1,-1,-1],"loss_changes":[9.9161194E1,0E0,0E0],"parents":[2147483647,0,0],"right_children":[2,-1,-1],"split_conditions":[1.0912111E0,-2.9401993E-2,1.3636363E-1],"split_indices":[44,0,0],"split_type":[0,0,0],"sum_hessian":[5.9166668E1,4.9166668E1,1E1],"tree_param":{"num_deleted":"0","num_feature":"49","num_nodes":"3","size_leaf_vector":"1"}},{"base_weights":[-3.5509542E-1,1.07717134E-1,-2.9295841E-2],"categories":[],"categories_nodes":[],"categories_segments":[],"categories_sizes":[],"default_left":[0,0,0],"id":6,"left_children":[1,-1,-1],"loss_changes":[3.60733E1,0E0,0E0],"parents":[2147483647,0,0],"right_children":[2,-1,-1],"split_conditions":[-1.4219898E0,1.07717134E-1,-2.9295841E-2],"split_indices":[44,0,0],"split_type":[0,0,0],"sum_hessian":[5.9098606E1,4.276129E0,5.482248E1],"tree_param":{"num_deleted":"0","num_feature":"49","num_nodes":"3","size_leaf_vector":"1"}},{"base_weights":[-3.868831E-1,1.1012385E0,-2.9269492E-2,9.7567104E-2,-2.1249304E-2],"categories":[],"categories_nodes":[],"categories_segments":[],"categories_sizes":[],"default_left":[0,0,0,0,0],"id":7,"left_children":[1,3,-1,-1,-1],"loss_changes":[1.8293734E1,1.0402964E1,0E0,0E0,0E0],"parents":[2147483647,0,0,1,1],"right_children":[2,4,-1,-1,-1],"split_conditions":[-1.122954E0,1E0,-2.9269492E-2,9.7567104E-2,-2.1249304E-2],"split_indices":[48,15,0,0,0],"split_type":[0,0,0,0,0],"sum_hessian":[5.8745937E1,6.37884E0,5.23671E1,3.9179878E0,2.4608521E0],"tree_param":{"num_deleted":"0","num_feature":"49","num_nodes":"5","size_leaf_vector":"1"}},{"base_weights":[2.333079E-1,1.5386497E0,-5.073785E-1,2.117598E0,-3.3944348E-1,-2.9012507E-2,1.4073202E-1,1.1746603E-1,-1.728142E-2,-2.3306293E-2,3.675511E-4,-2.1851623E-2,5.411916E-2],"categories":[],"categories_nodes":[],"categories_segments":[],"categories_sizes":[],"default_left":[0,0,0,0,0,0,0,0,0,0,0,0,0],"id":8,"left_children":[1,3,5,7,9,-1,11,-1,-1,-1,-1,-1,-1],"loss_changes":[6.0510017E1,2.5305378E1,1.9786177E0,1.0756332E1,2.7536583E-1,0E0,3.119533E0,0E0,0E0,0E0,0E0,0E0,0E0],"parents":[2147483647,0,0,1,1,2,2,3,3,4,4,6,6],"right_children":[2,4,6,8,10,-1,12,-1,-1,-1,-1,-1,-1],"split_conditions":[-6.680295E-1,1.652505E0,9.1008687E-1,1E0,1E0,-2.9012507E-2,-5.423695E-1,1.1746603E-1,-1.728142E-2,-2.3306293E-2,3.675511E-4,-2.1851623E-2,5.411916E-2],"split_indices":[44,47,46,12,15,0,44,0,0,0,0,0,0],"split_type":[0,0,0,0,0,0,0,0,0,0,0,0,0],"sum_hessian":[6.077732E1,2.1612103E1,3.916522E1,1.6422203E1,5.189899E0,3.5300804E1,3.8644135E0,1.5052423E1,1.3697814E0,3.5492694E0,1.6406294E0,2.7270668E0,1.1373466E0],"tree_param":{"num_deleted":"0","num_feature":"49","num_nodes":"13","size_leaf_vector":"1"}},{"base_weights":[1.8198521E-1,-4.9124934E-2,1.1101176E-1,-3.1749383E-1,1.5587963E0,-3.9525527E-1,7.809096E-2,-1.9604782E-2,1.1112293E-1,-5.2921873E-1,1.4331883E-1,-5.528248E-1,-3.3366557E-3,-4.0158278E-1,7.674683E-2,-2.8945772E-2,-1.7566791E-1,-2.509368E-2,-2.526759E-3,7.930223E-3,-1.8724268E-2],"categories":[],"categories_nodes":[],"categories_segments":[],"categories_sizes":[],"default_left":[0,0,0,0,0,0,0,0,0,0,0,0,0,0,0,0,0,0,0,0,0],"id":9,"left_children":[1,3,-1,5,7,9,-1,-1,-1,11,13,15,-1,17,-1,-1,19,-1,-1,-1,-1],"loss_changes":[2.8734253E1,2.4468813E1,0E0,7.696494E0,1.1379057E1,3.4895883E0,0E0,0E0,0E0,3.7909985E-1,8.359823E0,2.5369072E-1,0E0,2.609005E-1,0E0,0E0,3.1010306E-1,0E0,0E0,0E0,0E0],"parents":[2147483647,0,0,1,1,3,3,4,4,5,5,9,9,10,10,11,11,13,13,16,16],"right_children":[2,4,-1,6,8,10,-1,-1,-1,12,14,16,-1,18,-1,-1,20,-1,-1,-1,-1],"split_conditions":[1E0,1E0,1.1101176E-1,1E0,7.597167E-1,1E0,7.809096E-2,-1.9604782E-2,1.1112293E-1,1E0,3.246241E-1,1E0,-3.3366557E-3,-6.680295E-1,7.674683E-2,-2.8945772E-2,1E0,-2.509368E-2,-2.526759E-3,7.930223E-3,-1.8724268E-2],"split_indices":[35,22,0,26,45,40,0,0,0,14,43,12,0,44,0,0,0,0,0,0,0],"split_type":[0,0,0,0,0,0,0,0,0,0,0,0,0,0,0,0,0,0,0,0,0],"sum_hessian":[5.9767567E1,5.455739E1,5.2101765E0,4.744171E1,7.1156793E0,4.631499E1,1.1267214E0,1.9100671E0,5.205612E0,3.7103367E1,9.21162E0,3.511567E1,1.9876992E0,7.1308813E0,2.0807393E0,3.2343307E1,2.7723608E0,5.21217E0,1.9187112E0,1.1093941E0,1.6629666E0],"tree_param":{"num_deleted":"0","num_feature":"49","num_nodes":"21","size_leaf_vector":"1"}},{"base_weights":[3.6425468E-1,-2.8766176E-2,1.1196753E0,1.7892458E0,-2.7006144E-2,2.3507144E0,-2.458812E-2,1.2129878E-1,3.0317882E-2],"categories":[],"categories_nodes":[],"categories_segments":[],"categories_sizes":[],"default_left":[0,0,0,0,0,0,0,0,0],"id":10,"left_children":[1,-1,3,5,-1,7,-1,-1,-1],"loss_changes":[4.3632263E1,0E0,3.8655033E1,3.240062E1,0E0,1.1218643E0,0E0,0E0,0E0],"parents":[2147483647,0,0,2,2,3,3,5,5],"right_children":[2,-1,4,6,-1,8,-1,-1,-1],"split_conditions":[-3.9729293E-2,-2.8766176E-2,2.093255E-1,1E0,-2.7006144E-2,4.435127E-1,-2.458812E-2,1.2129878E-1,3.0317882E-2],"split_indices":[44,0,43,3,0,47,0,0,0],"split_type":[0,0,0,0,0,0,0,0,0],"sum_hessian":[5.956565E1,2.6653242E1,3.2912407E1,2.3396255E1,9.516152E0,1.8750319E1,4.645937E0,1.7600193E1,1.1501248E0],"tree_param":{"num_deleted":"0","num_feature":"49","num_nodes":"9","size_leaf_vector":"1"}},{"base_weights":[-5.2184362E-2,-2.9231457E-2,1.18958056E-1],"categories":[],"categories_nodes":[],"categories_segments":[],"categories_sizes":[],"default_left":[0,0,0],"id":11,"left_children":[1,-1,-1],"loss_changes":[7.839376E1,0E0,0E0],"parents":[2147483647,0,0],"right_children":[2,-1,-1],"split_conditions":[1.0912111E0,-2.9231457E-2,1.18958056E-1],"split_indices":[44,0,0],"split_type":[0,0,0],"sum_hessian":[5.8481987E1,4.8598793E1,9.883192E0],"tree_param":{"num_deleted":"0","num_feature":"49","num_nodes":"3","size_leaf_vector":"1"}},{"base_weights":[-3.6702865E-1,9.693042E-2,-2.9123424E-2],"categories":[],"categories_nodes":[],"categories_segments":[],"categories_sizes":[],"default_left":[0,0,0],"id":12,"left_children":[1,-1,-1],"loss_changes":[3.06078E1,0E0,0E0],"parents":[2147483647,0,0],"right_children":[2,-1,-1],"split_conditions":[-1.4219898E0,9.693042E-2,-2.9123424E-2],"split_indices":[44,0,0],"split_type":[0,0,0],"sum_hessian":[5.8345848E1,4.302466E0,5.404338E1],"tree_param":{"num_deleted":"0","num_feature":"49","num_nodes":"3","size_leaf_vector":"1"}},{"base_weights":[-4.0988684E-1,9.6200615E-1,-2.9084757E-2,8.484513E-2,-2.0348907E-2],"categories":[],"categories_nodes":[],"categories_segments":[],"categories_sizes":[],"default_left":[0,0,0,0,0],"id":13,"left_children":[1,3,-1,-1,-1],"loss_changes":[1.40098715E1,7.4592857E0,0E0,0E0,0E0],"parents":[2147483647,0,0,1,1],"right_children":[2,4,-1,-1,-1],"split_conditions":[-1.122954E0,1E0,-2.9084757E-2,8.484513E-2,-2.0348907E-2],"split_indices":[48,15,0,0,0],"split_type":[0,0,0,0,0],"sum_hessian":[5.6064606E1,5.7279E0,5.0336704E1,3.5712514E0,2.1566489E0],"tree_param":{"num_deleted":"0","num_feature":"49","num_nodes":"5","size_leaf_vector":"1"}},{"base_weights":[2.0587288E-1,1.4211118E0,-5.0442195E-1,1.9359152E0,-3.3551455E-1,-2.8859347E-2,2.2775911E-1,1.0480308E-1,-1.5469709E-2,-2.3161778E-2,5.4740644E-4,-2.0297853E-2,5.1589724E-2],"categories":[],"categories_nodes":[],"categories_segments":[],"categories_sizes":[],"default_left":[0,0,0,0,0,0,0,0,0,0,0,0,0],"id":14,"left_children":[1,3,5,7,9,-1,11,-1,-1,-1,-1,-1,-1],"loss_changes":[5.458683E1,2.1705193E1,2.269227E0,7.176346E0,2.762978E-1,0E0,2.6324065E0,0E0,0E0,0E0,0E0,0E0,0E0],"parents":[2147483647,0,0,1,1,2,2,3,3,4,4,6,6],"right_children":[2,4,6,8,10,-1,12,-1,-1,-1,-1,-1,-1],"split_conditions":[-6.680295E-1,1.8943034E0,9.1008687E-1,1E0,1E0,-2.8859347E-2,-5.423695E-1,1.0480308E-1,-1.5469709E-2,-2.3161778E-2,5.4740644E-4,-2.0297853E-2,5.1589724E-2],"split_indices":[44,47,46,35,40,0,44,0,0,0,0,0,0],"split_type":[0,0,0,0,0,0,0,0,0,0,0,0,0],"sum_hessian":[6.1408905E1,2.2283491E1,3.9125416E1,1.7154163E1,5.129327E0,3.5781136E1,3.3442812E0,1.607415E1,1.0800139E0,3.5014856E0,1.6278411E0,2.1471016E0,1.1971796E0],"tree_param":{"num_deleted":"0","num_feature":"49","num_nodes":"13","size_leaf_vector":"1"}},{"base_weights":[1.7234905E-1,-4.1390967E-2,9.967539E-2,-3.0680764E-1,1.378226E0,-3.8620818E-1,7.407139E-2,-2.0283297E-2,1.0066823E-1,-5.2334934E-1,1.4115281E-1,-2.7338697E-2,-1.7395937E-1,-2.9747993E-1,7.7810936E-2,7.89024E-3,-1.8631523E-2,-2.5647914E-2,2.2921957E-2],"categories":[],"categories_nodes":[],"categories_segments":[],"categories_sizes":[],"default_left":[0,0,0,0,0,0,0,0,0,0,0,0,0,0,0,0,0,0,0],"id":15,"left_children":[1,3,-1,5,7,9,-1,-1,-1,11,13,-1,15,17,-1,-1,-1,-1,-1],"loss_changes":[2.3468916E1,2.1051731E1,0E0,7.237453E0,1.0793915E1,3.38197E0,0E0,0E0,0E0,2.0371819E-1,6.81117E0,0E0,3.0668348E-1,1.6436238E0,0E0,0E0,0E0,0E0,0E0],"parents":[2147483647,0,0,1,1,3,3,4,4,5,5,9,9,10,10,12,12,13,13],"right_children":[2,4,-1,6,8,10,-1,-1,-1,12,14,-1,16,18,-1,-1,-1,-1,-1],"split_conditions":[1E0,1E0,9.967539E-2,1E0,7.597167E-1,1E0,7.407139E-2,-2.0283297E-2,1.0066823E-1,1E0,1E0,-2.7338697E-2,1E0,-5.423695E-1,7.7810936E-2,7.89024E-3,-1.8631523E-2,-2.5647914E-2,2.2921957E-2],"split_indices":[35,22,0,26,45,40,0,0,0,12,2,0,41,44,0,0,0,0,0],"split_type":[0,0,0,0,0,0,0,0,0,0,0,0,0,0,0,0,0,0,0],"sum_hessian":[5.9079983E1,5.374901E1,5.330972E0,4.5943188E1,7.805823E0,4.4740658E1,1.2025285E0,2.1443515E0,5.6614714E0,3.5513035E1,9.227623E0,3.275225E1,2.7607837E0,7.647025E0,1.5805978E0,1.1110766E0,1.6497071E0,6.2008533E0,1.4461718E0],"tree_param":{"num_deleted":"0","num_feature":"49","num_nodes":"19","size_leaf_vector":"1"}},{"base_weights":[2.9474244E-1,1.0051277E0,-5.385421E-1,1.9758239E0,-2.7475288E-2,-2.8627655E-2,7.97311E-3,3.8099587E-1,1.0947839E-1,4.892033E-2,-1.7364405E-2],"categories":[],"categories_nodes":[],"categories_segments":[],"categories_sizes":[],"default_left":[0,0,0,0,0,0,0,0,0,0,0],"id":16,"left_children":[1,3,5,7,-1,-1,-1,9,-1,-1,-1],"loss_changes":[3.637975E1,5.0930954E1,7.681799E-1,6.1714935E0,0E0,0E0,0E0,1.9232895E0,0E0,0E0,0E0],"parents":[2147483647,0,0,1,1,2,2,3,3,7,7],"right_children":[2,4,6,8,-1,-1,-1,10,-1,-1,-1],"split_conditions":[3.4655628E-1,2.093255E-1,1E0,1E0,-2.7475288E-2,-2.8627655E-2,7.97311E-3,-4.8246598E-1,1.0947839E-1,4.892033E-2,-1.7364405E-2],"split_indices":[46,43,4,13,0,0,0,43,0,0,0],"split_type":[0,0,0,0,0,0,0,0,0,0,0],"sum_hessian":[5.9542713E1,3.203028E1,2.751243E1,1.9551569E1,1.2478714E1,2.6405521E1,1.1069086E0,2.6395228E0,1.6912046E1,1.2613761E0,1.3781468E0],"tree_param":{"num_deleted":"0","num_feature":"49","num_nodes":"11","size_leaf_vector":"1"}},{"base_weights":[2.6606118E-2,-2.9024443E-2,1.0790079E-1],"categories":[],"categories_nodes":[],"categories_segments":[],"categories_sizes":[],"default_left":[0,0,0],"id":17,"left_children":[1,-1,-1],"loss_changes":[7.654595E1,0E0,0E0],"parents":[2147483647,0,0],"right_children":[2,-1,-1],"split_conditions":[1.0912111E0,-2.9024443E-2,1.0790079E-1],"split_indices":[44,0,0],"split_type":[0,0,0],"sum_hessian":[5.718787E1,4.5076317E1,1.2111555E1],"tree_param":{"num_deleted":"0","num_feature":"49","num_nodes":"3","size_leaf_vector":"1"}},{"base_weights":[-3.3767375E-1,9.027221E-2,-2.8930424E-2],"categories":[],"categories_nodes":[],"categories_segments":[],"categories_sizes":[],"default_left":[0,0,0],"id":18,"left_children":[1,-1,-1],"loss_changes":[3.0290535E1,0E0,0E0],"parents":[2147483647,0,0],"right_children":[2,-1,-1],"split_conditions":[-1.4219898E0,9.027221E-2,-2.8930424E-2],"split_indices":[44,0,0],"split_type":[0,0,0],"sum_hessian":[5.563949E1,4.9667425E0,5.0672745E1],"tree_param":{"num_deleted":"0","num_feature":"49","num_nodes":"3","size_leaf_vector":"1"}},{"base_weights":[-3.930411E-1,9.182778E-1,-2.8924381E-2,8.1099324E-2,-2.0939173E-2],"categories":[],"categories_nodes":[],"categories_segments":[],"categories_sizes":[],"default_left":[0,0,0,0,0],"id":19,"left_children":[1,3,-1,-1,-1],"loss_changes":[1.4560148E1,7.7681346E0,0E0,0E0,0E0],"parents":[2147483647,0,0,1,1],"right_children":[2,4,-1,-1,-1],"split_conditions":[-1.122954E0,1E0,-2.8924381E-2,8.1099324E-2,-2.0939173E-2],"split_indices":[48,15,0,0,0],"split_type":[0,0,0,0,0],"sum_hessian":[5.6689617E1,6.534131E0,5.0155483E1,4.1413827E0,2.3927484E0],"tree_param":{"num_deleted":"0","num_feature":"49","num_nodes":"5","size_leaf_vector":"1"}},{"base_weights":[1.8964697E-1,1.2524978E0,-4.9428993E-1,-2.3332514E-2,1.5950735E0,-2.8622469E-2,1.7470959E-1,9.883212E-2,5.2730095E-1,-2.0885734E-2,4.9322985E-2,-2.2732126E-2,7.5392775E-2],"categories":[],"categories_nodes":[],"categories_segments":[],"categories_sizes":[],"default_left":[0,0,0,0,0,0,0,0,0,0,0,0,0],"id":20,"left_children":[1,3,5,-1,7,-1,9,-1,11,-1,-1,-1,-1],"loss_changes":[4.3941864E1,1.465374E1,2.0336304E0,0E0,7.073601E0,0E0,2.640827E0,0E0,7.048149E0,0E0,0E0,0E0,0E0],"parents":[2147483647,0,0,1,1,2,2,4,4,6,6,8,8],"right_children":[2,4,6,-1,8,-1,10,-1,12,-1,-1,-1,-1],"split_conditions":[-6.680295E-1,-1.4219898E0,9.1008687E-1,-2.3332514E-2,-9.193496E-1,-2.8622469E-2,-5.423695E-1,9.883212E-2,1E0,-2.0885734E-2,4.9322985E-2,-2.2732126E-2,7.5392775E-2],"split_indices":[44,44,46,0,44,0,44,0,9,0,0,0,0],"split_type":[0,0,0,0,0,0,0,0,0,0,0,0,0],"sum_hessian":[5.859747E1,2.2617752E1,3.5979717E1,3.697981E0,1.8919771E1,3.2345146E1,3.6345735E0,1.3311661E1,5.6081104E0,2.381756E0,1.2528174E0,3.0700517E0,2.5380585E0],"tree_param":{"num_deleted":"0","num_feature":"49","num_nodes":"13","size_leaf_vector":"1"}},{"base_weights":[2.2035912E-1,3.1677599E-3,9.2058785E-2,-2.9248425E-1,1.3437229E0,-4.3799075E-1,2.7811283E-1,-2.0103294E-2,9.337793E-2,-2.0403907E-1,-2.82612E-2,-3.6965394E-1,7.349866E-2,-2.7019693E-2,4.6557408E-2,-2.4265999E-2,7.696505E-4],"categories":[],"categories_nodes":[],"categories_segments":[],"categories_sizes":[],"default_left":[0,0,0,0,0,0,0,0,0,0,0,0,0,0,0,0,0],"id":21,"left_children":[1,3,-1,5,7,9,11,-1,-1,13,-1,15,-1,-1,-1,-1,-1],"loss_changes":[2.1091015E1,2.1735659E1,0E0,3.8530283E0,9.812756E0,9.621401E-1,8.065591E0,0E0,0E0,5.969415E0,0E0,3.2419437E-1,0E0,0E0,0E0,0E0,0E0],"parents":[2147483647,0,0,1,1,3,3,4,4,5,5,6,6,9,9,11,11],"right_children":[2,4,-1,6,8,10,12,-1,-1,14,-1,16,-1,-1,-1,-1,-1],"split_conditions":[1E0,1E0,9.2058785E-2,1E0,7.597167E-1,3.852028E-2,3.246241E-1,-2.0103294E-2,9.337793E-2,-8.139144E-1,-2.82612E-2,2.093255E-1,7.349866E-2,-2.7019693E-2,4.6557408E-2,-2.4265999E-2,7.696505E-4],"split_indices":[35,22,0,40,45,45,43,0,0,48,0,43,0,0,0,0,0],"split_type":[0,0,0,0,0,0,0,0,0,0,0,0,0,0,0,0,0],"sum_hessian":[5.8929573E1,5.2849617E1,6.079957E0,4.3940582E1,8.909033E0,3.5197388E1,8.7431965E0,2.109882E0,6.7991514E0,1.3316032E1,2.1881353E1,6.111497E0,2.6316996E0,1.0676544E1,2.6394882E0,4.499464E0,1.6120325E0],"tree_param":{"num_deleted":"0","num_feature":"49","num_nodes":"17","size_leaf_vector":"1"}},{"base_weights":[2.9338333E-1,-2.8450055E-2,9.240729E-1,1.4655522E0,-2.6744425E-2,1.9295939E0,-3.428899E-1,2.5568783E-2,9.97708E-2,-2.360032E-2,3.273606E-3],"categories":[],"categories_nodes":[],"categories_segments":[],"categories_sizes":[],"default_left":[0,0,0,0,0,0,0,0,0,0,0],"id":22,"left_children":[1,-1,3,5,-1,7,9,-1,-1,-1,-1],"loss_changes":[3.451296E1,0E0,2.9598007E1,2.3209366E1,0E0,9.896774E-1,3.6495775E-1,0E0,0E0,0E0,0E0],"parents":[2147483647,0,0,2,2,3,3,5,5,6,6],"right_children":[2,-1,4,6,-1,8,10,-1,-1,-1,-1],"split_conditions":[-3.9729293E-2,-2.8450055E-2,2.093255E-1,3.4655628E-1,-2.6744425E-2,-7.80505E-1,-1.1742575E0,2.5568783E-2,9.97708E-2,-2.360032E-2,3.273606E-3],"split_indices":[44,0,43,46,0,46,43,0,0,0,0],"split_type":[0,0,0,0,0,0,0,0,0,0,0],"sum_hessian":[6.148823E1,2.6014568E1,3.5473663E1,2.5868359E1,9.605306E0,2.0532722E1,5.3356366E0,1.2996305E0,1.9233091E1,3.9354634E0,1.4001733E0],"tree_param":{"num_deleted":"0","num_feature":"49","num_nodes":"11","size_leaf_vector":"1"}},{"base_weights":[-2.9074606E-2,-2.8896062E-2,9.728237E-2],"categories":[],"categories_nodes":[],"categories_segments":[],"categories_sizes":[],"default_left":[0,0,0],"id":23,"left_children":[1,-1,-1],"loss_changes":[6.636677E1,0E0,0E0],"parents":[2147483647,0,0],"right_children":[2,-1,-1],"split_conditions":[1.0912111E0,-2.8896062E-2,9.728237E-2],"split_indices":[44,0,0],"split_type":[0,0,0],"sum_hessian":[5.919669E1,4.6875603E1,1.2321085E1],"tree_param":{"num_deleted":"0","num_feature":"49","num_nodes":"3","size_leaf_vector":"1"}},{"base_weights":[-3.3736858E-1,8.342444E-2,-2.8776098E-2],"categories":[],"categories_nodes":[],"categories_segments":[],"categories_sizes":[],"default_left":[0,0,0],"id":24,"left_children":[1,-1,-1],"loss_changes":[2.805925E1,0E0,0E0],"parents":[2147483647,0,0],"right_children":[2,-1,-1],"split_conditions":[-1.4219898E0,8.342444E-2,-2.8776098E-2],"split_indices":[44,0,0],"split_type":[0,0,0],"sum_hessian":[5.5727867E1,5.2769103E0,5.045096E1],"tree_param":{"num_deleted":"0","num_feature":"49","num_nodes":"3","size_leaf_vector":"1"}},{"base_weights":[-4.0393484E-1,8.6062306E-1,-2.8756613E-2,7.335371E-2,-2.0024404E-2],"categories":[],"categories_nodes":[],"categories_segments":[],"categories_sizes":[],"default_left":[0,0,0,0,0],"id":25,"left_children":[1,3,-1,-1,-1],"loss_changes":[1.2674949E1,6.0246067E0,0E0,0E0,0E0],"parents":[2147483647,0,0,1,1],"right_children":[2,4,-1,-1,-1],"split_conditions":[-1.122954E0,1E0,-2.8756613E-2,7.335371E-2,-2.0024404E-2],"split_indices":[48,15,0,0,0],"split_type":[0,0,0,0,0],"sum_hessian":[5.5261406E1,6.109108E0,4.9152298E1,4.015021E0,2.0940874E0],"tree_param":{"num_deleted":"0","num_feature":"49","num_nodes":"5","size_leaf_vector":"1"}},{"base_weights":[2.043182E-1,-5.158862E-1,1.1383485E0,7.2239595E-3,-2.7095249E-2,-2.4131862E-2,1.4755036E0,1.6809977E0,-1.9849926E-2,9.0557925E-2,-1.5914327E-2],"categories":[],"categories_nodes":[],"categories_segments":[],"categories_sizes":[],"default_left":[0,0,0,0,0,0,0,0,0,0,0],"id":26,"left_children":[1,3,5,-1,-1,-1,7,9,-1,-1,-1],"loss_changes":[4.2161068E1,6.8968487E-1,1.5587761E1,0E0,0E0,0E0,9.43227E0,5.9676323E0,0E0,0E0,0E0],"parents":[2147483647,0,0,1,1,2,2,6,6,7,7],"right_children":[2,4,6,-1,-1,-1,8,10,-1,-1,-1],"split_conditions":[9.1008687E-1,-1.2465699E0,-1.122954E0,7.2239595E-3,-2.7095249E-2,-2.4131862E-2,1E0,1E0,-1.9849926E-2,9.0557925E-2,-1.5914327E-2],"split_indices":[46,48,48,0,0,0,10,2,0,0,0],"split_type":[0,0,0,0,0,0,0,0,0,0,0],"sum_hessian":[6.0802074E1,3.458344E1,2.6218636E1,1.1383693E0,3.344507E1,4.4400616E0,2.1778574E1,1.971704E1,2.0615358E0,1.8600193E1,1.1168455E0],"tree_param":{"num_deleted":"0","num_feature":"49","num_nodes":"11","size_leaf_vector":"1"}},{"base_weights":[2.113779E-1,-1.23477625E-2,8.539597E-2,-2.9176503E-1,1.3257551E0,-3.7284005E-1,6.7456454E-2,-1.6691944E-2,8.1641555E-2,-1.8334989E-1,-2.8057966E-2,-3.3609137E-1,6.348823E-2,-2.7414337E-2,6.312148E-2,-2.4986891E-2,6.685569E-2],"categories":[],"categories_nodes":[],"categories_segments":[],"categories_sizes":[],"default_left":[0,0,0,0,0,0,0,0,0,0,0,0,0,0,0,0,0],"id":27,"left_children":[1,3,-1,5,7,9,-1,-1,-1,11,-1,13,-1,-1,15,-1,-1],"loss_changes":[2.02042E1,2.0365381E1,0E0,6.4927483E0,5.3410892E0,1.4560761E0,0E0,0E0,0E0,5.5896063E0,0E0,1.8846521E0,0E0,0E0,6.74642E0,0E0,0E0],"parents":[2147483647,0,0,1,1,3,3,4,4,5,5,9,9,11,11,14,14],"right_children":[2,4,-1,6,8,10,-1,-1,-1,12,-1,14,-1,-1,16,-1,-1],"split_conditions":[1E0,1E0,8.539597E-2,1E0,5.885709E-1,-3.81259E-1,6.7456454E-2,-1.6691944E-2,8.1641555E-2,1E0,-2.8057966E-2,-5.423695E-1,6.348823E-2,-2.7414337E-2,-2.1697436E-1,-2.4986891E-2,6.685569E-2],"split_indices":[35,22,0,26,44,48,0,0,0,2,0,44,0,0,46,0,0],"split_type":[0,0,0,0,0,0,0,0,0,0,0,0,0,0,0,0,0],"sum_hessian":[5.9281445E1,5.243449E1,6.8469524E0,4.4023613E1,8.410878E0,4.268726E1,1.336354E0,1.2996671E0,7.1112113E0,2.226123E1,2.042603E1,2.083944E1,1.4217902E0,1.3363082E1,7.476358E0,5.6069183E0,1.8694395E0],"tree_param":{"num_deleted":"0","num_feature":"49","num_nodes":"17","size_leaf_vector":"1"}},{"base_weights":[3.2001534E-1,-2.8200367E-2,8.8953394E-1,1.3966013E0,-2.6610557E-2,9.078591E-2,-2.4462145E-2],"categories":[],"categories_nodes":[],"categories_segments":[],"categories_sizes":[],"default_left":[0,0,0,0,0,0,0],"id":28,"left_children":[1,-1,3,5,-1,-1,-1],"loss_changes":[3.1365988E1,0E0,2.790172E1,2.3054176E1,0E0,0E0,0E0],"parents":[2147483647,0,0,2,2,3,3],"right_children":[2,-1,4,6,-1,-1,-1],"split_conditions":[-3.9729293E-2,-2.8200367E-2,2.093255E-1,1E0,-2.6610557E-2,9.078591E-2,-2.4462145E-2],"split_indices":[44,0,43,3,0,0,0],"split_type":[0,0,0,0,0,0,0],"sum_hessian":[6.030344E1,2.3631557E1,3.6671883E1,2.7044212E1,9.62767E0,2.2157118E1,4.8870945E0],"tree_param":{"num_deleted":"0","num_feature":"49","num_nodes":"7","size_leaf_vector":"1"}},{"base_weights":[-4.942742E-2,1.673918E0,-5.3295654E-1,8.753156E-2,2.6578913E-2,-2.8664416E-2,-4.4334414E-3],"categories":[],"categories_nodes":[],"categories_segments":[],"categories_sizes":[],"default_left":[0,0,0,0,0,0,0],"id":29,"left_children":[1,3,5,-1,-1,-1,-1],"loss_changes":[4.9686207E1,2.1485901E-1,7.821255E-1,0E0,0E0,0E0,0E0],"parents":[2147483647,0,0,1,1,2,2],"right_children":[2,4,6,-1,-1,-1,-1],"split_conditions":[-7.80505E-1,2.986281E-1,1E0,8.753156E-2,2.6578913E-2,-2.8664416E-2,-4.4334414E-3],"split_indices":[46,48,38,0,0,0,0],"split_type":[0,0,0,0,0,0,0],"sum_hessian":[5.75561E1,1.2071218E1,4.5484882E1,1.0812609E1,1.2586092E0,4.1433277E1,4.051605E0],"tree_param":{"num_deleted":"0","num_feature":"49","num_nodes":"7","size_leaf_vector":"1"}},{"base_weights":[-3.6442938E-1,-2.8590316E-2,1.1996827E0,7.568485E-2,-1.4781656E-2],"categories":[],"categories_nodes":[],"categories_segments":[],"categories_sizes":[],"default_left":[0,0,0,0,0],"id":30,"left_children":[1,-1,3,-1,-1],"loss_changes":[1.8566368E1,0E0,3.6291342E0,0E0,0E0],"parents":[2147483647,0,0,2,2],"right_children":[2,-1,4,-1,-1],"split_conditions":[2.619699E0,-2.8590316E-2,-1.1634737E0,7.568485E-2,-1.4781656E-2],"split_indices":[47,0,45,0,0],"split_type":[0,0,0,0,0],"sum_hessian":[5.4124996E1,4.834908E1,5.7759147E0,4.763329E0,1.0125853E0],"tree_param":{"num_deleted":"0","num_feature":"49","num_nodes":"5","size_leaf_vector":"1"}},{"base_weights":[-3.9294413E-1,-4.975328E-1,6.698822E-2,-5.534443E-1,5.1388215E-2,-2.5191924E-1,-2.8585497E-2,-2.0863285E-2,6.6173114E-3],"categories":[],"categories_nodes":[],"categories_segments":[],"categories_sizes":[],"default_left":[0,0,0,0,0,0,0,0,0],"id":31,"left_children":[1,3,-1,5,-1,7,-1,-1,-1],"loss_changes":[1.0347398E1,4.927388E0,0E0,1.3108158E-1,0E0,3.5008729E-1,0E0,0E0,0E0],"parents":[2147483647,0,0,1,1,3,3,5,5],"right_children":[2,4,-1,6,-1,8,-1,-1,-1],"split_conditions":[1E0,1E0,6.698822E-2,-1.4048547E0,5.1388215E-2,-1.0450096E0,-2.8585497E-2,-2.0863285E-2,6.6173114E-3],"split_indices":[30,32,0,43,0,44,0,0,0],"split_type":[0,0,0,0,0,0,0,0,0],"sum_hessian":[5.241977E1,5.0108036E1,2.3117318E0,4.8950844E1,1.1571925E0,3.6408243E0,4.531002E1,2.485468E0,1.1553563E0],"tree_param":{"num_deleted":"0","num_feature":"49","num_nodes":"9","size_leaf_vector":"1"}},{"base_weights":[2.0486374E-1,1.1287152E0,-5.1063E-1,1.5132217E0,-2.4390396E-2,-2.8282732E-2,9.328484E-2,1.6170317E0,-1.4847233E-2,2.8586367E-2,-1.786909E-2,8.3907604E-2,3.180003E-2],"categories":[],"categories_nodes":[],"categories_segments":[],"categories_sizes":[],"default_left":[0,0,0,0,0,0,0,0,0,0,0,0,0],"id":32,"left_children":[1,3,5,7,-1,-1,9,11,-1,-1,-1,-1,-1],"loss_changes":[4.025272E1,1.721516E1,1.1997032E0,4.550171E0,0E0,0E0,1.010864E0,1.7024612E-1,0E0,0E0,0E0,0E0,0E0],"parents":[2147483647,0,0,1,1,2,2,3,3,6,6,7,7],"right_children":[2,4,6,8,-1,-1,10,12,-1,-1,-1,-1,-1],"split_conditions":[-6.680295E-1,1.8943034E0,9.1008687E-1,1E0,-2.4390396E-2,-2.8282732E-2,1E0,1.0164156E0,-1.4847233E-2,2.8586367E-2,-1.786909E-2,8.3907604E-2,3.180003E-2],"split_indices":[44,47,46,12,0,0,40,43,0,0,0,0,0],"split_type":[0,0,0,0,0,0,0,0,0,0,0,0,0],"sum_hessian":[5.9023853E1,2.5508953E1,3.3514904E1,2.065892E1,4.850032E0,3.0774311E1,2.7405915E0,1.9639332E1,1.0195882E0,1.199033E0,1.5415585E0,1.7818594E1,1.8207386E0],"tree_param":{"num_deleted":"0","num_feature":"49","num_nodes":"13","size_leaf_vector":"1"}},{"base_weights":[1.8112E-1,-3.245043E-2,7.847729E-2,-2.9786333E-1,1.1236112E0,-3.8264075E-1,6.452807E-2,-1.9814758E-2,7.870866E-2,-5.096466E-1,1.6665447E-1,-5.357445E-1,-3.6213532E-4,-3.4113672E-1,5.7434548E-2,-2.8216332E-2,-1.3031553E-1,-2.358131E-2,4.382662E-3,7.3266635E-3,-1.6586637E-2],"categories":[],"categories_nodes":[],"categories_segments":[],"categories_sizes":[],"default_left":[0,0,0,0,0,0,0,0,0,0,0,0,0,0,0,0,0,0,0,0,0],"id":33,"left_children":[1,3,-1,5,7,9,-1,-1,-1,11,13,15,-1,17,-1,-1,19,-1,-1,-1,-1],"loss_changes":[1.7403685E1,1.6197422E1,0E0,6.262189E0,7.3777637E0,2.9757085E0,0E0,0E0,0E0,4.4062424E-1,4.6480885E0,2.997532E-1,0E0,3.9927214E-1,0E0,0E0,2.3941202E-1,0E0,0E0,0E0,0E0],"parents":[2147483647,0,0,1,1,3,3,4,4,5,5,9,9,10,10,11,11,13,13,16,16],"right_children":[2,4,-1,6,8,10,-1,-1,-1,12,14,16,-1,18,-1,-1,20,-1,-1,-1,-1],"split_conditions":[1E0,1E0,7.847729E-2,1E0,7.597167E-1,1E0,6.452807E-2,-1.9814758E-2,7.870866E-2,1E0,3.246241E-1,1E0,-3.6213532E-4,-6.680295E-1,5.7434548E-2,-2.8216332E-2,1E0,-2.358131E-2,4.382662E-3,7.3266635E-3,-1.6586637E-2],"split_indices":[35,22,0,26,45,40,0,0,0,14,43,12,0,44,0,0,13,0,0,0,0],"split_type":[0,0,0,0,0,0,0,0,0,0,0,0,0,0,0,0,0,0,0,0,0],"sum_hessian":[5.752003E1,5.069817E1,6.8218646E0,4.1835716E1,8.862452E0,4.0436638E1,1.399078E0,2.054005E0,6.808447E0,3.290147E1,7.535167E0,3.1213682E1,1.6877882E0,5.3970733E0,2.138094E0,2.8791965E1,2.4217172E0,4.061252E0,1.3358213E0,1.1346394E0,1.2870779E0],"tree_param":{"num_deleted":"0","num_feature":"49","num_nodes":"21","size_leaf_vector":"1"}},{"base_weights":[2.9351875E-1,-2.8113643E-2,8.6232305E-1,1.3277764E0,-4.4375473E-1,1.6256005E0,-1.4402649E-1,7.0035914E-3,-2.6320098E-2,8.35374E-2,2.4319923E-2,2.7514935E-2,-2.2820802E-2],"categories":[],"categories_nodes":[],"categories_segments":[],"categories_sizes":[],"default_left":[0,0,0,0,0,0,0,0,0,0,0,0,0],"id":34,"left_children":[1,-1,3,5,7,9,11,-1,-1,-1,-1,-1,-1],"loss_changes":[3.1459967E1,0E0,2.4067389E1,1.2824924E1,5.99519E-1,4.202423E-1,1.4989426E0,0E0,0E0,0E0,0E0,0E0,0E0],"parents":[2147483647,0,0,2,2,3,3,4,4,5,5,6,6],"right_children":[2,-1,4,6,8,10,12,-1,-1,-1,-1,-1,-1],"split_conditions":[-3.9729293E-2,-2.8113643E-2,9.65551E-1,3.4655628E-1,-1.1742575E0,1E0,1E0,7.0035914E-3,-2.6320098E-2,8.35374E-2,2.4319923E-2,2.7514935E-2,-2.2820802E-2],"split_indices":[44,0,44,46,43,40,13,0,0,0,0,0,0],"split_type":[0,0,0,0,0,0,0,0,0,0,0,0,0],"sum_hessian":[6.263292E1,2.5012291E1,3.762063E1,2.7723911E1,9.896719E0,2.2971132E1,4.7527795E0,1.1410975E0,8.755621E0,2.1646662E1,1.3244693E0,1.2384933E0,3.514286E0],"tree_param":{"num_deleted":"0","num_feature":"49","num_nodes":"13","size_leaf_vector":"1"}},{"base_weights":[-4.2519096E-2,-2.857623E-2,8.2670994E-2],"categories":[],"categories_nodes":[],"categories_segments":[],"categories_sizes":[],"default_left":[0,0,0],"id":35,"left_children":[1,-1,-1],"loss_changes":[5.4093166E1,0E0,0E0],"parents":[2147483647,0,0],"right_children":[2,-1,-1],"split_conditions":[1.0912111E0,-2.857623E-2,8.2670994E-2],"split_indices":[44,0,0],"split_type":[0,0,0],"sum_hessian":[5.824041E1,4.4898464E1,1.3341944E1],"tree_param":{"num_deleted":"0","num_feature":"49","num_nodes":"3","size_leaf_vector":"1"}},{"base_weights":[-3.486762E-1,7.080267E-2,-2.8415639E-2],"categories":[],"categories_nodes":[],"categories_segments":[],"categories_sizes":[],"default_left":[0,0,0],"id":36,"left_children":[1,-1,-1],"loss_changes":[2.0750763E1,0E0,0E0],"parents":[2147483647,0,0],"right_children":[2,-1,-1],"split_conditions":[-1.4219898E0,7.080267E-2,-2.8415639E-2],"split_indices":[44,0,0],"split_type":[0,0,0],"sum_hessian":[5.046039E1,4.9822097E0,4.5478176E1],"tree_param":{"num_deleted":"0","num_feature":"49","num_nodes":"3","size_leaf_vector":"1"}},{"base_weights":[-3.5424834E-1,8.480655E-1,-2.8394578E-2,6.901155E-2,-2.040717E-2],"categories":[],"categories_nodes":[],"categories_segments":[],"categories_sizes":[],"default_left":[0,0,0,0,0],"id":37,"left_children":[1,3,-1,-1,-1],"loss_changes":[1.4121697E1,6.1876616E0,0E0,0E0,0E0],"parents":[2147483647,0,0,1,1],"right_children":[2,4,-1,-1,-1],"split_conditions":[-1.122954E0,1E0,-2.8394578E-2,6.901155E-2,-2.040717E-2],"split_indices":[48,15,0,0,0],"split_type":[0,0,0,0,0],"sum_hessian":[5.210193E1,7.4132195E0,4.468871E1,5.1379232E0,2.2752962E0],"tree_param":{"num_deleted":"0","num_feature":"49","num_nodes":"5","size_leaf_vector":"1"}},{"base_weights":[1.7934485E-1,1.2017715E0,-4.2330602E-1,7.7976234E-2,-2.888309E-1,-5.161288E-1,5.1753003E-2,-2.233202E-2,8.56314E-3,-2.8177649E-2,-1.568112E-1,-2.3508484E-2,3.2007027E-2],"categories":[],"categories_nodes":[],"categories_segments":[],"categories_sizes":[],"default_left":[0,0,0,0,0,0,0,0,0,0,0,0,0],"id":38,"left_children":[1,3,5,-1,7,9,-1,-1,-1,-1,11,-1,-1],"loss_changes":[3.8386127E1,1.2746147E1,5.869871E0,0E0,4.6178454E-1,5.544596E-1,0E0,0E0,0E0,0E0,1.7454174E0,0E0,0E0],"parents":[2147483647,0,0,1,1,2,2,4,4,5,5,10,10],"right_children":[2,4,6,-1,8,10,-1,-1,-1,-1,12,-1,-1],"split_conditions":[-7.9368955E-1,1.8943034E0,1E0,7.7976234E-2,1E0,9.1008687E-1,5.1753003E-2,-2.233202E-2,8.56314E-3,-2.8177649E-2,-5.423695E-1,-2.3508484E-2,3.2007027E-2],"split_indices":[44,47,9,0,40,46,0,0,0,0,44,0,0],"split_type":[0,0,0,0,0,0,0,0,0,0,0,0,0],"sum_hessian":[6.0472706E1,2.2057291E1,3.8415417E1,1.7750767E1,4.3065248E0,3.6724075E1,1.6913394E0,3.2284317E0,1.078093E0,3.1940096E1,4.783981E0,3.7281327E0,1.0558481E0],"tree_param":{"num_deleted":"0","num_feature":"49","num_nodes":"13","size_leaf_vector":"1"}},{"base_weights":[1.582664E-1,-2.8158657E-2,7.265088E-2,-2.7365616E-2,1.9289659E-1,-2.7257243E-2,6.5753573E-1,1.1871121E0,-9.2198856E-2,1.4900583E0,-1.9990986E-2,-2.5969485E-2,6.32801E-2,8.0276184E-2,2.0654185E-2],"categories":[],"categories_nodes":[],"categories_segments":[],"categories_sizes":[],"default_left":[0,0,0,0,0,0,0,0,0,0,0,0,0,0,0],"id":39,"left_children":[1,3,-1,-1,5,-1,7,9,11,13,-1,-1,-1,-1,-1],"loss_changes":[1.4797217E1,6.351018E0,0E0,0E0,1.3700954E1,0E0,9.769398E0,7.4851856E0,7.0374093E0,8.5947037E-1,0E0,0E0,0E0,0E0,0E0],"parents":[2147483647,0,0,1,1,4,4,6,6,7,7,8,8,9,9],"right_children":[2,4,-1,-1,6,-1,8,10,12,14,-1,-1,-1,-1,-1],"split_conditions":[1E0,-2.1697436E-1,7.265088E-2,-2.7365616E-2,-7.9368955E-1,-2.7257243E-2,1E0,9.1008687E-1,1E0,1E0,-1.9990986E-2,-2.5969485E-2,6.32801E-2,8.0276184E-2,2.0654185E-2],"split_indices":[35,46,0,0,44,0,31,46,2,14,0,0,0,0,0],"split_type":[0,0,0,0,0,0,0,0,0,0,0,0,0,0,0],"sum_hessian":[6.0134575E1,5.3420994E1,6.7135825E0,1.5512828E1,3.7908165E1,1.457836E1,2.3329803E1,1.3330444E1,9.999359E0,1.1244843E1,2.0856025E0,8.075976E0,1.9233835E0,9.712742E0,1.5321007E0],"tree_param":{"num_deleted":"0","num_feature":"49","num_nodes":"15","size_leaf_vector":"1"}},{"base_weights":[2.737869E-1,-2.7909486E-2,7.9129684E-1,1.215412E0,-4.3858194E-1,7.595853E-2,-2.3606801E-2,6.86329E-3,-2.6111344E-2],"categories":[],"categories_nodes":[],"categories_segments":[],"categories_sizes":[],"default_left":[0,0,0,0,0,0,0,0,0],"id":40,"left_children":[1,-1,3,5,7,-1,-1,-1,-1],"loss_changes":[2.7236164E1,0E0,2.0761435E1,1.5634998E1,5.860529E-1,0E0,0E0,0E0,0E0],"parents":[2147483647,0,0,2,2,3,3,4,4],"right_children":[2,-1,4,6,8,-1,-1,-1,-1],"split_conditions":[-3.9729293E-2,-2.7909486E-2,9.65551E-1,1E0,1.0912111E0,7.595853E-2,-2.3606801E-2,6.86329E-3,-2.6111344E-2],"split_indices":[44,0,44,3,44,0,0,0,0],"split_type":[0,0,0,0,0,0,0,0,0],"sum_hessian":[6.1232224E1,2.3451588E1,3.7780632E1,2.8101715E1,9.678919E0,2.389957E1,4.202144E0,1.1462929E0,8.532626E0],"tree_param":{"num_deleted":"0","num_feature":"49","num_nodes":"9","size_leaf_vector":"1"}},{"base_weights":[-3.0762063E-2,-2.8397271E-2,7.674984E-2],"categories":[],"categories_nodes":[],"categories_segments":[],"categories_sizes":[],"default_left":[0,0,0],"id":41,"left_children":[1,-1,-1],"loss_changes":[4.9244797E1,0E0,0E0],"parents":[2147483647,0,0],"right_children":[2,-1,-1],"split_conditions":[1.0912111E0,-2.8397271E-2,7.674984E-2],"split_indices":[44,0,0],"split_type":[0,0,0],"sum_hessian":[5.651162E1,4.2550564E1,1.3961054E1],"tree_param":{"num_deleted":"0","num_feature":"49","num_nodes":"3","size_leaf_vector":"1"}},{"base_weights":[-3.36401E-1,6.741686E-2,-2.8277917E-2],"categories":[],"categories_nodes":[],"categories_segments":[],"categories_sizes":[],"default_left":[0,0,0],"id":42,"left_children":[1,-1,-1],"loss_changes":[2.1114286E1,0E0,0E0],"parents":[2147483647,0,0],"right_children":[2,-1,-1],"split_conditions":[-1.4219898E0,6.741686E-2,-2.8277917E-2],"split_indices":[44,0,0],"split_type":[0,0,0],"sum_hessian":[5.1715088E1,5.607261E0,4.6107826E1],"tree_param":{"num_deleted":"0","num_feature":"49","num_nodes":"3","size_leaf_vector":"1"}},{"base_weights":[-4.0161976E-1,7.062297E-1,-2.8243234E-2,6.0011502E-2,-1.9280797E-2],"categories":[],"categories_nodes":[],"categories_segments":[],"categories_sizes":[],"default_left":[0,0,0,0,0],"id":43,"left_children":[1,3,-1,-1,-1],"loss_changes":[9.702576E0,4.266074E0,0E0,0E0,0E0],"parents":[2147483647,0,0,1,1],"right_children":[2,4,-1,-1,-1],"split_conditions":[-1.122954E0,1E0,-2.8243234E-2,6.0011502E-2,-1.9280797E-2],"split_indices":[48,15,0,0,0],"split_type":[0,0,0,0,0],"sum_hessian":[5.0443783E1,6.0512486E0,4.4392532E1,4.097904E0,1.9533443E0],"tree_param":{"num_deleted":"0","num_feature":"49","num_nodes":"5","size_leaf_vector":"1"}},{"base_weights":[1.885345E-1,1.0352069E0,-5.0875866E-1,1.3105258E0,-3.1093776E-1,-2.8063102E-2,1.4392852E-2,7.052796E-2,-1.6038999E-2,-2.2667669E-2,5.063637E-3],"categories":[],"categories_nodes":[],"categories_segments":[],"categories_sizes":[],"default_left":[0,0,0,0,0,0,0,0,0,0,0],"id":44,"left_children":[1,3,5,7,9,-1,-1,-1,-1,-1,-1],"loss_changes":[3.816225E1,1.1199835E1,1.651721E0,4.428829E0,3.8362402E-1,0E0,0E0,0E0,0E0,0E0,0E0],"parents":[2147483647,0,0,1,1,2,2,3,3,4,4],"right_children":[2,4,6,8,10,-1,-1,-1,-1,-1,-1],"split_conditions":[-6.680295E-1,1.8943034E0,1.4107065E0,1E0,1E0,-2.8063102E-2,1.4392852E-2,7.052796E-2,-1.6038999E-2,-2.2667669E-2,5.063637E-3],"split_indices":[44,47,47,12,15,0,0,0,0,0,0],"split_type":[0,0,0,0,0,0,0,0,0,0,0],"sum_hessian":[6.2748184E1,2.8119776E1,3.4628407E1,2.3367104E1,4.752672E0,3.2764412E1,1.8639954E0,2.2144497E1,1.2226058E0,3.458111E0,1.2945613E0],"tree_param":{"num_deleted":"0","num_feature":"49","num_nodes":"11","size_leaf_vector":"1"}},{"base_weights":[1.7210796E-1,-7.5246245E-3,6.809231E-2,-2.7919576E-1,1.0442725E0,-3.6025178E-1,5.9216507E-2,-1.9357627E-2,6.946334E-2,-4.5365983E-1,1.1296209E-1,-4.7559896E-1,-1.3937777E-3,-2.3928681E-2,6.0074776E-2,-4.9994975E-1,-2.102537E-3,-2.6297763E-2,-8.518667E-3],"categories":[],"categories_nodes":[],"categories_segments":[],"categories_sizes":[],"default_left":[0,0,0,0,0,0,0,0,0,0,0,0,0,0,0,0,0,0,0],"id":45,"left_children":[1,3,-1,5,7,9,-1,-1,-1,11,13,15,-1,-1,-1,17,-1,-1,-1],"loss_changes":[1.2995752E1,1.5660136E1,0E0,5.590893E0,6.0941973E0,1.9084125E0,0E0,0E0,0E0,3.163848E-1,5.550414E0,3.3261347E-1,0E0,0E0,0E0,1.814332E-1,0E0,0E0,0E0],"parents":[2147483647,0,0,1,1,3,3,4,4,5,5,9,9,10,10,11,11,15,15],"right_children":[2,4,-1,6,8,10,-1,-1,-1,12,14,16,-1,-1,-1,18,-1,-1,-1],"split_conditions":[1E0,1E0,6.809231E-2,1E0,7.597167E-1,1E0,5.9216507E-2,-1.9357627E-2,6.946334E-2,3.1032958E0,1E0,1E0,-1.3937777E-3,-2.3928681E-2,6.0074776E-2,1.8943034E0,-2.102537E-3,-2.6297763E-2,-8.518667E-3],"split_indices":[35,22,0,26,45,2,0,0,0,47,16,14,0,0,0,47,0,0,0],"split_type":[0,0,0,0,0,0,0,0,0,0,0,0,0,0,0,0,0,0,0],"sum_hessian":[5.9760647E1,5.2784634E1,6.9760118E0,4.253319E1,1.0251443E1,4.1015438E1,1.5177549E0,1.9671767E0,8.284266E0,3.428852E1,6.7269163E0,3.2497066E1,1.7914522E0,4.721492E0,2.0054243E0,3.062388E1,1.8731874E0,2.7831928E1,2.7919526E0],"tree_param":{"num_deleted":"0","num_feature":"49","num_nodes":"19","size_leaf_vector":"1"}},{"base_weights":[2.267564E-1,-2.7713982E-2,6.9400346E-1,1.1034125E0,-2.6223881E-2,1.3814713E0,-2.338048E-2,7.164582E-2,6.6297427E-3],"categories":[],"categories_nodes":[],"categories_segments":[],"categories_sizes":[],"default_left":[0,0,0,0,0,0,0,0,0],"id":46,"left_children":[1,-1,3,5,-1,7,-1,-1,-1],"loss_changes":[2.2432405E1,0E0,1.9657566E1,1.3291874E1,0E0,1.4064865E0,0E0,0E0,0E0],"parents":[2147483647,0,0,2,2,3,3,5,5],"right_children":[2,-1,4,6,-1,8,-1,-1,-1],"split_conditions":[-3.9729293E-2,-2.7713982E-2,9.65551E-1,1E0,-2.6223881E-2,1E0,-2.338048E-2,7.164582E-2,6.6297427E-3],"split_indices":[44,0,44,3,0,16,0,0,0],"split_type":[0,0,0,0,0,0,0,0,0],"sum_hessian":[5.9415215E1,2.2170094E1,3.724512E1,2.794878E1,9.29634E0,2.3848444E1,4.1003366E0,2.2763384E1,1.0850599E0],"tree_param":{"num_deleted":"0","num_feature":"49","num_nodes":"9","size_leaf_vector":"1"}},{"base_weights":[-5.9828885E-2,-2.8239492E-2,7.100151E-2],"categories":[],"categories_nodes":[],"categories_segments":[],"categories_sizes":[],"default_left":[0,0,0],"id":47,"left_children":[1,-1,-1],"loss_changes":[4.3044388E1,0E0,0E0],"parents":[2147483647,0,0],"right_children":[2,-1,-1],"split_conditions":[1.0912111E0,-2.8239492E-2,7.100151E-2],"split_indices":[44,0,0],"split_type":[0,0,0],"sum_hessian":[5.5528843E1,4.18627E1,1.3666141E1],"tree_param":{"num_deleted":"0","num_feature":"49","num_nodes":"3","size_leaf_vector":"1"}},{"base_weights":[-3.103209E-1,-2.8093515E-2,5.631149E-2],"categories":[],"categories_nodes":[],"categories_segments":[],"categories_sizes":[],"default_left":[0,0,0],"id":48,"left_children":[1,-1,-1],"loss_changes":[1.9042538E1,0E0,0E0],"parents":[2147483647,0,0],"right_children":[2,-1,-1],"split_conditions":[2.619699E0,-2.8093515E-2,5.631149E-2],"split_indices":[47,0,0],"split_type":[0,0,0],"sum_hessian":[4.9945232E1,4.302087E1,6.924359E0],"tree_param":{"num_deleted":"0","num_feature":"49","num_nodes":"3","size_leaf_vector":"1"}},{"base_weights":[-3.7951523E-1,7.193663E-1,-2.8082429E-2,5.8567684E-2,-1.9357124E-2],"categories":[],"categories_nodes":[],"categories_segments":[],"categories_sizes":[],"default_left":[0,0,0,0,0],"id":49,"left_children":[1,3,-1,-1,-1],"loss_changes":[1.0526041E1,4.2689486E0,0E0,0E0,0E0],"parents":[2147483647,0,0,1,1],"right_children":[2,4,-1,-1,-1],"split_conditions":[-1.122954E0,1E0,-2.8082429E-2,5.8567684E-2,-1.9357124E-2],"split_indices":[48,15,0,0,0],"split_type":[0,0,0,0,0],"sum_hessian":[4.9573902E1,6.628983E0,4.294492E1,4.6648707E0,1.9641125E0],"tree_param":{"num_deleted":"0","num_feature":"49","num_nodes":"5","size_leaf_vector":"1"}},{"base_weights":[1.7538832E-1,9.65035E-1,-4.777504E-1,1.2418153E0,-3.1699452E-1,-5.289485E-1,1.3728549E-2,6.841814E-2,4.696914E-1,-2.2446819E-2,1.7867096E-3,-2.7825743E-2,-1.3358912E-1,5.0555855E-2,-1.8774888E-2,8.849783E-3,-1.7074918E-2],"categories":[],"categories_nodes":[],"categories_segments":[],"categories_sizes":[],"default_left":[0,0,0,0,0,0,0,0,0,0,0,0,0,0,0,0,0],"id":50,"left_children":[1,3,5,7,9,11,-1,-1,13,-1,-1,-1,15,-1,-1,-1,-1],"loss_changes":[3.293244E1,1.0624599E1,1.4982414E0,1.6941757E0,2.9137635E-1,2.8782463E-1,0E0,0E0,2.6175861E0,0E0,0E0,0E0,2.8527856E-1,0E0,0E0,0E0,0E0],"parents":[2147483647,0,0,1,1,2,2,3,3,4,4,5,5,8,8,12,12],"right_children":[2,4,6,8,10,12,-1,-1,14,-1,-1,-1,16,-1,-1,-1,-1],"split_conditions":[-6.680295E-1,1.8943034E0,1.4107065E0,-7.9368955E-1,1E0,1E0,1.3728549E-2,6.841814E-2,1E0,-2.2446819E-2,1.7867096E-3,-2.7825743E-2,1E0,5.0555855E-2,-1.8774888E-2,8.849783E-3,-1.7074918E-2],"split_indices":[44,47,47,44,15,14,0,0,0,0,0,0,0,0,0,0,0],"split_type":[0,0,0,0,0,0,0,0,0,0,0,0,0,0,0,0,0],"sum_hessian":[6.19597E1,2.783254E1,3.412716E1,2.2916428E1,4.9161124E0,3.2230663E1,1.8964984E0,1.9025957E1,3.8904703E0,3.379298E0,1.5368142E0,2.9748816E1,2.4818473E0,2.2517107E0,1.6387596E0,1.0548097E0,1.4270375E0],"tree_param":{"num_deleted":"0","num_feature":"49","num_nodes":"17","size_leaf_vector":"1"}},{"base_weights":[1.971784E-1,-2.677462E-2,4.2379668E-1,1.417628E-1,6.527592E-2,1.0355874E0,-4.6007365E-1,8.278155E-2,1.2652525E0,-2.7361372E-2,2.365456E-2,-1.5644712E-2,1.8791215E-2,6.821413E-2,1.9655367E-2],"categories":[],"categories_nodes":[],"categories_segments":[],"categories_sizes":[],"default_left":[0,0,0,0,0,0,0,0,0,0,0,0,0,0,0],"id":51,"left_children":[1,-1,3,5,-1,7,9,11,13,-1,-1,-1,-1,-1,-1],"loss_changes":[9.705467E0,0E0,1.0796232E1,1.907781E1,0E0,3.007372E0,1.995851E0,5.6194115E-1,4.4739723E-1,0E0,0E0,0E0,0E0,0E0,0E0],"parents":[2147483647,0,0,2,2,3,3,5,5,6,6,7,7,8,8],"right_children":[2,-1,4,6,-1,8,10,12,14,-1,-1,-1,-1,-1,-1],"split_conditions":[-7.9368955E-1,-2.677462E-2,1E0,-3.9729293E-2,6.527592E-2,1E0,3.4655628E-1,-6.680295E-1,6.8531114E-1,-2.7361372E-2,2.365456E-2,-1.5644712E-2,1.8791215E-2,6.821413E-2,1.9655367E-2],"split_indices":[44,0,3,44,0,0,46,44,47,0,0,0,0,0,0],"split_type":[0,0,0,0,0,0,0,0,0,0,0,0,0,0,0],"sum_hessian":[5.6086967E1,1.292776E1,4.3159206E1,3.3579124E1,9.580084E0,1.3221839E1,2.0357285E1,2.8322399E0,1.03896E1,1.8996655E1,1.3606305E0,1.1762655E0,1.6559743E0,8.823434E0,1.5661653E0],"tree_param":{"num_deleted":"0","num_feature":"49","num_nodes":"15","size_leaf_vector":"1"}},{"base_weights":[2.624374E-1,-2.7621595E-2,7.759566E-1,1.0826795E0,-2.523805E-2,1.3352531E0,-2.3234138E-2,6.9104865E-2,6.378694E-3],"categories":[],"categories_nodes":[],"categories_segments":[],"categories_sizes":[],"default_left":[0,0,0,0,0,0,0,0,0],"id":52,"left_children":[1,-1,3,5,-1,7,-1,-1,-1],"loss_changes":[2.5734755E1,0E0,1.528265E1,1.257299E1,0E0,1.3256607E0,0E0,0E0,0E0],"parents":[2147483647,0,0,2,2,3,3,5,5],"right_children":[2,-1,4,6,-1,8,-1,-1,-1],"split_conditions":[-3.9729293E-2,-2.7621595E-2,1.0912111E0,1E0,-2.523805E-2,1E0,-2.3234138E-2,6.9104865E-2,6.378694E-3],"split_indices":[44,0,44,3,0,16,0,0,0],"split_type":[0,0,0,0,0,0,0,0,0],"sum_hessian":[5.9475628E1,2.2962381E1,3.6513245E1,2.9582964E1,6.930283E0,2.5549616E1,4.0333467E0,2.4456558E1,1.0930583E0],"tree_param":{"num_deleted":"0","num_feature":"49","num_nodes":"9","size_leaf_vector":"1"}},{"base_weights":[-3.253051E-2,-2.8080508E-2,6.713657E-2],"categories":[],"categories_nodes":[],"categories_segments":[],"categories_sizes":[],"default_left":[0,0,0],"id":53,"left_children":[1,-1,-1],"loss_changes":[4.186905E1,0E0,0E0],"parents":[2147483647,0,0],"right_children":[2,-1,-1],"split_conditions":[1.0912111E0,-2.8080508E-2,6.713657E-2],"split_indices":[44,0,0],"split_type":[0,0,0],"sum_hessian":[5.5505844E1,4.051202E1,1.4993824E1],"tree_param":{"num_deleted":"0","num_feature":"49","num_nodes":"3","size_leaf_vector":"1"}},{"base_weights":[-3.2962713E-1,6.075999E-2,-2.7985457E-2],"categories":[],"categories_nodes":[],"categories_segments":[],"categories_sizes":[],"default_left":[0,0,0],"id":54,"left_children":[1,-1,-1],"loss_changes":[1.881991E1,0E0,0E0],"parents":[2147483647,0,0],"right_children":[2,-1,-1],"split_conditions":[-1.4219898E0,6.075999E-2,-2.7985457E-2],"split_indices":[44,0,0],"split_type":[0,0,0],"sum_hessian":[5.003508E1,5.93104E0,4.4104042E1],"tree_param":{"num_deleted":"0","num_feature":"49","num_nodes":"3","size_leaf_vector":"1"}},{"base_weights":[-3.4911728E-1,7.858644E-1,-2.7957663E-2,5.827107E-2,-1.8788334E-2],"categories":[],"categories_nodes":[],"categories_segments":[],"categories_sizes":[],"default_left":[0,0,0,0,0],"id":55,"left_children":[1,3,-1,-1,-1],"loss_changes":[1.28504715E1,4.20579E0,0E0,0E0,0E0],"parents":[2147483647,0,0,1,1],"right_children":[2,4,-1,-1,-1],"split_conditions":[-1.122954E0,1E0,-2.7957663E-2,5.827107E-2,-1.8788334E-2],"split_indices":[48,15,0,0,0],"split_type":[0,0,0,0,0],"sum_hessian":[5.1062622E1,7.545745E0,4.3516876E1,5.6849527E0,1.8607919E0],"tree_param":{"num_deleted":"0","num_feature":"49","num_nodes":"5","size_leaf_vector":"1"}},{"base_weights":[2.0710172E-1,9.3587095E-1,-4.6675476E-1,1.1770064E0,-3.0155972E-1,-2.7626915E-2,1.6146943E-1,6.449022E-2,4.5474538E-1,-2.1877868E-2,1.8149981E-3,-1.9787516E-2,3.9837975E-2,-1.8554753E-2,4.845663E-2],"categories":[],"categories_nodes":[],"categories_segments":[],"categories_sizes":[],"default_left":[0,0,0,0,0,0,0,0,0,0,0,0,0,0,0],"id":56,"left_children":[1,3,5,7,9,-1,11,-1,13,-1,-1,-1,-1,-1,-1],"loss_changes":[3.0290699E1,9.168901E0,1.8273745E0,1.4441109E0,2.738089E-1,0E0,1.960993E0,0E0,2.4460137E0,0E0,0E0,0E0,0E0,0E0,0E0],"parents":[2147483647,0,0,1,1,2,2,3,3,4,4,6,6,8,8],"right_children":[2,4,6,8,10,-1,12,-1,14,-1,-1,-1,-1,-1,-1],"split_conditions":[-6.680295E-1,1.8943034E0,9.1008687E-1,-7.9368955E-1,1E0,-2.7626915E-2,-5.423695E-1,6.449022E-2,1E0,-2.1877868E-2,1.8149981E-3,-1.9787516E-2,3.9837975E-2,-1.8554753E-2,4.845663E-2],"split_indices":[44,47,46,44,15,0,44,0,1,0,0,0,0,0,0],"split_type":[0,0,0,0,0,0,0,0,0,0,0,0,0,0,0],"sum_hessian":[5.9791557E1,2.8538557E1,3.1253002E1,2.3925146E1,4.6134105E0,2.760415E1,3.6488504E0,2.0013742E1,3.911405E0,3.07896E0,1.5344504E0,2.1447356E0,1.504115E0,1.6081365E0,2.3032687E0],"tree_param":{"num_deleted":"0","num_feature":"49","num_nodes":"15","size_leaf_vector":"1"}},{"base_weights":[1.2624353E-1,-1.0874296E-1,7.170242E-1,-4.3963403E-1,9.0693086E-1,-2.1303516E-2,9.7905815E-1,-5.2531046E-1,4.891482E-2,-1.8840903E-2,6.1011594E-2,-2.3687128E-3,1.1323055E0,-2.7658338E-2,-1.841838E-1,6.302937E-2,1.4499433E-2,-1.8687375E-2,7.375408E-3],"categories":[],"categories_nodes":[],"categories_segments":[],"categories_sizes":[],"default_left":[0,0,0,0,0,0,0,0,0,0,0,0,0,0,0,0,0,0,0],"id":57,"left_children":[1,3,5,7,9,-1,11,13,-1,-1,-1,-1,15,-1,17,-1,-1,-1,-1],"loss_changes":[8.130551E0,1.4637315E1,5.400732E0,4.4778714E0,4.7783556E0,0E0,2.2304163E0,1.9669437E-1,0E0,0E0,0E0,0E0,9.398432E-1,0E0,2.9854512E-1,0E0,0E0,0E0,0E0],"parents":[2147483647,0,0,1,1,2,2,3,3,4,4,6,6,7,7,12,12,14,14],"right_children":[2,4,6,8,10,-1,12,14,-1,-1,-1,-1,16,-1,18,-1,-1,-1,-1],"split_conditions":[1E0,1E0,-7.9368955E-1,1E0,7.597167E-1,-2.1303516E-2,-8.269154E-1,1E0,4.891482E-2,-1.8840903E-2,6.1011594E-2,-2.3687128E-3,1E0,-2.7658338E-2,1E0,6.302937E-2,1.4499433E-2,-1.8687375E-2,7.375408E-3],"split_indices":[40,22,44,26,45,0,45,12,0,0,0,0,1,0,1,0,0,0,0],"split_type":[0,0,0,0,0,0,0,0,0,0,0,0,0,0,0,0,0,0,0],"sum_hessian":[5.700506E1,4.136702E1,1.5638041E1,3.1629696E1,9.737323E0,2.7995028E0,1.2838538E1,3.0421068E1,1.2086273E0,1.8704461E0,7.866876E0,1.7575486E0,1.108099E1,2.7549776E1,2.8712924E0,9.185499E0,1.8954906E0,1.7464156E0,1.1248766E0],"tree_param":{"num_deleted":"0","num_feature":"49","num_nodes":"19","size_leaf_vector":"1"}},{"base_weights":[3.1235147E-1,7.619159E-1,-4.704072E-1,1.2121004E0,-2.6107857E-2,-5.0726897E-1,7.0384913E-3,1.2512329E0,6.00522E-3,-2.7418692E-2,4.943965E-3,1.9124992E-2,6.419022E-2],"categories":[],"categories_nodes":[],"categories_segments":[],"categories_sizes":[],"default_left":[0,0,0,0,0,0,0,0,0,0,0,0,0],"id":58,"left_children":[1,3,5,7,-1,9,-1,11,-1,-1,-1,-1,-1],"loss_changes":[2.2632654E1,2.4095205E1,6.0556555E-1,1.1467667E0,0E0,6.167741E-1,0E0,3.35083E-1,0E0,0E0,0E0,0E0,0E0],"parents":[2147483647,0,0,1,1,2,2,3,3,5,5,7,7],"right_children":[2,4,6,8,-1,10,-1,12,-1,-1,-1,-1,-1],"split_conditions":[3.4655628E-1,2.093255E-1,1E0,1E0,-2.6107857E-2,1E0,7.0384913E-3,-7.80505E-1,6.00522E-3,-2.7418692E-2,4.943965E-3,1.9124992E-2,6.419022E-2],"split_indices":[46,43,4,16,0,2,0,46,0,0,0,0,0],"split_type":[0,0,0,0,0,0,0,0,0,0,0,0,0],"sum_hessian":[6.2297005E1,3.9587315E1,2.270969E1,2.9352604E1,1.023471E1,2.1578259E1,1.1314313E0,2.8196346E1,1.1562582E0,2.0297157E1,1.281102E0,1.4794858E0,2.671686E1],"tree_param":{"num_deleted":"0","num_feature":"49","num_nodes":"13","size_leaf_vector":"1"}},{"base_weights":[-2.4204116E-2,-2.7924163E-2,6.347834E-2],"categories":[],"categories_nodes":[],"categories_segments":[],"categories_sizes":[],"default_left":[0,0,0],"id":59,"left_children":[1,-1,-1],"loss_changes":[3.9849426E1,0E0,0E0],"parents":[2147483647,0,0],"right_children":[2,-1,-1],"split_conditions":[1.0912111E0,-2.7924163E-2,6.347834E-2],"split_indices":[44,0,0],"split_type":[0,0,0],"sum_hessian":[5.562387E1,3.9769062E1,1.5854809E1],"tree_param":{"num_deleted":"0","num_feature":"49","num_nodes":"3","size_leaf_vector":"1"}},{"base_weights":[-3.4904438E-1,5.625106E-2,-2.7798532E-2],"categories":[],"categories_nodes":[],"categories_segments":[],"categories_sizes":[],"default_left":[0,0,0],"id":60,"left_children":[1,-1,-1],"loss_changes":[1.5019236E1,0E0,0E0],"parents":[2147483647,0,0],"right_children":[2,-1,-1],"split_conditions":[-1.4219898E0,5.625106E-2,-2.7798532E-2],"split_indices":[44,0,0],"split_type":[0,0,0],"sum_hessian":[4.6189114E1,5.1396112E0,4.1049503E1],"tree_param":{"num_deleted":"0","num_feature":"49","num_nodes":"3","size_leaf_vector":"1"}},{"base_weights":[-3.7650684E-1,-4.6285465E-1,4.9757436E-2,-5.1872885E-1,4.132032E-2,-2.7842093E-2,-1.3523906E-1,-2.1409666E-2,1.8102882E-2],"categories":[],"categories_nodes":[],"categories_segments":[],"categories_sizes":[],"default_left":[0,0,0,0,0,0,0,0,0],"id":61,"left_children":[1,3,-1,5,-1,-1,7,-1,-1],"loss_changes":[6.3684244E0,3.8582563E0,0E0,6.0061646E-1,0E0,0E0,9.565029E-1,0E0,0E0],"parents":[2147483647,0,0,1,1,3,3,6,6],"right_children":[2,4,-1,6,-1,-1,8,-1,-1],"split_conditions":[1E0,1E0,4.9757436E-2,2.3779004E0,4.132032E-2,-2.7842093E-2,-9.193496E-1,-2.1409666E-2,1.8102882E-2],"split_indices":[30,32,0,47,0,0,44,0,0],"split_type":[0,0,0,0,0,0,0,0,0],"sum_hessian":[4.8880463E1,4.6608917E1,2.2715452E0,4.5245705E1,1.3632107E0,4.074431E1,4.501398E0,2.9201279E0,1.5812705E0],"tree_param":{"num_deleted":"0","num_feature":"49","num_nodes":"9","size_leaf_vector":"1"}},{"base_weights":[1.7114225E-1,-5.223176E-1,8.538785E-1,-2.752447E-2,4.2888983E-3,-2.1157345E-2,9.9465317E-1,-1.5212712E-1,1.1210308E0,9.1236355E-3,-1.780798E-2,6.0956813E-2,-1.742899E-2],"categories":[],"categories_nodes":[],"categories_segments":[],"categories_sizes":[],"default_left":[0,0,0,0,0,0,0,0,0,0,0,0,0],"id":62,"left_children":[1,3,5,-1,-1,-1,7,9,11,-1,-1,-1,-1],"loss_changes":[2.9025137E1,5.708685E-1,5.957262E0,0E0,0E0,0E0,4.2338905E0,3.1509826E-1,4.0832424E0,0E0,0E0,0E0,0E0],"parents":[2147483647,0,0,1,1,2,2,6,6,7,7,8,8],"right_children":[2,4,6,-1,-1,-1,8,10,12,-1,-1,-1,-1],"split_conditions":[9.1008687E-1,1.4107065E0,-1.4219898E0,-2.752447E-2,4.2888983E-3,-2.1157345E-2,-1.122954E0,1E0,1E0,9.1236355E-3,-1.780798E-2,6.0956813E-2,-1.742899E-2],"split_indices":[46,47,44,0,0,0,48,30,2,0,0,0,0],"split_type":[0,0,0,0,0,0,0,0,0,0,0,0,0],"sum_hessian":[5.936357E1,2.9567064E1,2.9796505E1,2.8348473E1,1.2185924E0,2.7593606E0,2.7037146E1,2.6635668E0,2.4373577E1,1.0489788E0,1.614588E0,2.3008085E1,1.365493E0],"tree_param":{"num_deleted":"0","num_feature":"49","num_nodes":"13","size_leaf_vector":"1"}},{"base_weights":[1.8053102E-1,-3.0696292E-3,5.840773E-2,-2.474246E-1,9.44261E-1,-3.2726455E-1,5.3282082E-2,-1.6687995E-2,5.8205165E-2,-4.9145752E-1,1.8909019E-1,-5.1817805E-1,-3.0090725E-3,-1.6327296E-1,5.19798E-2,-2.7408486E-2,-1.523997E-1,-2.3897203E-2,3.810331E-1,4.9833814E-3,-1.680424E-2,-1.720471E-2,5.146077E-2],"categories":[],"categories_nodes":[],"categories_segments":[],"categories_sizes":[],"default_left":[0,0,0,0,0,0,0,0,0,0,0,0,0,0,0,0,0,0,0,0,0,0,0],"id":63,"left_children":[1,3,-1,5,7,9,-1,-1,-1,11,13,15,-1,17,-1,-1,19,-1,21,-1,-1,-1,-1],"loss_changes":[1.0997093E1,1.2298872E1,0E0,4.7755156E0,3.4496336E0,3.532588E0,0E0,0E0,0E0,3.2675123E-1,3.3195915E0,2.3587847E-1,0E0,1.603004E0,0E0,0E0,1.9978932E-1,0E0,2.0440605E0,0E0,0E0,0E0,0E0],"parents":[2147483647,0,0,1,1,3,3,4,4,5,5,9,9,10,10,11,11,13,13,16,16,18,18],"right_children":[2,4,-1,6,8,10,-1,-1,-1,12,14,16,-1,18,-1,-1,20,-1,22,-1,-1,-1,-1],"split_conditions":[1E0,1E0,5.840773E-2,1E0,7.597167E-1,1E0,5.3282082E-2,-1.6687995E-2,5.8205165E-2,1E0,1E0,1E0,-3.0090725E-3,1.1689081E0,5.19798E-2,-2.7408486E-2,1E0,-2.3897203E-2,-8.269154E-1,4.9833814E-3,-1.680424E-2,-1.720471E-2,5.146077E-2],"split_indices":[35,22,0,26,45,40,0,0,0,14,2,12,0,47,0,0,41,0,45,0,0,0,0],"split_type":[0,0,0,0,0,0,0,0,0,0,0,0,0,0,0,0,0,0,0,0,0,0,0],"sum_hessian":[5.9627636E1,5.1121048E1,8.506586E0,4.122601E1,9.8950405E0,3.957071E1,1.6553016E0,1.3762474E0,8.518793E0,3.0060228E1,9.51048E0,2.8116705E1,1.9435232E0,7.29585E0,2.2146301E0,2.5525152E1,2.5915527E0,4.7004013E0,2.5954485E0,1.2852416E0,1.3063112E0,1.4464414E0,1.1490073E0],"tree_param":{"num_deleted":"0","num_feature":"49","num_nodes":"23","size_leaf_vector":"1"}},{"base_weights":[2.7034387E-1,-2.7231244E-2,7.0948166E-1,1.0075608E0,-2.5247985E-2,1.1859014E0,-2.6187617E-1,1.8544875E-2,6.0875393E-2,7.514804E-3,-2.0990932E-2],"categories":[],"categories_nodes":[],"categories_segments":[],"categories_sizes":[],"default_left":[0,0,0,0,0,0,0,0,0,0,0],"id":64,"left_children":[1,-1,3,5,-1,7,9,-1,-1,-1,-1],"loss_changes":[2.1906492E1,0E0,1.4811443E1,7.568142E0,0E0,2.771492E-1,3.7349436E-1,0E0,0E0,0E0,0E0],"parents":[2147483647,0,0,2,2,3,3,5,5,6,6],"right_children":[2,-1,4,6,-1,8,10,-1,-1,-1,-1],"split_conditions":[-3.9729293E-2,-2.7231244E-2,2.093255E-1,3.4655628E-1,-2.5247985E-2,-7.80505E-1,1E0,1.8544875E-2,6.0875393E-2,7.514804E-3,-2.0990932E-2],"split_indices":[44,0,43,46,0,46,3,0,0,0,0],"split_type":[0,0,0,0,0,0,0,0,0,0,0],"sum_hessian":[5.9131542E1,2.062138E1,3.8510162E1,3.105757E1,7.4525914E0,2.7289526E1,3.7680435E0,1.4942286E0,2.5795298E1,1.0572969E0,2.7107465E0],"tree_param":{"num_deleted":"0","num_feature":"49","num_nodes":"11","size_leaf_vector":"1"}},{"base_weights":[3.4240421E-3,-2.7791386E-2,6.043982E-2],"categories":[],"categories_nodes":[],"categories_segments":[],"categories_sizes":[],"default_left":[0,0,0],"id":65,"left_children":[1,-1,-1],"loss_changes":[3.9610752E1,0E0,0E0],"parents":[2147483647,0,0],"right_children":[2,-1,-1],"split_conditions":[1.0912111E0,-2.7791386E-2,6.043982E-2],"split_indices":[44,0,0],"split_type":[0,0,0],"sum_hessian":[5.6763664E1,3.9141987E1,1.7621677E1],"tree_param":{"num_deleted":"0","num_feature":"49","num_nodes":"3","size_leaf_vector":"1"}},{"base_weights":[-3.065227E-1,5.567829E-2,-2.7688606E-2],"categories":[],"categories_nodes":[],"categories_segments":[],"categories_sizes":[],"default_left":[0,0,0],"id":66,"left_children":[1,-1,-1],"loss_changes":[1.7975433E1,0E0,0E0],"parents":[2147483647,0,0],"right_children":[2,-1,-1],"split_conditions":[-1.4219898E0,5.567829E-2,-2.7688606E-2],"split_indices":[44,0,0],"split_type":[0,0,0],"sum_hessian":[4.8438858E1,6.6634135E0,4.1775444E1],"tree_param":{"num_deleted":"0","num_feature":"49","num_nodes":"3","size_leaf_vector":"1"}},{"base_weights":[-3.5078043E-1,6.81977E-1,-2.7645279E-2,5.2246403E-2,-1.8828427E-2],"categories":[],"categories_nodes":[],"categories_segments":[],"categories_sizes":[],"default_left":[0,0,0,0,0],"id":67,"left_children":[1,3,-1,-1,-1],"loss_changes":[1.0430603E1,3.594183E0,0E0,0E0,0E0],"parents":[2147483647,0,0,1,1],"right_children":[2,4,-1,-1,-1],"split_conditions":[-1.122954E0,2.619699E0,-2.7645279E-2,5.2246403E-2,-1.8828427E-2],"split_indices":[48,47,0,0,0],"split_type":[0,0,0,0,0],"sum_hessian":[4.716152E1,7.330799E0,3.983072E1,5.4686036E0,1.8621955E0],"tree_param":{"num_deleted":"0","num_feature":"49","num_nodes":"5","size_leaf_vector":"1"}},{"base_weights":[1.865394E-1,-4.891862E-1,8.4501565E-1,-2.7381385E-2,1.6917327E-2,-2.3970242E-1,9.96096E-1,-2.021325E-2,5.3081997E-3,1.1041113E0,-1.8291228E-2,5.746868E-2,2.1430649E-2],"categories":[],"categories_nodes":[],"categories_segments":[],"categories_sizes":[],"default_left":[0,0,0,0,0,0,0,0,0,0,0,0,0],"id":68,"left_children":[1,3,5,-1,-1,7,9,-1,-1,11,-1,-1,-1],"loss_changes":[2.7394629E1,1.6632781E0,5.3318367E0,0E0,0E0,3.0504438E-1,4.445368E0,0E0,0E0,2.932148E-1,0E0,0E0,0E0],"parents":[2147483647,0,0,1,1,2,2,5,5,6,6,9,9],"right_children":[2,4,6,-1,-1,8,10,-1,-1,12,-1,-1,-1],"split_conditions":[9.1008687E-1,1.4107065E0,-1.122954E0,-2.7381385E-2,1.6917327E-2,1E0,1E0,-2.021325E-2,5.3081997E-3,1.0164156E0,-1.8291228E-2,5.746868E-2,2.1430649E-2],"split_indices":[46,47,48,0,0,15,33,0,0,43,0,0,0],"split_type":[0,0,0,0,0,0,0,0,0,0,0,0,0],"sum_hessian":[5.9638958E1,2.956084E1,3.0078117E1,2.792685E1,1.6339915E0,3.6054354E0,2.6472683E1,2.3286304E0,1.2768049E0,2.470278E1,1.769904E0,2.2494032E1,2.2087479E0],"tree_param":{"num_deleted":"0","num_feature":"49","num_nodes":"13","size_leaf_vector":"1"}},{"base_weights":[1.7072693E-1,-7.598363E-3,5.5558857E-2,-2.6050007E-1,8.594948E-1,-3.4227785E-1,5.111083E-2,9.556674E-1,1.135615E-2,-4.883913E-1,1.6315457E-1,1.2183577E-2,5.425778E-2,-5.1338416E-1,-1.7815346E-1,-3.39273E-1,4.7716185E-2,-2.7236015E-2,-2.7775353E-1,-1.8386086E-2,7.32048E-3,-2.3324523E-2,5.2259816E-3,-1.9217916E-2,-4.434291E-3],"categories":[],"categories_nodes":[],"categories_segments":[],"categories_sizes":[],"default_left":[0,0,0,0,0,0,0,0,0,0,0,0,0,0,0,0,0,0,0,0,0,0,0,0,0],"id":69,"left_children":[1,3,-1,5,7,9,-1,11,-1,13,15,-1,-1,17,19,21,-1,-1,23,-1,-1,-1,-1,-1,-1],"loss_changes":[1.0168705E1,1.1609469E1,0E0,4.646891E0,5.101042E-1,2.978897E0,0E0,6.636534E-1,0E0,1.4661264E-1,4.121313E0,0E0,0E0,5.458975E-2,2.8890634E-1,4.2028862E-1,0E0,0E0,7.30066E-2,0E0,0E0,0E0,0E0,0E0,0E0],"parents":[2147483647,0,0,1,1,3,3,4,4,5,5,7,7,9,9,10,10,13,13,14,14,15,15,18,18],"right_children":[2,4,-1,6,8,10,-1,12,-1,14,16,-1,-1,18,20,22,-1,-1,24,-1,-1,-1,-1,-1,-1],"split_conditions":[1E0,1E0,5.5558857E-2,1E0,-1.1742575E0,1E0,5.111083E-2,-1.4048547E0,1.135615E-2,1E0,3.246241E-1,1.2183577E-2,5.425778E-2,1E0,1E0,1.1689081E0,4.7716185E-2,-2.7236015E-2,-2.818827E-1,-1.8386086E-2,7.32048E-3,-2.3324523E-2,5.2259816E-3,-1.9217916E-2,-4.434291E-3],"split_indices":[35,22,0,26,43,40,0,43,0,12,43,0,0,5,1,47,0,0,47,0,0,0,0,0,0],"split_type":[0,0,0,0,0,0,0,0,0,0,0,0,0,0,0,0,0,0,0,0,0,0,0,0,0],"sum_hessian":[5.9583748E1,5.0920315E1,8.663433E0,3.99638E1,1.0956515E1,3.825788E1,1.7059155E0,9.066429E0,1.8900865E0,2.9704456E1,8.553428E0,1.838604E0,7.227825E0,2.6883875E1,2.8205814E0,5.580645E0,2.9727826E0,2.2570503E1,4.31337E0,1.6966441E0,1.1239374E0,4.297562E0,1.2830828E0,2.0976872E0,2.215683E0],"tree_param":{"num_deleted":"0","num_feature":"49","num_nodes":"25","size_leaf_vector":"1"}},{"base_weights":[2.2467166E-1,6.6998965E-1,-5.082595E-1,1.0738323E0,-2.5734562E-2,-2.7248478E-2,-1.8461405E-3,1.1221341E0,2.4283677E-3,1.8026004E-2,5.757589E-2],"categories":[],"categories_nodes":[],"categories_segments":[],"categories_sizes":[],"default_left":[0,0,0,0,0,0,0,0,0,0,0],"id":70,"left_children":[1,3,5,7,-1,-1,-1,9,-1,-1,-1],"loss_changes":[2.0749298E1,1.9368067E1,3.9863205E-1,1.4140129E0,0E0,0E0,0E0,2.1760559E-1,0E0,0E0,0E0],"parents":[2147483647,0,0,1,1,2,2,3,3,7,7],"right_children":[2,4,6,8,-1,-1,-1,10,-1,-1,-1],"split_conditions":[3.4655628E-1,2.093255E-1,1E0,1E0,-2.5734562E-2,-2.7248478E-2,-1.8461405E-3,-7.80505E-1,2.4283677E-3,1.8026004E-2,5.757589E-2],"split_indices":[46,43,14,16,0,0,0,46,0,0,0],"split_type":[0,0,0,0,0,0,0,0,0,0,0],"sum_hessian":[6.1529278E1,3.8327774E1,2.3201506E1,2.8653671E1,9.674103E0,2.1380096E1,1.8214092E0,2.7274258E1,1.3794141E0,1.5061002E0,2.5768156E1],"tree_param":{"num_deleted":"0","num_feature":"49","num_nodes":"11","size_leaf_vector":"1"}},{"base_weights":[-5.2532926E-3,-2.7595976E-2,5.7165455E-2],"categories":[],"categories_nodes":[],"categories_segments":[],"categories_sizes":[],"default_left":[0,0,0],"id":71,"left_children":[1,-1,-1],"loss_changes":[3.4011784E1,0E0,0E0],"parents":[2147483647,0,0],"right_children":[2,-1,-1],"split_conditions":[1.0912111E0,-2.7595976E-2,5.7165455E-2],"split_indices":[44,0,0],"split_type":[0,0,0],"sum_hessian":[5.216423E1,3.5694603E1,1.6469625E1],"tree_param":{"num_deleted":"0","num_feature":"49","num_nodes":"3","size_leaf_vector":"1"}},{"base_weights":[-3.1288978E-1,5.2632477E-2,-2.7530814E-2],"categories":[],"categories_nodes":[],"categories_segments":[],"categories_sizes":[],"default_left":[0,0,0],"id":72,"left_children":[1,-1,-1],"loss_changes":[1.5783659E1,0E0,0E0],"parents":[2147483647,0,0],"right_children":[2,-1,-1],"split_conditions":[-1.4219898E0,5.2632477E-2,-2.7530814E-2],"split_indices":[44,0,0],"split_type":[0,0,0],"sum_hessian":[4.583577E1,6.288073E0,3.9547695E1],"tree_param":{"num_deleted":"0","num_feature":"49","num_nodes":"3","size_leaf_vector":"1"}},{"base_weights":[-3.346477E-1,6.91494E-1,-2.7517483E-2,5.0986983E-2,-1.8624915E-2],"categories":[],"categories_nodes":[],"categories_segments":[],"categories_sizes":[],"default_left":[0,0,0,0,0],"id":73,"left_children":[1,3,-1,-1,-1],"loss_changes":[1.1118164E1,3.4774947E0,0E0,0E0,0E0],"parents":[2147483647,0,0,1,1],"right_children":[2,4,-1,-1,-1],"split_conditions":[-1.122954E0,1E0,-2.7517483E-2,5.0986983E-2,-1.8624915E-2],"split_indices":[48,15,0,0,0],"split_type":[0,0,0,0,0],"sum_hessian":[4.7511616E1,7.869395E0,3.964222E1,6.045826E0,1.823569E0],"tree_param":{"num_deleted":"0","num_feature":"49","num_nodes":"5","size_leaf_vector":"1"}},{"base_weights":[1.6264214E-1,-5.1609194E-1,8.083794E-1,-2.7229255E-2,3.830867E-3,-2.343995E-1,9.530315E-1,-2.0568741E-2,9.197927E-3,1.0566028E0,-1.8080143E-2,5.667795E-2,-1.6106851E-2],"categories":[],"categories_nodes":[],"categories_segments":[],"categories_sizes":[],"default_left":[0,0,0,0,0,0,0,0,0,0,0,0,0],"id":74,"left_children":[1,3,5,-1,-1,7,9,-1,-1,11,-1,-1,-1],"loss_changes":[2.6383759E1,5.398464E-1,4.861824E0,0E0,0E0,4.1245174E-1,4.0858574E0,0E0,0E0,3.0676403E0,0E0,0E0,0E0],"parents":[2147483647,0,0,1,1,2,2,5,5,6,6,9,9],"right_children":[2,4,6,-1,-1,8,10,-1,-1,12,-1,-1,-1],"split_conditions":[9.1008687E-1,1.4107065E0,-1.122954E0,-2.7229255E-2,3.830867E-3,1E0,1E0,-2.0568741E-2,9.197927E-3,1E0,-1.8080143E-2,5.667795E-2,-1.6106851E-2],"split_indices":[46,47,48,0,0,37,10,0,0,2,0,0,0],"split_type":[0,0,0,0,0,0,0,0,0,0,0,0,0],"sum_hessian":[5.824598E1,2.8495327E1,2.975065E1,2.7265781E1,1.2295458E0,3.548624E0,2.6202028E1,2.505451E0,1.0431731E0,2.447044E1,1.731587E0,2.3345224E1,1.1252158E0],"tree_param":{"num_deleted":"0","num_feature":"49","num_nodes":"13","size_leaf_vector":"1"}},{"base_weights":[1.23621106E-1,-2.6247045E-2,3.139054E-1,-2.4883334E-2,4.80574E-1,1.7690673E-1,5.8314916E-2,-2.4896315E-1,4.8877925E-2,1.7742218E-1,-2.5938967E-2,4.9257796E-2,-2.3499439E-2],"categories":[],"categories_nodes":[],"categories_segments":[],"categories_sizes":[],"default_left":[0,0,0,0,0,0,0,0,0,0,0,0,0],"id":75,"left_children":[1,-1,3,-1,5,7,-1,9,-1,11,-1,-1,-1],"loss_changes":[7.283729E0,0E0,6.3565087E0,0E0,7.7124825E0,9.632303E0,0E0,2.2516584E0,0E0,4.6570926E0,0E0,0E0,0E0],"parents":[2147483647,0,0,2,2,4,4,5,5,7,7,9,9],"right_children":[2,-1,4,-1,6,8,-1,10,-1,12,-1,-1,-1],"split_conditions":[-7.9368955E-1,-2.6247045E-2,-7.80505E-1,-2.4883334E-2,2.093255E-1,1E0,5.8314916E-2,3.852028E-2,4.8877925E-2,9.1008687E-1,-2.5938967E-2,4.9257796E-2,-2.3499439E-2],"split_indices":[44,0,46,0,43,22,0,45,0,46,0,0,0],"split_type":[0,0,0,0,0,0,0,0,0,0,0,0,0],"sum_hessian":[5.66848E1,1.2459457E1,4.422534E1,7.196572E0,3.702877E1,2.6535658E1,1.0493111E1,1.777181E1,8.763848E0,7.0202603E0,1.075155E1,2.8912923E0,4.1289682E0],"tree_param":{"num_deleted":"0","num_feature":"49","num_nodes":"13","size_leaf_vector":"1"}},{"base_weights":[2.3373316E-1,-2.7002877E-2,6.267036E-1,8.874096E-1,-2.5012938E-2,1.0729175E0,-2.2605507E-2,1.5537244E-2,5.643124E-2],"categories":[],"categories_nodes":[],"categories_segments":[],"categories_sizes":[],"default_left":[0,0,0,0,0,0,0,0,0],"id":76,"left_children":[1,-1,3,5,-1,7,-1,-1,-1],"loss_changes":[1.9175703E1,0E0,1.2650728E1,8.959135E0,0E0,9.3367004E-1,0E0,0E0,0E0],"parents":[2147483647,0,0,2,2,3,3,5,5],"right_children":[2,-1,4,6,-1,8,-1,-1,-1],"split_conditions":[-3.9729293E-2,-2.7002877E-2,1.0912111E0,1E0,-2.5012938E-2,-3.81259E-1,-2.2605507E-2,1.5537244E-2,5.643124E-2],"split_indices":[44,0,44,3,0,48,0,0,0],"split_type":[0,0,0,0,0,0,0,0,0],"sum_hessian":[6.094896E1,2.0401823E1,4.054714E1,3.3102036E1,7.4450994E0,2.925025E1,3.8517878E0,2.4403422E0,2.6809908E1],"tree_param":{"num_deleted":"0","num_feature":"49","num_nodes":"9","size_leaf_vector":"1"}},{"base_weights":[-3.312294E-2,-2.749244E-2,5.4564483E-2],"categories":[],"categories_nodes":[],"categories_segments":[],"categories_sizes":[],"default_left":[0,0,0],"id":77,"left_children":[1,-1,-1],"loss_changes":[3.1685312E1,0E0,0E0],"parents":[2147483647,0,0],"right_children":[2,-1,-1],"split_conditions":[1.0912111E0,-2.749244E-2,5.4564483E-2],"split_indices":[44,0,0],"split_type":[0,0,0],"sum_hessian":[5.250184E1,3.6321304E1,1.618053E1],"tree_param":{"num_deleted":"0","num_feature":"49","num_nodes":"3","size_leaf_vector":"1"}},{"base_weights":[-3.236562E-1,5.0065394E-2,-2.7388608E-2],"categories":[],"categories_nodes":[],"categories_segments":[],"categories_sizes":[],"default_left":[0,0,0],"id":78,"left_children":[1,-1,-1],"loss_changes":[1.3923541E1,0E0,0E0],"parents":[2147483647,0,0],"right_children":[2,-1,-1],"split_conditions":[-1.4219898E0,5.0065394E-2,-2.7388608E-2],"split_indices":[44,0,0],"split_type":[0,0,0],"sum_hessian":[4.4042095E1,5.8701587E0,3.8171936E1],"tree_param":{"num_deleted":"0","num_feature":"49","num_nodes":"3","size_leaf_vector":"1"}},{"base_weights":[-3.323554E-1,6.0131544E-1,-2.7309796E-2,4.763928E-2,-1.912258E-2],"categories":[],"categories_nodes":[],"categories_segments":[],"categories_sizes":[],"default_left":[0,0,0,0,0],"id":79,"left_children":[1,3,-1,-1,-1],"loss_changes":[9.106832E0,3.3619633E0,0E0,0E0,0E0],"parents":[2147483647,0,0,1,1],"right_children":[2,4,-1,-1,-1],"split_conditions":[-1.122954E0,1E0,-2.7309796E-2,4.763928E-2,-1.912258E-2],"split_indices":[48,15,0,0,0],"split_type":[0,0,0,0,0],"sum_hessian":[4.296747E1,7.669388E0,3.529808E1,5.6738024E0,1.9955852E0],"tree_param":{"num_deleted":"0","num_feature":"49","num_nodes":"5","size_leaf_vector":"1"}},{"base_weights":[1.426601E-1,-2.7092421E-2,7.193496E-1,-2.24981E-2,8.8392264E-1,9.639275E-1,-1.6968533E-2,5.228708E-2,-1.7179642E-2],"categories":[],"categories_nodes":[],"categories_segments":[],"categories_sizes":[],"default_left":[0,0,0,0,0,0,0,0,0],"id":80,"left_children":[1,-1,3,-1,5,7,-1,-1,-1],"loss_changes":[2.3345036E1,0E0,6.554003E0,0E0,3.1047955E0,3.2368507E0,0E0,0E0,0E0],"parents":[2147483647,0,0,2,2,4,4,5,5],"right_children":[2,-1,4,-1,6,8,-1,-1,-1],"split_conditions":[9.1008687E-1,-2.7092421E-2,-1.122954E0,-2.24981E-2,1E0,1E0,-1.6968533E-2,5.228708E-2,-1.7179642E-2],"split_indices":[46,0,48,0,10,2,0,0,0],"split_type":[0,0,0,0,0,0,0,0,0],"sum_hessian":[5.7151543E1,2.6160473E1,3.099107E1,3.609686E0,2.7381384E1,2.5899546E1,1.4818388E0,2.4562813E1,1.3367331E0],"tree_param":{"num_deleted":"0","num_feature":"49","num_nodes":"9","size_leaf_vector":"1"}},{"base_weights":[1.4287873E-1,-3.645981E-2,5.0622713E-2,-2.7850828E-1,6.5231794E-1,-3.448079E-1,4.1929353E-2,-2.1086514E-2,5.0755095E-2,-4.7470263E-1,7.35755E-2,-2.5103489E-2,-1.694107E-1,-3.4892166E-1,4.593168E-2,7.131211E-3,-1.7903117E-2,-2.3696024E-2,8.481435E-3],"categories":[],"categories_nodes":[],"categories_segments":[],"categories_sizes":[],"default_left":[0,0,0,0,0,0,0,0,0,0,0,0,0,0,0,0,0,0,0],"id":81,"left_children":[1,3,-1,5,7,9,-1,-1,-1,11,13,-1,15,17,-1,-1,-1,-1,-1],"loss_changes":[9.022161E0,8.305985E0,0E0,3.0117037E0,5.4822245E0,1.9592624E0,0E0,0E0,0E0,1.4181757E-1,3.6247852E0,0E0,2.7141485E-1,5.27292E-1,0E0,0E0,0E0,0E0,0E0],"parents":[2147483647,0,0,1,1,3,3,4,4,5,5,9,9,10,10,12,12,13,13],"right_children":[2,4,-1,6,8,10,-1,-1,-1,12,14,-1,16,18,-1,-1,-1,-1,-1],"split_conditions":[1E0,1E0,5.0622713E-2,1E0,-1.0450096E0,1E0,4.1929353E-2,-2.1086514E-2,5.0755095E-2,1E0,1E0,-2.5103489E-2,1E0,-5.423695E-1,4.593168E-2,7.131211E-3,-1.7903117E-2,-2.3696024E-2,8.481435E-3],"split_indices":[35,3,0,26,44,40,0,0,0,12,2,0,0,44,0,0,0,0,0],"split_type":[0,0,0,0,0,0,0,0,0,0,0,0,0,0,0,0,0,0,0],"sum_hessian":[5.6616787E1,4.7730972E1,8.885815E0,3.5759953E1,1.197102E1,3.4409107E1,1.3508456E0,2.9815223E0,8.989497E0,2.615439E1,8.254717E0,2.3411196E1,2.7431943E0,5.894695E0,2.3600218E0,1.1255255E0,1.6176689E0,4.819097E0,1.0755979E0],"tree_param":{"num_deleted":"0","num_feature":"49","num_nodes":"19","size_leaf_vector":"1"}},{"base_weights":[2.470792E-1,-2.6833013E-2,6.194154E-1,8.3167547E-1,-2.4459118E-2,1.0269709E0,-2.3122743E-2,5.2890327E-2,5.0494177E-3],"categories":[],"categories_nodes":[],"categories_segments":[],"categories_sizes":[],"default_left":[0,0,0,0,0,0,0,0,0],"id":82,"left_children":[1,-1,3,5,-1,7,-1,-1,-1],"loss_changes":[1.8364307E1,0E0,1.0373468E1,9.553028E0,0E0,7.931633E-1,0E0,0E0,0E0],"parents":[2147483647,0,0,2,2,3,3,5,5],"right_children":[2,-1,4,6,-1,8,-1,-1,-1],"split_conditions":[-3.9729293E-2,-2.6833013E-2,1.0912111E0,1E0,-2.4459118E-2,1E0,-2.3122743E-2,5.2890327E-2,5.0494177E-3],"split_indices":[44,0,44,3,0,16,0,0,0],"split_type":[0,0,0,0,0,0,0,0,0],"sum_hessian":[6.0792297E1,1.9437178E1,4.1355118E1,3.491906E1,6.436059E0,3.0519798E1,4.399261E0,2.9398455E1,1.1213442E0],"tree_param":{"num_deleted":"0","num_feature":"49","num_nodes":"9","size_leaf_vector":"1"}},{"base_weights":[-1.1332062E-2,-2.7365182E-2,5.240915E-2],"categories":[],"categories_nodes":[],"categories_segments":[],"categories_sizes":[],"default_left":[0,0,0],"id":83,"left_children":[1,-1,-1],"loss_changes":[3.1807898E1,0E0,0E0],"parents":[2147483647,0,0],"right_children":[2,-1,-1],"split_conditions":[1.0912111E0,-2.7365182E-2,5.240915E-2],"split_indices":[44,0,0],"split_type":[0,0,0],"sum_hessian":[5.4002426E1,3.6182438E1,1.781999E1],"tree_param":{"num_deleted":"0","num_feature":"49","num_nodes":"3","size_leaf_vector":"1"}},{"base_weights":[-3.036811E-1,4.8457015E-2,-2.7241036E-2],"categories":[],"categories_nodes":[],"categories_segments":[],"categories_sizes":[],"default_left":[0,0,0],"id":84,"left_children":[1,-1,-1],"loss_changes":[1.4141722E1,0E0,0E0],"parents":[2147483647,0,0],"right_children":[2,-1,-1],"split_conditions":[-1.4219898E0,4.8457015E-2,-2.7241036E-2],"split_indices":[44,0,0],"split_type":[0,0,0],"sum_hessian":[4.3354797E1,6.4245768E0,3.693022E1],"tree_param":{"num_deleted":"0","num_feature":"49","num_nodes":"3","size_leaf_vector":"1"}},{"base_weights":[-3.2163987E-1,6.09705E-1,-2.7210085E-2,4.645848E-2,-1.8949738E-2],"categories":[],"categories_nodes":[],"categories_segments":[],"categories_sizes":[],"default_left":[0,0,0,0,0],"id":85,"left_children":[1,3,-1,-1,-1],"loss_changes":[9.717022E0,3.2594697E0,0E0,0E0,0E0],"parents":[2147483647,0,0,1,1],"right_children":[2,4,-1,-1,-1],"split_conditions":[-1.122954E0,1E0,-2.7210085E-2,4.645848E-2,-1.8949738E-2],"split_indices":[48,15,0,0,0],"split_type":[0,0,0,0,0],"sum_hessian":[4.4277596E1,8.204613E0,3.6072983E1,6.2464848E0,1.9581282E0],"tree_param":{"num_deleted":"0","num_feature":"49","num_nodes":"5","size_leaf_vector":"1"}},{"base_weights":[1.5750329E-1,7.5039333E-1,-4.4946942E-1,9.228092E-1,-2.648302E-1,-5.053303E-1,9.434737E-3,5.0260156E-2,3.776456E-1,-2.099221E-2,5.7096886E-3,-2.686048E-2,-1.1462146E-1,3.904763E-2,-1.7475104E-2,8.304205E-3,-1.587726E-2],"categories":[],"categories_nodes":[],"categories_segments":[],"categories_sizes":[],"default_left":[0,0,0,0,0,0,0,0,0,0,0,0,0,0,0,0,0],"id":86,"left_children":[1,3,5,7,9,11,-1,-1,13,-1,-1,-1,15,-1,-1,-1,-1],"loss_changes":[2.0987103E1,5.3909626E0,1.128427E0,7.593651E-1,3.4438562E-1,2.7371168E-1,0E0,0E0,1.7190077E0,0E0,0E0,0E0,2.4082391E-1,0E0,0E0,0E0,0E0],"parents":[2147483647,0,0,1,1,2,2,3,3,4,4,5,5,8,8,12,12],"right_children":[2,4,6,8,10,12,-1,-1,14,-1,-1,-1,16,-1,-1,-1,-1],"split_conditions":[-6.680295E-1,1.652505E0,1.4107065E0,-7.9368955E-1,1E0,1E0,9.434737E-3,5.0260156E-2,1E0,-2.099221E-2,5.7096886E-3,-2.686048E-2,1E0,3.904763E-2,-1.7475104E-2,8.304205E-3,-1.587726E-2],"split_indices":[44,47,47,44,40,14,0,0,0,0,0,0,0,0,0,0,0],"split_type":[0,0,0,0,0,0,0,0,0,0,0,0,0,0,0,0,0],"sum_hessian":[5.6381653E1,2.8402168E1,2.7979485E1,2.435669E1,4.0454774E0,2.5918858E1,2.0606263E0,2.042576E1,3.9309306E0,2.794769E0,1.2507083E0,2.3616915E1,2.3019435E0,2.4809153E0,1.4500153E0,1.0420349E0,1.2599087E0],"tree_param":{"num_deleted":"0","num_feature":"49","num_nodes":"17","size_leaf_vector":"1"}},{"base_weights":[1.7484517E-1,-2.0200335E-3,4.8785806E-2,-2.4308337E-1,6.15437E-1,-3.3312187E-1,4.5662113E-2,-2.1478929E-2,4.899992E-2,-4.6700147E-1,7.766389E-2,-2.793797E-1,-2.6542157E-2,-3.2911783E-1,3.833938E-2,-2.4185196E-2,1.688064E-2,-2.26434E-2,2.5610423E-3],"categories":[],"categories_nodes":[],"categories_segments":[],"categories_sizes":[],"default_left":[0,0,0,0,0,0,0,0,0,0,0,0,0,0,0,0,0,0,0],"id":87,"left_children":[1,3,-1,5,7,9,-1,-1,-1,11,13,15,-1,17,-1,-1,-1,-1,-1],"loss_changes":[8.181647E0,7.3387465E0,0E0,3.9954836E0,5.695556E0,1.8855367E0,0E0,0E0,0E0,1.5716934E-1,2.8096466E0,1.2456764E0,0E0,3.2612634E-1,0E0,0E0,0E0,0E0,0E0],"parents":[2147483647,0,0,1,1,3,3,4,4,5,5,9,9,10,10,11,11,13,13],"right_children":[2,4,-1,6,8,10,-1,-1,-1,12,14,16,-1,18,-1,-1,-1,-1,-1],"split_conditions":[1E0,1E0,4.8785806E-2,1E0,2.7891907E-1,1E0,4.5662113E-2,-2.1478929E-2,4.899992E-2,-2.0187852E-1,3.246241E-1,-8.139144E-1,-2.6542157E-2,1.1689081E0,3.833938E-2,-2.4185196E-2,1.688064E-2,-2.26434E-2,2.5610423E-3],"split_indices":[35,3,0,26,45,40,0,0,0,45,43,48,0,47,0,0,0,0,0],"split_type":[0,0,0,0,0,0,0,0,0,0,0,0,0,0,0,0,0,0,0],"sum_hessian":[5.674724E1,4.7299126E1,9.448113E0,3.4454105E1,1.2845021E1,3.262559E1,1.8285122E0,3.2760057E0,9.5690155E0,2.450296E1,8.122633E0,7.58572E0,1.691724E1,5.4361486E0,2.6864843E0,5.8608584E0,1.7248617E0,3.9577315E0,1.4784173E0],"tree_param":{"num_deleted":"0","num_feature":"49","num_nodes":"19","size_leaf_vector":"1"}},{"base_weights":[2.1464568E-1,-2.6747838E-2,5.8873665E-1,8.171096E-1,-2.4552206E-2,9.7087073E-1,-2.1874635E-2,1.0006416E0,4.842426E-3,5.124706E-2,7.6687257E-3],"categories":[],"categories_nodes":[],"categories_segments":[],"categories_sizes":[],"default_left":[0,0,0,0,0,0,0,0,0,0,0],"id":88,"left_children":[1,-1,3,5,-1,7,-1,9,-1,-1,-1],"loss_changes":[1.7427658E1,0E0,1.0557251E1,7.055176E0,0E0,7.078724E-1,0E0,4.563923E-1,0E0,0E0,0E0],"parents":[2147483647,0,0,2,2,3,3,5,5,7,7],"right_children":[2,-1,4,6,-1,8,-1,10,-1,-1,-1],"split_conditions":[-3.9729293E-2,-2.6747838E-2,2.093255E-1,1E0,-2.4552206E-2,1E0,-2.1874635E-2,9.65551E-1,4.842426E-3,5.124706E-2,7.6687257E-3],"split_indices":[44,0,43,3,0,16,0,44,0,0,0],"split_type":[0,0,0,0,0,0,0,0,0,0,0],"sum_hessian":[6.0025387E1,1.984001E1,4.0185375E1,3.3370747E1,6.8146286E0,2.9928886E1,3.441862E0,2.8802935E1,1.1259516E0,2.779604E1,1.0068941E0],"tree_param":{"num_deleted":"0","num_feature":"49","num_nodes":"11","size_leaf_vector":"1"}},{"base_weights":[-4.221046E-2,-2.72021E-2,5.003537E-2],"categories":[],"categories_nodes":[],"categories_segments":[],"categories_sizes":[],"default_left":[0,0,0],"id":89,"left_children":[1,-1,-1],"loss_changes":[2.7251333E1,0E0,0E0],"parents":[2147483647,0,0],"right_children":[2,-1,-1],"split_conditions":[1.0912111E0,-2.72021E-2,5.003537E-2],"split_indices":[44,0,0],"split_type":[0,0,0],"sum_hessian":[5.0028828E1,3.4099274E1,1.5929553E1],"tree_param":{"num_deleted":"0","num_feature":"49","num_nodes":"3","size_leaf_vector":"1"}},{"base_weights":[-3.0146983E-1,4.6715748E-2,-2.7120903E-2],"categories":[],"categories_nodes":[],"categories_segments":[],"categories_sizes":[],"default_left":[0,0,0],"id":90,"left_children":[1,-1,-1],"loss_changes":[1.3458121E1,0E0,0E0],"parents":[2147483647,0,0],"right_children":[2,-1,-1],"split_conditions":[-1.4219898E0,4.6715748E-2,-2.7120903E-2],"split_indices":[44,0,0],"split_type":[0,0,0],"sum_hessian":[4.2495857E1,6.4642253E0,3.603163E1],"tree_param":{"num_deleted":"0","num_feature":"49","num_nodes":"3","size_leaf_vector":"1"}},{"base_weights":[-3.4621626E-1,-2.6888702E-2,9.58534E-2,-2.470514E-2,6.8811214E-1,4.842039E-2,-1.6231878E-2],"categories":[],"categories_nodes":[],"categories_segments":[],"categories_sizes":[],"default_left":[0,0,0,0,0,0,0],"id":91,"left_children":[1,-1,3,-1,5,-1,-1],"loss_changes":[3.624741E0,0E0,5.093757E0,0E0,2.3603165E0,0E0,0E0],"parents":[2147483647,0,0,2,2,4,4],"right_children":[2,-1,4,-1,6,-1,-1],"split_conditions":[9.271096E-1,-2.6888702E-2,-1.0450096E0,-2.470514E-2,-5.423695E-1,4.842039E-2,-1.6231878E-2],"split_indices":[47,0,44,0,44,0,0],"split_type":[0,0,0,0,0,0,0],"sum_hessian":[4.1195496E1,2.8590261E1,1.2605233E1,6.3979187E0,6.207314E0,4.8960366E0,1.3112774E0],"tree_param":{"num_deleted":"0","num_feature":"49","num_nodes":"7","size_leaf_vector":"1"}},{"base_weights":[1.4266038E-1,8.060339E-1,-3.854243E-1,-2.0698821E-2,4.8486102E-2,-2.6836265E-2,1.878443E-1,4.3351114E-1,-1.9919153E-2,-1.857228E-2,4.6313386E-2],"categories":[],"categories_nodes":[],"categories_segments":[],"categories_sizes":[],"default_left":[0,0,0,0,0,0,0,0,0,0,0],"id":92,"left_children":[1,3,5,-1,-1,-1,7,9,-1,-1,-1],"loss_changes":[2.0120907E1,5.471382E0,2.890408E0,0E0,0E0,0E0,1.2465794E0,2.6182313E0,0E0,0E0,0E0],"parents":[2147483647,0,0,1,1,2,2,6,6,7,7],"right_children":[2,4,6,-1,-1,-1,8,10,-1,-1,-1],"split_conditions":[-7.9368955E-1,-1.4219898E0,9.1008687E-1,-2.0698821E-2,4.8486102E-2,-2.6836265E-2,2.093255E-1,-2.5186884E-1,-1.9919153E-2,-1.857228E-2,4.6313386E-2],"split_indices":[44,44,46,0,0,0,43,43,0,0,0],"split_type":[0,0,0,0,0,0,0,0,0,0,0],"sum_hessian":[5.5549404E1,2.4387629E1,3.1161777E1,2.7041123E0,2.1683516E1,2.4705166E1,6.4566116E0,4.7334847E0,1.7231268E0,1.8908386E0,2.8426461E0],"tree_param":{"num_deleted":"0","num_feature":"49","num_nodes":"11","size_leaf_vector":"1"}},{"base_weights":[1.4406098E-1,-2.574197E-2,3.2326156E-1,4.772483E-1,-2.4302635E-2,5.901809E-1,-2.1978093E-2,8.0076945E-1,-1.0667541E-1,9.22371E-1,-1.9476889E-2,-2.4034543E-2,4.008811E-2,5.058781E-2,-1.6558696E-2],"categories":[],"categories_nodes":[],"categories_segments":[],"categories_sizes":[],"default_left":[0,0,0,0,0,0,0,0,0,0,0,0,0,0,0],"id":93,"left_children":[1,-1,3,5,-1,7,-1,9,11,13,-1,-1,-1,-1,-1],"loss_changes":[6.731004E0,0E0,5.7557015E0,4.1672087E0,0E0,5.079363E0,0E0,4.1588764E0,3.3684978E0,3.0370274E0,0E0,0E0,0E0,0E0,0E0],"parents":[2147483647,0,0,2,2,3,3,5,5,7,7,8,8,9,9],"right_children":[2,-1,4,6,-1,8,-1,10,12,14,-1,-1,-1,-1,-1],"split_conditions":[-7.9368955E-1,-2.574197E-2,1.0912111E0,1E0,-2.4302635E-2,1E0,-2.1978093E-2,1E0,1E0,1E0,-1.9476889E-2,-2.4034543E-2,4.008811E-2,5.058781E-2,-1.6558696E-2],"split_indices":[44,0,44,17,0,31,0,4,2,30,0,0,0,0,0],"split_type":[0,0,0,0,0,0,0,0,0,0,0,0,0,0,0],"sum_hessian":[5.459652E1,1.1273211E1,4.332331E1,3.6742657E1,6.580654E0,3.303026E1,3.7123952E0,2.5250494E1,7.779767E0,2.3114246E1,2.1362476E0,5.8444085E0,1.9353583E0,2.1755812E1,1.3584344E0],"tree_param":{"num_deleted":"0","num_feature":"49","num_nodes":"15","size_leaf_vector":"1"}},{"base_weights":[1.9207832E-1,-2.6581163E-2,5.474101E-1,7.6988024E-1,-2.4378706E-2,9.3024737E-1,-2.1944387E-2,9.602678E-1,4.6627405E-3,4.9230617E-2,7.5189695E-3],"categories":[],"categories_nodes":[],"categories_segments":[],"categories_sizes":[],"default_left":[0,0,0,0,0,0,0,0,0,0,0],"id":94,"left_children":[1,-1,3,5,-1,7,-1,9,-1,-1,-1],"loss_changes":[1.5319477E1,0E0,9.513896E0,6.8158703E0,0E0,6.517868E-1,0E0,4.1138077E-1,0E0,0E0,0E0],"parents":[2147483647,0,0,2,2,3,3,5,5,7,7],"right_children":[2,-1,4,6,-1,8,-1,10,-1,-1,-1],"split_conditions":[-3.9729293E-2,-2.6581163E-2,2.093255E-1,1E0,-2.4378706E-2,1E0,-2.1944387E-2,9.65551E-1,4.6627405E-3,4.9230617E-2,7.5189695E-3],"split_indices":[44,0,43,3,0,16,0,44,0,0,0],"split_type":[0,0,0,0,0,0,0,0,0,0,0],"sum_hessian":[5.7441452E1,1.8752415E1,3.8689037E1,3.205496E1,6.63408E0,2.850378E1,3.5511777E0,2.737465E1,1.129131E0,2.6366362E1,1.0082877E0],"tree_param":{"num_deleted":"0","num_feature":"49","num_nodes":"11","size_leaf_vector":"1"}},{"base_weights":[-5.4565044E-3,-2.705641E-2,4.8335206E-2],"categories":[],"categories_nodes":[],"categories_segments":[],"categories_sizes":[],"default_left":[0,0,0],"id":95,"left_children":[1,-1,-1],"loss_changes":[2.7078169E1,0E0,0E0],"parents":[2147483647,0,0],"right_children":[2,-1,-1],"split_conditions":[1.0912111E0,-2.705641E-2,4.8335206E-2],"split_indices":[44,0,0],"split_type":[0,0,0],"sum_hessian":[4.9992996E1,3.251837E1,1.747462E1],"tree_param":{"num_deleted":"0","num_feature":"49","num_nodes":"3","size_leaf_vector":"1"}},{"base_weights":[-3.53865E-1,-2.6974855E-2,6.861744E-1,1.6461773E-2,3.9935913E-2],"categories":[],"categories_nodes":[],"categories_segments":[],"categories_sizes":[],"default_left":[0,0,0,0,0],"id":96,"left_children":[1,-1,3,-1,-1],"loss_changes":[8.525869E0,0E0,1.1726856E-2,0E0,0E0],"parents":[2147483647,0,0,2,2],"right_children":[2,-1,4,-1,-1],"split_conditions":[2.619699E0,-2.6974855E-2,1E0,1.6461773E-2,3.9935913E-2],"split_indices":[47,0,0,0,0],"split_type":[0,0,0,0,0],"sum_hessian":[4.1243248E1,3.54052E1,5.8380485E0,2.3404815E0,3.4975667E0],"tree_param":{"num_deleted":"0","num_feature":"49","num_nodes":"5","size_leaf_vector":"1"}},{"base_weights":[-3.1846404E-1,-4.4023803E-1,4.2798825E-2,-4.9981502E-1,3.3716686E-2,-2.705112E-2,-1.4911254E-1,-2.0884344E-2,1.5488537E-2],"categories":[],"categories_nodes":[],"categories_segments":[],"categories_sizes":[],"default_left":[0,0,0,0,0,0,0,0,0],"id":97,"left_children":[1,3,-1,5,-1,-1,7,-1,-1],"loss_changes":[6.6637573E0,3.0256948E0,0E0,4.830799E-1,0E0,0E0,8.050329E-1,0E0,0E0],"parents":[2147483647,0,0,1,1,3,3,6,6],"right_children":[2,4,-1,6,-1,-1,8,-1,-1],"split_conditions":[1E0,1E0,4.2798825E-2,2.3779004E0,3.3716686E-2,-2.705112E-2,-9.193496E-1,-2.0884344E-2,1.5488537E-2],"split_indices":[30,32,0,47,0,0,44,0,0],"split_type":[0,0,0,0,0,0,0,0,0],"sum_hessian":[4.2959484E1,3.9490036E1,3.4694452E0,3.800987E1,1.480171E0,3.35277E1,4.4821677E0,2.8840005E0,1.5981672E0],"tree_param":{"num_deleted":"0","num_feature":"49","num_nodes":"9","size_leaf_vector":"1"}},{"base_weights":[1.5126653E-1,7.074889E-1,-4.721497E-1,8.617247E-1,-2.5410873E-1,-2.6686994E-2,1.2088403E-2,4.739832E-2,3.2036266E-1,-2.0597143E-2,5.978679E-3,3.6391266E-2,-1.7837077E-2],"categories":[],"categories_nodes":[],"categories_segments":[],"categories_sizes":[],"default_left":[0,0,0,0,0,0,0,0,0,0,0,0,0],"id":98,"left_children":[1,3,5,7,9,-1,-1,-1,11,-1,-1,-1,-1],"loss_changes":[1.966471E1,4.6477957E0,1.311204E0,9.083996E-1,3.3824992E-1,0E0,0E0,0E0,1.6606221E0,0E0,0E0,0E0,0E0],"parents":[2147483647,0,0,1,1,2,2,3,3,4,4,8,8],"right_children":[2,4,6,8,10,-1,-1,-1,12,-1,-1,-1,-1],"split_conditions":[-6.680295E-1,1.8943034E0,1.4107065E0,-7.9368955E-1,1E0,-2.6686994E-2,1.2088403E-2,4.739832E-2,1E0,-2.0597143E-2,5.978679E-3,3.6391266E-2,-1.7837077E-2],"split_indices":[44,47,47,44,15,0,0,0,0,0,0,0,0],"split_type":[0,0,0,0,0,0,0,0,0,0,0,0,0],"sum_hessian":[5.4746853E1,2.8861385E1,2.5885468E1,2.4961533E1,3.899852E0,2.4062E1,1.8234664E0,2.0883593E1,4.0779395E0,2.6698048E0,1.2300472E0,2.4991255E0,1.5788138E0],"tree_param":{"num_deleted":"0","num_feature":"49","num_nodes":"13","size_leaf_vector":"1"}},{"base_weights":[1.6622023E-1,-2.5419239E-2,3.2599953E-1,1.24305725E-1,4.5676146E-2,6.094435E-1,-2.616027E-2,-2.7611315E-1,8.501013E-1,-1.923054E-2,-3.3362096E-3,3.9364976E-1,5.0266862E-2,4.518935E-2,-1.929188E-2],"categories":[],"categories_nodes":[],"categories_segments":[],"categories_sizes":[],"default_left":[0,0,0,0,0,0,0,0,0,0,0,0,0,0,0],"id":99,"left_children":[1,-1,3,5,-1,7,-1,9,11,-1,-1,13,-1,-1,-1],"loss_changes":[6.247483E0,0E0,5.364441E0,1.1492954E1,0E0,4.66696E0,0E0,9.244797E-2,7.803688E-1,0E0,0E0,2.6772978E0,0E0,0E0,0E0],"parents":[2147483647,0,0,2,2,3,3,5,5,7,7,8,8,11,11],"right_children":[2,-1,4,6,-1,8,-1,10,12,-1,-1,14,-1,-1,-1],"split_conditions":[-7.9368955E-1,-2.5419239E-2,1E0,8.593075E-2,4.5676146E-2,-3.671674E-1,-2.616027E-2,1E0,2.093255E-1,-1.923054E-2,-3.3362096E-3,9.1008687E-1,5.0266862E-2,4.518935E-2,-1.929188E-2],"split_indices":[44,0,3,44,0,43,0,16,43,0,0,46,0,0,0],"split_type":[0,0,0,0,0,0,0,0,0,0,0,0,0,0,0],"sum_hessian":[5.5423298E1,1.019541E1,4.522789E1,3.457131E1,1.065658E1,1.9797287E1,1.4774022E1,4.198948E0,1.5598339E1,2.2145994E0,1.9843485E0,4.8559256E0,1.07424135E1,2.8386807E0,2.0172446E0],"tree_param":{"num_deleted":"0","num_feature":"49","num_nodes":"15","size_leaf_vector":"1"}},{"base_weights":[2.1771502E-1,5.562126E-1,-4.4305512E-1,8.733871E-1,-2.4899242E-2,-2.4180658E-2,5.351431E-3,1.3420562E-3,4.55718E-2],"categories":[],"categories_nodes":[],"categories_segments":[],"categories_sizes":[],"default_left":[0,0,0,0,0,0,0,0,0],"id":100,"left_children":[1,3,5,7,-1,-1,-1,-1,-1],"loss_changes":[1.3257956E1,1.3445258E1,5.038233E-1,9.506779E-1,0E0,0E0,0E0,0E0,0E0],"parents":[2147483647,0,0,1,1,2,2,3,3],"right_children":[2,4,6,8,-1,-1,-1,-1,-1],"split_conditions":[3.4655628E-1,2.093255E-1,1E0,-5.865166E-1,-2.4899242E-2,-2.4180658E-2,5.351431E-3,1.3420562E-3,4.55718E-2],"split_indices":[46,43,2,45,0,0,0,0,0],"split_type":[0,0,0,0,0,0,0,0,0],"sum_hessian":[5.71731E1,3.7910595E1,1.9262503E1,2.927438E1,8.636216E0,1.805233E1,1.2101731E0,1.3325292E0,2.794185E1],"tree_param":{"num_deleted":"0","num_feature":"49","num_nodes":"9","size_leaf_vector":"1"}},{"base_weights":[-2.833647E-2,-2.6949823E-2,4.6335053E-2],"categories":[],"categories_nodes":[],"categories_segments":[],"categories_sizes":[],"default_left":[0,0,0],"id":101,"left_children":[1,-1,-1],"loss_changes":[2.5149963E1,0E0,0E0],"parents":[2147483647,0,0],"right_children":[2,-1,-1],"split_conditions":[1.0912111E0,-2.6949823E-2,4.6335053E-2],"split_indices":[44,0,0],"split_type":[0,0,0],"sum_hessian":[4.954439E1,3.2566605E1,1.6977787E1],"tree_param":{"num_deleted":"0","num_feature":"49","num_nodes":"3","size_leaf_vector":"1"}},{"base_weights":[-2.8860027E-1,4.3844473E-2,-2.6839694E-2],"categories":[],"categories_nodes":[],"categories_segments":[],"categories_sizes":[],"default_left":[0,0,0],"id":102,"left_children":[1,-1,-1],"loss_changes":[1.2196207E1,0E0,0E0],"parents":[2147483647,0,0],"right_children":[2,-1,-1],"split_conditions":[-1.4219898E0,4.3844473E-2,-2.6839694E-2],"split_indices":[44,0,0],"split_type":[0,0,0],"sum_hessian":[3.95352E1,6.496284E0,3.3038914E1],"tree_param":{"num_deleted":"0","num_feature":"49","num_nodes":"3","size_leaf_vector":"1"}},{"base_weights":[-3.1769282E-1,6.140704E-1,-2.6798403E-2,4.091395E-2,-1.5343032E-2],"categories":[],"categories_nodes":[],"categories_segments":[],"categories_sizes":[],"default_left":[0,0,0,0,0],"id":103,"left_children":[1,3,-1,-1,-1],"loss_changes":[8.494284E0,1.7717485E0,0E0,0E0,0E0],"parents":[2147483647,0,0,1,1],"right_children":[2,4,-1,-1,-1],"split_conditions":[-1.122954E0,2.619699E0,-2.6798403E-2,4.091395E-2,-1.5343032E-2],"split_indices":[48,47,0,0,0],"split_type":[0,0,0,0,0],"sum_hessian":[3.9147144E1,7.0859003E0,3.206124E1,5.891071E0,1.1948291E0],"tree_param":{"num_deleted":"0","num_feature":"49","num_nodes":"5","size_leaf_vector":"1"}},{"base_weights":[1.5788184E-1,6.702689E-1,-4.6606708E-1,8.352187E-1,-2.7758515E-1,-2.6490465E-2,8.457017E-3,4.5781303E-2,3.1309134E-1,-2.0902727E-2,2.7427548E-3,3.52938E-2,-1.7577413E-2],"categories":[],"categories_nodes":[],"categories_segments":[],"categories_sizes":[],"default_left":[0,0,0,0,0,0,0,0,0,0,0,0,0],"id":104,"left_children":[1,3,5,7,9,-1,-1,-1,11,-1,-1,-1,-1],"loss_changes":[1.7930096E1,5.026807E0,1.1195841E0,8.204956E-1,2.7026698E-1,0E0,0E0,0E0,1.5636103E0,0E0,0E0,0E0,0E0],"parents":[2147483647,0,0,1,1,2,2,3,3,4,4,8,8],"right_children":[2,4,6,8,10,-1,-1,-1,12,-1,-1,-1,-1],"split_conditions":[-6.680295E-1,1.8943034E0,1.4107065E0,-7.9368955E-1,1E0,-2.6490465E-2,8.457017E-3,4.5781303E-2,1E0,-2.0902727E-2,2.7427548E-3,3.52938E-2,-1.7577413E-2],"split_indices":[44,47,47,44,15,0,0,0,0,0,0,0,0],"split_type":[0,0,0,0,0,0,0,0,0,0,0,0,0],"sum_hessian":[5.4106415E1,2.9668442E1,2.4437973E1,2.5371935E1,4.2965064E0,2.2360094E1,2.0778785E0,2.1333017E1,4.0389175E0,2.8392684E0,1.4572378E0,2.4996476E0,1.5392698E0],"tree_param":{"num_deleted":"0","num_feature":"49","num_nodes":"13","size_leaf_vector":"1"}},{"base_weights":[1.3544345E-1,-2.091291E-2,4.300112E-2,-2.2270112E-1,6.666489E-1,-3.0669814E-1,4.074697E-2,-1.6638733E-2,4.3121602E-2,-4.0470406E-1,1.4393656E-1,-4.8407945E-1,-1.7111968E-1,3.9768107E-2,-2.110723E-2,-2.6234632E-2,-1.616842E-1,-2.3852272E-2,3.3318307E-2,-1.7180419E-2,6.0353945E-3],"categories":[],"categories_nodes":[],"categories_segments":[],"categories_sizes":[],"default_left":[0,0,0,0,0,0,0,0,0,0,0,0,0,0,0,0,0,0,0,0,0],"id":105,"left_children":[1,3,-1,5,7,9,-1,-1,-1,11,13,15,17,-1,-1,-1,19,-1,-1,-1,-1],"loss_changes":[6.057182E0,6.3670416E0,0E0,3.3354573E0,2.3258939E0,1.5367405E0,0E0,0E0,0E0,4.3183756E-1,2.8129776E0,1.7928314E-1,2.5180025E0,0E0,0E0,0E0,2.3167264E-1,0E0,0E0,0E0,0E0],"parents":[2147483647,0,0,1,1,3,3,4,4,5,5,9,9,10,10,11,11,12,12,16,16],"right_children":[2,4,-1,6,8,10,-1,-1,-1,12,14,16,18,-1,-1,-1,20,-1,-1,-1,-1],"split_conditions":[1E0,1E0,4.300112E-2,1E0,7.597167E-1,1E0,4.074697E-2,-1.6638733E-2,4.3121602E-2,1.1689081E0,1E0,1E0,-6.680295E-1,3.9768107E-2,-2.110723E-2,-2.6234632E-2,1E0,-2.3852272E-2,3.3318307E-2,-1.7180419E-2,6.0353945E-3],"split_indices":[35,22,0,26,45,2,0,0,0,47,42,12,44,0,0,0,42,0,0,0,0],"split_type":[0,0,0,0,0,0,0,0,0,0,0,0,0,0,0,0,0,0,0,0,0],"sum_hessian":[5.2306213E1,4.3821205E1,8.485008E0,3.4401134E1,9.420073E0,3.247658E1,1.9245529E0,1.4284555E0,7.9916167E0,2.6758873E1,5.717706E0,1.9171665E1,7.587208E0,2.470134E0,3.2475722E0,1.646947E1,2.7021961E0,5.8724427E0,1.714765E0,1.5116045E0,1.1905917E0],"tree_param":{"num_deleted":"0","num_feature":"49","num_nodes":"21","size_leaf_vector":"1"}},{"base_weights":[1.7226732E-1,5.3265923E-1,-4.8829225E-1,8.45367E-1,-2.471254E-2,-2.6382346E-2,-3.89418E-3,2.435426E-1,4.485703E-2,2.0876115E-2,-9.050391E-4],"categories":[],"categories_nodes":[],"categories_segments":[],"categories_sizes":[],"default_left":[0,0,0,0,0,0,0,0,0,0,0],"id":106,"left_children":[1,3,5,7,-1,-1,-1,9,-1,-1,-1],"loss_changes":[1.3837888E1,1.2421453E1,2.9251242E-1,6.858406E-1,0E0,0E0,0E0,1.7469375E-1,0E0,0E0,0E0],"parents":[2147483647,0,0,1,1,2,2,3,3,7,7],"right_children":[2,4,6,8,-1,-1,-1,10,-1,-1,-1],"split_conditions":[3.4655628E-1,2.093255E-1,1E0,1E0,-2.471254E-2,-2.6382346E-2,-3.89418E-3,-7.130632E-1,4.485703E-2,2.0876115E-2,-9.050391E-4],"split_indices":[46,43,14,13,0,0,0,43,0,0,0],"split_type":[0,0,0,0,0,0,0,0,0,0,0],"sum_hessian":[5.60351E1,3.63802E1,1.9654898E1,2.8023468E1,8.356732E0,1.767441E1,1.9804868E0,2.671659E0,2.5351809E1,1.2468187E0,1.4248405E0],"tree_param":{"num_deleted":"0","num_feature":"49","num_nodes":"11","size_leaf_vector":"1"}},{"base_weights":[8.0831314E-4,-2.6747629E-2,4.498972E-2],"categories":[],"categories_nodes":[],"categories_segments":[],"categories_sizes":[],"default_left":[0,0,0],"id":107,"left_children":[1,-1,-1],"loss_changes":[2.3131157E1,0E0,0E0],"parents":[2147483647,0,0],"right_children":[2,-1,-1],"split_conditions":[1.0912111E0,-2.6747629E-2,4.498972E-2],"split_indices":[44,0,0],"split_type":[0,0,0],"sum_hessian":[4.602628E1,2.9092949E1,1.6933332E1],"tree_param":{"num_deleted":"0","num_feature":"49","num_nodes":"3","size_leaf_vector":"1"}},{"base_weights":[-2.8098077E-1,4.244026E-2,-2.6702901E-2],"categories":[],"categories_nodes":[],"categories_segments":[],"categories_sizes":[],"default_left":[0,0,0],"id":108,"left_children":[1,-1,-1],"loss_changes":[1.155741E1,0E0,0E0],"parents":[2147483647,0,0],"right_children":[2,-1,-1],"split_conditions":[-1.4219898E0,4.244026E-2,-2.6702901E-2],"split_indices":[44,0,0],"split_type":[0,0,0],"sum_hessian":[3.7835957E1,6.49355E0,3.1342405E1],"tree_param":{"num_deleted":"0","num_feature":"49","num_nodes":"3","size_leaf_vector":"1"}},{"base_weights":[-3.158436E-1,5.961712E-1,-2.6687844E-2,4.454001E-2,-1.7662728E-2],"categories":[],"categories_nodes":[],"categories_segments":[],"categories_sizes":[],"default_left":[0,0,0,0,0],"id":109,"left_children":[1,3,-1,-1,-1],"loss_changes":[8.199586E0,2.5861874E0,0E0,0E0,0E0],"parents":[2147483647,0,0,1,1],"right_children":[2,4,-1,-1,-1],"split_conditions":[-1.122954E0,1E0,-2.6687844E-2,4.454001E-2,-1.7662728E-2],"split_indices":[48,15,0,0,0],"split_type":[0,0,0,0,0],"sum_hessian":[3.8656693E1,7.120406E0,3.1536285E1,5.481208E0,1.6391984E0],"tree_param":{"num_deleted":"0","num_feature":"49","num_nodes":"5","size_leaf_vector":"1"}},{"base_weights":[1.7613927E-1,-4.5565268E-1,6.500105E-1,-2.6304904E-2,1.5247165E-2,-2.2095828E-1,7.657284E-1,-1.9955138E-2,9.460685E-3,8.5096705E-1,-1.7488874E-2,4.4974804E-2,7.780865E-3],"categories":[],"categories_nodes":[],"categories_segments":[],"categories_sizes":[],"default_left":[0,0,0,0,0,0,0,0,0,0,0,0,0],"id":110,"left_children":[1,3,5,-1,-1,7,9,-1,-1,11,-1,-1,-1],"loss_changes":[1.642127E1,1.4287639E0,3.3125887E0,0E0,0E0,3.9949548E-1,2.9366856E0,0E0,0E0,7.3994255E-1,0E0,0E0,0E0],"parents":[2147483647,0,0,1,1,2,2,5,5,6,6,9,9],"right_children":[2,4,6,-1,-1,8,10,-1,-1,12,-1,-1,-1],"split_conditions":[9.1008687E-1,1.4107065E0,-1.122954E0,-2.6304904E-2,1.5247165E-2,1E0,1E0,-1.9955138E-2,9.460685E-3,1.0164156E0,-1.7488874E-2,4.4974804E-2,7.780865E-3],"split_indices":[46,47,48,0,0,15,10,0,0,43,0,0,0],"split_type":[0,0,0,0,0,0,0,0,0,0,0,0,0],"sum_hessian":[5.2860172E1,2.2671583E1,3.0188591E1,2.1031942E1,1.639642E0,3.433835E0,2.6754755E1,2.4128718E0,1.0209632E0,2.5075798E1,1.6789577E0,2.316547E1,1.910327E0],"tree_param":{"num_deleted":"0","num_feature":"49","num_nodes":"13","size_leaf_vector":"1"}},{"base_weights":[1.3521647E-1,-1.9487938E-2,4.16709E-2,-2.584042E-1,7.1357304E-1,-3.2512632E-1,3.6044464E-2,3.760003E-4,4.0344197E-2,-4.5631945E-1,7.746877E-2,-4.87515E-1,-2.5785936E-3,-3.194758E-1,3.8447674E-2,-2.6165858E-2,-1.5223451E-1,-2.1977322E-2,4.947832E-4,-1.7062394E-2,7.120929E-3],"categories":[],"categories_nodes":[],"categories_segments":[],"categories_sizes":[],"default_left":[0,0,0,0,0,0,0,0,0,0,0,0,0,0,0,0,0,0,0,0,0],"id":111,"left_children":[1,3,-1,5,7,9,-1,-1,-1,11,13,15,-1,17,-1,-1,19,-1,-1,-1,-1],"loss_changes":[5.63212E0,7.8097053E0,0E0,2.4279003E0,7.16516E-1,1.7317705E0,0E0,0E0,0E0,2.8255558E-1,2.6470556E0,1.9050694E-1,0E0,2.5210363E-1,0E0,0E0,2.4808048E-1,0E0,0E0,0E0,0E0],"parents":[2147483647,0,0,1,1,3,3,4,4,5,5,9,9,10,10,11,11,13,13,16,16],"right_children":[2,4,-1,6,8,10,-1,-1,-1,12,14,16,-1,18,-1,-1,20,-1,-1,-1,-1],"split_conditions":[1E0,1E0,4.16709E-2,1E0,7.1423095E-1,1E0,3.6044464E-2,3.760003E-4,4.0344197E-2,1E0,1E0,1E0,-2.5785936E-3,1.1689081E0,3.8447674E-2,-2.6165858E-2,1E0,-2.1977322E-2,4.947832E-4,-1.7062394E-2,7.120929E-3],"split_indices":[35,22,0,26,44,40,0,0,0,14,2,12,0,47,0,0,1,0,0,0,0],"split_type":[0,0,0,0,0,0,0,0,0,0,0,0,0,0,0,0,0,0,0,0,0],"sum_hessian":[5.0991726E1,4.2538353E1,8.453372E0,3.2570583E1,9.967772E0,3.1118393E1,1.4521885E0,1.2896914E0,8.678081E0,2.3369545E1,7.748848E0,2.1507391E1,1.8621536E0,5.264668E0,2.48418E0,1.8925629E1,2.5817623E0,3.6130493E0,1.6516188E0,1.4764915E0,