tree
version=v4
num_class=6
num_tree_per_iteration=6
label_index=0
max_feature_idx=48
objective=multiclass num_class:6
feature_names=Column_0 Column_1 Column_2 Column_3 Column_4 Column_5 Column_6 Column_7 Column_8 Column_9 Column_10 Column_11 Column_12 Column_13 Column_14 Column_15 Column_16 Column_17 Column_18 Column_19 Column_20 Column_21 Column_22 Column_23 Column_24 Column_25 Column_26 Column_27 Column_28 Column_29 Column_30 Column_31 Column_32 Column_33 Column_34 Column_35 Column_36 Column_37 Column_38 Column_39 Column_40 Column_41 Column_42 Column_43 Column_44 Column_45 Column_46 Column_47 Column_48
feature_infos=[0:1] [0:1] [0:1] [0:1] [0:1] [0:1] none [0:1] none none none none [0:1] [0:1] [0:1] none [0:1] [0:1] none none none none [0:1] none none [0:1] none none none none none [0:1] none none none [0:1] none none [0:1] none [0:1] [0:1] [0:1] [-1.6354518277569989:1.9388042497198423] [-1.6733098479531416:1.7195113030927685] [-1.4038725330980597:1.48091309145128] [-1.3440356134253817:1.4736175223430754] [-1.2490765673495612:3.828691217310606] [-2.3591123870126185:1.9674418891338159]
tree_sizes=454 347 646 964 762 548 1530 1199 1176 1401 976 1417 1528 1509 1288 1285 1381 1304 1304 1097 1401 1395 1290 1303 1203 1515 1173 1385 1288 1522 1433 1311 1189 1298 1496 1304 1425 1429 1392 1404 1496 1525

Tree=0
num_leaves=3
num_cat=0
split_feature=47 17
split_gain=142.911 1.77636e-15
threshold=2.4987996546615152 1.0000000180025095e-35
decision_type=2 2
left_child=1 -1
right_child=-2 -3
leaf_value=-2.9253531253169465 -0.84179142044962108 -2.925353125316946
leaf_weight=14.038460813462734 1.4398421347141255 1.3678500279784209
leaf_count=195 20 19
internal_value=-2.74727 -2.92535
internal_weight=0 15.4063
internal_count=234 214
is_linear=0
shrinkage=1


Tree=1
num_leaves=2
num_cat=0
split_feature=48
split_gain=107.989
threshold=-1.1847619406300147
decision_type=2
left_child=-1
right_child=-2
leaf_value=-1.3516486093642137 -2.8018312758989592
leaf_weight=2.3445321768522289 16.573417112231255
leaf_count=29 205
internal_value=-2.62211
internal_weight=0
internal_count=234
is_linear=0
shrinkage=1


Tree=2
num_leaves=5
num_cat=0
split_feature=44 44 46 46
split_gain=96.9761 41.3094 9.64318 3.46068
threshold=-0.85651957084949604 -1.4848197840061459 0.62832158161253837 1.19185220876623
decision_type=2 2 2 2
left_child=1 -1 -2 -3
right_child=2 3 -4 -5
leaf_value=-1.6079295272859615 -1.6658650269493065 -0.9860884975660571 -1.3806441055297614 -0.73889703233578485
leaf_weight=3.4521148204803458 30.637519031763077 3.2363576442003232 5.6096865832805625 7.5515011698007584
leaf_count=16 142 15 26 35
internal_value=-1.44799 -1.00575 -1.62172 -0.813054
internal_weight=0 14.24 36.2472 10.7879
internal_count=234 66 168 50
is_linear=0
shrinkage=1


Tree=3
num_leaves=8
num_cat=0
split_feature=12 3 44 43 45 45 43
split_gain=31.8767 30.5554 33.8457 26.199 3.1094 7.72406 3.55271e-15
threshold=1.0000000180025095e-35 1.0000000180025095e-35 -1.0000000180025095e-35 0.15167621098142162 -0.20184861318246741 -0.87499516859734705 -0.30951812159623526
decision_type=2 2 2 2 2 2 2
left_child=1 4 -3 -2 5 -1 -6
right_child=3 2 -4 -5 6 -7 -8
leaf_value=-1.8763946397622431 -1.6580692814904032 -1.8763946397622431 -0.98324544683198911 -0.78476784840304403 -1.8763946397622431 -1.5529496645447025 -1.8763946397622431
leaf_weight=7.3285120725631714 2.7481920272111884 2.9314048290252686 4.0306816399097434 2.7481920272111893 6.7788736671209362 4.9467456489801425 11.359193712472914
leaf_count=40 15 16 22 15 37 27 62
internal_value=-1.67113 -1.73727 -1.35931 -1.22142 -1.82379 -1.74605 -1.87639
internal_weight=0 37.3754 6.96209 5.49638 30.4133 12.2753 18.1381
internal_count=234 204 38 30 166 67 99
is_linear=0
shrinkage=1


Tree=4
num_leaves=6
num_cat=0
split_feature=46 43 48 46 43
split_gain=62.7639 105.196 1.37256 1.19675 1.42109e-14
threshold=1.0000000180025095e-35 0.15167621098142162 0.57676372894389061 0.62832158161253837 -0.078920955307406782
decision_type=2 2 2 2 2
left_child=1 2 -1 -2 -4
right_child=3 -3 4 -5 -6
leaf_value=-0.77777957831365874 -1.3696945315163684 -1.4707531820631727 -0.66228397768873981 -1.4707531820631727 -0.66228397768873914
leaf_weight=6.9266709685325667 5.9371465444564846 12.616436406970022 6.1845276504755047 22.264299541711807 3.9580976963043186
leaf_count=28 24 51 25 90 16
internal_value=-1.23581 -1.03283 -0.709152 -1.44948 -0.662284
internal_weight=0 29.6857 17.0693 28.2014 10.1426
internal_count=234 120 69 114 41
is_linear=0
shrinkage=1


Tree=5
num_leaves=4
num_cat=0
split_feature=43 43 45
split_gain=156.842 4.53444 0.214751
threshold=1.1893634592811499 0.72816912670349287 0.87991608633683449
decision_type=2 2 2
left_child=1 2 -1
right_child=-2 -3 -4
leaf_value=-2.0959529635695233 -0.78568735352862995 -1.8700450997693692 -2.0455581324141043
leaf_weight=22.89612069725991 4.4265833348035803 4.4265833348035803 3.9686609208583823
leaf_count=150 29 29 26
internal_value=-1.89997 -2.0576 -2.08851
internal_weight=0 31.2914 26.8648
internal_count=234 205 176
is_linear=0
shrinkage=1


Tree=6
num_leaves=13
num_cat=0
split_feature=44 48 7 46 3 48 16 44 44 44 44 2
split_gain=34.1635 0.0515064 1.86372e-05 1.75906e-05 2.20472e-05 5.55647e-06 5.08486e-06 2.69537e-06 1.55421e-06 6.30661e-07 4.69011e-07 4.32886e-08
threshold=-1.4848197840061459 -1.7101292455906534 1.0000000180025095e-35 1.0000000180025095e-35 1.0000000180025095e-35 0.57676372894389061 1.0000000180025095e-35 -0.73085952821816658 0.46894595558185198 -0.35387940032417631 0.77706098335779361 1.0000000180025095e-35
decision_type=2 2 2 2 2 2 2 2 2 2 2 2
left_child=-1 -2 3 5 7 6 11 -5 -6 -4 -7 -3
right_child=1 2 9 4 8 10 -8 -9 -10 -11 -12 -13
leaf_value=0.48058467729033344 -0.21402095219609785 -0.1756818774950995 -0.1748708353426609 -0.17611866162600481 -0.17522928199619905 -0.17519783465623928 -0.17516315804769503 -0.17658071300213732 -0.175599054490994 -0.17508027597404952 -0.17500925276076895 -0.17573811783519988
leaf_weight=4.0970130786299732 1.5725150927901275 1.211604475975032 1.2866980321705344 0.91088045760989222 0.89236563444137595 1.5006232038140299 0.99675768613815297 1.1333665922284124 0.92698681354522705 1.0398457273840911 0.81350155919790257 0.99867214262485493
leaf_count=16 12 21 24 15 16 27 18 18 16 19 15 17
internal_value=0 -0.180035 -0.175471 -0.175597 -0.175924 -0.175368 -0.175538 -0.176375 -0.175418 -0.174964 -0.175132 -0.175707
internal_weight=0 13.2838 11.7113 9.38476 3.8636 5.52116 3.20703 2.04425 1.81935 2.32654 2.31412 2.21028
internal_count=234 218 206 163 65 98 56 33 32 43 42 38
is_linear=0
shrinkage=0.2


Tree=7
num_leaves=10
num_cat=0
split_feature=48 43 44 46 3 48 12 48 44
split_gain=30.9965 3.04833e-05 3.14299e-05 4.37905e-05 2.53092e-05 1.08426e-05 1.82872e-05 2.08066e-06 3.26172e-08
threshold=-1.1847619406300147 1.1893634592811499 -1.1078396561121562 -1.0000000180025095e-35 1.0000000180025095e-35 0.57676372894389061 1.0000000180025095e-35 -0.90662630859202975 0.46894595558185198
decision_type=2 2 2 2 2 2 2 2 2
left_child=-1 2 7 5 -5 6 -4 -2 -7
right_child=1 -3 3 4 -6 8 -8 -9 -10
leaf_value=0.38083347355001895 -0.17605246233730534 -0.17592832023731325 -0.17738123508906933 -0.17806830940818572 -0.17684517911986664 -0.17641508156797631 -0.17638643698676948 -0.17639923277342859 -0.17636883763099209
leaf_weight=5.7344577312469509 1.2090370319783688 1.7325925193727005 1.6932024061679831 1.9320219829678527 1.0414714813232422 1.0021836683154108 1.3118295818567276 1.6187942773103705 1.5594120100140569
leaf_count=29 20 29 25 27 16 16 21 26 25
internal_value=0 -0.17671 -0.176829 -0.17702 -0.17764 -0.176689 -0.176947 -0.176251 -0.176387
internal_weight=0 13.1005 11.368 8.54012 2.97349 5.56663 3.00503 2.82783 2.5616
internal_count=234 205 176 130 43 87 46 46 41
is_linear=0
shrinkage=0.2


Tree=8
num_leaves=10
num_cat=0
split_feature=47 48 43 43 43 47 43 12 1
split_gain=35.3544 19.9871 4.48186 3.63061 2.31277 0.132723 0.00107146 0.000448468 0.000578617
threshold=1.0000000180025095e-35 -1.1847619406300147 -0.078920955307406782 0.8434677098479072 -1.231906786751549 -0.40278193657286659 1.1893634592811499 1.0000000180025095e-35 1.0000000180025095e-35
decision_type=2 2 2 2 2 2 2 2 2
left_child=4 -2 -3 -4 -1 6 7 8 -6
right_child=1 2 3 -5 5 -7 -8 -9 -10
leaf_value=-0.022539273699167802 -0.14562915733913909 0.15269728115177283 0.46768488558792676 0.23876919558569162 -0.20565899983212985 -0.16512906800968002 -0.19933528870831313 -0.20114260972743869 -0.20195047301856453
leaf_weight=3.8298779875040081 5.6481797695159939 6.3370651304721894 6.0753431171178764 5.0958708524703979 3.6631979346275347 5.3586900532245609 4.5959628224372873 3.4078323841094971 3.1129288673400879
leaf_count=19 29 27 23 19 20 31 28 20 18
internal_value=0 0.181513 0.287049 0.363263 -0.165001 -0.192094 -0.20187 -0.203014 -0.203955
internal_weight=0 23.1565 17.5083 11.1712 23.9685 20.1386 14.7799 10.184 6.77613
internal_count=234 98 69 42 136 117 86 58 38
is_linear=0
shrinkage=0.2


Tree=9
num_leaves=12
num_cat=0
split_feature=35 22 48 48 43 43 16 31 47 43 43
split_gain=26.0388 22.9991 3.75871 6.4886 1.74458 0.00308249 0.00176433 0.00475697 0.000409144 3.74962e-05 4.13968e-07
threshold=1.0000000180025095e-35 1.0000000180025095e-35 -0.44306692186205471 -0.90662630859202975 0.15167621098142162 -0.88601103731830644 1.0000000180025095e-35 1.0000000180025095e-35 2.4987996546615152 0.95876629299232141 -0.078920955307406782
decision_type=2 2 2 2 2 2 2 2 2 2 2
left_child=1 2 3 4 5 8 7 -4 -1 -8 -9
right_child=-2 -3 6 -5 -6 -7 9 10 -10 -11 -12
leaf_value=-0.19338185327386093 0.44612033401015155 0.31100582675910809 -0.20240077480832361 0.14866788494541106 -0.018732898191849215 -0.20047036194009116 -0.19360456299158066 -0.19369285169363565 -0.18962858363444812 -0.19249772367435777 -0.19358025562250705
leaf_weight=2.7109663784503928 4.704351693391799 5.769954338669776 4.6482353657484037 4.4323053956031808 3.2714501917362213 2.4835820943117133 2.7135720998048791 3.0255436003208134 2.0329768657684326 2.2306812554597855 2.29826092720032
leaf_count=19 17 25 28 22 20 15 19 21 16 16 16
internal_value=0 -0.0545235 -0.125185 -0.0542478 -0.139912 -0.194762 -0.196194 -0.197726 -0.191773 -0.193105 -0.193644
internal_weight=0 35.6175 29.8476 14.9313 10.499 7.22753 14.9163 9.97204 4.74394 4.94425 5.3238
internal_count=234 217 192 92 70 50 100 65 35 35 37
is_linear=0
shrinkage=0.2


Tree=10
num_leaves=8
num_cat=0
split_feature=16 25 22 13 0 12 0
split_gain=37.5373 12.4866 12.0776 19.4188 0.052404 0.0136102 0.00467617
threshold=1.0000000180025095e-35 1.0000000180025095e-35 1.0000000180025095e-35 1.0000000180025095e-35 1.0000000180025095e-35 1.0000000180025095e-35 1.0000000180025095e-35
decision_type=2 2 2 2 2 2 2
left_child=1 2 3 -1 -5 6 -2
right_child=5 -3 -4 4 -6 -7 -8
leaf_value=-0.072453472582526532 -0.21814222256116411 -0.1267688223463081 -0.06805453591387399 0.35528359586193148 0.37900640503368821 -0.22419307109202344 -0.21010136014332628
leaf_weight=5.4214045107364717 4.0743651092052469 6.1073033511638632 5.7938066422939292 11.057564854621889 5.6166636347770682 5.468186303973197 9.9772821217775345
leaf_count=28 19 29 25 37 19 26 51
internal_value=0 0.132248 0.188969 0.256364 0.363275 -0.215727 -0.212433
internal_weight=0 33.9967 27.8894 22.0956 16.6742 19.5198 14.0516
internal_count=234 138 109 84 56 96 70
is_linear=0
shrinkage=0.2


Tree=11
num_leaves=12
num_cat=0
split_feature=44 7 45 7 45 12 41 45 0 40 31
split_gain=78.2087 1.3659 0.00117613 0.000932497 0.000348504 0.000553409 0.000199302 3.94534e-05 6.45324e-05 6.41254e-06 3.01363e-06
threshold=1.028381068620454 1.0000000180025095e-35 -0.87499516859734705 1.0000000180025095e-35 1.0000000180025095e-35 1.0000000180025095e-35 1.0000000180025095e-35 0.39911848224527785 1.0000000180025095e-35 1.0000000180025095e-35 1.0000000180025095e-35
decision_type=2 2 2 2 2 2 2 2 2 2 2
left_child=2 -2 6 4 5 -4 9 8 -6 -1 -9
right_child=1 -3 3 -5 7 -7 -8 10 -10 -11 -12
leaf_value=-0.18771912751872694 0.57191012675691066 0.41760123689539663 -0.19210873998881908 -0.19297706320702016 -0.18742350131473606 -0.18811823640967601 -0.184840744895725 -0.18914100911247689 -0.188904637605393 -0.18720382683372977 -0.18883459875050848
leaf_weight=1.7922401502728491 4.5737370103597623 4.6045470237731934 3.529568828642371 3.362128145992755 2.3390964120626432 2.2933472543954849 1.6916205734014509 2.2535861879587173 2.3676799759268761 2.0953118875622749 2.9840306639671326
leaf_count=15 19 16 26 24 20 19 16 18 19 18 24
internal_value=0 0.494497 -0.189208 -0.189953 -0.189308 -0.190537 -0.186653 -0.188589 -0.188169 -0.187441 -0.188966
internal_weight=0 9.17828 24.7086 19.1294 15.7673 5.82292 5.57917 9.94439 4.70678 3.88755 5.23762
internal_count=234 35 199 150 126 45 49 81 39 33 42
is_linear=0
shrinkage=0.2


Tree=12
num_leaves=13
num_cat=0
split_feature=44 48 14 48 0 44 44 45 44 44 44 44
split_gain=22.0635 0.0249037 2.68962e-05 1.51732e-05 9.81998e-06 1.36825e-05 2.75006e-06 2.70915e-06 2.09797e-06 1.19753e-06 5.90457e-07 8.08105e-07
threshold=-1.4848197840061459 -1.7101292455906534 1.0000000180025095e-35 1.0000000180025095e-35 1.0000000180025095e-35 -0.85651957084949604 1.028381068620454 1.3607136904283912 1.1540411112517834 -1.2335022821094801 0.46894595558185198 1.0000000180025095e-35
decision_type=2 2 2 2 2 2 2 2 2 2 2 2
left_child=-1 -2 3 4 5 -3 7 10 -6 -9 11 -5
right_child=1 2 -4 6 8 -7 -8 9 -10 -11 -12 -13
leaf_value=0.34878919725561469 -0.20279791052660487 -0.17355676306762757 -0.17469409694477644 -0.17353781898960507 -0.1736268026885284 -0.17465975513968002 -0.17286721018137152 -0.17332833870367315 -0.17316988615155018 -0.1730008526549979 -0.17359732445369819 -0.17326072138883664
leaf_weight=4.5512541905045518 1.3350048623979081 0.86610976606607437 0.80799509584903795 0.77479789778590225 1.1382343359291551 0.93605258688330295 0.62248019501566876 0.75184592604637157 0.62141207978129398 1.1002703718841071 0.7818889096379279 0.92187375575304031
leaf_count=16 12 19 16 17 25 18 15 17 15 26 17 21
internal_value=0 -0.17725 -0.173591 -0.173487 -0.173802 -0.17413 -0.17326 -0.173317 -0.173465 -0.173134 -0.173454 -0.173387
internal_weight=0 10.658 9.32296 8.51497 3.56181 1.80216 4.95316 4.33068 1.75965 1.85212 2.47856 1.69667
internal_count=234 218 206 190 77 37 113 98 40 43 55 38
is_linear=0
shrinkage=0.2


Tree=13
num_leaves=13
num_cat=0
split_feature=45 45 43 43 16 46 45 43 0 43 43 45
split_gain=15.5255 19.0454 0.0306204 0.00419264 0.0215341 0.00237063 0.00327389 2.0468e-05 1.56984e-05 1.04948e-05 1.68092e-06 2.57632e-06
threshold=-0.87499516859734705 -1.2355933716660144 -1.5778025361847916 0.49757196041466434 1.0000000180025095e-35 1.0000000180025095e-35 -0.6345963665515687 -0.54011528788506369 1.0000000180025095e-35 1.4199606255699784 0.15167621098142162 1.3607136904283912
decision_type=2 2 2 2 2 2 2 2 2 2 2 2
left_child=1 2 -1 5 -5 7 -7 -2 -4 -6 11 -9
right_child=3 -3 8 4 9 6 -8 10 -10 -11 -12 -13
leaf_value=-0.21476211550500823 -0.17500071757663577 0.4436195794564432 -0.17487462585148406 -0.21047964591237164 -0.17462738613196419 -0.19024131307247411 -0.17555659791256459 -0.17431889880115214 -0.1736971850329932 -0.17367676013266059 -0.17374665561986091 -0.17389087442695217
leaf_weight=1.2513243556022646 1.1837889887392528 4.8875622153282192 0.80519335344433751 0.98281241953372966 1.2383219897747038 1.1011366210877898 1.354059252887964 1.1040372811257817 1.035326287150383 0.74340549483895313 0.70359215140342701 1.1467730738222599
leaf_count=6 22 19 15 7 24 17 24 22 23 16 15 24
internal_value=0 0.197864 -0.190624 -0.180028 -0.186275 -0.177219 -0.182143 -0.174298 -0.174212 -0.174271 -0.174016 -0.174101
internal_weight=0 7.97941 3.09184 9.55793 2.96454 6.59339 2.4552 4.13819 1.84052 1.98173 2.9544 2.25081
internal_count=234 63 44 171 47 124 41 83 38 40 61 46
is_linear=0
shrinkage=0.2


Tree=14
num_leaves=11
num_cat=0
split_feature=46 48 48 48 47 43 43 4 43 5
split_gain=33.4297 15.2784 2.05086 1.53184 0.901896 0.00470877 0.000863803 0.000318029 0.000150745 0.000138968
threshold=0.62832158161253837 -1.1847619406300147 -0.44306692186205471 -1.061146104168688 1.0000000180025095e-35 -0.77071245417389211 1.1893634592811499 1.0000000180025095e-35 0.15167621098142162 1.0000000180025095e-35
decision_type=2 2 2 2 2 2 2 2 2 2
left_child=4 -2 3 -3 5 -1 7 8 9 -7
right_child=1 2 -4 -5 -6 6 -8 -9 -10 -11
leaf_value=-0.19928503184257759 -0.16361838054526145 0.29167690398590806 0.33360065738638256 0.13587788467629008 -0.065620273988168984 -0.19314098421982984 -0.18870603231262184 -0.19434231447194594 -0.19021456429859881 -0.1912894027237835
leaf_weight=3.9218351691961351 4.3276899605989483 4.1740727126598394 7.6185816079378101 6.3868139237165451 2.5251075327396384 3.2563813477754575 3.4487869143486014 2.4532857090234748 1.9524776190519331 3.2293207347393036
leaf_count=24 24 14 26 26 13 23 28 17 15 24
internal_value=0 0.174113 0.254511 0.197456 -0.177653 -0.193144 -0.191465 -0.192338 -0.191755 -0.192219
internal_weight=0 22.5072 18.1795 10.5609 20.7872 18.2621 14.3403 10.8915 8.43818 6.4857
internal_count=234 90 66 40 144 131 107 79 62 47
is_linear=0
shrinkage=0.2


Tree=15
num_leaves=11
num_cat=0
split_feature=44 46 16 46 46 47 47 44 44 1
split_gain=10.6493 9.53267 5.29943 14.4649 4.88657 0.602794 0.00951739 0.000837813 0.000677984 0.000109664
threshold=-0.85651957084949604 -1.0622702998485356 1.0000000180025095e-35 1.0000000180025095e-35 0.62832158161253837 -0.40278193657286659 1.0480088590443242 1.2797011538831129 -1.4219896593812071 1.0000000180025095e-35
decision_type=2 2 2 2 2 2 2 2 2 2
left_child=6 7 3 5 -4 9 -1 -2 -8 -3
right_child=1 2 4 -5 -6 -7 8 -9 -10 -11
leaf_value=-0.20065914610603036 -0.19779216410519718 -0.18794924194521931 0.34729143050415368 0.26672392836210718 0.05457760204914313 -0.07815863060833235 -0.18488684833192148 -0.1924792574412737 -0.18968545011684565 -0.18992868146925468
leaf_weight=3.6443574801087362 2.2871128767728832 2.2768026739358911 5.7261374294757843 6.2085812836885452 3.7919984459877014 3.5016596913337699 2.5869631245732307 2.4688354283571243 2.1620261743664742 2.2025736421346664
leaf_count=23 17 19 21 25 21 28 25 19 18 18
internal_value=0 0.0633811 0.115221 0.0377767 0.230675 -0.140325 -0.192971 -0.195034 -0.187071 -0.188923
internal_weight=0 28.4637 23.7078 14.1896 9.51814 7.98104 8.39335 4.75595 4.74899 4.47938
internal_count=234 168 132 90 42 65 66 36 43 37
is_linear=0
shrinkage=0.2


Tree=16
num_leaves=12
num_cat=0
split_feature=48 43 3 47 48 43 43 47 40 43 48
split_gain=24.7449 18.01 20.8637 0.699599 1.03949 0.172815 0.126867 0.0109118 0.00458911 0.000386477 0.000215369
threshold=-0.44306692186205471 0.49757196041466434 1.0000000180025095e-35 -0.40278193657286659 -0.90662630859202975 -0.54011528788506369 -0.30951812159623526 2.4987996546615152 1.0000000180025095e-35 1.4199606255699784 -0.90662630859202975
decision_type=2 2 2 2 2 2 2 2 2 2 2
left_child=3 2 5 4 -1 -2 -7 8 -5 -3 -10
right_child=1 9 -4 7 -6 6 -8 -9 10 -11 -12
leaf_value=-0.041045458779307681 0.3146853983711006 -0.19866899093180709 -0.21022378862900229 -0.2113403624081181 -0.20828004201152803 0.25033856047439784 0.28935478307785462 -0.19178134187011933 -0.20365037254660062 -0.19537364959858733 -0.20122571214669485
leaf_weight=3.1555760651826859 5.5674518644809785 3.2148045450448981 4.1347330063581458 3.9604104906320554 2.8111484646797207 5.7693504095077577 7.8962256163358644 2.7276808172464362 3.1999210715293884 2.554982602596283 2.7032629251480103
leaf_count=17 19 20 21 21 17 20 28 20 18 17 16
internal_value=0 0.119228 0.197361 -0.176246 -0.119836 0.284984 0.272883 -0.202977 -0.206074 -0.19721 -0.20254
internal_weight=0 29.1375 23.3678 18.558 5.96672 19.233 13.6656 12.5913 9.86359 5.76979 5.90318
internal_count=234 125 88 109 34 67 48 75 55 37 34
is_linear=0
shrinkage=0.2


Tree=17
num_leaves=11
num_cat=0
split_feature=43 43 14 42 45 43 16 43 0 43
split_gain=28.8058 2.43292 0.397666 0.35369 0.000104713 0.000100433 0.00019244 7.6833e-05 5.29227e-06 3.66961e-06
threshold=0.95876629299232141 0.72816912670349287 1.0000000180025095e-35 1.0000000180025095e-35 -1.2355933716660144 0.15167621098142162 1.0000000180025095e-35 -0.77071245417389211 1.0000000180025095e-35 -0.078920955307406782
decision_type=2 2 2 2 2 2 2 2 2 2
left_child=1 2 4 -2 -1 6 7 -6 9 -9
right_child=3 -3 -4 -5 5 -7 -8 8 -10 -11
leaf_value=-0.18182105443374194 0.23174356214364333 0.034323886966172362 -0.087375793839231053 0.30762304987604272 -0.18391747758486063 -0.18199816098068197 -0.18493377559823138 -0.18221321808902541 -0.18281337609298551 -0.18262616704979692
leaf_weight=2.6742022484540984 4.5257173553109151 2.6345325857400885 1.9654205590486533 5.3759274929761887 2.3184415921568897 2.2803884968161574 2.6502407416701317 1.9658591449260743 1.8357385545969007 1.5312396585941275
leaf_count=30 18 21 17 19 23 25 25 21 19 16
internal_value=0 -0.144667 -0.172049 0.272941 -0.182958 -0.183199 -0.183465 -0.182956 -0.182538 -0.182394
internal_weight=0 19.8561 17.2215 9.90164 15.2561 12.5819 10.3015 7.65128 5.33284 3.4971
internal_count=234 197 176 37 159 129 104 79 56 37
is_linear=0
shrinkage=0.2


Tree=18
num_leaves=11
num_cat=0
split_feature=46 48 48 46 25 3 31 0 46 48
split_gain=10.1626 1.01315 0.0200199 2.80083e-05 1.76898e-05 3.7673e-06 1.85265e-06 9.14859e-07 4.47699e-07 6.84159e-07
threshold=1.19185220876623 -1.1847619406300147 -1.7101292455906534 1.0000000180025095e-35 1.0000000180025095e-35 1.0000000180025095e-35 1.0000000180025095e-35 1.0000000180025095e-35 -1.0622702998485356 -0.44306692186205471
decision_type=2 2 2 2 2 2 2 2 2 2
left_child=2 -2 -1 4 6 7 8 -5 -4 -10
right_child=1 -3 3 5 -6 -7 -8 -9 9 -11
leaf_value=-0.2004932724488406 0.30495805316248947 0.12323483411886316 -0.17154382295755177 -0.17268689670026116 -0.17273540464977985 -0.17222112443321189 -0.17136709578552523 -0.17299798328166527 -0.17158532356049669 -0.17186502237062828
leaf_weight=1.18551430106163 1.7844162583351133 3.9298284146934748 0.65620712563395556 0.95566311106085799 0.6159310545772313 0.59924527257680882 1.1839724369347093 0.62572929263114929 0.61858669295907065 0.80510054156184196
leaf_count=12 6 45 20 24 17 16 37 15 19 23
internal_value=0 0.179982 -0.176724 -0.172075 -0.171752 -0.172648 -0.171567 -0.17281 -0.17168 -0.171743
internal_weight=0 5.71424 7.24595 6.06044 3.8798 2.18064 3.26387 1.58139 2.07989 1.42369
internal_count=234 51 183 171 116 55 99 39 62 42
is_linear=0
shrinkage=0.2


Tree=19
num_leaves=9
num_cat=0
split_feature=48 48 44 43 44 22 2 41
split_gain=11.2533 3.97699e-05 6.5502e-05 1.39755e-05 4.5858e-06 3.45107e-06 4.00414e-06 1.69803e-06
threshold=-1.1847619406300147 1.0000000180025095e-35 -0.60519948558683645 -0.19421953845182102 -1.2335022821094801 1.0000000180025095e-35 1.0000000180025095e-35 1.0000000180025095e-35
decision_type=2 2 2 2 2 2 2 2
left_child=-1 2 4 5 -2 6 -3 -5
right_child=1 3 -4 7 -6 -7 -8 -9
leaf_value=0.16806581752305438 -0.17212558803639644 -0.17216331056287532 -0.17437217257822513 -0.17184629381158831 -0.17277969790751213 -0.17299804906552066 -0.17283269904610143 -0.17220112908120991
leaf_weight=7.4485390186309823 0.60978174395859275 0.66706386208534152 1.3671423699706773 1.048715267330409 1.4438469484448435 1.0572541803121567 0.77011830359697342 1.1108762323856354
leaf_count=29 17 18 30 30 36 25 19 30
internal_value=0 -0.172782 -0.1733 -0.172401 -0.172585 -0.172724 -0.172522 -0.172029
internal_weight=0 8.0748 3.42077 4.65403 2.05363 2.49444 1.43718 2.15959
internal_count=234 205 83 122 53 62 37 60
is_linear=0
shrinkage=0.2


Tree=20
num_leaves=12
num_cat=0
split_feature=44 48 13 46 0 46 48 46 45 16 48
split_gain=27.6591 4.91321 6.20482 1.04041 0.897957 0.0154237 0.000856863 0.000458036 5.71792e-05 2.88537e-05 1.94082e-06
threshold=-0.73085952821816658 -0.90662630859202975 1.0000000180025095e-35 0.62832158161253837 1.0000000180025095e-35 1.0000000180025095e-35 1.0000000180025095e-35 -1.0622702998485356 1.3607136904283912 1.0000000180025095e-35 0.20591621955991044
decision_type=2 2 2 2 2 2 2 2 2 2 2
left_child=1 2 -1 5 -3 6 7 -2 9 10 -8
right_child=3 4 -4 -5 -6 -7 8 -9 -10 -11 -12
leaf_value=-0.10837115573330039 -0.18554001689585803 0.31501406136055704 0.26349951747007933 -0.058732683360340258 0.2042884705624359 -0.20089071993431695 -0.18502751290447489 -0.1899217578059596 -0.1837491329790637 -0.18414416941815462 -0.18530375991198103
leaf_weight=4.3242110759019878 1.6283112466335299 5.2934379279613477 3.0682136118412018 2.9096161723136893 6.5607492029666901 3.4133853167295447 2.1391253620386106 2.3052101284265545 2.6219588443636894 1.5456670895218847 1.9398230910301206
leaf_count=28 16 18 11 13 28 22 20 19 26 15 18
internal_value=0 0.173934 0.0459732 -0.168523 0.253733 -0.189009 -0.185679 -0.188108 -0.18452 -0.18488 -0.185159
internal_weight=0 19.2466 7.39242 18.5031 11.8542 15.5935 12.1801 3.93352 8.24657 5.62462 4.07895
internal_count=234 85 39 149 46 136 114 35 79 53 38
is_linear=0
shrinkage=0.2


Tree=21
num_leaves=12
num_cat=0
split_feature=44 3 44 46 46 44 47 47 46 4 44
split_gain=7.72311 8.27478 12.8988 2.9438 0.00757704 0.00362896 0.00896327 0.0014985 0.000210171 0.000329659 6.19039e-05
threshold=-0.85651957084949604 1.0000000180025095e-35 1.0000000180025095e-35 0.62832158161253837 1.19185220876623 0.65140076417830439 -0.40278193657286659 1.0480088590443242 -0.49873967269484426 1.0000000180025095e-35 -1.4848197840061459
decision_type=2 2 2 2 2 2 2 2 2 2 2
left_child=4 2 3 -2 -1 6 -4 -6 9 -7 -9
right_child=1 -3 5 -5 7 8 -8 10 -10 -11 -12
leaf_value=-0.19698268457731175 0.2220923215053523 0.26382666243623182 -0.18325614142849445 0.012614244412686866 -0.18730921904568892 -0.18242424993104658 -0.20304324118229486 -0.17862334716917094 -0.18174154611832852 -0.18650045781700775 -0.18052019319863138
leaf_weight=2.1385316401720038 6.5852049812674576 5.8459148108959189 2.1742276251316075 4.5289607122540474 1.6582535803318021 1.6427548900246638 1.5820165425538997 1.1602474972605703 1.9160885065793971 1.5353517085313797 1.6915236189961436
leaf_count=15 33 22 23 26 15 18 10 16 21 15 20
internal_value=0 0.0545532 -0.00672492 0.136731 -0.187178 -0.186874 -0.19159 -0.182528 -0.183396 -0.184393 -0.179748
internal_weight=0 25.8105 19.9646 11.1142 6.64856 8.85044 3.75624 4.51002 5.0942 3.17811 2.85177
internal_count=234 168 146 59 66 87 33 51 54 33 36
is_linear=0
shrinkage=0.2


Tree=22
num_leaves=11
num_cat=0
split_feature=46 16 48 14 0 5 12 46 3 46
split_gain=17.9728 12.5087 5.77399 2.48797 0.176546 0.0186329 0.00565308 0.00559132 0.000918307 0.00177613
threshold=1.0000000180025095e-35 1.0000000180025095e-35 -0.44306692186205471 1.0000000180025095e-35 1.0000000180025095e-35 1.0000000180025095e-35 1.0000000180025095e-35 0.62832158161253837 1.0000000180025095e-35 1.19185220876623
decision_type=2 2 2 2 2 2 2 2 2 2
left_child=1 2 -1 7 5 -4 -3 -2 9 -9
right_child=3 6 4 -5 -6 -7 -8 8 -10 -11
leaf_value=-0.056532653509942438 -0.20010544656792251 -0.18779758246835093 0.25398863763420448 0.02733025077630203 0.20106867517148716 0.2369152973362878 -0.20234642077301929 -0.19257653606146144 -0.19419521696906589 -0.18665761151198773
leaf_weight=3.4371939748525682 3.3335879892110851 1.9144397601485241 4.4518231749534625 2.4088499993085852 5.9663616567850104 6.0066744834184647 2.4170328080654144 4.1629355549812299 2.3333092331886283 3.9540692642331123
leaf_count=21 20 16 17 13 24 24 18 30 16 35
internal_value=0 0.112035 0.179192 -0.160201 0.228522 0.244183 -0.195916 -0.192973 -0.190698 -0.189693
internal_weight=0 24.1935 19.8621 16.1928 16.4249 10.4585 4.33147 13.7839 10.4503 8.117
internal_count=234 120 86 114 65 41 34 101 81 65
is_linear=0
shrinkage=0.2


Tree=23
num_leaves=11
num_cat=0
split_feature=44 43 43 14 45 43 16 12 2 45
split_gain=35.0413 0.639321 0.0055873 0.000321897 0.000101524 0.000158287 0.000203513 0.000181876 4.18444e-06 2.20794e-07
threshold=1.028381068620454 1.4199606255699784 0.8434677098479072 1.0000000180025095e-35 -1.2355933716660144 -0.77071245417389211 1.0000000180025095e-35 1.0000000180025095e-35 1.0000000180025095e-35 1.3607136904283912
decision_type=2 2 2 2 2 2 2 2 2 2
left_child=2 -2 3 4 -1 -6 8 -8 9 -7
right_child=1 -3 -4 -5 5 6 7 -9 -10 -11
leaf_value=-0.17792908039402677 0.36332134850220882 0.25775585732097683 -0.19031440286178969 -0.18233358203999347 -0.18100395166052663 -0.17789457440167342 -0.18121268024207476 -0.17855694190955029 -0.17840231700967718 -0.17800438123670601
leaf_weight=2.0637773275375375 4.3031247556209546 4.9167066812515259 2.2311041578650466 1.476126097142697 2.1275082677602777 1.2771176025271416 2.3676609396934509 1.8277709037065504 1.1793515607714651 1.7175236791372299
leaf_count=30 17 18 18 16 25 18 27 25 16 24
internal_value=0 0.307026 -0.181017 -0.17954 -0.179211 -0.179464 -0.179072 -0.180056 -0.178083 -0.177958
internal_weight=0 9.21983 16.2679 14.0368 12.5607 10.4969 8.36942 4.19543 4.17399 2.99464
internal_count=234 35 199 181 165 135 110 52 58 42
is_linear=0
shrinkage=0.2


Tree=24
num_leaves=10
num_cat=0
split_feature=46 48 48 46 25 31 46 46 12
split_gain=7.29181 0.830166 0.00863899 2.75765e-05 2.27252e-05 1.93035e-06 1.68598e-06 6.94881e-07 5.64819e-08
threshold=1.19185220876623 -1.1847619406300147 -1.7101292455906534 1.0000000180025095e-35 1.0000000180025095e-35 1.0000000180025095e-35 0.62832158161253837 -1.0622702998485356 1.0000000180025095e-35
decision_type=2 2 2 2 2 2 2 2 2
left_child=2 -2 -1 4 5 7 -5 -4 -9
right_child=1 -3 3 6 -6 -7 -8 8 -10
leaf_value=-0.19176700464608565 0.26608016627828274 0.097193884459760543 -0.17026950735464241 -0.17179360326475618 -0.17184446100258943 -0.17009753659055404 -0.17140221721514168 -0.17060036595219913 -0.17050938491751969
leaf_weight=0.96050739288330067 1.6850064396858213 3.7668646182864904 0.48984717018902313 0.80059668049216248 0.47660259157419194 0.8770491238683461 0.97813774645328522 0.56198865361511752 0.53066909126937389
leaf_count=12 6 45 20 24 17 37 31 21 21
internal_value=0 0.149391 -0.174479 -0.170957 -0.17058 -0.170336 -0.171578 -0.170467 -0.170556
internal_weight=0 5.45187 5.6754 4.71489 2.93616 2.45955 1.77873 1.5825 1.09266
internal_count=234 51 183 171 116 99 55 62 42
is_linear=0
shrinkage=0.2


Tree=25
num_leaves=13
num_cat=0
split_feature=40 43 43 46 43 48 43 48 46 43 7 43
split_gain=9.00364 2.8909 2.90245 0.107985 0.379519 0.0561746 0.0141258 8.8893e-05 1.79034e-05 2.41181e-06 3.95376e-07 3.92206e-07
threshold=1.0000000180025095e-35 -0.42481670474064953 1.0000000180025095e-35 0.62832158161253837 -0.77071245417389211 -1.1847619406300147 0.49757196041466434 1.0000000180025095e-35 1.0000000180025095e-35 -0.30951812159623526 1.0000000180025095e-35 -0.54011528788506369
decision_type=2 2 2 2 2 2 2 2 2 2 2 2
left_child=3 -2 -3 5 -5 -1 -4 -7 9 11 -11 -9
right_child=1 2 6 4 -6 7 -8 8 -10 10 -12 -13
leaf_value=-0.23390366617692085 0.26198393234814793 0.26115826788687257 -0.1711882563123214 -0.1884918940130223 -0.03462482312644611 -0.17325144007370857 -0.21076897024659008 -0.17107268879172399 -0.17196275542219752 -0.17042363089096144 -0.17067650179534136 -0.17083451217616039
leaf_weight=0.6853024661540984 4.2051286920905113 0.94370159879326854 0.83697851002216317 1.7068770099431279 1.0270301252603529 0.96380388550460372 0.6337667889893055 0.53774160146713257 0.62427391111850727 0.61711573228239991 0.4127484317868948 0.56936887837946482
leaf_count=3 15 5 28 30 25 27 6 18 18 24 15 20
internal_value=0 0.161834 -0.0125924 -0.16192 -0.13069 -0.181279 -0.188244 -0.171598 -0.171021 -0.170745 -0.170525 -0.17095
internal_weight=0 6.61958 2.41445 7.14426 2.73391 4.41035 1.47075 3.72505 2.76125 2.13697 1.02986 1.10711
internal_count=234 54 39 180 55 125 34 122 95 77 39 38
is_linear=0
shrinkage=0.2


Tree=26
num_leaves=10
num_cat=0
split_feature=44 47 44 40 44 43 44 43 43
split_gain=18.8142 6.12371 1.88083 0.373755 1.52463 0.0645059 0.00383311 0.000746481 0.00011226
threshold=-0.73085952821816658 2.1361019557572178 -0.98217961348082616 1.0000000180025095e-35 1.0000000180025095e-35 0.72816912670349287 0.2744208128324736 -0.30951812159623526 1.1893634592811499
decision_type=2 2 2 2 2 2 2 2 2
left_child=1 2 5 4 -2 -1 -6 -8 -9
right_child=3 -3 -4 -5 6 -7 7 8 -10
leaf_value=0.25954799955170776 -0.014458970675072336 -0.12119231233124012 0.08607247582757413 -0.22408559247154455 -0.19010716278005024 0.22751107352270539 -0.18381605630810202 -0.1804041880439935 -0.17834779611631743
leaf_weight=5.795432984828949 2.7744551897048941 2.8523067086935034 4.1530968993902215 2.9347486570477477 2.563875310122965 4.4399071633815765 2.4152296558022464 2.203913383185867 2.0492091476917267
leaf_count=23 22 23 20 22 25 19 24 27 29
internal_value=0 0.14652 0.19959 -0.160104 -0.144466 0.245651 -0.183535 -0.181008 -0.179413
internal_weight=0 17.2407 14.3884 14.9414 12.0067 10.2353 9.23223 6.66835 4.25312
internal_count=234 85 62 149 127 42 105 80 56
is_linear=0
shrinkage=0.2


Tree=27
num_leaves=12
num_cat=0
split_feature=3 43 46 46 43 46 47 47 43 0 43
split_gain=3.79413 6.1422 4.52351 0.915688 1.46561 0.542213 1.89589 0.212771 0.018599 0.000388082 0.000195757
threshold=1.0000000180025095e-35 0.15167621098142162 -1.0622702998485356 0.62832158161253837 -0.19421953845182102 0.62832158161253837 1.0480088590443242 -0.40278193657286659 -0.078920955307406782 1.0000000180025095e-35 -0.54011528788506369
decision_type=2 2 2 2 2 2 2 2 2 2 2
left_child=1 3 -3 4 7 -4 -7 10 9 -5 -1
right_child=-2 2 5 8 -6 6 -8 -9 -10 -11 -12
leaf_value=-0.18324865382437042 0.13578283891582191 -0.17814503829276429 0.2208483189776779 -0.18688287718611754 0.027897935500421481 0.25277265446447672 -0.052617247158610561 -0.092941789182992562 -0.2102434655064217 -0.18224583759240576 -0.18010400678503724
leaf_weight=1.5159441456198717 6.7845659628510466 1.9378098174929617 3.6333359703421575 1.5392706543207169 2.9366852864623096 1.7214770317077639 1.5410437099635599 1.6431302353739736 1.8814276605844495 1.3596298061311245 1.6577291339635851
leaf_count=17 38 29 17 16 28 10 21 10 10 17 21
internal_value=0 -0.0358906 0.0918375 -0.125912 -0.0834652 0.167705 0.108522 -0.151361 -0.194758 -0.184708 -0.181606
internal_weight=0 21.3675 8.83367 12.5338 7.75349 6.89586 3.26252 4.8168 4.78033 2.8989 3.17367
internal_count=234 196 77 119 76 48 31 48 43 33 38
is_linear=0
shrinkage=0.2


Tree=28
num_leaves=11
num_cat=0
split_feature=45 38 45 31 46 45 17 45 31 45
split_gain=13.192 7.86671 2.55877 5.28583 0.432231 0.500886 0.0245308 0.00282245 0.00139773 1.80965e-05
threshold=-0.20184861318246741 1.0000000180025095e-35 0.038520311133808112 1.0000000180025095e-35 0.62832158161253837 -0.87499516859734705 1.0000000180025095e-35 -1.2355933716660144 1.0000000180025095e-35 1.3607136904283912
decision_type=2 2 2 2 2 2 2 2 2 2
left_child=4 2 6 -4 5 -1 -2 -6 -9 -3
right_child=1 9 3 -5 7 -7 -8 8 -10 -11
leaf_value=-0.19578050453547868 0.24263683262613972 -0.18161364067340635 -0.097084404044387701 0.21283703744856786 -0.18323767464428095 -0.066332760504693361 0.22116768267910003 -0.19450054940761699 -0.18765756011891932 -0.18255470213639835
leaf_weight=1.8773555085062978 4.2995134294033104 1.4485088214278212 3.8755619972944242 5.0952910035848618 2.8744686096906662 3.2928280904889089 4.2166225761175156 2.4520939290523529 2.3270367905497551 1.8759131208062172
leaf_count=15 19 16 26 25 30 25 19 19 20 20
internal_value=0 0.0998724 0.153486 0.0789457 -0.158011 -0.113337 0.232007 -0.18819 -0.191169 -0.182145
internal_weight=0 20.8114 17.487 8.97085 12.8238 5.17018 8.51614 7.6536 4.77913 3.32442
internal_count=234 125 89 51 109 40 38 69 39 36
is_linear=0
shrinkage=0.2


Tree=29
num_leaves=13
num_cat=0
split_feature=46 43 43 38 25 46 43 46 43 43 13 5
split_gain=23.3656 0.528113 0.212018 0.000309645 0.000164332 0.000206816 0.000308453 0.000113932 4.47468e-05 9.79401e-06 9.20111e-06 7.46521e-06
threshold=-1.0622702998485356 1.3046620424255642 0.95876629299232141 1.0000000180025095e-35 1.0000000180025095e-35 1.0000000180025095e-35 -0.30951812159623526 1.19185220876623 -0.54011528788506369 0.15167621098142162 1.0000000180025095e-35 1.0000000180025095e-35
decision_type=2 2 2 2 2 2 2 2 2 2 2 2
left_child=1 -1 3 4 5 8 7 10 -2 11 -7 -10
right_child=2 -3 -4 -5 -6 6 -8 -9 9 -11 -12 -13
leaf_value=0.33035093736762966 -0.17642901816881207 0.22483439640037442 -0.084595832275931149 -0.17963589429604176 -0.1789522874475897 -0.17716267248081902 -0.1794338540540853 -0.17418222671226705 -0.17550265201858462 -0.17437238718357442 -0.17635859916316821 -0.17480654050260538
leaf_weight=3.148552484810355 1.0932680815458269 4.7744743674993515 1.0846911519765843 1.5193531885743148 1.0483019798994071 1.3265905678272254 1.6490602679550646 0.91435278579592694 1.239784639328716 0.85885612294077862 0.99714697897434224 1.2252310588955879
leaf_count=15 18 21 7 19 15 20 22 19 22 17 16 23
internal_value=0 0.266766 -0.169236 -0.17697 -0.176578 -0.176311 -0.177207 -0.176073 -0.175319 -0.174954 -0.176818 -0.175157
internal_weight=0 7.92303 12.9566 11.8719 10.3526 9.30429 4.88715 3.23809 4.41714 3.32387 2.32374 2.46502
internal_count=234 36 198 191 172 157 77 55 80 62 36 45
is_linear=0
shrinkage=0.2


Tree=30
num_leaves=12
num_cat=0
split_feature=44 47 47 43 40 43 31 43 31 43 43
split_gain=8.51957 0.00642355 4.82601e-05 3.57378e-05 1.78318e-05 4.43639e-06 3.63214e-06 2.77667e-06 4.46832e-06 1.51572e-06 1.42848e-08
threshold=-1.4848197840061459 2.7405981205977139 1.0000000180025095e-35 -0.77071245417389211 1.0000000180025095e-35 0.15167621098142162 1.0000000180025095e-35 1.1893634592811499 1.0000000180025095e-35 -0.42481670474064953 -0.078920955307406782
decision_type=2 2 2 2 2 2 2 2 2 2 2
left_child=-1 2 3 -2 5 -4 -6 8 9 -5 -10
right_child=1 -3 4 7 6 -7 -8 -9 10 -11 -12
leaf_value=0.21577721097887728 -0.17100622196472393 -0.19138742095505279 -0.17189197446357715 -0.16954829136304039 -0.16992194242134565 -0.17117928020011541 -0.1707628340966337 -0.16896198659905123 -0.16915706879589704 -0.17007484717432797 -0.16909653194531582
leaf_weight=3.7652466893196106 0.78210644051432643 0.66294376552104939 0.73397362045943759 0.4131560306996106 0.37503564357757557 0.66672682203352451 0.45443243160843849 0.43690156470984209 0.36547463946044445 0.46453062817454327 0.27192498557269573
leaf_count=16 28 5 21 21 17 22 17 28 21 22 16
internal_value=0 -0.172896 -0.170427 -0.169864 -0.171118 -0.171553 -0.170383 -0.169406 -0.169534 -0.169827 -0.169131
internal_weight=0 5.62721 4.96426 2.73409 2.23017 1.4007 0.829468 1.95199 1.51509 0.877687 0.6374
internal_count=234 218 213 136 77 43 34 108 80 43 37
is_linear=0
shrinkage=0.2


Tree=31
num_leaves=11
num_cat=0
split_feature=45 44 48 48 44 46 44 46 44 44
split_gain=6.57843 6.21487 0.0416374 5.93728e-05 5.03124e-05 1.20442e-05 4.71394e-06 1.0823e-06 9.11606e-07 2.82489e-07
threshold=-0.87499516859734705 -0.98217961348082616 -1.1847619406300147 1.0000000180025095e-35 -0.60519948558683645 1.0000000180025095e-35 1.0000000180025095e-35 -0.49873967269484426 1.028381068620454 0.65140076417830439
decision_type=2 2 2 2 2 2 2 2 2 2
left_child=1 -1 -2 4 -4 7 -7 8 -5 -9
right_child=2 -3 3 5 -6 6 -8 9 -10 -11
leaf_value=-0.22016872290994938 -0.21611715244822849 0.23241799720487799 -0.1706162945385602 -0.17003189429369875 -0.1730106552725536 -0.17015338911783717 -0.17101934649637701 -0.16966838978292309 -0.16961886387325212 -0.16942263299758054
leaf_weight=1.6004996988922355 1.0020046234130857 5.0209397161379457 0.81554245389997959 0.52274414710700468 0.61633097939193227 0.49603464268147923 0.50995732098817825 0.34903737530112333 0.36160978674888611 0.4032261036336422
leaf_count=31 5 32 33 23 15 21 18 17 18 21
internal_value=0 0.123021 -0.179592 -0.17061 -0.171647 -0.170048 -0.170592 -0.169713 -0.169863 -0.169537
internal_weight=0 6.62144 5.07649 4.07448 1.43187 2.64261 1.00599 1.63662 0.884354 0.752263
internal_count=234 63 171 166 48 118 39 79 41 38
is_linear=0
shrinkage=0.2


Tree=32
num_leaves=10
num_cat=0
split_feature=47 47 40 47 47 48 48 16 13
split_gain=6.28362 2.9706 1.58754 1.71813 0.982039 0.000457697 2.06877e-05 1.11075e-05 5.51037e-06
threshold=1.0000000180025095e-35 2.1361019557572178 1.0000000180025095e-35 1.0480088590443242 -0.40278193657286659 1.0000000180025095e-35 0.20591621955991044 1.0000000180025095e-35 1.0000000180025095e-35
decision_type=2 2 2 2 2 2 2 2 2
left_child=4 2 3 -2 5 7 8 -1 -7
right_child=1 -3 -4 -5 -6 6 -8 -9 -10
leaf_value=-0.18042914788875142 0.059803799126574068 -0.11335801754763875 0.032292895339718498 0.23781276397454595 -0.050871285015659434 -0.17625261400707337 -0.17549548113728652 -0.17955644242822519 -0.1768915956682432
leaf_weight=1.0988966859877127 3.6408493667840975 2.7454706430435172 5.8882159516215316 5.3645648509263992 4.3810804411768913 0.96130649372935351 0.95338713750243176 1.243502426892519 1.2312948144972324
leaf_count=17 19 27 27 25 50 16 17 17 19
internal_value=0 0.0778058 0.113045 0.165845 -0.121483 -0.177849 -0.176273 -0.179966 -0.176611
internal_weight=0 17.6391 14.8936 9.00541 9.86947 5.48839 3.14599 2.3424 2.1926
internal_count=234 98 71 44 136 86 52 34 35
is_linear=0
shrinkage=0.2


Tree=33
num_leaves=11
num_cat=0
split_feature=35 3 48 48 45 4 45 48 45 16
split_gain=4.35936 4.24047 2.83014 3.30524 0.521802 0.00356972 0.00134287 0.00145954 0.00130139 5.88728e-05
threshold=1.0000000180025095e-35 1.0000000180025095e-35 -0.44306692186205471 -0.90662630859202975 -0.87499516859734705 1.0000000180025095e-35 0.038520311133808112 0.20591621955991044 -1.2355933716660144 1.0000000180025095e-35
decision_type=2 2 2 2 2 2 2 2 2 2
left_child=1 2 3 4 8 6 7 -4 -1 -8
right_child=-2 -3 5 -5 -6 -7 9 -9 -10 -11
leaf_value=-0.17475396421579426 0.22143118756109523 0.11116237863946893 -0.1769973041898619 0.11293365871595867 -0.019582267590746077 -0.18926675518151714 -0.17673013266402071 -0.1868886535482267 -0.18311190919124073 -0.17472436796825347
leaf_weight=1.3620913103222845 3.2768363058567038 6.3483805879950514 1.2048500888049631 4.4211275875568408 1.1234789341688154 1.6066480502486227 0.86444277316331875 1.1822134330868719 1.6453528776764872 1.813013169914484
leaf_count=29 17 38 19 22 8 18 14 16 18 35
internal_value=0 -0.0261526 -0.0834156 -0.00725215 -0.135881 -0.181053 -0.178447 -0.181896 -0.179327 -0.175372
internal_weight=0 21.5716 15.2232 8.55205 4.13092 6.67117 5.06452 2.38706 3.00744 2.67746
internal_count=234 217 179 77 55 102 84 35 47 49
is_linear=0
shrinkage=0.2


Tree=34
num_leaves=13
num_cat=0
split_feature=44 44 47 31 45 44 17 44 44 47 44 44
split_gain=11.7667 7.28403 1.20824 1.75798 1.32627 0.0142838 0.0083585 0.00662705 0.00041467 0.000830588 7.79294e-05 1.56062e-05
threshold=-0.35387940032417631 1.028381068620454 -0.40278193657286659 1.0000000180025095e-35 0.038520311133808112 1.2797011538831129 1.0000000180025095e-35 -0.73085952821816658 -1.4219896593812071 1.2898073249805229 -0.98217961348082616 -1.4848197840061459
decision_type=2 2 2 2 2 2 2 2 2 2 2 2
left_child=7 2 6 4 -4 -3 -2 8 11 10 -10 -1
right_child=1 5 3 -5 -6 -7 -8 -9 9 -11 -12 -13
leaf_value=-0.17752885591832698 0.21847141122797661 -0.21053668146038948 0.12995690800036272 0.20009188677382231 -0.077976904118821577 -0.18261074369874686 0.20436875676955688 -0.19230621431841244 -0.17859299155375327 -0.18528963200408083 -0.18064708692769654 -0.17858144859738906
leaf_weight=1.0724957287311554 3.3224399834871319 1.375208675861358 2.3114020824432355 3.8399284332990646 2.615310475230217 1.5679490268230436 3.4028104245662689 2.5240798890590685 1.6833850890398023 1.4759893417358396 1.3166094720363619 1.1870149485766888
leaf_count=16 18 16 10 23 20 19 19 24 23 14 16 16
internal_value=0 0.0927699 0.147566 0.0986452 0.0195767 -0.195659 0.211336 -0.183566 -0.180291 -0.181405 -0.179494 -0.178082
internal_weight=0 18.435 15.4919 8.76664 4.92671 2.94316 6.72525 9.25957 6.73549 4.47598 2.99999 2.25951
internal_count=234 125 90 53 30 35 37 109 85 53 39 32
is_linear=0
shrinkage=0.2


Tree=35
num_leaves=11
num_cat=0
split_feature=44 7 47 44 4 48 47 44 40 48
split_gain=18.3734 0.213905 0.000619706 0.00188493 0.000257297 0.00017721 4.81343e-05 3.49774e-05 4.7955e-06 3.45165e-06
threshold=1.028381068620454 1.0000000180025095e-35 1.0000000180025095e-35 -0.73085952821816658 1.0000000180025095e-35 -0.90662630859202975 -0.40278193657286659 -1.4219896593812071 1.0000000180025095e-35 1.3493627068271825
decision_type=2 2 2 2 2 2 2 2 2 2
left_child=2 -2 4 5 6 7 8 -4 -1 -7
right_child=1 -3 3 -5 -6 9 -8 -9 -10 -11
leaf_value=-0.17258951379879572 0.28030186954333397 0.20882074152866134 -0.17239302253508801 -0.1830579097281938 -0.17694177652785811 -0.176482992828387 -0.17425864239869099 -0.17422702476213167 -0.17326353490531296 -0.17595711958601828
leaf_weight=1.3890989273786551 3.825454279780387 2.9782349318265915 0.75227740034461021 1.6405336856842039 1.1027092337608335 0.83708500489592608 1.6326583772897731 0.93040322512388207 0.60661189630627621 1.2370846830308437
leaf_count=35 19 16 20 20 20 15 34 19 15 21
internal_value=0 0.249012 -0.175937 -0.177402 -0.174266 -0.174932 -0.173453 -0.173407 -0.172794 -0.176169
internal_weight=0 6.80369 10.1285 5.39738 4.73108 3.75685 3.62837 1.68268 1.99571 2.07417
internal_count=234 35 199 95 104 75 84 39 50 36
is_linear=0
shrinkage=0.2


Tree=36
num_leaves=12
num_cat=0
split_feature=45 16 47 46 48 42 31 46 31 45 45
split_gain=4.83289 0.37907 0.00372977 0.000527996 1.84303e-05 1.47314e-05 8.86533e-06 8.57156e-06 8.22285e-07 6.06299e-08 2.67553e-08
threshold=-1.2355933716660144 1.0000000180025095e-35 2.7405981205977139 1.19185220876623 1.0000000180025095e-35 1.0000000180025095e-35 1.0000000180025095e-35 1.0000000180025095e-35 1.0000000180025095e-35 -0.87499516859734705 0.39911848224527785
decision_type=2 2 2 2 2 2 2 2 2 2 2
left_child=1 -1 3 4 5 6 9 8 10 -2 -6
right_child=2 -3 -4 -5 7 -7 -8 -9 -10 -11 -12
leaf_value=0.081729550618059976 -0.16900752096062299 0.21189977614644229 -0.18791886774052266 -0.17597950692861436 -0.1688299259278041 -0.17096450475261588 -0.17017849007927477 -0.16976243932922033 -0.16843840895038487 -0.16886718632829048 -0.168744890520512
leaf_weight=1.7667581345885992 0.27684361673891544 1.8132930546998978 0.5826134830713271 0.59771532006561745 0.34123480040580012 0.40568947233259678 0.43773112073540688 0.36483137682080258 0.46206661872565746 0.22181057184934727 0.26136421225965023
leaf_count=35 17 9 5 21 23 15 19 18 37 16 19
internal_value=0 0.147661 -0.173143 -0.170588 -0.169426 -0.169958 -0.169522 -0.168926 -0.168639 -0.168945 -0.168793
internal_weight=0 3.58005 3.9519 3.36929 2.77157 1.34207 0.936385 1.4295 1.06467 0.498654 0.602599
internal_count=234 44 190 185 164 67 52 97 79 33 42
is_linear=0
shrinkage=0.2


Tree=37
num_leaves=12
num_cat=0
split_feature=48 48 0 43 46 46 43 43 43 48 43
split_gain=4.18136 7.24104e-05 4.99835e-05 2.53207e-05 7.0752e-06 5.0063e-06 3.37446e-06 3.3471e-06 1.29741e-06 3.29207e-07 8.52639e-08
threshold=-1.1847619406300147 1.0000000180025095e-35 1.0000000180025095e-35 -0.19421953845182102 -1.0000000180025095e-35 1.19185220876623 0.8434677098479072 1.0000000180025095e-35 -0.54011528788506369 0.57676372894389061 -0.078920955307406782
decision_type=2 2 2 2 2 2 2 2 2 2 2
left_child=-1 2 3 -2 8 -6 7 -4 -3 -10 -11
right_child=1 4 6 -5 5 -7 -8 -9 9 10 -12
leaf_value=0.097518823122176135 -0.17320481368865537 -0.16926231204053399 -0.17010620764081774 -0.17106045995026209 -0.17016707648910814 -0.16919196805582681 -0.17035651997889345 -0.16909132706078536 -0.16893631939631759 -0.16876182640843623 -0.16860119418182734
leaf_weight=5.8534849435091019 0.40150500647723675 0.31199456937611136 0.26042316574603319 0.48795313946902774 0.41031095385551442 0.43270883336663246 0.43088122643530369 0.25952511467039585 0.35997559223324049 0.290597592480481 0.24246215913444724
leaf_count=29 15 18 13 18 18 25 20 17 23 20 18
internal_value=0 -0.17004 -0.170951 -0.172028 -0.169222 -0.169667 -0.169943 -0.1696 -0.168911 -0.168789 -0.168689
internal_weight=0 3.88834 1.84029 0.889458 2.04805 0.84302 0.95083 0.519948 1.20503 0.893035 0.53306
internal_count=234 205 83 33 122 43 50 30 79 61 38
is_linear=0
shrinkage=0.2


Tree=38
num_leaves=12
num_cat=0
split_feature=43 43 45 38 43 43 13 45 43 13 43
split_gain=3.10153 3.49057 5.49356 0.711368 1.21804 0.429647 0.397366 0.167578 0.0954927 0.0141119 0.000105573
threshold=1.0740648761367357 -0.078920955307406782 -1.3557927726889036 1.0000000180025095e-35 0.15167621098142162 -1.0013096204627205 1.0000000180025095e-35 -0.6345963665515687 1.1893634592811499 1.0000000180025095e-35 -0.54011528788506369
decision_type=2 2 2 2 2 2 2 2 2 2 2
left_child=1 2 -1 4 -3 6 -4 -7 -2 -9 -11
right_child=8 3 5 -5 -6 7 -8 9 -10 10 -12
leaf_value=0.18136880009026568 -0.25582964739233494 0.16431210901753976 0.0081116496447592619 0.19989208911104261 -0.0082191792403670163 -0.11465454935485186 -0.13561423156690497 -0.20181133703593149 -0.17323393819649507 -0.17649419993837206 -0.17361023283264673
leaf_weight=3.2546669319272068 1.1398870050907128 3.5102384090423566 1.5532763600349444 3.1145393550395966 3.0667065866291523 2.3110613971948641 1.5247882455587387 1.2278674319386467 1.1004313863813875 0.86620557308197232 1.2268540859222392
leaf_count=21 5 28 11 20 29 20 19 9 29 16 27
internal_value=0 0.0319357 -0.0403298 0.121152 0.083864 -0.123171 -0.0630862 -0.15601 -0.215259 -0.184789 -0.174804
internal_weight=0 21.6562 11.9647 9.69148 6.57694 8.71005 3.07806 5.63199 2.24032 3.32093 2.09306
internal_count=234 200 123 77 57 102 30 72 34 52 43
is_linear=0
shrinkage=0.2


Tree=39
num_leaves=12
num_cat=0
split_feature=44 46 3 16 1 44 41 31 31 42 44
split_gain=4.85718 3.52305 3.02952 5.6695 1.5347 0.262169 0.00541994 0.00532569 0.00308473 0.00227829 2.07109e-07
threshold=-0.85651957084949604 -1.0622702998485356 1.0000000180025095e-35 1.0000000180025095e-35 1.0000000180025095e-35 -1.0000000180025095e-35 1.0000000180025095e-35 1.0000000180025095e-35 1.0000000180025095e-35 1.0000000180025095e-35 -1.4219896593812071
decision_type=2 2 2 2 2 2 2 2 2 2 2
left_child=7 6 3 5 -5 -3 -2 9 -7 10 -1
right_child=1 2 -4 4 -6 8 -8 -9 -10 -11 -12
leaf_value=-0.17280948798748583 -0.18111668494290145 -0.075366453588391502 0.2381491845647038 0.22420421142260571 0.033187631458081644 -0.18588138516492461 -0.20175487733768016 -0.19439479509388657 -0.1727921606247991 -0.18360067621916898 -0.17296212744435546
leaf_weight=0.94749271497130372 1.1800558064132993 1.4562469050288225 3.964995563030242 4.1432896107435226 2.8327114433050156 1.4727174825966278 0.89505665376782406 1.1418612226843832 1.4094474241137505 1.6530498825013638 0.56916233897209456
leaf_count=25 22 18 18 24 18 19 14 8 35 19 14
internal_value=0 0.0545022 0.0877109 0.0349916 0.146639 -0.144533 -0.190019 -0.182684 -0.17948 -0.178465 -0.172867
internal_weight=0 17.3545 15.2794 11.3144 6.976 4.33841 2.07511 4.31157 2.88216 3.1697 1.51666
internal_count=234 168 132 114 42 72 36 66 54 58 39
is_linear=0
shrinkage=0.2


Tree=40
num_leaves=13
num_cat=0
split_feature=44 44 46 43 43 43 44 5 46 43 47 43
split_gain=8.47307 4.75674 3.45702 0.112453 0.0299256 0.0135693 0.00318704 0.00200948 0.000385014 0.000161925 0.000125219 6.72008e-06
threshold=-0.35387940032417631 1.028381068620454 1.0000000180025095e-35 -0.078920955307406782 -0.6554138710294779 1.3046620424255642 -0.73085952821816658 1.0000000180025095e-35 1.19185220876623 1.0000000180025095e-35 1.0480088590443242 0.72816912670349287
decision_type=2 2 2 2 2 2 2 2 2 2 2 2
left_child=6 2 3 4 -2 -3 8 -6 9 -1 -10 -12
right_child=1 5 -4 -5 7 -7 -8 -9 10 -11 11 -13
leaf_value=-0.18053577367385143 0.21951293668493124 -0.2058657263311448 -0.048513694060039157 0.15136072839155904 0.19699027334659155 -0.17430517371277487 -0.18649873489995097 0.18879098451484566 -0.1772859632411401 -0.17728581232771054 -0.17490023767431853 -0.17412914799953641
leaf_weight=1.2386510521173479 2.5097733885049811 1.0800839364528649 3.262565776705741 2.3299336135387412 2.2194666415452957 1.0997478105127809 1.9841933064162756 2.5918076708912849 1.0083684548735621 1.2144780978560445 0.88145628944039323 0.92810559645295143
leaf_count=15 13 13 23 18 15 22 24 21 15 19 17 19
internal_value=0 0.0833338 0.129463 0.18963 0.201809 -0.189943 -0.179667 0.192573 -0.177095 -0.178927 -0.1755 -0.174505
internal_weight=0 15.0934 12.9135 9.65098 7.32105 2.17983 7.25525 4.81127 5.27106 2.45313 2.81793 1.80956
internal_count=234 125 90 67 49 35 109 36 85 34 51 36
is_linear=0
shrinkage=0.2


Tree=41
num_leaves=13
num_cat=0
split_feature=44 43 43 14 16 43 44 43 47 47 31 44
split_gain=13.4246 0.217101 0.00226082 0.000218934 3.28566e-05 0.000106058 8.23939e-05 2.71761e-05 5.10801e-05 4.22677e-05 4.74168e-06 5.89719e-08
threshold=1.028381068620454 1.3046620424255642 0.95876629299232141 1.0000000180025095e-35 1.0000000180025095e-35 -0.77071245417389211 -1.1078396561121562 0.15167621098142162 1.0480088590443242 0.56441192717192723 1.0000000180025095e-35 0.65140076417830439
decision_type=2 2 2 2 2 2 2 2 2 2 2 2
left_child=2 -2 3 4 5 6 -1 9 -9 -6 -7 -12
right_child=1 -3 -4 -5 7 10 -8 8 -10 -11 11 -13
leaf_value=-0.17157205723174751 0.27777855596962159 0.19790732344785808 -0.18550391613536968 -0.17599120627020182 -0.17490560236361499 -0.17144037046393701 -0.17437932842620249 -0.17104799597910689 -0.17342993730323969 -0.17273617810185313 -0.17070137109578384 -0.17079776611398104
leaf_weight=0.70179878547787655 2.3574923202395439 3.2213058471679688 0.62480214610695828 0.84462051466107357 0.62823029607534431 0.66612824238836776 1.034898620098829 0.6109231151640413 0.87721453979611397 0.83898504450917244 0.44292549975216389 0.59472641535103321
leaf_count=22 13 22 6 16 12 21 22 21 20 22 16 21
internal_value=0 0.231659 -0.173961 -0.172965 -0.172565 -0.172145 -0.173245 -0.173054 -0.172452 -0.173665 -0.171024 -0.170757
internal_weight=0 5.5788 7.86525 7.24045 6.39583 3.44048 1.7367 2.95535 1.48814 1.46722 1.70378 1.03765
internal_count=234 35 199 193 177 102 44 75 41 34 58 37
is_linear=0
shrinkage=0.2


end of trees

feature_importances:
Column_43=79
Column_44=58
Column_46=45
Column_48=44
Column_45=30
Column_47=28
Column_16=14
Column_31=14
Column_0=11
Column_3=10
Column_12=8
Column_40=7
Column_13=6
Column_7=5
Column_14=5
Column_4=4
Column_5=4
Column_25=4
Column_1=3
Column_2=3
Column_17=3
Column_22=3
Column_38=3
Column_41=3
Column_42=3
Column_35=2

parameters:
[boosting: gbdt]
[objective: multiclass]
[metric: custom]
[tree_learner: serial]
[device_type: cpu]
[data_sample_strategy: bagging]
[data: ]
[valid: ]
[num_iterations: 10000]
[learning_rate: 0.2]
[num_leaves: 63]
[num_threads: 0]
[seed: 1236]
[deterministic: 0]
[force_col_wise: 0]
[force_row_wise: 0]
[histogram_pool_size: -1]
[max_depth: -1]
[min_data_in_leaf: 15]
[min_sum_hessian_in_leaf: 0.001]
[bagging_fraction: 1]
[pos_bagging_fraction: 1]
[neg_bagging_fraction: 1]
[bagging_freq: 0]
[bagging_seed: 21709]
[feature_fraction: 0.5]
[feature_fraction_bynode: 1]
[feature_fraction_seed: 24116]
[extra_trees: 0]
[extra_seed: 15571]
[early_stopping_round: 0]
[early_stopping_min_delta: 0]
[first_metric_only: 0]
[max_delta_step: 0]
[lambda_l1: 0]
[lambda_l2: 0]
[linear_lambda: 0]
[min_gain_to_split: 0]
[drop_rate: 0.1]
[max_drop: 50]
[skip_drop: 0.5]
[xgboost_dart_mode: 0]
[uniform_drop: 0]
[drop_seed: 15722]
[top_rate: 0.2]
[other_rate: 0.1]
[min_data_per_group: 100]
[max_cat_threshold: 32]
[cat_l2: 10]
[cat_smooth: 10]
[max_cat_to_onehot: 4]
[top_k: 20]
[monotone_constraints: ]
[monotone_constraints_method: basic]
[monotone_penalty: 0]
[feature_contri: ]
[forcedsplits_filename: ]
[refit_decay_rate: 0.9]
[cegb_tradeoff: 1]
[cegb_penalty_split: 0]
[cegb_penalty_feature_lazy: ]
[cegb_penalty_feature_coupled: ]
[path_smooth: 0]
[interaction_constraints: ]
[verbosity: -1]
[saved_feature_importance_type: 0]
[use_quantized_grad: 0]
[num_grad_quant_bins: 4]
[quant_train_renew_leaf: 0]
[stochastic_rounding: 1]
[linear_tree: 0]
[max_bin: 255]
[max_bin_by_feature: ]
[min_data_in_bin: 3]
[bin_construct_sample_cnt: 200000]
[data_random_seed: 4074]
[is_enable_sparse: 1]
[enable_bundle: 1]
[use_missing: 1]
[zero_as_missing: 0]
[feature_pre_filter: 1]
[pre_partition: 0]
[two_round: 0]
[header: 0]
[label_column: ]
[weight_column: ]
[group_column: ]
[ignore_column: ]
[categorical_feature: ]
[forcedbins_filename: ]
[precise_float_parser: 0]
[parser_config_file: ]
[objective_seed: 10917]
[num_class: 6]
[is_unbalance: 0]
[scale_pos_weight: 1]
[sigmoid: 1]
[boost_from_average: 1]
[reg_sqrt: 0]
[alpha: 0.9]
[fair_c: 1]
[poisson_max_delta_step: 0.7]
[tweedie_variance_power: 1.5]
[lambdarank_truncation_level: 30]
[lambdarank_norm: 1]
[label_gain: ]
[lambdarank_position_bias_regularization: 0]
[eval_at: ]
[multi_error_top_k: 1]
[auc_mu_weights: ]
[num_machines: 1]
[local_listen_port: 12400]
[time_out: 120]
[machine_list_filename: ]
[machines: ]
[gpu_platform_id: -1]
[gpu_device_id: -1]
[gpu_use_dp: 0]
[num_gpu: 1]

end of parameters

pandas_categorical:null
