tree
version=v4
num_class=6
num_tree_per_iteration=6
label_index=0
max_feature_idx=516
objective=multiclass num_class:6
feature_names=Column_0 Column_1 Column_2 Column_3 Column_4 Column_5 Column_6 Column_7 Column_8 Column_9 Column_10 Column_11 Column_12 Column_13 Column_14 Column_15 Column_16 Column_17 Column_18 Column_19 Column_20 Column_21 Column_22 Column_23 Column_24 Column_25 Column_26 Column_27 Column_28 Column_29 Column_30 Column_31 Column_32 Column_33 Column_34 Column_35 Column_36 Column_37 Column_38 Column_39 Column_40 Column_41 Column_42 Column_43 Column_44 Column_45 Column_46 Column_47 Column_48 Column_49 Column_50 Column_51 Column_52 Column_53 Column_54 Column_55 Column_56 Column_57 Column_58 Column_59 Column_60 Column_61 Column_62 Column_63 Column_64 Column_65 Column_66 Column_67 Column_68 Column_69 Column_70 Column_71 Column_72 Column_73 Column_74 Column_75 Column_76 Column_77 Column_78 Column_79 Column_80 Column_81 Column_82 Column_83 Column_84 Column_85 Column_86 Column_87 Column_88 Column_89 Column_90 Column_91 Column_92 Column_93 Column_94 Column_95 Column_96 Column_97 Column_98 Column_99 Column_100 Column_101 Column_102 Column_103 Column_104 Column_105 Column_106 Column_107 Column_108 Column_109 Column_110 Column_111 Column_112 Column_113 Column_114 Column_115 Column_116 Column_117 Column_118 Column_119 Column_120 Column_121 Column_122 Column_123 Column_124 Column_125 Column_126 Column_127 Column_128 Column_129 Column_130 Column_131 Column_132 Column_133 Column_134 Column_135 Column_136 Column_137 Column_138 Column_139 Column_140 Column_141 Column_142 Column_143 Column_144 Column_145 Column_146 Column_147 Column_148 Column_149 Column_150 Column_151 Column_152 Column_153 Column_154 Column_155 Column_156 Column_157 Column_158 Column_159 Column_160 Column_161 Column_162 Column_163 Column_164 Column_165 Column_166 Column_167 Column_168 Column_169 Column_170 Column_171 Column_172 Column_173 Column_174 Column_175 Column_176 Column_177 Column_178 Column_179 Column_180 Column_181 Column_182 Column_183 Column_184 Column_185 Column_186 Column_187 Column_188 Column_189 Column_190 Column_191 Column_192 Column_193 Column_194 Column_195 Column_196 Column_197 Column_198 Column_199 Column_200 Column_201 Column_202 Column_203 Column_204 Column_205 Column_206 Column_207 Column_208 Column_209 Column_210 Column_211 Column_212 Column_213 Column_214 Column_215 Column_216 Column_217 Column_218 Column_219 Column_220 Column_221 Column_222 Column_223 Column_224 Column_225 Column_226 Column_227 Column_228 Column_229 Column_230 Column_231 Column_232 Column_233 Column_234 Column_235 Column_236 Column_237 Column_238 Column_239 Column_240 Column_241 Column_242 Column_243 Column_244 Column_245 Column_246 Column_247 Column_248 Column_249 Column_250 Column_251 Column_252 Column_253 Column_254 Column_255 Column_256 Column_257 Column_258 Column_259 Column_260 Column_261 Column_262 Column_263 Column_264 Column_265 Column_266 Column_267 Column_268 Column_269 Column_270 Column_271 Column_272 Column_273 Column_274 Column_275 Column_276 Column_277 Column_278 Column_279 Column_280 Column_281 Column_282 Column_283 Column_284 Column_285 Column_286 Column_287 Column_288 Column_289 Column_290 Column_291 Column_292 Column_293 Column_294 Column_295 Column_296 Column_297 Column_298 Column_299 Column_300 Column_301 Column_302 Column_303 Column_304 Column_305 Column_306 Column_307 Column_308 Column_309 Column_310 Column_311 Column_312 Column_313 Column_314 Column_315 Column_316 Column_317 Column_318 Column_319 Column_320 Column_321 Column_322 Column_323 Column_324 Column_325 Column_326 Column_327 Column_328 Column_329 Column_330 Column_331 Column_332 Column_333 Column_334 Column_335 Column_336 Column_337 Column_338 Column_339 Column_340 Column_341 Column_342 Column_343 Column_344 Column_345 Column_346 Column_347 Column_348 Column_349 Column_350 Column_351 Column_352 Column_353 Column_354 Column_355 Column_356 Column_357 Column_358 Column_359 Column_360 Column_361 Column_362 Column_363 Column_364 Column_365 Column_366 Column_367 Column_368 Column_369 Column_370 Column_371 Column_372 Column_373 Column_374 Column_375 Column_376 Column_377 Column_378 Column_379 Column_380 Column_381 Column_382 Column_383 Column_384 Column_385 Column_386 Column_387 Column_388 Column_389 Column_390 Column_391 Column_392 Column_393 Column_394 Column_395 Column_396 Column_397 Column_398 Column_399 Column_400 Column_401 Column_402 Column_403 Column_404 Column_405 Column_406 Column_407 Column_408 Column_409 Column_410 Column_411 Column_412 Column_413 Column_414 Column_415 Column_416 Column_417 Column_418 Column_419 Column_420 Column_421 Column_422 Column_423 Column_424 Column_425 Column_426 Column_427 Column_428 Column_429 Column_430 Column_431 Column_432 Column_433 Column_434 Column_435 Column_436 Column_437 Column_438 Column_439 Column_440 Column_441 Column_442 Column_443 Column_444 Column_445 Column_446 Column_447 Column_448 Column_449 Column_450 Column_451 Column_452 Column_453 Column_454 Column_455 Column_456 Column_457 Column_458 Column_459 Column_460 Column_461 Column_462 Column_463 Column_464 Column_465 Column_466 Column_467 Column_468 Column_469 Column_470 Column_471 Column_472 Column_473 Column_474 Column_475 Column_476 Column_477 Column_478 Column_479 Column_480 Column_481 Column_482 Column_483 Column_484 Column_485 Column_486 Column_487 Column_488 Column_489 Column_490 Column_491 Column_492 Column_493 Column_494 Column_495 Column_496 Column_497 Column_498 Column_499 Column_500 Column_501 Column_502 Column_503 Column_504 Column_505 Column_506 Column_507 Column_508 Column_509 Column_510 Column_511 Column_512 Column_513 Column_514 Column_515 Column_516
feature_infos=[0:1] [0:1] none [0:1] [0:1] none none [0:1] none none none none none [0:1] none none [0:1] none none none none none none none none [0:1] none none none none none [0:1] none none none none none none [0:1] none [0:1] [0:1] [0:1] [-1.6354518277569989:1.9388042497198423] [-1.6733098479531416:1.7195113030927685] [-1.4038725330980597:1.48091309145128] [-1.3440356134253817:1.4736175223430754] [-1.2490765673495612:3.828691217310606] [-2.3591123870126185:1.9674418891338159] [0.0036339276064532066:0.8939862827595213] [0.0033572512063583491:0.8861297398898238] [0.0048864405052504375:0.96490334864983751] [0.0067769903182550396:0.9383521836028027] [0.00703462580010386:0.97109036365682444] [0.004958216688167448:0.95487548534478006] [0.00392760570135959:0.86756224273891314] [0.0055443299861790436:0.83351308812596236] [0.0059143955031524011:0.94887141260311769] [0.009049528173261526:0.94062025418930117] [0.0099704006849774523:0.96796450359205199] [0.0051895252577863291:0.94785114282732263] [0.00392760570135959:0.86756224273891314] [0.0055443299861790436:0.83351308812596236] [0.0059143955031524011:0.94887141260311769] [0.009049528173261526:0.94062025418930117] [0.0099704006849774523:0.96796450359205199] [0.0051895252577863291:0.94785114282732263] [0.0063163984044916034:0.84739137434165024] [0.0063700480027415263:0.80855669957631016] [0.0079684015784823141:0.93900347215337299] [0.012878988034912348:0.89376347245042154] [0.010993928626399042:0.95257446031908666] [0.0091069123518219119:0.92771302721839155] [0.0095333330400515157:0.82760892680576859] [0.0095009674345172285:0.79884271563970144] [0.0094854119007993041:0.90378288025568287] [0.012586230607661874:0.88086757035467289] [0.016809439883843487:0.94020171092223115] [0.012555834533641315:0.90112854758214433] [0.0048200643632795668:0.9087244063734321] [0.0051391075066180526:0.88102242286674848] [0.0052924461506506397:0.96801692400288708] [0.0073939833982062638:0.9309416937676559] [0.0050535609262351453:0.96246912348685643] [0.0050259329315786756:0.95848967772380889] [0.0019510974135720735:0.89782823907302756] [0.0018105533293324766:0.88113870480110856] [0.0039365189886003153:0.9622783335623355] [0.0067084809683839392:0.96310360468670864] [0.006714427408267388:0.97621910619139529] [0.0025726153136748533:0.96336489701999872] [0:0.98484848484848486] [0:0.96666666666666667] [0:1] [0:1] [0:1] [0:1] [0:1] [0:0.94117647058823528] [0:1] [0:1] [0:1] [0:1] [0:0.95010229828650894] [0:0.7898497910135841] [0:1] [0:0.98750000000000004] [0:1] [0:0.9963045912653975] [0.0045062438209012125:0.90027284341434077] [0.0044716843196470025:0.90762939931724673] [0.0053417324915410562:0.9576360187684525] [0.0085802353298504459:0.94645991779835825] [0.0075811889530645587:0.96597988282651537] [0.0057543323012251724:0.9524874482400143] [0.0023553383318491447:0.85451606517152656] [0.0023810803090552352:0.85581316384609107] [0.0044267961838051753:0.95914499318072088] [0.010849600409728518:0.92656470402644064] [0.0042714071716019085:0.96111460659774062] [0.0037683545784345505:0.96715074886040475] [0.002488441266431842:0.90450619598280013] [0.0027937304538139932:0.86464992562098231] [0.0042614073809665032:0.95959894151388203] [0.0083452773974195364:0.95493044102267377] [0.0072946898161123774:0.97008885024933111] [0.0045335987364283955:0.9537841793061751] [0.0040301087092661607:0.84834175420560087] [0.0041450091862615121:0.85807558247174287] [0.0064177785326560571:0.9412160311896276] [0.012118295564190609:0.9058032371281759] [0.010207694570090556:0.96625441870603468] [0.0070343893015909903:0.94422176564521676] [0.14863370358943939:0.20666894316673279] [0.14864176511764526:0.21100671589374542] [0.14870400726795197:0.21577298641204834] [0.1489109992980957:0.21213379502296448] [0.14895579218864441:0.216623455286026] [0.14865227043628693:0.21536292135715485] [0:1] [0:0.9285714285714286] [0:1] [0:1] [0:1] [0:1] [0.00084725967031270318:0.95017608137043086] [0.00081130806957249117:0.94285973323871075] [0.0023833730675950032:0.98448757805868081] [0.0017930941095730777:0.9776312518016913] [0.0027050121227796954:0.99089109472255987] [0.001675986857321245:0.97942071013149457] [0.00084725967031270318:0.95017608137043086] [0.00081130806957249117:0.94285973323871075] [0.0023833730675950032:0.98448757805868081] [0.0017930941095730777:0.9776312518016913] [0.0027050121227796954:0.99089109472255987] [0.001675986857321245:0.97942071013149457] [0.00098366893291840056:0.96818077523579293] [0.00095754317572340777:0.93713338546990455] [0.0034257897119779651:0.97987826737294603] [0.0022439031642303496:0.98429458347629606] [0.0031116765423694361:0.98867747725380806] [0.001929308616491029:0.98697849177838126] [1.1818024770697044e-05:0.99670016861688893] [1.0826884783346726e-05:0.99547904364648543] [5.4955941807577094e-05:0.99966319325503206] [6.8019733376480028e-05:0.99875023632495996] [5.0041261949713688e-05:0.99968210043231243] [3.2856684641362509e-05:0.99970442628341527] [0.00016425284063213732:0.96151167333991705] [0.00021182147456484576:0.97723298269943171] [0.00056294807284021646:0.99155749504365864] [0.00054924496048010349:0.98880089489834078] [0.00069371828660569302:0.99692811922991886] [0.00048787215605582677:0.9911446395304534] [0.00076947707953777867:0.95079194450734805] [0.0007638198786905473:0.9495369131455812] [0.0022160750047098337:0.98681781651433642] [0.001697084463329526:0.98022172369804339] [0.0024256911074390314:0.99137399848543295] [0.0015325943472845216:0.98077389609864307] [8.7044579160186256e-05:0.9507229163894505] [7.8063117796378786e-05:0.96778181959797283] [0.00043847903459276244:0.97658583626114248] [0.0004155223558011703:0.97383645974551181] [0.00027700797177586519:0.99256588042682159] [0.00017688179459414606:0.98773035833194167] [1.1155483319368777e-07:0.99997438293348029] [1.7586804099655648e-07:0.99997915662667569] [2.5815931303311425e-07:0.99999825880639381] [5.9544705233862964e-07:0.99999710874693903] [2.0782131414940186e-07:0.99999755145724545] [1.7918805006289151e-07:0.99999526012746554] [2.5485001856692534e-08:0.99930691047374309] [5.3959242500601731e-08:0.99978759067511214] [4.4186772572997467e-07:0.99998425706048943] [5.3387874311304211e-07:0.9999179868731326] [6.8499989484705014e-07:0.99999452942516087] [2.6132499737774078e-07:0.99997021498791139] [2.1638209212521688e-06:0.99993657380173984] [2.9498507828731926e-06:0.99993455198346959] [8.2191255115854934e-06:0.99996540831433878] [7.844181803814077e-06:0.99996413098053927] [8.932115020753315e-06:0.99997149076902714] [6.2038128933170375e-06:0.99996236987761089] [0:1] [0:0.80000000000000004] [0:1] [0:1] [0:1] [0:1] [0.10658284276723862:0.41269540786743164] [0.10660887509584427:0.40573132038116455] [0.11047831177711487:0.44333943724632263] [0.11228420585393906:0.42119994759559631] [0.10142910480499268:0.4445229172706604] [0.10664506256580353:0.43766984343528748] [0:1] [0:0.88043478260869568] [0:0.98793183940242768] [0:0.96164896185797588] [0:1] [0:1] [0:0.96142530238640078] [0:0.95238095238095244] [0:0.99744897959183676] [0:0.96480900052328622] [0:1] [0:1] [0:1] [0:1] [0:1] [0:1] [0:1] [0:1] [0:0.93796197524654523] [0:0.96153846153846156] [0:1] [0:0.97727272727272729] [0:1] [0:1] [0.061446748673915863:0.55358344316482544] [0.061500728130340576:0.55470836162567139] [0.063121899962425232:0.60098737478256226] [0.062065623700618744:0.5819162130355835] [0.069770567119121552:0.6014055609703064] [0.076025158166885376:0.59355634450912476] [0.030984485521912575:0.79648047685623169] [0.031156893819570541:0.79634028673171997] [0.031610868871212006:0.84116256237030029] [0.033210881054401398:0.8247828483581543] [0.031391825526952744:0.84088891744613647] [0.031152466312050819:0.83147668838500977] [0.10701868683099747:0.39228329062461853] [0.10714112967252731:0.38697338104248047] [0.11505275964736938:0.4223383367061615] [0.11652280390262604:0.40126520395278931] [0.10671146214008331:0.42143762111663818] [0.10707143694162369:0.41696193814277649] [0.0044402801431715488:0.85945630073547363] [0.0035674262326210737:0.89731639623641968] [0.004769845400005579:0.96891820430755615] [0.0055759008973836899:0.96142607927322388] [0.0045549599453806877:0.96682232618331909] [0.0049431836232542992:0.94987839460372925] [0:0.94876074602922078] [0:0.96666666666666667] [0:1] [0:1] [0:1] [0:1] [0.012154220603406429:0.89407789707183838] [0.012330937199294567:0.89662623405456543] [0.013001606799662113:0.93544042110443115] [0.014314223080873489:0.92383080720901489] [0.012944338843226433:0.93461251258850098] [0.012388387694954872:0.92608475685119629] [0:1] [0:1] [0:1] [0:1] [0:1] [0:1] [0.11930433660745621:0.29201677441596985] [0.11932674795389175:0.29503971338272095] [0.11949408054351807:0.31432321667671204] [0.11971449106931686:0.30273523926734924] [0.12328489124774933:0.31510967016220093] [0.13217885792255402:0.31149977445602417] [0.11936653405427933:0.2942560613155365] [0.11938899010419846:0.29737189412117004] [0.11955595761537552:0.31755101680755615] [0.11977605521678925:0.30534437298774719] [0.12257660180330276:0.31861716508865356] [0.13127849996089935:0.31459745764732361] [0.12118861079216003:0.28343281149864197] [0.12254738062620163:0.29067254066467285] [0.12141833454370499:0.30982616543769836] [0.13550803065299988:0.29798796772956848] [0.13416361808776855:0.31179642677307129] [0.12124969810247421:0.30710363388061523] [0:0.91166666666666663] [0:0.84357194233355226] [0:1] [0:0.98412698412698418] [0:1] [0:1] [0:0.9493778914464337] [0:1] [0:1] [0:1] [0:1] [0:1] [0:0.97368421052631571] [0:0.76666666666666661] [0:1] [0:0.97727272727272729] [0:0.99411473053905597] [0:1] [3.5469102077525198e-08:0.93009200636081779] [7.400960838600944e-07:0.92695141966479322] [3.2700177091005269e-06:0.99226311396150024] [0.00013792447212993664:0.96432896015732883] [3.249332071804159e-05:0.98270506012194681] [2.0300205025871838e-07:0.99154323327137628] [0:0.98484848484848486] [0:1] [0:1] [0:0.96491228070175439] [0:1] [0:1] none [0:1] [0:1] [0:1] [0:1] [0:1] [0:0.9681481481481482] [0:0.77680380946845151] [0:1] [0:0.97368421052631582] [0:1] [0:1] [0:0.93869047619047608] [0:0.828125] [0:1] [0:0.95170068027210886] [0:0.98809523809523814] [0:1] [0:0.94117647058823517] [0:0.82761049991655289] [0:1] [0:0.9372294372294373] [0:1] [0:1] none none [0:1] [0:1] [0:1] [0:1] none none [0:1] [0:1] [0:1] [0:1] none none [0:1] [0:1] [0:1] [0:1] none none [0:1] [0:1] [0:1] [0:1] none none [0:1] [0:1] [0:1] [0:1] none none [0:1] [0:1] [0:1] [0:1] [0:0.97999999999999998] [0:0.74053030303030298] [0:0.99747866867432078] [0:1] [0:1] [0:1] [7.3076583110413965e-09:0.99892635084537307] [7.1010607889464125e-15:0.99602539352146224] [1.3512937692129689e-12:0.99978774014183314] [5.3281184945252335e-09:0.9952592389260394] [1.7915469874881903e-10:0.99936640826428713] [1.5436196036394111e-19:0.99508997731034476] [1.788284956535222e-08:0.96533806293904256] [6.6094637726168732e-06:0.9816652774553456] [1.2431122496591296e-05:0.9998192347881274] [4.4275286559210855e-06:0.99982292652119764] [2.2622772290978688e-08:0.99760902225206338] [4.0256628274222216e-06:0.99953031257955993] none none [0:1] [0:1] [0:1] [0:1] [8.3981736270191639e-25:0.99997620350992011] [2.1042044822560229e-25:0.99799097702916373] [5.7160419402612369e-15:0.99999999795820393] [5.987843623571084e-14:0.99999996628258181] [5.7794181245705638e-13:0.99999999999954148] [3.0105518574900379e-15:0.99999997309471989] none none [0:1] [0:1] [0:1] [0:1] [1.1007448704395452e-20:0.99821192601140263] [6.6558172833501029e-20:0.99479084627989989] [3.5097411618586029e-16:0.99999999983559751] [1.9682210982249872e-13:0.99999988559497144] [7.9443552565040945e-11:0.99999997861572365] [3.3819044518770066e-12:0.99999997422978115] [3.3676169194165143e-17:0.99999985439492056] [3.2091506574416116e-15:0.99899054309869961] [1.2505995348883083e-22:0.99999647366202227] [7.1211958295244176e-13:0.99999999999970224] [1.5080028381235451e-26:0.99999992219273592] [3.0158571869959983e-18:0.99999910455124663] [9.3653910646587567e-07:0.9817531651195992] [1.2014589766129516e-07:0.96238016712992003] [7.2110265367888771e-06:0.99984700935042869] [6.1084720641076693e-06:0.99880277546646778] [1.3524324451554952e-06:0.99920331699132292] [6.2981251706360255e-06:0.99961142484247523] none none [0:1] [0:1] [0:1] [0:1] [0:0.99999999246723925] [0:0.99999989860562477] [0:1] [0:0.99999995753326165] [0:1] [0:1] none none [0:1] [0:1] [0:1] [0:1] [0:0.99999987917205935] [0:0.99972238462111729] [0:1] [5.225674909547022e-28:0.99999989048090332] [1.0181298621557342e-21:0.99999999990720712] [4.8901906042229303e-27:1] none none [0:1] [0:1] [0:1] [0:1] [1.847974104595058e-13:0.99410294358726514] [2.0364778251701163e-11:0.98423513053623624] [1.5402384902856091e-10:0.99994093718972876] [3.19112679394251e-06:0.99996648640245733] [3.6981284375342404e-08:0.99992016351288482] [4.8536272525897092e-09:0.99999673655817822] none none [0:1] [0:1] [0:1] [0:1] [2.4880498735969683e-10:0.99807987454502178] [2.4919728508457009e-12:0.99535832549566894] [1.4511053102470658e-11:0.99270257388479588] [1.4167922159609032e-08:0.99886508954590592] [5.0592531616066958e-07:0.99838174914154298] [7.0854788539067331e-06:0.99978650064117447] [0:1] [0:1] [0:1] [0:1] [0:1] [0:1] [0:1] [0:1] [0:1] [0:1] [0:1] [0:1] none none [0:0.92592592592592593] [0:1] [0:1] [0:1] [0:1] [0:1] [0:0.96226415094339623] [0:1] [0:1] [0:1]
tree_sizes=456 559 349 558 454 448 877 879 883 881 875 776 879 877 664 884 878 883 881 987 884 879 766 777

Tree=0
num_leaves=3
num_cat=0
split_feature=205 4
split_gain=124.483 1.77636e-15
threshold=0.067646023926812113 1.0000000180025095e-35
decision_type=2 2
left_child=1 -1
right_child=-2 -3
leaf_value=-2.6460237788988512 -1.2190211729961784 -2.6460237788988512
leaf_weight=15.323494672775274 2.8030782938003531 3.8308736681938163
leaf_count=164 30 41
internal_value=-2.46385 -2.64602
internal_weight=0 19.1544
internal_count=235 205
is_linear=0
shrinkage=1


Tree=1
num_leaves=4
num_cat=0
split_feature=68 0 43
split_gain=111.002 1.77636e-15 8.88178e-16
threshold=0.12825649489762814 1.0000000180025095e-35 -0.078920955307406782
decision_type=2 2 2
left_child=1 2 -1
right_child=-2 -3 -4
leaf_value=-2.7497053186835831 -1.3358547386635757 -2.7497053186835831 -2.7497053186835831
leaf_weight=5.1773506104946136 2.5462380051612845 9.421080619096756 2.8008618056774184
leaf_count=61 30 111 33
internal_value=-2.56921 -2.74971 -2.74971
internal_weight=0 17.3993 7.97821
internal_count=235 205 94
is_linear=0
shrinkage=1


Tree=2
num_leaves=2
num_cat=0
split_feature=171
split_gain=195.833
threshold=0.47358436468690962
decision_type=2
left_child=-1
right_child=-2
leaf_value=-1.7783386956621545 -0.76844547212126679
leaf_weight=36.835577398538589 9.7039961963891965
leaf_count=186 49
internal_value=-1.56777
internal_weight=0
internal_count=235
is_linear=0
shrinkage=1


Tree=3
num_leaves=4
num_cat=0
split_feature=52 56 41
split_gain=190.568 0.148587 7.10543e-15
threshold=0.32354295505759817 0.068875555577527697 1.0000000180025095e-35
decision_type=2 2 2
left_child=1 2 -1
right_child=-2 -3 -4
leaf_value=-1.8381751478136856 -0.77949488744744322 -1.8028858058014776 -1.8381751478136856
leaf_weight=20.780589282512665 8.5011501610279065 5.6674334406852713 9.4457224011421221
leaf_count=110 45 30 50
internal_value=-1.63094 -1.8326 -1.83818
internal_weight=0 35.8937 30.2263
internal_count=235 190 160
is_linear=0
shrinkage=1


Tree=4
num_leaves=3
num_cat=0
split_feature=65 43
split_gain=195.833 7.10543e-15
threshold=0.3583688345714488 1.0000000180025095e-35
decision_type=2 2
left_child=1 -1
right_child=-2 -3
leaf_value=-1.5738074414391934 -0.70663514614413159 -1.5738074414391934
leaf_weight=18.220139279961586 14.068715140223501 21.910294070839882
leaf_count=79 61 95
internal_value=-1.34871 -1.57381
internal_weight=0 40.1304
internal_count=235 174
is_linear=0
shrinkage=1


Tree=5
num_leaves=3
num_cat=0
split_feature=44 44
split_gain=195.833 7.10543e-15
threshold=1.028381068620454 0.14876077020114348
decision_type=2 2
left_child=1 -1
right_child=-2 -3
leaf_value=-1.9479034795079757 -0.79072892312278076 -1.9479034795079757
leaf_weight=24.196867644786835 7.086225524544715 9.333077520132063
leaf_count=140 41 54
internal_value=-1.74601 -1.9479
internal_weight=0 33.5299
internal_count=235 194
is_linear=0
shrinkage=1


Tree=6
num_leaves=7
num_cat=0
split_feature=49 265 200 216 59 381
split_gain=59.5784 0.0356653 0.000313874 3.92764e-06 8.05585e-07 8.11617e-08
threshold=0.45028562056706595 0.013608021570610045 0.021763972287801109 0.16288973391056064 0.3583688345714488 0.99999591157516365
decision_type=2 2 2 2 2 2
left_child=1 2 3 4 5 -1
right_child=-2 -3 -4 -5 -6 -7
leaf_value=-0.17801923746822818 0.62198214911564986 -0.20192423016111305 -0.18066492711384693 -0.17783096713444202 -0.17816849863549514 -0.17807120422774383
leaf_weight=2.3643090873956734 4.7036419808864585 3.1912568323314181 2.1495625078678122 2.8920076191425315 3.8407047614455223 2.4456782191991806
leaf_count=33 20 26 28 41 53 34
internal_value=0 -0.182884 -0.178446 -0.178033 -0.1781 -0.178046
internal_weight=0 16.8835 13.6923 11.5427 8.65069 4.80999
internal_count=235 215 189 161 120 67
is_linear=0
shrinkage=0.2


Tree=7
num_leaves=7
num_cat=0
split_feature=74 218 259 204 53 364
split_gain=59.9345 0.0486522 6.78549e-06 3.27312e-06 5.19069e-07 6.06991e-08
threshold=0.34262660819292545 0.085751591915688222 0.15918304771184924 0.050880004354902787 0.41814921917425479 1.0000000180025095e-35
decision_type=2 2 2 2 2 2
left_child=1 2 3 4 5 -1
right_child=-2 -3 -4 -5 -6 -7
leaf_value=-0.17687917476621748 0.68810727082296785 -0.20580347552649184 -0.1772151528479303 -0.1766608688351633 -0.17696571785879342 -0.17683295062184456
leaf_weight=2.4155209138989466 3.9612075090408316 2.8392028659582129 2.1477950587868682 3.3257567211985588 2.8940176963806152 2.1457527652382851
leaf_count=37 18 19 32 52 44 33
internal_value=0 -0.182097 -0.176891 -0.176826 -0.176899 -0.176857
internal_weight=0 15.768 12.9288 10.781 7.45529 4.56127
internal_count=235 217 198 166 114 70
is_linear=0
shrinkage=0.2


Tree=8
num_leaves=7
num_cat=0
split_feature=171 354 197 49 319 57
split_gain=86.6707 0.00035732 0.000320041 0.000172478 2.96715e-05 7.71375e-06
threshold=0.47358436468690962 0.0053049289891395164 0.057955137911148556 0.028143020122625508 2.0271367767503157e-05 0.017864780435139178
decision_type=2 2 2 2 2 2
left_child=1 2 -1 4 -3 -4
right_child=-2 3 5 -5 -6 -7
leaf_value=-0.19876194850122886 0.40695430269618993 -0.19615388952837237 -0.19694333176513085 -0.19499997925059775 -0.1968415602079836 -0.19658244574928163
leaf_weight=4.8659968525171307 14.194172590970991 5.0580596923828107 4.8396863490343076 4.4561141580343238 4.9817071855068207 4.6409209966659546
leaf_count=30 49 33 31 30 32 30
internal_value=0 -0.196736 -0.197443 -0.196035 -0.196495 -0.196767
internal_weight=0 28.8425 14.3466 14.4959 10.0398 9.48061
internal_count=235 186 91 95 65 61
is_linear=0
shrinkage=0.2


Tree=9
num_leaves=7
num_cat=0
split_feature=400 236 419 288 121 51
split_gain=81.8231 0.000476142 0.000169697 6.25429e-05 1.03231e-05 3.13118e-06
threshold=0.35712535071890167 0.046615083723735289 3.0716987002416555e-07 0.20331903547048572 0.018309349503750426 0.024390174150837256
decision_type=2 2 2 2 2 2
left_child=1 2 -1 4 5 -4
right_child=-2 -3 3 -5 -6 -7
leaf_value=-0.19329962080310825 0.4074164574049734 -0.19666429353040815 -0.19488707422200571 -0.19404634278745453 -0.19515178428089244 -0.19466116519809656
leaf_weight=4.2606431543827119 13.361945271492003 4.6158505380153647 5.4983052015304583 4.5060902684926978 4.4862191230058661 4.432636171579361
leaf_count=30 47 30 37 31 30 30
internal_value=0 -0.194809 -0.19444 -0.194697 -0.1949 -0.194786
internal_weight=0 27.7997 23.1839 18.9233 14.4172 9.93094
internal_count=235 188 158 128 97 67
is_linear=0
shrinkage=0.2


Tree=10
num_leaves=7
num_cat=0
split_feature=65 343 403 72 376 353
split_gain=95.429 0.000526537 0.000279603 0.000130322 3.27045e-05 7.10543e-15
threshold=0.3583688345714488 0.10353953770121178 0.014416785694302048 0.11867221379620314 1.0000000180025095e-35 0.99280682767524875
decision_type=2 2 2 2 2 2
left_child=1 2 3 4 -1 -2
right_child=5 -3 -4 -5 -6 -7
leaf_value=-0.20548672761864664 0.37123338965066188 -0.20640426794221131 -0.20308764413057037 -0.20406120873656763 -0.20483362871461092 0.37123338965066188
leaf_weight=5.5123752951622098 9.2030677199363708 6.4980668127536765 5.258994221687316 7.3561420738697043 6.9135126024484634 8.9061945676803589
leaf_count=30 31 35 30 41 38 30
internal_value=0 -0.2048 -0.204384 -0.204728 -0.205123 0.371233
internal_weight=0 31.5391 25.041 19.782 12.4259 18.1093
internal_count=235 174 139 109 68 61
is_linear=0
shrinkage=0.2


Tree=11
num_leaves=6
num_cat=0
split_feature=54 417 419 319 226
split_gain=74.7249 0.000169549 0.000199538 0.000140927 3.90435e-05
threshold=0.26828992022710874 0.011690885333774921 1.3086791362552383e-06 0.0030416632458715926 0.047435897435897441
decision_type=2 2 2 2 2
left_child=1 2 -1 -3 -4
right_child=-2 3 4 -5 -6
leaf_value=-0.19284104427306142 0.4148214207945965 -0.1913009493449567 -0.19158332328427197 -0.18972804916081831 -0.1908419444889701
leaf_weight=4.6390521973371568 11.822315812110899 5.6543343961238843 7.330672085285185 3.8163942322134972 4.6397505700588226
leaf_count=33 41 42 54 30 35
internal_value=0 -0.191342 -0.191728 -0.190667 -0.191296
internal_weight=0 26.0802 16.6095 9.47073 11.9704
internal_count=235 194 122 72 89
is_linear=0
shrinkage=0.2


Tree=12
num_leaves=7
num_cat=0
split_feature=49 229 60 158 59 83
split_gain=30.5249 0.0215462 1.57381e-06 7.09952e-07 3.72634e-07 1.19066e-08
threshold=0.45028562056706595 1.0000000180025095e-35 0.11929501121880325 0.016783765001590008 0.3583688345714488 0.031062280437541841
decision_type=2 2 2 2 2 2
left_child=1 2 3 4 5 -1
right_child=-2 -3 -4 -5 -6 -7
leaf_value=-0.17513787124715796 0.36812682487619008 -0.19689056745655417 -0.17501190929652957 -0.17531320716496834 -0.17522294013902637 -0.17511565857100136
leaf_weight=2.3198726773262046 5.931329905986785 2.1914984695613375 2.3415505066514006 1.6869912929832933 2.8982490636408329 1.6530777327716348
leaf_count=42 20 18 43 30 52 30
internal_value=0 -0.178795 -0.175157 -0.175197 -0.175168 -0.175129
internal_weight=0 13.0912 10.8997 8.55819 6.8712 3.97295
internal_count=235 215 197 154 124 72
is_linear=0
shrinkage=0.2


Tree=13
num_leaves=7
num_cat=0
split_feature=86 86 408 490 53 431
split_gain=29.0834 0.0174724 1.37602e-06 1.07289e-06 2.0632e-07 5.24712e-09
threshold=0.27202014080596226 0.057460372159819667 0.067717419942314713 0.0027197092737248096 0.785578586863377 3.163235869770994e-05
decision_type=2 2 2 2 2 2
left_child=1 2 3 -1 5 -5
right_child=-2 -3 -4 4 -6 -7
leaf_value=-0.17448478409959442 0.38272509597251458 -0.19251384571856048 -0.17415966470518623 -0.17427624933955058 -0.17435205602116222 -0.17426111671054725
leaf_weight=1.5400060638785378 5.2949982881546012 2.7017257884144774 2.3199835829436779 2.355115439742804 1.8203053213655946 1.5004858560860155
leaf_count=30 18 27 47 47 36 30
internal_value=0 -0.178316 -0.174294 -0.174337 -0.174297 -0.17427
internal_weight=0 12.2376 9.5359 7.21591 5.67591 3.8556
internal_count=235 217 190 143 113 77
is_linear=0
shrinkage=0.2


Tree=14
num_leaves=5
num_cat=0
split_feature=357 440 397 53
split_gain=52.261 8.5245e-05 3.17093e-05 6.96104e-06
threshold=0.69859376198241774 0.019028472491924266 0.011230155335667923 0.41814921917425479
decision_type=2 2 2 2
left_child=1 2 3 -1
right_child=-2 -3 -4 -5
leaf_value=-0.1878545753468375 0.2994091144165128 -0.18877449275984462 -0.18736499984603583 -0.18814585819647522
leaf_weight=6.2441314905881935 14.452098399400709 5.3123387917876235 4.0056186541914931 6.9172490984201431
leaf_count=52 49 43 34 57
internal_value=0 -0.188074 -0.187858 -0.188008
internal_weight=0 22.4793 17.167 13.1614
internal_count=235 186 143 109
is_linear=0
shrinkage=0.2


Tree=15
num_leaves=7
num_cat=0
split_feature=112 236 419 288 345 101
split_gain=48.4739 0.000128071 3.61141e-05 1.36383e-05 3.65237e-06 1.24017e-06
threshold=0.21093946839982139 0.046615083723735289 3.0716987002416555e-07 0.20331903547048572 0.25550708942316219 0.98344268118844036
decision_type=2 2 2 2 2 2
left_child=1 2 -1 4 5 -4
right_child=-2 -3 3 -5 -6 -7
leaf_value=-0.18594666734108387 0.29339306897275941 -0.18784967628787508 -0.18694989841572965 -0.18633238758659995 -0.18661356462035494 -0.18678804636732849
leaf_weight=3.3389750272035661 13.812379181385039 3.5838620215654364 3.4813277646899206 3.5109615176916114 3.4365711063146591 4.1523313000798225
leaf_count=30 48 30 30 31 30 36
internal_value=0 -0.186758 -0.18654 -0.186676 -0.186785 -0.186862
internal_weight=0 21.504 17.9202 14.5812 11.0702 7.63366
internal_count=235 187 157 127 96 66
is_linear=0
shrinkage=0.2


Tree=16
num_leaves=7
num_cat=0
split_feature=59 440 48 150 200 204
split_gain=58.6071 0.000161979 6.38343e-05 1.92981e-06 1.71248e-07 2.67356e-08
threshold=0.3583688345714488 0.019028472491924266 -0.78301047213070307 0.050724773713475294 0.00074793519060201564 0.035384909751625511
decision_type=2 2 2 2 2 2
left_child=1 2 -1 5 -2 -4
right_child=4 -3 3 -5 -6 -7
leaf_value=-0.19238262137186998 0.28328274190344022 -0.19413007040825853 -0.19324351558282282 -0.19309035694857626 0.28324342319957652 -0.19326571146690408
leaf_weight=5.4099727720022264 9.0096901953220385 6.370493918657302 4.270165026187895 4.252223089337348 8.7185336351394636 4.4151731431484222
leaf_count=39 31 44 30 30 30 31
internal_value=0 -0.193261 -0.19296 -0.193201 0.283263 -0.193255
internal_weight=0 24.718 18.3475 12.9376 17.7282 8.68534
internal_count=235 174 130 91 61 61
is_linear=0
shrinkage=0.2


Tree=17
num_leaves=7
num_cat=0
split_feature=44 278 476 226 291 155
split_gain=44.8874 4.13653e-05 4.03286e-05 3.58481e-06 5.33106e-07 4.7928e-08
threshold=1.028381068620454 0.017590539541759057 0.00095204136787722894 0.0051484230055658638 0.15530671924352649 0.07338341615573063
decision_type=2 2 2 2 2 2
left_child=1 2 3 4 -1 -5
right_child=-2 -3 -4 5 -6 -7
leaf_value=-0.18463778091508953 0.30167977588513373 -0.18500819850059089 -0.18368084214794642 -0.18434893295813173 -0.18452244744830587 -0.18438396483304922
leaf_weight=3.1622806489467639 12.158530324697493 4.3762945160269728 3.2125506177544585 3.121817409992218 3.2513930648565292 3.1267880797386169
leaf_count=30 41 41 32 30 31 30
internal_value=0 -0.184464 -0.184314 -0.184474 -0.184579 -0.184366
internal_weight=0 20.2511 15.8748 12.6623 6.41367 6.24861
internal_count=235 194 153 121 61 60
is_linear=0
shrinkage=0.2


Tree=18
num_leaves=7
num_cat=0
split_feature=49 205 140 95 403 221
split_gain=19.2275 0.011541 2.55288e-06 5.21933e-07 2.40246e-07 4.63909e-08
threshold=0.45028562056706595 0.067646023926812113 0.036169467787114849 0.020950594937870284 9.6757573065537199e-05 0.44682017543859659
decision_type=2 2 2 2 2 2
left_child=1 2 3 4 -1 -5
right_child=-2 -3 -4 5 -6 -7
leaf_value=-0.17289072636347103 0.28252465665415555 -0.19256987916457005 -0.17320407964189111 -0.17292896669878005 -0.17278067674124808 -0.17297574242524896
leaf_weight=2.2487796470522867 5.7807006239891061 1.3943483680486668 1.3858229815959928 1.2982634343206885 1.2261251248419283 2.4459809847176075
leaf_count=54 20 10 32 31 30 58
internal_value=0 -0.175691 -0.172955 -0.172908 -0.172852 -0.17296
internal_weight=0 9.99932 8.60497 7.21915 3.4749 3.74424
internal_count=235 215 205 173 84 89
is_linear=0
shrinkage=0.2


Tree=19
num_leaves=8
num_cat=0
split_feature=68 68 259 218 329 141 239
split_gain=18.1388 0.011732 7.44832e-07 2.98499e-07 1.57289e-07 2.42078e-08 6.61093e-09
threshold=0.23953833298312469 0.12825649489762814 0.15918304771184924 0.020816228790366726 0.017826668216693795 0.062667304897064458 0.95182186234817823
decision_type=2 2 2 2 2 2 2
left_child=1 2 3 4 5 -1 -6
right_child=-2 -3 -4 -5 6 -7 -8
leaf_value=-0.17225170842457183 0.28910084990569057 -0.19128204051752182 -0.17245047184741846 -0.17218744230985883 -0.17232634163073676 -0.17228823208685476 -0.17234691612943279
leaf_weight=1.5058338344097122 5.2474388480186471 1.5656602159142492 1.244009807705879 1.1160022914409635 1.1434980444610121 1.4014454334974287 1.3768689110875127
leaf_count=40 18 12 32 30 30 37 36
internal_value=0 -0.175485 -0.172309 -0.172282 -0.172301 -0.172269 -0.172338
internal_weight=0 9.35332 7.78766 6.54365 5.42765 2.90728 2.52037
internal_count=235 217 205 173 143 77 66
is_linear=0
shrinkage=0.2


Tree=20
num_leaves=7
num_cat=0
split_feature=357 92 312 200 418 64
split_gain=34.3236 6.38544e-05 9.10977e-06 2.24847e-06 1.40738e-06 1.55523e-07
threshold=0.69859376198241774 0.085480877391782159 0.020829761904761906 0.016404630873753639 8.4527711405515757e-06 0.33026543524708235
decision_type=2 2 2 2 2 2
left_child=1 2 4 -4 -1 -6
right_child=-2 -3 3 -5 5 -7
leaf_value=-0.18212589686739569 0.24915635551732668 -0.18292727705390333 -0.18155140910722237 -0.18180613417708427 -0.1819864011697272 -0.18192250687841952
leaf_weight=2.7955116555094737 12.918950557708742 2.7951024994254103 2.7079506888985625 2.8397020772099495 3.0529330894351006 3.0423334240913391
leaf_count=30 49 29 30 31 33 33
internal_value=0 -0.182052 -0.181883 -0.181682 -0.182008 -0.181955
internal_weight=0 17.2335 14.4384 5.54765 8.89078 6.09527
internal_count=235 186 157 61 96 66
is_linear=0
shrinkage=0.2


Tree=21
num_leaves=7
num_cat=0
split_feature=400 224 213 246 219 67
split_gain=32.2287 0.000102695 5.82367e-06 3.68869e-06 3.33235e-06 9.29272e-07
threshold=0.35712535071890167 0.068729395604395616 0.16174171864986422 0.21767175942659381 0.92427632962601802 0.047482851881665004
decision_type=2 2 2 2 2 2
left_child=1 2 3 5 -4 -1
right_child=-2 -3 4 -5 -6 -7
leaf_value=-0.18106936707634913 0.24566109048394608 -0.18226321774442336 -0.18062263514490287 -0.18085716660919385 -0.18093853821773587 -0.1812308091367178
leaf_weight=3.0750491917133385 12.346638962626455 2.8842477798461905 2.562510907649993 2.6030192673206329 2.7898788303136826 2.6596920043230057
leaf_count=35 47 31 30 30 32 30
internal_value=0 -0.181179 -0.18095 -0.181055 -0.180787 -0.181144
internal_weight=0 16.5744 13.6902 8.33776 5.35239 5.73474
internal_count=235 188 157 95 62 65
is_linear=0
shrinkage=0.2


Tree=22
num_leaves=6
num_cat=0
split_feature=269 344 249 258 44
split_gain=38.6953 9.76331e-05 1.90833e-05 1.60789e-05 1.1141e-05
threshold=0.43034089016098015 0.13443585013277243 0.1632882505655289 0.16144324839115146 0.14876077020114348
decision_type=2 2 2 2 2
left_child=1 2 4 -2 -1
right_child=3 -3 -4 -5 -6
leaf_value=-0.18580605075701243 0.23974109525276927 -0.18651952887960704 -0.18505554253050915 0.24014821823072602 -0.1853536411112916
leaf_weight=3.3245936483144778 7.8826468586921674 3.3881433233618727 6.0065543726086608 7.642265647649765 6.3093572109937668
leaf_count=30 31 30 56 30 58
internal_value=0 -0.185546 -0.185335 0.239942 -0.18551
internal_weight=0 19.0286 15.6405 15.5249 9.63395
internal_count=235 174 144 61 88
is_linear=0
shrinkage=0.2


Tree=23
num_leaves=6
num_cat=0
split_feature=414 224 249 178 490
split_gain=29.4594 2.65259e-05 6.00816e-06 1.01032e-06 1.60311e-07
threshold=1.0000000180025095e-35 0.10217261904761905 0.1632882505655289 0.057479496942349335 0.35520949082580505
decision_type=2 2 2 2 2
left_child=1 2 3 -1 -5
right_child=-2 -3 -4 4 -6
leaf_value=-0.17965618945078612 0.24957258784006733 -0.18014315490676103 -0.17926112406385641 -0.17953638591804405 -0.17947040663315328
leaf_weight=2.4138871729373914 10.906360000371933 2.6307855620980272 4.5414430499076834 2.8747259527444839 3.0209609940648079
leaf_count=30 41 32 58 36 38
internal_value=0 -0.179565 -0.179446 -0.179547 -0.179503
internal_weight=0 15.4818 12.851 8.30957 5.89569
internal_count=235 194 162 104 74
is_linear=0
shrinkage=0.2


end of trees

feature_importances:
Column_44=4
Column_49=4
Column_53=3
Column_59=3
Column_68=3
Column_200=3
Column_419=3
Column_43=2
Column_65=2
Column_86=2
Column_171=2
Column_204=2
Column_205=2
Column_218=2
Column_224=2
Column_226=2
Column_236=2
Column_249=2
Column_259=2
Column_288=2
Column_319=2
Column_357=2
Column_400=2
Column_403=2
Column_440=2
Column_490=2
Column_0=1
Column_4=1
Column_41=1
Column_48=1
Column_51=1
Column_52=1
Column_54=1
Column_56=1
Column_57=1
Column_60=1
Column_64=1
Column_67=1
Column_72=1
Column_74=1
Column_83=1
Column_92=1
Column_95=1
Column_101=1
Column_112=1
Column_121=1
Column_140=1
Column_141=1
Column_150=1
Column_155=1
Column_158=1
Column_178=1
Column_197=1
Column_213=1
Column_216=1
Column_219=1
Column_221=1
Column_229=1
Column_239=1
Column_246=1
Column_258=1
Column_265=1
Column_269=1
Column_278=1
Column_291=1
Column_312=1
Column_329=1
Column_343=1
Column_344=1
Column_345=1
Column_353=1
Column_354=1
Column_364=1
Column_376=1
Column_381=1
Column_397=1
Column_408=1
Column_414=1
Column_417=1
Column_418=1
Column_431=1
Column_476=1

parameters:
[boosting: gbdt]
[objective: multiclass]
[metric: custom]
[tree_learner: serial]
[device_type: cpu]
[data_sample_strategy: bagging]
[data: ]
[valid: ]
[num_iterations: 10000]
[learning_rate: 0.2]
[num_leaves: 63]
[num_threads: 0]
[seed: 1239]
[deterministic: 0]
[force_col_wise: 0]
[force_row_wise: 0]
[histogram_pool_size: -1]
[max_depth: -1]
[min_data_in_leaf: 30]
[min_sum_hessian_in_leaf: 0.001]
[bagging_fraction: 1]
[pos_bagging_fraction: 1]
[neg_bagging_fraction: 1]
[bagging_freq: 0]
[bagging_seed: 21187]
[feature_fraction: 0.5]
[feature_fraction_bynode: 1]
[feature_fraction_seed: 30770]
[extra_trees: 0]
[extra_seed: 27351]
[early_stopping_round: 0]
[early_stopping_min_delta: 0]
[first_metric_only: 0]
[max_delta_step: 0]
[lambda_l1: 0]
[lambda_l2: 0]
[linear_lambda: 0]
[min_gain_to_split: 0]
[drop_rate: 0.1]
[max_drop: 50]
[skip_drop: 0.5]
[xgboost_dart_mode: 0]
[uniform_drop: 0]
[drop_seed: 3778]
[top_rate: 0.2]
[other_rate: 0.1]
[min_data_per_group: 100]
[max_cat_threshold: 32]
[cat_l2: 10]
[cat_smooth: 10]
[max_cat_to_onehot: 4]
[top_k: 20]
[monotone_constraints: ]
[monotone_constraints_method: basic]
[monotone_penalty: 0]
[feature_contri: ]
[forcedsplits_filename: ]
[refit_decay_rate: 0.9]
[cegb_tradeoff: 1]
[cegb_penalty_split: 0]
[cegb_penalty_feature_lazy: ]
[cegb_penalty_feature_coupled: ]
[path_smooth: 0]
[interaction_constraints: ]
[verbosity: -1]
[saved_feature_importance_type: 0]
[use_quantized_grad: 0]
[num_grad_quant_bins: 4]
[quant_train_renew_leaf: 0]
[stochastic_rounding: 1]
[linear_tree: 0]
[max_bin: 255]
[max_bin_by_feature: ]
[min_data_in_bin: 3]
[bin_construct_sample_cnt: 200000]
[data_random_seed: 4084]
[is_enable_sparse: 1]
[enable_bundle: 1]
[use_missing: 1]
[zero_as_missing: 0]
[feature_pre_filter: 1]
[pre_partition: 0]
[two_round: 0]
[header: 0]
[label_column: ]
[weight_column: ]
[group_column: ]
[ignore_column: ]
[categorical_feature: ]
[forcedbins_filename: ]
[precise_float_parser: 0]
[parser_config_file: ]
[objective_seed: 9093]
[num_class: 6]
[is_unbalance: 0]
[scale_pos_weight: 1]
[sigmoid: 1]
[boost_from_average: 1]
[reg_sqrt: 0]
[alpha: 0.9]
[fair_c: 1]
[poisson_max_delta_step: 0.7]
[tweedie_variance_power: 1.5]
[lambdarank_truncation_level: 30]
[lambdarank_norm: 1]
[label_gain: ]
[lambdarank_position_bias_regularization: 0]
[eval_at: ]
[multi_error_top_k: 1]
[auc_mu_weights: ]
[num_machines: 1]
[local_listen_port: 12400]
[time_out: 120]
[machine_list_filename: ]
[machines: ]
[gpu_platform_id: -1]
[gpu_device_id: -1]
[gpu_use_dp: 0]
[num_gpu: 1]

end of parameters

pandas_categorical:null
