tree
version=v4
num_class=6
num_tree_per_iteration=6
label_index=0
max_feature_idx=48
objective=multiclass num_class:6
feature_names=Column_0 Column_1 Column_2 Column_3 Column_4 Column_5 Column_6 Column_7 Column_8 Column_9 Column_10 Column_11 Column_12 Column_13 Column_14 Column_15 Column_16 Column_17 Column_18 Column_19 Column_20 Column_21 Column_22 Column_23 Column_24 Column_25 Column_26 Column_27 Column_28 Column_29 Column_30 Column_31 Column_32 Column_33 Column_34 Column_35 Column_36 Column_37 Column_38 Column_39 Column_40 Column_41 Column_42 Column_43 Column_44 Column_45 Column_46 Column_47 Column_48
feature_infos=[0:1] [0:1] none [0:1] [0:1] none none [0:1] none none none none [0:1] [0:1] none none [0:1] none none none none none none none none [0:1] none none none none none [0:1] none none none none none none [0:1] none [0:1] [0:1] [0:1] [-1.6354518277569989:1.9388042497198423] [-1.6733098479531416:1.7195113030927685] [-1.4038725330980597:1.48091309145128] [-1.3440356134253817:1.4736175223430754] [-1.2490765673495612:3.828691217310606] [-2.3591123870126185:1.9674418891338159]
tree_sizes=341 445 652 652 654 341 882 777 775 770 658 776 778 887 779 770 660 774 880 886 884 773 767 780 774 889 774 873 659 672 781 779 773 872 770 783 780 781 883 877 771 778 777 780 882 878 769 779 780 777 771 878 768 782 778 672 776 876 773 781 776 672 774 981 773 782

Tree=0
num_leaves=2
num_cat=0
split_feature=47
split_gain=78
threshold=1.2898073249805229
decision_type=2
left_child=-1
right_child=-2
leaf_value=-2.9344894044329322 -2.5903717729835907
leaf_weight=12.844444692134855 1.8888889253139503
leaf_count=204 30
internal_value=-2.89037
internal_weight=0
internal_count=234
is_linear=0
shrinkage=1


Tree=1
num_leaves=3
num_cat=0
split_feature=47 45
split_gain=42.38 57.6565
threshold=0.56441192717192723 -0.80287552798361361
decision_type=2 2
left_child=-1 -2
right_child=1 -3
leaf_value=-2.6670386474508536 -2.3278830238257919 -2.6670386474508536
leaf_weight=13.905501186847689 2.506224051117897 2.5062240511178961
leaf_count=172 31 31
internal_value=-2.62211 -2.49746
internal_weight=0 5.01245
internal_count=234 62
is_linear=0
shrinkage=1


Tree=2
num_leaves=5
num_cat=0
split_feature=44 45 44 43
split_gain=102.564 19.3182 4.58246 3.55271e-15
threshold=-0.85651957084949604 -1.0432743300293918 -0.16538933637718142 -0.42481670474064953
decision_type=2 2 2 2
left_child=1 -1 -2 -4
right_child=2 -3 3 -5
leaf_value=-1.4238177352804473 -1.499258328257407 -1.3010669399281058 -1.5388966059232672 -1.5388966059232672
leaf_weight=6.5172692835330963 10.091255664825438 6.3070347905158979 10.932193636894224 15.347117990255358
leaf_count=31 48 30 52 73
internal_value=-1.48503 -1.36345 -1.5279 -1.5389
internal_weight=0 12.8243 36.3706 26.2793
internal_count=234 61 173 125
is_linear=0
shrinkage=1


Tree=3
num_leaves=5
num_cat=0
split_feature=12 3 45 45
split_gain=29.8402 29.8451 3.60752 5.9971
threshold=1.0000000180025095e-35 1.0000000180025095e-35 -0.20184861318246741 -1.0432743300293918
decision_type=2 2 2 2
left_child=1 2 3 -1
right_child=-2 -3 -4 -5
leaf_value=-1.6365394584900881 -1.486219251771064 -1.5120434924125372 -1.6365394584900881 -1.5688953654665272
leaf_weight=6.4568049162626266 6.6524656713008872 7.6307694464921942 18.392110973596573 6.6524656713008898
leaf_count=33 34 39 94 34
internal_value=-1.58412 -1.60076 -1.62225 -1.60221
internal_weight=0 39.1322 31.5014 13.1093
internal_count=234 200 161 67
is_linear=0
shrinkage=1


Tree=4
num_leaves=5
num_cat=0
split_feature=44 44 47 16
split_gain=62.6463 66.6153 15.874 7.10543e-15
threshold=-0.16538933637718142 0.90272102598912363 -0.40278193657286659 1.0000000180025095e-35
decision_type=2 2 2 2
left_child=3 2 -2 -1
right_child=1 -3 -4 -5
leaf_value=-1.3692039371995901 -1.1574244831523441 -1.3643907677894254 -1.2488747019454731 -1.3692039371995901
leaf_weight=7.0828400552272823 8.7355027347803134 10.388165414333342 10.388165414333345 18.651478812098503
leaf_count=30 37 44 44 79
internal_value=-1.31219 -1.26247 -1.2071 -1.3692
internal_weight=0 29.5118 19.1237 25.7343
internal_count=234 125 81 109
is_linear=0
shrinkage=1


Tree=5
num_leaves=2
num_cat=0
split_feature=44
split_gain=195
threshold=1.028381068620454
decision_type=2
left_child=-1
right_child=-2
leaf_value=-1.8166993944219973 -1.5226916590532367
leaf_weight=32.992329716682434 6.8025422096252433
leaf_count=194 40
internal_value=-1.76644
internal_weight=0
internal_count=234
is_linear=0
shrinkage=1


Tree=6
num_leaves=7
num_cat=0
split_feature=47 47 43 43 43 43
split_gain=78.7606 5.10321e-05 1.038e-06 1.53521e-06 3.96681e-07 2.65376e-07
threshold=2.1361019557572178 1.0480088590443242 -0.30951812159623526 0.15167621098142162 -0.77071245417389211 1.1893634592811499
decision_type=2 2 2 2 2 2
left_child=1 2 4 -4 -1 -5
right_child=-2 -3 3 5 -6 -7
leaf_value=-0.044003944674790574 0.30360587498776193 -0.044287616031588317 -0.044054433943782119 -0.044014780633057082 -0.043975724881416878 -0.043988555618046307
leaf_weight=2.4742575474083424 1.8648759648203856 1.8941969387233246 2.1528277359902868 1.9388564527034762 2.5071583054959747 1.9198445528745649
leaf_count=41 23 29 35 32 42 32
internal_value=0 -0.0440479 -0.0440066 -0.0440206 -0.0439897 -0.0440017
internal_weight=0 12.8871 10.9929 6.01153 4.98142 3.8587
internal_count=234 211 182 99 83 64
is_linear=0
shrinkage=0.05


Tree=7
num_leaves=6
num_cat=0
split_feature=48 47 47 43 45
split_gain=95.1776 0.00011606 2.04896e-06 1.3907e-06 1.23118e-06
threshold=-1.1847619406300147 1.0480088590443242 -0.40278193657286659 -0.88601103731830644 1.0000000180025095e-35
decision_type=2 2 2 2 2
left_child=-1 2 4 -4 -2
right_child=1 -3 3 -5 -6
leaf_value=0.28076492872181336 -0.044787883498048325 -0.045132395368387333 -0.044773963357528923 -0.044821341937196391 -0.044745439801891829
leaf_weight=2.6017994359135654 2.8005658313632047 2.830352582037448 2.7122957035899162 3.6107891798019391 4.3818710595369339
leaf_count=26 36 34 35 46 57
internal_value=0 -0.0448413 -0.0447803 -0.044801 -0.044762
internal_weight=0 16.3359 13.5055 6.32308 7.18244
internal_count=234 208 174 81 93
is_linear=0
shrinkage=0.05


Tree=8
num_leaves=6
num_cat=0
split_feature=44 48 47 4 43
split_gain=88.1555 13.9262 4.40165 0.114534 0.000382571
threshold=-0.85651957084949604 -0.78301047213070307 -1.0000000180025095e-35 1.0000000180025095e-35 -0.30951812159623526
decision_type=2 2 2 2 2
left_child=1 -1 3 4 -2
right_child=2 -3 -4 -5 -6
leaf_value=0.055977293616315905 -0.052963079503059333 0.15643504712111822 -0.0088464062123460464 -0.045640754361958823 -0.053393654144306218
leaf_weight=6.7708902806043625 11.072126910090448 7.0336839854717237 7.8409629762172726 6.6927231401205054 9.6596121042966825
leaf_count=31 55 30 38 33 47
internal_value=0 0.107162 -0.0418824 -0.0513278 -0.0531637
internal_weight=0 13.8046 35.2654 27.4245 20.7317
internal_count=234 61 173 135 102
is_linear=0
shrinkage=0.05


Tree=9
num_leaves=6
num_cat=0
split_feature=12 3 45 45 44
split_gain=25.3029 26.6628 3.55805 5.54767 5.63894e-05
threshold=1.0000000180025095e-35 1.0000000180025095e-35 -0.20184861318246741 -1.0432743300293918 0.2744208128324736
decision_type=2 2 2 2 2
left_child=1 2 3 -1 -4
right_child=-2 -3 4 -5 -6
leaf_value=-0.051556925245764884 0.086718468881777921 0.065348688621367015 -0.051653597610933071 0.014159272771404935 -0.051833124344740855
leaf_weight=6.1387304663658142 7.1173561066389075 8.0033135265111905 9.7317713052034431 6.7347928285598737 7.9448914825916281
leaf_count=33 34 39 52 34 42
internal_value=0 -0.0158901 -0.0371724 -0.0171774 -0.0517343
internal_weight=0 38.5535 30.5502 12.8735 17.6767
internal_count=234 200 161 67 94
is_linear=0
shrinkage=0.05


Tree=10
num_leaves=5
num_cat=0
split_feature=44 43 43 47
split_gain=55.8965 55.4507 18.8547 0.000469272
threshold=-0.16538933637718142 0.49757196041466434 -0.6554138710294779 0.56441192717192723
decision_type=2 2 2 2
left_child=3 2 -2 -1
right_child=1 -3 -4 -5
leaf_value=-0.056017430237246091 0.029581701217377351 -0.055920314943082854 0.12730721218809757 -0.055581426581191001
leaf_weight=11.887984588742258 7.9168169051408794 9.3367735147476179 13.107200950384142 12.83383387327194
leaf_count=52 32 41 52 57
internal_value=0 0.045477 0.0905076 -0.0557911
internal_weight=0 30.3608 21.024 24.7218
internal_count=234 125 84 109
is_linear=0
shrinkage=0.05


Tree=11
num_leaves=6
num_cat=0
split_feature=44 43 47 43 47
split_gain=152.161 0.000109625 4.26126e-05 4.21815e-05 1.73588e-05
threshold=1.028381068620454 -0.30951812159623526 0.56441192717192723 0.15167621098142162 -0.40278193657286659
decision_type=2 2 2 2 2
left_child=1 2 4 -3 -1
right_child=-2 3 -4 -5 -6
leaf_value=-0.049640046819443583 0.1927659030943083 -0.049937067860091451 -0.049535203842469087 -0.049761465528691165 -0.049760212937927428
leaf_weight=5.8238580226898202 8.1325699388980848 5.9690108746290234 5.6106253117322913 8.0075326412916166 6.2099496722221383
leaf_count=36 40 36 35 49 38
internal_value=0 -0.0497319 -0.049649 -0.0498365 -0.0497021
internal_weight=0 31.621 17.6444 13.9765 12.0338
internal_count=234 194 109 85 74
is_linear=0
shrinkage=0.05


Tree=12
num_leaves=6
num_cat=0
split_feature=44 47 40 47 44
split_gain=65.7471 0.000930882 1.6562e-06 9.64916e-07 1.06464e-07
threshold=-1.4219896593812071 1.0480088590443242 1.0000000180025095e-35 -0.40278193657286659 1.028381068620454
decision_type=2 2 2 2 2
left_child=-1 2 3 4 -2
right_child=1 -3 -4 -5 -6
leaf_value=0.2537568217758871 -0.043877859372362681 -0.044997720402333539 -0.043933496946523723 -0.043905898672497085 -0.043861978412339526
leaf_weight=2.1733669601380834 2.2385772913694364 2.371655646711587 2.4628953635692596 3.4833969734609127 1.9965675026178358
leaf_count=27 39 31 42 60 35
internal_value=0 -0.0441056 -0.0438978 -0.0438864 -0.0438704
internal_weight=0 12.5531 10.1814 7.71854 4.23514
internal_count=234 207 176 134 74
is_linear=0
shrinkage=0.05


Tree=13
num_leaves=7
num_cat=0
split_feature=48 47 40 47 3 44
split_gain=72.6008 9.20239e-05 6.00977e-06 2.68612e-06 1.13089e-06 2.49713e-07
threshold=-1.1847619406300147 1.0480088590443242 1.0000000180025095e-35 -0.40278193657286659 1.0000000180025095e-35 1.028381068620454
decision_type=2 2 2 2 2 2
left_child=-1 2 3 5 -5 -2
right_child=1 -3 -4 4 -6 -7
leaf_value=0.21554553260642142 -0.044601273854922852 -0.04495381600465731 -0.044696900306691371 -0.04466832333049945 -0.044618875579344623 -0.044579814122711336
leaf_weight=3.2338204681873348 2.8753544315695754 2.7056286707520476 2.8787113428115836 2.2558088004589072 2.3722766786813736 2.5647831410169601
leaf_count=26 39 34 38 30 32 35
internal_value=0 -0.0446886 -0.0446332 -0.044615 -0.044643 -0.0445912
internal_weight=0 15.6526 12.9469 10.0682 4.62809 5.44014
internal_count=234 208 174 136 62 74
is_linear=0
shrinkage=0.05


Tree=14
num_leaves=6
num_cat=0
split_feature=44 48 46 45 46
split_gain=77.0483 13.5085 0.372108 0.000562496 0.000116103
threshold=-0.73085952821816658 -0.90662630859202975 1.0000000180025095e-35 1.0000000180025095e-35 -0.49873967269484426
decision_type=2 2 2 2 2
left_child=1 -1 3 -2 -5
right_child=2 -3 -4 4 -6
leaf_value=0.029504877434242033 -0.052773268825216338 0.11607911009613317 -0.039586635765985721 -0.052116953601021025 -0.052392364887185343
leaf_weight=7.6893686354160335 6.7683199197053971 10.882824480533598 7.5714426785707465 9.4198234677314776 6.4447001218795732
leaf_count=35 34 45 38 49 33
internal_value=0 0.0802351 -0.0491818 -0.0523916 -0.0522288
internal_weight=0 18.5722 30.2043 22.6328 15.8645
internal_count=234 80 154 116 82
is_linear=0
shrinkage=0.05


Tree=15
num_leaves=6
num_cat=0
split_feature=12 3 45 45 0
split_gain=21.2968 23.989 3.48472 5.1623 6.38408e-05
threshold=1.0000000180025095e-35 1.0000000180025095e-35 -0.20184861318246741 -1.0432743300293918 1.0000000180025095e-35
decision_type=2 2 2 2 2
left_child=1 2 3 -1 -4
right_child=-2 -3 4 -5 -6
leaf_value=-0.050818194001700727 0.076755403864256902 0.059878518125119518 -0.051169882339897214 0.013249168267711385 -0.050971348046902593
leaf_weight=5.8453320264816284 7.5714160054922095 8.3246269971132261 6.7123770862817809 6.8041306436061841 10.20564840734005
leaf_count=33 34 39 37 34 57
internal_value=0 -0.0150982 -0.0362076 -0.0163564 -0.0510501
internal_weight=0 37.8921 29.5675 12.6495 16.918
internal_count=234 200 161 67 94
is_linear=0
shrinkage=0.05


Tree=16
num_leaves=5
num_cat=0
split_feature=44 44 47 47
split_gain=50.2855 47.2686 11.0244 0.00144311
threshold=-0.16538933637718142 0.90272102598912363 -0.40278193657286659 0.56441192717192723
decision_type=2 2 2 2
left_child=3 2 -2 -1
right_child=1 -3 -4 -5
leaf_value=-0.055142847219957193 0.12186873615843774 -0.049803530361998215 0.049787293751361511 -0.054362885192858826
leaf_weight=11.511129558086397 9.9854905903339404 9.6523251533508283 11.315862983465196 12.232945710420607
leaf_count=52 37 44 44 57
internal_value=0 0.0419848 0.0835771 -0.054741
internal_weight=0 30.9537 21.3014 23.7441
internal_count=234 125 81 109
is_linear=0
shrinkage=0.05


Tree=17
num_leaves=6
num_cat=0
split_feature=44 47 43 43 44
split_gain=124.939 0.00024485 0.000118176 2.74697e-05 1.98482e-06
threshold=1.028381068620454 0.56441192717192723 -0.30951812159623526 -0.77071245417389211 -1.2334996987434863
decision_type=2 2 2 2 2
left_child=1 2 3 -1 -3
right_child=-2 4 -4 -5 -6
leaf_value=-0.049301728429082682 0.1611252648910918 -0.04905456006264125 -0.049470716995020633 -0.049146452800447021 -0.049008067002116081
leaf_weight=6.4378347396850586 9.2019311785697919 4.6039285957813263 9.5586782991886157 5.1084780395030993 4.5783034563064557
leaf_count=41 40 30 60 33 30
internal_value=0 -0.0492469 -0.0493407 -0.049233 -0.0490314
internal_weight=0 30.2872 21.105 11.5463 9.18223
internal_count=234 194 134 74 60
is_linear=0
shrinkage=0.05


Tree=18
num_leaves=7
num_cat=0
split_feature=47 47 44 43 44 48
split_gain=69.3322 0.0005105 1.77294e-05 3.37807e-06 8.38929e-06 1.12848e-06
threshold=2.4987996546615152 1.0480088590443242 -0.73085952821816658 -0.30951812159623526 1.028381068620454 0.57676372894389061
decision_type=2 2 2 2 2 2
left_child=1 2 -1 5 -5 -4
right_child=-2 -3 3 4 -6 -7
leaf_value=-0.043952649844416741 0.26925247964527549 -0.044623813888101993 -0.043724653101696966 -0.04388017626766319 -0.043741796785023129 -0.043779875387636065
leaf_weight=2.042121745645999 2.0541845560073861 2.4591349065303794 1.8281288444995853 2.4125314168632039 2.0059638023376465 1.8729433305561543
leaf_count=35 17 35 34 42 37 34
internal_value=0 -0.0439774 -0.043821 -0.0437878 -0.0438174 -0.0437526
internal_weight=0 12.6208 10.1617 8.11957 4.4185 3.70107
internal_count=234 217 182 147 79 68
is_linear=0
shrinkage=0.05


Tree=19
num_leaves=7
num_cat=0
split_feature=48 47 44 43 43 44
split_gain=58.1887 7.68235e-05 7.20184e-06 1.54278e-05 3.54691e-06 2.12433e-07
threshold=-1.1847619406300147 1.0480088590443242 1.028381068620454 -0.30951812159623526 -0.77071245417389211 -0.60519948558683645
decision_type=2 2 2 2 2 2
left_child=-1 2 3 4 -2 -5
right_child=1 -3 -4 5 -6 -7
leaf_value=0.17430666586131416 -0.044483727678302221 -0.044785754894649865 -0.044412855772428261 -0.044562508374661525 -0.04440055429268043 -0.044584165453285002
leaf_weight=3.8111779019236591 2.9164355322718611 2.5841561630368224 2.6445477530360213 2.2559490501880646 2.2869323492050171 2.2733343765139571
leaf_count=26 41 34 38 31 33 31
internal_value=0 -0.0445378 -0.044486 -0.0445059 -0.0444472 -0.0445734
internal_weight=0 14.9614 12.3772 9.73265 5.20337 4.52928
internal_count=234 208 174 136 74 62
is_linear=0
shrinkage=0.05


Tree=20
num_leaves=7
num_cat=0
split_feature=44 41 47 4 44 47
split_gain=68.9195 7.38508 4.1414 0.125336 0.00189483 0.000388844
threshold=-0.85651957084949604 1.0000000180025095e-35 -1.0000000180025095e-35 1.0000000180025095e-35 1.0000000180025095e-35 -0.40278193657286659
decision_type=2 2 2 2 2 2
left_child=1 -1 3 4 -2 -6
right_child=2 -3 -4 -5 5 -7
leaf_value=0.12439813834677343 -0.052604161909759833 0.054584034762757284 -0.0080932726764473446 -0.043723873161176388 -0.051312130129232192 -0.051865732031312298
leaf_weight=7.3602171689271909 6.2748524844646481 7.8047771751880646 7.717655003070834 6.2124414741992942 7.5033039599657068 5.4947162419557545
leaf_count=30 32 31 38 33 41 29
internal_value=0 0.0884678 -0.0401824 -0.0498998 -0.0518906 -0.0515462
internal_weight=0 15.165 33.203 25.4853 19.2729 12.998
internal_count=234 61 173 135 102 70
is_linear=0
shrinkage=0.05


Tree=21
num_leaves=6
num_cat=0
split_feature=12 3 48 45 0
split_gain=18.2843 21.6896 3.47721 7.14178 0.000555273
threshold=1.0000000180025095e-35 1.0000000180025095e-35 -0.44306692186205471 -0.80287552798361361 1.0000000180025095e-35
decision_type=2 2 2 2 2
left_child=1 2 3 -1 -4
right_child=-2 -3 4 -5 -6
leaf_value=-0.050477318286262313 0.069217997863580807 0.055206577927404771 -0.050953769973464694 0.025453960827707026 -0.050357187511108729
leaf_weight=6.7132013887166977 7.937831073999404 8.6117248237133008 6.5762731879949614 5.748452350497244 9.5854987353086472
leaf_count=39 34 39 37 29 56
internal_value=0 -0.0143656 -0.0352972 -0.0154509 -0.0505999
internal_weight=0 37.2352 28.6234 12.4617 16.1618
internal_count=234 200 161 68 93
is_linear=0
shrinkage=0.05


Tree=22
num_leaves=6
num_cat=0
split_feature=44 43 43 44 45
split_gain=45.2691 40.5298 13.8026 0.00175222 9.9709e-06
threshold=-0.16538933637718142 0.49757196041466434 -0.6554138710294779 -0.85651957084949604 -1.0432743300293918
decision_type=2 2 2 2 2
left_child=3 2 -2 4 -1
right_child=1 -3 -4 -5 -6
leaf_value=-0.053413661515286204 0.022448426172052192 -0.053831556324500589 0.10324866455284415 -0.054251888773009009 -0.053324404670282613
leaf_weight=6.3754662722349167 8.3284735381603259 8.5682914108037931 14.465223267674448 10.232706874608992 6.1443922221660632
leaf_count=31 32 41 52 48 30
internal_value=0 0.0388761 0.0737255 -0.0537665 -0.0533699
internal_weight=0 31.362 22.7937 22.7526 12.5199
internal_count=234 125 84 109 61
is_linear=0
shrinkage=0.05


Tree=23
num_leaves=6
num_cat=0
split_feature=44 43 44 42 47
split_gain=105.334 0.000369023 0.000184692 0.000162079 4.63202e-05
threshold=1.028381068620454 -0.30951812159623526 -0.73085952821816658 1.0000000180025095e-35 -0.40278193657286659
decision_type=2 2 2 2 2
left_child=1 3 -3 -1 -5
right_child=-2 2 -4 4 -6
leaf_value=-0.048395120054808109 0.13887602786582662 -0.048780478221579257 -0.049160119171853839 -0.048625506963306052 -0.048831542200424932
leaf_weight=5.0226656198501596 10.078145921230314 5.8214290291070938 7.124217242002489 5.00050973892212 6.0022750645875922
leaf_count=35 40 39 46 34 40
internal_value=0 -0.0487909 -0.0489894 -0.0486305 -0.0487379
internal_weight=0 28.9711 12.9456 16.0255 11.0028
internal_count=234 194 85 109 74
is_linear=0
shrinkage=0.05


Tree=24
num_leaves=6
num_cat=0
split_feature=44 47 44 47 44
split_gain=65.4924 0.00100901 1.60874e-05 5.0862e-06 1.39427e-07
threshold=-1.4848197840061459 1.0480088590443242 -0.16538933637718142 -0.40278193657286659 1.028381068620454
decision_type=2 2 2 2 2
left_child=-1 2 -2 4 -4
right_child=1 -3 3 -5 -6
leaf_value=0.2562715856717076 -0.043802348328644491 -0.044800243513550275 -0.043639050690765527 -0.043720724611279196 -0.043619916119093681
leaf_weight=2.1274848803877839 3.3047101944684965 2.7349850088357917 1.9649188257753833 2.5765329189598578 1.8468508906662462
leaf_count=14 60 38 38 48 36
internal_value=0 -0.0439521 -0.0437128 -0.0436665 -0.0436298
internal_weight=0 12.428 9.69301 6.3883 3.81177
internal_count=234 220 182 122 74
is_linear=0
shrinkage=0.05


Tree=25
num_leaves=7
num_cat=0
split_feature=48 47 40 47 3 44
split_gain=48.9038 6.43313e-05 1.44253e-05 7.81649e-06 5.91398e-06 8.73576e-07
threshold=-1.1847619406300147 1.0480088590443242 1.0000000180025095e-35 -0.40278193657286659 1.0000000180025095e-35 1.028381068620454
decision_type=2 2 2 2 2 2
left_child=-1 2 3 5 -5 -2
right_child=1 -3 -4 4 -6 -7
leaf_value=0.14811335636289838 -0.0442919746677383 -0.044625080635676662 -0.044447246694228788 -0.044424618650275159 -0.044306536060192719 -0.044249725237017742
leaf_weight=4.2887037545442608 2.6045645400881758 2.4776887968182555 2.6649743840098372 2.0925083532929412 2.1496495082974434 2.3073642589151859
leaf_count=26 39 34 38 30 32 35
internal_value=0 -0.0443934 -0.0443449 -0.0443151 -0.0443648 -0.0442721
internal_weight=0 14.2967 11.8191 9.15409 4.24216 4.91193
internal_count=234 208 174 136 62 74
is_linear=0
shrinkage=0.05


Tree=26
num_leaves=6
num_cat=0
split_feature=44 48 44 47 44
split_gain=61.842 10.1808 0.464103 0.000892589 1.27419e-05
threshold=-0.73085952821816658 -0.90662630859202975 -0.16538933637718142 -0.40278193657286659 0.14876077020114348
decision_type=2 2 2 2 2
left_child=1 -1 -2 4 -4
right_child=2 -3 3 -5 -6
leaf_value=0.024223061636336481 -0.034948935572695003 0.097100860821985435 -0.050623019723208575 -0.051324589442478891 -0.050724019850192675
leaf_weight=8.0489651709795016 5.6862829774618175 11.843373432755468 5.2365698665380513 9.3250451683998072 7.7356619387865067
leaf_count=35 29 45 30 51 44
internal_value=0 0.0676126 -0.0476997 -0.0509515 -0.0506832
internal_weight=0 19.8923 27.9836 22.2973 12.9722
internal_count=234 80 154 125 74
is_linear=0
shrinkage=0.05


Tree=27
num_leaves=7
num_cat=0
split_feature=46 46 12 43 44 43
split_gain=17.5774 35.5813 38.7777 1.60501 0.485469 0.000205476
threshold=0.62832158161253837 1.0000000180025095e-35 1.0000000180025095e-35 1.0000000180025095e-35 0.2744208128324736 1.0740648761367357
decision_type=2 2 2 2 2 2
left_child=1 2 4 -2 -1 -6
right_child=3 -3 -4 -5 5 -7
leaf_value=-0.032115466043440594 -0.053719178325290717 0.13024108086269862 0.1068108272450121 -0.021868695965740322 -0.050512190914673662 -0.050079416927192325
leaf_weight=5.5226295143365958 9.7423950582742709 6.1896196901798239 5.7255470007657996 6.6588020324707022 5.3357024043798429 5.6437282711267471
leaf_count=33 49 28 23 36 31 34
internal_value=0 0.024217 -0.0053071 -0.040788 -0.0442075 -0.0502897
internal_weight=0 28.4172 22.2276 16.4012 16.5021 10.9794
internal_count=234 149 121 85 98 65
is_linear=0
shrinkage=0.05


Tree=28
num_leaves=5
num_cat=0
split_feature=44 44 47 43
split_gain=41.0368 34.997 8.69778 0.00350676
threshold=-0.16538933637718142 0.90272102598912363 -0.40278193657286659 -0.42481670474064953
decision_type=2 2 2 2
left_child=3 2 -2 -1
right_child=1 -3 -4 -5
leaf_value=-0.052182728848605524 0.10200640820403391 -0.047761014541229323 0.039945965775908109 -0.053469426075657148
leaf_weight=9.054977089166643 10.701706707477571 8.8979567587375623 11.949912860989572 12.753669023513792
leaf_count=47 37 44 44 62
internal_value=0 0.036261 0.0692663 -0.0529352
internal_weight=0 31.5496 22.6516 21.8086
internal_count=234 125 81 109
is_linear=0
shrinkage=0.05


Tree=29
num_leaves=5
num_cat=0
split_feature=44 43 44 47
split_gain=90.9783 0.00058522 0.000276674 0.000125247
threshold=1.028381068620454 -0.30951812159623526 -0.60519948558683645 1.0000000180025095e-35
decision_type=2 2 2 2
left_child=1 2 -1 -3
right_child=-2 3 -4 -5
leaf_value=-0.047924493469559862 0.12302911887801314 -0.048793087807646199 -0.048354094645821195 -0.048475991825392147
leaf_weight=6.6635823175311062 10.743853360414503 5.9809544235467911 8.5650756657123583 6.4965179711580276
leaf_count=49 40 40 60 45
internal_value=0 -0.0483741 -0.0481661 -0.048628
internal_weight=0 27.7061 15.2287 12.4775
internal_count=234 194 109 85
is_linear=0
shrinkage=0.05


Tree=30
num_leaves=6
num_cat=0
split_feature=44 47 44 47 43
split_gain=51.6358 0.000852687 2.25001e-05 7.11795e-06 2.37131e-07
threshold=-1.4848197840061459 1.0480088590443242 -0.16538933637718142 -0.40278193657286659 -0.30951812159623526
decision_type=2 2 2 2 2
left_child=-1 2 -2 4 -4
right_child=1 -3 3 -5 -6
leaf_value=0.20478749662330828 -0.043719375811337516 -0.044635484271340231 -0.043497445145401104 -0.043620735195958771 -0.043523119958522268
leaf_weight=2.5352104976773271 3.1828856840729696 2.6081285066902629 1.7872933298349365 2.4594795629382151 1.8101238980889318
leaf_count=14 60 38 37 48 37
internal_value=0 -0.0438371 -0.0436117 -0.0435552 -0.0435104
internal_weight=0 11.8479 9.23978 6.0569 3.59742
internal_count=234 220 182 122 74
is_linear=0
shrinkage=0.05


Tree=31
num_leaves=6
num_cat=0
split_feature=48 44 43 47 43
split_gain=41.1164 5.23958e-05 3.06491e-05 1.63664e-05 5.47787e-07
threshold=-1.1847619406300147 -0.16538933637718142 0.15167621098142162 -0.40278193657286659 -0.30951812159623526
decision_type=2 2 2 2 2
left_child=-1 2 -2 4 -3
right_child=1 3 -4 -5 -6
leaf_value=0.126250231313387 -0.044481715779209348 -0.044084269178454039 -0.044251880007408616 -0.044249235471039844 -0.044118686974613831
leaf_weight=4.7776941657066372 2.7346902787685403 2.2977652773261079 3.0889153182506561 3.1588668189942801 2.3267143629491329
leaf_count=26 39 37 47 48 37
internal_value=0 -0.0442464 -0.0443598 -0.0441615 -0.0441016
internal_weight=0 13.607 5.82361 7.78335 4.62448
internal_count=234 208 86 122 74
is_linear=0
shrinkage=0.05


Tree=32
num_leaves=6
num_cat=0
split_feature=44 48 44 47 44
split_gain=55.0993 8.39107 0.452512 0.00101265 4.50266e-05
threshold=-0.73085952821816658 -0.90662630859202975 -0.16538933637718142 -0.40278193657286659 0.14876077020114348
decision_type=2 2 2 2 2
left_child=1 -1 -2 4 -4
right_child=2 -3 3 -5 -6
leaf_value=0.02269777260783952 -0.034267709097159128 0.088120733430600021 -0.049865116539327486 -0.050681749482587218 -0.050060309983195363
leaf_weight=8.1486658602952975 5.5744360536336925 12.297887817025183 4.9375456422567403 8.9191063642501796 7.3561377972364426
leaf_count=35 29 45 30 51 44
internal_value=0 0.0620474 -0.0469448 -0.0502762 -0.0499819
internal_weight=0 20.4466 26.7872 21.2128 12.2937
internal_count=234 80 154 125 74
is_linear=0
shrinkage=0.05


Tree=33
num_leaves=7
num_cat=0
split_feature=46 46 12 44 44 43
split_gain=16.2448 29.6407 34.0738 1.63238 0.499923 0.000387227
threshold=0.62832158161253837 1.0000000180025095e-35 1.0000000180025095e-35 -0.85651957084949604 0.2744208128324736 1.0740648761367357
decision_type=2 2 2 2 2 2
left_child=1 2 4 -2 -1 -6
right_child=3 -3 -4 -5 5 -7
leaf_value=-0.030944944401612662 -0.051555079462755019 0.11575849519002185 0.096356153745091877 -0.017855390880761064 -0.050073918346818382 -0.049467064220937725
leaf_weight=5.3101707547903123 10.423750966787336 6.6280820667743674 6.0139722824096671 5.483941823244094 5.157233461737631 5.3614268004894257
leaf_count=33 59 28 23 26 31 34
internal_value=0 0.0231451 -0.004958 -0.0399376 -0.0434511 -0.0497646
internal_weight=0 28.4709 21.8428 15.9077 15.8288 10.5187
internal_count=234 149 121 85 98 65
is_linear=0
shrinkage=0.05


Tree=34
num_leaves=6
num_cat=0
split_feature=46 43 43 31 44
split_gain=37.8527 54.877 0.548467 0.46829 0.0570662
threshold=1.0000000180025095e-35 0.15167621098142162 -0.30951812159623526 1.0000000180025095e-35 -0.73085952821816658
decision_type=2 2 2 2 2
left_child=1 3 4 -1 -2
right_child=2 -3 -4 -5 -6
leaf_value=0.08181710921426194 -0.051481866714248065 -0.052226536828567587 -0.038689435490009839 0.097704025625736768 -0.057934574785975683
leaf_weight=9.4911737143993413 7.5599726289510727 10.786431849002836 9.2738289386033994 9.0722150504589081 6.2665307968854922
leaf_count=34 41 56 45 31 27
internal_value=0 0.0374651 -0.0480967 0.0895813 -0.0544064
internal_weight=0 29.3498 23.1003 18.5634 13.8265
internal_count=234 121 113 65 68
is_linear=0
shrinkage=0.05


Tree=35
num_leaves=6
num_cat=0
split_feature=44 43 44 42 47
split_gain=79.2155 0.000672416 0.000228773 0.000207994 9.71674e-05
threshold=1.028381068620454 -0.30951812159623526 -0.73085952821816658 1.0000000180025095e-35 -0.40278193657286659
decision_type=2 2 2 2 2
left_child=1 3 -3 -1 -5
right_child=-2 2 -4 4 -6
leaf_value=-0.047455967183180077 0.11034816690468419 -0.048002084507915717 -0.048441880783184899 -0.047693549525390525 -0.048007079935877911
leaf_weight=4.4864524453878394 11.270291328430174 5.3447320610284805 6.6186727955937386 4.4971077591180775 5.4853796884417561
leaf_count=35 40 39 46 34 40
internal_value=0 -0.0479681 -0.0482454 -0.0477387 -0.0478658
internal_weight=0 26.4323 11.9634 14.4689 9.98249
internal_count=234 194 85 109 74
is_linear=0
shrinkage=0.05


Tree=36
num_leaves=6
num_cat=0
split_feature=44 47 44 47 43
split_gain=42.7331 0.000726825 2.69656e-05 8.80869e-06 4.25421e-07
threshold=-1.4848197840061459 1.0480088590443242 -0.16538933637718142 -0.40278193657286659 -0.30951812159623526
decision_type=2 2 2 2 2
left_child=-1 2 -2 4 -4
right_child=1 -3 3 -5 -6
leaf_value=0.17230719858425261 -0.043632476111117979 -0.044480794351727325 -0.043379143716538893 -0.043523005662678568 -0.04341455825902741
leaf_weight=2.8720420897006997 3.0525995641946775 2.4853124395012847 1.6797286421060547 2.3477055355906504 1.7125861980020998
leaf_count=14 60 38 37 48 37
internal_value=0 -0.0437258 -0.0435124 -0.0434486 -0.043397
internal_weight=0 11.2779 8.79262 5.74002 3.39231
internal_count=234 220 182 122 74
is_linear=0
shrinkage=0.05


Tree=37
num_leaves=6
num_cat=0
split_feature=48 44 43 47 43
split_gain=35.3885 5.23341e-05 2.74798e-05 2.01558e-05 9.7671e-07
threshold=-1.1847619406300147 -0.16538933637718142 0.15167621098142162 -0.40278193657286659 -0.30951812159623526
decision_type=2 2 2 2 2
left_child=-1 2 -2 4 -3
right_child=1 3 -4 -5 -6
leaf_value=0.11039131000938751 -0.044338282337134577 -0.043924680846099316 -0.044115528883159935 -0.044116677490239328 -0.043972002353420317
leaf_weight=5.1953151822090176 2.6174998134374627 2.1601619385182866 2.9392757527530193 3.0156975165009463 2.2018627673387527
leaf_count=26 39 37 47 48 37
internal_value=0 -0.0441046 -0.0442205 -0.0440173 -0.0439486
internal_weight=0 12.9345 5.55678 7.37772 4.36202
internal_count=234 208 86 122 74
is_linear=0
shrinkage=0.05


Tree=38
num_leaves=7
num_cat=0
split_feature=44 46 41 44 47 44
split_gain=49.8289 7.91292 5.24688 0.00774419 0.000824196 1.30683e-06
threshold=-0.85651957084949604 0.62832158161253837 1.0000000180025095e-35 1.0000000180025095e-35 -0.40278193657286659 1.1540411112517834
decision_type=2 2 2 2 2 2
left_child=2 3 -1 -2 5 -5
right_child=1 -3 -4 4 -6 -7
leaf_value=0.098729418975632657 -0.051674091928968602 0.015667191191391549 0.042158373025207516 -0.049352994785706719 -0.050054892061277501 -0.049389569877627264
leaf_weight=8.1824417561292648 6.6930173039436403 5.5984437465667716 8.2126618176698685 5.0304337143898064 8.008021458983416 4.7467596381902695
leaf_count=30 37 26 31 32 48 30
internal_value=0 -0.0379594 0.0703918 -0.0502244 -0.0496788 -0.0493708
internal_weight=0 30.0767 16.3951 24.4782 17.7852 9.77719
internal_count=234 173 61 147 110 62
is_linear=0
shrinkage=0.05


Tree=39
num_leaves=7
num_cat=0
split_feature=46 46 44 43 46 44
split_gain=14.9709 23.9866 44.2755 1.64831 0.152719 0.00621144
threshold=0.62832158161253837 1.0000000180025095e-35 -0.16538933637718142 -1.0000000180025095e-35 -0.49873967269484426 1.028381068620454
decision_type=2 2 2 2 2 2
left_child=1 2 -1 -2 5 -4
right_child=3 -3 4 -5 -6 -7
leaf_value=0.11838838149371136 -0.052730229263718953 0.10183411195424781 -0.051365804584852459 -0.019451998616606129 -0.039524863051778679 -0.048944793246873682
leaf_weight=5.4644293934106853 9.1013052836060506 7.0813636779785147 4.7406230121850985 6.2944059073925009 5.1269854605197898 6.0056739151477814
leaf_count=20 49 28 28 36 33 40
internal_value=0 0.0220962 -0.00436649 -0.0391247 -0.0466253 -0.0500128
internal_weight=0 28.4191 21.3377 15.3957 15.8733 10.7463
internal_count=234 149 121 85 101 68
is_linear=0
shrinkage=0.05


Tree=40
num_leaves=6
num_cat=0
split_feature=44 44 47 44 41
split_gain=34.9233 27.245 6.49026 0.00343518 0.000106272
threshold=-0.16538933637718142 0.90272102598912363 -0.40278193657286659 -0.85651957084949604 1.0000000180025095e-35
decision_type=2 2 2 2 2
left_child=3 2 -2 4 -1
right_child=1 -3 -4 -5 -6
leaf_value=-0.051159569662182151 0.088324613780051547 -0.045842984988726437 0.035275865971413592 -0.052312865296075178 -0.050847083924745101
leaf_weight=5.4121884703636187 11.00421115756035 8.1391158699989301 12.111613228917124 9.2538459599018079 5.4713771343231201
leaf_count=30 37 44 44 48 31
internal_value=0 0.032829 0.0605295 -0.0516046 -0.0510025
internal_weight=0 31.2549 23.1158 20.1374 10.8836
internal_count=234 125 81 109 61
is_linear=0
shrinkage=0.05


Tree=41
num_leaves=6
num_cat=0
split_feature=44 43 44 47 43
split_gain=69.7365 0.000564291 0.000250694 0.000233875 0.000249527
threshold=1.028381068620454 -0.30951812159623526 -0.73085952821816658 0.56441192717192723 -0.77071245417389211
decision_type=2 2 2 2 2
left_child=1 3 -3 4 -1
right_child=-2 2 -4 -5 -6
leaf_value=-0.047725692280807877 0.10042280926880612 -0.047580179231747011 -0.048051828286864912 -0.047057432204503813 -0.047208996008524726
leaf_weight=5.4421766027808163 11.636501520872114 5.0755148306488991 6.3325292021036148 4.2375420629978189 4.0946752056479463
leaf_count=41 40 39 46 35 33
internal_value=0 -0.0475819 -0.047842 -0.0473665 -0.0475038
internal_weight=0 25.1824 11.408 13.7744 9.53685
internal_count=234 194 85 109 74
is_linear=0
shrinkage=0.05


Tree=42
num_leaves=6
num_cat=0
split_feature=44 47 44 47 43
split_gain=36.6117 0.000621071 2.8178e-05 1.00236e-05 5.30647e-07
threshold=-1.4848197840061459 1.0480088590443242 -0.16538933637718142 -0.40278193657286659 -0.30951812159623526
decision_type=2 2 2 2 2
left_child=-1 2 -2 4 -4
right_child=1 -3 3 -5 -6
leaf_value=0.15044110714831993 -0.043541476689954423 -0.044332909695801705 -0.043271536214672182 -0.043430092722492472 -0.043312258634730844
leaf_weight=3.1424193531274804 2.918632507324217 2.371915638446807 1.58216095343232 2.2365110404789466 1.6181607991456983
leaf_count=14 60 38 37 48 37
internal_value=0 -0.0436189 -0.0434162 -0.0433489 -0.0432921
internal_weight=0 10.7274 8.35547 5.43683 3.20032
internal_count=234 220 182 122 74
is_linear=0
shrinkage=0.05


Tree=43
num_leaves=6
num_cat=0
split_feature=48 44 47 43 43
split_gain=31.0255 5.13484e-05 2.28287e-05 2.13419e-05 1.21197e-06
threshold=-1.1847619406300147 -0.16538933637718142 -0.40278193657286659 0.15167621098142162 -0.30951812159623526
decision_type=2 2 2 2 2
left_child=-1 3 4 -2 -3
right_child=1 2 -4 -5 -6
leaf_value=0.098488721992913877 -0.044195588732655208 -0.043779910106986883 -0.04399099790687256 -0.043994594458969277 -0.043834175951213597
leaf_weight=5.5465560704469707 2.4950553141534337 2.0352415852248678 2.8732127733528579 2.8059923686087132 2.08092425391078
leaf_count=26 39 37 48 47 37
internal_value=0 -0.0439718 -0.0438828 -0.0440892 -0.0438073
internal_weight=0 12.2904 6.98938 5.30105 4.11617
internal_count=234 208 122 86 74
is_linear=0
shrinkage=0.05


Tree=44
num_leaves=7
num_cat=0
split_feature=44 46 41 44 47 43
split_gain=44.3605 7.36794 4.24671 0.00592995 0.000869764 4.27225e-07
threshold=-0.85651957084949604 0.62832158161253837 1.0000000180025095e-35 1.0000000180025095e-35 -0.40278193657286659 1.1893634592811499
decision_type=2 2 2 2 2 2
left_child=2 3 -1 -2 5 -5
right_child=1 -3 -4 4 -6 -7
leaf_value=0.09010906378518857 -0.050912967016966543 0.013848884979079474 0.039689489110412424 -0.048806340195826879 -0.049516520777450466 -0.048784845428242234
leaf_weight=8.4457331299781799 6.3606574237346711 5.693122372031211 8.2615830153226852 4.7711611986160332 7.6474874466657594 4.4845005571842194
leaf_count=30 37 26 31 32 48 30
internal_value=0 -0.0371349 0.0651771 -0.0496116 -0.0491219 -0.0487959
internal_weight=0 28.9569 16.7073 23.2638 16.9031 9.25566
internal_count=234 173 61 147 110 62
is_linear=0
shrinkage=0.05


Tree=45
num_leaves=7
num_cat=0
split_feature=44 3 44 46 43 43
split_gain=13.8131 19.8789 22.4766 4.26804 0.0127746 0.00468625
threshold=-0.85651957084949604 1.0000000180025095e-35 -1.0000000180025095e-35 1.0000000180025095e-35 -1.0013096204627205 -0.078920955307406782
decision_type=2 2 2 2 2 2
left_child=4 2 3 -2 -1 -4
right_child=1 -3 5 -5 -6 -7
leaf_value=-0.052533679832071425 0.067295132302883726 0.099906131170899998 -0.050231774638995488 0.0123940951778103 -0.048965237755071257 -0.048328778197346184
leaf_weight=4.9298639371991158 7.6010106950998289 5.8465602695941916 6.0386250168085072 6.6259467154741287 5.1052329391241056 6.9682848304510161
leaf_count=27 32 23 38 31 34 49
internal_value=0 0.0162526 -0.00170618 0.041726 -0.0507183 -0.0492123
internal_weight=0 33.0804 27.2339 14.227 10.0351 13.0069
internal_count=234 173 150 63 61 87
is_linear=0
shrinkage=0.05


Tree=46
num_leaves=6
num_cat=0
split_feature=46 43 43 31 48
split_gain=32.2702 43.0659 0.554061 0.39005 0.0580581
threshold=1.0000000180025095e-35 0.15167621098142162 -0.30951812159623526 1.0000000180025095e-35 -0.90662630859202975
decision_type=2 2 2 2 2
left_child=1 3 4 -1 -2
right_child=2 -3 -4 -5 -6
leaf_value=0.071491689739085706 -0.050218891435488903 -0.050729358682427811 -0.036860042674849193 0.085867616176785302 -0.05700658830358947
leaf_weight=9.642969354987148 7.2211408615112305 9.7833064496517164 8.7551117390394193 9.2390127778053284 5.5883587449789065
leaf_count=34 43 56 45 31 25
internal_value=0 0.0344118 -0.0465543 0.0785259 -0.0531801
internal_weight=0 28.6653 21.5646 18.882 12.8095
internal_count=234 121 113 65 68
is_linear=0
shrinkage=0.05


Tree=47
num_leaves=6
num_cat=0
split_feature=44 43 47 43 44
split_gain=61.9629 0.000715763 0.000215088 0.000243565 0.000205675
threshold=1.028381068620454 -0.30951812159623526 0.56441192717192723 -0.77071245417389211 -0.73085952821816658
decision_type=2 2 2 2 2
left_child=1 2 3 -1 -3
right_child=-2 4 -4 -5 -6
leaf_value=-0.047337289231144553 0.092491945190216543 -0.047284240222349401 -0.046672107093987482 -0.046812639687779656 -0.047720283096901683
leaf_weight=5.1710436791181538 11.86002269387245 4.872292622923851 3.9905407279729852 3.8660468608140954 6.0778643488883972
leaf_count=41 40 39 35 33 46
internal_value=0 -0.0472283 -0.0469778 -0.0471128 -0.0475263
internal_weight=0 23.9778 13.0276 9.03709 10.9502
internal_count=234 194 109 74 85
is_linear=0
shrinkage=0.05


Tree=48
num_leaves=6
num_cat=0
split_feature=44 47 44 47 43
split_gain=31.9938 0.000511684 2.94741e-05 1.21244e-05 6.02611e-07
threshold=-1.4848197840061459 1.0480088590443242 -0.16538933637718142 -0.40278193657286659 -0.30951812159623526
decision_type=2 2 2 2 2
left_child=-1 2 -2 4 -4
right_child=1 -3 3 -5 -6
leaf_value=0.13430672505710431 -0.043453771929095449 -0.044175914376236691 -0.043164513018814153 -0.043343002547324982 -0.043209285149105291
leaf_weight=3.3649780154228219 2.7886294350028029 2.2586188092827797 1.4834355488419526 2.135374877601862 1.5233174748718736
leaf_count=14 60 38 37 48 37
internal_value=0 -0.043512 -0.0433229 -0.0432519 -0.0431872
internal_weight=0 10.1894 7.93076 5.14213 3.00675
internal_count=234 220 182 122 74
is_linear=0
shrinkage=0.05


Tree=49
num_leaves=6
num_cat=0
split_feature=48 44 47 44 43
split_gain=27.8125 5.40522e-05 2.75e-05 1.9125e-05 1.36971e-06
threshold=-1.1847619406300147 -0.16538933637718142 -0.40278193657286659 -0.85651957084949604 -0.30951812159623526
decision_type=2 2 2 2 2
left_child=-1 3 4 -2 -3
right_child=1 2 -4 -5 -6
leaf_value=0.089967579598259823 -0.043887703067107806 -0.04363639150557154 -0.043873493680380946 -0.044084896942486823 -0.0436959019047366
leaf_weight=5.8174754530191448 2.9654873721301556 1.9088144004344951 2.7435767017304862 2.1005019061267385 1.9594615101814268
leaf_count=26 52 37 48 34 37
internal_value=0 -0.0438466 -0.0437524 -0.0439695 -0.0436665
internal_weight=0 11.6778 6.61185 5.06599 3.86828
internal_count=234 208 122 86 74
is_linear=0
shrinkage=0.05


Tree=50
num_leaves=6
num_cat=0
split_feature=44 48 44 47 43
split_gain=39.9899 6.9635 0.434346 0.00126601 7.35079e-05
threshold=-0.73085952821816658 -0.90662630859202975 -0.16538933637718142 -0.40278193657286659 -0.30951812159623526
decision_type=2 2 2 2 2
left_child=1 -1 -2 4 -4
right_child=2 -3 3 -5 -6
leaf_value=0.014872958304071366 -0.032196493628528736 0.073061812681912836 -0.048073306083195697 -0.049051954905478347 -0.048339460369374199
leaf_weight=8.5930121839046496 5.2132338881492641 12.800322681665419 5.1138157397508657 7.7808685004711124 5.265281081199646
leaf_count=35 29 45 37 51 37
internal_value=0 0.0496892 -0.0449178 -0.0485698 -0.0482083
internal_weight=0 21.3933 23.3732 18.16 10.3791
internal_count=234 80 154 125 74
is_linear=0
shrinkage=0.05


Tree=51
num_leaves=7
num_cat=0
split_feature=46 46 44 43 46 43
split_gain=12.7993 17.9807 35.2467 1.5841 0.160155 0.00565062
threshold=0.62832158161253837 1.0000000180025095e-35 -0.16538933637718142 -1.0000000180025095e-35 -0.49873967269484426 0.95876629299232141
decision_type=2 2 2 2 2 2
left_child=1 2 -1 -2 5 -4
right_child=3 -3 4 -5 -6 -7
leaf_value=0.10002594727717751 -0.051621932611829957 0.086213680236874757 -0.050382168190100197 -0.018090852853703408 -0.037978004277277252 -0.047986692240162838
leaf_weight=5.8182075619697597 8.3828178197145444 7.5709336698055258 4.8740912601351756 6.0748421847820273 4.7295944243669501 4.9741204380989075
leaf_count=20 49 28 31 36 33 37
internal_value=0 0.0204102 -0.00401587 -0.0375328 -0.0455404 -0.0491723
internal_weight=0 27.9669 20.396 14.4577 14.5778 9.84821
internal_count=234 149 121 85 101 68
is_linear=0
shrinkage=0.05


Tree=52
num_leaves=6
num_cat=0
split_feature=44 44 47 44 48
split_gain=29.8139 21.3626 5.05814 0.00421657 0.000265747
threshold=-0.16538933637718142 0.90272102598912363 -0.40278193657286659 -0.85651957084949604 -0.78301047213070307
decision_type=2 2 2 2 2
left_child=3 2 -2 4 -1
right_child=1 -3 -4 -5 -6
leaf_value=-0.049515733955224656 0.078262393600836686 -0.044079863707324349 0.031378371841707157 -0.051291071125469267 -0.05003472475788881
leaf_weight=4.8721797913312912 10.966542601585392 7.3772474378347388 12.100497633218765 8.642798110842703 4.9955391585826892
leaf_count=31 37 44 44 48 30
internal_value=0 0.0299818 0.053668 -0.0504847 -0.0497785
internal_weight=0 30.4443 23.067 18.5105 9.86772
internal_count=234 125 81 109 61
is_linear=0
shrinkage=0.05


Tree=53
num_leaves=6
num_cat=0
split_feature=44 43 3 44 44
split_gain=55.6156 0.000806291 0.000226701 0.000154408 0.000130779
threshold=1.028381068620454 -0.30951812159623526 1.0000000180025095e-35 -0.73085952821816658 -0.60519948558683645
decision_type=2 2 2 2 2
left_child=1 2 4 -3 -1
right_child=-2 3 -4 -5 -6
leaf_value=-0.046239970142036485 0.086255111969043952 -0.047004394474687294 -0.046928539174074767 -0.047390159012022655 -0.046642364356453983
leaf_weight=3.5030397996306393 11.948664069175718 4.6778217107057571 4.0489703938364991 5.8229770734906197 4.7668043896555909
leaf_count=33 40 39 34 46 42
internal_value=0 -0.0468964 -0.046622 -0.0472183 -0.0464719
internal_weight=0 22.8196 12.3188 10.5008 8.26984
internal_count=234 194 109 85 75
is_linear=0
shrinkage=0.05


Tree=54
num_leaves=6
num_cat=0
split_feature=44 47 46 47 48
split_gain=28.2147 0.000437058 3.55274e-05 8.52789e-06 4.0766e-06
threshold=-1.4848197840061459 1.0480088590443242 0.62832158161253837 -0.40278193657286659 -0.44306692186205471
decision_type=2 2 2 2 2
left_child=-1 2 3 4 -2
right_child=1 -3 -4 -5 -6
leaf_value=0.12131859291924317 -0.043190066570667401 -0.044046100512334617 -0.043429942693358585 -0.043256971487749256 -0.043083321497868324
leaf_weight=3.5543581694364557 1.5868771746754635 2.1468211822211742 1.8158861026167867 2.0730300396680827 2.0497209765017033
leaf_count=14 39 38 40 49 54
internal_value=0 -0.0434168 -0.0432373 -0.043176 -0.0431299
internal_weight=0 9.67234 7.52551 5.70963 3.6366
internal_count=234 220 182 142 93
is_linear=0
shrinkage=0.05


Tree=55
num_leaves=5
num_cat=0
split_feature=48 47 45 48
split_gain=24.5629 5.97644e-05 2.82855e-05 9.22937e-06
threshold=-1.1847619406300147 -0.40278193657286659 0.63951728429105625 -0.44306692186205471
decision_type=2 2 2 2
left_child=-1 3 -3 -2
right_child=1 2 -4 -5
leaf_value=0.081163649203660787 -0.043669217119112064 -0.043925066310111255 -0.043714377821801972 -0.043527601701824389
leaf_weight=6.1119543015956905 2.0404693447053432 3.3407486118376228 3.0450477451086044 2.637858211994172
leaf_count=26 39 58 57 54
internal_value=0 -0.0437251 -0.0438246 -0.0435894
internal_weight=0 11.0641 6.3858 4.67833
internal_count=234 208 115 93
is_linear=0
shrinkage=0.05


Tree=56
num_leaves=6
num_cat=0
split_feature=44 46 44 47 43
split_gain=36.1221 8.01898 0.00657702 0.000922328 3.2867e-06
threshold=-0.98217961348082616 0.62832158161253837 1.0000000180025095e-35 -0.40278193657286659 1.1893634592811499
decision_type=2 2 2 2 2
left_child=-1 2 -2 4 -4
right_child=1 -3 3 -5 -6
leaf_value=0.062425329811836898 -0.050091722637810268 0.011627305791554746 -0.047793274752335878 -0.048544514741779558 -0.047730113585744506
leaf_weight=15.257123202085493 5.8625699579715791 7.4696132689714423 4.2573861479759234 6.9531119465827897 3.9899940937757492
leaf_count=55 37 32 32 48 30
internal_value=0 -0.032884 -0.048669 -0.0481203 -0.0477627
internal_weight=0 28.5327 21.0631 15.2005 8.24738
internal_count=234 179 147 110 62
is_linear=0
shrinkage=0.05


Tree=57
num_leaves=7
num_cat=0
split_feature=44 3 44 46 43 43
split_gain=12.1467 15.3266 19.0311 2.54818 0.010357 0.00533563
threshold=-0.85651957084949604 1.0000000180025095e-35 1.0000000180025095e-35 -0.49873967269484426 -1.0013096204627205 -0.078920955307406782
decision_type=2 2 2 2 2 2
left_child=4 2 3 -2 -1 -4
right_child=1 -3 5 -5 -6 -7
leaf_value=-0.051513078545576664 0.059029620665068228 0.086323230587791372 -0.049581271869862199 0.016894136775456474 -0.04816228492997935 -0.047452341328404993
leaf_weight=4.5491696000099182 6.9279768466949463 6.1409119367599478 5.5523229688405964 7.4431855231523532 4.6769848614931089 6.262727953493596
leaf_count=27 28 23 38 35 34 49
internal_value=0 0.0152297 -0.00144237 0.0372066 -0.0498145 -0.0484528
internal_weight=0 32.3271 26.1862 14.3712 9.22615 11.8151
internal_count=234 173 150 63 61 87
is_linear=0
shrinkage=0.05


Tree=58
num_leaves=6
num_cat=0
split_feature=46 43 43 31 48
split_gain=27.7294 34.3978 0.546247 0.341671 0.0509309
threshold=1.0000000180025095e-35 0.15167621098142162 -0.30951812159623526 1.0000000180025095e-35 -0.90662630859202975
decision_type=2 2 2 2 2
left_child=1 3 4 -1 -2
right_child=2 -3 -4 -5 -6
leaf_value=0.063789845689424973 -0.049137041472050537 -0.049444452670727938 -0.035335672231348599 0.077304035314782277 -0.055735700576563074
leaf_weight=9.5614739209413564 6.5346454456448555 8.8034461140632612 8.2644037604331952 9.1553568840026855 5.2926465719938296
leaf_count=34 43 56 45 31 25
internal_value=0 0.0320632 -0.0451983 0.0704003 -0.0520899
internal_weight=0 27.5203 20.0917 18.7168 11.8273
internal_count=234 121 113 65 68
is_linear=0
shrinkage=0.05


Tree=59
num_leaves=6
num_cat=0
split_feature=44 43 3 44 44
split_gain=50.0284 0.000724354 0.000248611 0.000202858 9.65169e-05
threshold=1.028381068620454 -0.30951812159623526 1.0000000180025095e-35 -0.73085952821816658 -0.60519948558683645
decision_type=2 2 2 2 2
left_child=1 2 4 -3 -1
right_child=-2 3 -4 -5 -6
leaf_value=-0.045950609438175256 0.080860097665963832 -0.046644466893134201 -0.046645541185384068 -0.047097846615299511 -0.046306163470198614
leaf_weight=3.313597694039343 11.940212458372114 4.4230968356132507 3.8676537573337555 5.5794470906257647 4.5017371475696564
leaf_count=33 40 39 34 46 42
internal_value=0 -0.0465851 -0.0463177 -0.0468974 -0.0461554
internal_weight=0 21.6855 11.683 10.0025 7.81533
internal_count=234 194 109 85 75
is_linear=0
shrinkage=0.05


Tree=60
num_leaves=6
num_cat=0
split_feature=44 47 46 47 48
split_gain=25.4947 0.000358345 3.69945e-05 9.1742e-06 4.65531e-06
threshold=-1.4848197840061459 1.0480088590443242 0.62832158161253837 -0.40278193657286659 -0.44306692186205471
decision_type=2 2 2 2 2
left_child=-1 2 3 4 -2
right_child=1 -3 -4 -5 -6
leaf_value=0.11234885064140961 -0.043105789050252641 -0.043905949752664139 -0.043354499991947931 -0.043175260810237232 -0.042988293442762338
leaf_weight=3.6872581988573083 1.5035074204206456 2.0369527600705624 1.7407246865332124 1.973926063627004 1.9190928563475607
leaf_count=14 39 38 40 49 54
internal_value=0 -0.043321 -0.0431541 -0.0430894 -0.0430399
internal_weight=0 9.1742 7.13725 5.39653 3.4226
internal_count=234 220 182 142 93
is_linear=0
shrinkage=0.05


Tree=61
num_leaves=5
num_cat=0
split_feature=48 47 45 48
split_gain=22.2755 6.1117e-05 3.14875e-05 1.04988e-05
threshold=-1.1847619406300147 -0.40278193657286659 0.63951728429105625 -0.44306692186205471
decision_type=2 2 2 2
left_child=-1 3 -3 -2
right_child=1 2 -4 -5
leaf_value=0.075253857767898946 -0.043556331144651871 -0.043821523589292644 -0.04359372875637401 -0.043400771309268567
leaf_weight=6.3142670243978527 1.9335726052522657 3.2025452330708477 2.8823766261339188 2.4704043269157419
leaf_count=26 39 58 57 54
internal_value=0 -0.0436109 -0.0437136 -0.0434691
internal_weight=0 10.4889 6.08492 4.40398
internal_count=234 208 115 93
is_linear=0
shrinkage=0.05


Tree=62
num_leaves=6
num_cat=0
split_feature=44 48 44 47 43
split_gain=32.6549 5.98035 0.432219 0.00129332 6.85545e-05
threshold=-0.73085952821816658 -0.90662630859202975 -0.16538933637718142 -0.40278193657286659 -0.30951812159623526
decision_type=2 2 2 2 2
left_child=1 -1 -2 4 -4
right_child=2 -3 3 -5 -6
leaf_value=0.011689894257973048 -0.030780959058548892 0.065361065848998701 -0.047107000659396159 -0.048145412121771466 -0.047380001422188102
leaf_weight=8.7097872346639651 4.9639959484338787 12.844024792313574 4.519852869212631 7.0637927502393696 4.6813004389405251
leaf_count=35 29 45 37 51 37
internal_value=0 0.0436728 -0.0436952 -0.0476366 -0.0472459
internal_weight=0 21.5538 21.2289 16.2649 9.20115
internal_count=234 80 154 125 74
is_linear=0
shrinkage=0.05


Tree=63
num_leaves=8
num_cat=0
split_feature=44 3 44 46 43 44 43
split_gain=11.1985 13.1196 17.256 2.23612 0.00892266 0.00540094 0.00085795
threshold=-0.85651957084949604 1.0000000180025095e-35 1.0000000180025095e-35 -0.49873967269484426 -1.0013096204627205 0.2744208128324736 1.0740648761367357
decision_type=2 2 2 2 2 2 2
left_child=4 2 3 -2 -1 -4 -7
right_child=1 -3 5 -5 -6 6 -8
leaf_value=-0.050915445262359686 0.054965795869911849 0.079292769616803399 -0.049624602862982273 0.015676912084473294 -0.047725816822497269 -0.047802730762292633 -0.046736376294743906
leaf_weight=4.3443592190742493 6.993943452835083 6.2740569561719886 3.6327434480190259 7.5106929689645821 4.4267117306590062 3.8341340497136116 3.7128126695752144
leaf_count=27 28 23 26 35 34 29 32
internal_value=0 0.0144745 -0.00135907 0.0346215 -0.0493057 -0.0480406 -0.0472781
internal_weight=0 31.9584 25.6843 14.5046 8.77107 11.1797 7.54695
internal_count=234 173 150 63 61 87 61
is_linear=0
shrinkage=0.05


Tree=64
num_leaves=6
num_cat=0
split_feature=44 44 47 44 41
split_gain=25.6061 16.9465 4.1056 0.00416549 0.000167617
threshold=-0.16538933637718142 0.90272102598912363 -0.40278193657286659 -0.85651957084949604 1.0000000180025095e-35
decision_type=2 2 2 2 2
left_child=3 2 -2 4 -1
right_child=1 -3 -4 -5 -6
leaf_value=-0.048996452980511349 0.070947985453874221 -0.042470865802386418 0.028231605130530565 -0.050351829451286426 -0.048563620053439907
leaf_weight=4.5195179432630557 10.643512606620792 6.6449398994445792 11.930056780576706 8.0118081867694837 4.4284013360738754
leaf_count=30 37 44 44 48 31
internal_value=0 0.0277127 0.0483725 -0.0495237 -0.0487822
internal_weight=0 29.2185 22.5736 16.9597 8.94792
internal_count=234 125 81 109 61
is_linear=0
shrinkage=0.05


Tree=65
num_leaves=6
num_cat=0
split_feature=44 43 3 44 44
split_gain=45.3543 0.000729477 0.000285555 0.000173117 8.9002e-05
threshold=1.028381068620454 -0.30951812159623526 1.0000000180025095e-35 -0.73085952821816658 -0.60519948558683645
decision_type=2 2 2 2 2
left_child=1 2 4 -3 -1
right_child=-2 3 -4 -5 -6
leaf_value=-0.045632587700727117 0.076533366945529771 -0.046374076254702537 -0.046374831141104959 -0.046802457048179931 -0.045984986235153229
leaf_weight=3.1032326295971853 11.832075864076613 4.2270554900169373 3.6977873668074608 5.3349295631051081 4.2395033314824104
leaf_count=33 40 39 34 46 42
internal_value=0 -0.0462934 -0.0460165 -0.0466131 -0.0458361
internal_weight=0 20.6025 11.0405 9.56199 7.34274
internal_count=234 194 109 85 75
is_linear=0
shrinkage=0.05


end of trees

feature_importances:
Column_44=105
Column_43=62
Column_47=61
Column_48=25
Column_46=23
Column_45=14
Column_3=12
Column_12=6
Column_41=5
Column_31=3
Column_40=3
Column_0=2
Column_4=2
Column_42=2
Column_16=1

parameters:
[boosting: gbdt]
[objective: multiclass]
[metric: custom]
[tree_learner: serial]
[device_type: cpu]
[data_sample_strategy: bagging]
[data: ]
[valid: ]
[num_iterations: 10000]
[learning_rate: 0.05]
[num_leaves: 15]
[num_threads: 0]
[seed: 1243]
[deterministic: 0]
[force_col_wise: 0]
[force_row_wise: 0]
[histogram_pool_size: -1]
[max_depth: -1]
[min_data_in_leaf: 30]
[min_sum_hessian_in_leaf: 0.001]
[bagging_fraction: 0.8]
[pos_bagging_fraction: 1]
[neg_bagging_fraction: 1]
[bagging_freq: 0]
[bagging_seed: 31412]
[feature_fraction: 1]
[feature_fraction_bynode: 1]
[feature_fraction_seed: 28720]
[extra_trees: 0]
[extra_seed: 10290]
[early_stopping_round: 0]
[early_stopping_min_delta: 0]
[first_metric_only: 0]
[max_delta_step: 0]
[lambda_l1: 0]
[lambda_l2: 0]
[linear_lambda: 0]
[min_gain_to_split: 0]
[drop_rate: 0.1]
[max_drop: 50]
[skip_drop: 0.5]
[xgboost_dart_mode: 0]
[uniform_drop: 0]
[drop_seed: 9699]
[top_rate: 0.2]
[other_rate: 0.1]
[min_data_per_group: 100]
[max_cat_threshold: 32]
[cat_l2: 10]
[cat_smooth: 10]
[max_cat_to_onehot: 4]
[top_k: 20]
[monotone_constraints: ]
[monotone_constraints_method: basic]
[monotone_penalty: 0]
[feature_contri: ]
[forcedsplits_filename: ]
[refit_decay_rate: 0.9]
[cegb_tradeoff: 1]
[cegb_penalty_split: 0]
[cegb_penalty_feature_lazy: ]
[cegb_penalty_feature_coupled: ]
[path_smooth: 0]
[interaction_constraints: ]
[verbosity: -1]
[saved_feature_importance_type: 0]
[use_quantized_grad: 0]
[num_grad_quant_bins: 4]
[quant_train_renew_leaf: 0]
[stochastic_rounding: 1]
[linear_tree: 0]
[max_bin: 255]
[max_bin_by_feature: ]
[min_data_in_bin: 3]
[bin_construct_sample_cnt: 200000]
[data_random_seed: 4097]
[is_enable_sparse: 1]
[enable_bundle: 1]
[use_missing: 1]
[zero_as_missing: 0]
[feature_pre_filter: 1]
[pre_partition: 0]
[two_round: 0]
[header: 0]
[label_column: ]
[weight_column: ]
[group_column: ]
[ignore_column: ]
[categorical_feature: ]
[forcedbins_filename: ]
[precise_float_parser: 0]
[parser_config_file: ]
[objective_seed: 17583]
[num_class: 6]
[is_unbalance: 0]
[scale_pos_weight: 1]
[sigmoid: 1]
[boost_from_average: 1]
[reg_sqrt: 0]
[alpha: 0.9]
[fair_c: 1]
[poisson_max_delta_step: 0.7]
[tweedie_variance_power: 1.5]
[lambdarank_truncation_level: 30]
[lambdarank_norm: 1]
[label_gain: ]
[lambdarank_position_bias_regularization: 0]
[eval_at: ]
[multi_error_top_k: 1]
[auc_mu_weights: ]
[num_machines: 1]
[local_listen_port: 12400]
[time_out: 120]
[machine_list_filename: ]
[machines: ]
[gpu_platform_id: -1]
[gpu_device_id: -1]
[gpu_use_dp: 0]
[num_gpu: 1]

end of parameters

pandas_categorical:null
