tree
version=v4
num_class=6
num_tree_per_iteration=6
label_index=0
max_feature_idx=516
objective=multiclass num_class:6
feature_names=Column_0 Column_1 Column_2 Column_3 Column_4 Column_5 Column_6 Column_7 Column_8 Column_9 Column_10 Column_11 Column_12 Column_13 Column_14 Column_15 Column_16 Column_17 Column_18 Column_19 Column_20 Column_21 Column_22 Column_23 Column_24 Column_25 Column_26 Column_27 Column_28 Column_29 Column_30 Column_31 Column_32 Column_33 Column_34 Column_35 Column_36 Column_37 Column_38 Column_39 Column_40 Column_41 Column_42 Column_43 Column_44 Column_45 Column_46 Column_47 Column_48 Column_49 Column_50 Column_51 Column_52 Column_53 Column_54 Column_55 Column_56 Column_57 Column_58 Column_59 Column_60 Column_61 Column_62 Column_63 Column_64 Column_65 Column_66 Column_67 Column_68 Column_69 Column_70 Column_71 Column_72 Column_73 Column_74 Column_75 Column_76 Column_77 Column_78 Column_79 Column_80 Column_81 Column_82 Column_83 Column_84 Column_85 Column_86 Column_87 Column_88 Column_89 Column_90 Column_91 Column_92 Column_93 Column_94 Column_95 Column_96 Column_97 Column_98 Column_99 Column_100 Column_101 Column_102 Column_103 Column_104 Column_105 Column_106 Column_107 Column_108 Column_109 Column_110 Column_111 Column_112 Column_113 Column_114 Column_115 Column_116 Column_117 Column_118 Column_119 Column_120 Column_121 Column_122 Column_123 Column_124 Column_125 Column_126 Column_127 Column_128 Column_129 Column_130 Column_131 Column_132 Column_133 Column_134 Column_135 Column_136 Column_137 Column_138 Column_139 Column_140 Column_141 Column_142 Column_143 Column_144 Column_145 Column_146 Column_147 Column_148 Column_149 Column_150 Column_151 Column_152 Column_153 Column_154 Column_155 Column_156 Column_157 Column_158 Column_159 Column_160 Column_161 Column_162 Column_163 Column_164 Column_165 Column_166 Column_167 Column_168 Column_169 Column_170 Column_171 Column_172 Column_173 Column_174 Column_175 Column_176 Column_177 Column_178 Column_179 Column_180 Column_181 Column_182 Column_183 Column_184 Column_185 Column_186 Column_187 Column_188 Column_189 Column_190 Column_191 Column_192 Column_193 Column_194 Column_195 Column_196 Column_197 Column_198 Column_199 Column_200 Column_201 Column_202 Column_203 Column_204 Column_205 Column_206 Column_207 Column_208 Column_209 Column_210 Column_211 Column_212 Column_213 Column_214 Column_215 Column_216 Column_217 Column_218 Column_219 Column_220 Column_221 Column_222 Column_223 Column_224 Column_225 Column_226 Column_227 Column_228 Column_229 Column_230 Column_231 Column_232 Column_233 Column_234 Column_235 Column_236 Column_237 Column_238 Column_239 Column_240 Column_241 Column_242 Column_243 Column_244 Column_245 Column_246 Column_247 Column_248 Column_249 Column_250 Column_251 Column_252 Column_253 Column_254 Column_255 Column_256 Column_257 Column_258 Column_259 Column_260 Column_261 Column_262 Column_263 Column_264 Column_265 Column_266 Column_267 Column_268 Column_269 Column_270 Column_271 Column_272 Column_273 Column_274 Column_275 Column_276 Column_277 Column_278 Column_279 Column_280 Column_281 Column_282 Column_283 Column_284 Column_285 Column_286 Column_287 Column_288 Column_289 Column_290 Column_291 Column_292 Column_293 Column_294 Column_295 Column_296 Column_297 Column_298 Column_299 Column_300 Column_301 Column_302 Column_303 Column_304 Column_305 Column_306 Column_307 Column_308 Column_309 Column_310 Column_311 Column_312 Column_313 Column_314 Column_315 Column_316 Column_317 Column_318 Column_319 Column_320 Column_321 Column_322 Column_323 Column_324 Column_325 Column_326 Column_327 Column_328 Column_329 Column_330 Column_331 Column_332 Column_333 Column_334 Column_335 Column_336 Column_337 Column_338 Column_339 Column_340 Column_341 Column_342 Column_343 Column_344 Column_345 Column_346 Column_347 Column_348 Column_349 Column_350 Column_351 Column_352 Column_353 Column_354 Column_355 Column_356 Column_357 Column_358 Column_359 Column_360 Column_361 Column_362 Column_363 Column_364 Column_365 Column_366 Column_367 Column_368 Column_369 Column_370 Column_371 Column_372 Column_373 Column_374 Column_375 Column_376 Column_377 Column_378 Column_379 Column_380 Column_381 Column_382 Column_383 Column_384 Column_385 Column_386 Column_387 Column_388 Column_389 Column_390 Column_391 Column_392 Column_393 Column_394 Column_395 Column_396 Column_397 Column_398 Column_399 Column_400 Column_401 Column_402 Column_403 Column_404 Column_405 Column_406 Column_407 Column_408 Column_409 Column_410 Column_411 Column_412 Column_413 Column_414 Column_415 Column_416 Column_417 Column_418 Column_419 Column_420 Column_421 Column_422 Column_423 Column_424 Column_425 Column_426 Column_427 Column_428 Column_429 Column_430 Column_431 Column_432 Column_433 Column_434 Column_435 Column_436 Column_437 Column_438 Column_439 Column_440 Column_441 Column_442 Column_443 Column_444 Column_445 Column_446 Column_447 Column_448 Column_449 Column_450 Column_451 Column_452 Column_453 Column_454 Column_455 Column_456 Column_457 Column_458 Column_459 Column_460 Column_461 Column_462 Column_463 Column_464 Column_465 Column_466 Column_467 Column_468 Column_469 Column_470 Column_471 Column_472 Column_473 Column_474 Column_475 Column_476 Column_477 Column_478 Column_479 Column_480 Column_481 Column_482 Column_483 Column_484 Column_485 Column_486 Column_487 Column_488 Column_489 Column_490 Column_491 Column_492 Column_493 Column_494 Column_495 Column_496 Column_497 Column_498 Column_499 Column_500 Column_501 Column_502 Column_503 Column_504 Column_505 Column_506 Column_507 Column_508 Column_509 Column_510 Column_511 Column_512 Column_513 Column_514 Column_515 Column_516
feature_infos=[0:1] [0:1] [0:1] [0:1] [0:1] [0:1] none [0:1] none none none none [0:1] [0:1] [0:1] none [0:1] none none none none none [0:1] none none [0:1] none none none none none [0:1] none none none none none none [0:1] none [0:1] [0:1] [0:1] [-1.6354518277569989:1.9388042497198423] [-1.6733098479531416:1.7195113030927685] [-1.4038725330980597:1.48091309145128] [-1.3440356134253817:1.4736175223430754] [-1.2490765673495612:3.828691217310606] [-2.3591123870126185:1.9674418891338159] [0.0036339276064532066:0.8939862827595213] [0.0033572512063583491:0.8861297398898238] [0.0048864405052504375:0.96490334864983751] [0.0067769903182550396:0.9383521836028027] [0.00703462580010386:0.97109036365682444] [0.0057069638155222103:0.95487548534478006] [0.0073742551285280733:0.86756224273891314] [0.0073092168802460829:0.83351308812596236] [0.0077683107982827408:0.9340152672836004] [0.012987559296720127:0.9021674708274795] [0.0126172009456859:0.94902289626887015] [0.0082706583872803729:0.92622304117032217] [0.0073742551285280733:0.86756224273891314] [0.0073092168802460829:0.83351308812596236] [0.0077683107982827408:0.9340152672836004] [0.012987559296720127:0.9021674708274795] [0.0126172009456859:0.94902289626887015] [0.0082706583872803729:0.92622304117032217] [0.0063163984044916034:0.84739137434165024] [0.0063700480027415263:0.80855669957631016] [0.0079684015784823141:0.93900347215337299] [0.012878988034912348:0.89376347245042154] [0.010993928626399042:0.95257446031908666] [0.0091069123518219119:0.92771302721839155] [0.0095333330400515157:0.82760892680576859] [0.0095009674345172285:0.79884271563970144] [0.0094854119007993041:0.90378288025568287] [0.012586230607661874:0.88086757035467289] [0.016809439883843487:0.94020171092223115] [0.012555834533641315:0.90112854758214433] [0.0048200643632795668:0.9087244063734321] [0.0051391075066180526:0.88102242286674848] [0.0052924461506506397:0.96801692400288708] [0.0073939833982062638:0.9309416937676559] [0.0050535609262351453:0.96246912348685643] [0.0050259329315786756:0.95848967772380889] [0.0034976758697308919:0.8594980762612614] [0.0037660703672973391:0.87086965435391828] [0.0055189334342453621:0.94020080814127915] [0.010645091283804671:0.92202754564793798] [0.0095281355036604294:0.96243820988572715] [0.0061823608164830483:0.9546860646258748] [0:0.98484848484848486] [0:0.96666666666666667] [0:1] [0:1] [0:1] [0:1] [0:1] [0:0.94117647058823528] [0:1] [0:1] [0:1] [0:1] [0:1] [0:1] [0:1] [0:1] [0:1] [0:1] [0.0045062438209012125:0.90027284341434077] [0.0044716843196470025:0.90762939931724673] [0.0053417324915410562:0.9576360187684525] [0.0085802353298504459:0.94645991779835825] [0.0076132992551612615:0.96597988282651537] [0.0057543323012251724:0.9524874482400143] [0.0023553383318491447:0.85017296080209115] [0.0032115700009539487:0.85581316384609107] [0.0044267961838051753:0.95914499318072088] [0.010849600409728518:0.91766439225415608] [0.0042714071716019085:0.95290014997954386] [0.0037683545784345505:0.96715074886040475] [0.002488441266431842:0.90450619598280013] [0.0027937304538139932:0.86464992562098231] [0.0042614073809665032:0.95959894151388203] [0.0083452773974195364:0.95493044102267377] [0.0072946898161123774:0.97008885024933111] [0.0052865266893035957:0.9537841793061751] [0.0040301087092661607:0.84834175420560087] [0.0041450091862615121:0.85807558247174287] [0.0064177785326560571:0.9412160311896276] [0.012118295564190609:0.9058032371281759] [0.010207694570090556:0.96625441870603468] [0.0070343893015909903:0.94422176564521676] [0.13908939063549042:0.20666894316673279] [0.13910698890686035:0.27281832695007324] [0.13956244289875031:0.28763473033905029] [0.14213205873966217:0.2774309515953064] [0.13939562439918518:0.28867828845977783] [0.13912801444530487:0.2869056761264801] [0:1] [0:0.9285714285714286] [0:1] [0:1] [0:1] [0:1] [0.00084725967031270318:0.95017608137043086] [0.00081130806957249117:0.94285973323871075] [0.0023833730675950032:0.98448757805868081] [0.0017930941095730777:0.9776312518016913] [0.0027050121227796954:0.99089109472255987] [0.001675986857321245:0.97942071013149457] [0.00084725967031270318:0.95017608137043086] [0.00081130806957249117:0.94285973323871075] [0.0023833730675950032:0.98448757805868081] [0.0017930941095730777:0.9776312518016913] [0.0027050121227796954:0.99089109472255987] [0.001675986857321245:0.97942071013149457] [0.00098366893291840056:0.96818077523579293] [0.00095754317572340777:0.93713338546990455] [0.0034257897119779651:0.97987826737294603] [0.0022439031642303496:0.98429458347629606] [0.0031116765423694361:0.98867747725380806] [0.001929308616491029:0.98697849177838126] [7.3515077178645623e-08:0.99670016861688893] [5.8756444622825089e-08:0.999924895402999] [2.0885312434212748e-07:0.99998930059278257] [7.1391476895035578e-07:0.99999408348162178] [8.21815670921978e-07:0.99999825016953781] [2.5565367954300418e-07:0.99998849819358182] [0.00016425284063213732:0.96151167333991705] [0.00021182147456484576:0.97723298269943171] [0.00056294807284021646:0.99155749504365864] [0.00054924496048010349:0.98880089489834078] [0.00069371828660569302:0.99692811922991886] [0.00048787215605582677:0.9911446395304534] [0.00076947707953777867:0.95079194450734805] [0.0007638198786905473:0.9495369131455812] [0.0022160750047098337:0.98681781651433642] [0.001697084463329526:0.98022172369804339] [0.0024256911074390314:0.99137399848543295] [0.0015325943472845216:0.98077389609864307] [8.7044579160186256e-05:0.9507229163894505] [7.8063117796378786e-05:0.96778181959797283] [0.00043847903459276244:0.97658583626114248] [0.0004155223558011703:0.97383645974551181] [0.00027700797177586519:0.99256588042682159] [0.00017688179459414606:0.98773035833194167] [1.1155483319368777e-07:0.99997438293348029] [1.7586804099655648e-07:0.99997915662667569] [2.5815931303311425e-07:0.99999825880639381] [5.9544705233862964e-07:0.99999710874693903] [2.0782131414940186e-07:0.99999755145724545] [1.7918805006289151e-07:0.99999526012746554] [2.5485001856692534e-08:0.99930691047374309] [5.3959242500601731e-08:0.99978759067511214] [4.4186772572997467e-07:0.99998425706048943] [5.3387874311304211e-07:0.9999179868731326] [6.8499989484705014e-07:0.99999452942516087] [2.6132499737774078e-07:0.99997021498791139] [2.1638209212521688e-06:0.99993657380173984] [2.9498507828731926e-06:0.99993455198346959] [8.2191255115854934e-06:0.99996540831433878] [7.844181803814077e-06:0.99996413098053927] [8.932115020753315e-06:0.99997149076902714] [6.2038128933170375e-06:0.99996236987761089] [0:1] [0:0.80000000000000004] [0:1] [0:0.98412698412698418] [0:0.99404761904761907] [0:1] [0.10658284276723862:0.41269540786743164] [0.10660887509584427:0.40573132038116455] [0.11047831177711487:0.44333943724632263] [0.11228420585393906:0.42119994759559631] [0.10142910480499268:0.4445229172706604] [0.10664506256580353:0.43766984343528748] [0:1] [0:0.88043478260869568] [0:1] [0:1] [0:1] [0:1] [0:0.96142530238640078] [0:0.95238095238095244] [0:1] [0:0.96480900052328622] [0:1] [0:1] [0:1] [0:1] [0:1] [0:1] [0:1] [0:1] [0:0.87627828191167578] [0:1] [0:1] [0:0.97727272727272729] [0:1] [0:1] [0.12241785228252411:0.24998968839645386] [0.1224433109164238:0.34070470929145813] [0.12291496247053146:0.36364367604255676] [0.12704657018184662:0.34803497791290283] [0.12575043737888336:0.36540329456329346] [0.12245956808328629:0.36260774731636047] [0.030984485521912575:0.79648047685623169] [0.031156893819570541:0.79634028673171997] [0.031610868871212006:0.84116256237030029] [0.033210881054401398:0.8247828483581543] [0.031391825526952744:0.84088891744613647] [0.031152466312050819:0.83147668838500977] [0.10701868683099747:0.39228329062461853] [0.10714112967252731:0.38697338104248047] [0.11505275964736938:0.4223383367061615] [0.11652280390262604:0.40126520395278931] [0.10671146214008331:0.42143762111663818] [0.10707143694162369:0.41696193814277649] [0.0044402801431715488:0.85945630073547363] [0.0035674262326210737:0.89731639623641968] [0.004769845400005579:0.96891820430755615] [0.0055759008973836899:0.96142607927322388] [0.0045549599453806877:0.96682232618331909] [0.0049431836232542992:0.94987839460372925] [0:0.94876074602922078] [0:0.96666666666666667] [0:1] [0:1] [0:1] [0:1] [0.012154220603406429:0.89407789707183838] [0.012330937199294567:0.89662623405456543] [0.013001606799662113:0.93544042110443115] [0.014314223080873489:0.92383080720901489] [0.012944338843226433:0.93461251258850098] [0.012388387694954872:0.92608475685119629] [0:1] [0:1] [0:1] [0:1] [0:1] [0:1] [0.13978654146194458:0.22793027758598328] [0.13979798555374146:0.234633669257164] [0.13988642394542694:0.24188049137592316] [0.14020194113254547:0.23635716736316681] [0.14026342332363129:0.24328489601612091] [0.13981248438358307:0.24124991893768311] [0.131246417760849:0.24998968839645386] [0.13126064836978912:0.25913128256797791] [0.1313791424036026:0.26935526728630066] [0.13160219788551331:0.26136729121208191] [0.1316770613193512:0.27023077011108398] [0.13127849996089935:0.26792621612548828] [0.12118861079216003:0.28343281149864197] [0.12254738062620163:0.29067254066467285] [0.12141833454370499:0.30982616543769836] [0.13776327669620514:0.29798796772956848] [0.13416361808776855:0.31179642677307129] [0.12124969810247421:0.30710363388061523] [0:0.91166666666666663] [0:0.85257110598735453] [0:1] [0:0.98412698412698418] [0:1] [0:1] [0:0.9493778914464337] [0:1] [0:1] [0:1] [0:1] [0:1] [0:0.97368421052631571] [0:0.76666666666666661] [0:1] [0:0.97727272727272729] [0:0.99193548387096775] [0:1] [3.5469102077525198e-08:0.93009200636081779] [7.400960838600944e-07:0.92695141966479322] [3.2700177091005269e-06:0.99226311396150024] [0.00017323954410493821:0.95901634371496303] [3.249332071804159e-05:0.98355855107982915] [2.2847414475530757e-07:0.99155886720273301] [0:0.98484848484848486] [0:1] [0:1] [0:0.97060593176659671] [0:1] [0:1] [0:0.98863636363636365] [0:1] [0:1] [0:1] [0:1] [0:1] [0:0.9681481481481482] [0:0.80846822932053997] [0:1] [0:0.97368421052631582] [0:1] [0:1] [0:0.87168764541270616] [0:0.88235294117647056] [0:1] [0:0.97368421052631571] [0:1] [0:1] [0:0.94117647058823517] [0:0.82761049991655289] [0:1] [0:0.9372294372294373] [0:1] [0:1] none none [0:1] [0:1] [0:1] [0:1] none [0:1] [0:1] [0:1] [0:1] [0:1] none [0:1] [0:1] [0:1] [0:1] [0:1] none [0:1] [0:1] [0:1] [0:1] [0:1] none [0:1] [0:1] [0:1] [0:1] [0:1] none [0:1] [0:1] [0:1] [0:1] [0:1] [0:1] [0:0.74053030303030298] [0:0.9893617021276595] [0:1] [0:1] [0:1] [6.1336983224002179e-07:0.98829343819876836] [5.5213450972562126e-10:0.9935905971063892] [1.1232065183954866e-09:0.99442149345797659] [1.5428622012164288e-05:0.97954781550707193] [2.8260854352168364e-07:0.99844085060327192] [5.53752107253629e-11:0.42908519019893282] [1.788284956535222e-08:0.96533806293904256] [6.6094637726168732e-06:0.9816652774553456] [1.2431122496591296e-05:0.9998192347881274] [4.4275286559210855e-06:0.99982292652119764] [2.2622772290978688e-08:0.99760902225206338] [4.0256628274222216e-06:0.99953031257955993] none none [0:1] [0:1] [0:1] [0:1] [8.3981736270191639e-25:0.99997620350992011] [1.964077001555471e-31:0.99999999999825318] [5.7160419402612369e-15:0.99999999999551603] [2.5832464358780012e-16:0.99999996628258181] [1.6431502489276999e-22:0.99999999999954148] [1.2002751357501021e-21:0.99999997309471989] none none [0:1] [0:1] [0:1] [0:1] [1.1007448704395452e-20:0.99407938450540634] [2.6826082229194631e-19:0.99479084627989989] [3.5097411618586029e-16:0.99999999983559751] [1.9682210982249872e-13:0.99999959883897716] [7.9443552565040945e-11:0.99999997861572365] [8.7847309692349161e-13:0.99999997422978115] [3.3676169194165143e-17:0.99999985439492056] [3.2091506574416116e-15:0.99899054309869961] [4.2874988013530584e-18:0.99999512373100208] [2.183052947718365e-12:0.99999999887432001] [1.1038510921506839e-21:0.99999955761089854] [3.0158571869959983e-18:0.99999972717816776] [9.3653910646587567e-07:0.9817531651195992] [1.2014589766129516e-07:0.96729131932995471] [7.2110265367888771e-06:0.99984700935042869] [6.1084720641076693e-06:0.99880277546646778] [2.255721968532311e-06:0.99920331699132292] [6.0392785666653201e-06:0.99971098293070804] none [0:1] [0:1] [0:1] [0:1] [0:1] [0:0.99999994029404116] [0:0.99993035792131113] [6.1636166829318494e-30:0.99999999978157805] [0:0.99999864363982238] [0:1] [5.2237710226689359e-35:1] [0:1] [0:1] [0:1] [0:1] [0:1] [0:1] [0:0.99983252330129979] [0:0.99972238462111729] [0:1] [5.225674909547022e-28:0.99999924602430901] [1.0181298621557342e-21:0.99999999990720712] [4.8901906042229303e-27:1] none [0:1] [0:1] [0:1] [0:1] [0:1] [1.9506618886311655e-15:0.98088128169930822] [7.4314990166940611e-14:0.99559168255585495] [1.3019582145813423e-12:0.99996386878810617] [1.3659821305496243e-07:0.99995442142662672] [4.250988809034266e-08:0.99983584436864448] [1.4053388121725818e-07:0.99999951774864637] none [0:1] [0:1] [0:1] [0:1] [0:1] [3.1256766794058529e-12:0.99807987454502178] [3.3592298055462376e-14:0.99535832549566894] [7.6890986781779424e-13:0.99799400177850139] [1.4146501725329393e-08:0.99992797480105611] [5.0592531616066958e-07:0.99971702332325896] [1.7802609694310675e-06:0.99994893497154147] [0:1] [0:1] [0:1] [0:1] [0:1] [0:1] [0:1] [0:1] [0:1] [0:1] [0:1] [0:1] none none [0:0.92592592592592593] [0:1] [0:1] [0:1] [0:1] [0:0.73913043478260865] [0:0.96226415094339623] [0:1] [0:1] [0:1]
tree_sizes=453 451 452 662 453 659 985 1313 1199 1198 1099 991

Tree=0
num_leaves=3
num_cat=0
split_feature=47 49
split_gain=142.911 1.77636e-15
threshold=2.4987996546615152 0.0078388829934377749
decision_type=2 2
left_child=1 -1
right_child=-2 -3
leaf_value=-2.925353125316946 -0.84179142044962108 -2.9253531253169465
leaf_weight=2.3757395222783115 1.4398421347141255 13.030571319162844
leaf_count=33 20 181
internal_value=-2.74727 -2.92535
internal_weight=0 15.4063
internal_count=234 214
is_linear=0
shrinkage=1


Tree=1
num_leaves=3
num_cat=0
split_feature=74 43
split_gain=163.459 1.77636e-15
threshold=0.18340571045743356 1.0740648761367357
decision_type=2 2
left_child=1 -1
right_child=-2 -3
leaf_value=-2.8018312758989592 -0.69906640942357545 -2.8018312758989592
leaf_weight=14.552268683910375 1.6169187426567067 2.7487618625164023
leaf_count=180 20 34
internal_value=-2.62211 -2.80183
internal_weight=0 17.301
internal_count=234 214
is_linear=0
shrinkage=1


Tree=2
num_leaves=3
num_cat=0
split_feature=135 72
split_gain=190.448 0.148977
threshold=0.16750194132328036 0.060265298742736291
decision_type=2 2
left_child=-1 -2
right_child=1 -3
leaf_value=-1.6658650269493065 -0.73889703233578474 -0.78524543206646102
leaf_weight=38.404777377843857 7.7672583460807783 4.3151435256004333
leaf_count=178 36 20
internal_value=-1.44799 -0.75545
internal_weight=0 12.0824
internal_count=234 56
is_linear=0
shrinkage=1


Tree=3
num_leaves=5
num_cat=0
split_feature=52 148 43 233
split_gain=184.237 0.24418 0.148858 7.10543e-15
threshold=0.31031974926193562 0.16188215022962874 1.0000000180025095e-35 0.23049269256496888
decision_type=2 2 2 2
left_child=1 3 -2 -1
right_child=2 -3 -4 -5
leaf_value=-1.8763946397622431 -0.83934918797100355 -1.8218133001942831 -0.78476784840304403 -1.8763946397622431
leaf_weight=19.603769794106483 3.6642560362815839 3.6642560362815848 4.3971072435379028 11.542406514286997
leaf_count=107 20 20 24 63
internal_value=-1.67113 -1.87065 -0.809578 -1.87639
internal_weight=0 34.8104 8.06136 31.1462
internal_count=234 190 44 170
is_linear=0
shrinkage=1


Tree=4
num_leaves=3
num_cat=0
split_feature=359 31
split_gain=195 2.84217e-14
threshold=0.49741323762996653 1.0000000180025095e-35
decision_type=2 2
left_child=-1 -2
right_child=1 -3
leaf_value=-1.4707531820631727 -0.66228397768873959 -0.66228397768873948
leaf_weight=41.065263599157333 7.6688142865896234 9.153100922703743
leaf_count=166 31 37
internal_value=-1.23581 -0.662284
internal_weight=0 16.8219
internal_count=234 68
is_linear=0
shrinkage=1


Tree=5
num_leaves=5
num_cat=0
split_feature=44 0 44 44
split_gain=195 3.55271e-15 3.55271e-15 1.77636e-15
threshold=1.028381068620454 1.0000000180025095e-35 -0.85651957084949604 -0.35387940032417631
decision_type=2 2 2 2
left_child=1 2 -1 -3
right_child=-2 3 -4 -5
leaf_value=-2.0959529635695229 -0.78568735352862995 -2.0959529635695233 -2.0959529635695233 -2.0959529635695229
leaf_weight=4.7318649441003826 5.3424281626939765 9.4637298882007581 12.516545981168745 3.6633793115615871
leaf_count=31 35 62 82 24
internal_value=-1.89997 -2.09595 -2.09595 -2.09595
internal_weight=0 30.3755 17.2484 13.1271
internal_count=234 199 113 86
is_linear=0
shrinkage=1


Tree=6
num_leaves=8
num_cat=0
split_feature=61 86 198 288 120 431 94
split_gain=32.1586 0.034881 5.72207e-06 3.9226e-07 1.61072e-07 8.68337e-08 5.11309e-08
threshold=0.46609070419188475 0.081020626286608013 0.066627372773555529 0.15962629020214084 0.01369182400207814 0.0029003777766274095 0.14473404916724927
decision_type=2 2 2 2 2 2 2
left_child=1 2 3 4 -1 -6 -7
right_child=-2 -3 -4 -5 5 6 -8
leaf_value=-0.17532419159529905 0.45888688327962579 -0.20165387571290783 -0.17485956231435612 -0.17514519316683314 -0.17521361553171988 -0.17525141710122741 -0.17530178662158563
leaf_weight=1.4081270061433331 4.1631326079368582 2.4568617641925803 1.8742598742246617 1.3266230411827562 1.8931107707321642 2.8510512337088589 1.123926270753145
leaf_count=25 15 30 35 24 34 51 20
internal_value=0 -0.180206 -0.175176 -0.175245 -0.175263 -0.175249 -0.175266
internal_weight=0 12.934 10.4771 8.60284 7.27622 5.86809 3.97498
internal_count=234 219 189 154 130 105 71
is_linear=0
shrinkage=0.2


Tree=7
num_leaves=11
num_cat=0
split_feature=74 56 157 198 349 47 137 443 310 57
split_gain=32.8714 0.0441849 2.50417e-05 9.7539e-06 2.41213e-06 5.34456e-07 1.17181e-07 8.56275e-08 2.52524e-08 2.9727e-10
threshold=0.32125302791987725 0.12820344118071256 0.028409158538550607 0.066627372773555529 1.0000000180025095e-35 -1.0072781014133625 0.15939496457576754 0.03765872795120713 0.081650539405501918 0.025399867312953097
decision_type=2 2 2 2 2 2 2 2 2 2
left_child=1 2 3 4 5 -1 -7 -8 9 -9
right_child=-2 -3 -4 -5 -6 6 7 8 -10 -11
leaf_value=-0.17631094715060808 0.42371694116124925 -0.21553455406543059 -0.17542052719622356 -0.1759970128112904 -0.17672090773516469 -0.17650859641889985 -0.17639504664972241 -0.17644631490364135 -0.17647829478510252 -0.17644231571314806
leaf_weight=1.2409598529338799 4.8644050061702719 1.2616938911378373 1.1846305914223183 2.1069718971848479 1.3455189540982235 1.2635043710470251 1.2505837976932523 1.8219088464975359 1.2601252794265745 1.2560283280909059
leaf_count=20 17 11 21 35 21 20 20 29 20 20
internal_value=0 -0.179834 -0.176296 -0.176386 -0.176473 -0.176432 -0.176454 -0.176441 -0.176454 -0.176445
internal_weight=0 13.9919 12.7302 11.5456 9.43863 8.09311 6.85215 5.58865 4.33806 3.07794
internal_count=234 217 206 185 150 129 109 89 69 49
is_linear=0
shrinkage=0.2


Tree=8
num_leaves=10
num_cat=0
split_feature=255 150 139 43 293 134 149 51 43
split_gain=88.8568 0.510921 0.00160072 0.000816443 0.000399024 4.58029e-05 2.56144e-05 4.47679e-08 8.88178e-16
threshold=0.17071375995874408 0.023015460493584178 0.0081496956719998431 -0.88601103731830644 0.15702421963214877 0.16168484091758731 0.57047824055807739 0.035679816047531156 -0.42481670474064953
decision_type=2 2 2 2 2 2 2 2 2
left_child=2 -2 3 -1 5 -5 -6 8 -8
right_child=1 -3 -4 4 6 -7 7 -9 -10
leaf_value=-0.20394331924298356 0.32931653000214389 0.40386728691916496 -0.19716534935627528 -0.19994014762451956 -0.20081599300966591 -0.19888376299853877 -0.20143560210798872 -0.20146306821946905 -0.20143560210798939
leaf_weight=3.6742207854986253 5.5256480574607876 10.991814598441122 4.6980593651533118 3.3289640545845058 3.3870191276073447 3.2392905205488205 4.1130133867263847 3.4292705357074738 3.5988867133855749
leaf_count=21 20 38 30 20 20 20 24 20 21
internal_value=0 0.378928 -0.20055 -0.201192 -0.200713 -0.199419 -0.201298 -0.201444 -0.201436
internal_weight=0 16.5175 29.4687 24.7707 21.0964 6.56825 14.5282 11.1412 7.7119
internal_count=234 58 176 146 125 40 85 65 45
is_linear=0
shrinkage=0.2


Tree=9
num_leaves=10
num_cat=0
split_feature=400 312 478 397 50 60 67 57 54
split_gain=77.8802 0.293186 0.00202764 0.000830656 0.000291269 2.73114e-05 1.88067e-05 6.77459e-07 2.52409e-07
threshold=0.3619931315017883 0.0063164983164983183 0.063722832704934021 0.0031021494225620693 0.071773732607850527 0.60028903664789035 0.062071883288260542 0.37056586100917061 0.028376726725877034
decision_type=2 2 2 2 2 2 2 2 2
left_child=2 -2 3 6 5 -5 7 8 -1
right_child=1 -3 -4 4 -6 -7 -8 -9 -10
leaf_value=-0.19376180643120505 0.36875998181650382 0.42993561498957678 -0.19857188970740056 -0.19165028704848319 -0.18961183449040761 -0.19247591050994672 -0.19431365838769019 -0.19368454875195334 -0.19383629254554777
leaf_weight=4.9075420498848015 5.3094806447625142 7.6466007381677628 2.8583374395966521 2.7200408279895765 2.524213045835495 3.9013105034828186 3.0746947824954978 3.6010690033435822 2.8922200947999954
leaf_count=34 20 27 19 20 20 28 21 25 20
internal_value=0 0.404865 -0.193541 -0.192932 -0.19144 -0.192137 -0.193875 -0.193756 -0.193789
internal_weight=0 12.9561 26.4794 23.6211 9.14556 6.62135 14.4755 11.4008 7.79976
internal_count=234 47 187 168 68 48 100 79 54
is_linear=0
shrinkage=0.2


Tree=10
num_leaves=9
num_cat=0
split_feature=269 48 397 427 415 324 68 42
split_gain=98.5259 0.00538221 0.00132939 0.000347924 0.000199002 0.000104367 5.07697e-05 1.46183e-05
threshold=0.3778553049965731 -1.1847619406300147 0.052961327569306507 4.4968452375467957e-06 5.5532838972161935e-06 0.0078292921402946629 0.049646256230530185 1.0000000180025095e-35
decision_type=2 2 2 2 2 2 2 2
left_child=1 -1 3 5 -4 7 -2 -3
right_child=6 2 4 -5 -6 -7 -8 -9
leaf_value=-0.20301325029508155 0.35395162682617476 -0.21070621723470562 -0.20889520526640296 -0.21267871970815189 -0.20689632323466278 -0.20983182548818841 0.35464531381832548 -0.21119145671474279
leaf_weight=5.0642475932836559 14.351137161254885 4.7613023519516045 4.2570464164018613 4.0488366633653632 3.7447455823421478 4.9014059752225867 5.9782788157463065 5.1907737702131271
leaf_count=29 48 24 22 20 20 25 20 26
internal_value=0 -0.208995 -0.210121 -0.211035 -0.20796 -0.210587 0.354156 -0.210959
internal_weight=0 31.9684 26.9041 18.9023 8.00179 14.8535 20.3294 9.95208
internal_count=234 166 137 95 42 75 68 50
is_linear=0
shrinkage=0.2


Tree=11
num_leaves=8
num_cat=0
split_feature=44 182 475 297 16 232 149
split_gain=65.4623 0.000577589 8.77674e-05 2.66091e-05 4.96812e-06 1.20335e-06 1.19811e-07
threshold=1.028381068620454 0.086901046236365923 0.005805391905864289 0.19105106592178348 1.0000000180025095e-35 0.045016328294837073 0.74778800720620386
decision_type=2 2 2 2 2 2 2
left_child=1 2 3 4 5 6 -1
right_child=-2 -3 -4 -5 -6 -7 -8
leaf_value=-0.18769091186523304 0.42455367297241553 -0.18464773879920507 -0.18648043666535985 -0.18838216146475917 -0.18752271011369054 -0.18787181338530753 -0.18774512836259272
leaf_weight=2.3872075229883283 10.000876456499098 2.9249512106180182 2.2672569081187239 2.6797812432050696 4.5073490440845481 3.364316999912262 5.1428053602576256
leaf_count=20 35 28 20 22 38 28 43
internal_value=0 -0.187276 -0.187653 -0.187801 -0.187699 -0.187772 -0.187728
internal_weight=0 23.2737 20.3487 18.0815 15.4017 10.8943 7.53001
internal_count=234 199 171 151 129 91 63
is_linear=0
shrinkage=0.2


end of trees

feature_importances:
Column_43=4
Column_44=4
Column_47=2
Column_57=2
Column_74=2
Column_149=2
Column_198=2
Column_397=2
Column_0=1
Column_16=1
Column_31=1
Column_42=1
Column_48=1
Column_49=1
Column_50=1
Column_51=1
Column_52=1
Column_54=1
Column_56=1
Column_60=1
Column_61=1
Column_67=1
Column_68=1
Column_72=1
Column_86=1
Column_94=1
Column_120=1
Column_134=1
Column_135=1
Column_137=1
Column_139=1
Column_148=1
Column_150=1
Column_157=1
Column_182=1
Column_232=1
Column_233=1
Column_255=1
Column_269=1
Column_288=1
Column_293=1
Column_297=1
Column_310=1
Column_312=1
Column_324=1
Column_349=1
Column_359=1
Column_400=1
Column_415=1
Column_427=1
Column_431=1
Column_443=1
Column_475=1
Column_478=1

parameters:
[boosting: gbdt]
[objective: multiclass]
[metric: custom]
[tree_learner: serial]
[device_type: cpu]
[data_sample_strategy: bagging]
[data: ]
[valid: ]
[num_iterations: 10000]
[learning_rate: 0.2]
[num_leaves: 63]
[num_threads: 0]
[seed: 1239]
[deterministic: 0]
[force_col_wise: 0]
[force_row_wise: 0]
[histogram_pool_size: -1]
[max_depth: -1]
[min_data_in_leaf: 20]
[min_sum_hessian_in_leaf: 0.001]
[bagging_fraction: 1]
[pos_bagging_fraction: 1]
[neg_bagging_fraction: 1]
[bagging_freq: 0]
[bagging_seed: 21187]
[feature_fraction: 0.5]
[feature_fraction_bynode: 1]
[feature_fraction_seed: 30770]
[extra_trees: 0]
[extra_seed: 27351]
[early_stopping_round: 0]
[early_stopping_min_delta: 0]
[first_metric_only: 0]
[max_delta_step: 0]
[lambda_l1: 0]
[lambda_l2: 0]
[linear_lambda: 0]
[min_gain_to_split: 0]
[drop_rate: 0.1]
[max_drop: 50]
[skip_drop: 0.5]
[xgboost_dart_mode: 0]
[uniform_drop: 0]
[drop_seed: 3778]
[top_rate: 0.2]
[other_rate: 0.1]
[min_data_per_group: 100]
[max_cat_threshold: 32]
[cat_l2: 10]
[cat_smooth: 10]
[max_cat_to_onehot: 4]
[top_k: 20]
[monotone_constraints: ]
[monotone_constraints_method: basic]
[monotone_penalty: 0]
[feature_contri: ]
[forcedsplits_filename: ]
[refit_decay_rate: 0.9]
[cegb_tradeoff: 1]
[cegb_penalty_split: 0]
[cegb_penalty_feature_lazy: ]
[cegb_penalty_feature_coupled: ]
[path_smooth: 0]
[interaction_constraints: ]
[verbosity: -1]
[saved_feature_importance_type: 0]
[use_quantized_grad: 0]
[num_grad_quant_bins: 4]
[quant_train_renew_leaf: 0]
[stochastic_rounding: 1]
[linear_tree: 0]
[max_bin: 255]
[max_bin_by_feature: ]
[min_data_in_bin: 3]
[bin_construct_sample_cnt: 200000]
[data_random_seed: 4084]
[is_enable_sparse: 1]
[enable_bundle: 1]
[use_missing: 1]
[zero_as_missing: 0]
[feature_pre_filter: 1]
[pre_partition: 0]
[two_round: 0]
[header: 0]
[label_column: ]
[weight_column: ]
[group_column: ]
[ignore_column: ]
[categorical_feature: ]
[forcedbins_filename: ]
[precise_float_parser: 0]
[parser_config_file: ]
[objective_seed: 9093]
[num_class: 6]
[is_unbalance: 0]
[scale_pos_weight: 1]
[sigmoid: 1]
[boost_from_average: 1]
[reg_sqrt: 0]
[alpha: 0.9]
[fair_c: 1]
[poisson_max_delta_step: 0.7]
[tweedie_variance_power: 1.5]
[lambdarank_truncation_level: 30]
[lambdarank_norm: 1]
[label_gain: ]
[lambdarank_position_bias_regularization: 0]
[eval_at: ]
[multi_error_top_k: 1]
[auc_mu_weights: ]
[num_machines: 1]
[local_listen_port: 12400]
[time_out: 120]
[machine_list_filename: ]
[machines: ]
[gpu_platform_id: -1]
[gpu_device_id: -1]
[gpu_use_dp: 0]
[num_gpu: 1]

end of parameters

pandas_categorical:null
