tree
version=v4
num_class=6
num_tree_per_iteration=6
label_index=0
max_feature_idx=516
objective=multiclass num_class:6
feature_names=Column_0 Column_1 Column_2 Column_3 Column_4 Column_5 Column_6 Column_7 Column_8 Column_9 Column_10 Column_11 Column_12 Column_13 Column_14 Column_15 Column_16 Column_17 Column_18 Column_19 Column_20 Column_21 Column_22 Column_23 Column_24 Column_25 Column_26 Column_27 Column_28 Column_29 Column_30 Column_31 Column_32 Column_33 Column_34 Column_35 Column_36 Column_37 Column_38 Column_39 Column_40 Column_41 Column_42 Column_43 Column_44 Column_45 Column_46 Column_47 Column_48 Column_49 Column_50 Column_51 Column_52 Column_53 Column_54 Column_55 Column_56 Column_57 Column_58 Column_59 Column_60 Column_61 Column_62 Column_63 Column_64 Column_65 Column_66 Column_67 Column_68 Column_69 Column_70 Column_71 Column_72 Column_73 Column_74 Column_75 Column_76 Column_77 Column_78 Column_79 Column_80 Column_81 Column_82 Column_83 Column_84 Column_85 Column_86 Column_87 Column_88 Column_89 Column_90 Column_91 Column_92 Column_93 Column_94 Column_95 Column_96 Column_97 Column_98 Column_99 Column_100 Column_101 Column_102 Column_103 Column_104 Column_105 Column_106 Column_107 Column_108 Column_109 Column_110 Column_111 Column_112 Column_113 Column_114 Column_115 Column_116 Column_117 Column_118 Column_119 Column_120 Column_121 Column_122 Column_123 Column_124 Column_125 Column_126 Column_127 Column_128 Column_129 Column_130 Column_131 Column_132 Column_133 Column_134 Column_135 Column_136 Column_137 Column_138 Column_139 Column_140 Column_141 Column_142 Column_143 Column_144 Column_145 Column_146 Column_147 Column_148 Column_149 Column_150 Column_151 Column_152 Column_153 Column_154 Column_155 Column_156 Column_157 Column_158 Column_159 Column_160 Column_161 Column_162 Column_163 Column_164 Column_165 Column_166 Column_167 Column_168 Column_169 Column_170 Column_171 Column_172 Column_173 Column_174 Column_175 Column_176 Column_177 Column_178 Column_179 Column_180 Column_181 Column_182 Column_183 Column_184 Column_185 Column_186 Column_187 Column_188 Column_189 Column_190 Column_191 Column_192 Column_193 Column_194 Column_195 Column_196 Column_197 Column_198 Column_199 Column_200 Column_201 Column_202 Column_203 Column_204 Column_205 Column_206 Column_207 Column_208 Column_209 Column_210 Column_211 Column_212 Column_213 Column_214 Column_215 Column_216 Column_217 Column_218 Column_219 Column_220 Column_221 Column_222 Column_223 Column_224 Column_225 Column_226 Column_227 Column_228 Column_229 Column_230 Column_231 Column_232 Column_233 Column_234 Column_235 Column_236 Column_237 Column_238 Column_239 Column_240 Column_241 Column_242 Column_243 Column_244 Column_245 Column_246 Column_247 Column_248 Column_249 Column_250 Column_251 Column_252 Column_253 Column_254 Column_255 Column_256 Column_257 Column_258 Column_259 Column_260 Column_261 Column_262 Column_263 Column_264 Column_265 Column_266 Column_267 Column_268 Column_269 Column_270 Column_271 Column_272 Column_273 Column_274 Column_275 Column_276 Column_277 Column_278 Column_279 Column_280 Column_281 Column_282 Column_283 Column_284 Column_285 Column_286 Column_287 Column_288 Column_289 Column_290 Column_291 Column_292 Column_293 Column_294 Column_295 Column_296 Column_297 Column_298 Column_299 Column_300 Column_301 Column_302 Column_303 Column_304 Column_305 Column_306 Column_307 Column_308 Column_309 Column_310 Column_311 Column_312 Column_313 Column_314 Column_315 Column_316 Column_317 Column_318 Column_319 Column_320 Column_321 Column_322 Column_323 Column_324 Column_325 Column_326 Column_327 Column_328 Column_329 Column_330 Column_331 Column_332 Column_333 Column_334 Column_335 Column_336 Column_337 Column_338 Column_339 Column_340 Column_341 Column_342 Column_343 Column_344 Column_345 Column_346 Column_347 Column_348 Column_349 Column_350 Column_351 Column_352 Column_353 Column_354 Column_355 Column_356 Column_357 Column_358 Column_359 Column_360 Column_361 Column_362 Column_363 Column_364 Column_365 Column_366 Column_367 Column_368 Column_369 Column_370 Column_371 Column_372 Column_373 Column_374 Column_375 Column_376 Column_377 Column_378 Column_379 Column_380 Column_381 Column_382 Column_383 Column_384 Column_385 Column_386 Column_387 Column_388 Column_389 Column_390 Column_391 Column_392 Column_393 Column_394 Column_395 Column_396 Column_397 Column_398 Column_399 Column_400 Column_401 Column_402 Column_403 Column_404 Column_405 Column_406 Column_407 Column_408 Column_409 Column_410 Column_411 Column_412 Column_413 Column_414 Column_415 Column_416 Column_417 Column_418 Column_419 Column_420 Column_421 Column_422 Column_423 Column_424 Column_425 Column_426 Column_427 Column_428 Column_429 Column_430 Column_431 Column_432 Column_433 Column_434 Column_435 Column_436 Column_437 Column_438 Column_439 Column_440 Column_441 Column_442 Column_443 Column_444 Column_445 Column_446 Column_447 Column_448 Column_449 Column_450 Column_451 Column_452 Column_453 Column_454 Column_455 Column_456 Column_457 Column_458 Column_459 Column_460 Column_461 Column_462 Column_463 Column_464 Column_465 Column_466 Column_467 Column_468 Column_469 Column_470 Column_471 Column_472 Column_473 Column_474 Column_475 Column_476 Column_477 Column_478 Column_479 Column_480 Column_481 Column_482 Column_483 Column_484 Column_485 Column_486 Column_487 Column_488 Column_489 Column_490 Column_491 Column_492 Column_493 Column_494 Column_495 Column_496 Column_497 Column_498 Column_499 Column_500 Column_501 Column_502 Column_503 Column_504 Column_505 Column_506 Column_507 Column_508 Column_509 Column_510 Column_511 Column_512 Column_513 Column_514 Column_515 Column_516
feature_infos=[0:1] [0:1] none [0:1] [0:1] [0:1] none [0:1] none none none none [0:1] [0:1] none none [0:1] none none none none none [0:1] none none [0:1] none none none none none [0:1] none none none none none none [0:1] none [0:1] [0:1] [0:1] [-1.6354518277569989:1.9388042497198423] [-1.6733098479531416:1.7195113030927685] [-1.4038725330980597:1.48091309145128] [-1.3440356134253817:1.4736175223430754] [-1.2490765673495612:3.828691217310606] [-2.3591123870126185:1.9674418891338159] [0.0039697134292614525:0.86086485927687295] [0.0051593725997929581:0.87812371349314611] [0.0054948003076005668:0.94627391854068554] [0.0084734104398148363:0.9383521836028027] [0.010205647614125967:0.96791827739259417] [0.004958216688167448:0.94915709079315203] [0.00392760570135959:0.86369822569095733] [0.0055443299861790436:0.80074523472578929] [0.0059143955031524011:0.94887141260311769] [0.009049528173261526:0.94062025418930117] [0.0099704006849774523:0.96796450359205199] [0.0051895252577863291:0.94785114282732263] [0.00392760570135959:0.86369822569095733] [0.0055443299861790436:0.80074523472578929] [0.0059143955031524011:0.94887141260311769] [0.009049528173261526:0.94062025418930117] [0.0099704006849774523:0.96796450359205199] [0.0051895252577863291:0.94785114282732263] [0.017535562127578577:0.64580109428487509] [0.018415339201854841:0.68033607690294773] [0.019330382153278231:0.8270607988194667] [0.028451782170959204:0.78599470206425548] [0.029145316256459143:0.88619508455721507] [0.017667110687357112:0.85725019392090462] [0.010830058381369309:0.77176893089016452] [0.012354049466214557:0.75520882729493599] [0.012518081805850506:0.8842293142714045] [0.02097670115438496:0.88086757035467289] [0.0207525952222249:0.92795404354861055] [0.013161678292250109:0.90112854758214433] [0.0099741168189034814:0.83772080634465163] [0.0099181991850153441:0.76766192596395277] [0.010187227736883492:0.91670945567008233] [0.017517025587488879:0.89364677453322061] [0.014801484877211994:0.93974074484915682] [0.010503563186920877:0.90131061315196703] [0.0019510974135720735:0.89782823907302756] [0.0018105533293324766:0.88113870480110856] [0.0039365189886003153:0.9622783335623355] [0.0067084809683839392:0.96310360468670864] [0.006714427408267388:0.97621910619139529] [0.0025726153136748533:0.96336489701999872] [0:0.98484848484848486] [0:0.96666666666666667] [0:1] [0:1] [0:1] [0:1] [0:1] [0:0.88888888888888884] [0:0.99061342992762469] [0:0.9506172839506174] [0:1] [0:1] [0:1] [0:1] [0:1] [0:1] [0:1] [0:1] [0.0045062438209012125:0.88661870209773963] [0.0044716843196470025:0.90762939931724673] [0.0053417324915410562:0.9576360187684525] [0.0095545738568579598:0.94645991779835825] [0.0075811889530645587:0.96597988282651537] [0.0057543323012251724:0.9524874482400143] [0.0023553383318491447:0.85451606517152656] [0.0023810803090552352:0.85581316384609107] [0.0044267961838051753:0.95914499318072088] [0.010849600409728518:0.92656470402644064] [0.0042714071716019085:0.96111460659774062] [0.0037683545784345505:0.96715074886040475] [0.002488441266431842:0.87975549036436851] [0.0027937304538139932:0.86464992562098231] [0.0043801307036067704:0.95517038909498686] [0.0096733876271191538:0.95493044102267377] [0.0073037356924065102:0.96844552039330578] [0.0045335987364283955:0.9537841793061751] [0.010553706271409743:0.80104801933631098] [0.010993024382702108:0.76256702855091429] [0.013577357795898446:0.8817791917064246] [0.026225955961942993:0.84034066790687578] [0.022012337562775153:0.91503695962678577] [0.015542724079282616:0.88664158356207867] [0.13908939063549042:0.20666894316673279] [0.13910698890686035:0.27281832695007324] [0.13956244289875031:0.28763473033905029] [0.14213205873966217:0.2774309515953064] [0.13939562439918518:0.28867828845977783] [0.13912801444530487:0.2869056761264801] [0:1] [0:0.9285714285714286] [0:1] [0:1] [0:1] [0:1] [0.004577338606831286:0.78452253080697909] [0.0051570695077997513:0.79975582716482563] [0.01200426612556448:0.91325060030136662] [0.010769696924677566:0.8975925295303766] [0.016197674923258354:0.94207648353318529] [0.0090625038125033679:0.92937680986845006] [0.004577338606831286:0.78452253080697909] [0.0051570695077997513:0.79975582716482563] [0.01200426612556448:0.91325060030136662] [0.010769696924677566:0.8975925295303766] [0.016197674923258354:0.94207648353318529] [0.0090625038125033679:0.92937680986845006] [0.0051066675133047473:0.84052271115505206] [0.0046291760713638892:0.83252158794653708] [0.0114325600118942:0.91606023190757435] [0.013223444576993147:0.91978781565077072] [0.013671277987269923:0.93849559147727479] [0.013090810199030932:0.95193687383917402] [7.3515077178645623e-08:0.99575783772643633] [5.8756444622825089e-08:0.999924895402999] [2.0885312434212748e-07:0.99998930059278257] [7.1391476895035578e-07:0.99999408348162178] [8.21815670921978e-07:0.99999825016953781] [2.5565367954300418e-07:0.99998849819358182] [0.00016425284063213732:0.96151167333991705] [0.00021182147456484576:0.97723298269943171] [0.00056294807284021646:0.99155749504365864] [0.00054924496048010349:0.98880089489834078] [0.00069371828660569302:0.99692811922991886] [0.00048787215605582677:0.9911446395304534] [0.0050140225855960993:0.77951279307742827] [0.0056502416166771879:0.71679178981516412] [0.016168974064519632:0.89173177015919913] [0.010779265799568635:0.85186797883200205] [0.016585546181805404:0.92691593725920329] [0.0094638260501005451:0.89217426682516343] [0.00046623805866558335:0.67116562039012273] [0.00049746938861176132:0.90122866668268409] [0.0010867193841500138:0.93495209251272282] [0.011870580950623611:0.94696403745071267] [0.0069471109723245224:0.97296272328346922] [0.0029475165716471075:0.97153081056509316] [0.0012477687003527153:0.96325992430404694] [0.0016568247140174111:0.95797122030175696] [0.0062416144987265595:0.98155002095339405] [0.0056333805189367316:0.97616447849948895] [0.0055194486758344107:0.97861853685639799] [0.0035671938714617601:0.97538406993491189] [2.5485001856692534e-08:0.99930691047374309] [5.3959242500601731e-08:0.99978759067511214] [4.4186772572997467e-07:0.99998425706048943] [5.3387874311304211e-07:0.9999179868731326] [6.8499989484705014e-07:0.99999452942516087] [2.6132499737774078e-07:0.99997021498791139] [2.1638209212521688e-06:0.99993657380173984] [2.9498507828731926e-06:0.99993455198346959] [8.2191255115854934e-06:0.99996540831433878] [7.844181803814077e-06:0.99996413098053927] [8.932115020753315e-06:0.99997149076902714] [6.2038128933170375e-06:0.99996236987761089] [0:1] [0:0.80000000000000004] [0:1] [0:1] [0:1] [0:1] [0.13659851253032684:0.22758878767490387] [0.13661368191242218:0.27100580930709839] [0.13956922292709351:0.28679525852203369] [0.14240437746047974:0.27628299593925476] [0.13692699372768402:0.28690674901008606] [0.13664095103740692:0.28628423810005188] [0:1] [0:0.88043478260869568] [0:1] [0:1] [0:1] [0:1] [0:0.90671812203142133] [0:0.87660094736181704] [0:1] [0:0.96480900052328622] [0:1] [0:1] [0:1] [0:1] [0:1] [0:1] [0:1] [0:1] [0:0.93796197524654523] [0:1] [0:1] [0:0.97727272727272729] [0:1] [0:1] [0.061446748673915863:0.55358344316482544] [0.061500728130340576:0.55470836162567139] [0.063121899962425232:0.60098737478256226] [0.062065623700618744:0.5819162130355835] [0.069770567119121552:0.6014055609703064] [0.076025158166885376:0.59355634450912476] [0.11944783478975296:0.28839099407196045] [0.11947277933359146:0.28941479325294495] [0.11964906007051468:0.31089106202125549] [0.11981198191642761:0.2977435290813446] [0.13289669156074524:0.31115821003913879] [0.13663247227668762:0.3075617253780365] [0.13659128546714783:0.20722031593322754] [0.13660614192485809:0.27062052488327026] [0.13927607238292694:0.28665491938591003] [0.14290875196456909:0.27630302309989929] [0.13692283630371094:0.288108229637146] [0.1366344690322876:0.28600189089775085] [0.0044402801431715488:0.85945630073547363] [0.0035674262326210737:0.89731639623641968] [0.004769845400005579:0.96891820430755615] [0.0055759008973836899:0.96142607927322388] [0.0045549599453806877:0.96682232618331909] [0.0049431836232542992:0.94987839460372925] [0:0.94876074602922078] [0:0.96666666666666667] [0:0.99922779922779914] [0:1] [0:1] [0:1] [0.028482649475336075:0.77772599458694458] [0.028561007231473923:0.77267009019851685] [0.03108573891222477:0.82996195554733276] [0.032282404601573944:0.81452023983001709] [0.033694878220558167:0.83121222257614136] [0.032290089875459671:0.81928718090057373] [0:1] [0:1] [0:1] [0:1] [0:1] [0:1] [0.11930433660745621:0.29201677441596985] [0.11932674795389175:0.29503971338272095] [0.11949408054351807:0.31432321667671204] [0.11971449106931686:0.30273523926734924] [0.12328489124774933:0.31510967016220093] [0.13217885792255402:0.31149977445602417] [0.11936653405427933:0.2942560613155365] [0.11938899010419846:0.29737189412117004] [0.11955595761537552:0.31755101680755615] [0.11977605521678925:0.30534437298774719] [0.12257660180330276:0.31861716508865356] [0.13127849996089935:0.31459745764732361] [0.12118861079216003:0.28343281149864197] [0.12254738062620163:0.29067254066467285] [0.12141833454370499:0.30982616543769836] [0.13550803065299988:0.29798796772956848] [0.13416361808776855:0.31179642677307129] [0.12124969810247421:0.30710363388061523] [0:0.87478341824059069] [0:0.85257110598735453] [0:1] [0:0.98412698412698418] [0:1] [0:1] [0:0.9493778914464337] [0:1] [0:1] [0:1] [0:1] [0:1] [0:0.86203000846343236] [0:0.72390338941020249] [0:1] [0:0.97727272727272729] [0:0.99411473053905597] [0:1] [3.5469102077525198e-08:0.92616901860408729] [7.400960838600944e-07:0.92695141966479322] [3.2700177091005269e-06:0.99226311396150024] [0.00013792447212993664:0.96432896015732883] [3.249332071804159e-05:0.98355855107982915] [2.0300205025871838e-07:0.99155886720273301] [0:0.98484848484848486] [0:1] [0:1] [0:0.97060593176659671] [0:1] [0:1] [0:0.98863636363636365] [0:1] [0:1] [0:1] [0:1] [0:1] [0:0.8737444100447197] [0:0.80846822932053997] [0:1] [0:0.97368421052631582] [0:1] [0:1] [0:0.93869047619047608] [0:0.88235294117647056] [0:1] [0:0.97368421052631571] [0:1] [0:1] [0:0.94117647058823517] [0:0.7287154337878976] [0:1] [0:0.9372294372294373] [0:1] [0:1] none none [0:1] [0:1] [0:1] [0:1] none none [0:1] [0:1] [0:1] [0:1] none none [0:1] [0:1] [0:1] [0:1] none none [0:1] [0:1] [0:1] [0:1] none none [0:1] [0:1] [0:1] [0:1] none none [0:1] [0:1] [0:1] [0:1] [0:1] [0:0.70563059484082835] [0:0.99747866867432078] [0:0.96230899830220717] [0:1] [0:1] [7.3076583110413965e-09:0.99892635084537307] [7.1010607889464125e-15:0.99602539352146224] [1.3512937692129689e-12:0.99978774014183314] [5.3281184945252335e-09:0.9952592389260394] [1.7915469874881903e-10:0.99936640826428713] [1.5436196036394111e-19:0.99508997731034476] [1.788284956535222e-08:0.96533806293904256] [6.6094637726168732e-06:0.9816652774553456] [1.2431122496591296e-05:0.9998192347881274] [4.4275286559210855e-06:0.99982292652119764] [2.2622772290978688e-08:0.99760902225206338] [4.0256628274222216e-06:0.99953031257955993] [0:1] none [0:1] [0:1] [0:1] [0:1] [8.3981736270191639e-25:0.99997620350992011] [1.964077001555471e-31:0.99999999999825318] [5.7160419402612369e-15:0.99999999999551603] [2.5832464358780012e-16:0.99999996628258181] [1.6431502489276999e-22:0.99999999999954148] [1.2002751357501021e-21:0.99999997309471989] [0:1] none [0:1] [0:1] [0:1] [0:1] [1.1007448704395452e-20:0.99821192601140263] [6.6558172833501029e-20:0.99479084627989989] [3.5097411618586029e-16:0.99999999880311496] [1.9682210982249872e-13:0.99999988559497144] [1.1839391683125976e-09:0.99999997861572365] [8.7847309692349161e-13:0.99999997422978115] [3.3676169194165143e-17:0.99999985439492056] [3.2091506574416116e-15:0.99899054309869961] [1.2505995348883083e-22:0.99999647366202227] [7.1211958295244176e-13:0.99999999999970224] [1.5080028381235451e-26:0.99999992219273592] [3.0158571869959983e-18:0.99999972717816776] [9.3653910646587567e-07:0.9817531651195992] [1.2014589766129516e-07:0.96729131932995471] [7.2110265367888771e-06:0.99984700935042869] [6.1084720641076693e-06:0.99880277546646778] [1.3524324451554952e-06:0.99920331699132292] [6.0392785666653201e-06:0.99971098293070804] [0:1] none [0:1] [0:1] [0:1] [0:1] [0:0.99999999246723925] [0:0.99999989860562477] [0:1] [0:0.99999995753326165] [0:1] [0:0.9999999994472224] [0:1] none [0:1] [0:1] [0:1] [0:1] [1.582593058817267e-32:0.99999987917205935] [6.4371273894514173e-28:0.98040934044114691] [5.5679698558049042e-24:0.99999999947587992] [1.049171234546273e-14:0.99999989048090332] [7.1757290096405521e-15:0.99999999937356754] [1.5953935958399455e-19:0.99999999966751507] [0:1] [0:1] [0:1] [0:1] [0:1] [0:1] [1.9506618886311655e-15:0.99410294358726514] [7.4314990166940611e-14:0.99559168255585495] [1.3019582145813423e-12:0.99996386878810617] [1.3659821305496243e-07:0.99996648640245733] [3.6981284375342404e-08:0.99992016351288482] [4.8536272525897092e-09:0.99999951774864637] [0:1] [0:1] [0:1] [0:1] [0:1] [0:1] [3.1256766794058529e-12:0.99408439309674446] [3.3592298055462376e-14:0.98666536334061838] [7.6890986781779424e-13:0.99799400177850139] [1.4146501725329393e-08:0.99992797480105611] [5.7889140378436276e-06:0.99971702332325896] [1.7802609694310675e-06:0.99994893497154147] [0:1] [0:1] [0:1] [0:1] [0:1] [0:1] [0:1] [0:1] [0:1] [0:1] [0:1] [0:1] [0:1] none [0:0.92592592592592593] [0:1] [0:0.953125] [0:1] [0:1] [0:1] [0:0.91228070175438591] [0:1] [0:0.953125] [0:1]
tree_sizes=561 450 557 557 456 559 1088 1203 661 773 771 990 1202 1317 1091 1102 1198 1099 1324 1321 1208 1097 1199 1097 1322 1426 1205 1202 1202 1086

Tree=0
num_leaves=4
num_cat=0
split_feature=91 0 16
split_gain=174.626 1.77636e-15 8.88178e-16
threshold=0.32355769230769232 1.0000000180025095e-35 1.0000000180025095e-35
decision_type=2 2 2
left_child=1 -1 -3
right_child=-2 2 -4
leaf_value=-2.7497053186835831 -0.6289294486535717 -2.7497053186835831 -2.7497053186835831
leaf_weight=9.0815822184085881 1.6974920034408558 3.9891062080860138 5.1773506104946136
leaf_count=107 20 47 61
internal_value=-2.56921 -2.74971 -2.74971
internal_weight=0 18.248 9.16646
internal_count=235 215 108
is_linear=0
shrinkage=1


Tree=1
num_leaves=3
num_cat=0
split_feature=80 22
split_gain=153.805 1.77636e-15
threshold=0.20292932658072063 1.0000000180025095e-35
decision_type=2 2
left_child=1 -1
right_child=-2 -3
leaf_value=-2.8658400174565974 -0.76443211330384098 -2.865840017456597
leaf_weight=14.390351839363579 1.5227885544300068 1.979625120759011
leaf_count=189 20 26
internal_value=-2.687 -2.86584
internal_weight=0 16.37
internal_count=235 215
is_linear=0
shrinkage=1


Tree=2
num_leaves=4
num_cat=0
split_feature=213 48 48
split_gain=195.833 2.84217e-14 7.10543e-15
threshold=0.17384098470211032 1.3493627068271825 -1.061146104168688
decision_type=2 2 2
left_child=2 -2 -1
right_child=1 -3 -4
leaf_value=-1.5890504772866023 -0.71246319355611454 -0.71246319355611476 -1.5890504772866023
leaf_weight=11.17971922457218 7.9855137318372709 5.7039383798837662 28.747849434614182
leaf_count=49 35 25 126
internal_value=-1.36524 -0.712463 -1.58905
internal_weight=0 13.6895 39.9276
internal_count=235 60 175
is_linear=0
shrinkage=1


Tree=3
num_leaves=4
num_cat=0
split_feature=52 44 44
split_gain=195.833 3.55271e-15 1.77636e-15
threshold=0.32354295505759817 -0.60519948558683645 -0.98217961348082616
decision_type=2 2 2
left_child=1 2 -1
right_child=-2 -3 -4
leaf_value=-2.0208149231446688 -0.79129761626378059 -2.0208149231446688 -2.0208149231446688
leaf_weight=10.410589218139647 6.1812873482704154 17.242538392543793 4.3919673264026633
leaf_count=64 38 106 27
internal_value=-1.822 -2.02081 -2.02081
internal_weight=0 32.0451 14.8026
internal_count=235 197 91
is_linear=0
shrinkage=1


Tree=4
num_leaves=3
num_cat=0
split_feature=167 31
split_gain=195.833 2.84217e-14
threshold=0.45007165013148748 1.0000000180025095e-35
decision_type=2 2
left_child=-1 -2
right_child=1 -3
leaf_value=-1.5155904056136649 -0.68263414518524423 -0.68263414518524446
leaf_weight=40.818468630313873 7.2032591700553867 8.403802365064621
leaf_count=170 30 35
internal_value=-1.2852 -0.682634
internal_weight=0 15.6071
internal_count=235 65
is_linear=0
shrinkage=1


Tree=5
num_leaves=4
num_cat=0
split_feature=102 45 52
split_gain=195.833 3.55271e-15 1.77636e-15
threshold=0.5382270985719263 1.0000000180025095e-35 0.041719119537313491
decision_type=2 2 2
left_child=1 2 -1
right_child=-2 -3 -4
leaf_value=-2.0208149231446688 -0.79129761626378059 -2.0208149231446688 -2.0208149231446688
leaf_weight=5.2052946090698233 6.1812873482704154 17.242538392543793 9.5972619354724866
leaf_count=32 38 106 59
internal_value=-1.822 -2.02081 -2.02081
internal_weight=0 32.0451 14.8026
internal_count=235 197 91
is_linear=0
shrinkage=1


Tree=6
num_leaves=9
num_cat=0
split_feature=79 223 296 396 404 490 51 51
split_gain=32.2965 0.0294064 1.85987e-05 5.16191e-06 4.42257e-07 2.78027e-07 1.82128e-09 4.44089e-16
threshold=0.4808013926371873 0.047720376685893934 0.16235413402318957 0.0016972763618190907 0.0022841847783070493 0.27510623038408583 0.48545941770100914 0.024390174150837256
decision_type=2 2 2 2 2 2 2 2
left_child=1 2 3 5 -5 6 7 -1
right_child=-2 -3 -4 4 -6 -7 -8 -9
leaf_value=-0.1769996462462341 0.39981266891826311 -0.20869594431780203 -0.17608721089510465 -0.17665955728385585 -0.17679376148996753 -0.17689538034634905 -0.17699253184814148 -0.17699964624623421
leaf_weight=2.3087602853775047 5.2507020235061637 1.2676159366965283 1.3237142637372006 2.881770059466362 1.4900716841220853 1.3072594702243803 2.3073583841323853 1.51718533039093
leaf_count=35 18 14 22 45 23 20 35 23
internal_value=0 -0.179605 -0.176798 -0.176878 -0.176705 -0.176979 -0.176997 -0.177
internal_weight=0 14.4037 13.1361 11.8124 4.37184 7.44056 6.1333 3.82595
internal_count=235 217 203 181 68 113 93 58
is_linear=0
shrinkage=0.2


Tree=7
num_leaves=10
num_cat=0
split_feature=74 296 133 312 232 43 46 31 45
split_gain=32.2274 0.0872048 3.53509e-05 3.28172e-06 1.03398e-06 2.99166e-07 1.45806e-09 4.44089e-16 4.44089e-16
threshold=0.32125302791987725 0.1639988794922829 0.16659235209226611 0.0041529589371980683 0.12312534125034126 0.15167621098142162 0.62832158161253837 1.0000000180025095e-35 1.0000000180025095e-35
decision_type=2 2 2 2 2 2 2 2 2
left_child=1 2 3 4 6 -5 7 -1 -8
right_child=-2 -3 -4 5 -6 -7 8 -9 -10
leaf_value=-0.17580457104905625 0.4361548536828681 -0.23238482790553616 -0.17448862562046655 -0.17562679770280376 -0.17559567756803854 -0.17550578153337804 -0.17579833106676468 -0.17580457104905656 -0.17579833106676471
leaf_weight=1.4191477596759816 4.5332355499267569 1.1859077960252751 1.0755832195281971 1.1616880148649218 1.1581023484468458 2.7548444867134094 1.2409945093095303 2.0104593262076378 1.4182794392108917
leaf_count=24 16 7 21 20 20 48 21 34 24
internal_value=0 -0.180601 -0.175584 -0.175689 -0.175769 -0.175542 -0.175802 -0.175805 -0.175798
internal_weight=0 13.425 12.2391 11.1635 7.24698 3.91653 6.08888 3.42961 2.65927
internal_count=235 219 212 191 123 68 103 58 45
is_linear=0
shrinkage=0.2


Tree=8
num_leaves=5
num_cat=0
split_feature=135 153 223 197
split_gain=97.1148 0.154212 0.0026778 0.000329644
threshold=0.17775572091341021 0.69051792696029179 1.0000000180025095e-35 0.37145426596497216
decision_type=2 2 2 2
left_child=2 -2 3 -1
right_child=1 -3 -4 -5
leaf_value=-0.20339076593825067 0.41245600710745817 0.37248926303566166 -0.19922443036284612 -0.2048371802757219
leaf_weight=13.493739068508154 5.7244945764541653 11.867398023605345 5.5747203528881064 11.826432496309279
leaf_count=76 20 40 34 65
internal_value=0 0.385495 -0.203193 -0.204066
internal_weight=0 17.5919 30.8949 25.3202
internal_count=235 60 175 141
is_linear=0
shrinkage=0.2


Tree=9
num_leaves=6
num_cat=0
split_feature=52 79 134 150 44
split_gain=69.0027 0.000788592 8.44013e-05 3.03853e-05 2.46402e-08
threshold=0.32354295505759817 0.074321169928476552 0.16169940680265429 0.082620753653621135 -0.16538933637718142
decision_type=2 2 2 2 2
left_child=1 2 3 4 -1
right_child=-2 -3 -4 -5 -6
leaf_value=-0.18959375202961601 0.41568961573792412 -0.18622502941463495 -0.18845498450383982 -0.18884411389142594 -0.18961067480721808
leaf_weight=6.2506775259971663 10.952533960342405 4.0270932242274275 3.9207313507795325 2.487393043935298 7.6581653952598616
leaf_count=49 38 36 32 20 60
internal_value=0 -0.188782 -0.189289 -0.189488 -0.189603
internal_weight=0 24.3441 20.317 16.3962 13.9088
internal_count=235 197 161 129 109
is_linear=0
shrinkage=0.2


Tree=10
num_leaves=6
num_cat=0
split_feature=329 295 146 87 31
split_gain=96.5606 0.00463902 0.000894054 0.00036377 7.10543e-15
threshold=0.23820818331994806 0.16473932564258578 0.063971281550836437 0.30781487242601063 1.0000000180025095e-35
decision_type=2 2 2 2 2
left_child=1 2 3 -1 -2
right_child=4 -3 -4 -5 -6
leaf_value=-0.20686525409062276 0.36130830923858248 -0.19977466167366534 -0.20415432301300138 -0.20844279191326651 0.36130830923858248
leaf_weight=13.714770764112481 8.9460459351539612 3.960773140192031 3.5934688448905936 10.192019611597059 10.437053591012955
leaf_count=73 30 24 20 53 35
internal_value=0 -0.206174 -0.207096 -0.207538 0.361308
internal_weight=0 31.461 27.5003 23.9068 19.3831
internal_count=235 170 146 126 65
is_linear=0
shrinkage=0.2


Tree=11
num_leaves=8
num_cat=0
split_feature=90 187 302 112 46 7 51
split_gain=69.0027 0.000782128 0.000107291 5.74343e-05 2.44539e-08 8.88178e-16 8.88178e-16
threshold=0.2744347391771898 0.078959057016921089 0.083797557619539054 0.1058712588714649 1.0000000180025095e-35 1.0000000180025095e-35 0.028245801094392294
decision_type=2 2 2 2 2 2 2
left_child=1 2 3 4 6 -6 -1
right_child=-2 -3 -4 -5 5 -7 -8
leaf_value=-0.18961067480721783 0.41568961573792412 -0.18593006551467156 -0.18797612911877748 -0.18880172893099473 -0.18959375202961612 -0.18959375202961612 -0.18961067480721816
leaf_weight=4.977807506918916 10.952533960342405 3.3219998553395262 2.4076516032218924 4.833202250301837 3.4442508816719055 2.8064266443252563 2.5527217984199524
leaf_count=39 38 30 20 39 27 22 20
internal_value=0 -0.188782 -0.189232 -0.189395 -0.189603 -0.189594 -0.189611
internal_weight=0 24.3441 21.0221 18.6144 13.7812 6.25068 7.53053
internal_count=235 197 167 147 108 49 59
is_linear=0
shrinkage=0.2


Tree=12
num_leaves=10
num_cat=0
split_feature=55 79 80 138 472 249 53 166 43
split_gain=20.0297 0.0140721 1.49725e-05 1.19923e-06 7.27813e-07 1.60443e-08 4.53146e-09 1.37458e-09 9.61453e-14
threshold=0.46609070419188475 0.08857534206633004 0.11732526231681123 0.16174430400133136 0.088761174968071524 0.16110579669475558 0.097855337043199916 0.059749502330667281 -0.42481670474064953
decision_type=2 2 2 2 2 2 2 2 2
left_child=1 2 3 4 6 -5 -1 8 -8
right_child=-2 -3 -4 5 -6 -7 7 -9 -10
leaf_value=-0.17438295198398471 0.29556969612322032 -0.19905268853963776 -0.17345486679147248 -0.17417483564462749 -0.17420686427626414 -0.17420611364624328 -0.17437360707969393 -0.17436454098421039 -0.17437352000556694
leaf_weight=1.928473465144634 5.3118504881858817 1.0025915727019299 0.94424302875995714 1.9304464757442477 1.2918958291411398 0.99365931749343861 1.013865806162356 1.0127545595169065 1.0138554126024264
leaf_count=38 18 13 21 39 26 20 20 20 20
internal_value=0 -0.17645 -0.174213 -0.174291 -0.174341 -0.174185 -0.174375 -0.174371 -0.174374
internal_weight=0 11.1318 10.1292 9.18495 6.26085 2.92411 4.96895 3.04048 2.02772
internal_count=235 217 204 183 124 59 98 60 40
is_linear=0
shrinkage=0.2


Tree=13
num_leaves=11
num_cat=0
split_feature=62 278 151 440 257 147 432 156 51 189
split_gain=19.389 0.0358723 1.65336e-05 8.43312e-07 2.70852e-07 2.25712e-07 2.49478e-08 4.9968e-09 1.16216e-09 7.91534e-11
threshold=0.33791966440821525 0.17764463241436929 0.060081728430795879 2.8221947090115581e-05 0.16281702369451526 0.55204867537849578 9.0299004295105366e-05 0.032024251096552422 0.63193589068743672 0.065201430627157581
decision_type=2 2 2 2 2 2 2 2 2 2
left_child=1 2 3 6 5 7 8 -5 -1 -9
right_child=-2 -3 -4 4 -6 -7 -8 9 -10 -11
leaf_value=-0.17350239841846604 0.30985154823528638 -0.21407489073849681 -0.17248459073058475 -0.17330992129833575 -0.17346941635158156 -0.17343638978583595 -0.17346790146558344 -0.17332659724930949 -0.17351056060590286 -0.17332899487270995
leaf_weight=1.54412435740232 4.7724303603172311 0.95206179469823915 0.81876503676176149 0.88458910956978831 0.90418666973710049 0.90009957924485196 0.90399491786956776 1.1971069574356081 1.2730334512889383 1.0200956650078294
leaf_count=34 16 6 21 20 20 20 20 27 28 23
internal_value=0 -0.177073 -0.173343 -0.173425 -0.173371 -0.173348 -0.173497 -0.173323 -0.173506 -0.173328
internal_weight=0 10.3981 9.446 8.62723 4.90608 4.00189 3.72115 3.10179 2.81716 2.2172
internal_count=235 219 213 192 110 90 82 70 62 50
is_linear=0
shrinkage=0.2


Tree=14
num_leaves=9
num_cat=0
split_feature=213 423 324 155 51 90 252 72
split_gain=58.9061 0.0485248 0.000822573 6.40065e-05 4.13861e-10 3.06892e-10 4.23066e-11 4.98268e-13
threshold=0.17384098470211032 0.98076211616722164 0.00051410349855705981 0.38669256009811098 0.058567795904506836 0.034607365285241151 0.21355983614921573 0.042882436576046366
decision_type=2 2 2 2 2 2 2 2
left_child=2 -2 -1 4 6 7 -4 -5
right_child=1 -3 3 5 -6 -7 -8 -9
leaf_value=-0.18974995567918154 0.30416426593801793 0.28209041830377418 -0.19245057807610394 -0.19317073997621578 -0.19244742555882324 -0.19316830408645219 -0.19244960083219609 -0.19317085226093836
leaf_weight=4.3566263914108303 6.1486909985542324 11.312548875808714 4.8731337487697619 2.8411223441362363 2.9236190617084503 2.8409329354763031 2.7845711261034012 3.5514138638973236
leaf_count=34 21 39 35 20 21 20 20 25
internal_value=0 0.289863 -0.192238 -0.192785 -0.192449 -0.19317 -0.19245 -0.193171
internal_weight=0 17.4612 24.1714 19.8148 10.5813 9.23347 7.6577 6.39254
internal_count=235 60 175 141 76 65 55 45
is_linear=0
shrinkage=0.2


Tree=15
num_leaves=9
num_cat=0
split_feature=202 187 488 348 164 125 140 80
split_gain=41.3892 0.000257438 5.27852e-05 1.28312e-05 3.04869e-07 2.71005e-08 3.26106e-10 3.29514e-13
threshold=0.42923593130696469 0.078959057016921089 0.16782697189588955 0.014115646258503402 0.017150460830745028 0.58359165080708464 1.0000000180025095e-35 0.027391163253473908
decision_type=2 2 2 2 2 2 2 2
left_child=1 2 3 4 5 6 -1 -7
right_child=-2 -3 -4 -5 -6 7 -8 -9
leaf_value=-0.18326410935412113 0.30165763118389277 -0.18085113482748641 -0.18198965234327774 -0.18280864246237721 -0.18316692903704385 -0.18324349083313707 -0.18326765854811652 -0.18324338213293839
leaf_weight=2.1743979528546422 11.274301677942274 2.5922698229551306 1.8444614857435215 3.7675403058528891 1.9670778587460507 2.5671279430389404 1.9770715832710264 1.9747033044695852
leaf_count=22 38 30 20 39 20 26 20 20
internal_value=0 -0.182702 -0.182997 -0.183126 -0.183238 -0.183254 -0.183266 -0.183243
internal_weight=0 18.8647 16.2724 14.4279 10.6604 8.6933 4.15147 4.54183
internal_count=235 197 167 147 108 88 42 46
is_linear=0
shrinkage=0.2


Tree=16
num_leaves=10
num_cat=0
split_feature=167 295 153 278 219 90 5 402 186
split_gain=59.5065 0.00126456 0.000103632 4.36567e-05 1.03718e-07 5.12366e-08 8.33431e-11 3.84439e-11 1.06049e-12
threshold=0.45007165013148748 0.16285084187984469 0.69051792696029179 0.048967527514438274 0.03444412662090008 0.034607365285241151 1.0000000180025095e-35 0.36201583378629781 0.044259027077459615
decision_type=2 2 2 2 2 2 2 2 2
left_child=1 2 3 4 7 6 -2 -1 -4
right_child=5 -3 8 -5 -6 -7 -8 -9 -10
leaf_value=-0.19463324743401106 0.27858030337662415 -0.19101833185350625 -0.19545719324680461 -0.19377302805986721 -0.1946764800039873 0.27860341060031601 0.2785813233267751 -0.19463235175902915 -0.19545702536571455
leaf_weight=5.4630736410617882 7.2102814912796038 4.3903563544154158 3.0144373178482047 2.8841158747673026 2.9562555551528922 5.7684589028358451 5.7682355046272278 2.952945202589035 3.0144249796867371
leaf_count=37 25 33 20 20 20 20 20 20 20
internal_value=0 -0.194096 -0.194762 -0.194468 -0.194644 0.278588 0.278581 -0.194633 -0.195457
internal_weight=0 24.6756 20.2853 14.2564 11.3723 18.747 12.9785 8.41602 6.02886
internal_count=235 170 137 97 77 65 45 57 40
is_linear=0
shrinkage=0.2


Tree=17
num_leaves=9
num_cat=0
split_feature=54 295 194 484 186 321 256 186
split_gain=41.3887 0.000307218 2.31169e-05 1.1164e-05 2.92193e-07 2.25051e-08 2.63599e-10 1.91753e-11
threshold=0.28355666374967148 0.16285084187984469 0.031226123797618303 0.088761174968071524 0.062431458504456395 0.014719750837489186 0.16163622587919238 0.017721012860209499
decision_type=2 2 2 2 2 2 2 2
left_child=1 2 3 4 5 7 -7 -1
right_child=-2 -3 -4 -5 -6 6 -8 -9
leaf_value=-0.18324424384037818 0.30165552368708604 -0.18078539725838291 -0.18238448810209382 -0.18283514195050607 -0.18316965745975677 -0.18326627086265954 -0.18326300470125345 -0.18324339998629008
leaf_weight=1.9747872501611796 11.274283170700071 2.8412265032529822 1.8871887698769558 3.7725089117884627 2.0657173544168463 1.9769363924860957 1.9766175523400304 2.3696460276842117
leaf_count=20 38 33 20 39 21 20 20 24
internal_value=0 -0.182702 -0.183042 -0.18313 -0.183237 -0.183254 -0.183265 -0.183244
internal_weight=0 18.8646 16.0234 14.1362 10.3637 8.29799 3.95355 4.34443
internal_count=235 197 164 144 105 84 40 44
is_linear=0
shrinkage=0.2


Tree=18
num_leaves=11
num_cat=0
split_feature=55 103 350 234 472 81 173 401 442 490
split_gain=13.3913 0.00613552 2.75943e-06 2.88365e-07 2.52048e-07 1.19074e-08 1.08196e-08 2.93172e-09 2.05412e-09 2.35367e-14
threshold=0.46609070419188475 0.055463294277401161 0.18257718403063083 1.0000000180025095e-35 0.05976430976430977 0.049376183095974392 0.048747027371183978 0.14356602121462905 0.0041521726147398311 0.0028403737681646033
decision_type=2 2 2 2 2 2 2 2 2 2
left_child=1 2 3 4 6 7 -1 -5 9 -8
right_child=-2 -3 -4 5 -6 -7 8 -9 -10 -11
leaf_value=-0.17237831273558638 0.24633925578999794 -0.19097649699486752 -0.17189616255947773 -0.17224676869542488 -0.17225603332633738 -0.1722243853856531 -0.17235724176241837 -0.17226400649217818 -0.17234462567936279 -0.17235719316587778
leaf_weight=0.96109407767653321 4.7265495657920846 0.77114887163043011 0.73974694684147824 0.82754809409379981 1.280877001583576 0.74944108724594105 0.76622653380036376 0.75445269420742989 0.76460691913962353 0.84284207224845886
leaf_count=25 18 13 21 22 34 20 20 20 20 22
internal_value=0 -0.17397 -0.172263 -0.172302 -0.172331 -0.172245 -0.17236 -0.172255 -0.172353 -0.172357
internal_weight=0 8.45798 7.68684 6.94709 4.61565 2.33144 3.33477 1.582 2.37368 1.60907
internal_count=235 217 204 183 121 62 87 42 62 42
is_linear=0
shrinkage=0.2


Tree=19
num_leaves=11
num_cat=0
split_feature=62 80 79 149 147 147 267 397 176 165
split_gain=12.8268 0.0153407 6.43561e-06 2.12981e-07 2.38066e-07 2.50816e-08 2.28689e-08 1.49376e-11 3.69438e-12 2.87326e-13
threshold=0.33791966440821525 0.20292932658072063 0.094557414338780149 0.38669256009811098 0.69051792696029179 0.095499558217356117 0.98766765685480251 0.0081381758447287133 0.027698518843237301 0.016409007230045451
decision_type=2 2 2 2 2 2 2 2 2 2
left_child=1 2 3 4 5 7 -6 -1 9 -5
right_child=-2 -3 -4 8 6 -7 -8 -9 -10 -11
leaf_value=-0.17162679368990397 0.25384231836120635 -0.20261589685990083 -0.17101674817998191 -0.17172502064093145 -0.17174383637861235 -0.17158318564337879 -0.17169216364088938 -0.17162782643553057 -0.17172565499070638 -0.17172519721273408
leaf_weight=1.3134616874158389 4.3292927145957947 0.70053941011428822 0.65310657024383534 0.72042941674590133 0.68852507323026635 0.66785058006644238 0.68189060315489769 0.97686796262860287 0.75482405349612225 0.75476034358143806
leaf_count=39 16 4 22 21 20 20 20 29 22 22
internal_value=0 -0.17436 -0.171615 -0.171675 -0.171649 -0.171617 -0.171718 -0.171627 -0.171725 -0.171725
internal_weight=0 7.91226 7.21172 6.55861 4.3286 2.95818 1.37042 2.29033 2.23001 1.47519
internal_count=235 219 215 193 128 88 40 68 65 43
is_linear=0
shrinkage=0.2


Tree=20
num_leaves=10
num_cat=0
split_feature=135 199 324 181 341 247 208 439 439
split_gain=38.5378 0.0188863 0.000265966 0.000205601 1.17933e-05 8.76535e-10 8.92948e-11 7.00515e-11 3.9055e-11
threshold=0.17775572091341021 0.010932779051996465 0.00051410349855705981 0.021741683296517999 0.23385608727002896 0.16209326684474948 0.024586524586524591 0.00011790672224911344 2.5624160398512175e-05
decision_type=2 2 2 2 2 2 2 2 2
left_child=2 3 -1 -2 5 7 8 -4 -6
right_child=1 -3 4 -5 6 -7 -8 -9 -10
leaf_value=-0.18314484206247778 0.23933741653175808 0.25319192844092347 -0.18495158198096964 0.23753247207111344 -0.1853057063354675 -0.18495578922561151 -0.18530474222552096 -0.18495015415805066 -0.18530686612356345
leaf_weight=3.3381207510828999 5.0741334557533246 5.2894524037837973 3.8486585393547994 5.0236815512180328 2.4969152882695189 2.1385378614068031 2.3882548734545708 2.1380092203617096 2.1713380143046379
leaf_count=34 20 20 36 20 23 20 22 20 20
internal_value=0 0.243511 -0.184761 0.238439 -0.185117 -0.184952 -0.185306 -0.184951 -0.185306
internal_weight=0 15.3873 18.5198 10.0978 15.1817 8.12521 7.05651 5.98667 4.66825
internal_count=235 60 175 40 141 76 65 56 43
is_linear=0
shrinkage=0.2


Tree=21
num_leaves=9
num_cat=0
split_feature=52 295 508 203 248 135 271 166
split_gain=27.1208 0.000103207 5.4071e-06 1.80584e-06 1.27232e-06 7.55718e-08 8.65291e-09 1.55297e-09
threshold=0.32354295505759817 0.16230183094739917 1.0000000180025095e-35 0.0077688971523102038 0.16168039292097094 0.18451883643865588 0.12735430151224139 0.064692297863945161
decision_type=2 2 2 2 2 2 2 2
left_child=1 2 4 -4 -1 6 -5 -8
right_child=-2 -3 3 5 -6 -7 7 -9
leaf_value=-0.17840462219470721 0.24938149317533331 -0.17705480084825653 -0.17842642677309908 -0.17861707975500629 -0.17815174605333495 -0.1786768657809184 -0.17863139202953282 -0.17863990986841458
leaf_weight=1.7701962739229231 10.108072489500044 2.314985863864421 1.9945323914289455 1.4982564747333524 1.4459558501839636 1.8809781670570371 1.8748093917965891 1.5758085176348684
leaf_count=24 38 35 27 20 20 25 25 21
internal_value=0 -0.178278 -0.178513 -0.178594 -0.178291 -0.178643 -0.17863 -0.178635
internal_weight=0 14.3555 12.0405 8.82438 3.21615 6.82985 4.94887 3.45062
internal_count=235 197 162 118 44 91 66 46
is_linear=0
shrinkage=0.2


Tree=22
num_leaves=10
num_cat=0
split_feature=233 295 134 177 190 170 487 478 138
split_gain=39.1816 0.000374437 2.30189e-05 1.1882e-05 4.98771e-07 2.59227e-07 2.72431e-08 8.24068e-09 7.55384e-09
threshold=0.42237200630057781 0.16285084187984469 0.1621639356017113 0.69637027822674857 0.02315138719212578 0.017259430264097524 1.5026453118775745e-08 0.0034106737779388829 0.16204713284969333
decision_type=2 2 2 2 2 2 2 2 2
left_child=1 2 3 4 -1 8 -2 -8 -6
right_child=6 -3 -4 -5 5 -7 7 -9 -10
leaf_value=-0.18647395909429354 0.23707385486621316 -0.1840753553078337 -0.18579940832289546 -0.18684570238037279 -0.18640153662542336 -0.18631256356297354 0.23708604975672995 0.2370968661061181 -0.18638664670202301
leaf_weight=2.3923751860857028 5.0108292400836971 3.384652003645896 2.2144204005599013 3.0056443810462943 2.2719288617372513 2.2638240978121758 5.5123005807399732 5.7632187604904175 3.4058699011802673
leaf_count=21 20 33 20 26 20 20 22 23 30
internal_value=0 -0.185982 -0.186397 -0.186496 -0.186394 -0.18637 0.237086 0.237092 -0.186393
internal_weight=0 18.9387 15.5541 13.3396 10.334 7.94162 16.2863 11.2755 5.6778
internal_count=235 170 137 117 91 70 65 45 50
is_linear=0
shrinkage=0.2


Tree=23
num_leaves=9
num_cat=0
split_feature=44 508 248 172 479 178 44 490
split_gain=27.1263 8.70418e-05 7.88076e-06 2.39766e-06 2.70639e-07 2.33769e-07 6.11989e-08 7.15059e-11
threshold=1.028381068620454 1.0000000180025095e-35 0.16250734776258471 0.10092296068097592 0.0030685531749010974 0.1014385291350509 -0.16538933637718142 0.0037108739800753025
decision_type=2 2 2 2 2 2 2 2
left_child=1 -1 3 5 -5 6 -3 -8
right_child=-2 2 -4 4 -6 -7 7 -9
leaf_value=-0.17718104362172449 0.24940865925267799 -0.17867709513110708 -0.17805853145334161 -0.17837332474849421 -0.17848271137212304 -0.1785601957721053 -0.17863145245901135 -0.17863328922265875
leaf_weight=2.4082960709929493 10.109193116426466 1.8810082525014853 1.430054873228072 1.8396668881177904 1.7802547663450239 1.5666624829173086 1.9498105645179755 1.5000531896948812
leaf_count=36 38 25 20 25 24 21 26 20
internal_value=0 -0.178278 -0.178499 -0.178559 -0.178427 -0.178628 -0.178648 -0.178632
internal_weight=0 14.3558 11.9475 10.5175 3.61992 6.89753 5.33087 3.44986
internal_count=235 197 161 141 49 92 71 46
is_linear=0
shrinkage=0.2


Tree=24
num_leaves=11
num_cat=0
split_feature=55 169 80 269 177 110 402 175 176 259
split_gain=9.23374 0.00278991 1.81295e-06 8.29198e-08 6.74736e-08 1.08546e-08 3.26879e-09 1.17326e-09 7.65166e-13 7.43849e-14
threshold=0.46609070419188475 0.040609079305868274 0.11732526231681123 0.4414998484596877 0.69637027822674857 0.055251420202695106 9.0222782633008181e-07 0.019196142089531666 0.027698518843237301 0.06387751549482347
decision_type=2 2 2 2 2 2 2 2 2 2
left_child=1 2 3 4 5 6 -1 -8 9 -5
right_child=-2 -3 -4 8 -6 -7 7 -9 -10 -11
leaf_value=-0.17078634081556501 0.21866967826089337 -0.18567693728192586 -0.17040521376961712 -0.17083360341541448 -0.17083417861046835 -0.17074409387702061 -0.17077283818649378 -0.17076125984130253 -0.17083383080195078 -0.17083350468904501
leaf_weight=0.5649489685893071 3.9151990413665771 0.54946027882397164 0.51379067637026299 0.57112378813326337 0.7425367385149001 0.67126956768333901 0.92927342094480969 0.56166387163102627 0.57115360721945752 0.65677747689187527
leaf_count=20 18 11 20 20 26 24 33 20 20 23
internal_value=0 -0.172058 -0.170764 -0.170799 -0.170781 -0.170766 -0.170773 -0.170768 -0.170834 -0.170834
internal_weight=0 6.332 5.78254 5.26875 3.46969 2.72716 2.05589 1.49094 1.79905 1.2279
internal_count=235 217 206 186 123 97 73 53 63 43
is_linear=0
shrinkage=0.2


Tree=25
num_leaves=12
num_cat=0
split_feature=56 278 79 155 153 471 74 417 83 176 466
split_gain=8.79463 0.00527304 2.31175e-06 6.09799e-08 4.43962e-08 1.50805e-08 1.21556e-08 6.10267e-12 1.27554e-12 1.1553e-12 8.22675e-14
threshold=0.33791966440821525 0.17764463241436929 0.094557414338780149 0.38669256009811098 0.69051792696029179 0.086080586080586094 0.060859472273304106 0.0032099474066894624 0.066256481629796707 0.027698518843237301 7.4449250822000647e-06
decision_type=2 2 2 2 2 2 2 2 2 2 2
left_child=1 2 3 4 5 7 -6 8 -1 10 -5
right_child=-2 -3 -4 9 6 -7 -8 -9 -10 -11 -12
leaf_value=-0.17032258037053627 0.2230718480235245 -0.19016932120125382 -0.1698799016989111 -0.17037681206290173 -0.17034218326879877 -0.1702830534589701 -0.17038586965249503 -0.17032321650072538 -0.17032216445422732 -0.17037711349613593 -0.1703767024147177
leaf_weight=0.63011749833822317 3.6272624582052231 0.59405197948217381 0.46689838543534268 0.58793273195624329 0.5066769905388353 0.49877618812024582 0.51242873445153236 0.50417749024927605 0.5544428676366806 0.56241399608552445 0.511231305077672
leaf_count=25 16 6 21 23 20 20 20 20 22 22 20
internal_value=0 -0.172295 -0.170305 -0.170346 -0.17033 -0.170314 -0.170364 -0.170323 -0.170322 -0.170377 -0.170377
internal_weight=0 5.92915 5.3351 4.8682 3.20662 2.18751 1.01911 1.68874 1.18456 1.66158 1.09916
internal_count=235 219 213 192 127 87 40 67 47 65 43
is_linear=0
shrinkage=0.2


Tree=26
num_leaves=10
num_cat=0
split_feature=135 187 223 111 329 463 208 127 182
split_gain=26.1124 0.00702888 8.86673e-05 2.27091e-05 2.18369e-06 2.22693e-10 2.77049e-11 1.85363e-11 7.59393e-12
threshold=0.17775572091341021 0.040366961853248756 1.0000000180025095e-35 0.88312530462031691 0.23820818331994806 0.00038624353715960888 0.024586524586524591 0.043993966765715195 0.016995231365534002
decision_type=2 2 2 2 2 2 2 2 2
left_child=2 3 4 -2 5 7 8 -1 -6
right_child=1 -3 -4 -5 6 -7 -8 -9 -10
leaf_value=-0.17968452306880123 0.21329951884437595 0.22350450199406177 -0.17845456429764042 0.21396389924375936 -0.17986086021297995 -0.17968695873208387 -0.17985959282438901 -0.17968367739246793 -0.1798602715065587
leaf_weight=2.9030241146683711 4.0992657095193845 4.4422879368066779 2.5149667114019385 4.1324916779994965 1.7130053713917734 1.6130489259958265 1.7944305092096327 1.6127019971609113 1.7945092543959615
leaf_count=36 20 20 34 20 21 20 22 20 22
internal_value=0 0.217093 -0.17953 0.213633 -0.179766 -0.179685 -0.17986 -0.179684 -0.179861
internal_weight=0 12.674 13.9457 8.23176 11.4307 6.12878 5.30195 4.51573 3.50751
internal_count=235 60 175 40 141 76 65 56 43
is_linear=0
shrinkage=0.2


Tree=27
num_leaves=10
num_cat=0
split_feature=52 224 199 191 262 420 249 292 169
split_gain=18.4527 2.97705e-05 5.25549e-06 9.03618e-07 2.71482e-07 5.88159e-08 3.38731e-08 2.2062e-08 1.06892e-12
threshold=0.32354295505759817 0.038222646918299102 0.010932779051996465 0.1523945223985968 0.15834977477788928 0.006155803458588102 0.19096717983484271 0.15627863258123401 0.0057797846169493862
decision_type=2 2 2 2 2 2 2 2 2
left_child=1 3 -3 4 6 7 -1 8 -5
right_child=-2 2 -4 5 -6 -7 -8 -9 -10
leaf_value=-0.17517068144861864 0.22041828572155678 -0.17473863148277424 -0.17413040629543675 -0.17528633492062107 -0.17507731693562956 -0.17524472943647471 -0.17521674280132016 -0.17532049408076655 -0.17528660460218548
leaf_weight=1.49656178057194 8.4083286672830564 1.0563474968075746 1.2298425324261186 1.234375253319741 1.2606911882758138 1.1172285191714761 1.1139778569340704 1.1261629797518251 1.1221905872225759
leaf_count=27 38 20 25 22 23 20 20 20 20
internal_value=0 -0.175052 -0.174411 -0.175225 -0.175154 -0.175285 -0.17519 -0.175297 -0.175286
internal_weight=0 10.7574 2.28619 8.47119 3.87123 4.59996 2.61054 3.48273 2.35657
internal_count=235 197 45 152 70 82 47 62 42
is_linear=0
shrinkage=0.2


Tree=28
num_leaves=10
num_cat=0
split_feature=143 295 320 255 71 319 186 71 187
split_gain=26.6405 0.000116294 7.69484e-06 1.50003e-06 2.26e-07 5.92762e-08 8.22432e-09 3.16286e-09 7.81244e-10
threshold=0.25280994597711581 0.16285084187984469 0.017591091383047583 0.21289644390344623 0.050476221932642777 0.00013304119521975952 0.015733031725664138 0.71926347037030536 0.019674518327518351
decision_type=2 2 2 2 2 2 2 2 2
left_child=1 2 3 4 -1 8 -2 -8 -6
right_child=6 -3 -4 -5 5 -7 7 -9 -10
leaf_value=-0.18058628734894289 0.21308718613035402 -0.17913460739727033 -0.18022442947834988 -0.18083952372871179 -0.18065268945112917 -0.18069850147362915 0.21310193205510425 0.21309440139427147 -0.18065813164030126
leaf_weight=1.7926399856805781 4.2938271164894113 2.5614278465509424 1.6679705306887616 2.080172948539257 2.7427440211176872 1.7189183831214903 4.0900924354791623 4.9076620489358902 1.7147787809371946
leaf_count=21 21 33 20 24 32 20 20 24 20
internal_value=0 -0.180355 -0.180622 -0.180688 -0.180649 -0.180667 0.213094 0.213098 -0.180655
internal_weight=0 14.2787 11.7172 10.0493 7.96908 6.17644 13.2916 8.99775 4.45752
internal_count=235 170 137 117 93 72 65 44 52
is_linear=0
shrinkage=0.2


Tree=29
num_leaves=9
num_cat=0
split_feature=44 224 199 490 168 181 52 71
split_gain=18.4556 2.74299e-05 6.84751e-06 8.18565e-07 2.37616e-07 5.1096e-08 5.03727e-08 1.75488e-08
threshold=1.028381068620454 0.038222646918299102 0.010932779051996465 0.061268799858485719 0.020775821480677359 0.017305886991203782 0.32354295505759817 0.61878368060391209
decision_type=2 2 2 2 2 2 2 2
left_child=1 3 -3 5 6 7 -5 -1
right_child=-2 2 -4 4 -6 -7 -8 -9
leaf_value=-0.1753173727681937 0.2204328467999136 -0.1747994995380725 -0.17413117248851509 -0.17522153900257989 -0.17508478043106104 -0.1752485003829406 -0.17516638212448776 -0.17528650624042622
leaf_weight=1.1257959268987199 8.4094988405704481 1.2229379899799817 1.2299533523619173 1.2259831875562675 1.2067387774586675 1.1735313460230825 1.4404764473438261 2.1321403644979
leaf_count=20 38 23 25 22 22 21 26 38
internal_value=0 -0.175052 -0.174464 -0.175226 -0.175158 -0.175284 -0.175192 -0.175297
internal_weight=0 10.7576 2.45289 8.30467 3.8732 4.43147 2.66646 3.25794
internal_count=235 197 48 149 70 79 48 58
is_linear=0
shrinkage=0.2


end of trees

feature_importances:
Column_44=6
Column_52=6
Column_295=6
Column_51=5
Column_79=5
Column_80=5
Column_135=4
Column_186=4
Column_187=4
Column_490=4
Column_31=3
Column_55=3
Column_71=3
Column_90=3
Column_147=3
Column_153=3
Column_176=3
Column_199=3
Column_223=3
Column_278=3
Column_43=2
Column_45=2
Column_46=2
Column_48=2
Column_62=2
Column_74=2
Column_134=2
Column_138=2
Column_155=2
Column_166=2
Column_167=2
Column_169=2
Column_177=2
Column_181=2
Column_208=2
Column_213=2
Column_224=2
Column_248=2
Column_249=2
Column_296=2
Column_324=2
Column_329=2
Column_402=2
Column_439=2
Column_472=2
Column_508=2
Column_0=1
Column_5=1
Column_7=1
Column_16=1
Column_22=1
Column_53=1
Column_54=1
Column_56=1
Column_72=1
Column_81=1
Column_83=1
Column_87=1
Column_91=1
Column_102=1
Column_103=1
Column_110=1
Column_111=1
Column_112=1
Column_125=1
Column_127=1
Column_133=1
Column_140=1
Column_143=1
Column_146=1
Column_149=1
Column_150=1
Column_151=1
Column_156=1
Column_164=1
Column_165=1
Column_168=1
Column_170=1
Column_172=1
Column_173=1
Column_175=1
Column_178=1
Column_182=1
Column_189=1
Column_190=1
Column_191=1
Column_194=1
Column_197=1
Column_202=1
Column_203=1
Column_219=1
Column_232=1
Column_233=1
Column_234=1
Column_247=1
Column_252=1
Column_255=1
Column_256=1
Column_257=1
Column_259=1
Column_262=1
Column_267=1
Column_269=1
Column_271=1
Column_292=1
Column_302=1
Column_312=1
Column_319=1
Column_320=1
Column_321=1
Column_341=1
Column_348=1
Column_350=1
Column_396=1
Column_397=1
Column_401=1
Column_404=1
Column_417=1
Column_420=1
Column_423=1
Column_432=1
Column_440=1
Column_442=1
Column_463=1
Column_466=1
Column_471=1
Column_478=1
Column_479=1
Column_484=1
Column_487=1
Column_488=1

parameters:
[boosting: gbdt]
[objective: multiclass]
[metric: custom]
[tree_learner: serial]
[device_type: cpu]
[data_sample_strategy: bagging]
[data: ]
[valid: ]
[num_iterations: 10000]
[learning_rate: 0.2]
[num_leaves: 63]
[num_threads: 0]
[seed: 1239]
[deterministic: 0]
[force_col_wise: 0]
[force_row_wise: 0]
[histogram_pool_size: -1]
[max_depth: -1]
[min_data_in_leaf: 20]
[min_sum_hessian_in_leaf: 0.001]
[bagging_fraction: 1]
[pos_bagging_fraction: 1]
[neg_bagging_fraction: 1]
[bagging_freq: 0]
[bagging_seed: 21187]
[feature_fraction: 0.5]
[feature_fraction_bynode: 1]
[feature_fraction_seed: 30770]
[extra_trees: 0]
[extra_seed: 27351]
[early_stopping_round: 0]
[early_stopping_min_delta: 0]
[first_metric_only: 0]
[max_delta_step: 0]
[lambda_l1: 0]
[lambda_l2: 0]
[linear_lambda: 0]
[min_gain_to_split: 0]
[drop_rate: 0.1]
[max_drop: 50]
[skip_drop: 0.5]
[xgboost_dart_mode: 0]
[uniform_drop: 0]
[drop_seed: 3778]
[top_rate: 0.2]
[other_rate: 0.1]
[min_data_per_group: 100]
[max_cat_threshold: 32]
[cat_l2: 10]
[cat_smooth: 10]
[max_cat_to_onehot: 4]
[top_k: 20]
[monotone_constraints: ]
[monotone_constraints_method: basic]
[monotone_penalty: 0]
[feature_contri: ]
[forcedsplits_filename: ]
[refit_decay_rate: 0.9]
[cegb_tradeoff: 1]
[cegb_penalty_split: 0]
[cegb_penalty_feature_lazy: ]
[cegb_penalty_feature_coupled: ]
[path_smooth: 0]
[interaction_constraints: ]
[verbosity: -1]
[saved_feature_importance_type: 0]
[use_quantized_grad: 0]
[num_grad_quant_bins: 4]
[quant_train_renew_leaf: 0]
[stochastic_rounding: 1]
[linear_tree: 0]
[max_bin: 255]
[max_bin_by_feature: ]
[min_data_in_bin: 3]
[bin_construct_sample_cnt: 200000]
[data_random_seed: 4084]
[is_enable_sparse: 1]
[enable_bundle: 1]
[use_missing: 1]
[zero_as_missing: 0]
[feature_pre_filter: 1]
[pre_partition: 0]
[two_round: 0]
[header: 0]
[label_column: ]
[weight_column: ]
[group_column: ]
[ignore_column: ]
[categorical_feature: ]
[forcedbins_filename: ]
[precise_float_parser: 0]
[parser_config_file: ]
[objective_seed: 9093]
[num_class: 6]
[is_unbalance: 0]
[scale_pos_weight: 1]
[sigmoid: 1]
[boost_from_average: 1]
[reg_sqrt: 0]
[alpha: 0.9]
[fair_c: 1]
[poisson_max_delta_step: 0.7]
[tweedie_variance_power: 1.5]
[lambdarank_truncation_level: 30]
[lambdarank_norm: 1]
[label_gain: ]
[lambdarank_position_bias_regularization: 0]
[eval_at: ]
[multi_error_top_k: 1]
[auc_mu_weights: ]
[num_machines: 1]
[local_listen_port: 12400]
[time_out: 120]
[machine_list_filename: ]
[machines: ]
[gpu_platform_id: -1]
[gpu_device_id: -1]
[gpu_use_dp: 0]
[num_gpu: 1]

end of parameters

pandas_categorical:null
