tree
version=v4
num_class=6
num_tree_per_iteration=6
label_index=0
max_feature_idx=48
objective=multiclass num_class:6
feature_names=Column_0 Column_1 Column_2 Column_3 Column_4 Column_5 Column_6 Column_7 Column_8 Column_9 Column_10 Column_11 Column_12 Column_13 Column_14 Column_15 Column_16 Column_17 Column_18 Column_19 Column_20 Column_21 Column_22 Column_23 Column_24 Column_25 Column_26 Column_27 Column_28 Column_29 Column_30 Column_31 Column_32 Column_33 Column_34 Column_35 Column_36 Column_37 Column_38 Column_39 Column_40 Column_41 Column_42 Column_43 Column_44 Column_45 Column_46 Column_47 Column_48
feature_infos=[0:1] [0:1] none none none none none none none none none none none [0:1] none none [0:1] none none none none none none none none none none none none none none [0:1] none none none none none none none none [0:1] [0:1] [0:1] [-1.6354518277569989:1.9388042497198423] [-1.6733098479531416:1.7195113030927685] [-1.4038725330980597:1.48091309145128] [-1.3440356134253817:1.4736175223430754] [-1.2490765673495612:3.828691217310606] [-2.3591123870126185:1.9674418891338159]
tree_sizes=459 455 453 545 450 453 557 553 445 552 556 554 556 552 553 550 556 551 555 559 447 552 553 550 664 559 450 448 455 555 557 665 448 448 554 555 557 557 447 455 556 552 559 660 658 449 557 553 557 551 452 552 446 551 555 666 557 554 448 559 557 557 559 452 556 553 560 666 454 552 447 555 562 674 451 452 554 553

Tree=0
num_leaves=3
num_cat=0
split_feature=41 46
split_gain=42.3782 1.77636e-15
threshold=1.0000000180025095e-35 -1.0000000180025095e-35
decision_type=2 2
left_child=1 -1
right_child=-2 -3
leaf_value=-2.9935365155238034 -2.2108606888636086 -2.9935365155238034
leaf_weight=6.9524434879422179 3.5774709209799775 5.2649572044610968
leaf_count=103 53 78
internal_value=-2.81626 -2.99354
internal_weight=0 12.2174
internal_count=234 181
is_linear=0
shrinkage=1


Tree=1
num_leaves=3
num_cat=0
split_feature=47 13
split_gain=33.5039 1.77636e-15
threshold=0.56441192717192723 1.0000000180025095e-35
decision_type=2 2
left_child=1 -1
right_child=-2 -3
leaf_value=-3.1460901479711048 -2.4120167676304041 -3.1460901479711043
leaf_weight=4.0284022651612741 3.2694279253482827 6.3637079261243343
leaf_count=69 56 109
internal_value=-2.97041 -3.14609
internal_weight=0 10.3921
internal_count=234 178
is_linear=0
shrinkage=1


Tree=2
num_leaves=3
num_cat=0
split_feature=44 44
split_gain=101.803 3.19895
threshold=-0.85651957084949604 1.0000000180025095e-35
decision_type=2 2
left_child=-1 -2
right_child=1 -3
leaf_value=-0.98512290590500151 -1.5422692943341703 -1.6658650269493065
leaf_weight=13.808459281921385 12.945430576801298 23.733289390802383
leaf_count=64 60 110
internal_value=-1.44799 -1.62224
internal_weight=0 36.6787
internal_count=234 170
is_linear=0
shrinkage=1


Tree=3
num_leaves=4
num_cat=0
split_feature=40 43 44
split_gain=22.75 16 1.81641
threshold=1.0000000180025095e-35 -0.88601103731830644 0.14876077020114348
decision_type=2 2 2
left_child=1 -1 -3
right_child=-2 2 -4
leaf_value=-1.3790773888600321 -1.2540773825403428 -1.6128943649669505 -1.7183631202991883
leaf_weight=11.199999600648878 11.199999600648878 13.274073600769045 12.859258800745009
leaf_count=54 54 64 62
internal_value=-1.50408 -1.57908 -1.66479
internal_weight=0 37.3333 26.1333
internal_count=234 180 126
is_linear=0
shrinkage=1


Tree=4
num_leaves=3
num_cat=0
split_feature=44 44
split_gain=62.6463 54.0505
threshold=-0.16538933637718142 0.65140094072646348
decision_type=2 2
left_child=-1 -2
right_child=1 -3
leaf_value=-1.5402565818998546 -0.80295033447610875 -1.3493567923361396
leaf_weight=25.734318867325783 12.749112099409105 16.762721464037895
leaf_count=109 54 71
internal_value=-1.31219 -1.11331
internal_weight=0 29.5118
internal_count=234 125
is_linear=0
shrinkage=1


Tree=5
num_leaves=3
num_cat=0
split_feature=44 40
split_gain=123.042 3.55271e-15
threshold=0.77706098335779361 1.0000000180025095e-35
decision_type=2 2
left_child=1 -1
right_child=-2 -3
leaf_value=-2.0167145526847143 -1.17014682710055 -2.0167145526847143
leaf_weight=20.566469550132751 8.9774271845817548 8.6509752869606036
leaf_count=126 55 53
internal_value=-1.81773 -2.01671
internal_weight=0 29.2174
internal_count=234 179
is_linear=0
shrinkage=1


Tree=6
num_leaves=4
num_cat=0
split_feature=45 41 45
split_gain=36.1849 0.00633387 1.21728e-05
threshold=-1.0432743300293918 1.0000000180025095e-35 -0.32207792389205697
decision_type=2 2 2
left_child=-1 2 -2
right_child=1 -3 -4
leaf_value=0.51578450148609178 -0.17572083057026497 -0.18525141584213714 -0.17520380442599251
leaf_weight=4.0279939882457265 2.8561762049794188 3.892287589609623 5.0280954428017131
leaf_count=58 49 36 91
internal_value=0 -0.17865 -0.175391
internal_weight=0 11.7766 7.88427
internal_count=234 176 140
is_linear=0
shrinkage=0.2


Tree=7
num_leaves=4
num_cat=0
split_feature=48 44 13
split_gain=25.556 0.0014623 5.39742e-05
threshold=-1.061146104168688 -0.98217961348082616 1.0000000180025095e-35
decision_type=2 2 2
left_child=-1 -2 -3
right_child=1 2 -4
leaf_value=0.42659201339078517 -0.17992846733527357 -0.17511082892211116 -0.1739864935652593
leaf_weight=3.9651277922093877 2.860015418380498 3.3764960691332808 3.4559067115187645
leaf_count=60 37 65 72
internal_value=0 -0.176132 -0.174542
internal_weight=0 9.69242 6.8324
internal_count=234 174 137
is_linear=0
shrinkage=0.2


Tree=8
num_leaves=3
num_cat=0
split_feature=44 47
split_gain=62.4246 0.359553
threshold=-0.73085952821816658 -0.40278193657286659
decision_type=2 2
left_child=-1 -2
right_child=1 -3
leaf_value=0.27252562070012909 -0.20596521065833528 -0.16107480932809903
leaf_weight=20.060489028692245 16.32521760463715 12.680746510624884
leaf_count=78 89 67
internal_value=0 -0.18634
internal_weight=0 29.006
internal_count=234 156
is_linear=0
shrinkage=0.2


Tree=9
num_leaves=4
num_cat=0
split_feature=45 45 0
split_gain=16.1315 12.8386 16.6583
threshold=-1.0432743300293918 1.0000000180025095e-35 1.0000000180025095e-35
decision_type=2 2 2
left_child=-1 -2 -3
right_child=1 2 -4
leaf_value=-0.19785183348218827 0.22965381533076759 0.14302115421092423 -0.20291544861661706
leaf_weight=11.80319522321224 13.061869308352469 11.819784834980965 10.526882007718086
leaf_count=58 56 60 60
internal_value=0 0.0721329 -0.0199398
internal_weight=0 35.4085 22.3467
internal_count=234 176 120
is_linear=0
shrinkage=0.2


Tree=10
num_leaves=4
num_cat=0
split_feature=45 45 43
split_gain=39.5241 23.2997 0.475986
threshold=1.0000000180025095e-35 0.63951728429105625 -0.078920955307406782
decision_type=2 2 2
left_child=2 -2 -1
right_child=1 -3 -4
leaf_value=-0.16108976768748187 0.35652083636792714 -0.0013771095523628808 -0.21822316424202329
leaf_weight=10.440314128994943 12.836785063147547 16.796116173267365 13.216507300734518
leaf_count=52 45 75 62
internal_value=0 0.153662 -0.193009
internal_weight=0 29.6329 23.6568
internal_count=234 120 114
is_linear=0
shrinkage=0.2


Tree=11
num_leaves=4
num_cat=0
split_feature=46 46 47
split_gain=93.2492 0.429589 0.0481577
threshold=-1.0622702998485356 -0.49873967269484426 1.0000000180025095e-35
decision_type=2 2 2
left_child=-1 -2 -3
right_child=1 2 -4
leaf_value=0.54746320787959124 -0.14270531744968992 -0.20977542187071513 -0.19058835590127457
leaf_weight=9.2052561640739423 7.2747406214475658 9.331660211086275 11.911645650863646
leaf_count=38 50 55 91
internal_value=0 -0.184652 -0.199017
internal_weight=0 28.518 21.2433
internal_count=234 196 146
is_linear=0
shrinkage=0.2


Tree=12
num_leaves=4
num_cat=0
split_feature=46 48 42
split_gain=27.2151 0.00416968 0.000453127
threshold=1.19185220876623 -0.90662630859202975 1.0000000180025095e-35
decision_type=2 2 2
left_child=1 -1 -3
right_child=-2 2 -4
leaf_value=-0.18372902877477132 0.39274484417397704 -0.17704719281391676 -0.17389733788712947
leaf_weight=3.4273801483213893 4.8338094539940366 3.2779313251376143 4.1266905628144741
leaf_count=43 48 55 88
internal_value=0 -0.177961 -0.175292
internal_weight=0 10.832 7.40462
internal_count=234 186 143
is_linear=0
shrinkage=0.2


Tree=13
num_leaves=4
num_cat=0
split_feature=48 47 47
split_gain=14.988 0.0013105 1.41599e-05
threshold=-1.061146104168688 0.56441192717192723 -0.40278193657286659
decision_type=2 2 2
left_child=-1 2 -2
right_child=1 -3 -4
leaf_value=0.25585571082009023 -0.17243645245753525 -0.17844331171231251 -0.17306551666782194
leaf_weight=5.4455196000635624 2.7851117216050625 2.2639598250389099 2.9445251040160656
leaf_count=60 73 31 70
internal_value=0 -0.174369 -0.17276
internal_weight=0 7.9936 5.72964
internal_count=234 174 143
is_linear=0
shrinkage=0.2


Tree=14
num_leaves=4
num_cat=0
split_feature=44 45 47
split_gain=40.0694 0.598513 0.00720639
threshold=-0.73085952821816658 -0.32207792389205697 -0.40278193657286659
decision_type=2 2 2
left_child=-1 -2 -3
right_child=1 2 -4
leaf_value=0.19791081252736398 -0.13058939287806212 -0.19241710923375765 -0.20085655945628003
leaf_weight=21.937570840120316 8.2898891866207141 8.030767850577833 8.158857159316538
leaf_count=78 49 58 49
internal_value=0 -0.174292 -0.19667
internal_weight=0 24.4795 16.1896
internal_count=234 156 107
is_linear=0
shrinkage=0.2


Tree=15
num_leaves=4
num_cat=0
split_feature=44 46 13
split_gain=17.9473 14.815 24.6353
threshold=-0.85651957084949604 1.0000000180025095e-35 1.0000000180025095e-35
decision_type=2 2 2
left_child=-1 2 -2
right_child=1 -3 -4
leaf_value=-0.20923821735972328 0.22272889947822405 0.2567058192813399 -0.20453894251766608
leaf_weight=11.61476957798004 9.536929115653038 12.068996235728262 12.437097355723381
leaf_count=64 47 49 74
internal_value=0 0.0786787 -0.0191008
internal_weight=0 34.043 21.974
internal_count=234 170 121
is_linear=0
shrinkage=0.2


Tree=16
num_leaves=4
num_cat=0
split_feature=46 43 43
split_gain=34.7108 32.7185 0.195126
threshold=1.0000000180025095e-35 1.0000000180025095e-35 -1.0013096204627205
decision_type=2 2 2
left_child=1 -1 -2
right_child=2 -3 -4
leaf_value=0.33492696004059203 -0.21715616672153149 -0.093724902476469918 -0.17827724893399258
leaf_weight=15.903241500258448 9.2426910251379031 12.900535732507704 11.699681833386419
leaf_count=56 48 65 65
internal_value=0 0.142944 -0.195436
internal_weight=0 28.8038 20.9424
internal_count=234 121 113
is_linear=0
shrinkage=0.2


Tree=17
num_leaves=4
num_cat=0
split_feature=43 48 43
split_gain=46.536 0.496132 0.841122
threshold=0.95876629299232141 0.57676372894389061 -0.42481670474064953
decision_type=2 2 2
left_child=1 2 -1
right_child=-2 -3 -4
leaf_value=-0.18734440608369085 0.33161761398197265 -0.20020257305257194 -0.090958972817029943
leaf_weight=7.6173870489001256 11.006473198533056 9.5544449761509895 6.9039234071970004
leaf_count=70 43 69 52
internal_value=0 -0.164808 -0.14152
internal_weight=0 24.0758 14.5213
internal_count=234 191 122
is_linear=0
shrinkage=0.2


Tree=18
num_leaves=4
num_cat=0
split_feature=47 46 0
split_gain=43.4772 0.00856905 5.2456e-05
threshold=1.2898073249805229 0.62832158161253837 1.0000000180025095e-35
decision_type=2 2 2
left_child=1 2 -1
right_child=-2 -3 -4
leaf_value=-0.17343684811627522 0.63895272574457174 -0.18497994891009026 -0.17460469327887163
leaf_weight=2.5171892531216127 3.3331314269453296 5.3282318264245987 3.9567171148955822
leaf_count=60 28 62 84
internal_value=0 -0.17904 -0.174151
internal_weight=0 11.8021 6.47391
internal_count=234 206 144
is_linear=0
shrinkage=0.2


Tree=19
num_leaves=4
num_cat=0
split_feature=45 47 44
split_gain=13.7514 0.00693398 4.49723e-05
threshold=-0.87499516859734705 1.0480088590443242 1.0000000180025095e-35
decision_type=2 2 2
left_child=-1 2 -2
right_child=1 -3 -4
leaf_value=0.23934638808543879 -0.17156130392703117 -0.18556549373587461 -0.17281990124486848
leaf_weight=5.6218917854130268 1.7561435513198373 2.3469581939280033 3.2138882167637348
leaf_count=62 54 28 90
internal_value=0 -0.176606 -0.172375
internal_weight=0 7.31699 4.97003
internal_count=234 172 144
is_linear=0
shrinkage=0.2


Tree=20
num_leaves=3
num_cat=0
split_feature=46 46
split_gain=30.2513 0.159683
threshold=0.62832158161253837 -0.49873967269484426
decision_type=2 2
left_child=1 -1
right_child=-2 -3
leaf_value=-0.1946538310310105 0.15779641696412425 -0.15864934142232989
leaf_weight=11.018375597894194 23.083700403571129 8.9130043685436231
leaf_count=88 85 61
internal_value=0 -0.178553
internal_weight=0 19.9314
internal_count=234 149
is_linear=0
shrinkage=0.2


Tree=21
num_leaves=4
num_cat=0
split_feature=31 45 47
split_gain=5.98188 14.4321 1.82874
threshold=1.0000000180025095e-35 -0.87499516859734705 -0.40278193657286659
decision_type=2 2 2
left_child=1 -1 -3
right_child=-2 2 -4
leaf_value=-0.16407013088484432 -0.1248534316529947 0.073048165904315843 0.18516169235933183
leaf_weight=9.2731885910034162 10.790991708636282 11.272077180445192 12.031235016882421
leaf_count=62 51 65 56
internal_value=0 0.0469564 0.130931
internal_weight=0 32.5765 23.3033
internal_count=234 183 121
is_linear=0
shrinkage=0.2


Tree=22
num_leaves=4
num_cat=0
split_feature=48 47 43
split_gain=20.8962 0.68835 0.547759
threshold=-0.44306692186205471 -0.40278193657286659 1.0000000180025095e-35
decision_type=2 2 2
left_child=2 -2 -1
right_child=1 -3 -4
leaf_value=-0.13152755299619937 0.1423610951626276 0.078296585206506411 -0.20245179173446368
leaf_weight=7.7992826625704792 12.830829069018366 14.059908166527746 9.8652389049530012
leaf_count=52 54 65 63
internal_value=0 0.108865 -0.171137
internal_weight=0 26.8907 17.6645
internal_count=234 119 115
is_linear=0
shrinkage=0.2


Tree=23
num_leaves=4
num_cat=0
split_feature=44 44 43
split_gain=48.1141 0.0455816 0.00250277
threshold=1.028381068620454 0.65140094072646348 -0.30951812159623526
decision_type=2 2 2
left_child=1 2 -1
right_child=-2 -3 -4
leaf_value=-0.18092341825072911 0.3258870860688789 -0.20493181095858068 -0.18604797976346307
leaf_weight=7.6723899319767979 11.208713233470915 5.3458710983395568 7.5767169296741512
leaf_count=92 38 33 71
internal_value=0 -0.189041 -0.18347
internal_weight=0 20.595 15.2491
internal_count=234 196 163
is_linear=0
shrinkage=0.2


Tree=24
num_leaves=5
num_cat=0
split_feature=44 46 42 43
split_gain=35.1969 0.00521492 0.000145443 5.90996e-05
threshold=-1.4848197840061459 0.62832158161253837 1.0000000180025095e-35 -0.30951812159623526
decision_type=2 2 2 2
left_child=-1 2 -2 -4
right_child=1 -3 3 -5
leaf_value=0.5485737929343879 -0.17436354567871237 -0.18173801977599727 -0.17143806443559029 -0.17304212804965288
leaf_weight=3.5523927956819543 1.8978910427540521 5.2162693198770285 1.9138383753597727 1.767049241811038
leaf_count=14 42 71 64 43
internal_value=0 -0.177192 -0.172941 -0.172208
internal_weight=0 10.795 5.57878 3.68089
internal_count=234 220 149 107
is_linear=0
shrinkage=0.2


Tree=25
num_leaves=4
num_cat=0
split_feature=47 47 47
split_gain=12.519 0.000656208 0.00106272
threshold=0.56441192717192723 1.0000000180025095e-35 -1.0072781014133625
decision_type=2 2 2
left_child=1 2 -1
right_child=-2 -3 -4
leaf_value=-0.17685085760100552 0.22710031686992682 -0.17799543844474186 -0.17093500620672286
leaf_weight=2.2392452210187908 5.6766150556504726 1.9315479919314382 2.6544928643852477
leaf_count=40 56 38 100
internal_value=0 -0.174874 -0.173642
internal_weight=0 6.82529 4.89374
internal_count=234 178 140
is_linear=0
shrinkage=0.2


Tree=26
num_leaves=3
num_cat=0
split_feature=47 47
split_gain=14.4159 1.21161
threshold=1.0000000180025095e-35 -0.40278193657286659
decision_type=2 2
left_child=1 -1
right_child=-2 -3
leaf_value=-0.1898243722260082 0.10059180578809257 -0.078780827909556553
leaf_weight=9.4274969696998614 24.096425041556358 6.7406146377325049
leaf_count=94 94 46
internal_value=0 -0.143529
internal_weight=0 16.1681
internal_count=234 140
is_linear=0
shrinkage=0.2


Tree=27
num_leaves=3
num_cat=0
split_feature=43 43
split_gain=5.39244 10.8155
threshold=-1.1166082036071348 0.15167621098142162
decision_type=2 2
left_child=-1 -2
right_child=1 -3
leaf_value=0.13552657771979734 -0.14442992888672723 0.087405521540532743
leaf_weight=9.4266756847500783 17.269643671810627 15.075589366257189
leaf_count=46 102 86
internal_value=0 -0.0363752
internal_weight=0 32.3452
internal_count=234 188
is_linear=0
shrinkage=0.2


Tree=28
num_leaves=3
num_cat=0
split_feature=46 42
split_gain=21.5268 0.0446438
threshold=1.0000000180025095e-35 1.0000000180025095e-35
decision_type=2 2
left_child=-1 -2
right_child=1 -3
leaf_value=0.11464111180049785 -0.19054346765744057 -0.16971939753339452
leaf_weight=24.891981638967991 8.2028408125042915 8.2695601060986519
leaf_count=121 67 46
internal_value=0 -0.180089
internal_weight=0 16.4724
internal_count=234 113
is_linear=0
shrinkage=0.2


Tree=29
num_leaves=4
num_cat=0
split_feature=44 44 45
split_gain=35.5204 0.0249787 0.00162821
threshold=1.028381068620454 0.65140094072646348 1.0000000180025095e-35
decision_type=2 2 2
left_child=1 2 -1
right_child=-2 -3 -4
leaf_value=-0.18225277434183326 0.27913017274256313 -0.19781577497453665 -0.17749606867229911
leaf_weight=8.2649199366569572 10.658166110515593 4.5889620184898368 4.4166500493884078
leaf_count=97 38 33 66
internal_value=0 -0.185172 -0.180596
internal_weight=0 17.2705 12.6816
internal_count=234 196 163
is_linear=0
shrinkage=0.2


Tree=30
num_leaves=4
num_cat=0
split_feature=44 46 48
split_gain=23.1249 0.00302236 4.99591e-05
threshold=-1.4848197840061459 0.62832158161253837 -0.44306692186205471
decision_type=2 2 2
left_child=-1 2 -2
right_child=1 -3 -4
leaf_value=0.39986632110228831 -0.17246962209727834 -0.17905220153621326 -0.17111691921721128
leaf_weight=4.0789924263954171 1.8608770947903384 4.3844425193965435 2.6436093263328067
leaf_count=14 53 71 96
internal_value=0 -0.175314 -0.171676
internal_weight=0 8.88893 4.50449
internal_count=234 220 149
is_linear=0
shrinkage=0.2


Tree=31
num_leaves=5
num_cat=0
split_feature=48 48 44 45
split_gain=20.2835 0.00482455 0.000396329 0.000134381
threshold=-1.1847619406300147 -1.061146104168688 -1.1078396561121562 1.0000000180025095e-35
decision_type=2 2 2 2
left_child=-1 -2 -3 -4
right_child=1 2 3 -5
leaf_value=0.37330714232795853 -0.18278238054425772 -0.17493795496151343 -0.17263626865858639 -0.17011923928519426
leaf_weight=4.0700436905026436 2.7673403769731522 1.6917022392153738 1.4896928016096356 1.9710211576893923
leaf_count=22 38 32 49 93
internal_value=0 -0.176047 -0.172429 -0.171203
internal_weight=0 7.91976 5.15242 3.46071
internal_count=234 212 174 142
is_linear=0
shrinkage=0.2


Tree=32
num_leaves=3
num_cat=0
split_feature=46 43
split_gain=17.5734 0.360326
threshold=0.62832158161253837 -0.42481670474064953
decision_type=2 2
left_child=1 -1
right_child=-2 -3
leaf_value=-0.12647334524790516 0.11217533414343116 -0.19086540807044367
leaf_weight=5.5782288983464232 23.254826247692108 9.2241677045822126
leaf_count=58 85 91
internal_value=0 -0.166599
internal_weight=0 14.8024
internal_count=234 149
is_linear=0
shrinkage=0.2


Tree=33
num_leaves=3
num_cat=0
split_feature=46 48
split_gain=10.0943 7.58383
threshold=0.62832158161253837 -0.44306692186205471
decision_type=2 2
left_child=1 -1
right_child=-2 -3
leaf_value=0.20586385054996353 -0.13588094622294844 -0.013728571768126528
leaf_weight=10.528384804725645 13.976498559117315 15.630358278751375
leaf_count=53 85 96
internal_value=0 0.0746531
internal_weight=0 26.1587
internal_count=234 149
is_linear=0
shrinkage=0.2


Tree=34
num_leaves=4
num_cat=0
split_feature=44 44 44
split_gain=15.6659 4.84897 0.0106941
threshold=-0.16538933637718142 0.65140094072646348 -0.85651957084949604
decision_type=2 2 2
left_child=2 -2 -1
right_child=1 -3 -4
leaf_value=-0.18471703218711874 0.17271232631577438 -0.001899263013447064 -0.19644212113132453
leaf_weight=6.1612622886896133 12.400670200586321 13.062777198851107 6.2859987244009954
leaf_count=64 54 71 45
internal_value=0 0.0831364 -0.190638
internal_weight=0 25.4634 12.4473
internal_count=234 125 109
is_linear=0
shrinkage=0.2


Tree=35
num_leaves=4
num_cat=0
split_feature=44 44 45
split_gain=27.8895 0.0141753 0.00107135
threshold=1.028381068620454 0.65140094072646348 1.0000000180025095e-35
decision_type=2 2 2
left_child=1 2 -1
right_child=-2 -3 -4
leaf_value=-0.17965173124109562 0.25395497919152782 -0.19223513133915915 -0.17540982621126414
leaf_weight=6.9281845316290873 9.8559620678424817 3.9524420201778403 3.6291519477963448
leaf_count=97 38 33 66
internal_value=0 -0.182018 -0.178194
internal_weight=0 14.5098 10.5573
internal_count=234 196 163
is_linear=0
shrinkage=0.2


Tree=36
num_leaves=4
num_cat=0
split_feature=44 44 0
split_gain=17.0599 0.00138779 3.10394e-05
threshold=-1.4848197840061459 -0.35387940032417631 1.0000000180025095e-35
decision_type=2 2 2
left_child=-1 -2 -3
right_child=1 2 -4
leaf_value=0.33330631725748594 -0.17609310913634693 -0.17102963143950159 -0.16972000557030187
leaf_weight=4.1835947930812836 4.309192044660449 1.666863152757287 1.2796313753351569
leaf_count=14 92 63 65
internal_value=0 -0.173806 -0.170461
internal_weight=0 7.25569 2.94649
internal_count=234 220 128
is_linear=0
shrinkage=0.2


Tree=37
num_leaves=4
num_cat=0
split_feature=40 43 44
split_gain=7.4276 0.839969 0.00323207
threshold=1.0000000180025095e-35 -0.6554138710294779 1.0000000180025095e-35
decision_type=2 2 2
left_child=1 -1 -3
right_child=-2 2 -4
leaf_value=-0.042397286227515457 0.23298258620210374 -0.18466321178814082 -0.1725299068135657
leaf_weight=3.7537398394197226 3.9340487467125058 1.7145628742873671 1.8002329710870979
leaf_count=72 54 35 73
internal_value=0 -0.108187 -0.178449
internal_weight=0 7.26854 3.5148
internal_count=234 180 108
is_linear=0
shrinkage=0.2


Tree=38
num_leaves=3
num_cat=0
split_feature=44 44
split_gain=13.0296 0.65241
threshold=-0.73085952821816658 -0.16538933637718142
decision_type=2 2
left_child=-1 -2
right_child=1 -3
leaf_value=0.1007623590086638 -0.091737823353868209 -0.18152078906723312
leaf_weight=20.853842169046402 5.0937418565154067 8.8831181749701482
leaf_count=78 31 125
internal_value=0 -0.1488
internal_weight=0 13.9769
internal_count=234 156
is_linear=0
shrinkage=0.2


Tree=39
num_leaves=3
num_cat=0
split_feature=47 45
split_gain=2.34891 1.96601
threshold=1.0000000180025095e-35 -1.0000000180025095e-35
decision_type=2 2
left_child=1 -1
right_child=-2 -3
leaf_value=0.1220322691198148 -0.059503602786895329 -0.0014870026287453837
leaf_weight=7.9806811660528192 15.189044956117867 14.554541669785976
leaf_count=44 94 96
internal_value=0 0.0422564
internal_weight=0 22.5352
internal_count=234 140
is_linear=0
shrinkage=0.2


Tree=40
num_leaves=4
num_cat=0
split_feature=46 1 48
split_gain=13.7625 9.09192 0.371296
threshold=1.0000000180025095e-35 1.0000000180025095e-35 0.57676372894389061
decision_type=2 2 2
left_child=1 -1 -2
right_child=2 -3 -4
leaf_value=-0.032628908755467978 -0.13720545134235751 0.22926116312375117 -0.20546620155590911
leaf_weight=11.167789489030838 6.4220925308763963 10.096075534820557 6.3282560035586357
leaf_count=80 72 41 41
internal_value=0 0.0917164 -0.171085
internal_weight=0 21.2639 12.7503
internal_count=234 121 113
is_linear=0
shrinkage=0.2


Tree=41
num_leaves=4
num_cat=0
split_feature=44 44 44
split_gain=21.8299 0.0100651 0.000517088
threshold=1.028381068620454 0.65140094072646348 -0.85651957084949604
decision_type=2 2 2
left_child=1 2 -1
right_child=-2 -3 -4
leaf_value=-0.17379691096870509 0.23429229575804481 -0.18875176371509744 -0.17711936658712593
leaf_weight=2.7748487349599591 8.8169264346361143 3.5173825696110717 5.7698005475103882
leaf_count=64 38 33 99
internal_value=0 -0.179747 -0.17604
internal_weight=0 12.062 8.54465
internal_count=234 196 163
is_linear=0
shrinkage=0.2


Tree=42
num_leaves=4
num_cat=0
split_feature=43 41 46
split_gain=6.63892 0.00115195 4.03573e-05
threshold=-0.88601103731830644 1.0000000180025095e-35 -0.49873967269484426
decision_type=2 2 2
left_child=-1 2 -2
right_child=1 -3 -4
leaf_value=0.15616743330352215 -0.16902044055840534 -0.17670689330302872 -0.17062459503005356
leaf_weight=5.7769108191132545 1.0521041397005317 1.6688984353095291 1.55374819226563
leaf_count=60 68 38 68
internal_value=0 -0.172604 -0.169977
internal_weight=0 4.27475 2.60585
internal_count=234 174 136
is_linear=0
shrinkage=0.2


Tree=43
num_leaves=5
num_cat=0
split_feature=48 48 47 44
split_gain=11.432 0.00421143 0.000204187 3.29984e-05
threshold=-1.1847619406300147 -1.061146104168688 0.56441192717192723 -0.16538933637718142
decision_type=2 2 2 2
left_child=-1 -2 3 -3
right_child=1 2 -4 -5
leaf_value=0.24086008490642807 -0.18229551758781723 -0.17076566188174203 -0.17308470541882556 -0.16935227384601648
leaf_weight=4.8159118145704269 1.9666072260588405 1.1772499633952977 1.2295594848692415 1.5059837927110495
leaf_count=22 38 45 31 98
internal_value=0 -0.174745 -0.17095 -0.169972
internal_weight=0 5.8794 3.91279 2.68323
internal_count=234 212 174 143
is_linear=0
shrinkage=0.2


Tree=44
num_leaves=5
num_cat=0
split_feature=44 31 44 43
split_gain=10.3747 5.10296 0.503362 0.148253
threshold=-0.98217961348082616 1.0000000180025095e-35 -0.60519948558683645 -0.54011528788506369
decision_type=2 2 2 2
left_child=-1 2 -2 -4
right_child=1 -3 3 -5
leaf_value=0.12720084822516459 -0.23673892660148244 0.034633633364412664 -0.18012334737742966 -0.11898288123369505
leaf_weight=14.181563541293146 4.620769843459132 6.7367271855473509 3.2159992940723923 3.1306442655622924
leaf_count=56 27 46 45 60
internal_value=0 -0.10237 -0.186524 -0.149964
internal_weight=0 17.7041 10.9674 6.34664
internal_count=234 178 132 105
is_linear=0
shrinkage=0.2


Tree=45
num_leaves=3
num_cat=0
split_feature=48 48
split_gain=2.23754 6.492
threshold=-0.78301047213070307 -0.44306692186205471
decision_type=2 2
left_child=-1 -2
right_child=1 -3
leaf_value=-0.090617504277972216 0.15357993615246149 -0.046490884790706455
leaf_weight=8.1231275051832181 10.400174558162691 17.243565790355206
leaf_count=72 43 119
internal_value=0 0.0287801
internal_weight=0 27.6437
internal_count=234 162
is_linear=0
shrinkage=0.2


Tree=46
num_leaves=4
num_cat=0
split_feature=46 43 43
split_gain=10.798 7.77642 0.373149
threshold=1.0000000180025095e-35 -1.0000000180025095e-35 -0.42481670474064953
decision_type=2 2 2
left_child=1 -1 -2
right_child=2 -3 -4
leaf_value=0.1950599149974718 -0.19624527961363378 -0.059778516791180493 -0.12269870050623025
leaf_weight=10.805860459804538 6.3519918620586395 8.6030185222625732 4.8788874559104425
leaf_count=56 65 65 48
internal_value=0 0.0821023 -0.164295
internal_weight=0 19.4089 11.2309
internal_count=234 121 113
is_linear=0
shrinkage=0.2


Tree=47
num_leaves=4
num_cat=0
split_feature=46 46 46
split_gain=14.025 0.428514 0.00221954
threshold=-1.0622702998485356 -0.49873967269484426 0.62832158161253837
decision_type=2 2 2
left_child=-1 -2 -3
right_child=1 2 -4
leaf_value=0.20785422457299371 -0.086404035904894996 -0.18139456762891226 -0.17458004749490741
leaf_weight=7.2709688991308239 2.7664886564016351 4.087455611675975 3.5919076707214117
leaf_count=38 50 61 85
internal_value=0 -0.153894 -0.178207
internal_weight=0 10.4459 7.67936
internal_count=234 196 146
is_linear=0
shrinkage=0.2


Tree=48
num_leaves=4
num_cat=0
split_feature=44 44 48
split_gain=11.9818 0.000603669 5.27977e-05
threshold=-1.4848197840061459 -0.35387940032417631 0.57676372894389061
decision_type=2 2 2
left_child=-1 -2 -3
right_child=1 2 -4
leaf_value=0.28346379000656746 -0.17423115524896712 -0.16882763701218528 -0.170832657381567
leaf_weight=4.0418174564838409 3.2560401167720556 0.99409030564129364 1.1140845715999603
leaf_count=14 92 78 50
internal_value=0 -0.172524 -0.169887
internal_weight=0 5.36421 2.10817
internal_count=234 220 128
is_linear=0
shrinkage=0.2


Tree=49
num_leaves=4
num_cat=0
split_feature=43 43 47
split_gain=4.3293 1.69827 0.0114747
threshold=-0.30951812159623526 -0.77071245417389211 1.0480088590443242
decision_type=2 2 2
left_child=1 -1 -2
right_child=2 -3 -4
leaf_value=0.0075478019070393896 -0.16987564659391785 0.21212659303920672 -0.19333821822985311
leaf_weight=3.6498391190543771 1.7631972106173637 2.9229597439989448 1.5817579589784143
leaf_count=67 98 46 23
internal_value=0 0.0985251 -0.180971
internal_weight=0 6.5728 3.34496
internal_count=234 113 121
is_linear=0
shrinkage=0.2


Tree=50
num_leaves=3
num_cat=0
split_feature=47 47
split_gain=4.02589 0.737492
threshold=1.0000000180025095e-35 -0.40278193657286659
decision_type=2 2
left_child=1 -1
right_child=-2 -3
leaf_value=-0.1773602971110454 0.050147279271489244 -0.060133595258405816
leaf_weight=3.8545383270829934 20.632942851632833 4.8448506370186806
leaf_count=94 94 46
internal_value=0 -0.112075
internal_weight=0 8.69939
internal_count=234 140
is_linear=0
shrinkage=0.2


Tree=51
num_leaves=4
num_cat=0
split_feature=46 46 48
split_gain=5.68045 6.62821 10.581
threshold=0.62832158161253837 1.0000000180025095e-35 -0.44306692186205471
decision_type=2 2 2
left_child=1 2 -1
right_child=-2 -3 -4
leaf_value=0.15437314376133462 -0.11521682084303236 0.20884707554645884 -0.19077868360366551
leaf_weight=6.9735451936721793 11.268656471744178 7.7080816924571982 7.2426727414131191
leaf_count=46 85 28 75
internal_value=0 0.0595043 -0.0214698
internal_weight=0 21.9243 14.2162
internal_count=234 149 121
is_linear=0
shrinkage=0.2


Tree=52
num_leaves=3
num_cat=0
split_feature=43 43
split_gain=8.38304 5.9029
threshold=0.15167621098142162 -0.77071245417389211
decision_type=2 2
left_child=1 -1
right_child=-2 -3
leaf_value=-0.086014414019831342 -0.18902203231629888 0.1429221644257179
leaf_weight=7.0427743829786822 7.4402182437479487 12.502170093357563
leaf_count=67 86 81
internal_value=0 0.0604278
internal_weight=0 19.5449
internal_count=234 148
is_linear=0
shrinkage=0.2


Tree=53
num_leaves=4
num_cat=0
split_feature=44 44 43
split_gain=13.7461 0.00359921 0.000298181
threshold=1.028381068620454 0.65140094072646348 -0.30951812159623526
decision_type=2 2 2
left_child=1 2 -1
right_child=-2 -3 -4
leaf_value=-0.17159279881873968 0.20972900483367571 -0.18212606822690261 -0.17448375674939473
leaf_weight=2.5483007924631229 6.5810519158840188 2.6364296041429043 3.2435962036252013
leaf_count=92 38 33 71
internal_value=0 -0.176 -0.173212
internal_weight=0 8.42833 5.7919
internal_count=234 196 163
is_linear=0
shrinkage=0.2


Tree=54
num_leaves=4
num_cat=0
split_feature=47 48 48
split_gain=8.74024 0.000343836 0.000112392
threshold=2.1361019557572178 -0.90662630859202975 0.57676372894389061
decision_type=2 2 2
left_child=1 -1 -3
right_child=-2 2 -4
leaf_value=-0.17414935558211225 0.24287248602592959 -0.16873203362542102 -0.17134243200750093
leaf_weight=1.4354710192419586 3.9257414788007736 1.0711829764768483 1.7177186333574352
leaf_count=49 20 93 72
internal_value=0 -0.171634 -0.17034
internal_weight=0 4.22437 2.7889
internal_count=234 214 165
is_linear=0
shrinkage=0.2


Tree=55
num_leaves=5
num_cat=0
split_feature=45 47 47 47
split_gain=5.63141 0.0220174 5.38686e-05 4.90226e-06
threshold=-0.87499516859734705 1.2898073249805229 1.0000000180025095e-35 -0.40278193657286659
decision_type=2 2 2 2
left_child=-1 2 3 -2
right_child=1 -3 -4 -5
leaf_value=0.1389441817719769 -0.16859938144938136 -0.20272084323482439 -0.17080609789377865 -0.16932397777047967
leaf_weight=5.4134810930117965 0.78537576529197417 1.1818161495029924 1.0621431171894071 0.71211810689419552
leaf_count=62 76 8 47 41
internal_value=0 -0.180142 -0.169717 -0.168944
internal_weight=0 3.74145 2.55964 1.49749
internal_count=234 172 164 117
is_linear=0
shrinkage=0.2


Tree=56
num_leaves=4
num_cat=0
split_feature=43 42 43
split_gain=2.99764 4.8925 1.65162
threshold=-0.078920955307406782 1.0000000180025095e-35 0.26697479412583586
decision_type=2 2 2
left_child=1 -1 -2
right_child=2 -3 -4
leaf_value=-0.19133695058782579 0.14389591082282266 0.044231111487478415 -0.00062845121944345769
leaf_weight=6.3713536728173512 6.4260359108448011 7.8985302280634642 6.2287396835163236
leaf_count=33 40 91 70
internal_value=0 -0.0609476 0.0727603
internal_weight=0 14.2699 12.6548
internal_count=234 124 110
is_linear=0
shrinkage=0.2


Tree=57
num_leaves=4
num_cat=0
split_feature=46 46 13
split_gain=3.95932 4.49561 6.87891
threshold=0.62832158161253837 1.0000000180025095e-35 1.0000000180025095e-35
decision_type=2 2 2
left_child=1 2 -1
right_child=-2 -3 -4
leaf_value=0.11640526288123815 -0.10156204278285225 0.17747908915585284 -0.18443257871726604
leaf_weight=6.615763716399675 10.295711342245339 7.1814337521791449 5.6254928037524223
leaf_count=47 85 28 74
internal_value=0 0.0518538 -0.0218453
internal_weight=0 19.4227 12.2413
internal_count=234 149 121
is_linear=0
shrinkage=0.2


Tree=58
num_leaves=3
num_cat=0
split_feature=44 44
split_gain=7.32882 1.51175
threshold=-0.16538933637718142 0.53177597689751677
decision_type=2 2
left_child=-1 -2
right_child=1 -3
leaf_value=-0.18170495615784144 0.13615228289300432 0.013384868815921581
leaf_weight=6.9301953632384565 6.7371281087398556 9.9192083515226823
leaf_count=109 48 77
internal_value=0 0.0630416
internal_weight=0 16.6563
internal_count=234 125
is_linear=0
shrinkage=0.2


Tree=59
num_leaves=4
num_cat=0
split_feature=46 46 47
split_gain=8.00365 0.450353 0.000712556
threshold=-1.0622702998485356 -0.49873967269484426 1.0000000180025095e-35
decision_type=2 2 2
left_child=-1 -2 -3
right_child=1 2 -4
leaf_value=0.18579926928466184 -0.062691567669623527 -0.17700643748677025 -0.17233199727802329
leaf_weight=4.9863088130950928 1.9853823650628326 2.5286965174600482 2.6942578786984086
leaf_count=38 50 55 91
internal_value=0 -0.143774 -0.174595
internal_weight=0 7.20834 5.22295
internal_count=234 196 146
is_linear=0
shrinkage=0.2


Tree=60
num_leaves=4
num_cat=0
split_feature=44 46 46
split_gain=6.89095 0.000323484 1.75647e-05
threshold=-1.4848197840061459 0.62832158161253837 -0.49873967269484426
decision_type=2 2 2
left_child=-1 2 -2
right_child=1 -3 -4
leaf_value=0.22934394287045926 -0.16790498053567748 -0.17253076854420607 -0.16927642494017917
leaf_weight=3.2795108556747437 0.63972079101949952 2.082096494268626 0.89778123144060373
leaf_count=14 88 71 61
internal_value=0 -0.170906 -0.168706
internal_weight=0 3.6196 1.5375
internal_count=234 220 149
is_linear=0
shrinkage=0.2


Tree=61
num_leaves=4
num_cat=0
split_feature=47 46 46
split_gain=2.77528 0.00051161 3.04153e-06
threshold=0.56441192717192723 1.19185220876623 -0.49873967269484426
decision_type=2 2 2
left_child=1 2 -1
right_child=-2 -3 -4
leaf_value=-0.16842401714829799 0.077439707702261468 -0.17482991732386055 -0.16894047133923631
leaf_weight=0.84965892066247772 5.8600954636931419 0.77502363175153721 0.98481963574886333
leaf_count=87 56 16 75
internal_value=0 -0.170521 -0.168701
internal_weight=0 2.6095 1.83448
internal_count=234 178 162
is_linear=0
shrinkage=0.2


Tree=62
num_leaves=4
num_cat=0
split_feature=46 46 47
split_gain=5.42928 0.553075 0.00275631
threshold=0.62832158161253837 1.0000000180025095e-35 -0.40278193657286659
decision_type=2 2 2
left_child=1 2 -1
right_child=-2 -3 -4
leaf_value=-0.17478740202056278 0.061694124331651112 -0.066050951375443728 -0.18417206605082287
leaf_weight=2.7332876557484296 17.354876428842545 2.6368523389101028 2.3096826802939177
leaf_count=93 85 28 28
internal_value=0 -0.140275 -0.179086
internal_weight=0 7.67982 5.04297
internal_count=234 149 121
is_linear=0
shrinkage=0.2


Tree=63
num_leaves=3
num_cat=0
split_feature=44 44
split_gain=3.21887 1.9426
threshold=-0.73085952821816658 1.0000000180025095e-35
decision_type=2 2
left_child=-1 -2
right_child=1 -3
leaf_value=-0.10254066104854094 0.12991214824870775 -0.0031860280982026995
leaf_weight=8.2961791120469588 7.0594099052250412 11.583905622363089
leaf_count=78 46 110
internal_value=0 0.0472124
internal_weight=0 18.6433
internal_count=234 156
is_linear=0
shrinkage=0.2


Tree=64
num_leaves=4
num_cat=0
split_feature=46 48 43
split_gain=6.19678 3.37007 0.417688
threshold=1.0000000180025095e-35 0.20591621955991044 -0.30951812159623526
decision_type=2 2 2
left_child=1 -1 -2
right_child=2 -3 -4
leaf_value=-0.0088495687757869958 -0.18591125395389993 0.19731265952415566 -0.093541853858714052
leaf_weight=7.4153454415500182 4.4282658845186234 5.541975162923336 3.5105934664607039
leaf_count=88 67 33 46
internal_value=0 0.0793281 -0.145065
internal_weight=0 12.9573 7.93886
internal_count=234 121 113
is_linear=0
shrinkage=0.2


Tree=65
num_leaves=4
num_cat=0
split_feature=43 47 48
split_gain=5.18286 0.827445 0.0744467
threshold=1.1893634592811499 -0.40278193657286659 -0.44306692186205471
decision_type=2 2 2
left_child=1 -1 -3
right_child=-2 2 -4
leaf_value=-0.0073840252352692752 0.19617597176748766 -0.12370422226410033 -0.17491683523204171
leaf_weight=2.38609479367733 3.4623691290616989 2.0218171798624098 2.5897572925314307
leaf_count=67 29 73 65
internal_value=0 -0.102994 -0.152464
internal_weight=0 6.99767 4.61157
internal_count=234 205 138
is_linear=0
shrinkage=0.2


Tree=66
num_leaves=4
num_cat=0
split_feature=45 48 46
split_gain=3.59032 0.000133548 2.44997e-05
threshold=-1.2355933716660144 -0.90662630859202975 1.0000000180025095e-35
decision_type=2 2 2
left_child=-1 -2 -3
right_child=1 2 -4
leaf_value=0.14900296718117403 -0.17225083616620002 -0.16787235156204947 -0.16945675630081813
leaf_weight=3.6451087144669145 0.64473472535610232 0.62631445680744935 1.03631069464609
leaf_count=48 26 95 65
internal_value=0 -0.169807 -0.16886
internal_weight=0 2.30736 1.66263
internal_count=234 186 160
is_linear=0
shrinkage=0.2


Tree=67
num_leaves=5
num_cat=0
split_feature=45 47 47 46
split_gain=3.83439 0.0135085 7.83532e-05 1.71211e-06
threshold=-0.87499516859734705 1.2898073249805229 0.56441192717192723 1.0000000180025095e-35
decision_type=2 2 2 2
left_child=-1 2 3 -2
right_child=1 -3 -4 -5
leaf_value=0.10948554047893784 -0.16800922584322583 -0.19756798738382478 -0.17105044681720125 -0.16848418542336008
leaf_weight=5.108835275284946 0.71192270494066201 1.0565220788121221 0.56643555499613274 0.52928471425548196
leaf_count=62 99 8 21 44
internal_value=0 -0.179602 -0.169101 -0.168212
internal_weight=0 2.86417 1.80764 1.24121
internal_count=234 172 164 143
is_linear=0
shrinkage=0.2


Tree=68
num_leaves=3
num_cat=0
split_feature=47 45
split_gain=1.97484 1.38626
threshold=1.0000000180025095e-35 1.0000000180025095e-35
decision_type=2 2
left_child=1 -1
right_child=-2 -3
leaf_value=0.016485305575353101 0.034157627808023422 -0.17656821166232869
leaf_weight=2.5003931540995863 16.544931065291166 3.6739363353699446
leaf_count=44 94 96
internal_value=0 -0.0983881
internal_weight=0 6.17433
internal_count=234 140
is_linear=0
shrinkage=0.2


Tree=69
num_leaves=4
num_cat=0
split_feature=43 43 44
split_gain=2.86637 4.10287 0.0535396
threshold=0.15167621098142162 -1.1166082036071348 -0.16538933637718142
decision_type=2 2 2
left_child=1 -1 -3
right_child=-2 2 -4
leaf_value=0.073923973638247029 0.089388453272089358 -0.11766140269742441 -0.14731027840473504
leaf_weight=6.3413881361484554 9.0522977821528894 4.7860863609239486 4.962013389915227
leaf_count=46 86 38 64
internal_value=0 -0.0512951 -0.132753
internal_weight=0 16.0895 9.7481
internal_count=234 148 102
is_linear=0
shrinkage=0.2


Tree=70
num_leaves=3
num_cat=0
split_feature=48 48
split_gain=5.1224 0.171717
threshold=-0.44306692186205471 -1.061146104168688
decision_type=2 2
left_child=1 -1
right_child=-2 -3
leaf_value=-0.11969223678732044 0.068015182080692946 -0.18542065422121465
leaf_weight=3.1719482652842999 12.441121630370615 3.1876511974260238
leaf_count=60 119 55
internal_value=0 -0.152638
internal_weight=0 6.3596
internal_count=234 115
is_linear=0
shrinkage=0.2


Tree=71
num_leaves=4
num_cat=0
split_feature=46 46 45
split_gain=5.50746 0.404391 0.000128854
threshold=-1.0622702998485356 -0.49873967269484426 0.63951728429105625
decision_type=2 2 2
left_child=-1 -2 -3
right_child=1 2 -4
leaf_value=0.18097491724438189 -0.054108486591390587 -0.17079157097955167 -0.17319603353428925
leaf_weight=3.8397505432367325 1.7285519912838934 1.8754797247238459 1.6992114000022409
leaf_count=38 50 94 52
internal_value=0 -0.13353 -0.171935
internal_weight=0 5.30324 3.57469
internal_count=234 196 146
is_linear=0
shrinkage=0.2


Tree=72
num_leaves=4
num_cat=0
split_feature=47 46 46
split_gain=4.61079 0.000163269 8.31709e-06
threshold=2.1361019557572178 0.62832158161253837 1.0000000180025095e-35
decision_type=2 2 2
left_child=1 2 -1
right_child=-2 -3 -4
leaf_value=-0.16762983289060876 0.19940558356804619 -0.17137363500765992 -0.16881951223233979
leaf_weight=0.6204999536275867 2.9189108200371265 1.5163889490067957 0.37840065779164433
leaf_count=118 20 68 28
internal_value=0 -0.170066 -0.168081
internal_weight=0 2.51529 0.998901
internal_count=234 214 146
is_linear=0
shrinkage=0.2


Tree=73
num_leaves=5
num_cat=0
split_feature=40 16 47 43
split_gain=2.20394 0.668011 0.00123951 2.63694e-06
threshold=1.0000000180025095e-35 1.0000000180025095e-35 1.0000000180025095e-35 -0.6554138710294779
decision_type=2 2 2 2
left_child=1 2 3 -1
right_child=-2 -3 -4 -5
leaf_value=-0.16858316641131288 0.12012490425888528 -0.0079211715259498074 -0.17811528828170217 -0.16788092305095659
leaf_weight=0.43750020489096675 3.5436349366791546 1.7883820591960105 1.2519822921603916 0.41847225558012724
leaf_count=40 54 57 23 60
internal_value=0 -0.0978283 -0.174105 -0.16824
internal_weight=0 3.89634 2.10795 0.855972
internal_count=234 180 123 100
is_linear=0
shrinkage=0.2


Tree=74
num_leaves=3
num_cat=0
split_feature=46 43
split_gain=3.48719 0.556795
threshold=0.62832158161253837 -0.54011528788506369
decision_type=2 2
left_child=1 -1
right_child=-2 -3
leaf_value=-0.051696713679780293 0.050502164477285276 -0.17793196477346052
leaf_weight=2.2657402548938999 15.785042464733122 3.6478133727796394
leaf_count=47 85 102
internal_value=0 -0.129566
internal_weight=0 5.91355
internal_count=234 149
is_linear=0
shrinkage=0.2


Tree=75
num_leaves=3
num_cat=0
split_feature=40 1
split_gain=2.75987 1.98797
threshold=1.0000000180025095e-35 1.0000000180025095e-35
decision_type=2 2
left_child=1 -1
right_child=-2 -3
leaf_value=-0.14180298247677972 0.092905374856536313 0.0047978448729994912
leaf_weight=5.9603528771549454 8.1012861579656601 9.756243484094739
leaf_count=94 54 86
internal_value=0 -0.050799
internal_weight=0 15.7166
internal_count=234 180
is_linear=0
shrinkage=0.2


Tree=76
num_leaves=4
num_cat=0
split_feature=44 44 43
split_gain=4.14193 1.01303 0.00099767
threshold=-0.16538933637718142 0.53177597689751677 0.15167621098142162
decision_type=2 2 2
left_child=2 -2 -1
right_child=1 -3 -4
leaf_value=-0.17979311200773329 0.11653452865759605 0.00054985956541777454 -0.1738188703110061
leaf_weight=2.4133340972475734 4.9964280128478986 7.5847969055175781 2.0832978989928961
leaf_count=62 48 77 47
internal_value=0 0.0466113 -0.177025
internal_weight=0 12.5812 4.49663
internal_count=234 125 109
is_linear=0
shrinkage=0.2


Tree=77
num_leaves=4
num_cat=0
split_feature=46 48 16
split_gain=4.44843 0.728815 2.27223e-05
threshold=-1.0622702998485356 -1.061146104168688 1.0000000180025095e-35
decision_type=2 2 2
left_child=-1 -2 -3
right_child=1 2 -4
leaf_value=0.17507117618969009 0.01245853432072115 -0.17168388268183454 -0.17065015834786304
leaf_weight=3.4457822814583778 1.151778364786878 1.9476273395121098 1.5099913550075144
leaf_count=38 42 84 70
internal_value=0 -0.125332 -0.171232
internal_weight=0 4.6094 3.45762
internal_count=234 196 154
is_linear=0
shrinkage=0.2


end of trees

feature_importances:
Column_44=46
Column_46=41
Column_47=33
Column_43=31
Column_48=24
Column_45=18
Column_40=5
Column_13=4
Column_42=4
Column_0=3
Column_41=3
Column_1=2
Column_16=2
Column_31=2

parameters:
[boosting: gbdt]
[objective: multiclass]
[metric: custom]
[tree_learner: serial]
[device_type: cpu]
[data_sample_strategy: bagging]
[data: ]
[valid: ]
[num_iterations: 10000]
[learning_rate: 0.2]
[num_leaves: 63]
[num_threads: 0]
[seed: 1239]
[deterministic: 0]
[force_col_wise: 0]
[force_row_wise: 0]
[histogram_pool_size: -1]
[max_depth: -1]
[min_data_in_leaf: 50]
[min_sum_hessian_in_leaf: 0.001]
[bagging_fraction: 1]
[pos_bagging_fraction: 1]
[neg_bagging_fraction: 1]
[bagging_freq: 0]
[bagging_seed: 21187]
[feature_fraction: 0.5]
[feature_fraction_bynode: 1]
[feature_fraction_seed: 30770]
[extra_trees: 0]
[extra_seed: 27351]
[early_stopping_round: 0]
[early_stopping_min_delta: 0]
[first_metric_only: 0]
[max_delta_step: 0]
[lambda_l1: 0]
[lambda_l2: 0]
[linear_lambda: 0]
[min_gain_to_split: 0]
[drop_rate: 0.1]
[max_drop: 50]
[skip_drop: 0.5]
[xgboost_dart_mode: 0]
[uniform_drop: 0]
[drop_seed: 3778]
[top_rate: 0.2]
[other_rate: 0.1]
[min_data_per_group: 100]
[max_cat_threshold: 32]
[cat_l2: 10]
[cat_smooth: 10]
[max_cat_to_onehot: 4]
[top_k: 20]
[monotone_constraints: ]
[monotone_constraints_method: basic]
[monotone_penalty: 0]
[feature_contri: ]
[forcedsplits_filename: ]
[refit_decay_rate: 0.9]
[cegb_tradeoff: 1]
[cegb_penalty_split: 0]
[cegb_penalty_feature_lazy: ]
[cegb_penalty_feature_coupled: ]
[path_smooth: 0]
[interaction_constraints: ]
[verbosity: -1]
[saved_feature_importance_type: 0]
[use_quantized_grad: 0]
[num_grad_quant_bins: 4]
[quant_train_renew_leaf: 0]
[stochastic_rounding: 1]
[linear_tree: 0]
[max_bin: 255]
[max_bin_by_feature: ]
[min_data_in_bin: 3]
[bin_construct_sample_cnt: 200000]
[data_random_seed: 4084]
[is_enable_sparse: 1]
[enable_bundle: 1]
[use_missing: 1]
[zero_as_missing: 0]
[feature_pre_filter: 1]
[pre_partition: 0]
[two_round: 0]
[header: 0]
[label_column: ]
[weight_column: ]
[group_column: ]
[ignore_column: ]
[categorical_feature: ]
[forcedbins_filename: ]
[precise_float_parser: 0]
[parser_config_file: ]
[objective_seed: 9093]
[num_class: 6]
[is_unbalance: 0]
[scale_pos_weight: 1]
[sigmoid: 1]
[boost_from_average: 1]
[reg_sqrt: 0]
[alpha: 0.9]
[fair_c: 1]
[poisson_max_delta_step: 0.7]
[tweedie_variance_power: 1.5]
[lambdarank_truncation_level: 30]
[lambdarank_norm: 1]
[label_gain: ]
[lambdarank_position_bias_regularization: 0]
[eval_at: ]
[multi_error_top_k: 1]
[auc_mu_weights: ]
[num_machines: 1]
[local_listen_port: 12400]
[time_out: 120]
[machine_list_filename: ]
[machines: ]
[gpu_platform_id: -1]
[gpu_device_id: -1]
[gpu_use_dp: 0]
[num_gpu: 1]

end of parameters

pandas_categorical:null
