tree
version=v4
num_class=6
num_tree_per_iteration=6
label_index=0
max_feature_idx=48
objective=multiclass num_class:6
feature_names=Column_0 Column_1 Column_2 Column_3 Column_4 Column_5 Column_6 Column_7 Column_8 Column_9 Column_10 Column_11 Column_12 Column_13 Column_14 Column_15 Column_16 Column_17 Column_18 Column_19 Column_20 Column_21 Column_22 Column_23 Column_24 Column_25 Column_26 Column_27 Column_28 Column_29 Column_30 Column_31 Column_32 Column_33 Column_34 Column_35 Column_36 Column_37 Column_38 Column_39 Column_40 Column_41 Column_42 Column_43 Column_44 Column_45 Column_46 Column_47 Column_48
feature_infos=[0:1] [0:1] none none none none none none none none none none none [0:1] none none [0:1] none none none none none none none none none none none none none none [0:1] none none none none none none none none [0:1] [0:1] [0:1] [-1.6354518277569989:1.9388042497198423] [-1.6733098479531416:1.7195113030927685] [-1.4038725330980597:1.48091309145128] [-1.3440356134253817:1.4736175223430754] [-1.2490765673495612:3.828691217310606] [-2.3591123870126185:1.9674418891338159]
tree_sizes=342 449 452 551 450 347 556 553 554 551 553 449 558 665 448 449 557 547 555 560 448 554 555 553 660 560 452 552 552 553 663 557 447 447 552 554 660 553 557 453 550 555 662 560 556 455 553 659 555 557 550 552 551 553 774 558 556 452 554 449 665 562 450 449 449 555 669 665 454 550 451 559 557 549 451 450 449 550 673 672 448 556 561 557 671 553 562 448 550 557 673 557 452 550 554 668 668 563 449 551 556 567 671 557 670 452 558 559 565 672 451 551 557 560 780 562 560 447 556 561 673 670 556 451 557 561 565 671 560 450 561 563

Tree=0
num_leaves=2
num_cat=0
split_feature=46
split_gain=47.9251
threshold=1.19185220876623
decision_type=2
left_child=-1
right_child=-2
leaf_value=-2.9253531253169465 -2.108270103800348
leaf_weight=13.17455553263426 3.6715974435210219
leaf_count=183 51
internal_value=-2.74727
internal_weight=0
internal_count=234
is_linear=0
shrinkage=1


Tree=1
num_leaves=3
num_cat=0
split_feature=40 45
split_gain=43.4314 0.164663
threshold=1.0000000180025095e-35 -0.6345963665515687
decision_type=2 2
left_child=1 -1
right_child=-2 -3
leaf_value=-2.755155030250227 -2.06884134422998 -2.8018312758989592
leaf_weight=4.2848346680402782 4.3656806051731101 10.267434015870093
leaf_count=53 54 127
internal_value=-2.62211 -2.78809
internal_weight=0 14.5523
internal_count=234 180
is_linear=0
shrinkage=1


Tree=2
num_leaves=3
num_cat=0
split_feature=44 44
split_gain=96.9761 3.26197
threshold=-0.85651957084949604 1.0000000180025095e-35
decision_type=2 2
left_child=-1 -2
right_child=1 -3
leaf_value=-1.0057514550275561 -1.5401744514084901 -1.6658650269493065
leaf_weight=14.239973634481428 12.729673400521277 23.517532214522362
leaf_count=66 59 109
internal_value=-1.44799 -1.62172
internal_weight=0 36.2472
internal_count=234 168
is_linear=0
shrinkage=1


Tree=3
num_leaves=4
num_cat=0
split_feature=40 43 44
split_gain=18.4395 15.0953 1.22114
threshold=1.0000000180025095e-35 -0.77071245417389211 0.14876077020114348
decision_type=2 2 2
left_child=1 -1 -3
right_child=-2 2 -4
leaf_value=-1.5389827224330359 -1.4316577988381249 -1.7838838947318023 -1.8763946397622431
leaf_weight=10.076704099774359 9.8934912979602796 10.80955530703068 12.092044919729231
leaf_count=55 54 59 66
internal_value=-1.67113 -1.74297 -1.83273
internal_weight=0 32.9783 22.9016
internal_count=234 180 125
is_linear=0
shrinkage=1


Tree=4
num_leaves=3
num_cat=0
split_feature=44 44
split_gain=69.6549 32.1718
threshold=-0.35387940032417631 0.65140076417830439
decision_type=2 2
left_child=-1 -2
right_child=1 -3
leaf_value=-1.4707531820631727 -0.79702884508447847 -1.2088547074066662
leaf_weight=26.964540556073189 13.358579725027086 17.564058527350426
leaf_count=109 54 71
internal_value=-1.23581 -1.03095
internal_weight=0 30.9226
internal_count=234 125
is_linear=0
shrinkage=1


Tree=5
num_leaves=2
num_cat=0
split_feature=44
split_gain=114.322
threshold=0.77706098335779361
decision_type=2
left_child=-1
right_child=-2
leaf_value=-2.0959529635695233 -1.2467067348393148
leaf_weight=27.475344836711884 8.2426034510135633
leaf_count=180 54
internal_value=-1.89997
internal_weight=0
internal_count=234
is_linear=0
shrinkage=1


Tree=6
num_leaves=4
num_cat=0
split_feature=45 45 46
split_gain=38.3604 0.00366138 1.44071e-05
threshold=-1.2355933716660144 1.3607136904283912 1.0000000180025095e-35
decision_type=2 2 2
left_child=-1 2 -2
right_child=1 -3 -4
leaf_value=0.51354912806274133 -0.17581095559138349 -0.18336206803571531 -0.17633077684587686
leaf_weight=4.295943051576617 4.7205628007650358 4.0103410668671122 3.8902514167129993
leaf_count=44 80 46 64
internal_value=0 -0.178371 -0.176046
internal_weight=0 12.6212 8.61081
internal_count=234 190 144
is_linear=0
shrinkage=0.2


Tree=7
num_leaves=4
num_cat=0
split_feature=48 48 44
split_gain=38.2708 0.00830826 6.36984e-05
threshold=-1.061146104168688 -0.44306692186205471 0.46894595558185198
decision_type=2 2 2
left_child=-1 -2 -3
right_child=1 2 -4
leaf_value=0.4492641907239448 -0.18753871442559197 -0.17680725045511164 -0.17790952306803209
leaf_weight=5.373094446957114 5.2001022547483471 4.1511079706251568 4.2380241490900517
leaf_count=61 48 64 61
internal_value=0 -0.181258 -0.177364
internal_weight=0 13.5892 8.38913
internal_count=234 173 125
is_linear=0
shrinkage=0.2


Tree=8
num_leaves=4
num_cat=0
split_feature=44 46 44
split_gain=55.3047 4.54505 0.00206113
threshold=-0.85651957084949604 1.0000000180025095e-35 0.2744208128324736
decision_type=2 2 2
left_child=-1 2 -2
right_child=1 -3 -4
leaf_value=0.28600299135453749 -0.20838638739125789 -0.040377165546720627 -0.20451797028385929
leaf_weight=17.551477462053299 10.264670655131345 9.4058953076601011 11.892149448394774
leaf_count=66 54 48 66
internal_value=0 -0.156861 -0.20631
internal_weight=0 31.5627 22.1568
internal_count=234 168 120
is_linear=0
shrinkage=0.2


Tree=9
num_leaves=4
num_cat=0
split_feature=45 45 0
split_gain=15.6738 19.2664 13.0694
threshold=-0.87499516859734705 -0.20184861318246741 1.0000000180025095e-35
decision_type=2 2 2
left_child=-1 -2 -3
right_child=1 2 -4
leaf_value=-0.19102069836989047 0.31948956703634573 0.12167772313127197 -0.19732092208926405
leaf_weight=11.73589241504669 9.3667414486408251 11.073229640722275 9.5835430026054382
leaf_count=63 46 64 61
internal_value=0 0.0815663 -0.0263191
internal_weight=0 30.0235 20.6568
internal_count=234 171 125
is_linear=0
shrinkage=0.2


Tree=10
num_leaves=4
num_cat=0
split_feature=13 43 47
split_gain=44.709 2.53751 2.47932
threshold=1.0000000180025095e-35 1.0000000180025095e-35 -0.40278193657286659
decision_type=2 2 2
left_child=1 -1 -2
right_child=2 -3 -4
leaf_value=-0.10100449747590179 0.24033936933392674 -0.22445921035080518 0.12080885954995349
leaf_weight=10.830878004431726 13.948234349489214 17.292365983128548 13.817203819751738
leaf_count=49 50 78 57
internal_value=0 -0.176914 0.180856
internal_weight=0 28.1232 27.7654
internal_count=234 127 107
is_linear=0
shrinkage=0.2


Tree=11
num_leaves=3
num_cat=0
split_feature=46 47
split_gain=95.1743 0.137402
threshold=-1.0622702998485356 1.0000000180025095e-35
decision_type=2 2
left_child=-1 -2
right_child=1 -3
leaf_value=0.58250531126295535 -0.20137392479852104 -0.17266964178920624
leaf_weight=8.381446108222006 15.164335109293463 11.90907847881317
leaf_count=36 102 96
internal_value=0 -0.188747
internal_weight=0 27.0734
internal_count=234 198
is_linear=0
shrinkage=0.2


Tree=12
num_leaves=4
num_cat=0
split_feature=43 43 43
split_gain=20.6496 0.00171727 9.88869e-06
threshold=-0.88601103731830644 0.49757196041466434 -0.19421953845182102
decision_type=2 2 2
left_child=-1 2 -2
right_child=1 -3 -4
leaf_value=0.28435517046241632 -0.17425439371972928 -0.17979529989227988 -0.17478011523913012
leaf_weight=6.2927935048937824 2.6238238662481317 4.3735256344079971 3.1484921090304825
leaf_count=60 53 61 60
internal_value=0 -0.176806 -0.174541
internal_weight=0 10.1458 5.77232
internal_count=234 174 113
is_linear=0
shrinkage=0.2


Tree=13
num_leaves=5
num_cat=0
split_feature=48 40 48 47
split_gain=47.0211 0.00798318 0.00118179 1.44598e-05
threshold=-1.1847619406300147 1.0000000180025095e-35 -0.90662630859202975 -0.40278193657286659
decision_type=2 2 2 2
left_child=-1 2 -2 -4
right_child=1 -3 3 -5
leaf_value=0.56601721418047668 -0.18002775559277689 -0.18723752628016327 -0.17498089690122759 -0.1755557119761379
leaf_weight=4.4292427897453335 3.0249033309519291 3.988994948565959 2.9092235341668129 4.3951371163129789
leaf_count=29 39 35 54 77
internal_value=0 -0.179638 -0.176703 -0.175327
internal_weight=0 14.3183 10.3293 7.30436
internal_count=234 205 170 131
is_linear=0
shrinkage=0.2


Tree=14
num_leaves=3
num_cat=0
split_feature=44 43
split_gain=38.0351 0.466014
threshold=-0.73085952821816658 -0.078920955307406782
decision_type=2 2
left_child=-1 -2
right_child=1 -3
leaf_value=0.18708041878041851 -0.20057786150236256 -0.14448564629250657
leaf_weight=22.718053236603737 12.7954628020525 11.032995164394377
leaf_count=85 78 71
internal_value=0 -0.174606
internal_weight=0 23.8285
internal_count=234 149
is_linear=0
shrinkage=0.2


Tree=15
num_leaves=3
num_cat=0
split_feature=46 13
split_gain=14.5151 7.19237
threshold=0.62832158161253837 1.0000000180025095e-35
decision_type=2 2
left_child=1 -1
right_child=-2 -3
leaf_value=0.22835793333293264 -0.14694416747686406 0.010149108233803349
leaf_weight=10.135652899742126 15.692541196942328 14.960202530026436
leaf_count=53 90 91
internal_value=0 0.0982788
internal_weight=0 25.0959
internal_count=234 144
is_linear=0
shrinkage=0.2


Tree=16
num_leaves=4
num_cat=0
split_feature=46 43 43
split_gain=38.8713 28.8326 0.562154
threshold=1.0000000180025095e-35 1.0000000180025095e-35 -0.77071245417389211
decision_type=2 2 2
left_child=1 -1 -2
right_child=2 -3 -4
leaf_value=0.33858947655210292 -0.22630728019982402 -0.051087212009795595 -0.16330018264790913
leaf_weight=15.697397470474245 11.732460722327234 14.714839667081831 10.951153114438055
leaf_count=54 57 66 57
internal_value=0 0.150046 -0.195889
internal_weight=0 30.4122 22.6836
internal_count=234 120 114
is_linear=0
shrinkage=0.2


Tree=17
num_leaves=4
num_cat=0
split_feature=43 48 48
split_gain=47.262 2.06701 0.102791
threshold=1.1893634592811499 -0.90662630859202975 0.57676372894389061
decision_type=2 2 2
left_child=1 -1 -3
right_child=-2 2 -4
leaf_value=-0.052998368986323457 0.40083122384212538 -0.16547898864127053 -0.19612349331224532
leaf_weight=6.6428472399711636 8.397416800260542 7.456071816384795 10.606907695531843
leaf_count=58 29 65 82
internal_value=0 -0.148392 -0.183474
internal_weight=0 24.7058 18.063
internal_count=234 205 147
is_linear=0
shrinkage=0.2


Tree=18
num_leaves=4
num_cat=0
split_feature=47 46 46
split_gain=49.6686 0.0370288 0.000259526
threshold=2.1361019557572178 1.19185220876623 1.0000000180025095e-35
decision_type=2 2 2
left_child=1 2 -1
right_child=-2 -3 -4
leaf_value=-0.17329257630946654 0.67915326825344435 -0.19669178965574649 -0.17566545983947146
leaf_weight=4.8666196800768358 3.4035900980234155 4.6692648455500603 2.9681654796004295
leaf_count=116 27 36 55
internal_value=0 -0.182594 -0.174192
internal_weight=0 12.5041 7.83479
internal_count=234 207 171
is_linear=0
shrinkage=0.2


Tree=19
num_leaves=4
num_cat=0
split_feature=45 47 44
split_gain=18.9211 0.00711378 0.000645649
threshold=-0.87499516859734705 -1.0000000180025095e-35 0.14876077020114348
decision_type=2 2 2
left_child=-1 2 -2
right_child=1 -3 -4
leaf_value=0.23541475138713311 -0.17851658450996585 -0.18684809008319458 -0.17441064643204754
leaf_weight=7.5227967873215702 2.7410761415958413 4.239297512918708 3.4726837202906609
leaf_count=63 45 54 72
internal_value=0 -0.180531 -0.176222
internal_weight=0 10.4531 6.21376
internal_count=234 171 117
is_linear=0
shrinkage=0.2


Tree=20
num_leaves=3
num_cat=0
split_feature=46 0
split_gain=26.9932 0.150245
threshold=0.62832158161253837 1.0000000180025095e-35
decision_type=2 2
left_child=1 -1
right_child=-2 -3
leaf_value=-0.19386225648429889 0.14106092149199861 -0.1585951281586131
leaf_weight=9.3539174795150757 24.264056220650673 9.9949550628662109
leaf_count=68 90 76
internal_value=0 -0.175644
internal_weight=0 19.3489
internal_count=234 144
is_linear=0
shrinkage=0.2


Tree=21
num_leaves=4
num_cat=0
split_feature=31 47 45
split_gain=6.70249 13.7993 0.734857
threshold=1.0000000180025095e-35 0.56441192717192723 -1.0000000180025095e-35
decision_type=2 2 2
left_child=1 2 -1
right_child=-2 -3 -4
leaf_value=0.18967214445320493 -0.12590838718501293 -0.1513720038802982 0.11234440127987905
leaf_weight=9.6678623035550135 11.100308626890181 8.7649498209357244 10.000876650214197
leaf_count=53 57 62 62
internal_value=0 0.0573439 0.150354
internal_weight=0 28.4337 19.6687
internal_count=234 177 115
is_linear=0
shrinkage=0.2


Tree=22
num_leaves=4
num_cat=0
split_feature=48 47 43
split_gain=26.8496 0.564921 0.365455
threshold=-0.44306692186205471 -0.40278193657286659 1.0000000180025095e-35
decision_type=2 2 2
left_child=2 -2 -1
right_child=1 -3 -4
leaf_value=-0.15471202232493744 0.15248269931616032 0.096580626264441027 -0.21021102015003101
leaf_weight=8.9554060250520724 12.516088753938677 17.123803049325943 10.096802011132239
leaf_count=55 52 73 54
internal_value=0 0.120186 -0.184124
internal_weight=0 29.6399 19.0522
internal_count=234 125 109
is_linear=0
shrinkage=0.2


Tree=23
num_leaves=4
num_cat=0
split_feature=44 44 44
split_gain=46.3513 0.0367968 0.000696543
threshold=1.028381068620454 0.65140076417830439 -0.85651957084949604
decision_type=2 2 2
left_child=1 2 -1
right_child=-2 -3 -4
leaf_value=-0.17980139545981155 0.33650822543670028 -0.20093036376710735 -0.18268845474846662
leaf_weight=5.3348013758659389 10.297737240791319 5.4466233626008025 8.9516299292445201
leaf_count=66 35 36 97
internal_value=0 -0.186943 -0.18161
internal_weight=0 19.7331 14.2864
internal_count=234 199 163
is_linear=0
shrinkage=0.2


Tree=24
num_leaves=5
num_cat=0
split_feature=44 46 43 48
split_gain=35.25 0.0152977 0.000846288 0.00013097
threshold=-1.4848197840061459 1.19185220876623 -0.77071245417389211 1.0000000180025095e-35
decision_type=2 2 2 2
left_child=-1 2 -2 -4
right_child=1 -3 3 -5
leaf_value=0.51510203257820886 -0.17743440652630027 -0.18961010285769941 -0.17351896632384292 -0.17154491924103435
leaf_weight=3.9579641520977029 2.0230996347963801 3.7401447296142578 3.0337303075939408 2.4141757544130087
leaf_count=16 34 35 71 78
internal_value=0 -0.179169 -0.173941 -0.172644
internal_weight=0 11.2112 7.47101 5.44791
internal_count=234 218 183 149
is_linear=0
shrinkage=0.2


Tree=25
num_leaves=4
num_cat=0
split_feature=47 42 43
split_gain=14.0899 0.00122871 3.65812e-05
threshold=0.56441192717192723 1.0000000180025095e-35 -0.54011528788506369
decision_type=2 2 2
left_child=1 -1 -3
right_child=-2 2 -4
leaf_value=-0.17972478201690337 0.18722797752208484 -0.17544873395435689 -0.17442249076607441
leaf_weight=3.3523158766329306 8.1018803492188436 2.5309024676680565 3.0803707167506218
leaf_count=50 65 51 68
internal_value=0 -0.176695 -0.174885
internal_weight=0 8.96359 5.61127
internal_count=234 169 119
is_linear=0
shrinkage=0.2


Tree=26
num_leaves=3
num_cat=0
split_feature=47 47
split_gain=11.8366 1.23193
threshold=1.0000000180025095e-35 -0.40278193657286659
decision_type=2 2
left_child=1 -1
right_child=-2 -3
leaf_value=-0.18608555568247817 0.086915316188623581 -0.073645904693786221
leaf_weight=8.4707950353622419 25.207881107926369 7.2197161689400664
leaf_count=86 98 50
internal_value=0 -0.134348
internal_weight=0 15.6905
internal_count=234 136
is_linear=0
shrinkage=0.2


Tree=27
num_leaves=4
num_cat=0
split_feature=43 43 43
split_gain=8.00461 11.4735 0.188771
threshold=-1.1166082036071348 0.15167621098142162 -0.30951812159623526
decision_type=2 2 2
left_child=-1 2 -2
right_child=1 -3 -4
leaf_value=0.18220018509661365 -0.17331050477619198 0.095542296833644028 -0.13099318410404848
leaf_weight=8.0025690868496877 8.5486678704619425 13.384529404342173 8.3206853270530718
leaf_count=47 63 83 41
internal_value=0 -0.0427297 -0.152438
internal_weight=0 30.2539 16.8694
internal_count=234 187 104
is_linear=0
shrinkage=0.2


Tree=28
num_leaves=4
num_cat=0
split_feature=46 46 47
split_gain=26.5546 11.1944 0.39058
threshold=1.0000000180025095e-35 -0.49873967269484426 0.56441192717192723
decision_type=2 2 2
left_child=1 -1 -2
right_child=2 -3 -4
leaf_value=0.016074790935596252 -0.21179408343316064 0.27765639431497469 -0.15344236971501624
leaf_weight=15.565686970949173 10.104411989450456 11.290969282388687 8.4052344262599927
leaf_count=79 53 41 61
internal_value=0 0.126048 -0.185297
internal_weight=0 26.8567 18.5096
internal_count=234 120 114
is_linear=0
shrinkage=0.2


Tree=29
num_leaves=4
num_cat=0
split_feature=44 44 44
split_gain=34.3778 0.0228029 0.000646209
threshold=1.028381068620454 0.65140076417830439 -0.85651957084949604
decision_type=2 2 2
left_child=1 2 -1
right_child=-2 -3 -4
leaf_value=-0.1768149212900387 0.28624596109747746 -0.19519777054880899 -0.17990425150558209
leaf_weight=4.2318648956716087 10.006284534931181 4.7617066428065291 7.5229450091719654
leaf_count=66 35 36 97
internal_value=0 -0.183522 -0.178792
internal_weight=0 16.5165 11.7548
internal_count=234 199 163
is_linear=0
shrinkage=0.2


Tree=30
num_leaves=5
num_cat=0
split_feature=44 45 46 45
split_gain=23.4068 0.0102366 0.000555612 5.3825e-06
threshold=-1.4848197840061459 -1.2355933716660144 1.0000000180025095e-35 0.038520311133808112
decision_type=2 2 2 2
left_child=-1 -2 3 -3
right_child=1 2 -4 -5
leaf_value=0.37853238726974836 -0.18818810260736951 -0.17081057014197432 -0.17472208988111493 -0.17135826601081069
leaf_weight=4.4956448897719392 2.478201135993003 1.5167403481900685 3.9540531132370234 1.3624697001650927
leaf_count=16 29 56 83 50
internal_value=0 -0.177177 -0.173183 -0.17107
internal_weight=0 9.31146 6.83326 2.87921
internal_count=234 218 189 106
is_linear=0
shrinkage=0.2


Tree=31
num_leaves=4
num_cat=0
split_feature=48 48 46
split_gain=16.9604 0.00249625 9.8595e-05
threshold=-1.1847619406300147 -0.44306692186205471 1.0000000180025095e-35
decision_type=2 2 2
left_child=-1 -2 -3
right_child=1 2 -4
leaf_value=0.24163996765920581 -0.17871638581496016 -0.17120870056577234 -0.17316515432010851
leaf_weight=6.7097995579242715 5.1355098392814389 2.2185817603021851 1.9237224310636518
leaf_count=29 80 80 45
internal_value=0 -0.17577 -0.172117
internal_weight=0 9.27781 4.1423
internal_count=234 205 125
is_linear=0
shrinkage=0.2


Tree=32
num_leaves=3
num_cat=0
split_feature=46 43
split_gain=16.1538 0.271051
threshold=0.62832158161253837 -0.42481670474064953
decision_type=2 2
left_child=1 -1
right_child=-2 -3
leaf_value=-0.13129018401412793 0.10293364240053585 -0.18730275439364549
leaf_weight=5.8154102861881247 24.404999777674675 8.5166285000741464
leaf_count=55 90 89
internal_value=0 -0.164575
internal_weight=0 14.332
internal_count=234 144
is_linear=0
shrinkage=0.2


Tree=33
num_leaves=3
num_cat=0
split_feature=46 48
split_gain=7.70548 5.74435
threshold=0.62832158161253837 -0.44306692186205471
decision_type=2 2
left_child=1 -1
right_child=-2 -3
leaf_value=0.1925411345251011 -0.12442572043763672 -0.0072787269800891723
leaf_weight=9.272259056568144 12.519192107021807 15.169435597956182
leaf_count=45 90 99
internal_value=0 0.0685254
internal_weight=0 24.4417
internal_count=234 144
is_linear=0
shrinkage=0.2


Tree=34
num_leaves=4
num_cat=0
split_feature=44 44 44
split_gain=17.0205 4.7051 0.0122462
threshold=-0.35387940032417631 0.46894595558185198 -0.85651957084949604
decision_type=2 2 2
left_child=2 -2 -1
right_child=1 -3 -4
leaf_value=-0.18653901336242928 0.18411650947055941 0.016419021310805706 -0.19873834405804336
leaf_weight=6.9305960088968277 11.131596311926844 16.781084030866623 6.2685033082962018
leaf_count=66 47 78 43
internal_value=0 0.0832969 -0.192333
internal_weight=0 27.9127 13.1991
internal_count=234 125 109
is_linear=0
shrinkage=0.2


Tree=35
num_leaves=4
num_cat=0
split_feature=44 44 44
split_gain=26.3219 0.0102639 0.000499403
threshold=1.028381068620454 0.65140076417830439 -0.85651957084949604
decision_type=2 2 2
left_child=1 2 -1
right_child=-2 -3 -4
leaf_value=-0.17479117699294938 0.25593132791094869 -0.18882569429496182 -0.17778961642378885
leaf_weight=3.4138519503176203 9.2754678130149824 3.9473141580820075 6.3635557107627418
leaf_count=66 35 36 97
internal_value=0 -0.180218 -0.176743
internal_weight=0 13.7247 9.77741
internal_count=234 199 163
is_linear=0
shrinkage=0.2


Tree=36
num_leaves=5
num_cat=0
split_feature=44 44 43 44
split_gain=17.21 0.00531524 0.000297731 2.47071e-05
threshold=-1.4848197840061459 -1.1078396561121562 -0.77071245417389211 -0.35387940032417631
decision_type=2 2 2 2
left_child=-1 -2 -3 -4
right_child=1 2 3 -5
leaf_value=0.31288694223209629 -0.18246498586797752 -0.1739909904005581 -0.17121905874449178 -0.17012548204078703
leaf_weight=4.6175666749477386 2.7973512876778841 1.4094739425927398 1.344278207048774 2.1450207708403468
leaf_count=16 37 33 46 102
internal_value=0 -0.17551 -0.171538 -0.170547
internal_weight=0 7.69612 4.89877 3.4893
internal_count=234 218 181 148
is_linear=0
shrinkage=0.2


Tree=37
num_leaves=4
num_cat=0
split_feature=43 43 40
split_gain=7.76589 0.0748221 0.00868136
threshold=-0.30951812159623526 -1.231906786751549 1.0000000180025095e-35
decision_type=2 2 2
left_child=1 -1 -2
right_child=2 -3 -4
leaf_value=0.13768261555699723 -0.17399869213003052 0.10096734429596171 -0.18968468063170973
leaf_weight=4.1432436965405941 2.999088481068612 4.7835784163326007 2.6657822951674461
leaf_count=36 88 74 36
internal_value=0 0.118008 -0.18138
internal_weight=0 8.92682 5.66487
internal_count=234 110 124
is_linear=0
shrinkage=0.2


Tree=38
num_leaves=4
num_cat=0
split_feature=44 16 44
split_gain=14.0719 2.92289 0.00305575
threshold=-0.98217961348082616 1.0000000180025095e-35 0.46894595558185198
decision_type=2 2 2
left_child=-1 2 -2
right_child=1 -3 -4
leaf_value=0.14339494090531865 -0.17757042330955708 -0.027846705425325913 -0.18433151895240679
leaf_weight=15.674078762531279 5.3056967742741108 9.3393906839191914 5.3905343450605869
leaf_count=58 53 61 62
internal_value=0 -0.109597 -0.180978
internal_weight=0 20.0356 10.6962
internal_count=234 176 115
is_linear=0
shrinkage=0.2


Tree=39
num_leaves=3
num_cat=0
split_feature=47 47
split_gain=2.04078 1.31359
threshold=1.0000000180025095e-35 -0.40278193657286659
decision_type=2 2
left_child=1 -1
right_child=-2 -3
leaf_value=-0.0054372711059345932 -0.05860171739124731 0.093190852925715217
leaf_weight=11.426533833146093 13.186029169708489 10.244150876998903
leaf_count=86 98 50
internal_value=0 0.0411861
internal_weight=0 21.6707
internal_count=234 136
is_linear=0
shrinkage=0.2


Tree=40
num_leaves=4
num_cat=0
split_feature=46 48 48
split_gain=17.0349 9.40522 0.803094
threshold=1.0000000180025095e-35 0.57676372894389061 0.57676372894389061
decision_type=2 2 2
left_child=1 -1 -2
right_child=2 -3 -4
leaf_value=-0.014094112944584836 -0.12968185554631451 0.24546914966585109 -0.22365090406077304
leaf_weight=12.454544886946678 7.5218723230063897 10.12225230038166 7.0455029234290123
leaf_count=77 73 43 41
internal_value=0 0.10228 -0.17513
internal_weight=0 22.5768 14.5674
internal_count=234 120 114
is_linear=0
shrinkage=0.2


Tree=41
num_leaves=4
num_cat=0
split_feature=44 44 44
split_gain=20.7401 0.00689258 0.000255749
threshold=1.028381068620454 0.65140076417830439 -0.85651957084949604
decision_type=2 2 2
left_child=1 2 -1
right_child=-2 -3 -4
leaf_value=-0.17333740693704022 0.23628477400150238 -0.18556527986664625 -0.17571718689646978
leaf_weight=2.7855579238384962 8.3833586871623975 3.4736986607313156 5.1384719237685221
leaf_count=66 35 36 97
internal_value=0 -0.178137 -0.174881
internal_weight=0 11.3977 7.92403
internal_count=234 199 163
is_linear=0
shrinkage=0.2


Tree=42
num_leaves=5
num_cat=0
split_feature=41 46 43 48
split_gain=9.55873 0.00334532 0.00018275 1.79418e-05
threshold=1.0000000180025095e-35 1.19185220876623 -0.77071245417389211 1.0000000180025095e-35
decision_type=2 2 2 2
left_child=1 2 -1 -4
right_child=-2 -3 3 -5
leaf_value=-0.1729488750160374 0.20055685627111752 -0.18191192899998207 -0.17041182686331108 -0.16934069727422202
leaf_weight=1.2127470504492524 5.53225904610008 1.564285311847925 1.5285138189792635 1.0588282574899492
leaf_count=33 54 18 65 64
internal_value=0 -0.174127 -0.170923 -0.169973
internal_weight=0 5.36437 3.80009 2.58734
internal_count=234 180 162 129
is_linear=0
shrinkage=0.2


Tree=43
num_leaves=4
num_cat=0
split_feature=48 48 46
split_gain=10.4366 0.00111356 0.000111345
threshold=-1.1847619406300147 -0.44306692186205471 1.0000000180025095e-35
decision_type=2 2 2
left_child=-1 -2 -3
right_child=1 2 -4
leaf_value=0.17370220138327785 -0.17620159785826117 -0.16990725106856674 -0.17227920591235779
leaf_weight=6.8645522147417068 3.7890467643737793 1.5473232772201302 1.6208712141960857
leaf_count=29 80 80 45
internal_value=0 -0.173888 -0.171121
internal_weight=0 6.95724 3.16819
internal_count=234 205 125
is_linear=0
shrinkage=0.2


Tree=44
num_leaves=4
num_cat=0
split_feature=44 31 47
split_gain=10.4349 5.06642 0.322976
threshold=-0.98217961348082616 1.0000000180025095e-35 1.0000000180025095e-35
decision_type=2 2 2
left_child=-1 2 -2
right_child=1 -3 -4
leaf_value=0.12566081715177566 -0.15285974740749153 0.037420657284886881 -0.22061253281010265
leaf_weight=14.612878635525702 6.6416055858135241 6.6722113601863375 4.8838164508342743
leaf_count=58 95 53 28
internal_value=0 -0.101276 -0.18157
internal_weight=0 18.1976 11.5254
internal_count=234 176 123
is_linear=0
shrinkage=0.2


Tree=45
num_leaves=3
num_cat=0
split_feature=31 47
split_gain=2.58936 4.39174
threshold=1.0000000180025095e-35 -1.0000000180025095e-35
decision_type=2 2
left_child=1 -1
right_child=-2 -3
leaf_value=0.094606871935653647 -0.091612687310233351 -0.08375043406020044
leaf_weight=16.714504308998585 8.5924670323729497 8.2468977123498934
leaf_count=99 57 78
internal_value=0 0.0356801
internal_weight=0 24.9614
internal_count=234 177
is_linear=0
shrinkage=0.2


Tree=46
num_leaves=4
num_cat=0
split_feature=46 43 43
split_gain=13.061 7.1308 0.72615
threshold=1.0000000180025095e-35 -1.0000000180025095e-35 -0.30951812159623526
decision_type=2 2 2
left_child=1 -1 -2
right_child=2 -3 -4
leaf_value=0.20435179247391433 -0.2072841302076765 -0.030183142521515341 -0.11152339433767396
leaf_weight=10.781028971076012 7.1750861294567585 9.9906911179423332 5.6708953678607923
leaf_count=54 67 66 47
internal_value=0 0.0915462 -0.16501
internal_weight=0 20.7717 12.846
internal_count=234 120 114
is_linear=0
shrinkage=0.2


Tree=47
num_leaves=5
num_cat=0
split_feature=46 43 45 43
split_gain=14.5802 0.105842 0.00230694 0.000139861
threshold=-1.0622702998485356 0.15167621098142162 0.39911848224527785 -0.6554138710294779
decision_type=2 2 2 2
left_child=-1 2 3 -2
right_child=1 -3 -4 -5
leaf_value=0.21244881880546657 -0.17215375322430576 -0.12901032419427053 -0.18065354192867289 -0.17454726417255761
leaf_weight=7.2190663367509869 1.9321224968880426 2.5456951111555099 3.1255268361419439 1.9744588769972296
leaf_count=36 58 50 43 47
internal_value=0 -0.163954 -0.176604 -0.173363
internal_weight=0 9.5778 7.03211 3.90658
internal_count=234 198 148 105
is_linear=0
shrinkage=0.2


Tree=48
num_leaves=4
num_cat=0
split_feature=47 44 47
split_gain=12.0154 0.00221669 0.00011657
threshold=2.4987996546615152 -1.1078396561121562 -0.40278193657286659
decision_type=2 2 2
left_child=1 -1 -3
right_child=-2 2 -4
leaf_value=-0.17858359233031404 0.26747625020955318 -0.16862181302876111 -0.17119190292229233
leaf_weight=2.2053765896707773 4.4642135687172413 1.0176131729967894 2.3045623591169715
leaf_count=38 20 86 90
internal_value=0 -0.173668 -0.170405
internal_weight=0 5.52755 3.32218
internal_count=234 214 176
is_linear=0
shrinkage=0.2


Tree=49
num_leaves=4
num_cat=0
split_feature=47 46 47
split_gain=4.82914 0.000366742 8.82027e-06
threshold=0.56441192717192723 0.62832158161253837 -0.40278193657286659
decision_type=2 2 2
left_child=1 2 -1
right_child=-2 -3 -4
leaf_value=-0.17060237359126054 0.086524537707337354 -0.174695169134678 -0.17128732380453907
leaf_weight=1.6583620621822772 7.7925432752817869 1.5490013845264909 1.3759609535336497
leaf_count=86 65 33 50
internal_value=0 -0.172191 -0.170913
internal_weight=0 4.58332 3.03432
internal_count=234 169 136
is_linear=0
shrinkage=0.2


Tree=50
num_leaves=4
num_cat=0
split_feature=47 47 47
split_gain=3.86126 7.32023 0.9165
threshold=1.2898073249805229 1.0000000180025095e-35 -0.40278193657286659
decision_type=2 2 2
left_child=1 2 -1
right_child=-2 -3 -4
leaf_value=-0.17656095832499949 -0.12166545099285452 0.13420514642080822 -0.045462551126066661
leaf_weight=3.709893353283408 7.8855208791792384 13.393931921571491 5.0184087343513992
leaf_count=86 36 62 50
internal_value=0 0.0413323 -0.101185
internal_weight=0 22.1222 8.7283
internal_count=234 198 136
is_linear=0
shrinkage=0.2


Tree=51
num_leaves=4
num_cat=0
split_feature=44 46 44
split_gain=3.84981 10.9224 6.13748
threshold=-0.73085952821816658 -1.0000000180025095e-35 0.2744208128324736
decision_type=2 2 2
left_child=-1 2 -2
right_child=1 -3 -4
leaf_value=-0.10433007200185847 0.077009230907454873 0.2254516370199105 -0.19250785527068229
leaf_weight=9.4012747835367936 6.4934692606329953 8.5505202338099444 7.0480194129049778
leaf_count=85 48 35 66
internal_value=0 0.0484785 -0.0632679
internal_weight=0 22.092 13.5415
internal_count=234 149 114
is_linear=0
shrinkage=0.2


Tree=52
num_leaves=4
num_cat=0
split_feature=48 43 48
split_gain=9.26842 0.503267 0.340905
threshold=-0.44306692186205471 -0.42481670474064953 -1.061146104168688
decision_type=2 2 2
left_child=2 -2 -1
right_child=1 -3 -4
leaf_value=-0.1253353937943836 0.040691288528394286 0.10453932325229726 -0.19853194917847117
leaf_weight=5.2896349541842937 9.4211804419755953 10.377561796456574 4.9054208472371119
leaf_count=61 54 71 48
internal_value=0 0.0741574 -0.160554
internal_weight=0 19.7987 10.1951
internal_count=234 125 109
is_linear=0
shrinkage=0.2


Tree=53
num_leaves=4
num_cat=0
split_feature=44 44 43
split_gain=13.302 0.00165282 0.000288561
threshold=1.028381068620454 0.65140076417830439 -0.30951812159623526
decision_type=2 2 2
left_child=1 2 -1
right_child=-2 -3 -4
leaf_value=-0.17119459103601165 0.21091088352708831 -0.17909067381496993 -0.17410844032057479
leaf_weight=2.4774600276723504 6.5515905916690826 2.3943587876856327 3.0124776344746351
leaf_count=94 35 36 69
internal_value=0 -0.174706 -0.172793
internal_weight=0 7.8843 5.48994
internal_count=234 199 163
is_linear=0
shrinkage=0.2


Tree=54
num_leaves=6
num_cat=0
split_feature=47 45 47 43 45
split_gain=8.60452 0.000494582 0.000402047 2.76775e-05 9.50967e-06
threshold=2.4987996546615152 -1.2355933716660144 1.0480088590443242 -0.6554138710294779 1.0000000180025095e-35
decision_type=2 2 2 2 2
left_child=1 -1 3 -3 -5
right_child=-2 2 -4 4 -6
leaf_value=-0.17594031923313982 0.22953776531203407 -0.17039614367783684 -0.17397855399395312 -0.16940044368148982 -0.1683639275516555
leaf_weight=1.0904590440914033 4.0905202031135559 0.74824686534702811 1.1979930764064191 0.72246148902922891 0.69432500982657075
leaf_count=29 20 36 37 40 72
internal_value=0 -0.172239 -0.171039 -0.169412 -0.168892
internal_weight=0 4.45349 3.36303 2.16503 1.41679
internal_count=234 214 185 148 112
is_linear=0
shrinkage=0.2


Tree=55
num_leaves=4
num_cat=0
split_feature=45 47 40
split_gain=6.46455 0.0400512 0.00013269
threshold=-0.87499516859734705 1.0480088590443242 1.0000000180025095e-35
decision_type=2 2 2
left_child=-1 2 -2
right_child=1 -3 -4
leaf_value=0.11991008431926509 -0.16982302475845454 -0.20857318575083661 -0.17253991993516515
leaf_weight=6.5902287382632494 1.7593820844776928 1.8239883650094268 1.2160030547529459
leaf_count=63 108 30 33
internal_value=0 -0.185238 -0.170933
internal_weight=0 4.79937 2.97539
internal_count=234 171 141
is_linear=0
shrinkage=0.2


Tree=56
num_leaves=4
num_cat=0
split_feature=43 42 40
split_gain=2.67962 4.12602 1.07944
threshold=-0.078920955307406782 1.0000000180025095e-35 1.0000000180025095e-35
decision_type=2 2 2
left_child=1 -1 -2
right_child=2 -3 -4
leaf_value=-0.17070370468159141 0.1234902586844121 0.04115655331165128 0.005300795066326777
leaf_weight=6.8674493692815322 6.6703324541449529 7.9147189911454916 5.7603767439723015
leaf_count=38 76 85 35
internal_value=0 -0.0572688 0.0687214
internal_weight=0 14.7822 12.4307
internal_count=234 123 111
is_linear=0
shrinkage=0.2


Tree=57
num_leaves=3
num_cat=0
split_feature=40 46
split_gain=3.7063 4.58781
threshold=1.0000000180025095e-35 1.0000000180025095e-35
decision_type=2 2
left_child=1 -1
right_child=-2 -3
leaf_value=-0.14881733437993572 0.10887807429436516 0.042560489814580736
leaf_weight=9.3246273174881953 8.916973467916252 10.829862251877783
leaf_count=101 54 79
internal_value=0 -0.0459819
internal_weight=0 20.1545
internal_count=234 180
is_linear=0
shrinkage=0.2


Tree=58
num_leaves=4
num_cat=0
split_feature=46 1 46
split_gain=8.8444 3.8547 0.318541
threshold=1.0000000180025095e-35 1.0000000180025095e-35 0.62832158161253837
decision_type=2 2 2
left_child=1 -1 -2
right_child=2 -3 -4
leaf_value=-0.014566122469932684 -0.11219101896185463 0.17663851609443518 -0.18240413614415385
leaf_weight=8.0520107075572049 4.9221580028533918 8.8562055826187134 5.4422375131398439
leaf_count=71 24 49 90
internal_value=0 0.0855833 -0.149059
internal_weight=0 16.9082 10.3644
internal_count=234 120 114
is_linear=0
shrinkage=0.2


Tree=59
num_leaves=3
num_cat=0
split_feature=46 0
split_gain=8.91906 0.0570591
threshold=-1.0622702998485356 1.0000000180025095e-35
decision_type=2 2
left_child=-1 -2
right_child=1 -3
leaf_value=0.19121128932418546 -0.1738025300810567 -0.13593349822038556
leaf_weight=5.278489138931036 3.8349869288504124 2.7205980103462934
leaf_count=36 111 87
internal_value=0 -0.158087
internal_weight=0 6.55558
internal_count=234 198
is_linear=0
shrinkage=0.2


Tree=60
num_leaves=5
num_cat=0
split_feature=44 43 43 44
split_gain=6.61737 0.000312868 2.6916e-05 6.46635e-06
threshold=-1.4848197840061459 -0.88601103731830644 0.49757196041466434 -0.35387940032417631
decision_type=2 2 2 2
left_child=-1 -2 3 -3
right_child=1 2 -4 -5
leaf_value=0.21184640149404044 -0.17300976693684433 -0.16915570117158782 -0.17015164182967613 -0.16826466967416012
leaf_weight=3.5121903195977211 1.549739462323487 0.65937598515301976 0.87067473353818048 0.64395220484584559
leaf_count=16 45 44 60 69
internal_value=0 -0.170838 -0.169291 -0.168715
internal_weight=0 3.72374 2.174 1.30333
internal_count=234 218 173 113
is_linear=0
shrinkage=0.2


Tree=61
num_leaves=4
num_cat=0
split_feature=40 42 46
split_gain=3.38494 0.115063 0.00124365
threshold=1.0000000180025095e-35 1.0000000180025095e-35 1.0000000180025095e-35
decision_type=2 2 2
left_child=1 -1 -3
right_child=-2 2 -4
leaf_value=-0.10816169652193319 0.08683577885746048 -0.16891543210725996 -0.17804798258389576
leaf_weight=1.8388454816304145 5.9547496875748038 1.0143961543217304 1.4476524991914628
leaf_count=54 54 84 42
internal_value=0 -0.146014 -0.174285
internal_weight=0 4.30089 2.46205
internal_count=234 180 126
is_linear=0
shrinkage=0.2


Tree=62
num_leaves=3
num_cat=0
split_feature=46 45
split_gain=6.52122 0.398563
threshold=0.62832158161253837 -0.20184861318246741
decision_type=2 2
left_child=1 -1
right_child=-2 -3
leaf_value=-0.08622594163448781 0.072482762704942569 -0.17829314038491531
leaf_weight=2.9615418240427989 17.360798314213753 5.1540873497724533
leaf_count=40 90 104
internal_value=0 -0.144696
internal_weight=0 8.11563
internal_count=234 144
is_linear=0
shrinkage=0.2


Tree=63
num_leaves=3
num_cat=0
split_feature=44 44
split_gain=3.60436 1.4378
threshold=-0.73085952821816658 1.0000000180025095e-35
decision_type=2 2
left_child=-1 -2
right_child=1 -3
leaf_value=-0.1055207558119436 0.1233971230139449 0.0088680048893929712
leaf_weight=8.5694752614945191 6.9248556680977371 11.952406991273163
leaf_count=85 40 109
internal_value=0 0.0508814
internal_weight=0 18.8773
internal_count=234 149
is_linear=0
shrinkage=0.2


Tree=64
num_leaves=3
num_cat=0
split_feature=43 46
split_gain=6.80201 10.1579
threshold=0.15167621098142162 -1.0000000180025095e-35
decision_type=2 2
left_child=1 -1
right_child=-2 -3
leaf_value=0.17971382456411084 -0.18500098986005109 -0.12724754381776804
leaf_weight=10.814198412001137 6.2419665791094294 7.1719952831044802
leaf_count=69 83 82
internal_value=0 0.057313
internal_weight=0 17.9862
internal_count=234 151
is_linear=0
shrinkage=0.2


Tree=65
num_leaves=4
num_cat=0
split_feature=43 47 48
split_gain=5.77635 0.101998 0.000151049
threshold=0.72816912670349287 -0.40278193657286659 -0.44306692186205471
decision_type=2 2 2
left_child=1 -1 -3
right_child=-2 2 -4
leaf_value=-0.10877112951255451 0.15011574280038575 -0.17107088100052789 -0.17370352580206672
leaf_weight=1.3965474423021076 5.007014699280262 1.5347660491243007 2.0179711012169719
leaf_count=55 58 67 54
internal_value=0 -0.154565 -0.172566
internal_weight=0 4.94928 3.55274
internal_count=234 176 121
is_linear=0
shrinkage=0.2


Tree=66
num_leaves=5
num_cat=0
split_feature=41 46 43 48
split_gain=3.67568 0.000230751 1.78885e-05 7.89077e-06
threshold=1.0000000180025095e-35 1.19185220876623 -0.88601103731830644 -0.44306692186205471
decision_type=2 2 2 2
left_child=1 2 -1 -4
right_child=-2 -3 3 -5
leaf_value=-0.16994923473050799 0.14345915763090927 -0.17325801359412873 -0.16897783456938087 -0.16790894107598561
leaf_weight=0.56572982575744402 3.7561625381931663 0.72935554198920716 0.7464743023738265 0.43855626857839525
leaf_count=28 54 18 67 67
internal_value=0 -0.170269 -0.169024 -0.168582
internal_weight=0 2.48012 1.75076 1.18503
internal_count=234 180 162 134
is_linear=0
shrinkage=0.2


Tree=67
num_leaves=5
num_cat=0
split_feature=45 47 40 46
split_gain=4.6963 0.040062 0.000126654 1.93759e-05
threshold=-0.87499516859734705 1.2898073249805229 1.0000000180025095e-35 1.0000000180025095e-35
decision_type=2 2 2 2
left_child=-1 2 3 -2
right_child=1 -3 -4 -5
leaf_value=0.10502363903496409 -0.16809088035387976 -0.21537188893724363 -0.17179787777127861 -0.16956310228511909
leaf_weight=5.8429748052731156 0.63643199042417153 1.13841200992465 1.0542202424257994 0.81612268835306168
leaf_count=63 84 9 33 45
internal_value=0 -0.184259 -0.170129 -0.168918
internal_weight=0 3.64519 2.50677 1.45255
internal_count=234 171 162 129
is_linear=0
shrinkage=0.2


Tree=68
num_leaves=3
num_cat=0
split_feature=47 45
split_gain=1.68509 1.73772
threshold=1.0000000180025095e-35 1.0000000180025095e-35
decision_type=2 2
left_child=1 -1
right_child=-2 -3
leaf_value=0.033830635900321267 0.035530538518765351 -0.17553646545638754
leaf_weight=2.7987076481804278 16.686086669564247 3.6586174126714468
leaf_count=39 98 97
internal_value=0 -0.0847934
internal_weight=0 6.45733
internal_count=234 136
is_linear=0
shrinkage=0.2


Tree=69
num_leaves=4
num_cat=0
split_feature=43 44 46
split_gain=4.51707 5.64777 0.871884
threshold=0.15167621098142162 0.46894595558185198 0.62832158161253837
decision_type=2 2 2
left_child=1 2 -1
right_child=-2 -3 -4
leaf_value=-0.086513338907492354 0.1257101008489192 0.090195071755692344 -0.20014239754009366
leaf_weight=5.3438144847750717 8.1431806795299035 6.6607942432165137 5.461851286701858
leaf_count=48 83 44 59
internal_value=0 -0.0546584 -0.143948
internal_weight=0 17.4665 10.8057
internal_count=234 151 107
is_linear=0
shrinkage=0.2


Tree=70
num_leaves=3
num_cat=0
split_feature=16 45
split_gain=6.08323 0.533839
threshold=1.0000000180025095e-35 0.038520311133808112
decision_type=2 2
left_child=1 -1
right_child=-2 -3
leaf_value=0.098361512272753596 -0.18545648134323706 0.023730020397266578
leaf_weight=7.176707515493038 5.5658295378088942 8.2304535172879678
leaf_count=87 96 51
internal_value=0 0.0584936
internal_weight=0 15.4072
internal_count=234 138
is_linear=0
shrinkage=0.2


Tree=71
num_leaves=4
num_cat=0
split_feature=46 46 42
split_gain=5.71618 0.0577029 2.47425e-05
threshold=-1.0622702998485356 1.0000000180025095e-35 1.0000000180025095e-35
decision_type=2 2 2
left_child=-1 -2 -3
right_child=1 2 -4
leaf_value=0.1803425523812334 -0.12629735430499553 -0.17077860124262123 -0.17199621909168641
leaf_weight=3.7084423676133156 1.9701345018111167 1.4789649988524616 1.2167323715984821
leaf_count=36 84 72 42
internal_value=0 -0.152314 -0.171328
internal_weight=0 4.66583 2.6957
internal_count=234 198 114
is_linear=0
shrinkage=0.2


Tree=72
num_leaves=4
num_cat=0
split_feature=47 46 46
split_gain=4.60119 0.000521158 2.18706e-05
threshold=2.4987996546615152 1.19185220876623 1.0000000180025095e-35
decision_type=2 2 2
left_child=1 2 -1
right_child=-2 -3 -4
leaf_value=-0.16764538894128633 0.19020284434407006 -0.17422715627004665 -0.16919489281046707
leaf_weight=0.61752267123665661 3.0207341648638248 1.1403197199106216 0.88877973845228553
leaf_count=116 20 36 62
internal_value=0 -0.171002 -0.16856
internal_weight=0 2.64662 1.5063
internal_count=234 214 178
is_linear=0
shrinkage=0.2


Tree=73
num_leaves=4
num_cat=0
split_feature=43 43 47
split_gain=2.5385 0.036346 0.0114379
threshold=-0.30951812159623526 -1.231906786751549 1.0480088590443242
decision_type=2 2 2
left_child=1 -1 -2
right_child=2 -3 -4
leaf_value=0.04583548207914756 -0.17000732238840419 0.076334131449463452 -0.1980937676850848
leaf_weight=3.1681391056627035 1.3787197588244455 3.0849181050434709 1.0011093588545916
leaf_count=36 97 74 27
internal_value=0 0.0608819 -0.181822
internal_weight=0 6.25306 2.37983
internal_count=234 110 124
is_linear=0
shrinkage=0.2


Tree=74
num_leaves=3
num_cat=0
split_feature=46 43
split_gain=4.04006 0.497128
threshold=0.62832158161253837 -0.54011528788506369
decision_type=2 2
left_child=1 -1
right_child=-2 -3
leaf_value=-0.061521558844469498 0.055450737145694408 -0.17942633908771671
leaf_weight=2.2649325355887422 15.600221686065195 3.8823245987296122
leaf_count=41 90 103
internal_value=0 -0.135985
internal_weight=0 6.14726
internal_count=234 144
is_linear=0
shrinkage=0.2


Tree=75
num_leaves=3
num_cat=0
split_feature=40 1
split_gain=2.42585 2.5753
threshold=1.0000000180025095e-35 1.0000000180025095e-35
decision_type=2 2
left_child=1 -1
right_child=-2 -3
leaf_value=-0.14612842978684323 0.093344848870976826 0.01868280217393847
leaf_weight=6.0272007593885109 7.7847890593111506 10.227978015318513
leaf_count=92 54 88
internal_value=0 -0.042427
internal_weight=0 16.2552
internal_count=234 180
is_linear=0
shrinkage=0.2


Tree=76
num_leaves=3
num_cat=0
split_feature=44 44
split_gain=4.7983 1.3923
threshold=-0.35387940032417631 0.46894595558185198
decision_type=2 2
left_child=-1 -2
right_child=1 -3
leaf_value=-0.18163041925154111 0.12589916958876732 -0.00068540063686332018
leaf_weight=4.7352708196267512 5.8245718516409388 8.6181918382644636
leaf_count=109 47 78
internal_value=0 0.0503644
internal_weight=0 14.4428
internal_count=234 125
is_linear=0
shrinkage=0.2


Tree=77
num_leaves=4
num_cat=0
split_feature=46 46 46
split_gain=4.64882 0.166895 3.08032e-05
threshold=-1.0622702998485356 -0.49873967269484426 0.62832158161253837
decision_type=2 2 2
left_child=-1 -2 -3
right_child=1 2 -4
leaf_value=0.17561359206626295 -0.076402785204580714 -0.17119554969059556 -0.1699013703437432
leaf_weight=3.279009860008955 1.0124777201563122 1.4531392306089403 1.48988746618852
leaf_count=36 43 65 90
internal_value=0 -0.146444 -0.17054
internal_weight=0 3.9555 2.94303
internal_count=234 198 155
is_linear=0
shrinkage=0.2


Tree=78
num_leaves=5
num_cat=0
split_feature=44 44 42 46
split_gain=3.87342 3.56757e-05 1.3167e-05 6.5406e-06
threshold=-1.4848197840061459 -0.98217961348082616 1.0000000180025095e-35 1.0000000180025095e-35
decision_type=2 2 2 2
left_child=-1 -2 -3 -4
right_child=1 2 3 -5
leaf_value=0.18587409422449974 -0.17035051187367056 -0.16933177271473243 -0.16745608628464925 -0.16872106024188416
leaf_weight=2.7336979657411575 0.89182389527559314 0.68251755577512063 0.3335695507703349 0.32067892188206315
leaf_count=16 42 69 84 23
internal_value=0 -0.169371 -0.168717 -0.168076
internal_weight=0 2.22859 1.33677 0.654248
internal_count=234 218 176 107
is_linear=0
shrinkage=0.2


Tree=79
num_leaves=5
num_cat=0
split_feature=48 48 45 43
split_gain=3.38743 0.000462343 4.52304e-05 7.46281e-06
threshold=-1.1847619406300147 -1.061146104168688 -1.0000000180025095e-35 -0.54011528788506369
decision_type=2 2 2 2
left_child=-1 -2 -3 -4
right_child=1 2 3 -5
leaf_value=0.097886025055669124 -0.17483932443148678 -0.17021133268009805 -0.16891190723024491 -0.16776858196080158
leaf_weight=5.1998394504189491 0.88399030594155226 1.1310038780793552 0.44097615149803504 0.47363647911697548
leaf_count=29 32 57 34 82
internal_value=0 -0.171017 -0.169366 -0.16832
internal_weight=0 2.92961 2.04562 0.914613
internal_count=234 205 173 116
is_linear=0
shrinkage=0.2


Tree=80
num_leaves=3
num_cat=0
split_feature=46 43
split_gain=3.09502 0.473508
threshold=0.62832158161253837 -0.54011528788506369
decision_type=2 2
left_child=1 -1
right_child=-2 -3
leaf_value=-0.055995455946890461 0.048394276723204885 -0.17747213967122852
leaf_weight=2.13231353648007 14.74028071016073 3.2244004807434994
leaf_count=41 90 103
internal_value=0 -0.129117
internal_weight=0 5.35671
internal_count=234 144
is_linear=0
shrinkage=0.2


Tree=81
num_leaves=4
num_cat=0
split_feature=46 46 13
split_gain=2.30802 2.49493 5.96397
threshold=0.62832158161253837 1.0000000180025095e-35 1.0000000180025095e-35
decision_type=2 2 2
left_child=1 2 -1
right_child=-2 -3 -4
leaf_value=0.14302875252697353 -0.087155016162412946 0.14889636874056073 -0.18078622233298061
leaf_weight=4.5611990541219729 7.8036214010789982 5.8526467233896247 4.5392731335014105
leaf_count=45 90 24 75
internal_value=0 0.0470258 -0.0184886
internal_weight=0 14.9531 9.10047
internal_count=234 144 120
is_linear=0
shrinkage=0.2


Tree=82
num_leaves=4
num_cat=0
split_feature=46 1 47
split_gain=4.35414 1.22672 0.892253
threshold=1.0000000180025095e-35 1.0000000180025095e-35 1.0000000180025095e-35
decision_type=2 2 2
left_child=1 -1 -2
right_child=2 -3 -4
leaf_value=-0.0067413689813582535 -0.20589191363957937 0.13213099647464199 -0.063839078233930605
leaf_weight=4.4140010923147219 3.2961780875921241 6.0068110823631287 3.8166048596613109
leaf_count=71 21 49 93
internal_value=0 0.0733081 -0.129669
internal_weight=0 10.4208 7.11278
internal_count=234 120 114
is_linear=0
shrinkage=0.2


Tree=83
num_leaves=4
num_cat=0
split_feature=44 44 16
split_gain=4.77566 5.92719e-05 1.62152e-05
threshold=1.028381068620454 0.2744208128324736 1.0000000180025095e-35
decision_type=2 2 2
left_child=1 2 -1
right_child=-2 -3 -4
leaf_value=-0.16867265753294605 0.18563340614852811 -0.17122999652811813 -0.16982926187191533
leaf_weight=0.7454243646934634 2.8303416110575199 1.1046044360846279 1.3870517567265779
leaf_count=72 35 47 80
internal_value=0 -0.170041 -0.169425
internal_weight=0 3.23708 2.13248
internal_count=234 199 152
is_linear=0
shrinkage=0.2


Tree=84
num_leaves=5
num_cat=0
split_feature=48 48 43 48
split_gain=1.93733 0.000490283 2.05883e-05 5.32721e-07
threshold=-0.90662630859202975 1.3493627068271825 -1.231906786751549 1.0000000180025095e-35
decision_type=2 2 2 2
left_child=-1 2 -2 -4
right_child=1 -3 3 -5
leaf_value=0.12115682609329037 -0.16960934690509447 -0.17660115708183158 -0.16778198425198648 -0.1673914953713227
leaf_weight=2.9989592226920649 0.31744466722011544 0.42477049259468913 0.28860789374448359 0.27093836903804913
leaf_count=70 19 23 41 81
internal_value=0 -0.171024 -0.168323 -0.167593
internal_weight=0 1.30176 0.876991 0.559546
internal_count=234 164 141 122
is_linear=0
shrinkage=0.2


Tree=85
num_leaves=4
num_cat=0
split_feature=44 43 43
split_gain=2.90921 2.1816 0.970325
threshold=-0.98217961348082616 -0.6554138710294779 -0.078920955307406782
decision_type=2 2 2
left_child=-1 -2 -3
right_child=1 2 -4
leaf_value=-0.21305815767073502 0.17858799975960149 0.096102787095257436 -0.18199281430738989
leaf_weight=1.8299900246784089 3.3632927571889013 0.79610920581035327 1.357865841477178
leaf_count=58 44 45 87
internal_value=0 0.0779426 -0.0792087
internal_weight=0 5.51727 2.15398
internal_count=234 176 132
is_linear=0
shrinkage=0.2


Tree=86
num_leaves=4
num_cat=0
split_feature=46 46 13
split_gain=1.97893 0.413048 0.000268178
threshold=0.62832158161253837 -1.0000000180025095e-35 1.0000000180025095e-35
decision_type=2 2 2
left_child=1 2 -1
right_child=-2 -3 -4
leaf_value=-0.17421252824726072 0.037790911903396521 -0.05075962261638254 -0.16996728418481555
leaf_weight=1.1980046778917322 13.785664707422255 2.1222358234226721 1.1829752302728593
leaf_count=45 90 24 75
internal_value=0 -0.114918 -0.172103
internal_weight=0 4.50322 2.38098
internal_count=234 144 120
is_linear=0
shrinkage=0.2


Tree=87
num_leaves=3
num_cat=0
split_feature=44 48
split_gain=2.31265 2.88667
threshold=-0.73085952821816658 -0.44306692186205471
decision_type=2 2
left_child=-1 -2
right_child=1 -3
leaf_value=-0.1041355351436017 0.15205730961612621 -0.031910798386689788
leaf_weight=6.1272602602839497 5.753924848511816 8.3812372274696791
leaf_count=85 49 100
internal_value=0 0.0429761
internal_weight=0 14.1352
internal_count=234 149
is_linear=0
shrinkage=0.2


Tree=88
num_leaves=4
num_cat=0
split_feature=48 43 43
split_gain=3.85079 1.20023 0.136917
threshold=-0.44306692186205471 -0.54011528788506369 0.15167621098142162
decision_type=2 2 2
left_child=2 -2 -1
right_child=1 -3 -4
leaf_value=-0.12462677068516577 -0.019617285727657609 0.118180410562293 -0.19192024335670385
leaf_weight=2.5110948607325563 4.4256180524826041 5.8978012744337311 2.3330485317856073
leaf_count=63 40 85 46
internal_value=0 0.059107 -0.157037
internal_weight=0 10.3234 4.84414
internal_count=234 125 109
is_linear=0
shrinkage=0.2


Tree=89
num_leaves=4
num_cat=0
split_feature=46 46 46
split_gain=2.89642 0.16248 7.41781e-06
threshold=-1.0622702998485356 -0.49873967269484426 0.62832158161253837
decision_type=2 2 2
left_child=-1 -2 -3
right_child=1 2 -4
leaf_value=0.16687882341049609 -0.060601146600570081 -0.16970835413877688 -0.16893294473749318
leaf_weight=2.2607535235583782 0.76220226846635375 0.97266037203371514 1.0017056709621099
leaf_count=36 43 65 90
internal_value=0 -0.139035 -0.169315
internal_weight=0 2.73657 1.97437
internal_count=234 198 155
is_linear=0
shrinkage=0.2


Tree=90
num_leaves=5
num_cat=0
split_feature=44 48 44 46
split_gain=2.80967 3.77609e-05 9.62913e-06 2.83567e-06
threshold=-1.4848197840061459 -0.90662630859202975 -1.2335022821094801 -1.0000000180025095e-35
decision_type=2 2 2 2
left_child=-1 -2 -3 -4
right_child=1 2 3 -5
leaf_value=0.17428098547830387 -0.17008461665646343 -0.1690687822982215 -0.16722275509789675 -0.1680657255614961
leaf_weight=2.2671998217701916 0.68704143760260217 0.30585358105599902 0.27655314147705234 0.37751789204776198
leaf_count=16 55 21 98 44
internal_value=0 -0.168953 -0.168142 -0.167709
internal_weight=0 1.64697 0.959925 0.654071
internal_count=234 218 163 142
is_linear=0
shrinkage=0.2


Tree=91
num_leaves=4
num_cat=0
split_feature=46 47 47
split_gain=1.97516 0.0103553 1.07516e-05
threshold=0.62832158161253837 1.2898073249805229 -0.40278193657286659
decision_type=2 2 2
left_child=1 2 -1
right_child=-2 -3 -4
leaf_value=-0.16800612191229949 0.07141858879413944 -0.20155878345725339 -0.16928739552352334
leaf_weight=0.47977575007826057 4.9625067180022597 0.60259623825550068 0.57704947516322147
leaf_count=86 90 6 52
internal_value=0 -0.180636 -0.168706
internal_weight=0 1.65942 1.05683
internal_count=234 144 138
is_linear=0
shrinkage=0.2


Tree=92
num_leaves=3
num_cat=0
split_feature=44 43
split_gain=4.41137 1.87406
threshold=-0.98217961348082616 -0.078920955307406782
decision_type=2 2
left_child=-1 -2
right_child=1 -3
leaf_value=0.11781289726646603 -0.18624014967469654 -0.0088666417861809864
leaf_weight=7.2343885526061085 4.3416098314337441 5.2807984913233641
leaf_count=58 89 87
internal_value=0 -0.0888972
internal_weight=0 9.62241
internal_count=234 176
is_linear=0
shrinkage=0.2


Tree=93
num_leaves=4
num_cat=0
split_feature=43 43 45
split_gain=3.00967 3.65 0.391368
threshold=0.15167621098142162 -1.1166082036071348 -0.20184861318246741
decision_type=2 2 2
left_child=1 -1 -3
right_child=-2 2 -4
leaf_value=0.073918262879916402 0.11487824532241242 -0.099292287797971945 -0.18849042815090522
leaf_weight=5.2037217877805242 6.0088576078414908 4.1208169683814058 3.7655318733304739
leaf_count=47 83 39 65
internal_value=0 -0.0560946 -0.141882
internal_weight=0 13.0901 7.88635
internal_count=234 151 104
is_linear=0
shrinkage=0.2


Tree=94
num_leaves=4
num_cat=0
split_feature=44 44 44
split_gain=2.9196 0.844475 0.00370471
threshold=-0.35387940032417631 0.46894595558185198 -0.85651957084949604
decision_type=2 2 2
left_child=2 -2 -1
right_child=1 -3 -4
leaf_value=-0.17096612397272681 0.10484377948780194 -0.0080834138289599868 -0.18469878251276736
leaf_weight=1.453555273357779 4.6121314205229265 6.2224039006978273 1.7104535382241017
leaf_count=66 47 78 43
internal_value=0 0.0399883 -0.17839
internal_weight=0 10.8345 3.16401
internal_count=234 125 109
is_linear=0
shrinkage=0.2


Tree=95
num_leaves=5
num_cat=0
split_feature=46 43 45 43
split_gain=2.29381 0.187557 1.19881e-05 1.14659e-05
threshold=-1.0622702998485356 0.26697479412583586 0.39911848224527785 -0.30951812159623526
decision_type=2 2 2 2
left_child=-1 2 3 -2
right_child=1 -3 -4 -5
leaf_value=0.16070577952776607 -0.16781890039395564 -0.044675457174965266 -0.16953428302904164 -0.16918706370396339
leaf_weight=1.9678594991564748 0.54496950120665122 0.68957948544993986 0.66025096736848354 0.44515523593872819
leaf_count=36 89 37 43 29
internal_value=0 -0.132273 -0.168874 -0.168434
internal_weight=0 2.33996 1.65038 0.990125
internal_count=234 198 161 118
is_linear=0
shrinkage=0.2


Tree=96
num_leaves=5
num_cat=0
split_feature=47 44 46 44
split_gain=2.40033 0.000433358 7.4076e-06 2.56056e-09
threshold=2.4987996546615152 -1.4219896593812071 1.0000000180025095e-35 0.14876077020114348
decision_type=2 2 2 2
left_child=1 -1 3 -3
right_child=-2 2 -4 -5
leaf_value=-0.17627503099673772 0.17239390488420622 -0.1671598629455856 -0.16838744748925905 -0.16712002879916577
leaf_weight=0.34851429332047723 2.1500965971499681 0.12170358147704974 0.7124332629609853 0.13744495538412593
leaf_count=17 20 45 81 71
internal_value=0 -0.170225 -0.168054 -0.167139
internal_weight=0 1.3201 0.971582 0.259149
internal_count=234 214 197 116
is_linear=0
shrinkage=0.2


Tree=97
num_leaves=4
num_cat=0
split_feature=45 46 45
split_gain=2.07998 0.000558134 2.60564e-05
threshold=-0.87499516859734705 0.62832158161253837 0.038520311133808112
decision_type=2 2 2
left_child=-1 2 -2
right_child=1 -3 -4
leaf_value=0.081135162645129016 -0.17694865781422861 -0.17036669066726806 -0.17876668629014375
leaf_weight=4.0532702403143048 0.57920101040508576 0.56133866915479291 0.69218056005774997
leaf_count=63 62 42 67
internal_value=0 -0.175619 -0.177938
internal_weight=0 1.83272 1.27138
internal_count=234 171 129
is_linear=0
shrinkage=0.2


Tree=98
num_leaves=3
num_cat=0
split_feature=44 1
split_gain=3.4142 1.21388
threshold=-0.98217961348082616 1.0000000180025095e-35
decision_type=2 2
left_child=-1 -2
right_child=1 -3
leaf_value=0.11123909858215469 -0.16106531666722662 -0.01121189386795152
leaf_weight=6.6855753064155587 3.9317866100463998 4.8042744649574161
leaf_count=58 88 88
internal_value=0 -0.0786555
internal_weight=0 8.73606
internal_count=234 176
is_linear=0
shrinkage=0.2


Tree=99
num_leaves=4
num_cat=0
split_feature=43 43 16
split_gain=2.37762 2.12839 1.30807
threshold=0.26697479412583586 -1.1166082036071348 1.0000000180025095e-35
decision_type=2 2 2
left_child=1 -1 -3
right_child=-2 2 -4
leaf_value=0.0614001346759665 0.12861063477044607 -0.19203992988664334 -0.034411372333304345
leaf_weight=4.939032851718367 4.2366834618151179 3.7488127192482352 4.8048747112043202
leaf_count=47 70 70 47
internal_value=0 -0.0431349 -0.103495
internal_weight=0 13.4927 8.55369
internal_count=234 164 117
is_linear=0
shrinkage=0.2


Tree=100
num_leaves=4
num_cat=0
split_feature=48 44 42
split_gain=2.26729 0.497228 0.168335
threshold=-0.44306692186205471 0.46894595558185198 1.0000000180025095e-35
decision_type=2 2 2
left_child=2 -2 -1
right_child=1 -3 -4
leaf_value=-0.1885893254075108 0.099838418127497025 0.0017232597607753451 -0.10312800455619137
leaf_weight=1.9099573763087401 3.3696460295468551 5.340568620711565 1.7821527319028974
leaf_count=73 64 61 36
internal_value=0 0.0396802 -0.147338
internal_weight=0 8.71021 3.69211
internal_count=234 125 109
is_linear=0
shrinkage=0.2


Tree=101
num_leaves=4
num_cat=0
split_feature=47 41 48
split_gain=0.842999 0.582081 1.07405e-05
threshold=-0.40278193657286659 1.0000000180025095e-35 -1.0000000180025095e-35
decision_type=2 2 2
left_child=-1 2 -2
right_child=1 -3 -4
leaf_value=0.10045063818801368 -0.16859703556460018 0.066516002883101319 -0.16978417986034688
leaf_weight=1.904909653705545 0.56475330982357252 0.63604542752727855 0.66238606325350691
leaf_count=86 57 40 51
internal_value=0 -0.0887573 -0.169238
internal_weight=0 1.86318 1.22714
internal_count=234 148 108
is_linear=0
shrinkage=0.2


Tree=102
num_leaves=5
num_cat=0
split_feature=44 48 44 45
split_gain=2.05869 2.14979e-05 1.38399e-06 1.80629e-07
threshold=-1.4848197840061459 -0.90662630859202975 -1.1078396561121562 0.39911848224527785
decision_type=2 2 2 2
left_child=-1 -2 -3 -4
right_child=1 2 3 -5
leaf_value=0.17202233225864844 -0.16935500044581547 -0.16799811278577348 -0.16722990872019639 -0.16749385095814642
leaf_weight=2.0238707959651951 0.47859928780235372 0.20201335847377799 0.21075604634825074 0.20419697024044581
leaf_count=16 55 25 77 61
internal_value=0 -0.168349 -0.167569 -0.16736
internal_weight=0 1.09557 0.616966 0.414953
internal_count=234 218 163 138
is_linear=0
shrinkage=0.2


Tree=103
num_leaves=4
num_cat=0
split_feature=44 43 43
split_gain=1.97562 1.11441 0.606315
threshold=-0.98217961348082616 -0.6554138710294779 -0.078920955307406782
decision_type=2 2 2
left_child=-1 -2 -3
right_child=1 2 -4
leaf_value=-0.20989548680485456 0.15176851598836674 0.090510191658299266 -0.17498837410690848
leaf_weight=1.3412921652197836 2.5013930241111666 0.57164230768103153 0.86420996906235836
leaf_count=58 44 45 87
internal_value=0 0.0711527 -0.0692879
internal_weight=0 3.93725 1.43585
internal_count=234 176 132
is_linear=0
shrinkage=0.2


Tree=104
num_leaves=5
num_cat=0
split_feature=44 46 46 45
split_gain=2.73002 1.11355 0.000413691 8.11771e-05
threshold=-0.98217961348082616 0.62832158161253837 1.0000000180025095e-35 1.0000000180025095e-35
decision_type=2 2 2 2
left_child=-1 2 3 -2
right_child=1 -3 -4 -5
leaf_value=0.1075353693262374 -0.17234159370311464 -0.015937364288905825 -0.17564386444871535 -0.1694172738769196
leaf_weight=6.2700884491205224 0.65331195481121362 5.4671955034136772 1.1482656747102737 0.90663863741792738
leaf_count=58 34 34 22 86
internal_value=0 -0.0678879 -0.172763 -0.170642
internal_weight=0 8.17541 2.70822 1.55995
internal_count=234 176 142 120
is_linear=0
shrinkage=0.2


Tree=105
num_leaves=3
num_cat=0
split_feature=44 48
split_gain=1.89428 0.954976
threshold=-0.73085952821816658 -0.44306692186205471
decision_type=2 2
left_child=-1 -2
right_child=1 -3
leaf_value=-0.10603236422354752 0.10550220293595772 -0.010687874793096332
leaf_weight=5.1181869471911368 5.0380118470638999 6.4547521248459789
leaf_count=85 49 100
internal_value=0 0.0402457
internal_weight=0 11.4928
internal_count=234 149
is_linear=0
shrinkage=0.2


Tree=106
num_leaves=4
num_cat=0
split_feature=46 13 44
split_gain=2.46399 0.491507 0.399505
threshold=1.0000000180025095e-35 1.0000000180025095e-35 0.2744208128324736
decision_type=2 2 2
left_child=2 -2 -1
right_child=1 -3 -4
leaf_value=0.0060362117844077268 -0.063943274624089136 -0.18812624766017813 0.10952084281672331
leaf_weight=2.6228391081094742 2.6589296244783327 2.4491618853062391 3.461636989377439
leaf_count=54 82 32 66
internal_value=0 -0.123485 0.0649117
internal_weight=0 5.10809 6.08448
internal_count=234 114 120
is_linear=0
shrinkage=0.2


Tree=107
num_leaves=4
num_cat=0
split_feature=44 44 43
split_gain=2.65603 1.29695e-05 7.23634e-06
threshold=1.028381068620454 0.2744208128324736 -0.19421953845182102
decision_type=2 2 2
left_child=1 2 -1
right_child=-2 -3 -4
leaf_value=-0.16762449064711116 0.18130203297064076 -0.16947750708648307 -0.16867592847997753
leaf_weight=0.40684284432791162 1.7711511738598344 0.55824641766957928 0.73454552842304144
leaf_count=88 35 47 64
internal_value=0 -0.168688 -0.168301
internal_weight=0 1.69963 1.14139
internal_count=234 199 152
is_linear=0
shrinkage=0.2


Tree=108
num_leaves=4
num_cat=0
split_feature=44 0 44
split_gain=1.67525 2.84804e-06 5.63995e-08
threshold=-1.4848197840061459 1.0000000180025095e-35 -0.73085952821816658
decision_type=2 2 2
left_child=-1 2 -2
right_child=1 -3 -4
leaf_value=0.16630736794946757 -0.16837174363679289 -0.16755480701112643 -0.16824591920147405
leaf_weight=1.8631536215543749 0.27190828952007007 0.31246315241151024 0.2994026865926569
leaf_count=16 33 109 76
internal_value=0 -0.16804 -0.168306
internal_weight=0 0.883774 0.571311
internal_count=234 218 109
is_linear=0
shrinkage=0.2


Tree=109
num_leaves=5
num_cat=0
split_feature=48 45 43 43
split_gain=1.61307 3.993e-05 4.42216e-06 6.74123e-07
threshold=-1.1847619406300147 -0.6345963665515687 -0.77071245417389211 -0.19421953845182102
decision_type=2 2 2 2
left_child=-1 -2 -3 -4
right_child=1 2 3 -5
leaf_value=0.083283217973234028 -0.17014243216331815 -0.16860249943245964 -0.16783450159740032 -0.16725989655881232
leaf_weight=3.1441901260986924 0.86653982021380194 0.29796122573316075 0.15793789085000731 0.16912290645996153
leaf_count=29 78 23 38 66
internal_value=0 -0.169264 -0.168045 -0.167537
internal_weight=0 1.49156 0.625022 0.327061
internal_count=234 205 127 104
is_linear=0
shrinkage=0.2


Tree=110
num_leaves=3
num_cat=0
split_feature=44 43
split_gain=1.87231 1.62528
threshold=-0.98217961348082616 -0.078920955307406782
decision_type=2 2
left_child=-1 -2
right_child=1 -3
leaf_value=0.094401295625042334 -0.17841762510269479 0.014236883924498759
leaf_weight=5.4862033948302269 2.8439082896802574 4.5602489938028157
leaf_count=58 89 87
internal_value=0 -0.059761
internal_weight=0 7.40416
internal_count=234 176
is_linear=0
shrinkage=0.2


Tree=111
num_leaves=4
num_cat=0
split_feature=43 44 44
split_gain=1.68202 2.39125 0.0180029
threshold=0.15167621098142162 0.46894595558185198 -0.47953944295550643
decision_type=2 2 2
left_child=1 2 -1
right_child=-2 -3 -4
leaf_value=-0.12183034823661408 0.0872613748251162 0.065220210902397643 -0.14345776411750516
leaf_weight=3.278608131222426 5.0721640689298519 4.0848696772009134 2.9024801598861805
leaf_count=61 83 44 46
internal_value=0 -0.0535168 -0.131986
internal_weight=0 10.266 6.18109
internal_count=234 151 107
is_linear=0
shrinkage=0.2


Tree=112
num_leaves=4
num_cat=0
split_feature=42 43 43
split_gain=1.28636 1.07833 0.113404
threshold=1.0000000180025095e-35 -0.77071245417389211 0.26697479412583586
decision_type=2 2 2
left_child=2 -2 -1
right_child=1 -3 -4
leaf_value=-0.09945639569782623 -0.066704130755595406 0.083844042226047674 -0.18615353416749603
leaf_weight=1.1256213533924895 3.2760232910513878 4.5410937499254942 1.3010704722255466
leaf_count=62 39 87 46
internal_value=0 0.0207518 -0.145939
internal_weight=0 7.81712 2.42669
internal_count=234 126 108
is_linear=0
shrinkage=0.2


Tree=113
num_leaves=4
num_cat=0
split_feature=44 44 16
split_gain=2.25011 5.31628e-06 3.04183e-06
threshold=1.028381068620454 0.2744208128324736 1.0000000180025095e-35
decision_type=2 2 2
left_child=1 2 -1
right_child=-2 -3 -4
leaf_value=-0.16754069042654721 0.18001704897292095 -0.1688928508846568 -0.16830889284656309
leaf_weight=0.30625178408809028 1.5911684297025201 0.45216258149594069 0.63096241513267159
leaf_count=72 35 47 80
internal_value=0 -0.16833 -0.168058
internal_weight=0 1.38938 0.937214
internal_count=234 199 152
is_linear=0
shrinkage=0.2


Tree=114
num_leaves=6
num_cat=0
split_feature=47 48 48 43 48
split_gain=1.47655 0.000423862 1.37362e-06 5.97508e-07 4.82036e-08
threshold=2.4987996546615152 1.3493627068271825 -0.90662630859202975 -1.231906786751549 1.0000000180025095e-35
decision_type=2 2 2 2 2
left_child=1 2 -1 -4 -5
right_child=-2 -3 3 4 -6
leaf_value=-0.16792273847673009 0.1677299749848816 -0.1784378198206194 -0.16763309250033842 -0.16715580584937972 -0.16696284211267517
leaf_weight=0.21554125315742578 1.7308519314974544 0.19320201329537667 0.11782033508643519 0.11684159259311866 0.092999725733534433
leaf_count=50 20 23 19 41 81
internal_value=0 -0.170392 -0.167531 -0.167273 -0.16707
internal_weight=0 0.736405 0.543203 0.327662 0.209841
internal_count=234 214 191 141 122
is_linear=0
shrinkage=0.2


Tree=115
num_leaves=4
num_cat=0
split_feature=48 48 43
split_gain=1.14505 2.36107e-05 2.4032e-06
threshold=-1.1847619406300147 -0.44306692186205471 -0.88601103731830644
decision_type=2 2 2
left_child=-1 -2 -3
right_child=1 2 -4
leaf_value=0.063913578751215325 -0.16962024092616279 -0.1682607375454816 -0.167382625507284
leaf_weight=2.7617376353591685 0.71894956019241385 0.25382260931655787 0.24499966317671285
leaf_count=29 80 24 101
internal_value=0 -0.168887 -0.167829
internal_weight=0 1.21777 0.498822
internal_count=234 205 125
is_linear=0
shrinkage=0.2


Tree=116
num_leaves=4
num_cat=0
split_feature=0 41 40
split_gain=0.726229 1.59012 0.244269
threshold=1.0000000180025095e-35 1.0000000180025095e-35 1.0000000180025095e-35
decision_type=2 2 2
left_child=2 -2 -1
right_child=1 -3 -4
leaf_value=0.01693484658698519 -0.14793438451881993 0.069164238485030269 0.096248630531544824
leaf_weight=3.411141489748843 2.9003447324503213 2.5238305823877454 2.8516953336074948
leaf_count=88 76 43 27
internal_value=0 -0.0469199 0.0530493
internal_weight=0 5.42418 6.26284
internal_count=234 119 115
is_linear=0
shrinkage=0.2


Tree=117
num_leaves=3
num_cat=0
split_feature=43 46
split_gain=1.4013 1.82736
threshold=0.26697479412583586 0.62832158161253837
decision_type=2 2
left_child=1 -1
right_child=-2 -3
leaf_value=0.017917524457231659 0.10256305776889151 -0.15549328023948317
leaf_weight=6.9567788871936482 3.5361310373991737 3.7360827205702662
leaf_count=98 70 66
internal_value=0 -0.0426722
internal_weight=0 10.6929
internal_count=234 164
is_linear=0
shrinkage=0.2


Tree=118
num_leaves=4
num_cat=0
split_feature=46 45 13
split_gain=1.94703 0.376485 0.352748
threshold=1.0000000180025095e-35 0.39911848224527785 1.0000000180025095e-35
decision_type=2 2 2
left_child=1 -1 -2
right_child=2 -3 -4
leaf_value=0.015147287903320435 -0.067011364662932199 0.12434867420388458 -0.18304765187839714
leaf_weight=2.8183106258511543 2.3223190477001481 2.2881270423531532 1.9096800144761799
leaf_count=73 82 47 32
internal_value=0 0.064079 -0.119372
internal_weight=0 5.10644 4.232
internal_count=234 120 114
is_linear=0
shrinkage=0.2


Tree=119
num_leaves=4
num_cat=0
split_feature=43 47 43
split_gain=1.13814 0.0720853 1.92295e-06
threshold=0.72816912670349287 -0.40278193657286659 -1.1166082036071348
decision_type=2 2 2
left_child=1 -1 -3
right_child=-2 2 -4
leaf_value=-0.063317021554283065 0.14183912287064215 -0.16865245956308397 -0.1679723025205416
leaf_weight=0.42194576503243297 1.4172613846603779 0.27912943565752357 0.41121747827855892
leaf_count=55 58 47 74
internal_value=0 -0.128442 -0.168247
internal_weight=0 1.11229 0.690347
internal_count=234 176 121
is_linear=0
shrinkage=0.2


Tree=120
num_leaves=5
num_cat=0
split_feature=44 43 44 44
split_gain=1.19484 2.70064e-06 1.59978e-06 2.20178e-07
threshold=-1.4848197840061459 0.49757196041466434 -0.98217961348082616 -0.35387940032417631
decision_type=2 2 2 2
left_child=-1 2 -2 -4
right_child=1 -3 3 -5
leaf_value=0.16206048967219339 -0.16807323072999483 -0.16852872076572767 -0.16747574243359239 -0.16712843922837256
leaf_weight=1.5783410742878916 0.1589267562958413 0.15504502065596171 0.13359588035382342 0.16101935185724836
leaf_count=16 23 60 47 88
internal_value=0 -0.167808 -0.167562 -0.167286
internal_weight=0 0.608587 0.453542 0.294615
internal_count=234 218 158 135
is_linear=0
shrinkage=0.2


Tree=121
num_leaves=5
num_cat=0
split_feature=45 48 47 43
split_gain=1.05402 0.00200265 5.52758e-06 1.78491e-06
threshold=-0.87499516859734705 -1.1847619406300147 1.0000000180025095e-35 -0.77071245417389211
decision_type=2 2 2 2
left_child=-1 -2 3 -3
right_child=1 2 -4 -5
leaf_value=0.062285877137411183 -0.18640860538541548 -0.1680098443191809 -0.1687029278916955 -0.1671620055897024
leaf_weight=2.4913252433179882 0.35600578412413619 0.20260197576135419 0.32855265936814249 0.19484200984879796
leaf_count=63 5 23 49 94
internal_value=0 -0.174121 -0.168096 -0.167594
internal_weight=0 1.082 0.725997 0.397444
internal_count=234 171 166 117
is_linear=0
shrinkage=0.2


Tree=122
num_leaves=4
num_cat=0
split_feature=44 44 44
split_gain=1.5998 0.269541 1.27568
threshold=-0.85651957084949604 -0.47953944295550643 1.0000000180025095e-35
decision_type=2 2 2
left_child=-1 -2 -3
right_child=1 2 -4
leaf_value=0.082055910300585455 -0.11305966794355969 0.11538752066137022 -0.17044730639470229
leaf_weight=5.370987668633461 2.9294454483315349 1.2839104775339367 1.2161460361676288
leaf_count=66 40 19 109
internal_value=0 -0.0718931 -0.0236561
internal_weight=0 5.4295 2.50006
internal_count=234 168 128
is_linear=0
shrinkage=0.2


Tree=123
num_leaves=3
num_cat=0
split_feature=40 1
split_gain=1.22852 1.59399
threshold=1.0000000180025095e-35 1.0000000180025095e-35
decision_type=2 2
left_child=1 -1
right_child=-2 -3
leaf_value=-0.16210533385718354 0.078190464133879228 0.01384762848528223
leaf_weight=3.2714655157178623 4.3825346007943162 5.5589326731860638
leaf_count=92 54 88
internal_value=0 -0.051339
internal_weight=0 8.8304
internal_count=234 180
is_linear=0
shrinkage=0.2


Tree=124
num_leaves=4
num_cat=0
split_feature=44 1 48
split_gain=1.78135 0.239191 0.157831
threshold=1.0000000180025095e-35 1.0000000180025095e-35 0.57676372894389061
decision_type=2 2 2
left_child=1 -1 -2
right_child=2 -3 -4
leaf_value=-0.089952887747253102 0.081064623949018005 -0.2089205693691239 0.01583858233663249
leaf_weight=1.3386094526504166 2.7267493652179837 1.3656613533385098 3.2556805098429322
leaf_count=73 52 52 57
internal_value=0 -0.150032 0.0455682
internal_weight=0 2.70427 5.98243
internal_count=234 125 109
is_linear=0
shrinkage=0.2


Tree=125
num_leaves=4
num_cat=0
split_feature=44 45 44
split_gain=1.72262 2.5829e-06 6.55624e-07
threshold=1.028381068620454 1.0000000180025095e-35 0.46894595558185198
decision_type=2 2 2
left_child=1 -1 -3
right_child=-2 2 -4
leaf_value=-0.16821232595127855 0.17875509741830362 -0.16732753689311156 -0.16779702015175704
leaf_weight=0.52246945357183028 1.346340851858258 0.23194704880006611 0.24429360951762646
leaf_count=96 35 61 42
internal_value=0 -0.167905 -0.167568
internal_weight=0 0.99871 0.476241
internal_count=234 199 103
is_linear=0
shrinkage=0.2


Tree=126
num_leaves=4
num_cat=0
split_feature=47 45 47
split_gain=1.06777 0.000251499 1.73555e-07
threshold=2.4987996546615152 1.3607136904283912 1.0000000180025095e-35
decision_type=2 2 2
left_child=1 2 -1
right_child=-2 -3 -4
leaf_value=-0.16712481215786679 0.16392034254691729 -0.17667308869564946 -0.16740909427852901
leaf_weight=0.15388757967593858 1.4580831527709959 0.16969261775375344 0.19443685002624989
leaf_count=110 20 46 58
internal_value=0 -0.170359 -0.167284
internal_weight=0 0.518017 0.348324
internal_count=234 214 168
is_linear=0
shrinkage=0.2


Tree=127
num_leaves=5
num_cat=0
split_feature=44 45 48 45
split_gain=1.21386 1.48301 0.000337178 3.47303e-07
threshold=-0.98217961348082616 -0.87499516859734705 -0.90662630859202975 1.0000000180025095e-35
decision_type=2 2 2 2
left_child=-1 -2 -3 -4
right_child=1 2 3 -5
leaf_value=-0.21320529459418563 0.16984472201890982 -0.17648978890294087 -0.16781552255457982 -0.16746778872483081
leaf_weight=0.84166487969923798 1.6732066953554754 0.27367277583107397 0.21526202908717018 0.24638788196170935
leaf_count=58 32 11 38 95
internal_value=0 0.0658072 -0.170927 -0.16763
internal_weight=0 2.40853 0.735323 0.46165
internal_count=234 176 144 133
is_linear=0
shrinkage=0.2


Tree=128
num_leaves=4
num_cat=0
split_feature=44 40 44
split_gain=1.2228 0.292274 1.11806
threshold=-0.85651957084949604 1.0000000180025095e-35 1.0000000180025095e-35
decision_type=2 2 2
left_child=-1 2 -2
right_child=1 -3 -4
leaf_value=0.076415282983606572 0.11971727459177078 -0.10509979695533858 -0.16985468921603319
leaf_weight=4.9098816215991974 1.2093420203309508 2.9036159671377391 0.95415727014187712
leaf_count=66 22 41 105
internal_value=0 -0.0636375 -0.0079912
internal_weight=0 5.06712 2.1635
internal_count=234 168 127
is_linear=0
shrinkage=0.2


Tree=129
num_leaves=3
num_cat=0
split_feature=43 43
split_gain=1.28971 1.46703
threshold=0.15167621098142162 -0.77071245417389211
decision_type=2 2
left_child=1 -1
right_child=-2 -3
leaf_value=0.032021734300167519 0.082769540406646858 -0.13618608961807868
leaf_weight=4.0432480141753322 4.1063808239996442 4.2583043612539759
leaf_count=65 83 86
internal_value=0 -0.0542609
internal_weight=0 8.30155
internal_count=234 151
is_linear=0
shrinkage=0.2


Tree=130
num_leaves=4
num_cat=0
split_feature=46 43 43
split_gain=1.41435 0.674765 0.411579
threshold=1.0000000180025095e-35 1.0000000180025095e-35 -0.30951812159623526
decision_type=2 2 2
left_child=1 -1 -2
right_child=2 -3 -4
leaf_value=0.12861533889251095 -0.17949700033435081 -0.026791838824383858 -0.043652641115070362
leaf_weight=2.4760003881528974 1.7437121824477801 2.0369493756443262 1.8267581292893735
leaf_count=54 67 66 47
internal_value=0 0.0584713 -0.109995
internal_weight=0 4.51295 3.57047
internal_count=234 120 114
is_linear=0
shrinkage=0.2


Tree=131
num_leaves=4
num_cat=0
split_feature=43 45 47
split_gain=0.713311 0.0910862 6.09404e-07
threshold=0.72816912670349287 0.39911848224527785 -0.40278193657286659
decision_type=2 2 2
left_child=1 2 -1
right_child=-2 -3 -4
leaf_value=-0.16749279019081165 0.13385041529337513 -0.032923425707065176 -0.16794768831599027
leaf_weight=0.20588957844302047 1.1125254505313931 0.34347639651969075 0.2753182511078196
leaf_count=52 58 45 79
internal_value=0 -0.111597 -0.167753
internal_weight=0 0.824684 0.481208
internal_count=234 176 131
is_linear=0
shrinkage=0.2


end of trees

feature_importances:
Column_44=89
Column_43=72
Column_46=62
Column_47=41
Column_48=41
Column_45=32
Column_40=13
Column_42=7
Column_1=6
Column_13=6
Column_0=5
Column_16=5
Column_41=4
Column_31=3

parameters:
[boosting: gbdt]
[objective: multiclass]
[metric: custom]
[tree_learner: serial]
[device_type: cpu]
[data_sample_strategy: bagging]
[data: ]
[valid: ]
[num_iterations: 10000]
[learning_rate: 0.2]
[num_leaves: 63]
[num_threads: 0]
[seed: 1239]
[deterministic: 0]
[force_col_wise: 0]
[force_row_wise: 0]
[histogram_pool_size: -1]
[max_depth: -1]
[min_data_in_leaf: 50]
[min_sum_hessian_in_leaf: 0.001]
[bagging_fraction: 1]
[pos_bagging_fraction: 1]
[neg_bagging_fraction: 1]
[bagging_freq: 0]
[bagging_seed: 21187]
[feature_fraction: 0.5]
[feature_fraction_bynode: 1]
[feature_fraction_seed: 30770]
[extra_trees: 0]
[extra_seed: 27351]
[early_stopping_round: 0]
[early_stopping_min_delta: 0]
[first_metric_only: 0]
[max_delta_step: 0]
[lambda_l1: 0]
[lambda_l2: 0]
[linear_lambda: 0]
[min_gain_to_split: 0]
[drop_rate: 0.1]
[max_drop: 50]
[skip_drop: 0.5]
[xgboost_dart_mode: 0]
[uniform_drop: 0]
[drop_seed: 3778]
[top_rate: 0.2]
[other_rate: 0.1]
[min_data_per_group: 100]
[max_cat_threshold: 32]
[cat_l2: 10]
[cat_smooth: 10]
[max_cat_to_onehot: 4]
[top_k: 20]
[monotone_constraints: ]
[monotone_constraints_method: basic]
[monotone_penalty: 0]
[feature_contri: ]
[forcedsplits_filename: ]
[refit_decay_rate: 0.9]
[cegb_tradeoff: 1]
[cegb_penalty_split: 0]
[cegb_penalty_feature_lazy: ]
[cegb_penalty_feature_coupled: ]
[path_smooth: 0]
[interaction_constraints: ]
[verbosity: -1]
[saved_feature_importance_type: 0]
[use_quantized_grad: 0]
[num_grad_quant_bins: 4]
[quant_train_renew_leaf: 0]
[stochastic_rounding: 1]
[linear_tree: 0]
[max_bin: 255]
[max_bin_by_feature: ]
[min_data_in_bin: 3]
[bin_construct_sample_cnt: 200000]
[data_random_seed: 4084]
[is_enable_sparse: 1]
[enable_bundle: 1]
[use_missing: 1]
[zero_as_missing: 0]
[feature_pre_filter: 1]
[pre_partition: 0]
[two_round: 0]
[header: 0]
[label_column: ]
[weight_column: ]
[group_column: ]
[ignore_column: ]
[categorical_feature: ]
[forcedbins_filename: ]
[precise_float_parser: 0]
[parser_config_file: ]
[objective_seed: 9093]
[num_class: 6]
[is_unbalance: 0]
[scale_pos_weight: 1]
[sigmoid: 1]
[boost_from_average: 1]
[reg_sqrt: 0]
[alpha: 0.9]
[fair_c: 1]
[poisson_max_delta_step: 0.7]
[tweedie_variance_power: 1.5]
[lambdarank_truncation_level: 30]
[lambdarank_norm: 1]
[label_gain: ]
[lambdarank_position_bias_regularization: 0]
[eval_at: ]
[multi_error_top_k: 1]
[auc_mu_weights: ]
[num_machines: 1]
[local_listen_port: 12400]
[time_out: 120]
[machine_list_filename: ]
[machines: ]
[gpu_platform_id: -1]
[gpu_device_id: -1]
[gpu_use_dp: 0]
[num_gpu: 1]

end of parameters

pandas_categorical:null
