tree
version=v4
num_class=6
num_tree_per_iteration=6
label_index=0
max_feature_idx=48
objective=multiclass num_class:6
feature_names=Column_0 Column_1 Column_2 Column_3 Column_4 Column_5 Column_6 Column_7 Column_8 Column_9 Column_10 Column_11 Column_12 Column_13 Column_14 Column_15 Column_16 Column_17 Column_18 Column_19 Column_20 Column_21 Column_22 Column_23 Column_24 Column_25 Column_26 Column_27 Column_28 Column_29 Column_30 Column_31 Column_32 Column_33 Column_34 Column_35 Column_36 Column_37 Column_38 Column_39 Column_40 Column_41 Column_42 Column_43 Column_44 Column_45 Column_46 Column_47 Column_48
feature_infos=[0:1] [0:1] [0:1] [0:1] [0:1] [0:1] none [0:1] none [0:1] [0:1] none [0:1] [0:1] [0:1] none [0:1] [0:1] none none none none [0:1] none none [0:1] none none none none none [0:1] none none none [0:1] none none [0:1] none [0:1] [0:1] [0:1] [-1.6354518277569989:1.9388042497198423] [-1.6733098479531416:1.7195113030927685] [-1.4038725330980597:1.48091309145128] [-1.3440356134253817:1.4736175223430754] [-1.2490765673495612:3.828691217310606] [-2.3591123870126185:1.9674418891338159]
tree_sizes=348 660 1067 1064 1164 652 2005 1875 2070 1519 1847 1760 2007 2101 1641 1963 1955 2095 1893 2116 2068 1860 1851 1863 1788 2109 1968 1862 1739 1856 2011 1881 1841 2069 1740 1979 1901 1987 1863 2077 1732 1754 1785 2214 1752 2070 1735 1884 2013 2228 1849 2076 1856 1765 1780 1893 1864 1859 1857 1985 2237 2001 1865 1958 1850 1865 1897 1888 1862 2070 1855 1880 2010 2120 1956 1860 1856 2083 2009 2121 1862 1962 2065 1878 1917 2001 2071 2191 2064 1772 1892 2001 2193 1837 1955 1990 2013 1889 1968 1969 1953 1997 1910 1895 2082 2183 1966 2101 1898 2113 2082 2068 2078 1999 1896 2109 2090 2072 2079 2002 1902 2008 1965 1973 2075 1892 1899 2009 2202 2078 2192 2000 1909 2117 2091 2069 2076 2000 1905 2113 2202 2088 2079 2004 1906 2120 2084 2081 2193 1888 1791 1897 1979 1964 2090 2004 1910 2009 2202 2080 2302 1894 1909 2003 2092 2195 2191 1897 2015 1899 2095 2080 2084 2005 1914 2006 2086 2081 1974 2104 1908 1998 2192 1964 2320 2109 2023 2019 2425 1986 2094 2112 1915 1885 2414 2087 2193 2111 1901 2012 2310 2087 2097 2118 1906 1996 2209 2207 2202 2009 1794 2011 2105 1988 2105 2012 2026 2118 2207 2087 2105 2004 1906 2010 2096 2100 2099 2006 2143 2002 2105 1991 2104 2125 2134 2015 2091 1993 2101 2119 2126 2013 1989 2213 2095 2116 2148 2128 2210 1879 2200 2120 2141 1911 2212 2089 2219 2004 2152 2124 2210 2322 2091 2012

Tree=0
num_leaves=2
num_cat=0
split_feature=44
split_gain=180.252
threshold=-1.4848197840061459
decision_type=2
left_child=-1
right_child=-2
leaf_value=-2.1970944798986296 -2.9344894044329322
leaf_weight=0.88148149847984392 13.851852118968962
leaf_count=14 220
internal_value=-2.89037
internal_weight=0
internal_count=234
is_linear=0
shrinkage=1


Tree=1
num_leaves=5
num_cat=0
split_feature=48 16 35 43
split_gain=122.212 28.2589 1.77636e-15 1.77636e-15
threshold=-1.1847619406300147 1.0000000180025095e-35 1.0000000180025095e-35 0.8434677098479072
decision_type=2 2 2 2
left_child=1 -1 3 -2
right_child=2 -3 -4 -5
leaf_value=-2.4196545455125738 -2.6670386474508536 -2.0485783926051528 -2.6670386474508536 -2.6670386474508536
leaf_weight=1.2126890569925337 10.83335557579994 0.88930530846118916 1.536072805523873 4.4465265423059472
leaf_count=15 134 11 19 55
internal_value=-2.62211 -2.26266 -2.66704 -2.66704
internal_weight=0 2.10199 16.816 15.2799
internal_count=234 26 208 189
is_linear=0
shrinkage=1


Tree=2
num_leaves=9
num_cat=0
split_feature=44 47 44 44 40 0 31 43
split_gain=102.564 44.1267 7.37638 0.532534 1.24656 3.55271e-15 1.77636e-15 8.88178e-16
threshold=-0.85651957084949604 1.2898073249805229 -0.73085952821816658 -0.16538933637718142 1.0000000180025095e-35 1.0000000180025095e-35 1.0000000180025095e-35 -0.30951812159623526
decision_type=2 2 2 2 2 2 2 2
left_child=1 -1 -2 4 -4 6 -5 -8
right_child=2 -3 3 5 -6 -7 7 -9
leaf_value=-1.3010669399281058 -1.4637925008721637 -1.5013445533977154 -1.491330672724235 -1.5388966059232672 -1.5388966059232672 -1.5388966059232672 -1.5388966059232672 -1.5388966059232672
leaf_weight=8.8298487067222577 3.9944553673267356 3.9944553673267356 2.1023449301719621 6.5172692835330999 3.9944553673267365 13.244773060083389 2.5228139162063599 3.9944553673267365
leaf_count=42 19 19 10 31 19 63 12 19
internal_value=-1.48503 -1.36345 -1.5279 -1.53581 -1.52249 -1.5389 -1.5389 -1.5389
internal_weight=0 12.8243 36.3706 32.3761 6.0968 26.2793 13.0345 6.51727
internal_count=234 61 173 154 29 125 62 31
is_linear=0
shrinkage=1


Tree=3
num_leaves=9
num_cat=0
split_feature=35 22 44 48 48 9 43 43
split_gain=66.7762 49.5 12.7493 3.32408 10.9624 20.3855 0.596799 3.55271e-15
threshold=1.0000000180025095e-35 1.0000000180025095e-35 0.65140076417830439 -0.44306692186205471 -0.90662630859202975 1.0000000180025095e-35 -1.0000000180025095e-35 -0.54011528788506369
decision_type=2 2 2 2 2 2 2 2
left_child=1 3 -3 4 6 -6 -1 -5
right_child=-2 2 -4 7 5 -7 -8 -9
leaf_value=-1.6365394584900881 -1.3809951070677469 -1.5436142397910548 -1.3809951070677471 -1.6365394584900881 -1.4274577164172635 -1.6365394584900881 -1.6143182105403193 -1.6365394584900881
leaf_weight=9.1960554867982864 3.717554345726966 2.1522683054208747 2.7392505705356598 3.3262328356504449 2.1522683054208747 2.5435898154973984 4.5001973658800134 15.457199648022652
leaf_count=47 19 11 14 17 11 13 23 79
internal_value=-1.58412 -1.60207 -1.45255 -1.62174 -1.60664 -1.54071 -1.62924 -1.63654
internal_weight=0 42.0671 4.89152 37.1755 18.3921 4.69586 13.6963 18.7834
internal_count=234 215 25 190 94 24 70 96
is_linear=0
shrinkage=1


Tree=4
num_leaves=10
num_cat=0
split_feature=44 44 3 44 43 31 43 43 43
split_gain=62.6463 66.6153 49.4788 1.95489 0.327296 7.10543e-15 3.55271e-15 3.55271e-15 1.77636e-15
threshold=-0.16538933637718142 0.90272102598912363 1.0000000180025095e-35 1.0000000180025095e-35 1.0740648761367357 1.0000000180025095e-35 0.8434677098479072 0.26697479412583586 1.3046620424255642
decision_type=2 2 2 2 2 2 2 2 2
left_child=5 2 3 -2 -3 6 7 -1 -6
right_child=1 4 -4 -5 8 -7 -8 -9 -10
leaf_value=-1.3692039371995901 -1.1997803739617934 -1.3480259917948656 -1.3692039371995901 -1.1574244831523439 -1.3692039371995901 -1.3692039371995901 -1.3692039371995901 -1.3692039371995901 -1.3692039371995901
leaf_weight=14.401774778962144 3.541420027613646 2.360946685075759 3.7775146961212149 11.804733425378798 2.8331360220909101 4.2497040331363669 3.305325359106063 3.7775146961212149 5.1940827071666718
leaf_count=61 15 10 16 50 12 18 14 16 22
internal_value=-1.31219 -1.26247 -1.2071 -1.1672 -1.36439 -1.3692 -1.3692 -1.3692 -1.3692
internal_weight=0 29.5118 19.1237 15.3462 10.3882 25.7343 21.4846 18.1793 8.02722
internal_count=234 125 81 65 44 109 91 77 34
is_linear=0
shrinkage=1


Tree=5
num_leaves=5
num_cat=0
split_feature=46 43 43 0
split_gain=172.189 1.76405 1.05479 3.55271e-15
threshold=-1.0622702998485356 1.1893634592811499 0.8434677098479072 1.0000000180025095e-35
decision_type=2 2 2 2
left_child=1 -1 3 -2
right_child=2 -3 -4 -5
leaf_value=-1.5814932061269888 -1.8166993944219973 -1.5226916590532367 -1.7872986208851211 -1.8166993944219971
leaf_weight=1.7006355524063099 18.196800410747528 5.1019066572189331 3.4012711048126212 11.394258201122286
leaf_count=10 107 30 20 67
internal_value=-1.76644 -1.53739 -1.81367 -1.8167
internal_weight=0 6.80254 32.9923 29.5911
internal_count=234 40 194 174
is_linear=0
shrinkage=1


Tree=6
num_leaves=17
num_cat=0
split_feature=44 9 47 45 48 43 44 43 44 13 44 43 44 42 43 4
split_gain=91.4532 6.47831e-07 5.62772e-07 3.4291e-07 1.85222e-07 4.30914e-07 1.61088e-07 1.5123e-07 1.39703e-07 1.01494e-07 1.83759e-07 9.12426e-08 9.03696e-08 2.89196e-08 1.93339e-08 2.08321e-09
threshold=-1.4848197840061459 1.0000000180025095e-35 1.2898073249805229 1.0000000180025095e-35 -0.78301047213070307 1.0000000180025095e-35 0.46894595558185198 -0.19421953845182102 1.1540411112517834 1.0000000180025095e-35 1.0000000180025095e-35 0.26697479412583586 0.77706098335779361 1.0000000180025095e-35 1.1893634592811499 1.0000000180025095e-35
decision_type=2 2 2 2 2 2 2 2 2 2 2 2 2 2 2 2
left_child=-1 2 3 4 13 -6 9 12 15 -5 -11 -7 -8 -2 -15 -9
right_child=1 -3 -4 6 5 11 7 8 -10 10 -12 -13 -14 14 -16 -17
leaf_value=0.35362559399311766 -0.043978651789050492 -0.044039341884813392 -0.044028086006217979 -0.043977380096016039 -0.043931365292528973 -0.043997068946140749 -0.044031790050577543 -0.043988388370069492 -0.044011830774034949 -0.04401457401361563 -0.043984529011058149 -0.043971525754248342 -0.04400449726780159 -0.04399550786165491 -0.043984645755566258 -0.043984529011058093
leaf_weight=1.6235445365309722 0.59766970202326786 0.79484777152538377 1.0348903499543674 1.2544815167784693 0.58644368499516941 0.60177012532949425 0.60972979664802263 0.83990456536412572 0.907777789980173 0.78776754438877139 1.4377015829086301 0.83434531092643738 0.60348594188690186 1.082831911742687 0.65897671878337871 0.59904232621192932
leaf_count=14 10 13 17 21 10 10 10 14 15 13 24 14 10 18 11 10
internal_value=0 -0.0439956 -0.0439928 -0.0439896 -0.0439786 -0.0439675 -0.0439964 -0.0440039 -0.0439965 -0.0439888 -0.0439952 -0.0439822 -0.0440182 -0.0439881 -0.0439914 -0.0439868
internal_weight=0 13.2317 12.4368 11.4019 4.36204 2.02256 7.03989 3.55994 2.34672 3.47995 2.22547 1.43612 1.21322 2.33948 1.74181 1.43895
internal_count=234 220 207 190 73 34 117 59 39 58 37 24 20 39 29 24
is_linear=0
shrinkage=0.05


Tree=7
num_leaves=16
num_cat=0
split_feature=45 45 43 3 9 44 44 43 44 44 43 42 43 44 46
split_gain=33.6776 79.1561 5.24941e-05 1.7466e-05 1.71625e-06 9.24868e-07 3.69704e-07 6.43815e-07 4.37423e-07 4.58458e-07 4.24071e-07 1.13232e-07 4.75296e-08 3.85979e-08 1.94276e-08
threshold=-0.80287552798361361 -1.2355933716660144 -1.231906786751549 1.0000000180025095e-35 1.0000000180025095e-35 0.90272102598912363 0.2744208128324736 0.26697479412583586 1.0000000180025095e-35 -0.47953944295550643 -0.078920955307406782 1.0000000180025095e-35 1.1893634592811499 0.77706098335779361 0.62832158161253837
decision_type=2 2 2 2 2 2 2 2 2 2 2 2 2 2 2
left_child=1 2 -1 4 5 6 7 8 9 -2 -8 -4 -13 -5 -9
right_child=3 -3 11 13 -6 -7 10 14 -10 -11 -12 12 -14 -15 -16
leaf_value=-0.045198688088872972 -0.044750889502065849 0.33356733793146431 -0.044734876768432685 -0.044916246218873496 -0.0448219708553141 -0.044789427124797998 -0.044698997859305742 -0.044726745882064961 -0.044747804578508014 -0.044797471306744274 -0.044747804578507994 -0.044763785848431305 -0.044747967432438134 -0.044930420280888179 -0.04473604804195086
leaf_weight=0.85314018279314074 0.84700424224138005 2.233312755823138 0.84323683381080639 0.95963905006647177 1.0204370990395553 1.5561570748686779 0.75844588875770558 0.84120517969131481 2.0003751069307327 1.4034000188112232 1.0771250575780866 1.0819225609302519 0.84635049104690563 0.96157155185937881 1.68683972209692
leaf_count=10 11 19 11 12 13 20 10 11 26 18 14 14 11 12 22
internal_value=0 0.0994158 -0.0448557 -0.0447841 -0.0447602 -0.044754 -0.0447475 -0.0447529 -0.0447648 -0.0447799 -0.0447276 -0.0447502 -0.0447568 -0.0449233 -0.044733
internal_weight=0 5.85796 3.62465 13.1122 11.191 10.1706 8.6144 6.77882 4.25078 2.2504 1.83557 2.77151 1.92827 1.92121 2.52804
internal_count=234 65 46 169 145 132 112 88 55 29 24 36 25 24 33
is_linear=0
shrinkage=0.05


Tree=8
num_leaves=18
num_cat=0
split_feature=44 47 46 43 48 44 4 44 44 46 17 44 5 43 44 43 43
split_gain=87.4504 32.4287 9.61479 13.0183 0.00142186 0.000189848 2.20873e-05 1.94706e-05 1.86625e-05 1.77659e-05 1.54279e-05 1.49445e-05 1.04449e-05 5.89448e-06 4.45308e-06 1.65679e-06 5.66255e-07
threshold=-0.85651957084949604 1.2898073249805229 0.62832158161253837 -0.078920955307406782 0.57676372894389061 -0.16538933637718142 1.0000000180025095e-35 0.77706098335779361 0.46894595558185198 -1.0622702998485356 1.0000000180025095e-35 1.0000000180025095e-35 1.0000000180025095e-35 0.26697479412583586 0.77706098335779361 1.1893634592811499 1.765856375003221
decision_type=2 2 2 2 2 2 2 2 2 2 2 2 2 2 2 2 2
left_child=1 4 5 -4 -1 13 8 -8 10 16 -7 -12 14 -2 -11 -9 -10
right_child=2 -3 3 -5 -6 6 7 15 9 12 11 -13 -14 -15 -16 -17 -18
leaf_value=0.15402700926656046 -0.053273891833155562 -0.015193081280323352 -0.053582330823339012 0.10084622152893725 0.15522947190492051 -0.052880500013300573 -0.05276982681832118 -0.052987952509278284 -0.052953824516015408 -0.053204826642811426 -0.053115299653162376 -0.052927384277677209 -0.05301346852709652 -0.053388238862143902 -0.053100147589329655 -0.052928077719497757 -0.052990453393597592
leaf_weight=4.49927870929241 2.2478409260511389 3.9193722307682028 2.9011478871107101 2.5768579989671698 5.4197340309619904 4.0090972632169812 1.9925373196601857 2.2176531851291656 2.0125047266483334 2.0372811853885606 2.0290105044841766 2.2108941674232483 2.0181100368499756 2.2603138089179993 2.0266236662864685 2.4119698405265808 2.2179873287677765
leaf_count=19 11 19 14 12 23 20 10 11 10 10 10 11 10 11 10 12 11
internal_value=0 0.106571 -0.0418032 0.019061 0.154684 -0.0530324 -0.0529789 -0.0529005 -0.0530069 -0.0530517 -0.0529508 -0.0530173 -0.0531065 -0.0533312 -0.0531526 -0.0529568 -0.052973
internal_weight=0 13.8384 35.1698 5.47801 9.91901 29.6918 25.1837 6.62216 18.5615 10.3125 8.249 4.2399 6.08201 4.50815 4.0639 4.62962 4.23049
internal_count=234 61 173 26 42 147 125 33 92 51 41 21 30 22 20 23 21
is_linear=0
shrinkage=0.05


Tree=9
num_leaves=13
num_cat=0
split_feature=35 22 44 48 48 9 40 43 13 44 44 44
split_gain=52.7385 42.2246 8.57657 3.2403 9.95152 16.8344 0.80291 0.000188626 1.75178e-05 1.39556e-05 1.8517e-05 8.87352e-06
threshold=1.0000000180025095e-35 1.0000000180025095e-35 0.65140076417830439 -0.44306692186205471 -0.90662630859202975 1.0000000180025095e-35 1.0000000180025095e-35 -0.078920955307406782 1.0000000180025095e-35 -1.2334996987434863 1.0000000180025095e-35 0.90272102598912363
decision_type=2 2 2 2 2 2 2 2 2 2 2 2
left_child=1 3 -3 4 6 -6 7 8 -1 -5 -11 -12
right_child=-2 2 -4 9 5 -7 -8 -9 -10 10 11 -13
leaf_value=-0.05147464616499467 0.16759313901583039 0.038160817733302599 0.16687921225754854 -0.05157164588452632 0.13441698621478479 -0.051907057209622354 -0.024044746807780362 -0.052007413065891551 -0.051652145070393833 -0.051797769288113575 -0.051629360179194256 -0.051722436266359029
leaf_weight=2.9610916972160339 4.2591765224933615 2.1978078931570044 3.1473218649625778 3.1651034802198419 2.3812775611877433 2.4693968296051025 3.5963639318943015 4.0131748914718646 2.619930312037468 3.0204820781946191 8.0356621891260129 3.7583793103694907
leaf_count=16 19 11 14 17 11 13 19 21 14 16 43 20
internal_value=0 -0.0171854 0.113953 -0.0366449 -0.0216742 0.0395625 -0.0441933 -0.051746 -0.051558 -0.0516669 -0.0516873 -0.051659
internal_weight=0 41.366 5.34513 36.0209 18.0412 4.85067 13.1906 9.5942 5.58102 17.9796 14.8145 11.794
internal_count=234 215 25 190 94 24 70 51 30 96 79 63
is_linear=0
shrinkage=0.05


Tree=10
num_leaves=16
num_cat=0
split_feature=44 44 3 44 44 43 31 44 48 0 44 44 48 41 45
split_gain=55.9771 55.8969 39.8081 1.41971 0.330409 0.00262731 0.000264834 0.000115994 7.76008e-05 4.78282e-05 1.67795e-05 1.19184e-05 1.86878e-05 1.71473e-05 1.01529e-05
threshold=-0.16538933637718142 0.90272102598912363 1.0000000180025095e-35 1.0000000180025095e-35 1.1540411112517834 -0.6554138710294779 1.0000000180025095e-35 -1.4848197840061459 -1.462897572668 1.0000000180025095e-35 1.2797011538831129 -0.73085952821816658 -0.78301047213070307 1.0000000180025095e-35 -0.80287552798361361
decision_type=2 2 2 2 2 2 2 2 2 2 2 2 2 2 2
left_child=6 2 3 -2 -3 -5 7 -1 -9 -7 -6 12 -10 -14 -13
right_child=1 4 -4 5 10 9 -8 8 11 -11 -12 14 13 -15 -16
leaf_value=-0.055414787630825385 0.099283057641015984 -0.034259116444095315 -0.056004407469958564 0.13558467042087186 -0.055983738887355278 0.13373091239015336 -0.05613362263414954 -0.056016783922861517 -0.05576724561072436 0.13397988403998135 -0.055826476842693512 -0.055676624750677944 -0.055507848161563879 -0.055681754058945071 -0.055811608813865467
leaf_weight=3.1333607435226503 3.7783009260892966 2.2908160686492902 3.6559026837348929 2.5541800856590333 2.5115957260131836 7.7218016982078463 4.1299673318862906 2.2856199294328752 3.1737718582153374 2.571295440196991 5.2244001030921936 2.2596901059150696 2.2460218518972397 3.8422662913799286 3.6322438120841865
leaf_count=14 15 10 16 10 11 30 18 10 14 10 23 10 10 17 16
internal_value=0 0.0456336 0.0933772 0.126226 -0.0509384 0.134149 -0.0557682 -0.0556949 -0.0557452 0.133793 -0.0558775 -0.0557042 -0.0556689 -0.0556176 -0.0557598
internal_weight=0 30.3083 20.2815 16.6256 10.0268 12.8473 24.7029 20.573 17.4396 10.2931 7.736 15.154 9.26206 6.08829 5.89193
internal_count=234 125 81 65 44 50 109 91 77 40 34 67 41 27 26
is_linear=0
shrinkage=0.05


Tree=11
num_leaves=15
num_cat=0
split_feature=44 43 44 43 44 44 46 43 44 43 13 44 40 44
split_gain=155.109 0.0557905 5.22707e-05 3.848e-05 5.46281e-05 0.000146816 4.51973e-05 5.65981e-05 3.57272e-05 2.31719e-05 4.87771e-06 7.67819e-06 2.07789e-06 1.45205e-06
threshold=1.028381068620454 1.5352592087143926 -1.4848197840061459 -1.1166082036071348 -1.1078396561121562 0.65140076417830439 0.62832158161253837 -0.078920955307406782 -0.85651957084949604 0.8434677098479072 1.0000000180025095e-35 1.0000000180025095e-35 1.0000000180025095e-35 0.77706098335779361
decision_type=2 2 2 2 2 2 2 2 2 2 2 2 2 2
left_child=2 -2 -1 4 -4 -6 10 -8 9 -9 12 -12 -5 -13
right_child=1 -3 3 6 5 -7 7 8 -10 -11 11 13 -14 -15
leaf_value=-0.049519988117128121 0.20021722764068894 0.19184788475547698 -0.049646167463708125 -0.049616827170680708 -0.050264253606167542 -0.049691748822789719 -0.049634656774107201 -0.049693736871342965 -0.050086122425098703 -0.049933244343769362 -0.049796565834949971 -0.04967133554913955 -0.049678384138866973 -0.049723539820321114
leaf_weight=2.2413554489612606 4.3496936559677106 3.6723502278327942 1.7804808020591734 2.5831159055233011 2.2054573595523861 2.2749768495559692 2.5872970074415207 1.7877902239561079 2.0135379731655103 2.3208349943161011 1.9671503305435178 5.191007137298584 2.9213013201951981 1.7917979806661604
leaf_count=14 22 18 11 16 13 14 16 11 12 14 12 32 18 11
internal_value=0 0.196386 -0.0497527 -0.0497705 -0.0498805 -0.0499736 -0.0497407 -0.0498307 -0.0499136 -0.049829 -0.0496865 -0.0497093 -0.0496495 -0.0496847
internal_weight=0 8.02204 31.6661 29.4247 6.26092 4.48043 23.1638 8.70946 6.12216 4.10863 14.4544 8.94996 5.50442 6.98281
internal_count=234 40 194 180 38 27 142 53 37 25 89 55 34 43
is_linear=0
shrinkage=0.05


Tree=12
num_leaves=17
num_cat=0
split_feature=44 9 47 45 48 43 43 44 43 44 16 43 42 43 43 44
split_gain=64.0588 1.24204e-06 1.32124e-06 7.8836e-07 5.01209e-07 1.02963e-06 4.95429e-07 5.1008e-07 4.06548e-07 3.69402e-07 5.99963e-07 2.70463e-07 6.25856e-08 3.32979e-08 2.43915e-08 7.72937e-13
threshold=-1.4848197840061459 1.0000000180025095e-35 1.2898073249805229 1.0000000180025095e-35 -0.78301047213070307 1.0000000180025095e-35 -0.88601103731830644 0.90272102598912363 1.765856375003221 1.0000000180025095e-35 1.0000000180025095e-35 0.26697479412583586 1.0000000180025095e-35 1.1893634592811499 -0.54011528788506369 0.77706098335779361
decision_type=2 2 2 2 2 2 2 2 2 2 2 2 2 2 2 2
left_child=-1 2 3 4 12 -6 -5 9 -9 10 -8 -7 -2 -14 -11 -16
right_child=1 -3 -4 6 5 11 7 8 -10 14 -12 -13 13 -15 15 -17
leaf_value=0.25013105835346305 -0.043850982678895679 -0.04393718654925946 -0.04392656238824455 -0.043907564263328133 -0.043772610051730637 -0.043879797741839879 -0.043916383717490799 -0.043926687078120336 -0.043870174266179805 -0.043844560020898579 -0.043856325573422283 -0.043834703139327393 -0.043875730285506676 -0.043861125732923972 -0.043854550027150135 -0.043854622048184626
leaf_weight=2.1717129200696954 0.56796903908252727 0.76374361664056856 0.99445678666234094 1.1030280850827665 0.54915365576743536 0.57440498471260049 0.69988352060318226 0.64341517537832238 0.62970286980271339 0.9628707170486418 1.0245966799557209 0.78955112770199776 1.0327307246625421 0.62737937644124042 1.0807334259152446 0.56882381439208973
leaf_count=14 10 13 17 19 10 10 12 11 11 17 18 14 18 11 19 10
internal_value=0 -0.0438754 -0.0438714 -0.0438663 -0.0438492 -0.0438304 -0.0438769 -0.0438709 -0.0438987 -0.0438627 -0.0438807 -0.0438537 -0.0438653 -0.0438702 -0.0438509 -0.0438546
internal_weight=0 12.6124 11.8487 10.8542 4.14119 1.91311 6.71305 5.61003 1.27312 4.33691 1.72448 1.36396 2.22808 1.66011 2.61243 1.64956
internal_count=234 220 207 190 73 34 117 98 22 76 30 24 39 29 46 29
is_linear=0
shrinkage=0.05


Tree=13
num_leaves=18
num_cat=0
split_feature=48 47 12 44 9 44 4 43 47 48 44 47 44 44 44 47 5
split_gain=63.3375 6.60749 3.62611e-06 1.01558e-05 3.27631e-06 1.62082e-06 1.30675e-06 1.19697e-06 9.82026e-07 1.48236e-06 1.43808e-06 1.39124e-06 8.36118e-07 5.22405e-07 4.85478e-07 2.81622e-07 1.62557e-10
threshold=-1.1847619406300147 2.1361019557572178 1.0000000180025095e-35 -0.60519948558683645 1.0000000180025095e-35 0.46894595558185198 1.0000000180025095e-35 -0.19421953845182102 -0.40278193657286659 -0.78301047213070307 1.0000000180025095e-35 0.56441192717192723 0.77706098335779361 1.1540411112517834 -1.4219896593812071 -0.40278193657286659 1.0000000180025095e-35
decision_type=2 2 2 2 2 2 2 2 2 2 2 2 2 2 2 2 2
left_child=1 -1 4 -4 5 8 7 12 10 14 -2 -11 -7 -9 -10 -8 -12
right_child=2 -3 3 -5 -6 6 15 13 9 11 16 -13 -14 -15 -16 -17 -18
leaf_value=0.25697295494008882 -0.044653183702102507 0.12096521633850428 -0.044569857829278831 -0.044806750040914944 -0.044681278628619807 -0.044695286920716858 -0.044587854458316152 -0.044574270765695347 -0.044565509358515644 -0.044485292070912605 -0.044568836077223506 -0.044560547971794012 -0.044620569849747167 -0.04462374794191936 -0.044616936545493487 -0.044549093761010669 -0.044569845892917292
leaf_weight=1.7920252680778532 0.74891121685504858 1.7799990251660345 1.0960541367530821 0.77045997977256853 0.98054321855306703 0.75694380700588249 1.3223721459507944 1.0243851840496065 0.94870766252279282 0.99570944905280767 0.87662050127983071 1.6025370433926582 0.7409370020031929 1.1133303567767141 0.88886593282222592 0.72585116326808918 0.7307383120059967
leaf_count=11 10 15 15 10 13 10 18 14 13 14 12 22 10 15 12 10 10
internal_value=0 0.189198 -0.0446023 -0.0446676 -0.0445933 -0.0445864 -0.0446061 -0.0446241 -0.0445699 -0.044556 -0.044596 -0.0445317 -0.0446583 -0.0446 -0.0445904 -0.0445741 -0.0445693
internal_weight=0 3.57202 15.323 1.86651 13.4565 12.4759 5.68382 3.6356 6.79209 4.43582 2.35627 2.59825 1.49788 2.13772 1.83757 2.04822 1.60736
internal_count=234 26 208 25 183 170 77 49 93 61 32 36 20 29 25 28 22
is_linear=0
shrinkage=0.05


Tree=14
num_leaves=14
num_cat=0
split_feature=44 47 46 45 48 44 45 3 44 44 44 31 44
split_gain=75.4809 24.9716 9.06576 11.059 0.00221784 0.000136649 0.000101842 5.3587e-05 0.000145005 6.33119e-05 8.64285e-05 2.32591e-06 4.12234e-10
threshold=-0.85651957084949604 1.2898073249805229 0.62832158161253837 -0.80287552798361361 0.57676372894389061 -0.16538933637718142 1.0000000180025095e-35 1.0000000180025095e-35 0.77706098335779361 1.0000000180025095e-35 0.90272102598912363 1.0000000180025095e-35 0.77706098335779361
decision_type=2 2 2 2 2 2 2 2 2 2 2 2 2
left_child=1 4 5 -4 -1 -2 -7 9 -9 -8 11 -11 -13
right_child=2 -3 3 -5 -6 6 7 8 -10 10 -12 12 -14
leaf_value=0.13318797796908657 -0.052470559565455724 -0.014241344273638101 -0.052718966626701808 0.088568464878734571 0.13462719547975568 -0.051952481416672296 -0.052408103386680963 -0.052659113982435495 -0.052090065757973085 -0.052006632974301609 -0.052321727811306118 -0.052059622038208034 -0.052058707634320946
leaf_weight=4.9013494253158552 4.3133783489465705 3.8567652851343146 2.778503030538559 2.7615545094013205 5.8978192806243896 4.5691665112972322 2.3464794158935574 2.176858738064765 2.3048134297132492 3.4402562975883466 3.8889896124601355 3.4512748718261719 1.9172737002372739
leaf_count=19 22 19 14 12 23 24 12 11 12 18 20 18 10
internal_value=0 0.0949706 -0.0408011 0.0177086 0.133974 -0.0522114 -0.052165 -0.0522147 -0.0523665 -0.0521695 -0.0521254 -0.0520387 -0.0520593
internal_weight=0 14.6559 33.9485 5.54006 10.7992 28.4085 24.0951 19.5259 4.48167 15.0443 12.6978 8.8088 5.36855
internal_count=234 61 173 26 42 147 125 101 23 78 66 46 28
is_linear=0
shrinkage=0.05


Tree=15
num_leaves=17
num_cat=0
split_feature=35 22 44 48 48 9 45 44 44 47 44 44 3 4 44 0
split_gain=42.819 36.4371 6.25343 3.16474 9.16108 14.2475 1.80376 0.000178291 5.35002e-05 2.46786e-05 3.50626e-05 1.90435e-05 1.77811e-05 6.86803e-06 2.0646e-06 3.92583e-09
threshold=1.0000000180025095e-35 1.0000000180025095e-35 0.65140076417830439 -0.44306692186205471 -0.90662630859202975 1.0000000180025095e-35 -0.80287552798361361 -1.1078396561121562 -0.73085952821816658 -0.40278193657286659 1.0000000180025095e-35 0.90272102598912363 1.0000000180025095e-35 1.0000000180025095e-35 -1.2334996987434863 1.0000000180025095e-35
decision_type=2 2 2 2 2 2 2 2 2 2 2 2 2 2 2 2
left_child=1 3 -3 4 6 -6 7 12 -9 10 -5 15 -1 14 -11 -12
right_child=-2 2 -4 9 5 -7 -8 8 -10 13 11 -13 -14 -15 -16 -17
leaf_value=-0.050767609785717031 0.14277680110762897 0.035467005647924689 0.14242981302530566 -0.051195648430191532 0.11858366928413736 -0.051297529135429211 0.0022007084532561839 -0.051503138830937205 -0.051184330093845667 -0.050841818841421964 -0.050893262279699571 -0.051050993014570667 -0.050967764353936934 -0.050978434698298741 -0.050903301201886436 -0.050890096848074565
leaf_weight=2.2950553148984909 4.711937189102172 2.251158043742179 3.4769353270530701 2.1813813149929029 2.5675998777151099 2.3766158074140549 1.8590388298034675 1.8529706597328184 4.5404671132564545 3.0156625360250473 1.9592217803001404 3.5986961722373962 2.1482120752334595 1.969742879271507 2.4952763766050365 1.958793118596077
leaf_count=13 19 11 14 12 11 13 10 10 25 17 11 20 12 11 14 11
internal_value=0 -0.0164666 0.100393 -0.0356914 -0.0208156 0.0369241 -0.0433017 -0.0511077 -0.0512767 -0.0509665 -0.0510192 -0.050968 -0.0508644 -0.0508983 -0.0508697 -0.0508917
internal_weight=0 40.5468 5.72809 34.8187 17.64 4.94422 12.6957 10.8367 6.39344 17.1788 9.69809 7.51671 4.44327 7.48068 5.51094 3.91801
internal_count=234 215 25 190 94 24 70 60 35 96 54 42 25 42 31 22
is_linear=0
shrinkage=0.05


Tree=16
num_leaves=17
num_cat=0
split_feature=44 43 3 43 45 44 44 44 9 44 44 47 25 47 44 44
split_gain=50.2338 48.0569 36.6452 0.515001 1.26349 0.0208354 0.00405969 0.000343872 0.000313329 0.000209271 0.00010074 0.000147137 1.37201e-05 1.52173e-05 6.21745e-05 7.62295e-08
threshold=-0.16538933637718142 0.49757196041466434 1.0000000180025095e-35 -0.42481670474064953 1.3607136904283912 1.0000000180025095e-35 0.14876077020114348 1.2797011538831129 1.0000000180025095e-35 -0.60519948558683645 -1.4848197840061459 1.2898073249805229 1.0000000180025095e-35 0.56441192717192723 -0.73085952821816658 -1.2334996987434863
decision_type=2 2 2 2 2 2 2 2 2 2 2 2 2 2 2 2
left_child=8 2 3 5 -5 -2 -7 -3 9 10 -1 12 13 14 -12 -15
right_child=1 7 -4 4 -6 6 -8 -9 -10 -11 11 -13 -14 15 -16 -17
leaf_value=-0.054255793413359094 0.12435972661266706 -0.055315849906436898 -0.055055057147871261 0.080791997263319093 0.11978527301193871 0.11818631315404134 0.12080007837367453 -0.054694008059785838 -0.055132909576902492 -0.055036760011178958 -0.054211792733091381 -0.054913188203424362 -0.054600848020105876 -0.054535665865312222 -0.054583308543941035 -0.054523699872734456
leaf_weight=2.9921077638864579 3.2081953287124687 3.9983184039592725 3.9713178128004065 3.4736768156290072 5.1685610413551331 3.2869250476360321 2.7107928395271301 5.0075443983078003 2.8768105655908576 2.204671934247016 2.1340765357017517 2.6342951804399481 2.8200235813856116 3.4615654349327132 2.3844045400619525 2.1623992770910219
leaf_count=14 12 18 18 13 19 12 10 23 13 10 10 12 13 16 11 10
internal_value=0 0.0422047 0.082313 0.112878 0.104112 0.121107 0.119368 -0.0549701 -0.0546438 -0.0545762 -0.0545215 -0.0545725 -0.0545033 -0.0544762 -0.0544078 -0.0545311
internal_weight=0 30.8253 21.8195 17.8482 8.64224 9.20591 5.99772 9.00586 23.6704 20.7935 18.5889 15.5968 12.9625 10.1424 4.51848 5.62396
internal_count=234 125 84 66 32 34 22 41 109 96 86 72 60 47 21 26
is_linear=0
shrinkage=0.05


Tree=17
num_leaves=18
num_cat=0
split_feature=44 43 44 43 44 44 46 43 44 43 46 17 44 45 4 44 43
split_gain=125.956 0.0267371 5.94691e-05 4.17773e-05 7.87672e-05 0.000180783 4.42822e-05 6.17642e-05 6.08877e-05 1.8385e-05 1.02723e-05 5.27477e-06 1.85874e-05 7.16178e-06 1.0203e-05 3.16032e-06 5.74589e-07
threshold=1.028381068620454 1.5352592087143926 -1.4848197840061459 -1.1166082036071348 -1.1078396561121562 0.65140076417830439 0.62832158161253837 -0.078920955307406782 -0.85651957084949604 0.8434677098479072 1.0000000180025095e-35 1.0000000180025095e-35 1.0000000180025095e-35 0.038520311133808112 1.0000000180025095e-35 1.0000000180025095e-35 0.26697479412583586
decision_type=2 2 2 2 2 2 2 2 2 2 2 2 2 2 2 2 2
left_child=2 -2 -1 4 -4 -6 10 -8 9 -9 11 13 -13 15 -15 16 -5
right_child=1 -3 3 6 5 -7 7 8 -10 -11 -12 12 -14 14 -16 -17 -18
leaf_value=-0.048973432976499406 0.16497400397063139 0.15954677683238494 -0.049075466695831849 -0.049169765727206362 -0.049805622682909723 -0.049157073783282892 -0.049096808877409193 -0.049158354833628209 -0.049624403618843009 -0.049376801864288694 -0.049038593082306764 -0.049353794729596993 -0.049115445093714204 -0.04929124017726301 -0.049117785765166976 -0.049073670132551442 -0.049128523792020984
leaf_weight=2.1314643174409893 4.9819983690977079 4.1677982360124588 1.6914940625429151 1.8618234097957593 2.1286423951387432 2.1698193103075027 2.4658158272504807 1.7050910741090777 1.937487006187437 2.2136754989624023 1.5315544754266746 1.5779490768909463 1.6982891708612442 1.8799149543046951 1.5442367047071457 2.1526673883199692 1.5456627905368805
leaf_count=14 22 18 11 12 13 14 16 11 12 14 10 10 11 12 10 14 10
internal_value=0 0.162502 -0.0492281 -0.0492474 -0.0493645 -0.0494782 -0.0492156 -0.0493067 -0.0493951 -0.0492818 -0.0491607 -0.0491759 -0.0492302 -0.0491561 -0.049213 -0.0491211 -0.0491511
internal_weight=0 9.1498 30.2356 28.1041 5.98996 4.29846 22.1142 8.32207 5.85625 3.91877 13.7921 12.2605 3.27624 8.98431 3.42415 5.56015 3.40749
internal_count=234 40 194 180 38 27 142 53 37 25 89 79 21 58 22 36 22
is_linear=0
shrinkage=0.05


Tree=18
num_leaves=16
num_cat=0
split_feature=44 47 9 44 46 44 44 46 47 25 44 47 44 43 41
split_gain=49.8249 2.87186e-06 2.24635e-06 1.02647e-06 1.16448e-06 5.8697e-07 4.83133e-07 4.02274e-07 2.55093e-07 6.82478e-07 2.37429e-07 1.49722e-07 3.64834e-07 4.27372e-08 3.47275e-08
threshold=-1.4848197840061459 1.2898073249805229 1.0000000180025095e-35 0.46894595558185198 1.0000000180025095e-35 0.90272102598912363 0.14876077020114348 1.0000000180025095e-35 0.56441192717192723 1.0000000180025095e-35 1.2797011538831129 -1.0072781014133625 -1.0000000180025095e-35 1.0000000180025095e-35 1.0000000180025095e-35
decision_type=2 2 2 2 2 2 2 2 2 2 2 2 2 2 2
left_child=-1 2 3 6 5 13 7 11 9 -9 -7 -2 -13 -5 -10
right_child=1 -3 -4 4 -6 10 -8 8 14 -11 -12 12 -14 -15 -16
leaf_value=0.19718536634466746 -0.043736073904584477 -0.043842305358896584 -0.043836760158144167 -0.043710268384700351 -0.043812154685465593 -0.043785459332217717 -0.043687379013091332 -0.043667383919652185 -0.043747563041298072 -0.043742121013099267 -0.043751605861743176 -0.043785574585820816 -0.043738995492625214 -0.043730216729920855 -0.043732067740537686
leaf_weight=2.612447902560235 1.027703005820513 0.96047885715961534 0.73271610960364419 0.53446846827864669 1.0033304020762441 0.88308823853731189 0.5288868099451064 0.57563048228621483 0.54359281063079823 0.65082463994622231 1.2525221258401869 0.77362784370779991 0.92070075869559687 0.53952701389789581 1.0799474753439426
leaf_count=14 19 17 13 10 18 16 10 11 10 12 23 14 17 10 20
internal_value=0 -0.0437594 -0.0437522 -0.0437462 -0.0437651 -0.0437504 -0.043733 -0.0437374 -0.0437243 -0.043707 -0.0437656 -0.0437511 -0.0437603 -0.0437203 -0.0437373
internal_weight=0 12.007 11.0466 10.3139 4.21294 3.20961 6.10091 5.57203 2.85 1.22646 2.13561 2.72203 1.69433 1.074 1.62354
internal_count=234 220 203 190 77 59 113 103 53 23 39 50 31 20 30
is_linear=0
shrinkage=0.05


Tree=19
num_leaves=18
num_cat=0
split_feature=48 48 9 44 44 3 44 44 17 44 44 45 5 48 12 0 4
split_gain=50.8577 3.95514 4.32069e-06 4.41436e-06 1.97813e-05 3.57818e-06 3.79315e-06 1.71507e-06 1.28585e-06 9.72615e-07 5.49138e-07 5.11053e-07 1.18011e-06 3.95151e-07 4.89257e-07 1.41306e-08 9.63334e-09
threshold=-1.1847619406300147 -1.7101292455906534 1.0000000180025095e-35 -0.60519948558683645 -0.16538933637718142 1.0000000180025095e-35 0.77706098335779361 0.90272102598912363 1.0000000180025095e-35 1.0000000180025095e-35 1.2797011538831129 0.038520311133808112 1.0000000180025095e-35 -0.78301047213070307 1.0000000180025095e-35 1.0000000180025095e-35 1.0000000180025095e-35
decision_type=2 2 2 2 2 2 2 2 2 2 2 2 2 2 2 2 2
left_child=1 -1 3 13 -5 7 -7 8 11 -10 -9 12 -6 15 -15 -2 -13
right_child=2 -3 -4 4 5 6 -8 10 9 -11 -12 16 -14 14 -16 -17 -18
leaf_value=0.10286391344152619 -0.044415997695943205 0.20058373837126228 -0.044543493736900128 -0.044698779815479997 -0.04430882677288453 -0.044582367207221626 -0.044419375106977937 -0.044474491046851319 -0.044477774705712833 -0.044396445183849859 -0.044428177941796307 -0.044395797159554426 -0.044396413004214721 -0.044364140879875363 -0.044407276137536721 -0.044406348614269342 -0.044403941389844159
leaf_weight=1.9807008504867551 0.8361777216196058 2.1697799265384701 0.94076088815927583 0.74776580184698005 0.67203687131404344 0.73103456199169137 0.69754738360643387 1.1342873349785807 0.71049572527408578 0.76171675324440002 1.4689268022775648 0.69232579320669174 0.89912515878677368 1.7801192738115796 1.0422696247696877 0.69462266564369202 0.76352523267269135
leaf_count=15 12 11 13 10 10 10 10 16 10 11 21 10 13 26 15 10 11
internal_value=0 0.15395 -0.0444399 -0.0444327 -0.0444522 -0.0444306 -0.0445028 -0.0444161 -0.0443974 -0.0444357 -0.0444484 -0.0443787 -0.0443589 -0.0443912 -0.0443801 -0.0444116 -0.0444001
internal_weight=0 4.15048 14.5727 13.632 9.27879 8.53102 1.42858 7.10244 4.49923 1.47221 2.60321 3.02701 1.57116 4.35319 2.82239 1.5308 1.45585
internal_count=234 26 208 195 132 122 20 102 65 21 37 44 23 63 41 22 21
is_linear=0
shrinkage=0.05


Tree=20
num_leaves=18
num_cat=0
split_feature=44 47 44 46 44 43 3 44 43 43 0 2 16 40 43 4 43
split_gain=65.9822 24.7967 7.23726 1.3291 0.064988 0.00315764 0.000146945 0.000279172 5.99546e-05 4.70947e-05 6.77736e-05 2.02551e-05 1.78726e-05 2.1513e-05 4.47985e-05 1.47556e-05 6.72658e-06
threshold=-0.73085952821816658 2.1361019557572178 -0.98217961348082616 0.62832158161253837 -1.2334996987434863 0.8434677098479072 1.0000000180025095e-35 0.77706098335779361 -0.54011528788506369 -0.19421953845182102 1.0000000180025095e-35 1.0000000180025095e-35 1.0000000180025095e-35 1.0000000180025095e-35 1.765856375003221 1.0000000180025095e-35 -0.42481670474064953
decision_type=2 2 2 2 2 2 2 2 2 2 2 2 2 2 2 2 2
left_child=1 2 4 6 5 -1 8 -8 11 16 15 -2 -12 14 -14 -11 -10
right_child=3 -3 -4 -5 -6 -7 7 -9 9 10 12 -13 13 -15 -16 -17 -18
leaf_value=0.12009346524718685 -0.051098600211510331 -0.040104661042206002 0.045521356414355563 -0.012796922777030357 0.12761895606575852 0.11809492692415367 -0.052095372841470367 -0.051289516003807184 -0.051489978585988042 -0.051091172670026663 -0.051340002100125876 -0.051314778252982023 -0.051730716767400188 -0.051359517667884796 -0.051391742822796807 -0.051283364467832417 -0.05161824326653458
leaf_weight=4.0768729448318481 2.344092860817919 3.9694000184535971 4.3669176995754251 2.4351856410503379 3.1473023593425751 3.8360966444015503 2.1062055230140677 2.1944989562034607 2.0375555604696274 1.9838678240775967 3.302325114607811 2.014986976981163 1.879075735807419 2.2047578990459442 2.0251930803060532 2.0110390186309814 2.0511399060487845
leaf_count=15 13 20 19 12 12 14 11 12 11 11 18 11 10 12 11 11 11
internal_value=0 0.0713466 0.100023 -0.0481275 0.121542 0.119125 -0.051417 -0.0516842 -0.0513644 -0.0514058 -0.0513605 -0.0511985 -0.0514337 -0.0514844 -0.0515549 -0.0511879 -0.0515543
internal_weight=0 19.3966 15.4272 28.5899 11.0603 7.91297 26.1547 4.3007 21.854 17.495 13.4063 4.35908 9.41135 6.10903 3.90427 3.99491 4.0887
internal_count=234 80 60 154 41 29 142 23 119 95 73 24 51 33 21 22 22
is_linear=0
shrinkage=0.05


Tree=21
num_leaves=16
num_cat=0
split_feature=35 22 48 48 9 43 43 44 47 44 44 44 3 44 43
split_gain=35.6145 31.7762 3.07281 8.40019 12.1439 0.628595 0.00310505 0.000327367 0.000181652 2.67057e-05 4.0919e-05 2.14804e-05 2.0105e-05 2.38968e-06 7.61124e-06
threshold=1.0000000180025095e-35 1.0000000180025095e-35 -0.44306692186205471 -0.90662630859202975 1.0000000180025095e-35 -1.0000000180025095e-35 -1.3472053698959632 -1.1078396561121562 1.2898073249805229 -1.2334996987434863 1.0000000180025095e-35 0.90272102598912363 1.0000000180025095e-35 0.65140076417830439 -0.42481670474064953
decision_type=2 2 2 2 2 2 2 2 2 2 2 2 2 2 2
left_child=1 2 3 5 -5 7 -3 12 -9 -4 -11 13 -1 14 -12
right_child=-2 6 9 4 -6 -7 -8 8 -10 10 11 -13 -14 -15 -16
leaf_value=-0.050079706481261255 0.12495574797074056 0.088541343240442286 -0.050163145622694021 0.10545318076071641 -0.050722276095124953 -0.026447963915637973 0.090822298301906967 -0.050471164542448654 -0.051154466687005101 -0.050502480879644499 -0.050202556331415009 -0.050390092146102329 -0.050297907576924331 -0.050201202795713967 -0.050332027035189519
leaf_weight=2.1799448728561401 5.067509412765502 2.6964603215456009 2.8674065023660669 2.7358376532793036 2.2837811708450317 4.0873007625341424 3.3402834832668296 1.9004490077495577 1.9922969192266462 2.7702668607234964 2.5401437282562238 3.4330525696277618 2.0469493120908737 2.7092037945985794 2.0522748380899429
leaf_count=13 19 11 17 11 13 23 14 11 11 16 15 20 12 16 12
internal_value=0 -0.0158149 -0.0347915 -0.0200503 0.0343979 -0.0424399 0.0898035 -0.05049 -0.0508209 -0.0503017 -0.0503312 -0.0502869 -0.0501854 -0.0502384 -0.0502604
internal_weight=0 39.6357 33.5989 17.2266 5.01962 12.2069 6.03674 8.11964 3.89275 16.3723 13.5049 10.7347 4.22689 7.30162 4.59242
internal_count=234 215 190 94 24 70 25 47 22 96 79 63 25 43 27
is_linear=0
shrinkage=0.05


Tree=22
num_leaves=16
num_cat=0
split_feature=44 43 46 44 44 17 45 46 43 12 44 43 44 41 43
split_gain=45.3522 41.5256 28.9015 0.136471 0.0123215 0.00300173 0.00506083 0.000530706 0.000466596 0.000390171 0.000294204 8.87853e-05 4.66297e-05 1.21402e-05 1.18184e-05
threshold=-0.16538933637718142 0.49757196041466434 -1.0000000180025095e-35 0.77706098335779361 1.0000000180025095e-35 1.0000000180025095e-35 0.038520311133808112 1.19185220876623 0.15167621098142162 1.0000000180025095e-35 1.2797011538831129 -1.231906786751549 -0.73085952821816658 1.0000000180025095e-35 0.8434677098479072
decision_type=2 2 2 2 2 2 2 2 2 2 2 2 2 2 2
left_child=7 2 3 4 -2 6 -6 8 9 -1 -3 -9 -10 -13 -15
right_child=1 10 -4 -5 5 -7 -8 11 12 -11 -12 13 -14 14 -16
leaf_value=-0.05445022755430598 0.11113460920083185 -0.054249020618350886 -0.028191199652983084 0.097259811557816017 0.10925336847909822 0.10636931463392214 0.10656605137992899 -0.053095146413349482 -0.053386014178882335 -0.053693485222559324 -0.053661086814956238 -0.053550506518759269 -0.053669742523496204 -0.053332090857395868 -0.053481222714733073
leaf_weight=4.0922116637229919 3.3747144937515321 3.8287527263164503 5.1957260519266155 3.3472155928611746 4.5286672711372358 3.1452268362045288 2.8573517799377441 2.2287662029266357 2.8775590658187866 2.9178405851125717 4.7895972728729248 2.2792475074529648 2.9150679558515549 2.4577098041772842 2.8914304971694946
leaf_count=19 12 18 23 12 16 11 10 11 14 14 23 11 14 12 14
internal_value=0 0.0393735 0.0751907 0.106324 0.108505 0.107663 0.108214 -0.0536485 -0.0538609 -0.0541352 -0.0539223 -0.0533728 -0.0535288 -0.0534539 -0.0534127
internal_weight=0 31.0673 22.4489 17.2532 13.906 10.5312 7.38602 22.6598 12.8027 7.01005 8.61835 9.85715 5.79263 7.62839 5.34914
internal_count=234 125 84 61 49 37 26 109 61 33 41 48 28 37 26
is_linear=0
shrinkage=0.05


Tree=23
num_leaves=16
num_cat=0
split_feature=46 43 43 13 46 47 9 3 25 47 45 47 43 43 43
split_gain=93.1061 1.06404 0.289086 0.000587229 9.17472e-05 0.000112464 6.74086e-05 6.0755e-05 1.85846e-05 1.13846e-05 1.38987e-05 1.00513e-05 1.08107e-05 8.96394e-06 2.97111e-08
threshold=-1.0622702998485356 0.8434677098479072 1.1893634592811499 1.0000000180025095e-35 1.19185220876623 1.2898073249805229 1.0000000180025095e-35 1.0000000180025095e-35 1.0000000180025095e-35 -0.40278193657286659 -0.32207792389205697 -1.0072781014133625 -0.54011528788506369 -0.078920955307406782 0.26697479412583586
decision_type=2 2 2 2 2 2 2 2 2 2 2 2 2 2 2
left_child=2 4 -1 -4 5 6 7 9 -6 11 -11 14 -13 -12 -2
right_child=1 -3 3 -5 8 -7 -8 -9 -10 10 13 12 -14 -15 -16
leaf_value=0.11652603227580632 -0.048613129584384032 -0.017888931386887946 0.13710539351042181 0.13621016076979856 -0.048450151903737804 -0.04909575214889797 -0.049001306055030565 -0.048908931228954788 -0.048649036893787939 -0.04871584650139902 -0.048457555712658917 -0.048650656014366772 -0.048795430828948924 -0.048611907787664659 -0.048622753076543818
leaf_weight=2.3008452504873258 1.7634894251823514 3.1385076195001593 4.5693842470645905 3.0574807524681091 3.0313797742128363 2.3089488595724097 1.982044756412505 2.7178680896759024 1.9176398962736128 1.632219538092613 1.7330459058284762 2.3602297753095711 2.8422589451074516 2.0571452379226747 1.4710830301046371
leaf_count=10 12 20 18 12 21 15 13 18 13 11 12 16 19 14 10
internal_value=0 -0.0453789 0.13206 0.136747 -0.0487208 -0.0487667 -0.0487257 -0.0486928 -0.0485272 -0.0486504 -0.0485939 -0.0486867 -0.0487298 -0.0485413 -0.0486175
internal_weight=0 28.9559 9.92771 7.62686 25.8174 20.8683 18.5594 16.5773 4.94902 13.8595 5.42241 8.43706 5.20249 3.79019 3.23457
internal_count=234 194 40 30 174 140 125 112 34 94 37 57 35 26 22
is_linear=0
shrinkage=0.05


Tree=24
num_leaves=15
num_cat=0
split_feature=44 47 9 44 46 44 43 41 47 43 43 25 44 38
split_gain=40.5348 5.25223e-06 4.57147e-06 1.77648e-06 2.49118e-06 2.0597e-06 1.29594e-06 3.9092e-07 2.08798e-07 1.7098e-07 2.77932e-07 1.54834e-07 2.76262e-07 9.16557e-07
threshold=-1.4848197840061459 1.2898073249805229 1.0000000180025095e-35 -0.60519948558683645 1.0000000180025095e-35 0.65140076417830439 -0.54011528788506369 1.0000000180025095e-35 -0.40278193657286659 1.1893634592811499 -0.30951812159623526 1.0000000180025095e-35 -0.73085952821816658 1.0000000180025095e-35
decision_type=2 2 2 2 2 2 2 2 2 2 2 2 2 2
left_child=-1 2 3 11 6 -6 -5 8 9 10 -8 12 13 -2
right_child=1 -3 -4 4 5 -7 7 -9 -10 -11 -12 -13 -14 -15
leaf_value=0.16317435191975777 -0.043522550489420227 -0.043762654106128077 -0.043761106037085801 -0.043582612988112716 -0.043763159028457059 -0.043643279247395028 -0.043635201069658153 -0.043670817887614871 -0.043614059562434471 -0.043623722967547102 -0.043681125542361462 -0.043619209170180424 -0.043612458518915716 -0.043607253916567418
leaf_weight=2.9893155694007882 0.48963227868080184 0.92686389759183008 0.70872019231319505 1.2080726586282216 0.7070735879242418 0.72640488669276237 0.87854127958416639 0.89213276654481877 0.97246541827917532 0.82268699258565892 0.52711717784404766 0.66704799607396115 0.97176749259233219 0.91844920068979263
leaf_count=14 10 17 13 24 13 14 17 17 19 16 10 13 19 18
internal_value=0 -0.0436486 -0.0436385 -0.0436296 -0.0436439 -0.0437024 -0.0436281 -0.0436415 -0.0436334 -0.0436418 -0.0436524 -0.0435979 -0.043592 -0.0435778
internal_weight=0 11.417 10.4901 9.78139 6.73449 1.43348 5.30102 4.09294 3.20081 2.22835 1.40566 3.0469 2.37985 1.40808
internal_count=234 220 203 190 130 27 103 79 62 43 27 60 47 28
is_linear=0
shrinkage=0.05


Tree=25
num_leaves=18
num_cat=0
split_feature=48 47 9 44 44 3 44 43 2 41 43 48 44 45 5 43 48
split_gain=42.4349 2.8455 9.0969e-06 7.87512e-06 2.4807e-05 5.18797e-06 4.06247e-06 3.06826e-06 1.34458e-06 9.79767e-07 1.41607e-06 8.03771e-07 9.30413e-07 1.6365e-06 7.48582e-07 3.1672e-07 1.18149e-07
threshold=-1.1847619406300147 2.1361019557572178 1.0000000180025095e-35 -0.60519948558683645 -0.16538933637718142 1.0000000180025095e-35 0.77706098335779361 -0.54011528788506369 1.0000000180025095e-35 1.0000000180025095e-35 -0.19421953845182102 -0.90662630859202975 -0.73085952821816658 -0.6345963665515687 1.0000000180025095e-35 -0.42481670474064953 1.0000000180025095e-35
decision_type=2 2 2 2 2 2 2 2 2 2 2 2 2 2 2 2 2
left_child=1 -1 3 11 -5 7 -7 8 -6 10 15 -2 13 -13 16 -9 -12
right_child=2 -3 -4 4 5 6 -8 9 -10 -11 14 12 -14 -15 -16 -17 -18
leaf_value=0.1673002626813965 -0.044250942236676007 0.088757549650644835 -0.044439546904921759 -0.044583392184638193 -0.044149773538654229 -0.044450333768771194 -0.044277920416025122 -0.044283763843646726 -0.044244918023498343 -0.044318383807656611 -0.044269837759649357 -0.04411925885653286 -0.044252254912380364 -0.044215969028659159 -0.044201507537452112 -0.044332313648521977 -0.044244732672533149
leaf_weight=2.4640222191810635 1.319753900170326 2.1675667092204094 0.90986274927854616 0.72220077365636726 0.76199302449822137 0.70160654932260491 0.66594415903091431 0.66714240610599518 0.72428496181964874 1.1461481302976606 1.3277770206332213 0.62966993451118503 0.72612281143665436 1.4327945597469804 0.71304362267255772 0.67661710083484361 0.72429370880126942
leaf_count=11 20 15 13 10 12 10 10 10 11 17 20 10 11 22 11 10 11
internal_value=0 0.130543 -0.0442867 -0.044276 -0.0443026 -0.0442776 -0.0443664 -0.0442596 -0.0441961 -0.0442775 -0.0442661 -0.0442188 -0.0442036 -0.0441864 -0.0442456 -0.0443082 -0.044261
internal_weight=0 4.63159 13.8493 12.9394 8.83105 8.10885 1.36755 6.7413 1.48628 5.25502 4.10887 4.10834 2.78859 2.06246 2.76511 1.34376 2.05207
internal_count=234 26 208 195 132 122 20 102 23 79 62 63 43 32 42 20 31
is_linear=0
shrinkage=0.05


Tree=26
num_leaves=17
num_cat=0
split_feature=44 47 44 46 44 44 3 44 47 47 44 44 44 40 4 5
split_gain=58.7275 21.0206 5.97113 1.29657 0.0468018 0.00071621 0.000216569 0.000309431 0.000167606 0.000100529 3.20614e-05 1.73899e-05 2.91044e-05 2.09024e-05 5.7492e-06 5.19746e-06
threshold=-0.73085952821816658 2.1361019557572178 -0.98217961348082616 0.62832158161253837 -1.2334996987434863 -1.4219896593812071 1.0000000180025095e-35 0.77706098335779361 -1.0000000180025095e-35 -0.40278193657286659 0.77706098335779361 1.0000000180025095e-35 0.46894595558185198 1.0000000180025095e-35 1.0000000180025095e-35 1.0000000180025095e-35
decision_type=2 2 2 2 2 2 2 2 2 2 2 2 2 2 2 2
left_child=1 2 4 6 5 -1 8 -8 9 11 -11 13 15 -2 -14 -13
right_child=3 -3 -4 -5 -6 -7 7 -9 -10 10 -12 12 14 -15 -16 -17
leaf_value=0.10828910863230029 -0.050851934567288141 -0.039220023747764392 0.041788312292178428 -0.012298378481875967 0.11485262115801052 0.1073566224031885 -0.051494135776623651 -0.050628071908784655 -0.051118646603703168 -0.050262421096809319 -0.050549608385443527 -0.050487127523909485 -0.050752255862057186 -0.050637664487482185 -0.050656906390173555 -0.050600321002388184
leaf_weight=3.9739730954170254 2.4862660467624762 3.8558046966791144 4.4756611138582238 2.4072775095701209 3.2987323105335244 4.273655652999877 2.0293063521385184 2.0971872806549072 1.7998696565628076 2.204274669289588 1.7381657361984255 2.4222532212734205 3.1710236072540283 2.0991558730602264 3.1527195423841476 1.7444719970226286
leaf_count=14 14 20 19 12 12 15 11 12 10 13 10 14 18 12 18 10
internal_value=0 0.0655915 0.0908151 -0.0473413 0.109819 0.107806 -0.0507231 -0.051054 -0.0506575 -0.0506138 -0.050389 -0.0506726 -0.0506371 -0.0507538 -0.0507047 -0.0505345
internal_weight=0 19.8778 16.022 27.352 11.5464 8.24763 24.9447 4.12649 20.8182 19.0183 3.94244 15.0759 10.4905 4.58542 6.32374 4.16673
internal_count=234 80 60 154 41 29 142 23 119 109 23 86 60 26 36 24
is_linear=0
shrinkage=0.05


Tree=27
num_leaves=16
num_cat=0
split_feature=35 22 48 48 9 45 43 41 47 0 47 13 41 43 43
split_gain=30.3506 28.1224 2.96069 7.65923 10.5214 1.77915 0.00303458 0.000270812 0.000258652 0.000115902 4.74975e-05 2.81888e-05 2.99986e-05 1.68225e-05 1.88181e-05
threshold=1.0000000180025095e-35 1.0000000180025095e-35 -0.44306692186205471 -0.90662630859202975 1.0000000180025095e-35 -0.80287552798361361 -1.3472053698959632 1.0000000180025095e-35 1.2898073249805229 1.0000000180025095e-35 1.0480088590443242 1.0000000180025095e-35 1.0000000180025095e-35 -0.19421953845182102 -0.54011528788506369
decision_type=2 2 2 2 2 2 2 2 2 2 2 2 2 2 2
left_child=1 2 3 5 -5 7 -3 8 9 -1 11 12 -4 14 -13
right_child=-2 6 10 4 -6 -7 -8 -9 -10 -11 -12 13 -14 -15 -16
leaf_value=-0.049702859588546699 0.11212419700887805 0.080331643368673072 -0.050003581666641199 0.094773396152278866 -0.050286992110864626 0.0039444269196803111 0.08254097911347294 -0.049501589167995408 -0.05063033331357121 -0.050156537894204295 -0.049515565086964419 -0.049632748581255097 -0.049724341692739885 -0.049582535619901565 -0.049817463840105575
leaf_weight=2.7648200243711472 5.3238048851490012 2.8076343983411789 1.6629113554954504 2.8794150650501242 2.2090021073818207 1.8106961399316794 3.4814736396074286 2.557018369436264 1.7463271021842954 2.8681932240724564 3.1974759846925727 2.5866327732801384 2.2812225371599197 2.8978895694017464 2.9528822302818298
leaf_count=17 19 11 10 11 13 10 14 16 10 17 20 16 14 18 18
internal_value=0 -0.0152052 -0.0339787 -0.0194424 0.0317993 -0.0416385 0.0815547 -0.049945 -0.0500987 -0.0499339 -0.0496874 -0.0497317 -0.0498421 -0.0496801 -0.0497312
internal_weight=0 38.7036 32.4145 16.8355 5.08842 11.7471 6.28911 9.93636 7.37934 5.63301 15.579 12.3815 3.94413 8.4374 5.53952
internal_count=234 215 190 94 24 70 25 60 44 34 96 76 24 52 34
is_linear=0
shrinkage=0.05


Tree=28
num_leaves=15
num_cat=0
split_feature=44 43 3 44 2 31 43 44 43 45 44 43 44 45
split_gain=41.0052 36.2522 27.0532 0.353215 0.13614 0.0130371 0.00644195 0.000893473 0.00078288 0.000787117 0.000372366 0.000117328 7.6138e-05 2.62105e-05
threshold=-0.16538933637718142 0.49757196041466434 1.0000000180025095e-35 1.0000000180025095e-35 1.0000000180025095e-35 1.0000000180025095e-35 -0.19421953845182102 -1.1078396561121562 0.15167621098142162 -1.0432743300293918 1.2797011538831129 -1.231906786751549 -0.73085952821816658 -0.6345963665515687
decision_type=2 2 2 2 2 2 2 2 2 2 2 2 2 2
left_child=7 2 3 -2 5 -5 -7 11 9 -9 -3 -1 -10 -13
right_child=1 10 -4 4 -6 6 -8 8 12 -11 -12 13 -14 -15
leaf_value=-0.052058758775544979 0.080105175810017248 -0.053385214006363091 -0.053684821257908903 0.10211007065850247 0.088082964084610124 0.10012867664272024 0.097287011935330625 -0.052641790928315536 -0.052411886149954727 -0.053814013036148467 -0.052709302862512457 -0.052579501339643966 -0.052783131834775336 -0.052393941655586307
leaf_weight=2.1072902530431747 4.0063023567199805 3.6773844361305219 3.7424015253782263 3.1844410002231571 3.4549055248498908 3.2017487883567846 5.2888930141925776 2.1770644187927246 2.7358442544937134 4.1847484558820707 4.5697984546422958 3.5525967329740524 2.7889824211597443 4.0985288918018359
leaf_count=11 14 18 18 11 12 11 18 11 14 20 23 18 14 21
internal_value=0 0.0368644 0.069262 0.0933062 0.0968017 0.0993818 0.0983586 -0.0527437 -0.0530347 -0.0534129 -0.0530107 -0.0523891 -0.0525993 -0.0524801
internal_weight=0 31.1259 22.8787 19.1363 15.13 11.6751 8.49064 21.6451 11.8866 6.36181 8.24718 9.75842 5.52483 7.65113
internal_count=234 125 84 66 52 40 29 109 59 31 41 50 28 39
is_linear=0
shrinkage=0.05


Tree=29
num_leaves=16
num_cat=0
split_feature=44 43 44 47 47 44 44 43 44 43 47 47 43 31 43
split_gain=91.8313 0.0465562 9.61945e-05 0.000172195 7.278e-05 9.01077e-05 0.000240527 0.000175712 7.95443e-05 4.32675e-05 1.17726e-05 1.09865e-05 9.87939e-06 6.43424e-06 3.4081e-10
threshold=1.028381068620454 1.5352592087143926 -1.4848197840061459 1.2898073249805229 -0.40278193657286659 0.65140076417830439 0.2744208128324736 -0.078920955307406782 -0.85651957084949604 0.8434677098479072 0.56441192717192723 -1.0072781014133625 -0.54011528788506369 1.0000000180025095e-35 0.26697479412583586
decision_type=2 2 2 2 2 2 2 2 2 2 2 2 2 2 2
left_child=2 -2 -1 4 11 6 7 10 9 -9 -6 14 -13 -7 -4
right_child=1 -3 3 -5 5 13 -8 8 -10 -11 -12 12 -14 -15 -16
leaf_value=-0.047983060292888048 0.12737604744996595 0.12075004233627258 -0.048113975244106412 -0.048769740902046034 -0.048052238930812487 -0.048242059830386173 -0.049034611592015553 -0.048211559016919182 -0.048818509363615821 -0.048561858820421182 -0.048221460305911415 -0.04815638228090164 -0.048298465137631461 -0.048118166276726042 -0.0481129159886797
leaf_weight=1.9167235866189027 5.8019215464591962 4.8814926743507385 1.67072494328022 2.2335406690835944 2.6232428103685406 1.977707803249358 1.510840222239495 1.5483754724264169 1.7954225391149434 2.0466973781585693 1.6898834109306333 2.2384257316589355 2.6982034593820634 2.2291074097156525 1.3920839428901672
leaf_count=14 22 18 12 15 19 14 10 11 12 14 12 16 19 16 10
internal_value=0 0.124348 -0.0483247 -0.0483503 -0.0483103 -0.0483737 -0.0484478 -0.0483564 -0.0485467 -0.048411 -0.0481185 -0.0481879 -0.048234 -0.0481764 -0.0481135
internal_weight=0 10.6834 27.571 25.6543 23.4207 15.4213 11.2145 9.70362 5.3905 3.59507 4.31313 7.99944 4.93663 4.20682 3.06281
internal_count=234 40 194 180 165 108 78 68 37 25 31 57 35 30 22
is_linear=0
shrinkage=0.05


Tree=30
num_leaves=17
num_cat=0
split_feature=47 44 9 47 45 43 47 48 47 47 44 16 13 44 43 41
split_gain=34.3561 0.00189721 6.1744e-06 7.09069e-06 2.48362e-06 3.36452e-06 9.23776e-07 8.31524e-07 1.9567e-06 6.34757e-07 5.03436e-07 4.24882e-07 2.13792e-07 1.90659e-07 1.62693e-07 1.55057e-10
threshold=2.4987996546615152 -1.4219896593812071 1.0000000180025095e-35 1.2898073249805229 -0.6345963665515687 -0.88601103731830644 -0.40278193657286659 0.57676372894389061 -0.40278193657286659 -0.40278193657286659 1.0000000180025095e-35 1.0000000180025095e-35 1.0000000180025095e-35 -0.60519948558683645 1.0000000180025095e-35 1.0000000180025095e-35
decision_type=2 2 2 2 2 2 2 2 2 2 2 2 2 2 2 2
left_child=1 -1 3 4 6 -6 13 8 10 -9 -7 -12 -8 -3 -11 -16
right_child=-2 2 -4 -5 5 7 12 9 -10 14 11 -13 -14 -15 15 -17
leaf_value=-0.046027206088453988 0.14052950764492272 -0.043483684495041926 -0.043687189307912822 -0.043686540142795736 -0.043622897225669678 -0.043561167903427539 -0.043465592107312143 -0.043536402754000149 -0.043622850861213529 -0.04345716225019406 -0.043475223803516344 -0.043527691885923425 -0.043421039646121387 -0.043517244612022415 -0.043491209443468758 -0.043492477101761788
leaf_weight=0.83198472857475181 3.2999539449810991 0.72036002576351155 0.68476884067058641 0.68447887152433473 0.97292508184909365 0.49919011443853056 0.5709720812737904 0.73871553689241443 0.56120933592320144 0.52060788124799706 0.71738717332482316 0.83490607887506485 0.50959251821041107 1.0259299017488959 0.48230216652154922 0.4826074130833149
leaf_count=14 17 15 13 13 19 10 12 15 11 11 15 17 11 21 10 10
internal_value=0 -0.043733 -0.0435423 -0.0435316 -0.0435194 -0.0435381 -0.0434809 -0.043521 -0.0435401 -0.0434985 -0.0435175 -0.0435034 -0.0434446 -0.0435034 -0.0434797 -0.0434918
internal_weight=0 10.8379 10.006 9.32118 8.63671 5.80985 2.82685 4.83693 2.61269 2.22423 2.05148 1.55229 1.08056 1.74629 1.48552 0.96491
internal_count=234 217 203 190 177 118 59 99 53 46 42 32 23 36 31 20
is_linear=0
shrinkage=0.05


Tree=31
num_leaves=16
num_cat=0
split_feature=48 47 9 44 44 46 44 44 44 31 48 44 45 44 44
split_gain=36.2248 2.22641 1.49613e-05 1.02682e-05 2.9302e-05 7.35661e-06 3.35401e-06 2.51406e-06 3.35445e-06 1.41995e-06 1.3177e-06 1.40744e-06 2.36522e-06 9.63354e-07 3.66192e-08
threshold=-1.1847619406300147 2.1361019557572178 1.0000000180025095e-35 -0.60519948558683645 -0.16538933637718142 1.0000000180025095e-35 0.65140076417830439 0.90272102598912363 -1.0000000180025095e-35 1.0000000180025095e-35 -0.90662630859202975 -0.73085952821816658 -0.6345963665515687 1.2797011538831129 0.46894595558185198
decision_type=2 2 2 2 2 2 2 2 2 2 2 2 2 2 2
left_child=1 -1 3 10 -5 7 -7 8 -6 -10 -2 12 -12 -9 -11
right_child=2 -3 -4 4 5 6 -8 13 9 14 11 -13 -14 -15 -16
leaf_value=0.14449647759903084 -0.044099674054664029 0.077821928186552106 -0.044338300029047498 -0.044466628379082052 -0.044169448534474368 -0.044309544722282948 -0.044161405812102449 -0.044179027009976911 -0.044008740725013915 -0.044090143819426331 -0.043931646404433256 -0.044098755382888884 -0.044051911943450615 -0.044115701513248715 -0.044075013470907073
leaf_weight=2.7011287361383465 1.2510068416595461 2.3338851854205132 0.87903635948896486 0.69560004025697608 0.76971565186977287 0.6664871349930761 0.8954327255487442 1.026743568480015 1.1454863026738136 0.62329235300421726 0.58639644831419024 0.68779927864670831 1.3499830365180967 1.4469423629343507 1.1157696098089216
leaf_count=11 20 15 13 10 12 10 14 16 19 10 10 11 22 23 18
internal_value=0 0.113591 -0.044139 -0.0441248 -0.0441559 -0.0441278 -0.0442246 -0.0441031 -0.0440767 -0.044052 -0.0440574 -0.0440373 -0.0440155 -0.044142 -0.0440804
internal_weight=0 5.03501 13.1397 12.2607 8.38547 7.68987 1.56192 6.12795 3.65426 2.88455 3.87519 2.62418 1.93638 2.47369 1.73906
internal_count=234 26 208 195 132 122 24 98 59 47 63 43 32 39 28
is_linear=0
shrinkage=0.05


Tree=32
num_leaves=16
num_cat=0
split_feature=46 48 1 47 43 48 47 12 3 43 43 41 47 4 46
split_gain=47.6892 19.9036 2.8994 2.09306 1.38701 0.483333 0.21071 0.000480075 0.000371239 0.000139864 7.81627e-05 5.15045e-05 4.96924e-05 1.92585e-05 1.87947e-05
threshold=0.62832158161253837 -1.1847619406300147 1.0000000180025095e-35 0.56441192717192723 0.8434677098479072 -0.78301047213070307 2.1361019557572178 1.0000000180025095e-35 1.0000000180025095e-35 -0.54011528788506369 0.26697479412583586 1.0000000180025095e-35 -0.40278193657286659 1.0000000180025095e-35 -1.0622702998485356
decision_type=2 2 2 2 2 2 2 2 2 2 2 2 2 2 2
left_child=3 6 4 7 -3 -4 -2 8 9 -1 -9 12 14 -14 -11
right_child=1 2 5 -5 -6 -7 -8 10 -10 11 -12 -13 13 -15 -16
leaf_value=-0.049626477543235625 -0.051859030608190464 0.032737421127527221 0.086345414006416391 0.0077544511352540023 0.075284035971185839 0.10997999612416215 -0.02972820571993422 -0.050438619922325449 -0.050502251510914919 -0.049950871125522371 -0.050877227392253303 -0.050189181366133387 -0.049693995195626631 -0.049925918726350257 -0.050123172733038485
leaf_weight=3.0606581121683183 2.0518208444118526 3.1869244277477273 3.7790915071964264 1.6724622398614872 4.8015782982110977 5.0589175224304199 2.2604758739471436 2.3979469090700141 3.4521948099136344 3.3186553120613138 1.762209430336952 2.872091829776763 1.9481598883867237 1.6559354811906815 3.0256476998329167
leaf_count=19 11 14 13 9 17 18 12 14 20 20 10 17 12 10 18
internal_value=0 0.05558 0.0801414 -0.0462898 0.0583105 0.099874 -0.0402582 -0.0501372 -0.0500323 -0.0499302 -0.0506244 -0.0500027 -0.0499488 -0.0498006 -0.050033
internal_weight=0 21.1388 16.8265 25.166 7.9885 8.83801 4.3123 23.4935 19.3333 15.8811 4.16016 12.8205 9.9484 3.6041 6.3443
internal_count=234 85 62 149 31 31 23 140 116 96 24 77 60 22 38
is_linear=0
shrinkage=0.05


Tree=33
num_leaves=18
num_cat=0
split_feature=35 22 48 48 9 45 43 44 44 45 44 13 43 43 5 43 1
split_gain=26.1856 24.7892 2.86557 7.01175 9.27473 1.73217 0.00217069 0.000358987 0.000318387 6.2729e-05 5.82692e-05 3.02728e-05 2.60212e-05 2.08228e-05 1.8976e-05 8.57243e-06 5.12737e-07
threshold=1.0000000180025095e-35 1.0000000180025095e-35 -0.44306692186205471 -0.90662630859202975 1.0000000180025095e-35 -0.80287552798361361 -1.3472053698959632 -1.1078396561121562 -0.73085952821816658 0.87991608633683449 1.0000000180025095e-35 1.0000000180025095e-35 1.0740648761367357 -1.1166082036071348 1.0000000180025095e-35 0.8434677098479072 1.0000000180025095e-35
decision_type=2 2 2 2 2 2 2 2 2 2 2 2 2 2 2 2 2
left_child=1 2 3 5 -5 7 -3 13 -9 10 -4 -12 -10 -1 15 -11 -13
right_child=-2 6 9 4 -6 -7 -8 8 12 14 11 16 -14 -15 -16 -17 -18
leaf_value=-0.04888121265501414 0.10209357052045376 0.073076370391779541 -0.04942155274742218 0.086583063231271407 -0.04987482515700524 0.0040588255868476905 0.074913004783590462 -0.0502063065385863 -0.049239896498236735 -0.048872304468470192 -0.049234623103876704 -0.048996870361634491 -0.049498710471023229 -0.049115062626025371 -0.049144569960361782 -0.049007433427882191 -0.049036867858260787
leaf_weight=1.8108638525009157 5.5063626468181601 2.9019791334867477 2.2171665281057376 2.9890548586845389 2.134377509355545 1.8059606701135642 3.6100904345512381 1.6900797635316847 1.7160604745149615 2.2571533173322669 3.1206560879945755 1.679340660572052 2.2373194992542267 2.0069209635257721 1.544494494795799 2.445048987865448 1.5323919504880905
leaf_count=12 19 11 14 11 13 10 14 10 11 15 20 11 14 13 10 16 10
internal_value=0 -0.0146339 -0.0331611 -0.0187609 0.0297359 -0.0408134 0.0740945 -0.0493786 -0.0496319 -0.049113 -0.049201 -0.0491237 -0.0493864 -0.0490041 -0.0489925 -0.0489426 -0.049016
internal_weight=0 37.699 31.1869 16.3906 5.12343 11.2672 6.51207 9.46124 5.64346 14.7963 8.54956 6.33239 3.95338 3.81778 6.2467 4.7022 3.21173
internal_count=234 215 190 94 24 70 25 60 35 96 55 41 25 25 41 31 21
is_linear=0
shrinkage=0.05


Tree=34
num_leaves=15
num_cat=0
split_feature=44 43 3 43 45 48 44 44 12 43 44 43 35 45
split_gain=37.2316 31.8108 23.5261 0.34701 0.769308 0.00914858 0.00942342 0.00123425 0.00118973 0.000915505 0.000339511 0.000132495 0.000102635 4.23422e-05
threshold=-0.16538933637718142 0.49757196041466434 1.0000000180025095e-35 -0.42481670474064953 1.3607136904283912 0.57676372894389061 1.0000000180025095e-35 -1.1078396561121562 1.0000000180025095e-35 0.15167621098142162 1.2797011538831129 -1.231906786751549 1.0000000180025095e-35 -0.6345963665515687
decision_type=2 2 2 2 2 2 2 2 2 2 2 2 2 2
left_child=7 2 3 5 -5 6 -2 11 9 -9 -3 -1 -10 -13
right_child=1 10 -4 4 -6 -7 -8 8 12 -11 -12 13 -14 -15
leaf_value=-0.051138180669597313 0.093689807000436554 -0.052491816440760647 -0.052939404680358404 0.061534880195023428 0.090777076736928752 0.094843478630850839 0.090003316308370759 -0.053294431700863815 -0.052038175519942588 -0.052005315029540478 -0.051830728587075464 -0.051727999976468146 -0.051596744867647919 -0.051486048628726792
leaf_weight=1.9892857819795606 2.9633427262306267 3.5086713731288901 3.6077902615070334 3.7347748875617999 5.654289186000824 2.9495634734630585 4.1768797934055328 3.4704714268445951 2.0959642976522446 2.2834507822990417 4.3498400300741196 3.384001150727272 3.5420181006193161 3.8832774758338946
leaf_count=11 10 18 18 13 19 10 14 17 11 12 23 18 19 21
internal_value=0 0.0347643 0.0643411 0.0860633 0.0791451 0.092501 0.0915333 -0.0519286 -0.052277 -0.0527828 -0.0521259 -0.0514997 -0.0517609 -0.0515987
internal_weight=0 30.9452 23.0866 19.4789 9.38906 10.0898 7.14022 20.6485 11.3919 5.75392 7.85851 9.25656 5.63798 7.26728
internal_count=234 125 84 66 32 34 24 109 59 29 41 50 30 39
is_linear=0
shrinkage=0.05


Tree=35
num_leaves=17
num_cat=0
split_feature=44 43 9 43 44 44 47 46 43 16 46 44 43 43 43 43
split_gain=79.8065 0.0366593 0.000173784 0.000114851 0.000409933 0.000331216 0.000126321 9.54567e-05 6.36631e-05 2.22792e-05 5.8182e-05 3.2498e-05 1.55446e-05 7.30426e-06 6.24833e-06 1.08273e-07
threshold=1.028381068620454 1.5352592087143926 1.0000000180025095e-35 -1.1166082036071348 -1.1078396561121562 0.65140076417830439 1.0480088590443242 1.19185220876623 0.8434677098479072 1.0000000180025095e-35 1.0000000180025095e-35 -1.0000000180025095e-35 -0.42481670474064953 1.0000000180025095e-35 -0.078920955307406782 0.26697479412583586
decision_type=2 2 2 2 2 2 2 2 2 2 2 2 2 2 2 2
left_child=2 -2 3 4 -1 -6 9 -8 -9 10 11 -5 -13 -11 -14 -15
right_child=1 -3 -4 6 5 -7 7 8 -10 13 -12 12 14 15 -16 -17
leaf_value=-0.047483349390359794 0.114061299084201 0.10832262595294362 -0.048362656527223657 -0.047907124731263365 -0.048816352956776762 -0.04788780309523448 -0.048358947955027376 -0.047653486106998405 -0.048072013514925793 -0.047533886568189181 -0.048062678464126388 -0.047563649220810474 -0.04779764360303191 -0.047681804453439947 -0.047660430988280884 -0.047662763591019945
leaf_weight=2.0610594153404236 6.1072599589824659 5.1126085221767426 1.8519290834665287 1.6314262300729776 1.9430582374334364 1.8989477306604383 1.4219683557748783 1.7088842913508417 1.9402421712875364 1.4263524264097203 1.3789893388748167 2.604072421789172 1.6071458011865645 1.3223468959331515 1.7151246517896623 1.7147405743598936
leaf_count=16 22 18 13 12 13 14 10 13 14 11 10 20 12 10 13 13
internal_value=0 0.111446 -0.0478957 -0.0478602 -0.0480522 -0.0483574 -0.0477989 -0.0480114 -0.047876 -0.0477184 -0.047764 -0.0477095 -0.0476551 -0.0476272 -0.0477268 -0.0476711
internal_weight=0 11.2199 26.2263 24.3744 5.90307 3.84201 18.4713 5.07109 3.64913 13.4002 8.93676 7.55777 5.92634 4.46344 3.32227 3.03709
internal_count=234 40 194 181 43 27 138 37 27 101 67 57 45 34 25 23
is_linear=0
shrinkage=0.05


Tree=36
num_leaves=16
num_cat=0
split_feature=44 47 9 44 46 44 43 7 2 48 44 41 44 44 5
split_gain=29.7331 2.85198e-05 5.78668e-06 2.43839e-06 9.07873e-06 2.86773e-06 1.51457e-06 9.57218e-07 7.39669e-07 4.56467e-07 1.3037e-06 4.36015e-07 3.25768e-07 3.25969e-07 1.02762e-08
threshold=-1.4848197840061459 2.1361019557572178 1.0000000180025095e-35 -0.60519948558683645 1.0000000180025095e-35 0.65140076417830439 -0.54011528788506369 1.0000000180025095e-35 1.0000000180025095e-35 -0.90662630859202975 -0.73085952821816658 1.0000000180025095e-35 0.14876077020114348 0.90272102598912363 1.0000000180025095e-35
decision_type=2 2 2 2 2 2 2 2 2 2 2 2 2 2 2
left_child=-1 2 3 7 6 -6 8 9 -5 -2 -11 12 -8 14 -14
right_child=1 -3 -4 4 5 -7 11 -9 -10 10 -12 -13 13 -15 -16
leaf_value=0.12482933998895847 -0.043385108099158853 -0.043797253822044822 -0.043571115362091087 -0.043309527133584838 -0.043611550827654409 -0.04346945658595075 -0.043434416332938625 -0.043419677505531822 -0.043392807122680871 -0.043284425227498091 -0.043395209375302009 -0.043448977134193385 -0.043381799612184288 -0.043416012635613566 -0.043371619942494791
leaf_weight=3.5217677652835855 0.91290327534079563 0.54865195229649621 0.6482107527554043 0.56595582515000964 0.75820873677730538 0.66783720254898071 0.79637092724442604 0.97590094804763783 0.5041077546775341 0.56035735830664635 0.50477882102131577 0.80136207863688458 0.45563713833689723 1.0654821172356603 0.54380887374281883
leaf_count=14 20 10 13 13 15 14 17 21 11 13 11 17 10 23 12
internal_value=0 -0.0434465 -0.0434268 -0.0434165 -0.0434344 -0.043545 -0.0434011 -0.0433792 -0.0433488 -0.0433592 -0.0433369 -0.0434164 -0.0434072 -0.0433968 -0.0433763
internal_weight=0 10.3096 9.76092 9.11271 6.15877 1.42605 4.73272 2.95394 1.07006 1.97804 1.06514 3.66266 2.8613 2.06493 0.999446
internal_count=234 220 210 197 132 29 103 65 24 44 24 79 62 45 22
is_linear=0
shrinkage=0.05


Tree=37
num_leaves=17
num_cat=0
split_feature=48 47 9 44 44 3 44 44 44 44 44 47 48 2 44 44
split_gain=31.2766 1.74003 1.23302e-05 8.82164e-06 2.74422e-05 1.35686e-05 4.86819e-06 2.34832e-06 2.6488e-06 1.12633e-06 9.1109e-07 8.24545e-07 6.53342e-07 7.09886e-07 4.85328e-07 1.37844e-07
threshold=-1.1847619406300147 2.1361019557572178 1.0000000180025095e-35 -0.60519948558683645 -0.16538933637718142 1.0000000180025095e-35 0.77706098335779361 0.90272102598912363 0.2744208128324736 0.77706098335779361 1.2797011538831129 1.0000000180025095e-35 0.20591621955991044 1.0000000180025095e-35 -1.2334996987434863 -1.4219896593812071
decision_type=2 2 2 2 2 2 2 2 2 2 2 2 2 2 2 2
left_child=1 -1 3 11 -5 7 -7 8 12 -10 -9 -2 13 -6 15 -13
right_child=2 -3 -4 4 5 6 -8 10 9 -11 -12 14 -14 -15 -16 -17
leaf_value=0.12654898047807803 -0.043879714376318039 0.069485911437968645 -0.044180929007150732 -0.044319476164009546 -0.043900267381218695 -0.04422755416810259 -0.044030934281849773 -0.04402922723585892 -0.043833503112087779 -0.043925130251206285 -0.043964657125248927 -0.043934118936572938 -0.043997190336985563 -0.043967704027033552 -0.0438943403581439 -0.043961069387193651
leaf_weight=2.9043412208557156 1.0321240089833739 2.4738592430949211 0.83230990171432573 0.66226986050605763 0.63539748638868032 0.65092151612043359 0.60968070104718208 0.97157162800431285 0.78558313846588113 0.58527129143476486 1.2481173872947691 1.2319399490952498 0.78187708929181088 1.0114496909081936 0.63516506552696217 0.77163202688097943
leaf_count=11 18 15 13 10 11 10 10 16 14 10 21 21 13 17 11 13
internal_value=0 0.100301 -0.043995 -0.0439817 -0.0440113 -0.0439833 -0.0441325 -0.0439521 -0.0439282 -0.0438726 -0.0439929 -0.0439176 -0.0439596 -0.0439417 -0.0439324 -0.0439445
internal_weight=0 5.3782 12.4453 11.613 7.94214 7.27987 1.2606 6.01927 3.79958 1.37085 2.21969 3.67086 2.42872 1.64685 2.63874 2.00357
internal_count=234 26 208 195 132 122 20 102 65 24 37 63 41 28 45 34
is_linear=0
shrinkage=0.05


Tree=38
num_leaves=16
num_cat=0
split_feature=44 47 44 44 44 0 3 44 43 2 43 38 43 4 45
split_gain=47.2508 16.2872 4.62361 0.485639 1.0589 0.0590674 0.000608302 0.000390638 0.000153654 8.34311e-05 5.75291e-05 6.66317e-05 3.84877e-05 3.83838e-05 1.07338e-05
threshold=-0.73085952821816658 2.1361019557572178 -0.98217961348082616 -0.16538933637718142 -0.60519948558683645 1.0000000180025095e-35 1.0000000180025095e-35 0.77706098335779361 -0.54011528788506369 1.0000000180025095e-35 -0.19421953845182102 1.0000000180025095e-35 -0.42481670474064953 1.0000000180025095e-35 0.63951728429105625
decision_type=2 2 2 2 2 2 2 2 2 2 2 2 2 2 2
left_child=1 2 5 4 -2 -1 8 -8 9 -5 12 13 -10 -12 -15
right_child=3 -3 -4 6 -6 -7 7 -9 10 -11 11 -13 -14 14 -16
leaf_value=0.090578501176021328 -0.050079123335558487 -0.03807665058946319 0.035253090428638265 -0.048800912137669135 -0.0031037581742008971 0.09758149267841959 -0.050543843742480644 -0.049532477112383663 -0.049428045946171791 -0.049288341001251984 -0.049065932856907357 -0.049548153952879814 -0.049766056096805504 -0.049395459929446085 -0.049232325665562411
leaf_weight=5.9543121159076726 3.1424079090356827 3.7058379948139182 4.6130682229995736 1.7874708473682466 1.9404393434524561 6.0915294289588928 1.8966189324855798 1.9226274043321607 1.7465628981590273 1.7252338528633118 1.841288998723021 2.8854454010725021 1.6264186203479827 2.8494640737771988 1.5605688542127607
leaf_count=20 19 20 19 12 10 21 11 12 11 11 12 18 10 18 10
internal_value=0 0.056729 0.0778189 -0.0459352 -0.0321457 0.0941199 -0.0494677 -0.0500347 -0.0493325 -0.0490403 -0.0494146 -0.0493494 -0.049591 -0.0492577 -0.0493377
internal_weight=0 20.3647 16.6589 24.9245 5.08285 12.0458 19.8417 3.81925 16.0225 3.5127 12.5097 9.13677 3.37298 6.25132 4.41003
internal_count=234 80 60 154 29 41 125 23 102 23 79 58 21 40 28
is_linear=0
shrinkage=0.05


Tree=39
num_leaves=18
num_cat=0
split_feature=35 22 44 48 48 9 45 40 4 45 13 43 44 3 5 43 0
split_gain=22.6316 21.9516 3.87802 2.79693 6.50513 8.14436 1.71365 0.000438917 0.000149746 3.57163e-05 4.20277e-05 4.77691e-05 2.06755e-05 8.82287e-06 5.77201e-06 8.87202e-06 3.09849e-06
threshold=1.0000000180025095e-35 1.0000000180025095e-35 0.65140076417830439 -0.44306692186205471 -0.90662630859202975 1.0000000180025095e-35 -0.80287552798361361 1.0000000180025095e-35 1.0000000180025095e-35 0.87991608633683449 1.0000000180025095e-35 1.765856375003221 1.0000000180025095e-35 1.0000000180025095e-35 1.0000000180025095e-35 0.8434677098479072 1.0000000180025095e-35
decision_type=2 2 2 2 2 2 2 2 2 2 2 2 2 2 2 2 2
left_child=1 3 -3 4 6 -6 7 8 13 10 11 -5 -12 -1 15 -11 -14
right_child=-2 2 -4 9 5 -7 -8 -9 -10 14 12 -13 16 -15 -16 -17 -18
leaf_value=-0.048375582905001366 0.093613272605451742 0.0198041955676019 0.098054748366359287 -0.049005676442771824 0.079811376067568926 -0.049284847671765115 0.004744507209703778 -0.049394442571266441 -0.048938773583093877 -0.048398648472265861 -0.048699129197600277 -0.048615390951142201 -0.048542488365265278 -0.04852850913675455 -0.048586332485411637 -0.048539430463829789 -0.048441546669921315
leaf_weight=2.2922609299421293 5.6298401951789847 2.5774178802967063 4.1052789092063904 1.5218973308801633 3.0761163532733926 2.0266034156084061 1.7871163636445988 2.677216500043869 2.4286006391048431 2.1502943187952051 1.9271932840347288 1.6170317828655243 1.4585380405187607 1.6025278121232989 1.4616085588932035 2.3335913270711899 1.5879056304693222
leaf_count=16 19 11 14 10 11 13 10 17 16 15 13 11 10 11 10 16 11
internal_value=0 -0.014064 0.0678747 -0.0323478 -0.0179758 0.0285393 -0.039978 -0.0488578 -0.0486306 -0.0485931 -0.0486614 -0.0488046 -0.048571 -0.0484385 -0.0485 -0.0484719 -0.0484899
internal_weight=0 36.6312 6.6827 29.9485 15.8904 5.10272 10.7877 9.00061 6.32339 14.0581 8.11257 3.13893 4.97364 3.89479 5.94549 4.48389 3.04644
internal_count=234 215 25 190 94 24 70 60 43 96 55 21 34 27 41 31 21
is_linear=0
shrinkage=0.05


Tree=40
num_leaves=15
num_cat=0
split_feature=44 43 3 44 44 47 0 44 47 12 44 43 44 43
split_gain=33.9197 28.0596 20.6784 0.334494 0.127781 0.0208653 0.00109323 0.00109127 0.00140181 0.000777027 0.000277609 0.000197781 4.45305e-06 7.9633e-07
threshold=-0.16538933637718142 0.49757196041466434 1.0000000180025095e-35 -1.0000000180025095e-35 0.77706098335779361 -0.40278193657286659 1.0000000180025095e-35 -1.1078396561121562 1.2898073249805229 1.0000000180025095e-35 1.2797011538831129 -1.231906786751549 -1.4219896593812071 0.15167621098142162
decision_type=2 2 2 2 2 2 2 2 2 2 2 2 2 2
left_child=7 2 3 -2 5 6 -5 11 9 -9 -3 -1 -13 -11
right_child=1 10 -4 4 -6 -7 -8 8 -10 13 -12 12 -14 -15
leaf_value=-0.050304785802471302 0.067458539905908652 -0.051633476109559151 -0.052242218277625034 0.08486550668185433 0.075127046379500156 0.088646579826350713 0.083649234892967467 -0.051774568895109729 -0.052587194891048496 -0.05082880037931678 -0.051020131484105682 -0.050846587312278861 -0.050926930209050009 -0.050788305114153436
leaf_weight=1.873135834932327 4.1286060512065967 3.3336706757545462 3.473506659269332 4.1976606845855766 3.5389829576015481 4.4683690667152334 3.299923449754715 3.5532981604337674 2.3616823405027381 2.1272557526826859 4.1309561431407928 3.7236959934234615 3.2125898301601432 2.8278696984052658
leaf_count=11 14 18 18 14 12 15 11 19 12 12 23 21 18 16
internal_value=0 0.032985 0.060211 0.0801058 0.0834735 0.085942 0.0843302 -0.0511743 -0.0515095 -0.0512103 -0.051294 -0.0507607 -0.0508838 -0.0508057
internal_weight=0 30.5717 23.107 19.6335 15.5049 11.966 7.49758 19.6795 10.8701 8.50842 7.46463 8.80942 6.93629 4.95513
internal_count=234 125 84 66 52 40 25 109 59 47 41 50 39 28
is_linear=0
shrinkage=0.05


Tree=41
num_leaves=15
num_cat=0
split_feature=44 44 45 46 44 44 43 43 1 43 47 43 48 47
split_gain=70.2013 0.0386445 0.000188988 0.00038413 0.000175891 0.000175926 5.76458e-05 3.73915e-05 2.82411e-05 3.45644e-05 2.64819e-05 2.43746e-05 2.04675e-05 2.26306e-05
threshold=1.028381068620454 1.2797011538831129 -1.0432743300293918 1.0000000180025095e-35 -0.85651957084949604 0.65140076417830439 -0.30951812159623526 0.8434677098479072 1.0000000180025095e-35 -1.231906786751549 -1.0072781014133625 -0.6554138710294779 0.57676372894389061 -0.40278193657286659
decision_type=2 2 2 2 2 2 2 2 2 2 2 2 2 2
left_child=2 -2 8 10 7 6 -6 -5 -1 -10 -4 -12 -13 -14
right_child=1 -3 3 4 5 -7 -8 -9 9 -11 11 12 13 -15
leaf_value=-0.047392415220939101 0.10484396988550407 0.098994585360068874 -0.047206849800831299 -0.047373752944989606 -0.048377407266414568 -0.047548920905520611 -0.047989477415680361 -0.04768458112912561 -0.046916155364561514 -0.04724937056312075 -0.047568270883621887 -0.047474505089323327 -0.047421789716011492 -0.047180667192266726
leaf_weight=1.5287142843008066 4.866682440042494 6.7260526418685913 2.6091234385967264 2.0252400115132336 1.5732936114072797 1.8211953788995741 2.4472247511148435 1.8526277244091032 1.1896666437387464 2.2504163905978207 1.5514757484197623 2.0549508258700371 1.6601511836051943 2.3513742089271541
leaf_count=12 17 23 21 16 11 14 18 14 10 18 12 16 13 19
internal_value=0 0.10145 -0.0474895 -0.0475582 -0.0477833 -0.0479566 -0.0481413 -0.0475222 -0.0472136 -0.0471341 -0.0473443 -0.0473914 -0.0473462 -0.0472805
internal_weight=0 11.5927 24.9155 19.9467 9.71958 5.84171 4.02052 3.87787 4.9688 3.44008 10.2271 7.61795 6.06648 4.01153
internal_count=234 40 194 154 73 43 29 30 40 28 81 60 48 32
is_linear=0
shrinkage=0.05


Tree=42
num_leaves=15
num_cat=0
split_feature=47 48 46 45 43 46 43 43 2 41 43 40 48 40
split_gain=26.07 0.00175413 1.14895e-05 1.26172e-05 4.55036e-06 1.17396e-05 1.15181e-06 9.10005e-07 6.94965e-07 5.44142e-07 4.40536e-07 3.93184e-07 2.69429e-07 2.23107e-08
threshold=2.4987996546615152 1.3493627068271825 1.0000000180025095e-35 -1.0432743300293918 0.15167621098142162 0.62832158161253837 -0.54011528788506369 -1.231906786751549 1.0000000180025095e-35 1.0000000180025095e-35 -0.19421953845182102 1.0000000180025095e-35 -0.78301047213070307 1.0000000180025095e-35
decision_type=2 2 2 2 2 2 2 2 2 2 2 2 2 2
left_child=1 2 6 11 5 7 8 -5 -1 10 -8 -4 -12 -14
right_child=-2 -3 3 4 -6 -7 9 -9 -10 -11 12 -13 13 -15
leaf_value=-0.043203311299244922 0.11176782119633788 -0.045437174986787385 -0.043248257639801113 -0.043444060698672057 -0.043341893078617466 -0.043664793474654989 -0.043325930557405821 -0.043353667423101483 -0.043286523729340276 -0.043340619911258475 -0.043307199569896267 -0.043308418872540784 -0.043277046467232252 -0.043265453638054091
leaf_weight=0.53145559504627982 3.7351705729961404 1.1266832910478122 0.71688567847013496 0.74851250275969528 0.53082324191927899 0.73239959776401509 0.79329496622085383 0.44333702325820923 0.47533254697918892 0.75630108267068852 0.78695177286863138 0.43721684813499451 0.90271741524338966 0.76821249350905418
leaf_count=13 17 22 17 16 12 14 18 10 11 17 18 10 21 18
internal_value=0 -0.0435818 -0.0433394 -0.0434074 -0.0434715 -0.0435072 -0.0432904 -0.0434104 -0.0432426 -0.0433024 -0.0432935 -0.043271 -0.0432831 -0.0432717
internal_weight=0 9.75012 8.62344 3.60917 2.45507 1.92425 5.01427 1.19185 1.00679 4.00748 3.25118 1.1541 2.45788 1.67093
internal_count=234 217 195 79 52 40 116 26 24 92 75 27 57 39
is_linear=0
shrinkage=0.05


Tree=43
num_leaves=19
num_cat=0
split_feature=45 45 43 3 43 9 43 44 46 2 43 45 5 43 5 44 43 43
split_gain=17.0754 18.7437 0.00222649 0.000691446 0.000982463 2.11101e-05 4.84147e-06 5.05313e-06 9.43373e-06 2.20345e-06 1.52156e-06 1.31877e-06 5.04204e-07 4.51913e-07 1.45994e-06 4.05321e-07 2.882e-07 1.757e-07
threshold=-0.80287552798361361 -1.2355933716660144 -1.5778025361847916 1.0000000180025095e-35 -1.231906786751549 1.0000000180025095e-35 -0.54011528788506369 -0.47953944295550643 1.0000000180025095e-35 1.0000000180025095e-35 -1.1166082036071348 0.87991608633683449 1.0000000180025095e-35 1.5352592087143926 1.0000000180025095e-35 -0.73085952821816658 0.8434677098479072 1.1893634592811499
decision_type=2 2 2 2 2 2 2 2 2 2 2 2 2 2 2 2 2 2
left_child=1 2 -1 5 -5 6 9 15 11 -2 -4 13 -13 14 -9 16 -8 -12
right_child=3 -3 10 4 -6 -7 7 8 -10 -11 17 12 -14 -15 -16 -17 -18 -19
leaf_value=-0.04717764452631007 -0.043671289607769836 0.11714473947290488 -0.043721254501570661 -0.043995969887463099 -0.04649645672208913 -0.044085748948108475 -0.043729637110057333 -0.043935265806997914 -0.044050972589635931 -0.043799891986526854 -0.04383023062572694 -0.043757071890223889 -0.043824622738865247 -0.043831968941430086 -0.04382513692271886 -0.043803381045238718 -0.043776111472170288 -0.043797525225453438
leaf_weight=0.6190079823136333 0.73169512301683404 4.7217507883906391 0.53529465198516923 1.0160884633660314 0.64043052494525987 0.80237290263175953 0.53726621717214607 0.58669170737266296 0.60361472889780987 0.61138873919844627 1.0697499401867383 0.54523777961730979 0.55991312116384506 0.90162125602364529 0.61785074323415756 0.77949152514338438 0.87992537766695023 0.66650927811861027
leaf_count=5 14 19 10 17 7 13 10 10 10 11 19 10 10 16 11 14 16 12
internal_value=0 0.0557573 -0.0445194 -0.0440314 -0.0449627 -0.0438422 -0.0438157 -0.0438348 -0.0438696 -0.0437298 -0.043795 -0.0438355 -0.0437913 -0.0438587 -0.0438788 -0.0437744 -0.0437585 -0.0438177
internal_weight=0 7.61231 2.89056 9.81359 1.65652 8.15707 7.3547 6.01161 3.81493 1.34308 2.27155 3.21131 1.10515 2.10616 1.20454 2.19668 1.41719 1.73626
internal_count=234 65 46 169 24 145 132 107 67 25 41 57 20 37 21 40 26 31
is_linear=0
shrinkage=0.05


Tree=44
num_leaves=15
num_cat=0
split_feature=44 47 44 46 42 46 44 48 13 46 5 44 44 44
split_gain=42.4437 14.2223 4.09159 1.22155 0.0553679 0.000542276 0.000285387 0.000147702 0.000111891 0.000180534 0.000110226 4.87125e-05 2.21183e-05 2.27864e-07
threshold=-0.73085952821816658 2.1361019557572178 -0.98217961348082616 0.62832158161253837 1.0000000180025095e-35 1.0000000180025095e-35 0.65140076417830439 0.20591621955991044 1.0000000180025095e-35 -1.0622702998485356 1.0000000180025095e-35 1.0000000180025095e-35 1.4053611965144437 0.46894595558185198
decision_type=2 2 2 2 2 2 2 2 2 2 2 2 2 2
left_child=1 2 4 5 -1 7 -7 8 9 -2 -9 -10 -13 -12
right_child=3 -3 -4 -5 -6 6 -8 10 11 -11 13 12 -14 -15
leaf_value=0.084769819154781864 -0.048779206139800989 -0.037193049990075076 0.032642894908148777 -0.010406327692937313 0.091584459179730127 -0.04989256879880339 -0.049057476652979465 -0.048335219025176943 -0.049012002724385842 -0.04934456822150593 -0.048776223223868036 -0.048563786428672734 -0.048784637288079531 -0.04880266868635505
leaf_weight=6.8838774561882055 2.689712792634964 3.5913205146789542 4.6686149090528497 2.2752228975296012 5.2568061649799347 1.9521093517541874 2.1496918201446533 2.2707306891679755 1.5288920104503629 2.9725647717714399 1.7922097444534304 2.0465719401836395 2.5415884703397751 1.493179142475128
leaf_count=23 18 20 19 12 18 12 14 16 10 19 12 14 17 10
internal_value=0 0.0531264 0.0724232 -0.0452408 0.0877205 -0.0489379 -0.0494549 -0.0488156 -0.0489158 -0.049076 -0.0486031 -0.0487676 -0.0486861 -0.0487882
internal_weight=0 20.4006 16.8093 23.7125 12.1407 21.4373 4.1018 17.3354 11.7793 5.66228 5.55612 6.11705 4.58816 3.28539
internal_count=234 80 60 154 41 142 26 116 78 37 38 41 31 22
is_linear=0
shrinkage=0.05


Tree=45
num_leaves=18
num_cat=0
split_feature=35 3 44 45 45 9 44 45 43 2 44 0 45 4 5 5 43
split_gain=19.9136 16.1367 12.6899 2.87707 4.55635 5.00667 1.18111 0.374471 0.000818987 0.00145951 0.000381471 0.000107282 3.37342e-05 1.2612e-05 9.28282e-06 8.35135e-06 5.18222e-06
threshold=1.0000000180025095e-35 1.0000000180025095e-35 0.14876077020114348 -0.20184861318246741 -0.80287552798361361 1.0000000180025095e-35 0.77706098335779361 -1.0432743300293918 -0.54011528788506369 1.0000000180025095e-35 1.1540411112517834 1.0000000180025095e-35 0.87991608633683449 1.0000000180025095e-35 1.0000000180025095e-35 1.0000000180025095e-35 0.8434677098479072
decision_type=2 2 2 2 2 2 2 2 2 2 2 2 2 2 2 2 2
left_child=1 3 -3 4 7 -6 -4 11 9 -5 12 -1 14 -13 -10 16 -14
right_child=-2 2 6 8 5 -7 -8 -9 10 -11 -12 13 15 -15 -16 -17 -18
leaf_value=-0.047875506311453611 0.087231000238618656 -0.049784704295999745 0.10685058159611385 -0.050167519241043824 0.048760869970304307 -0.048920921170646316 0.062730402490957918 -0.019666046020767405 -0.048243329293461576 -0.047998543387241029 -0.048830916910180364 -0.048232512390521017 -0.047879253223538809 -0.048414780578045262 -0.048079147680052087 -0.048077854591747488 -0.047993848641893766
leaf_weight=1.7592530101537702 5.6857286691665641 2.4419047087430936 3.0900041908025742 1.593431651592252 3.9911830872297269 1.9540043622255323 2.9795742928981781 1.4367296844720838 1.9769255816936511 1.5111564248800278 1.907807037234307 1.5506176948547366 2.0261093825101857 2.4464789927005768 1.5251103043556213 1.3821762204170225 1.9228137433528898
leaf_count=13 19 16 11 10 16 13 12 8 14 11 13 11 15 17 11 10 14
internal_value=0 -0.0135584 0.0464677 -0.0324924 -0.0157322 0.0166558 0.0851919 -0.0425014 -0.0483965 -0.0491118 -0.0481898 -0.0482009 -0.0480513 -0.0483441 -0.0481718 -0.0479721 -0.0479351
internal_weight=0 35.4953 8.51148 26.9838 13.1383 5.94519 6.06958 7.19308 13.8455 3.10459 10.7409 5.75635 8.83314 3.9971 3.50204 5.3311 3.94892
internal_count=234 215 39 176 78 29 23 49 98 21 77 41 64 28 25 39 29
is_linear=0
shrinkage=0.05


Tree=46
num_leaves=15
num_cat=0
split_feature=44 43 3 43 45 44 44 44 47 9 44 43 43 45
split_gain=30.9333 24.8938 18.2021 0.320153 0.677605 0.00765982 0.00759807 0.00136251 0.00163151 0.00108566 0.000233402 0.000163001 0.000104326 1.16634e-05
threshold=-0.16538933637718142 0.49757196041466434 1.0000000180025095e-35 -0.42481670474064953 1.3607136904283912 0.14876077020114348 1.0000000180025095e-35 -1.1078396561121562 1.2898073249805229 1.0000000180025095e-35 1.2797011538831129 -1.231906786751549 0.15167621098142162 -0.6345963665515687
decision_type=2 2 2 2 2 2 2 2 2 2 2 2 2 2
left_child=7 2 3 5 -5 6 -2 11 9 12 -3 -1 -9 -13
right_child=1 10 -4 4 -6 -7 -8 8 -10 -11 -12 13 -14 -15
leaf_value=-0.049588990129842435 0.081887351776937595 -0.050865764217612387 -0.051542082497082489 0.052005941983593311 0.079306473574088057 0.083277440259060587 0.078635624378966706 -0.050418768795269076 -0.052052580088415581 -0.05143769879689189 -0.050288445473750956 -0.050201573711005712 -0.049985962757603003 -0.050067899532433735
leaf_weight=1.7673023492097852 3.5988772809505516 3.1640889197587958 3.3232599794864646 3.7914456725120562 5.6747037470340729 2.9852226078510284 3.5869444012641907 2.3953551203012449 2.2881791293621054 2.3814028203487396 3.9192554503679276 3.0478660017251968 3.3251297473907471 3.5122432410717028
leaf_count=11 12 18 18 13 19 10 12 14 12 13 23 18 20 21
internal_value=0 0.0313961 0.0566756 0.0749895 0.0683719 0.0811486 0.0802642 -0.0504917 -0.0508736 -0.0505406 -0.0505463 -0.0500152 -0.0501672 -0.05013
internal_weight=0 30.0438 22.9605 19.6372 9.46615 10.171 7.18582 18.7175 10.3901 8.10189 7.08334 8.32741 5.72048 6.56011
internal_count=234 125 84 66 32 34 24 109 59 47 41 50 34 39
is_linear=0
shrinkage=0.05


Tree=47
num_leaves=16
num_cat=0
split_feature=44 44 45 46 48 44 44 16 1 25 35 44 1 45 4
split_gain=62.2384 0.0336176 0.000198103 0.000468485 0.000333123 0.000182182 0.000147685 6.45894e-05 2.85482e-05 2.40478e-05 1.72247e-05 1.61591e-05 2.19583e-05 1.91983e-05 2.34584e-06
threshold=1.028381068620454 1.2797011538831129 -1.0432743300293918 1.0000000180025095e-35 -0.90662630859202975 -0.98217961348082616 0.65140076417830439 1.0000000180025095e-35 1.0000000180025095e-35 1.0000000180025095e-35 1.0000000180025095e-35 1.0000000180025095e-35 1.0000000180025095e-35 0.63951728429105625 1.0000000180025095e-35
decision_type=2 2 2 2 2 2 2 2 2 2 2 2 2 2 2
left_child=2 -2 8 10 -5 -6 7 -7 -1 -10 11 -4 -13 -14 -15
right_child=1 -3 3 4 5 6 -8 -9 9 -11 -12 12 13 14 -16
leaf_value=-0.047006432586741698 0.096516989478234005 0.091117505411946104 -0.047111185536001465 -0.04819365446706992 -0.047022610573249288 -0.047974149835619609 -0.047138891804595913 -0.047517143687070468 -0.046619024047084956 -0.046893258651531954 -0.046814858637428729 -0.046763769849992781 -0.047102799347613113 -0.046943606262572504 -0.046844176184276581
leaf_weight=1.4493370056152368 4.9783589541912061 6.8481319546699524 1.7170870304107682 1.2619009464979161 3.1396804079413405 1.3609175682067862 1.7238509804010389 1.7900907248258591 1.8191798403859138 1.4260833486914635 2.1127798855304718 1.3964743688702581 2.0602252259850502 1.1932811588048935 1.1796087920665741
leaf_count=12 17 23 14 9 26 10 14 14 16 12 18 12 17 10 10
internal_value=0 0.0933904 -0.0471127 -0.0471848 -0.0474385 -0.0473197 -0.047511 -0.0477145 -0.0468219 -0.0467395 -0.046941 -0.0469764 -0.0469367 -0.0469911 -0.0468942
internal_weight=0 11.8265 23.6305 18.9359 9.27644 8.01454 4.87486 3.15101 4.6946 3.24526 9.65946 7.54668 5.82959 4.43312 2.37289
internal_count=234 40 194 154 73 64 38 24 40 28 81 63 49 37 20
is_linear=0
shrinkage=0.05


Tree=48
num_leaves=17
num_cat=0
split_feature=44 47 9 44 46 44 43 7 45 2 44 25 46 0 5 4
split_gain=22.8189 6.58893e-05 1.10047e-05 3.67776e-06 1.21815e-05 4.91698e-06 1.22309e-06 6.68752e-07 5.0554e-07 4.83626e-07 4.8324e-07 1.35909e-06 3.49794e-07 3.11763e-07 1.81708e-07 2.38595e-09
threshold=-1.4848197840061459 2.1361019557572178 1.0000000180025095e-35 -0.60519948558683645 1.0000000180025095e-35 0.65140076417830439 -0.54011528788506369 1.0000000180025095e-35 0.87991608633683449 1.0000000180025095e-35 -0.73085952821816658 1.0000000180025095e-35 -1.0622702998485356 1.0000000180025095e-35 1.0000000180025095e-35 1.0000000180025095e-35
decision_type=2 2 2 2 2 2 2 2 2 2 2 2 2 2 2 2
left_child=-1 2 3 7 6 -6 9 10 12 -5 11 -2 15 -14 -10 -8
right_child=1 -3 -4 4 5 -7 8 -9 14 -11 -12 -13 13 -15 -16 -17
leaf_value=0.10124692016464708 -0.04305791218787354 -0.043796972952028328 -0.04343336853932394 -0.043109917131739152 -0.043459039651603547 -0.043263654253607543 -0.043205871479654878 -0.043198915352365697 -0.043155137929578119 -0.043181484650318465 -0.043174736122436913 -0.043176270347793894 -0.043214355069823573 -0.04326993600278238 -0.043200506402856248 -0.043201678910669131
leaf_weight=3.8774180561304101 0.44983184710145008 0.53863225877285081 0.60202580690383989 0.50063656643032706 0.69877757132053353 0.59718133136630058 0.65962389111518571 0.86169468611478794 0.47889005765318859 0.44666769355535507 0.76846080645918591 0.52634241059422493 0.496940668672327 0.51248951256275177 0.40935883671045303 0.69888833165168762
leaf_count=14 12 10 13 13 15 14 16 21 12 11 19 13 12 12 10 17
internal_value=0 -0.0432603 -0.0432271 -0.0432118 -0.043235 -0.043369 -0.0431937 -0.0431629 -0.0432082 -0.0431437 -0.0431451 -0.0431217 -0.0432203 -0.0432426 -0.043176 -0.0432037
internal_weight=0 9.24644 8.70781 8.10578 5.49945 1.29596 4.2035 2.60633 3.25619 0.947304 1.74464 0.976174 2.36794 1.00943 0.888249 1.35851
internal_count=234 220 210 197 132 29 103 65 79 24 44 25 57 24 22 33
is_linear=0
shrinkage=0.05


Tree=49
num_leaves=19
num_cat=0
split_feature=48 47 9 44 44 3 44 43 2 43 5 41 44 48 48 43 41 44
split_gain=24.4129 1.23032 2.2263e-05 1.24941e-05 5.72426e-05 1.47039e-05 4.96462e-06 3.58339e-06 1.77213e-06 9.63053e-07 2.0866e-06 9.33238e-07 1.16663e-06 2.47065e-06 8.73358e-07 4.58948e-07 2.37594e-07 3.61661e-08
threshold=-1.1847619406300147 2.1361019557572178 1.0000000180025095e-35 -0.60519948558683645 -0.16538933637718142 1.0000000180025095e-35 0.77706098335779361 -0.54011528788506369 1.0000000180025095e-35 -0.19421953845182102 1.0000000180025095e-35 1.0000000180025095e-35 -0.73085952821816658 -0.90662630859202975 1.0000000180025095e-35 -0.42481670474064953 1.0000000180025095e-35 -1.4219896593812071
decision_type=2 2 2 2 2 2 2 2 2 2 2 2 2 2 2 2 2 2
left_child=1 -1 3 11 -5 7 -7 8 -6 15 14 12 13 -2 -11 -9 -16 -13
right_child=2 -3 -4 4 5 6 -8 9 -10 10 -12 17 -14 -15 16 -17 -18 -19
leaf_value=0.10378736443298285 -0.04365733725329532 0.05766363857184869 -0.043993863437937458 -0.044211301450248278 -0.043535467263101472 -0.043972838286776408 -0.043763728212211639 -0.043704452693802159 -0.043658956508841947 -0.043731786189202398 -0.043593607475159439 -0.043659555029518439 -0.043670895882458781 -0.043519899076367927 -0.043648380584248164 -0.043768174279382469 -0.043691258045404954 -0.043676288035834433
leaf_weight=3.1501997411251095 0.62665944918990124 2.6722338795661926 0.77292086556553918 0.62128075212240208 0.58754719421267398 0.58977884799241997 0.54718425869941711 0.58634261786937714 0.574679896235466 1.1852703616023053 0.55648260563611973 0.83472097665071487 0.57799362018704425 0.68379576131701458 0.57202295213937737 0.54542820900678524 0.7424049936234951 0.52666366472840309
leaf_count=11 12 15 13 10 12 10 10 11 11 22 11 16 11 14 11 10 14 10
internal_value=0 0.0826187 -0.043735 -0.0437157 -0.0437528 -0.0437089 -0.0438722 -0.0436742 -0.0435965 -0.0436958 -0.0436812 -0.0436345 -0.0436117 -0.0435856 -0.0437007 -0.0437352 -0.0436726 -0.043666
internal_weight=0 5.82243 11.1312 10.3583 7.10842 6.48714 1.13696 5.35018 1.16223 4.18795 3.05618 3.24983 1.88845 1.31046 2.4997 1.13177 1.31443 1.36138
internal_count=234 26 208 195 132 122 20 102 23 79 58 63 37 26 47 21 25 26
is_linear=0
shrinkage=0.05


Tree=50
num_leaves=16
num_cat=0
split_feature=46 47 47 46 45 25 35 3 43 48 5 45 45 2 45
split_gain=34.7426 13.87 2.05604 1.76657 1.17225 0.0102016 0.00115233 0.000490414 0.000227639 6.56199e-05 0.000130661 3.36788e-05 2.44378e-05 3.42043e-05 1.5736e-06
threshold=0.62832158161253837 1.2898073249805229 0.56441192717192723 1.19185220876623 -1.0432743300293918 1.0000000180025095e-35 1.0000000180025095e-35 1.0000000180025095e-35 0.15167621098142162 0.20591621955991044 1.0000000180025095e-35 0.038520311133808112 -0.32207792389205697 1.0000000180025095e-35 0.038520311133808112
decision_type=2 2 2 2 2 2 2 2 2 2 2 2 2 2 2
left_child=2 3 6 8 -3 -5 7 9 -2 11 -11 12 -1 -14 -12
right_child=1 4 -4 5 -6 -7 -8 -9 -10 10 14 -13 13 -15 -16
leaf_value=-0.048346779251501354 0.045558343523647772 -0.050939256822229585 0.01046949549100043 0.080997522406794462 0.0006015323061957208 0.077764432523519236 -0.049408492030463401 -0.04891634692846028 0.046173655946193895 -0.047734330473918202 -0.048300168142448724 -0.048434060315184803 -0.047946391761382413 -0.048260066011418107 -0.048229024764688468
leaf_weight=2.5668956041336113 3.2484333068132445 2.8019159436225891 1.5958008319139469 6.574307382106781 1.8196672499179829 3.8798234462738037 2.9342485070228568 3.0068172663450232 2.7976669371128082 1.8525992706418026 1.5628621429204941 2.8791470229625702 1.3608200848102607 2.4051099717617035 1.5462539494037628
leaf_count=18 15 16 9 22 9 13 19 20 10 14 11 20 10 17 11
internal_value=0 0.0459124 -0.0441588 0.0673558 -0.030646 0.0797976 -0.0484928 -0.0483364 0.0458431 -0.0482133 -0.0480667 -0.0482923 -0.0482278 -0.0481467 -0.0482648
internal_weight=0 21.1218 21.7106 16.5002 4.62158 10.4541 20.1148 17.1805 6.0461 14.1737 4.96172 9.21197 6.33283 3.76593 3.10912
internal_count=234 85 149 60 25 35 140 121 25 101 36 65 45 27 22
is_linear=0
shrinkage=0.05


Tree=51
num_leaves=18
num_cat=0
split_feature=35 22 48 48 42 45 40 4 45 43 47 44 43 43 43 43 44
split_gain=17.5827 17.4784 2.65222 5.64563 1.73334 1.61252 0.000616464 9.90417e-05 6.5097e-05 0.0002717 4.25684e-05 3.49889e-05 2.01453e-05 1.61638e-05 8.8083e-06 2.48264e-06 1.10689e-06
threshold=1.0000000180025095e-35 1.0000000180025095e-35 -0.44306692186205471 -0.90662630859202975 1.0000000180025095e-35 -0.80287552798361361 1.0000000180025095e-35 1.0000000180025095e-35 0.63951728429105625 -0.42481670474064953 -0.40278193657286659 1.0000000180025095e-35 -1.3472053698959632 1.765856375003221 -1.1166082036071348 0.8434677098479072 0.77706098335779361
decision_type=2 2 2 2 2 2 2 2 2 2 2 2 2 2 2 2 2
left_child=1 2 3 5 -5 6 7 14 9 11 13 -4 -3 -10 -1 16 -12
right_child=-2 12 8 4 -6 -7 -8 -9 10 -11 15 -13 -14 -15 -16 -17 -18
leaf_value=-0.047393099283183478 0.081815114112674336 0.058689479016768444 -0.047730924319247754 -0.00043489815172473111 0.058310047540610858 0.0045991971203291227 -0.048596339234364655 -0.047912968647056964 -0.047844407209419133 -0.048384409894679334 -0.047417924983908087 -0.04742084370096511 0.058862856578132519 -0.047603184087513246 -0.047553354050652169 -0.047519278192684117 -0.047479688642729972
leaf_weight=1.5292025953531245 5.6926416456699362 3.0048197656869888 1.729765832424164 2.7444036453962335 2.3148220777511597 1.781128242611884 2.4609949737787247 2.1761133968830109 1.3405900150537473 1.4132559597492216 1.6585604175925273 1.9190405905246732 3.787004441022872 1.440854012966156 1.9519451111555102 1.814295634627342 1.2893063277006149
leaf_count=12 19 11 13 16 8 10 17 16 10 10 13 15 14 11 15 14 10
internal_value=0 -0.0130592 -0.0307619 -0.0165242 0.0264435 -0.0384835 -0.0479357 -0.0476484 -0.0476571 -0.0477958 -0.047564 -0.0475678 0.0587862 -0.0477194 -0.047483 -0.0474733 -0.0474449
internal_weight=0 34.3561 27.5643 14.9586 5.05923 9.89938 8.11826 5.65726 12.6057 5.06206 7.54361 3.64881 6.79182 2.78144 3.48115 4.76216 2.94787
internal_count=234 215 190 94 24 70 60 43 96 38 58 28 25 21 27 37 23
is_linear=0
shrinkage=0.05


Tree=52
num_leaves=16
num_cat=0
split_feature=44 43 3 44 44 47 31 0 48 44 44 48 45 45 0
split_gain=28.255 22.1719 16.0449 0.325691 0.119304 0.0156623 0.00148929 0.00146107 0.000977427 0.000215014 0.000108952 0.000112929 0.000192754 7.84734e-05 2.69764e-05
threshold=-0.16538933637718142 0.49757196041466434 1.0000000180025095e-35 1.0000000180025095e-35 0.77706098335779361 -0.40278193657286659 1.0000000180025095e-35 1.0000000180025095e-35 -1.7101292455906534 1.2797011538831129 -0.73085952821816658 -0.90662630859202975 1.0000000180025095e-35 -0.80287552798361361 1.0000000180025095e-35
decision_type=2 2 2 2 2 2 2 2 2 2 2 2 2 2 2
left_child=6 2 3 -2 5 7 8 -5 -1 -3 11 14 -13 -12 -10
right_child=1 9 -4 4 -6 -7 -8 -9 10 -11 13 12 -14 -15 -16
leaf_value=-0.050650849513700441 0.058118412806802959 -0.050170359986579732 -0.050806155181399054 0.075548365046820623 0.065844046965064046 0.078678715548200481 -0.050843560786453704 0.074132829252665594 -0.04944962308679339 -0.04960092670186679 -0.049408472077574449 -0.048740748604181872 -0.049430591596999363 -0.049854349230230542 -0.049719743055611158
leaf_weight=2.0712297558784494 4.1257864534854987 2.9986927360296241 3.1634278893470755 4.1529321968555504 3.5109315216541281 4.4569185972213674 3.1462987512350074 3.2491315007209778 1.9096934199333182 3.7072059065103531 1.5838846564292905 1.4873584806919087 3.1724624782800674 2.6177257895469674 1.7912798970937729
leaf_count=12 14 18 18 14 12 15 18 11 12 23 10 10 20 16 11
internal_value=0 0.0300081 0.0536435 0.0705918 0.0739401 0.076337 -0.0498567 0.074927 -0.0496445 -0.0498556 -0.0494786 -0.0493742 -0.0492104 -0.0496863 -0.0495804
internal_weight=0 29.365 22.6591 19.4957 15.3699 11.859 17.7799 7.40206 14.6336 6.7059 12.5624 8.36079 4.65982 4.20161 3.70097
internal_count=234 125 84 66 52 40 109 25 91 41 79 53 30 26 23
is_linear=0
shrinkage=0.05


Tree=53
num_leaves=15
num_cat=0
split_feature=44 43 9 48 44 46 44 7 44 0 43 44 48 43
split_gain=55.5677 0.0280023 0.000260547 0.000241491 0.000100177 0.000318767 0.000165157 6.39651e-05 1.97854e-05 1.09808e-05 1.99278e-05 1.01625e-05 5.1302e-05 1.54433e-06
threshold=1.028381068620454 1.5352592087143926 1.0000000180025095e-35 -1.7101292455906534 -0.47953944295550643 1.0000000180025095e-35 0.65140076417830439 1.0000000180025095e-35 1.0000000180025095e-35 1.0000000180025095e-35 -0.19421953845182102 -0.73085952821816658 -0.90662630859202975 0.15167621098142162
decision_type=2 2 2 2 2 2 2 2 2 2 2 2 2 2
left_child=2 -2 3 -1 7 8 -7 11 -6 10 -10 12 -5 -13
right_child=1 -3 -4 4 5 6 -8 -9 9 -11 -12 13 -14 -15
leaf_value=-0.047292358765390952 0.089041957643506947 0.08417617754126161 -0.047360313095316339 -0.046535870449929441 -0.046721208805924827 -0.047463090122791839 -0.046777324764449194 -0.046740737044704661 -0.046672559882591669 -0.046390530710549369 -0.046450373952754906 -0.046481700919088681 -0.046147326395379759 -0.046559167964912593
leaf_weight=1.6097516268491769 6.5364929735660535 5.3992601633071899 1.6321046724915493 2.2482408881187443 1.5048466920852659 1.8965671434998514 1.634772293269634 2.5492037609219551 1.9377458244562173 1.3152588084340093 2.1059415489435169 1.3358961418271103 1.3655830845236776 1.2409973219037054
leaf_count=13 22 18 13 20 13 15 14 22 17 12 19 12 13 11
internal_value=0 0.0868409 -0.046752 -0.0467042 -0.0466547 -0.0467596 -0.0471456 -0.0465299 -0.046561 -0.046516 -0.0465568 -0.0464431 -0.046389 -0.046519
internal_weight=0 11.9358 22.3769 20.7448 19.1351 10.3951 3.53134 8.73992 6.86379 5.35895 4.04369 6.19072 3.61382 2.57689
internal_count=234 40 194 181 168 90 29 78 61 48 36 56 33 23
is_linear=0
shrinkage=0.05


Tree=54
num_leaves=15
num_cat=0
split_feature=47 44 46 44 45 46 44 44 44 45 47 44 44 42
split_gain=20.3295 0.00311424 1.40524e-05 1.48124e-05 9.56384e-06 7.85437e-06 1.77208e-06 7.4226e-07 1.36532e-06 1.28379e-06 7.28808e-07 7.3169e-07 2.5964e-07 2.12491e-07
threshold=2.4987996546615152 -1.4219896593812071 1.0000000180025095e-35 -0.98217961348082616 -1.0432743300293918 0.62832158161253837 0.65140076417830439 0.90272102598912363 0.14876077020114348 0.63951728429105625 -1.0072781014133625 1.0000000180025095e-35 1.2797011538831129 1.0000000180025095e-35
decision_type=2 2 2 2 2 2 2 2 2 2 2 2 2 2
left_child=1 -1 7 13 -5 6 -6 8 10 -10 -3 -12 -9 -4
right_child=-2 2 3 4 5 -7 -8 12 9 -11 11 -13 -14 -15
